{
  "schema": {
    "name": "stacked_qae_bundle",
    "version": "1.0"
  },
  "timestamp": "2025-12-04 12:11:43",
  "dataset": {
    "id": "mackey_glass_tau30_n200",
    "scale_low": 0.0,
    "scale_high": 1.0,
    "window_size": 6,
    "window_step": 2,
    "split": 0.75
  },
  "run": {
    "instance_id": 1,
    "layer": 5,
    "sigma_eval": 0.2,
    "test_seed_fixed": 99123,
    "device_seed": 15045,
    "stage1_time_sec": 311,
    "stage2_time_sec": 338
  },
  "environment": {
    "device": "lightning.qubit",
    "diff_method": "adjoint",
    "interface": "autograd"
  },
  "architecture": {
    "type": "stacked",
    "n_qubits": 6,
    "n_latent": 2,
    "n_trash": 4,
    "rot": "Rxyz"
  },
  "parameters": {
    "weights_stage1": [
      [
        [
          -1.5869638562077615,
          1.5783554798454305,
          0.3009426230607767
        ],
        [
          0.0011888930223901686,
          1.4214681603452868,
          1.574070467142384
        ],
        [
          1.5902041032686107,
          1.5433997843115514,
          0.053641800142043526
        ],
        [
          0.009568091003991606,
          1.4386571263010948,
          1.6227948854173326
        ],
        [
          -0.008428521167161359,
          1.2621490079425302,
          2.148405504824938
        ],
        [
          -0.11376001316254752,
          -0.08936981329903353,
          0.046252226891980115
        ]
      ],
      [
        [
          -1.2696807630685896,
          -0.31451831371222994,
          0.1177067947017339
        ],
        [
          -1.3318455627446955,
          -0.425951301345789,
          1.5755492536353501
        ],
        [
          1.5456180750879338,
          0.6242842121401494,
          1.556131055384108
        ],
        [
          0.8546469282068212,
          -0.08426958584021475,
          0.5592264959172989
        ],
        [
          -1.502934138266796,
          -0.02277784211672584,
          0.12758420458045416
        ],
        [
          -1.6237727241311868,
          0.05457446900412683,
          1.6247721372187107
        ]
      ],
      [
        [
          0.7208416548299873,
          -0.004615074448729176,
          0.7300758711284867
        ],
        [
          0.8191534398598015,
          -0.0007578938402342148,
          0.8169215399229794
        ],
        [
          -0.30926629840007086,
          -1.5453610186966993,
          -0.038673030256067054
        ],
        [
          0.13965544507912936,
          -0.0030556162190415745,
          0.3000864334275691
        ],
        [
          0.900319917523707,
          -0.002159867561186664,
          0.9711479362406255
        ],
        [
          1.1094217347228514,
          -1.477425237566231,
          0.08124119199456402
        ]
      ],
      [
        [
          0.22416279756120305,
          -0.018348518545197288,
          -0.8482903352598499
        ],
        [
          0.8934863890483021,
          -0.7981224213696346,
          2.528211903168653
        ],
        [
          -0.030138777078660674,
          -1.5869288414429035,
          0.1518484270694348
        ],
        [
          1.4732466746880377,
          0.05848729392789789,
          0.1842501289934404
        ],
        [
          -0.5313698493706551,
          0.001014482743528286,
          1.580013414176314
        ],
        [
          1.6200498437535793,
          0.22518073792271553,
          -0.027155936014045312
        ]
      ],
      [
        [
          1.2336099181865916,
          -0.005021991350664877,
          0.2020959415168918
        ],
        [
          0.0804965225001063,
          0.009394032793054417,
          0.22663161092516923
        ],
        [
          -2.0911098444518017,
          0.008724531661686939,
          0.1751760781563502
        ],
        [
          -0.017121156283490032,
          -0.060578951570363054,
          0.032247137462666
        ],
        [
          -0.04249159578009033,
          -0.3921062120081043,
          0.025841451997580374
        ],
        [
          0.680457856204137,
          -0.005970621817291659,
          0.08587269026979556
        ]
      ]
    ],
    "weights_stage2": [
      [
        [
          -1.4687908416071362,
          1.9205760593809065,
          -0.4267511913734574
        ],
        [
          -0.15112311253814073,
          1.5127052101675558,
          1.4799599554885283
        ],
        [
          -3.2028254122002826,
          1.5422921841156159,
          0.4182484695487859
        ],
        [
          -0.3729875693333823,
          1.632783430955608,
          1.3907908094877597
        ],
        [
          1.4479876516123193,
          1.4093053044174277,
          4.43374310311158
        ],
        [
          -1.1853404112693555,
          -0.47227872349317795,
          -0.839732791223229
        ]
      ],
      [
        [
          -1.5419473376816195,
          -0.4405174928238737,
          1.0702063558034942
        ],
        [
          -1.7266911058756431,
          -0.6858218030535266,
          2.949263041086965
        ],
        [
          1.4474072561888203,
          0.9412774389021327,
          1.1694160614509908
        ],
        [
          -0.4779656580122764,
          0.05470809591517866,
          0.49916873683308816
        ],
        [
          -1.6119791160243888,
          0.15297138193211873,
          1.716098253610667
        ],
        [
          -2.064830798567119,
          0.16734368222244259,
          2.3238142057052316
        ]
      ],
      [
        [
          -2.247056706856307,
          -0.078820038705095,
          -1.4293634777515536
        ],
        [
          1.6823383712789846,
          0.05030759522328044,
          1.7521049830935216
        ],
        [
          -1.3581404726402229,
          -1.5890549369962204,
          0.2974053516800396
        ],
        [
          -0.0008535034001433757,
          -0.04544102499032433,
          0.7746919462588943
        ],
        [
          0.6699745687907892,
          -0.13820690096648222,
          0.6087372435538493
        ],
        [
          1.4123683375401057,
          -1.5373429901381068,
          0.03625972948191266
        ]
      ],
      [
        [
          0.6987683103925275,
          0.2579618024061491,
          -0.6902537748263677
        ],
        [
          0.5310756963615287,
          -0.8177238520056338,
          3.028240219002429
        ],
        [
          -0.07512023959131141,
          -1.455852249181932,
          0.9593696698228088
        ],
        [
          0.7053869842626342,
          0.12253695048668677,
          -0.45108461887642937
        ],
        [
          0.6432170052877102,
          0.01916396479305483,
          2.2336121491048146
        ],
        [
          -1.3060509487362002,
          3.2884235966261,
          0.22689613789753219
        ]
      ],
      [
        [
          0.5189424075604288,
          -0.007932043471965067,
          0.2904309869729313
        ],
        [
          -0.2316538978147324,
          -0.48536094641015,
          0.51083448665763
        ],
        [
          -1.0398972572120098,
          0.0028240076284935084,
          0.17517607742948682
        ],
        [
          -0.017121158205787003,
          -0.06057895283938848,
          0.032247135773594
        ],
        [
          -0.04249159821000031,
          -0.3921062133709552,
          0.025841449501771346
        ],
        [
          1.2829285154382182,
          -0.09285956448256283,
          -1.3039313776433081
        ]
      ]
    ]
  },
  "metrics": {
    "stage1_min_cost": 0.16215117724593978,
    "stage2_min_cost": 0.12028435865328815,
    "mse_train_noise": 0.04208329887417109,
    "mse_train_recovered": 0.027825249384716155,
    "delta_train_pct": 33.88054138076592,
    "mse_test_noise": 0.03574197205136823,
    "mse_test_recovered": 0.017875144122636664,
    "delta_test_pct": 49.98836634714343,
    "mse_train_recovered_pure": 0.01656878087869158,
    "mse_test_recovered_pure": 0.011847339071288378
  },
  "artifacts": {
    "weights_s1_file": "weights_s1_inst01_L5.npy",
    "weights_s2_file": "weights_s2_inst01_L5.npy",
    "circuit_stage1": "circuit_stage1_6q_2l_4t_stacked_L5_inst01.eps",
    "circuit_stage2": "circuit_stage2_6q_2l_4t_stacked_L5_inst01.eps",
    "circuit_full": "circuit_full_6q_2l_4t_stacked_L5_inst01.eps",
    "training_cost_s1_plot": "training_cost_s1_inst01_L5.eps",
    "training_cost_s2_plot": "training_cost_s2_inst01_L5.eps",
    "reconstruction_pure_plot": "reconstruction_pure_inst01_L5.eps",
    "reconstruction_noisy_plot": "reconstruction_noisy_inst01_L5.eps"
  }
}