{
  "schema": {
    "name": "full_qae_bundle",
    "version": "1.0"
  },
  "timestamp": "2025-09-16 15:28:46",
  "dataset": {
    "id": "mackey_glass_tau30_n200",
    "scale_low": 0.2,
    "scale_high": 0.8,
    "window_size": 6,
    "window_step": 2,
    "split": 0.75
  },
  "run": {
    "instance_id": 2,
    "layer": 3,
    "sigma_eval": 0.2,
    "test_seed_fixed": 99123
  },
  "environment": {
    "device": "default.qubit",
    "diff_method": "best",
    "reset_mode": "swap"
  },
  "architecture": {
    "n_qubits": 6,
    "n_latent": 4,
    "n_trash": 2,
    "n_extra": 0,
    "rot": "Rxyz"
  },
  "parameters": {
    "weights": [
      [
        [
          -0.13461271219940973,
          0.16153910524617862,
          0.20635771934524233
        ],
        [
          1.2987860512656708,
          1.5677833397987617,
          -1.5008417458329395
        ],
        [
          0.6728944564465918,
          -0.6447233897419796,
          -0.1365197771340637
        ],
        [
          -0.4023534781857048,
          -0.9794836649936569,
          -2.2482695153917045
        ],
        [
          -0.004434868406818285,
          -0.7947492059068425,
          0.4675580926106674
        ],
        [
          -0.06129913017999671,
          0.42151654413954875,
          1.25100272691115
        ]
      ],
      [
        [
          -0.16282982420007308,
          -0.16290190109183703,
          0.2786088827553579
        ],
        [
          2.067067874564256,
          0.7875221678290327,
          0.9424669847760597
        ],
        [
          -0.9963587327596312,
          -0.8580756812922556,
          -1.2030549229306173
        ],
        [
          -1.1428513497330162,
          -0.12279270788805285,
          0.5635544209750719
        ],
        [
          0.5292786691768621,
          -0.015328264666998315,
          0.1412120513091194
        ],
        [
          -0.511687945885998,
          -0.4748975894810677,
          0.19835286692397133
        ]
      ],
      [
        [
          -0.13906361933591013,
          -0.09410435994197888,
          -0.6765801573161324
        ],
        [
          -0.6341082287860937,
          0.11131917125923954,
          -0.6084019099682267
        ],
        [
          -0.11413237859656171,
          0.2543523189740181,
          0.0806464026061165
        ],
        [
          0.2027615211716307,
          -0.018374349614523607,
          -0.4234552394240824
        ],
        [
          0.3151433244276387,
          0.4023709887546064,
          0.3374761929583446
        ],
        [
          -0.03592496390503909,
          0.2430261572592013,
          -0.12813021594398438
        ]
      ],
      [
        [
          0.15663317863319237,
          -1.3606293389784123,
          -0.9951976392817076
        ],
        [
          0.20635653593106695,
          0.029453144263602096,
          0.0004088842553628758
        ],
        [
          0.09381098862172078,
          0.00022495430931176736,
          1.6665944133169213
        ],
        [
          0.21079357567609383,
          0.002588092342963026,
          1.4792337135059213
        ],
        [
          0.04039160918386771,
          -1.1262338855054015,
          -1.5725830928378093
        ],
        [
          0.25267090938812264,
          1.1836285348919118,
          -0.0024453940242228443
        ]
      ],
      [
        [
          -0.58555797298623,
          0.011247817683984048,
          0.10021917840832949
        ],
        [
          1.2951819675044696,
          -0.0033732049717072835,
          1.137935287943113
        ],
        [
          0.6692792710845912,
          -0.011616857126742324,
          0.35088365085651
        ],
        [
          -0.38767254826470854,
          0.009498766945614533,
          -0.5474939394636945
        ],
        [
          1.5490679267105216,
          1.1170631017203385,
          0.017781047673925715
        ],
        [
          -0.12390086652323971,
          0.0005799014620854817,
          -0.19217365418804846
        ]
      ],
      [
        [
          0.1054614664749839,
          0.5166484548028413,
          0.9187706087683323
        ],
        [
          0.18973727220773376,
          0.057409493268087516,
          0.043036843069085125
        ],
        [
          0.1573706035333856,
          0.0002890533299390379,
          0.2614995020600608
        ],
        [
          -1.1463195670488628,
          -0.021917201970504667,
          0.7136228998321296
        ],
        [
          0.15906341004729294,
          0.0424731110878643,
          0.2659075083740596
        ],
        [
          -0.08338996207825411,
          0.0014254051266672937,
          0.20643205348118335
        ]
      ]
    ]
  },
  "metrics_series": {
    "mse_train_noise": 0.019067164300121137,
    "mse_train_recovered": 0.006441218600807106,
    "delta_train_pct": 66.2182666524451,
    "mse_test_noise": 0.01895794215292774,
    "mse_test_recovered": 0.005291405439845446,
    "delta_test_pct": 72.08871407475903
  }
}