{
  "schema": {
    "name": "sidekick_qae_bundle",
    "version": "1.0"
  },
  "timestamp": "2025-12-05 12:59:02",
  "dataset": {
    "id": "mackey_glass_tau30_n200",
    "scale_low": 0.0,
    "scale_high": 1.0,
    "window_size": 6,
    "window_step": 2,
    "split": 0.75
  },
  "run": {
    "instance_id": 3,
    "layer": 5,
    "sigma_eval": 0.2,
    "test_seed_fixed": 99123,
    "device_seed": 15047,
    "stage1_time_sec": 295,
    "stage2_time_sec": 535
  },
  "environment": {
    "device": "lightning.qubit",
    "diff_method": "adjoint",
    "interface": "autograd"
  },
  "architecture": {
    "type": "sidekick",
    "n_qubits": 6,
    "n_latent": 2,
    "n_trash": 4,
    "rot": "Rxyz"
  },
  "parameters": {
    "weights_stage1": [
      [
        [
          1.570538653277294,
          -1.569488472947894,
          0.19950812265532608
        ],
        [
          0.02421788684105294,
          -0.12100173632404113,
          1.546955129952851
        ],
        [
          -0.003795836601049021,
          1.647263167664052,
          3.1395630339543437
        ],
        [
          -1.575212269146792,
          1.5637014277718773,
          -0.04388372019775068
        ],
        [
          -0.38555270205572606,
          -0.05195398726180178,
          -1.198530609094078
        ],
        [
          1.570644760354345,
          -1.5706350168380143,
          -1.3923997123747271
        ]
      ],
      [
        [
          -0.36040272739016443,
          0.0011576325299515518,
          0.36032004987498073
        ],
        [
          -1.7840024962356134,
          1.1256664055384282,
          -0.1483489177256239
        ],
        [
          -1.6733250783468627,
          0.0026653420915722695,
          0.03394330996968436
        ],
        [
          1.5699703410539012,
          -0.4565892437386129,
          -0.0007051997620510971
        ],
        [
          0.7173092885298689,
          -0.004344628620437671,
          -0.7177818356993604
        ],
        [
          -0.6778365631569104,
          -0.025605320306798744,
          0.6785049737188413
        ]
      ],
      [
        [
          -0.8968610230916608,
          -1.3655434978016767,
          -0.9473260900200141
        ],
        [
          -0.08970743940035374,
          0.09437335108205634,
          -0.3433439024434748
        ],
        [
          0.4877156469641478,
          0.00301187001717391,
          1.08536010203709
        ],
        [
          -0.008330925606631097,
          -1.5695859930108234,
          0.18396177115107745
        ],
        [
          -0.022212804893470047,
          1.5710698982694793,
          -0.17446821662077944
        ],
        [
          -0.014166880154821527,
          0.10014249378791451,
          0.92170536456397
        ]
      ],
      [
        [
          0.34203667052780673,
          -0.00036980923796552323,
          0.11445367055508635
        ],
        [
          -0.2752127901422466,
          0.0021826820496683302,
          -1.1201784187771184
        ],
        [
          0.6633576935194598,
          1.5471482697444356,
          -0.9952790123635616
        ],
        [
          -1.5828481919389492,
          0.37093271282931606,
          0.013111070044616006
        ],
        [
          -0.010415309945704597,
          1.5763897902036976,
          -0.7027805243348348
        ],
        [
          0.986395250692005,
          -0.0683251801591365,
          0.05496747463080221
        ]
      ],
      [
        [
          -1.1943363355289918,
          -0.04675790848798803,
          0.2965038115345497
        ],
        [
          0.025552425640479007,
          0.16554704204582324,
          0.16794705461436826
        ],
        [
          -0.5600485232647674,
          0.038024170902234214,
          0.07241386079545815
        ],
        [
          0.6154172493058863,
          1.569979957969655,
          0.30209476370364097
        ],
        [
          -0.43801432222238773,
          -0.0023201687068926543,
          0.252131940593167
        ],
        [
          1.1814958785094332,
          0.06510189044183659,
          0.24945602083657806
        ]
      ]
    ],
    "weights_stage2": [
      [
        [
          1.6213876898315784,
          -1.6049885173373752,
          0.32077429569694715
        ],
        [
          0.04464146181294415,
          0.07150022917258993,
          1.5872102622013915
        ],
        [
          0.00542750103062079,
          1.5195304433976977,
          3.258850553453115
        ],
        [
          -1.6639946401002894,
          1.5261108064473479,
          -0.23982229383475115
        ],
        [
          -2.9415433255854233,
          -1.9811946542305543,
          -1.5349743896020627
        ],
        [
          1.2892266756367872,
          -0.8809804529665166,
          -1.0971771700567559
        ]
      ],
      [
        [
          -1.5875054405244482,
          0.5898973254570586,
          1.5255121125420508
        ],
        [
          -2.520604857248685,
          1.6151949833153567,
          0.12138717652412946
        ],
        [
          -1.6407923437011187,
          -0.02908447465744638,
          -0.12396756564474483
        ],
        [
          0.002440372562457909,
          -1.630809593754232,
          -0.18302404529762029
        ],
        [
          0.0453905813938188,
          -1.5707698821141034,
          -0.509435303095721
        ],
        [
          -1.6398049446472016,
          0.04100484616050041,
          1.658680813134148
        ]
      ],
      [
        [
          -1.59013575119237,
          -1.6448345139709177,
          -3.0066902512043394
        ],
        [
          0.24803116220585417,
          0.05389691612524157,
          -0.3033805898839586
        ],
        [
          0.32370166264481326,
          -0.061995912342380166,
          1.2319029392501424
        ],
        [
          6.17246970298885,
          -1.541472281981862,
          -0.6844505797696416
        ],
        [
          0.011086224635987591,
          1.56749813642927,
          -0.32466137854646826
        ],
        [
          -0.042489030531796555,
          0.08223644337804856,
          0.9269398008448518
        ]
      ],
      [
        [
          -0.5263756803929076,
          -0.014871607649348735,
          -0.4311754931638728
        ],
        [
          -0.4254059520679383,
          -0.005003881428482059,
          -0.8145687792422694
        ],
        [
          0.668592129800343,
          1.5670265607224085,
          -0.8254054642249473
        ],
        [
          -1.7702652137044679,
          0.034418347428106344,
          0.19568432908566152
        ],
        [
          -0.04079953251633255,
          1.5688511039241357,
          -1.3974248659993946
        ],
        [
          1.3065069549931558,
          0.00477262249788677,
          0.3190370446961791
        ]
      ],
      [
        [
          -1.035676706164284,
          -0.03120139230405388,
          1.027152454423568
        ],
        [
          0.2563800537381854,
          0.03981318793283169,
          -0.19703516498196932
        ],
        [
          -1.9329394965596747,
          0.006092417711897481,
          0.07241386092072714
        ],
        [
          0.6154172496015605,
          1.5699799569423454,
          0.30209476618404923
        ],
        [
          -0.4380143210441298,
          -0.002320168098063921,
          0.2521319363679454
        ],
        [
          1.690435179660154,
          9.455177595153142,
          1.5027707505512662
        ]
      ]
    ]
  },
  "metrics": {
    "stage1_min_cost": 0.15077329298272127,
    "stage2_min_cost": 0.20479710547990357,
    "mse_train_noise": 0.04208329887417109,
    "mse_train_recovered": 0.02957580899746262,
    "delta_train_pct": 29.720792360185012,
    "mse_test_noise": 0.03574197205136823,
    "mse_test_recovered": 0.03036906188996319,
    "delta_test_pct": 15.032494999669066,
    "mse_train_recovered_pure": 0.014075337743401061,
    "mse_test_recovered_pure": 0.01633986727343007
  },
  "artifacts": {
    "weights_s1_file": "weights_s1_inst03_L5.npy",
    "weights_s2_file": "weights_s2_inst03_L5.npy",
    "circuit_stage1": "circuit_stage1_6q_2l_4t_sidekick_L5_inst03.eps",
    "circuit_stage2": "circuit_stage2_6q_2l_4t_sidekick_L5_inst03.eps",
    "circuit_full": "circuit_full_6q_2l_4t_sidekick_L5_inst03.eps",
    "training_cost_s1_plot": "training_cost_s1_inst03_L5.eps",
    "training_cost_s2_plot": "training_cost_s2_inst03_L5.eps",
    "reconstruction_pure_plot": "reconstruction_pure_inst03_L5.eps",
    "reconstruction_noisy_plot": "reconstruction_noisy_inst03_L5.eps"
  }
}