{
  "schema": {
    "name": "stacked_qae_bundle",
    "version": "1.0"
  },
  "timestamp": "2025-12-04 05:29:14",
  "dataset": {
    "id": "mackey_glass_tau30_n200",
    "scale_low": 0.0,
    "scale_high": 1.0,
    "window_size": 6,
    "window_step": 2,
    "split": 0.75
  },
  "run": {
    "instance_id": 5,
    "layer": 5,
    "sigma_eval": 0.2,
    "test_seed_fixed": 99123,
    "device_seed": 15049,
    "stage1_time_sec": 331,
    "stage2_time_sec": 329
  },
  "environment": {
    "device": "lightning.qubit",
    "diff_method": "adjoint",
    "interface": "autograd"
  },
  "architecture": {
    "type": "stacked",
    "n_qubits": 6,
    "n_latent": 4,
    "n_trash": 2,
    "rot": "Rxyz"
  },
  "parameters": {
    "weights_stage1": [
      [
        [
          -0.0002585439490603333,
          1.2116753752569631,
          0.013775104226140084
        ],
        [
          -0.13005130487702404,
          0.0779442227363404,
          1.7056915146015252
        ],
        [
          1.5832888497219786,
          -1.5877611331370813,
          -0.14248062765539415
        ],
        [
          0.9226527409866873,
          -0.051475941310313265,
          0.6560025689013411
        ],
        [
          -0.0021486108939629224,
          1.4115561126145169,
          -0.01747766240461401
        ],
        [
          -0.00582363680904263,
          1.5176460712392998,
          1.5581873975551142
        ]
      ],
      [
        [
          0.22588672273695282,
          -0.015405750025103467,
          1.4091117289167283
        ],
        [
          -1.568771893944329,
          -0.6084339819565688,
          1.5472410353979629
        ],
        [
          -1.266493019208791,
          0.6814303709333992,
          0.8801284619255272
        ],
        [
          -1.6311570758392822,
          -0.19321075511977132,
          1.632319293297432
        ],
        [
          -1.5847619494272094,
          0.3600235323853354,
          1.5715922307416255
        ],
        [
          0.1747794502050739,
          0.000993490454574258,
          -0.22243172514704207
        ]
      ],
      [
        [
          0.058446479771409966,
          -0.03527960219303409,
          -0.05431184869903844
        ],
        [
          -0.35247986477208787,
          0.0039023943792854754,
          0.3702289445575111
        ],
        [
          0.013951783143944747,
          1.595809923569333,
          0.003255126416309232
        ],
        [
          -0.3557363823791932,
          -0.007541313368001503,
          -0.01755567730995668
        ],
        [
          0.144681502713456,
          -0.06134206378111956,
          -0.43922828251673723
        ],
        [
          0.02448161923978164,
          1.5540552994660028,
          0.0640654950196835
        ]
      ],
      [
        [
          -0.11195252407540474,
          1.0066197486497481,
          1.627650869746272
        ],
        [
          -0.24155441174378395,
          0.005993316621970859,
          1.9080036467915
        ],
        [
          -0.10844621748414335,
          0.023968020809178748,
          0.04401754112159927
        ],
        [
          -0.9388744450395535,
          0.0013917670389272038,
          -0.13086058808595089
        ],
        [
          0.13160226257681756,
          -0.00015247466832616662,
          1.1070915877640815
        ],
        [
          0.6334852236355724,
          -0.024772299674097185,
          0.22851775818048858
        ]
      ],
      [
        [
          -1.7488211179875732,
          0.07610197057556929,
          0.14636392231429318
        ],
        [
          0.09050381598190771,
          0.21116681939807905,
          0.30828942091849754
        ],
        [
          0.19070511950725386,
          0.2519118131893425,
          0.006629029930524769
        ],
        [
          0.09409436289856113,
          0.07519428221768844,
          0.28110233924181083
        ],
        [
          1.5666868457928123,
          1.5974652910523006,
          0.11450016700630812
        ],
        [
          -1.9957378404501736,
          -0.031730690265962244,
          0.09285068285472875
        ]
      ]
    ],
    "weights_stage2": [
      [
        [
          -1.254370380130729,
          0.6497080535727608,
          -0.31681230564768526
        ],
        [
          -1.595114659877869,
          0.044885895306971534,
          3.3338279125127803
        ],
        [
          1.4188897105690665,
          -1.4981887125836322,
          -0.22044114569471435
        ],
        [
          0.5136940387058212,
          0.05616662092013544,
          0.6240393153503867
        ],
        [
          0.13856474888862433,
          1.3739922141882228,
          0.3036167421355011
        ],
        [
          0.19516366269678792,
          1.5501745268617673,
          1.95805553413871
        ]
      ],
      [
        [
          1.5258347231757043,
          -0.07856558493526258,
          -0.03336406014882998
        ],
        [
          -1.790399722129124,
          -0.7039937091603108,
          1.307308295007008
        ],
        [
          -1.3103909259650348,
          0.7971878665276373,
          0.9408027267501661
        ],
        [
          -1.2094035990527274,
          -0.39041135471316984,
          1.236185201690554
        ],
        [
          -1.6095416469324892,
          0.5027827317326853,
          1.4175881300225144
        ],
        [
          -0.1455226926219371,
          -0.028170295399653676,
          0.040084382818137386
        ]
      ],
      [
        [
          0.40623349152316823,
          -0.07367283453958347,
          -0.2629538221481143
        ],
        [
          -0.1859879226276711,
          0.1644475471673567,
          0.03052414561749249
        ],
        [
          0.07533226634383852,
          1.2618409984746213,
          -0.014041797267954483
        ],
        [
          -0.3232606329528666,
          0.08549958896086648,
          0.04186091876529503
        ],
        [
          -0.054375419162332295,
          -0.23619096307839307,
          -0.30458269286045314
        ],
        [
          0.23375746092845287,
          1.7131172120292315,
          0.2458886086101873
        ]
      ],
      [
        [
          -0.052535928000154,
          0.6105709928279724,
          1.6417957408138295
        ],
        [
          -0.10690882208749958,
          0.11113847197931495,
          1.9210552787841362
        ],
        [
          0.07337689610636156,
          0.05647916558121024,
          -0.3384377436210357
        ],
        [
          0.06693474572071217,
          -0.24946293141057554,
          -1.068857399158742
        ],
        [
          0.31849032133805366,
          -0.04432598666780472,
          0.8978216986230265
        ],
        [
          -0.302366766638819,
          -0.17106011515049935,
          0.6044550701136044
        ]
      ],
      [
        [
          -1.7644210146118524,
          0.17379244019169568,
          0.9715645133496673
        ],
        [
          -0.8393394438448968,
          0.4002758726508371,
          1.1671361108970244
        ],
        [
          0.5402033112185811,
          0.296861874746239,
          -0.2256039920644547
        ],
        [
          0.8271714861527708,
          0.1212876918553917,
          -0.2896897782682323
        ],
        [
          1.7934941414286334,
          1.4826414341010457,
          0.11450016569404389
        ],
        [
          -1.05992326542799,
          -2.4031886777648315,
          -1.417368740289246
        ]
      ]
    ]
  },
  "metrics": {
    "stage1_min_cost": 0.07517431767539304,
    "stage2_min_cost": 0.0720157397564276,
    "mse_train_noise": 0.04208329887417109,
    "mse_train_recovered": 0.022365374184481344,
    "delta_train_pct": 46.854512876108565,
    "mse_test_noise": 0.03574197205136823,
    "mse_test_recovered": 0.01790284592120626,
    "delta_test_pct": 49.910861394339534,
    "mse_train_recovered_pure": 0.006651149611486734,
    "mse_test_recovered_pure": 0.005221605339461013
  },
  "artifacts": {
    "weights_s1_file": "weights_s1_inst05_L5.npy",
    "weights_s2_file": "weights_s2_inst05_L5.npy",
    "circuit_stage1": "circuit_stage1_6q_4l_2t_stacked_L5_inst05.eps",
    "circuit_stage2": "circuit_stage2_6q_4l_2t_stacked_L5_inst05.eps",
    "circuit_full": "circuit_full_6q_4l_2t_stacked_L5_inst05.eps",
    "training_cost_s1_plot": "training_cost_s1_inst05_L5.eps",
    "training_cost_s2_plot": "training_cost_s2_inst05_L5.eps",
    "reconstruction_pure_plot": "reconstruction_pure_inst05_L5.eps",
    "reconstruction_noisy_plot": "reconstruction_noisy_inst05_L5.eps"
  }
}