{
  "schema": {
    "name": "stacked_qae_bundle",
    "version": "1.0"
  },
  "timestamp": "2025-12-04 04:44:31",
  "dataset": {
    "id": "mackey_glass_tau30_n200",
    "scale_low": 0.0,
    "scale_high": 1.0,
    "window_size": 6,
    "window_step": 2,
    "split": 0.75
  },
  "run": {
    "instance_id": 1,
    "layer": 5,
    "sigma_eval": 0.2,
    "test_seed_fixed": 99123,
    "device_seed": 15045,
    "stage1_time_sec": 334,
    "stage2_time_sec": 331
  },
  "environment": {
    "device": "lightning.qubit",
    "diff_method": "adjoint",
    "interface": "autograd"
  },
  "architecture": {
    "type": "stacked",
    "n_qubits": 6,
    "n_latent": 4,
    "n_trash": 2,
    "rot": "Rxyz"
  },
  "parameters": {
    "weights_stage1": [
      [
        [
          1.5698485190180798,
          -1.5687975930936386,
          -1.511812599171255
        ],
        [
          0.02029708264293291,
          0.10918859221436505,
          -0.025261538256120535
        ],
        [
          -0.01526425950098558,
          -0.2742267199677808,
          1.584507704492039
        ],
        [
          -1.5688935787409548,
          1.572188292583219,
          1.516592218892569
        ],
        [
          -0.010350679305532412,
          0.6853552111891374,
          -1.5603491548866442
        ],
        [
          2.9000815290272772,
          0.4821794400196636,
          -1.3609310395313057
        ]
      ],
      [
        [
          0.12046657720391454,
          -0.0017099629776074125,
          -0.11853942301903893
        ],
        [
          -0.2828199593270855,
          -0.02503507325841619,
          0.8958017503065239
        ],
        [
          1.5939588774444797,
          -0.6693636795158583,
          -1.5361517937228188
        ],
        [
          -1.5641502498865911,
          0.3152917027472088,
          1.5669352913875836
        ],
        [
          1.8706921375842267,
          -0.045372891739019774,
          -0.30575159633573457
        ],
        [
          1.5514149595532665,
          -1.0157904394838795,
          0.013767102243778131
        ]
      ],
      [
        [
          0.3334977824814643,
          0.027211925965675312,
          0.18850152772009482
        ],
        [
          1.7298907942675652,
          -0.2516811958054671,
          1.6050751418632374
        ],
        [
          0.021941099049376255,
          1.3256055838281255,
          -0.0049983327677890306
        ],
        [
          0.830984186464871,
          0.04391141738544941,
          0.17373766565751866
        ],
        [
          0.24770099998985512,
          -0.0008736515883533829,
          -0.021967075039490958
        ],
        [
          -0.30767361481984,
          1.5654646537952794,
          0.05407109869604099
        ]
      ],
      [
        [
          0.09781402979114716,
          0.0007364201067243483,
          -0.5873011564818953
        ],
        [
          -0.09962862223181115,
          -0.01703421884329529,
          0.18129664405985751
        ],
        [
          -0.05730887037718407,
          -1.571336555850017,
          0.08863791776267355
        ],
        [
          -0.17175271635825265,
          -0.11439811334224081,
          -1.0760535831964095
        ],
        [
          -0.2703306574327251,
          0.6082594258804693,
          -0.0751102536432586
        ],
        [
          0.9121008392215736,
          -0.026673472323443855,
          0.2242007342906708
        ]
      ],
      [
        [
          2.1974366188060057,
          0.01693396736415826,
          0.20209594146041782
        ],
        [
          0.08049652251393935,
          0.009394032707577113,
          0.2266316109732003
        ],
        [
          0.019485877990343826,
          0.2474641587946509,
          0.17517607821885825
        ],
        [
          0.03719845336176064,
          0.030531988867563066,
          0.032247137441048776
        ],
        [
          -0.07510581811452986,
          -1.574335294292774,
          0.02584145200908699
        ],
        [
          -0.3315204230061659,
          0.038639702388221446,
          0.08587269029282996
        ]
      ]
    ],
    "weights_stage2": [
      [
        [
          1.4710300019443616,
          -1.5650174607875806,
          -1.7119761170485
        ],
        [
          0.9103967487059448,
          0.32079344257921866,
          -1.6387277833986156
        ],
        [
          -1.996594153619632,
          0.23139246702404515,
          3.2632181364208375
        ],
        [
          -0.7575490703335503,
          2.5397282945246715,
          2.1315643688201136
        ],
        [
          -0.49440399539543756,
          0.5474535985632291,
          -0.22584352382067502
        ],
        [
          2.733225889439011,
          0.5524534152410818,
          -0.7555366481092635
        ]
      ],
      [
        [
          -0.4983466724124512,
          -0.01610806311271986,
          0.29535298318331055
        ],
        [
          -0.3586590723835679,
          0.1978582823296405,
          1.2107988057916805
        ],
        [
          1.6420861780638911,
          -0.7409929742874012,
          -1.6539791935751726
        ],
        [
          -1.7764588048312677,
          0.24577086676279858,
          1.9601226520142743
        ],
        [
          1.3910897128724153,
          -0.10823022427958034,
          -0.1452174897806956
        ],
        [
          1.7727682954120132,
          -1.1011211178547564,
          -0.2625529056117854
        ]
      ],
      [
        [
          -0.31358146186618857,
          -0.09369971068955804,
          0.7997453036037986
        ],
        [
          1.486817544002831,
          -1.061894731953762,
          1.8050930984780782
        ],
        [
          -0.16569507736223044,
          1.3006629640296141,
          -0.042911590484203614
        ],
        [
          1.8909220399516888,
          0.12663263648245626,
          -0.10215193478012156
        ],
        [
          1.1573507046634532,
          -0.12378189873789457,
          -0.21604440592639806
        ],
        [
          -0.47677387109389535,
          1.4384746104881068,
          -0.010109606465405426
        ]
      ],
      [
        [
          -0.17807557064649168,
          -0.10984344636097917,
          -1.5539762348385362
        ],
        [
          -0.2937059531187166,
          -0.28602754888279686,
          -0.7480271964498795
        ],
        [
          -0.12148957553863225,
          -1.4138780583455661,
          0.13311047465701942
        ],
        [
          -0.4419991843391819,
          -0.28268392995968433,
          -0.5288137785031904
        ],
        [
          0.9410427919217226,
          0.17078431846351597,
          -0.8766513514980712
        ],
        [
          1.9456135428031622,
          0.17568336713305044,
          -0.43429281359035826
        ]
      ],
      [
        [
          0.9453600669220154,
          -0.07192778532348312,
          0.5578830857192563
        ],
        [
          -0.38078525889022546,
          0.09530377652442834,
          0.22382968479882526
        ],
        [
          -1.5583087239857873,
          1.6056463918519923,
          -0.2040049887206177
        ],
        [
          -0.6408135491509178,
          0.23607635334307953,
          0.9159515883750792
        ],
        [
          -0.030800592719109125,
          -1.6098291439828334,
          0.025841454011182027
        ],
        [
          0.2917730390674127,
          -0.04336747763909393,
          0.2829538042542231
        ]
      ]
    ]
  },
  "metrics": {
    "stage1_min_cost": 0.07643741436482085,
    "stage2_min_cost": 0.06110192733599375,
    "mse_train_noise": 0.04208329887417109,
    "mse_train_recovered": 0.020663795446928947,
    "delta_train_pct": 50.897871602904466,
    "mse_test_noise": 0.03574197205136823,
    "mse_test_recovered": 0.013978242046715003,
    "delta_test_pct": 60.8912400618927,
    "mse_train_recovered_pure": 0.006214354657256073,
    "mse_test_recovered_pure": 0.005142642995995714
  },
  "artifacts": {
    "weights_s1_file": "weights_s1_inst01_L5.npy",
    "weights_s2_file": "weights_s2_inst01_L5.npy",
    "circuit_stage1": "circuit_stage1_6q_4l_2t_stacked_L5_inst01.eps",
    "circuit_stage2": "circuit_stage2_6q_4l_2t_stacked_L5_inst01.eps",
    "circuit_full": "circuit_full_6q_4l_2t_stacked_L5_inst01.eps",
    "training_cost_s1_plot": "training_cost_s1_inst01_L5.eps",
    "training_cost_s2_plot": "training_cost_s2_inst01_L5.eps",
    "reconstruction_pure_plot": "reconstruction_pure_inst01_L5.eps",
    "reconstruction_noisy_plot": "reconstruction_noisy_inst01_L5.eps"
  }
}