{
  "schema": {
    "name": "stacked_qae_bundle",
    "version": "1.0"
  },
  "timestamp": "2025-12-04 05:18:06",
  "dataset": {
    "id": "mackey_glass_tau30_n200",
    "scale_low": 0.0,
    "scale_high": 1.0,
    "window_size": 6,
    "window_step": 2,
    "split": 0.75
  },
  "run": {
    "instance_id": 4,
    "layer": 5,
    "sigma_eval": 0.2,
    "test_seed_fixed": 99123,
    "device_seed": 15048,
    "stage1_time_sec": 338,
    "stage2_time_sec": 328
  },
  "environment": {
    "device": "lightning.qubit",
    "diff_method": "adjoint",
    "interface": "autograd"
  },
  "architecture": {
    "type": "stacked",
    "n_qubits": 6,
    "n_latent": 4,
    "n_trash": 2,
    "rot": "Rxyz"
  },
  "parameters": {
    "weights_stage1": [
      [
        [
          0.2802675747967081,
          1.1204558844697623,
          -0.10144387575834421
        ],
        [
          0.004384092809656228,
          1.404631257843286,
          1.543512073448941
        ],
        [
          0.004764424982682493,
          1.4824282098812038,
          0.007877096268863498
        ],
        [
          0.05669541015071302,
          1.3283703795698356,
          2.094746719265181
        ],
        [
          1.4237884967546033,
          1.5610297228852743,
          -0.052716899165783974
        ],
        [
          1.225804450903788,
          -0.013454521488599673,
          0.19751609526886713
        ]
      ],
      [
        [
          -1.5324674450855715,
          -0.2751034531920309,
          1.9122545715619965
        ],
        [
          -1.6582237837661882,
          -0.6337011280260967,
          1.5816252379818252
        ],
        [
          1.8407925956899776,
          0.2245628365908311,
          -0.6805684026160849
        ],
        [
          -1.5961208616266598,
          -0.12039406991645672,
          -1.1634389414310835
        ],
        [
          1.6245211538432667,
          0.7418066405214715,
          -0.07211813813002659
        ],
        [
          -1.3483874551259647,
          -0.0015123796217681724,
          1.3246131092642297
        ]
      ],
      [
        [
          1.0734244719904649,
          1.5463370419083524,
          0.02030114064099933
        ],
        [
          1.3369037111831932,
          -0.008213767261712123,
          -0.7891966638358248
        ],
        [
          0.04632165191501824,
          0.10303605463004242,
          -0.033126345432702826
        ],
        [
          1.4340006717621672,
          1.56924189813487,
          -0.11188058212797011
        ],
        [
          -0.09613382186156942,
          0.0032967714588501727,
          0.16477186739818553
        ],
        [
          -0.015007347863844368,
          1.566257074716758,
          0.01130264122374238
        ]
      ],
      [
        [
          0.10878372993092192,
          -1.568562451395159,
          0.0013035059372249157
        ],
        [
          -0.050736903925057836,
          0.7597472457905465,
          3.1320065852846173
        ],
        [
          -0.017282154222814716,
          -1.5732677419023122,
          -0.02372013159294854
        ],
        [
          0.0742767906382587,
          -0.07799401775420763,
          -0.1417473095179445
        ],
        [
          1.2766862781742854,
          -0.07236511465016938,
          1.1349712935857532
        ],
        [
          0.02720846938910931,
          -2.9023976656497656,
          0.13089299734720086
        ]
      ],
      [
        [
          2.0572970282934198,
          0.002508077371867822,
          0.3113711512058538
        ],
        [
          0.04699733533316519,
          0.30468238266671366,
          0.23109868327285119
        ],
        [
          0.2756668288489174,
          0.25891577740204536,
          0.05004658681186384
        ],
        [
          0.23270142872175648,
          0.2856002130551123,
          0.15281704293692577
        ],
        [
          0.06779215142349383,
          -0.3954990090040122,
          0.012677771603624356
        ],
        [
          -1.5723526941284287,
          1.1007525595653602,
          0.23336416205509405
        ]
      ]
    ],
    "weights_stage2": [
      [
        [
          -0.19358647910693538,
          1.3210382760208228,
          0.051452443432870344
        ],
        [
          -0.021235388893145087,
          1.4023462413336758,
          1.6758583843053898
        ],
        [
          -1.9717605897343102,
          1.7602504925318583,
          -0.07994894084105018
        ],
        [
          0.28597496479785833,
          1.3265537807224825,
          1.990893578734225
        ],
        [
          2.0980826185161128,
          1.3128598924185302,
          -0.03735674344992662
        ],
        [
          1.6262414896407786,
          -0.2224079372590215,
          0.9025701062891134
        ]
      ],
      [
        [
          -1.495596341172094,
          -0.28048842475676394,
          1.5559753592458065
        ],
        [
          -1.6323342685418862,
          -0.7744210230320429,
          1.564024998259347
        ],
        [
          0.4792789726105484,
          0.4212038991609279,
          1.067048663024366
        ],
        [
          -1.616338073206383,
          0.3134935855631093,
          -1.7887258204728036
        ],
        [
          1.4717514889934993,
          0.8754662801587294,
          0.07565675414684178
        ],
        [
          -1.1475383384366584,
          -0.11151284731817804,
          1.4448510861039885
        ]
      ],
      [
        [
          1.140210125076577,
          1.479643859238001,
          -0.1567115620375221
        ],
        [
          1.3801966990469912,
          -0.08121119473540021,
          -0.6471528333221129
        ],
        [
          0.03164846277550036,
          0.07482626786031188,
          -0.13377338159980928
        ],
        [
          1.4732655217079043,
          1.5615652317203765,
          -0.11618856453342588
        ],
        [
          0.16540534964264578,
          -0.04300329083290904,
          -0.07353194020253803
        ],
        [
          -0.0506294985933904,
          1.5157295838485412,
          0.04248449706061895
        ]
      ],
      [
        [
          0.10447574752546773,
          -1.4421982848602872,
          -0.7843886224956036
        ],
        [
          -0.28904071152578487,
          0.5326837039935729,
          3.432610736571421
        ],
        [
          0.013899701614063004,
          -1.3402954118235388,
          -1.3986452638890565
        ],
        [
          -0.09537098681191691,
          -0.29211249695522523,
          0.07717260926998933
        ],
        [
          1.3668724802701397,
          -0.1745786757318962,
          1.7696125212932128
        ],
        [
          0.1266896838986184,
          -2.523622263621997,
          0.3444458892588762
        ]
      ],
      [
        [
          1.0930123470211024,
          0.0443535799098399,
          -0.27551246063754525
        ],
        [
          -0.707919451025423,
          0.09386043919921414,
          1.1703154976923542
        ],
        [
          2.105931620264817,
          0.5440934642010081,
          -0.18234213131678972
        ],
        [
          -0.022452131221195198,
          0.4862059826251436,
          0.28186322556958804
        ],
        [
          -1.309610731348193,
          0.05001569649602722,
          0.012677771352638399
        ],
        [
          -1.4820348290992296,
          3.8593031690655732,
          1.4739063809299162
        ]
      ]
    ]
  },
  "metrics": {
    "stage1_min_cost": 0.05151520577187395,
    "stage2_min_cost": 0.059628374143078686,
    "mse_train_noise": 0.04208329887417109,
    "mse_train_recovered": 0.019351229974807704,
    "delta_train_pct": 54.01684161532152,
    "mse_test_noise": 0.03574197205136823,
    "mse_test_recovered": 0.01308683780482691,
    "delta_test_pct": 63.38523854806177,
    "mse_train_recovered_pure": 0.004399792492604844,
    "mse_test_recovered_pure": 0.0034982041918517155
  },
  "artifacts": {
    "weights_s1_file": "weights_s1_inst04_L5.npy",
    "weights_s2_file": "weights_s2_inst04_L5.npy",
    "circuit_stage1": "circuit_stage1_6q_4l_2t_stacked_L5_inst04.eps",
    "circuit_stage2": "circuit_stage2_6q_4l_2t_stacked_L5_inst04.eps",
    "circuit_full": "circuit_full_6q_4l_2t_stacked_L5_inst04.eps",
    "training_cost_s1_plot": "training_cost_s1_inst04_L5.eps",
    "training_cost_s2_plot": "training_cost_s2_inst04_L5.eps",
    "reconstruction_pure_plot": "reconstruction_pure_inst04_L5.eps",
    "reconstruction_noisy_plot": "reconstruction_noisy_inst04_L5.eps"
  }
}