{
  "schema": {
    "name": "stacked_qae_bundle",
    "version": "1.0"
  },
  "timestamp": "2025-12-03 20:54:53",
  "dataset": {
    "id": "mackey_glass_tau17_n200",
    "scale_low": 0.0,
    "scale_high": 1.0,
    "window_size": 4,
    "window_step": 2,
    "split": 0.75
  },
  "run": {
    "instance_id": 6,
    "layer": 4,
    "sigma_eval": 0.2,
    "test_seed_fixed": 99123,
    "device_seed": 14050,
    "stage1_time_sec": 169,
    "stage2_time_sec": 195
  },
  "environment": {
    "device": "lightning.qubit",
    "diff_method": "adjoint",
    "interface": "autograd"
  },
  "architecture": {
    "type": "stacked",
    "n_qubits": 4,
    "n_latent": 3,
    "n_trash": 1,
    "rot": "Rxyz"
  },
  "parameters": {
    "weights_stage1": [
      [
        [
          3.285347252878343,
          0.14095728243986616,
          -1.716069871185756
        ],
        [
          1.6002917451435805,
          -1.614919811425768,
          -0.1660290150512682
        ],
        [
          -0.05177975514760061,
          -1.1387984036200443,
          1.4559658364441073
        ],
        [
          1.5719640488304951,
          -1.575074751319554,
          1.3728700655065083
        ]
      ],
      [
        [
          0.0770057068972168,
          0.0034809594743691495,
          -0.08170206014468902
        ],
        [
          -0.1934675510491526,
          -0.22832000257934693,
          -0.3567590733647829
        ],
        [
          -1.4200354371924018,
          -0.167041223765157,
          0.41502581631210106
        ],
        [
          0.4384615574071639,
          -0.1298599296926606,
          -0.2797382468209074
        ]
      ],
      [
        [
          0.49423545571944727,
          -0.006553969083297735,
          0.5739716062227029
        ],
        [
          -0.27243506382924887,
          0.011681329127788827,
          1.676581788122511
        ],
        [
          -0.49809879195610735,
          0.8322846726724441,
          -0.5278617170395103
        ],
        [
          0.05930174548410089,
          0.006937298082156834,
          0.07925591665439247
        ]
      ],
      [
        [
          0.22304263608428557,
          0.36315143514908405,
          0.040351231463795025
        ],
        [
          -0.5747633677849123,
          0.00021943570443326365,
          0.12073506492655361
        ],
        [
          -1.5892059229119688,
          -0.2763144864865388,
          0.26214632609637223
        ],
        [
          -1.5723675654875575,
          1.5655079501356817,
          0.1648404314794626
        ]
      ]
    ],
    "weights_stage2": [
      [
        [
          3.0765724173076765,
          -0.055963111983946726,
          -1.0601364714237036
        ],
        [
          2.5121550819178156,
          -1.5599272272354678,
          -1.055486580173257
        ],
        [
          1.613734921383007,
          -1.3908981900881559,
          1.5856186408699238
        ],
        [
          0.3028127122564295,
          -1.2744395870352752,
          -0.779091862473724
        ]
      ],
      [
        [
          -0.4765803377728842,
          0.9044943142333358,
          -0.15323217192626243
        ],
        [
          0.1866701877187709,
          -0.3265367001902502,
          -0.4776001146702003
        ],
        [
          -1.6543319884128094,
          -0.06184160509167273,
          0.8594295754411783
        ],
        [
          0.7862559679082356,
          0.3227227099930944,
          -0.04943608303954436
        ]
      ],
      [
        [
          0.9386392148485224,
          -0.13429704569981224,
          -0.1733022359978094
        ],
        [
          -0.04213290004788397,
          -0.25877539158474683,
          0.8493646600036536
        ],
        [
          0.8768283918941985,
          0.07024929556119465,
          -1.3966422894563562
        ],
        [
          -0.08117391046867733,
          0.08550529461020792,
          0.05713150928170553
        ]
      ],
      [
        [
          0.34583767929119924,
          2.118683869844727,
          0.4703754706863905
        ],
        [
          -0.04797363788818772,
          -0.5853204373845554,
          0.12896776934591603
        ],
        [
          -1.2528002676388506,
          -0.271249062654484,
          0.5294884040754413
        ],
        [
          -1.0838285965399894,
          0.9493254431986069,
          -0.3074541464607894
        ]
      ]
    ]
  },
  "metrics": {
    "stage1_min_cost": 0.011674482632950407,
    "stage2_min_cost": 0.04642902050162908,
    "mse_train_noise": 0.0404157849091556,
    "mse_train_recovered": 0.0188124471420876,
    "delta_train_pct": 53.45272352281864,
    "mse_test_noise": 0.041028325215984866,
    "mse_test_recovered": 0.025476501151880573,
    "delta_test_pct": 37.905091134563826,
    "mse_train_recovered_pure": 0.0031592547552545514,
    "mse_test_recovered_pure": 0.006650170445766762
  },
  "artifacts": {
    "weights_s1_file": "weights_s1_inst06_L4.npy",
    "weights_s2_file": "weights_s2_inst06_L4.npy",
    "circuit_stage1": "circuit_stage1_4q_3l_1t_stacked_L4_inst06.eps",
    "circuit_stage2": "circuit_stage2_4q_3l_1t_stacked_L4_inst06.eps",
    "circuit_full": "circuit_full_4q_3l_1t_stacked_L4_inst06.eps",
    "training_cost_s1_plot": "training_cost_s1_inst06_L4.eps",
    "training_cost_s2_plot": "training_cost_s2_inst06_L4.eps",
    "reconstruction_pure_plot": "reconstruction_pure_inst06_L4.eps",
    "reconstruction_noisy_plot": "reconstruction_noisy_inst06_L4.eps"
  }
}