{
  "schema": {
    "name": "full_qae_bundle",
    "version": "1.0"
  },
  "timestamp": "2025-09-16 05:31:18",
  "dataset": {
    "id": "mackey_glass_tau17_n200",
    "scale_low": 0.2,
    "scale_high": 0.8,
    "window_size": 6,
    "window_step": 2,
    "split": 0.75
  },
  "run": {
    "instance_id": 4,
    "layer": 3,
    "sigma_eval": 0.2,
    "test_seed_fixed": 99123
  },
  "environment": {
    "device": "default.qubit",
    "diff_method": "best",
    "reset_mode": "swap"
  },
  "architecture": {
    "n_qubits": 6,
    "n_latent": 4,
    "n_trash": 2,
    "n_extra": 0,
    "rot": "Rxyz"
  },
  "parameters": {
    "weights": [
      [
        [
          0.04607690357824718,
          -0.16024372088871555,
          0.6830293517868038
        ],
        [
          0.3549681096060885,
          1.0058314362976881,
          0.31500966354416066
        ],
        [
          0.253769153127206,
          -0.7256602292622976,
          0.1332725965407406
        ],
        [
          -0.3690676345415441,
          -0.9936944898802821,
          0.8129278410978554
        ],
        [
          0.5015067863180923,
          -0.5240805854701948,
          1.4508179558010037
        ],
        [
          -0.2894509340326462,
          0.31611394694896106,
          0.6842306120765458
        ]
      ],
      [
        [
          1.1533279902039517,
          0.9414716241993981,
          0.42703468119729815
        ],
        [
          0.6453804472547415,
          0.47800250402597244,
          2.43661643348957
        ],
        [
          1.907739219007469,
          -0.7029198933008327,
          -1.6741041771427554
        ],
        [
          -0.7601255737879387,
          -0.33158460113757066,
          0.35956483582609844
        ],
        [
          -0.26374936586770764,
          -0.2902357696103362,
          0.47526972694797326
        ],
        [
          0.6220692287946518,
          0.6982396114272709,
          -0.16516073776107024
        ]
      ],
      [
        [
          -0.0162818188975892,
          0.08571136995418319,
          0.7908818948733762
        ],
        [
          -0.21368238594732467,
          -0.0843537868912954,
          -0.1781857177122195
        ],
        [
          -0.04342104709323115,
          -0.3407500580549908,
          0.21815047851102498
        ],
        [
          -0.7472286201042777,
          0.1502616036852659,
          -0.5630056527794599
        ],
        [
          0.22915784283243298,
          -0.38754646088980504,
          0.22927368769406198
        ],
        [
          -0.0699460090088028,
          -0.26222430331597624,
          0.10499234953652993
        ]
      ],
      [
        [
          0.29173951812046695,
          -0.627415299896725,
          -0.9831128180978042
        ],
        [
          0.03267928174191291,
          1.121546934729942e-07,
          0.8075932235850105
        ],
        [
          0.03763850310389163,
          0.0008416432044130643,
          1.0026530977707733
        ],
        [
          0.1589970123214574,
          5.850589238730797e-06,
          -0.13300848675145893
        ],
        [
          0.31403414477102803,
          0.9865250212665304,
          -1.5990230079411898
        ],
        [
          0.10701071243442017,
          1.4522912674620043,
          0.09463783375448227
        ]
      ],
      [
        [
          0.7188961885432286,
          -2.947204301421636e-08,
          0.6776667376041431
        ],
        [
          -0.2896586653542296,
          1.4893508245313122e-07,
          -0.39119077438002126
        ],
        [
          -0.3782001155004542,
          -2.9144827224437322e-08,
          0.46058501023696846
        ],
        [
          0.08402937286087757,
          4.8285950664563935e-08,
          0.5055544423594613
        ],
        [
          1.5766436492255573,
          -0.9878748554239172,
          -0.48331253504110483
        ],
        [
          -0.18235839667188267,
          -1.1096161519741301e-07,
          0.022063799933674657
        ]
      ],
      [
        [
          0.19026774160223967,
          0.3884042478681021,
          -0.2753402679525464
        ],
        [
          0.06419505162477528,
          -0.034880567006390605,
          0.1999713251575709
        ],
        [
          0.1180520399206321,
          1.7955651305900713e-06,
          0.19937313580849964
        ],
        [
          0.33012529112773276,
          0.09190600400151161,
          0.6582874228735095
        ],
        [
          0.5212575386418908,
          0.00772166449899183,
          0.011992575308901925
        ],
        [
          0.1589771778199699,
          9.764407625275691e-07,
          -0.06614269366877747
        ]
      ]
    ]
  },
  "metrics_series": {
    "mse_train_noise": 0.019067164300121137,
    "mse_train_recovered": 0.007651726444889236,
    "delta_train_pct": 59.869614986007,
    "mse_test_noise": 0.018957942152927745,
    "mse_test_recovered": 0.007537129529387196,
    "delta_test_pct": 60.24289203655362
  }
}