{
  "schema": {
    "name": "monolith_qae_bundle",
    "version": "1.0"
  },
  "timestamp": "2025-12-01 17:50:51",
  "dataset": {
    "id": "mackey_glass_tau30_n200",
    "scale_low": 0.0,
    "scale_high": 1.0,
    "window_size": 4,
    "window_step": 2,
    "split": 0.75
  },
  "run": {
    "instance_id": 7,
    "layer": 4,
    "sigma_eval": 0.2,
    "test_seed_fixed": 99123,
    "device_seed": 14051,
    "training_time_sec": 225
  },
  "environment": {
    "device": "lightning.qubit",
    "diff_method": "adjoint",
    "interface": "autograd"
  },
  "architecture": {
    "type": "monolith",
    "n_qubits": 4,
    "n_latent": 2,
    "n_trash": 2,
    "n_extra": 0,
    "rot": "Rxyz"
  },
  "parameters": {
    "weights": [
      [
        [
          0.11695410829208798,
          -0.47335146035316694,
          0.8238492089550145
        ],
        [
          -0.024679923284548586,
          -1.7325554401273788,
          2.44735440847445
        ],
        [
          -1.2197983271967316,
          -0.43103525094754935,
          1.2616022296814142
        ],
        [
          -0.1630202575157588,
          -1.355401714420903,
          0.3179791425397815
        ]
      ],
      [
        [
          0.5899426780197945,
          -0.24263906984667802,
          -0.39246847011492686
        ],
        [
          -0.3475955495462912,
          0.6878217816319487,
          1.261573027002255
        ],
        [
          0.8775702574072738,
          -0.11592886547074296,
          0.19371094707350664
        ],
        [
          0.9465599461951751,
          0.3206440515036058,
          -0.5118037716155167
        ]
      ],
      [
        [
          0.7598369469643168,
          -0.4920204578262275,
          0.9491086721530159
        ],
        [
          -0.556710474890014,
          0.44818001914121813,
          -1.8463358027113033
        ],
        [
          0.7029652967697168,
          0.939566830000774,
          -1.4913536437517498
        ],
        [
          0.8528765084280912,
          -2.720020833377163,
          0.5650954844594851
        ]
      ],
      [
        [
          -0.5087058852820032,
          -0.793668529316484,
          0.22003942002250867
        ],
        [
          -0.9269850444736297,
          1.2289594407373234,
          1.0574407701199577
        ],
        [
          -1.9549855890431476,
          -1.0216512729104044,
          -2.0790942751620225
        ],
        [
          -0.8908092748481743,
          -0.4588257756227873,
          0.614527200405124
        ]
      ],
      [
        [
          0.062465002377124025,
          -0.1083552425576237,
          -3.998764611557021
        ],
        [
          0.5702957628000429,
          -0.472205436490629,
          1.3101517916114673
        ],
        [
          0.3517631990794715,
          2.667312040099405,
          0.3306909815795891
        ],
        [
          0.2021756436224467,
          0.4953668292089684,
          2.14503440558
        ]
      ],
      [
        [
          -0.5084016079674236,
          0.2991789040352653,
          -0.6370724540971923
        ],
        [
          -1.6019637396414093,
          0.3260560576693848,
          -3.827432401082966
        ],
        [
          0.795436421116045,
          -0.19564374035852147,
          -0.5438371951634816
        ],
        [
          1.0187240584555102,
          -0.12783630330587437,
          -0.23071721421270988
        ]
      ],
      [
        [
          -0.7611151980507959,
          -0.16390935527636416,
          1.4135424833874803
        ],
        [
          -0.37521590086035767,
          -0.26612970235496597,
          -1.2300661940720703
        ],
        [
          -2.921293345087386,
          0.6790825199886702,
          1.5451216456399337
        ],
        [
          0.3311863354057271,
          -0.2408279542606985,
          1.9551764835468952
        ]
      ],
      [
        [
          1.1100082919464247,
          -0.021147209047218455,
          0.33814437675028763
        ],
        [
          1.428528607993317,
          2.366100727091667,
          -0.36340013641880137
        ],
        [
          -0.11599077918144016,
          0.3280806341048892,
          -0.4472825233082797
        ],
        [
          0.5281121007497277,
          -0.1670796811709863,
          0.07468373459198788
        ]
      ]
    ]
  },
  "metrics": {
    "mse_train_noise": 0.04249628927590868,
    "mse_train_recovered": 0.0191821004298162,
    "delta_train_pct": 54.861704970813506,
    "mse_test_noise": 0.03574197205136823,
    "mse_test_recovered": 0.013396929092590661,
    "delta_test_pct": 62.51765550782524,
    "mse_train_recovered_pure": 0.005185762101307564,
    "mse_test_recovered_pure": 0.005146700333626537,
    "min_train_cost": 0.007557998625558733
  },
  "artifacts": {
    "weights_file": "weights_inst07_L4.npy",
    "circuit_diagram": "circuit_4q_2l_2t_L4_inst07.eps",
    "training_cost_plot": "training_cost_inst07_L4.eps",
    "cost_history": "cost_inst07_L4.json",
    "reconstruction_pure_plot": "reconstruction_pure_inst07_L4.eps",
    "reconstruction_noisy_plot": "reconstruction_noisy_inst07_L4.eps"
  }
}