{
  "schema": {
    "name": "stacked_qae_bundle",
    "version": "1.0"
  },
  "timestamp": "2025-12-03 13:22:04",
  "dataset": {
    "id": "mackey_glass_tau17_n200",
    "scale_low": 0.0,
    "scale_high": 1.0,
    "window_size": 6,
    "window_step": 2,
    "split": 0.75
  },
  "run": {
    "instance_id": 6,
    "layer": 5,
    "sigma_eval": 0.2,
    "test_seed_fixed": 99123,
    "device_seed": 15050,
    "stage1_time_sec": 311,
    "stage2_time_sec": 328
  },
  "environment": {
    "device": "lightning.qubit",
    "diff_method": "adjoint",
    "interface": "autograd"
  },
  "architecture": {
    "type": "stacked",
    "n_qubits": 6,
    "n_latent": 4,
    "n_trash": 2,
    "rot": "Rxyz"
  },
  "parameters": {
    "weights_stage1": [
      [
        [
          1.5671228956118624,
          1.5816709565883915,
          -0.07971645045092791
        ],
        [
          -0.012224036570201635,
          1.6928872372945065,
          -1.593143251967442
        ],
        [
          2.605919472954617,
          0.7669919104543771,
          0.4210049638661125
        ],
        [
          1.5493480831177424,
          1.5576387762596393,
          0.1581308055389353
        ],
        [
          -0.0014916011093547552,
          1.4606987837069476,
          -1.573752013619349
        ],
        [
          -0.014080265237571634,
          1.4295792658060247,
          -0.009264922474849254
        ]
      ],
      [
        [
          1.596094760518877,
          -0.20479969197825884,
          0.28046340571647016
        ],
        [
          0.21277373471933597,
          -0.7637933669353013,
          -0.5764267414942422
        ],
        [
          -0.7254626248452987,
          -0.048564460735185215,
          -0.8160947194850404
        ],
        [
          1.5655489528423145,
          1.2295903810350437,
          -0.004407042974738074
        ],
        [
          1.5450006819572504,
          -0.1835277279851416,
          -1.560437648049476
        ],
        [
          -1.4644424397571658,
          -0.08623100321613515,
          1.4665656173377581
        ]
      ],
      [
        [
          1.8242256516618414,
          1.5905557412249425,
          0.28385405299601985
        ],
        [
          0.13702028870535052,
          0.01154979595954398,
          -0.13879729384333914
        ],
        [
          0.6355245532243539,
          -0.013600759566300554,
          0.9349624111882157
        ],
        [
          0.0022519541596461626,
          -1.5866368813655605,
          0.0925558711321348
        ],
        [
          0.14619901408471497,
          0.024578861107932767,
          0.36936023943849833
        ],
        [
          0.04778409816262162,
          1.5747714232754961,
          -0.2014519381712198
        ]
      ],
      [
        [
          -0.101641668737031,
          1.5726831595491082,
          -0.006074966291074506
        ],
        [
          0.6076412542685091,
          0.005096881638974759,
          -1.2018541316216829
        ],
        [
          -0.026338823710105232,
          0.0039716327598495966,
          0.22443667518665353
        ],
        [
          0.7756491155871926,
          0.8841442211436602,
          0.6238166728615628
        ],
        [
          -0.13131635270693523,
          -0.0009844935639858913,
          0.12315370767189761
        ],
        [
          -0.04746264567423356,
          0.4533928304219,
          0.11729380252115028
        ]
      ],
      [
        [
          0.004796250298710543,
          1.2456512920230618,
          0.18036465469608606
        ],
        [
          0.02775193144620357,
          0.0459089261460239,
          0.15033220894151536
        ],
        [
          0.023494566748632567,
          0.2857301374450965,
          0.035425409979843746
        ],
        [
          0.09180881717197695,
          0.20690198438038881,
          0.13199546448192206
        ],
        [
          3.1429190493158186,
          0.7608633096100829,
          0.054907010760288755
        ],
        [
          1.5862979890456106,
          -0.18059636504283672,
          0.16220538017410344
        ]
      ]
    ],
    "weights_stage2": [
      [
        [
          1.516061700088308,
          1.4578155495085623,
          0.019737492292996057
        ],
        [
          0.09097148426268109,
          1.8147896483190673,
          -1.7008513731927914
        ],
        [
          2.7084534494221106,
          0.9097322108352511,
          0.36006038169971616
        ],
        [
          2.32264652219352,
          1.421178773299702,
          0.8405734530168809
        ],
        [
          -0.5744376094960719,
          1.2570375996084155,
          -2.2050387118782875
        ],
        [
          -0.05318157364618165,
          1.654069673533533,
          -0.006973152465786959
        ]
      ],
      [
        [
          1.6952524515258893,
          -0.4783223760362177,
          0.32360753047349916
        ],
        [
          0.012043016636704571,
          -0.6806545413459738,
          -0.1760645205009059
        ],
        [
          -1.2926946929660867,
          -0.18180203717158183,
          -0.12475385148724664
        ],
        [
          1.2455231354012135,
          1.0007953579920892,
          0.216843170690134
        ],
        [
          1.8002177659197582,
          -0.2148399559463875,
          -1.671629150963296
        ],
        [
          -1.5215004956253508,
          -0.42366944503775844,
          1.4329351057871733
        ]
      ],
      [
        [
          1.9127892507277688,
          1.626866076200701,
          0.1586496403992465
        ],
        [
          0.7746679189540892,
          -0.11435407660560296,
          -0.6320944823037937
        ],
        [
          0.478284917944351,
          -0.05137102998606749,
          1.134405445388625
        ],
        [
          -0.05254817977057123,
          -1.5277870981679869,
          0.015002638798223184
        ],
        [
          0.032835955646607615,
          0.0717137349898532,
          0.2647913650127134
        ],
        [
          0.01885859671394632,
          1.6061762393221923,
          -0.10483883996651785
        ]
      ],
      [
        [
          -0.179194901070942,
          1.9752903277076173,
          -0.09483651114599147
        ],
        [
          0.5030723798427266,
          0.15890700875215058,
          -0.7147487957939092
        ],
        [
          0.07027427449459667,
          0.41566680217054675,
          0.4492716363978814
        ],
        [
          0.30643143464637085,
          0.3258012459389592,
          1.0546257452404766
        ],
        [
          0.018140387311442987,
          -0.43499575976865545,
          -0.07553125811821933
        ],
        [
          -0.285834168014125,
          0.5462103288165419,
          0.02093312549940356
        ]
      ],
      [
        [
          -0.02475880692243697,
          1.6131967897666952,
          -0.29776943294913055
        ],
        [
          -0.5362667695429414,
          0.17774541396397517,
          0.6456362900881674
        ],
        [
          -0.5891682823973802,
          0.25731914577229303,
          0.4366334142610917
        ],
        [
          -0.23714686770632393,
          0.479173326047153,
          0.9460878812414095
        ],
        [
          3.3199147242867366,
          0.6915216064889039,
          0.05490701048335728
        ],
        [
          0.059642994946595446,
          1.0862901131260783,
          1.1205732268216528
        ]
      ]
    ]
  },
  "metrics": {
    "stage1_min_cost": 0.05368589871867099,
    "stage2_min_cost": 0.060118080282438105,
    "mse_train_noise": 0.0400301695648753,
    "mse_train_recovered": 0.019346393647837495,
    "delta_train_pct": 51.67046790425515,
    "mse_test_noise": 0.04102832521598486,
    "mse_test_recovered": 0.02230718324252886,
    "delta_test_pct": 45.62979813312521,
    "mse_train_recovered_pure": 0.0048355093570542,
    "mse_test_recovered_pure": 0.0072277505780203736
  },
  "artifacts": {
    "weights_s1_file": "weights_s1_inst06_L5.npy",
    "weights_s2_file": "weights_s2_inst06_L5.npy",
    "circuit_stage1": "circuit_stage1_6q_4l_2t_stacked_L5_inst06.eps",
    "circuit_stage2": "circuit_stage2_6q_4l_2t_stacked_L5_inst06.eps",
    "circuit_full": "circuit_full_6q_4l_2t_stacked_L5_inst06.eps",
    "training_cost_s1_plot": "training_cost_s1_inst06_L5.eps",
    "training_cost_s2_plot": "training_cost_s2_inst06_L5.eps",
    "reconstruction_pure_plot": "reconstruction_pure_inst06_L5.eps",
    "reconstruction_noisy_plot": "reconstruction_noisy_inst06_L5.eps"
  }
}