{
  "schema": {
    "name": "sidekick_qae_bundle",
    "version": "1.0"
  },
  "timestamp": "2025-12-02 16:00:47",
  "dataset": {
    "id": "mackey_glass_tau17_n200",
    "scale_low": 0.0,
    "scale_high": 1.0,
    "window_size": 4,
    "window_step": 2,
    "split": 0.75
  },
  "run": {
    "instance_id": 4,
    "layer": 5,
    "sigma_eval": 0.2,
    "test_seed_fixed": 99123,
    "device_seed": 15048,
    "stage1_time_sec": 205,
    "stage2_time_sec": 338
  },
  "environment": {
    "device": "lightning.qubit",
    "diff_method": "adjoint",
    "interface": "autograd"
  },
  "architecture": {
    "type": "sidekick",
    "n_qubits": 4,
    "n_latent": 2,
    "n_trash": 2,
    "rot": "Rxyz"
  },
  "parameters": {
    "weights_stage1": [
      [
        [
          -1.1014706097176918,
          -0.20963547712570232,
          1.1372867343106805
        ],
        [
          0.5806030611560971,
          0.2984569005237547,
          -0.24400121288758767
        ],
        [
          0.12710075644219518,
          1.7331875963716254,
          -0.09928605923459023
        ],
        [
          -0.8502677601916673,
          0.8769814511398756,
          1.2055227989355441
        ]
      ],
      [
        [
          -0.765977893704114,
          1.5123047051423089,
          -0.39854957891503034
        ],
        [
          0.4290925199735701,
          -0.816042006895709,
          0.30037216354761925
        ],
        [
          1.6392770440900306,
          -1.6993444740694266,
          1.3519485553386699
        ],
        [
          0.6754787566769789,
          1.3204786027250843,
          -0.39298489140166526
        ]
      ],
      [
        [
          1.3972111955645423,
          0.13198147676652794,
          -3.2032926488395996
        ],
        [
          -0.4718022423288794,
          0.9282846637390644,
          0.9390601492903755
        ],
        [
          -0.10236195903421172,
          0.09205973487046763,
          -0.07813200651359349
        ],
        [
          0.02641551166218631,
          0.7200193440089971,
          -0.8803893540615673
        ]
      ],
      [
        [
          0.43291374212606765,
          0.5503171832511744,
          0.6761106078251912
        ],
        [
          1.1809029966992002,
          0.39774876702030393,
          -0.12198469547928771
        ],
        [
          -0.09500402980973469,
          1.5513419468369263,
          0.8001270222782613
        ],
        [
          1.5069885608749725,
          0.7508595709249292,
          -0.06058365146619493
        ]
      ],
      [
        [
          -0.6666153013594783,
          0.9961540748222563,
          0.28987069727400516
        ],
        [
          -0.6820457255583323,
          0.0681501200670234,
          0.12335233589512128
        ],
        [
          2.2804792468418196,
          0.407760077635567,
          0.03046600220025065
        ],
        [
          -0.19102119039368037,
          1.3658450258502701,
          0.02488331672203504
        ]
      ]
    ],
    "weights_stage2": [
      [
        [
          -3.459962991423624,
          -1.8521095146100264,
          -0.442037374275223
        ],
        [
          0.748179953008254,
          0.5607488001925959,
          0.015094503911716762
        ],
        [
          -0.6839819552063047,
          1.145530599703964,
          -0.5067346590363764
        ],
        [
          0.019965199279675203,
          1.722258227321611,
          0.3934600612970154
        ]
      ],
      [
        [
          -0.9953223020507039,
          1.6931783458318683,
          0.31088259260742956
        ],
        [
          1.930565455647792,
          -0.8068342984239357,
          -0.18240225698321882
        ],
        [
          1.9329271584068743,
          -2.0044105049205445,
          1.1557856642078856
        ],
        [
          0.21278292448895972,
          1.5799259107816603,
          -0.7242648003583516
        ]
      ],
      [
        [
          1.2010483044337548,
          0.30807345572668116,
          -3.6111086321585018
        ],
        [
          -0.8030821512855714,
          1.2697474080316775,
          1.4915421117617704
        ],
        [
          -0.13283385284299906,
          -0.03924334347073838,
          0.11431143123591055
        ],
        [
          -1.362561973988564,
          -0.3806771179610133,
          -0.14003842157031707
        ]
      ],
      [
        [
          0.5114268297296629,
          0.06220194159549558,
          1.111192039900701
        ],
        [
          1.620079512558935,
          0.02947657288132182,
          0.07032708509862164
        ],
        [
          0.03947434774169111,
          1.6539861849517146,
          1.4372382357205786
        ],
        [
          1.8680624564967205,
          1.1014670397522752,
          -0.05687050120522515
        ]
      ],
      [
        [
          0.07147450667840964,
          1.6345676570860228,
          0.16390848530142202
        ],
        [
          -0.30436290401809357,
          -0.47822486263853614,
          -1.429504016287087
        ],
        [
          3.452776566918197,
          0.2811561576495694,
          -1.4218068003847362
        ],
        [
          -0.053490430279457477,
          1.5205183769503596,
          0.6239076797151198
        ]
      ]
    ]
  },
  "metrics": {
    "stage1_min_cost": 0.038166151545070574,
    "stage2_min_cost": 0.09549437939659665,
    "mse_train_noise": 0.0404157849091556,
    "mse_train_recovered": 0.021874784441000886,
    "delta_train_pct": 45.87564118779375,
    "mse_test_noise": 0.041028325215984866,
    "mse_test_recovered": 0.027449156325954065,
    "delta_test_pct": 33.0970587235676,
    "mse_train_recovered_pure": 0.005757980918813209,
    "mse_test_recovered_pure": 0.012141880295748678
  },
  "artifacts": {
    "weights_s1_file": "weights_s1_inst04_L5.npy",
    "weights_s2_file": "weights_s2_inst04_L5.npy",
    "circuit_stage1": "circuit_stage1_4q_2l_2t_sidekick_L5_inst04.eps",
    "circuit_stage2": "circuit_stage2_4q_2l_2t_sidekick_L5_inst04.eps",
    "circuit_full": "circuit_full_4q_2l_2t_sidekick_L5_inst04.eps",
    "training_cost_s1_plot": "training_cost_s1_inst04_L5.eps",
    "training_cost_s2_plot": "training_cost_s2_inst04_L5.eps",
    "reconstruction_pure_plot": "reconstruction_pure_inst04_L5.eps",
    "reconstruction_noisy_plot": "reconstruction_noisy_inst04_L5.eps"
  }
}