{
  "schema": {
    "name": "sidekick_qae_bundle",
    "version": "1.0"
  },
  "timestamp": "2025-12-06 11:37:00",
  "dataset": {
    "id": "mackey_glass_tau30_n200",
    "scale_low": 0.0,
    "scale_high": 1.0,
    "window_size": 4,
    "window_step": 2,
    "split": 0.75
  },
  "run": {
    "instance_id": 6,
    "layer": 4,
    "sigma_eval": 0.2,
    "test_seed_fixed": 99123,
    "device_seed": 14050,
    "stage1_time_sec": 158,
    "stage2_time_sec": 245
  },
  "environment": {
    "device": "lightning.qubit",
    "diff_method": "adjoint",
    "interface": "autograd"
  },
  "architecture": {
    "type": "sidekick",
    "n_qubits": 4,
    "n_latent": 2,
    "n_trash": 2,
    "rot": "Rxyz"
  },
  "parameters": {
    "weights_stage1": [
      [
        [
          -0.0034949477066186347,
          -0.5862528357755641,
          1.5660064564866893
        ],
        [
          1.5592774164670136,
          1.567776202266348,
          0.8638178812350193
        ],
        [
          0.2447348068517698,
          0.01024595577298306,
          -0.23692025392122543
        ],
        [
          0.1609405202820323,
          -0.05240201672976469,
          -0.15017566348831402
        ]
      ],
      [
        [
          -0.44201050470625713,
          1.3099888538258837,
          -0.7918765538880648
        ],
        [
          0.15780946080932542,
          0.0012535425142899544,
          0.5382893524288426
        ],
        [
          -0.852587996539641,
          0.0012873407289995256,
          0.4644288355672522
        ],
        [
          0.13093884117810634,
          0.16319466335390884,
          0.3093022372102919
        ]
      ],
      [
        [
          0.5436384749745936,
          0.7198491770588907,
          -0.812462664126584
        ],
        [
          0.3166054202019492,
          0.11678159831087322,
          -0.6335548562996088
        ],
        [
          -0.004522556187799211,
          1.5692184550651156,
          0.7335486567432027
        ],
        [
          0.013983659751814707,
          0.826082332071496,
          -0.016316668717052615
        ]
      ],
      [
        [
          0.8524141458083876,
          0.02708269302912007,
          0.040351231567935616
        ],
        [
          0.015179594121557565,
          0.3633622687025381,
          0.12073506481505158
        ],
        [
          -0.010994347347067739,
          0.8586570596616111,
          0.26214632628324175
        ],
        [
          -0.7167262552719431,
          -1.5735322795312452,
          0.16484043150670286
        ]
      ]
    ],
    "weights_stage2": [
      [
        [
          -0.11845682086550541,
          -0.8495408391817589,
          1.4728776120454299
        ],
        [
          1.6710208248212568,
          1.5407463070027207,
          0.8707056937084162
        ],
        [
          1.6823625275995109,
          -1.054733933276491,
          -1.5675912721871703
        ],
        [
          1.7949171462570637,
          -0.29038809972786245,
          -1.5765536698348819
        ]
      ],
      [
        [
          -0.6397601691158481,
          0.8295693883971467,
          -0.7481624996957481
        ],
        [
          -0.09010673382260599,
          0.032068409962835984,
          0.747668322003663
        ],
        [
          -1.4239184274195011,
          -0.37115785458178824,
          0.6715086952892276
        ],
        [
          -0.34094237552577017,
          0.22613185715093218,
          0.20533431809181396
        ]
      ],
      [
        [
          0.7507183346965672,
          0.8328073828185768,
          -0.355179368307047
        ],
        [
          0.2126375010834737,
          0.37652953091458513,
          -0.03318433370488475
        ],
        [
          -0.17288978831362903,
          1.5612462764407598,
          0.44661142429282846
        ],
        [
          -0.48951050465392737,
          1.2720640314370035,
          0.32307383670112905
        ]
      ],
      [
        [
          1.5804480179278784,
          0.23137945729198808,
          -0.836390488463544
        ],
        [
          -0.35835941282501926,
          0.3706276175289483,
          0.5247810378041864
        ],
        [
          0.10384905376045767,
          0.7486873439038916,
          0.1243840807691121
        ],
        [
          -0.9978252942885604,
          -1.3746000745618185,
          0.16484043136261967
        ]
      ]
    ]
  },
  "metrics": {
    "stage1_min_cost": 0.05100899571015521,
    "stage2_min_cost": 0.13561098533226779,
    "mse_train_noise": 0.04249628927590868,
    "mse_train_recovered": 0.023296894357383968,
    "delta_train_pct": 45.17899149705037,
    "mse_test_noise": 0.03574197205136823,
    "mse_test_recovered": 0.015597182908600484,
    "delta_test_pct": 56.36171701386743,
    "mse_train_recovered_pure": 0.0061104457323485776,
    "mse_test_recovered_pure": 0.005284599792430983
  },
  "artifacts": {
    "weights_s1_file": "weights_s1_inst06_L4.npy",
    "weights_s2_file": "weights_s2_inst06_L4.npy",
    "circuit_stage1": "circuit_stage1_4q_2l_2t_sidekick_L4_inst06.eps",
    "circuit_stage2": "circuit_stage2_4q_2l_2t_sidekick_L4_inst06.eps",
    "circuit_full": "circuit_full_4q_2l_2t_sidekick_L4_inst06.eps",
    "training_cost_s1_plot": "training_cost_s1_inst06_L4.eps",
    "training_cost_s2_plot": "training_cost_s2_inst06_L4.eps",
    "reconstruction_pure_plot": "reconstruction_pure_inst06_L4.eps",
    "reconstruction_noisy_plot": "reconstruction_noisy_inst06_L4.eps"
  }
}