{
  "schema": {
    "name": "sidekick_qae_bundle",
    "version": "1.0"
  },
  "timestamp": "2025-12-06 11:43:44",
  "dataset": {
    "id": "mackey_glass_tau30_n200",
    "scale_low": 0.0,
    "scale_high": 1.0,
    "window_size": 4,
    "window_step": 2,
    "split": 0.75
  },
  "run": {
    "instance_id": 7,
    "layer": 4,
    "sigma_eval": 0.2,
    "test_seed_fixed": 99123,
    "device_seed": 14051,
    "stage1_time_sec": 154,
    "stage2_time_sec": 244
  },
  "environment": {
    "device": "lightning.qubit",
    "diff_method": "adjoint",
    "interface": "autograd"
  },
  "architecture": {
    "type": "sidekick",
    "n_qubits": 4,
    "n_latent": 2,
    "n_trash": 2,
    "rot": "Rxyz"
  },
  "parameters": {
    "weights_stage1": [
      [
        [
          0.007064314732720675,
          -0.5703967908163131,
          1.5615828908731313
        ],
        [
          1.5666106902209094,
          1.5704570021550222,
          0.8753153761874545
        ],
        [
          0.13966335730374532,
          0.04057872554634103,
          -0.13738958584659727
        ],
        [
          -0.12877306306697298,
          0.06165473699856135,
          0.13152363850916962
        ]
      ],
      [
        [
          -0.3871118248845789,
          1.3434887632308503,
          -0.8202202827254411
        ],
        [
          -0.15087294700746381,
          0.0029328337834413206,
          0.8370205541910574
        ],
        [
          -0.1513840104934041,
          0.0007191033196653286,
          0.0181567776317475
        ],
        [
          0.0632539543571671,
          0.14523175265294067,
          0.6854977815655421
        ]
      ],
      [
        [
          0.30121977757715207,
          0.7602366223263811,
          -0.8123337816324047
        ],
        [
          0.6630444299282925,
          0.304333431781883,
          -1.279987475645797
        ],
        [
          -0.00025574908227268123,
          1.5704936373172684,
          0.8182543930982686
        ],
        [
          0.012127090583059701,
          0.8207642459496948,
          -0.015199983907723282
        ]
      ],
      [
        [
          1.5519029548212189,
          0.05467565052138243,
          0.31355056028187156
        ],
        [
          -0.0030556971638475345,
          0.35897229950979015,
          0.31201545983400353
        ],
        [
          -0.003655978686716884,
          0.8415965814173424,
          0.16440942890959953
        ],
        [
          -0.7356679263987833,
          -1.5736777562376565,
          0.30726360002048225
        ]
      ]
    ],
    "weights_stage2": [
      [
        [
          0.28931892586535846,
          -0.9174087601880592,
          1.7388946011716366
        ],
        [
          1.388194884823326,
          1.5947004511862664,
          1.1698318461376709
        ],
        [
          1.4043203020900161,
          0.696844121097501,
          -1.413495599321079
        ],
        [
          -0.9642006572379774,
          0.20190131528473168,
          0.6574382553604793
        ]
      ],
      [
        [
          -0.5589785848146475,
          0.8297283148457599,
          -0.9433921765018548
        ],
        [
          -1.1378283887711425,
          -0.10267096476042706,
          1.4999610985842395
        ],
        [
          -1.206307976296738,
          0.12781342863349765,
          0.4928100858482682
        ],
        [
          0.8097170545103356,
          0.1732156450461299,
          0.26816732249869374
        ]
      ],
      [
        [
          0.7758730857936712,
          0.9494320716602043,
          -0.04429198329136351
        ],
        [
          0.24571397086144475,
          0.4785291729882043,
          -1.1374185902638125
        ],
        [
          0.1956613854701346,
          1.5092994457155158,
          0.5579970171249664
        ],
        [
          0.7194487619604617,
          1.5119743472435259,
          -0.41952600642258214
        ]
      ],
      [
        [
          1.3468636900795488,
          0.26972102378393564,
          0.675134505696732
        ],
        [
          0.9436428855271167,
          0.3102172201053384,
          -0.3624365240200568
        ],
        [
          -0.08607137051294539,
          0.3628435994291759,
          0.6244151860141269
        ],
        [
          -1.404559782515811,
          -1.6962225200356145,
          0.3072636003998763
        ]
      ]
    ]
  },
  "metrics": {
    "stage1_min_cost": 0.05076120157410713,
    "stage2_min_cost": 0.13210910029534212,
    "mse_train_noise": 0.04249628927590868,
    "mse_train_recovered": 0.02345517741585618,
    "delta_train_pct": 44.80652825103716,
    "mse_test_noise": 0.03574197205136823,
    "mse_test_recovered": 0.017833883967338943,
    "delta_test_pct": 50.10380529169418,
    "mse_train_recovered_pure": 0.006413429523019447,
    "mse_test_recovered_pure": 0.005680754960915874
  },
  "artifacts": {
    "weights_s1_file": "weights_s1_inst07_L4.npy",
    "weights_s2_file": "weights_s2_inst07_L4.npy",
    "circuit_stage1": "circuit_stage1_4q_2l_2t_sidekick_L4_inst07.eps",
    "circuit_stage2": "circuit_stage2_4q_2l_2t_sidekick_L4_inst07.eps",
    "circuit_full": "circuit_full_4q_2l_2t_sidekick_L4_inst07.eps",
    "training_cost_s1_plot": "training_cost_s1_inst07_L4.eps",
    "training_cost_s2_plot": "training_cost_s2_inst07_L4.eps",
    "reconstruction_pure_plot": "reconstruction_pure_inst07_L4.eps",
    "reconstruction_noisy_plot": "reconstruction_noisy_inst07_L4.eps"
  }
}