{
  "schema": {
    "name": "monolith_qae_bundle",
    "version": "1.0"
  },
  "timestamp": "2025-12-01 16:22:15",
  "dataset": {
    "id": "mackey_glass_tau30_n200",
    "scale_low": 0.0,
    "scale_high": 1.0,
    "window_size": 4,
    "window_step": 2,
    "split": 0.75
  },
  "run": {
    "instance_id": 4,
    "layer": 4,
    "sigma_eval": 0.2,
    "test_seed_fixed": 99123,
    "device_seed": 14048,
    "training_time_sec": 234
  },
  "environment": {
    "device": "lightning.qubit",
    "diff_method": "adjoint",
    "interface": "autograd"
  },
  "architecture": {
    "type": "monolith",
    "n_qubits": 4,
    "n_latent": 3,
    "n_trash": 1,
    "n_extra": 0,
    "rot": "Rxyz"
  },
  "parameters": {
    "weights": [
      [
        [
          0.6494445112619419,
          -1.3333645046232014,
          -0.06692741126308423
        ],
        [
          0.6438549648246633,
          -1.6477819505454916,
          0.8838418536720678
        ],
        [
          1.6584600719758318,
          0.06284903289060476,
          -0.8493561285164644
        ],
        [
          1.9221102962048375,
          0.1921387684419304,
          -2.7581990959042324
        ]
      ],
      [
        [
          0.11149585891214557,
          -0.09165822798190457,
          -0.5783284523224392
        ],
        [
          0.06351741268594509,
          0.3011956561622053,
          0.6041817075282082
        ],
        [
          -1.155162043427073,
          1.0727204871205525,
          0.653335469501506
        ],
        [
          0.6214503622789437,
          0.19973195758860535,
          -0.41672272388659226
        ]
      ],
      [
        [
          0.9768917266731546,
          -0.6203077829327871,
          1.2724543316330985
        ],
        [
          -0.15887447329759932,
          -0.16597056511082717,
          -0.1990615153800628
        ],
        [
          2.5973000045932735,
          0.2874085289628752,
          0.5297863823818855
        ],
        [
          1.1542438769962586,
          -0.4378091832016634,
          1.899272230919689
        ]
      ],
      [
        [
          0.8545351042306807,
          -0.6590387697655217,
          2.373802829197463
        ],
        [
          -1.7105047992671971,
          1.683628868060801,
          -2.3601730722224197
        ],
        [
          -1.1637926896434676,
          -0.24310494523758572,
          -1.6795609748455809
        ],
        [
          1.9994163359656685,
          0.2244195572597149,
          -0.32185666266831914
        ]
      ],
      [
        [
          0.12041617190458238,
          -0.014193109755815825,
          -3.182085684197823
        ],
        [
          0.4459371614220158,
          -0.005712336954931426,
          0.43194486994412434
        ],
        [
          0.1281949729383735,
          -0.11510708669846546,
          -3.4726791145764264
        ],
        [
          0.5194499263686365,
          0.07315699090861201,
          2.67162368250364
        ]
      ],
      [
        [
          2.4428695062771877,
          -0.03478885392882877,
          2.4417622211765617
        ],
        [
          -2.3912521112505716,
          0.13691316306347986,
          -1.0231366512813043
        ],
        [
          -1.3643604624286463,
          0.1104042759656936,
          -1.1059211107499736
        ],
        [
          1.3996167275657747,
          0.013503439892125485,
          0.07403691874331284
        ]
      ],
      [
        [
          -1.0301478848590169,
          -0.23786355528135428,
          1.370425583905162
        ],
        [
          0.3776217973463899,
          0.02692471792426744,
          -0.6490419855544
        ],
        [
          2.9592202913143697,
          -0.03127202912150374,
          3.2151814750335177
        ],
        [
          1.2836502921204378,
          0.1525055088915076,
          0.38569348132497566
        ]
      ],
      [
        [
          1.5301373254539223,
          -0.04358516604684162,
          0.8566090974738003
        ],
        [
          0.8705892740404213,
          0.07735633737413929,
          -0.9808356018927306
        ],
        [
          4.7447077522096395,
          0.16024861812655414,
          2.2110420928832064
        ],
        [
          -1.3441250166987215,
          0.0031534394363084686,
          -0.37924782043267014
        ]
      ]
    ]
  },
  "metrics": {
    "mse_train_noise": 0.04249628927590868,
    "mse_train_recovered": 0.019661352113382387,
    "delta_train_pct": 53.733955485547554,
    "mse_test_noise": 0.03574197205136823,
    "mse_test_recovered": 0.012940884713303498,
    "delta_test_pct": 63.79359064266262,
    "mse_train_recovered_pure": 0.005175896049623111,
    "mse_test_recovered_pure": 0.005391156124535442,
    "min_train_cost": 0.007639574694931123
  },
  "artifacts": {
    "weights_file": "weights_inst04_L4.npy",
    "circuit_diagram": "circuit_4q_3l_1t_L4_inst04.eps",
    "training_cost_plot": "training_cost_inst04_L4.eps",
    "cost_history": "cost_inst04_L4.json",
    "reconstruction_pure_plot": "reconstruction_pure_inst04_L4.eps",
    "reconstruction_noisy_plot": "reconstruction_noisy_inst04_L4.eps"
  }
}