{
  "schema": {
    "name": "monolith_qae_bundle",
    "version": "1.0"
  },
  "timestamp": "2025-12-01 16:14:24",
  "dataset": {
    "id": "mackey_glass_tau30_n200",
    "scale_low": 0.0,
    "scale_high": 1.0,
    "window_size": 4,
    "window_step": 2,
    "split": 0.75
  },
  "run": {
    "instance_id": 2,
    "layer": 4,
    "sigma_eval": 0.2,
    "test_seed_fixed": 99123,
    "device_seed": 14046,
    "training_time_sec": 236
  },
  "environment": {
    "device": "lightning.qubit",
    "diff_method": "adjoint",
    "interface": "autograd"
  },
  "architecture": {
    "type": "monolith",
    "n_qubits": 4,
    "n_latent": 3,
    "n_trash": 1,
    "n_extra": 0,
    "rot": "Rxyz"
  },
  "parameters": {
    "weights": [
      [
        [
          0.12561063336098635,
          -1.0634795722911112,
          -0.4284090838106309
        ],
        [
          0.10687055199985025,
          -1.1113207763620352,
          0.9479759111488495
        ],
        [
          -0.2864157577464018,
          -1.235303439650631,
          -1.356637759793241
        ],
        [
          -0.2607868650932531,
          -0.6473787596766386,
          -1.5307735005807495
        ]
      ],
      [
        [
          0.4212894816153703,
          0.5701635696022512,
          0.04558211093892902
        ],
        [
          0.328628783478215,
          -1.2101473768889477,
          0.22228639594370903
        ],
        [
          0.9718933192927599,
          1.0581643979473756,
          0.47354506599501883
        ],
        [
          -0.8940186661041643,
          0.7255369846250608,
          0.14851211812230908
        ]
      ],
      [
        [
          0.20425843755698905,
          -0.4719776777791255,
          0.32002699560239506
        ],
        [
          0.04184695731894041,
          0.5012702663607712,
          0.17842243313822723
        ],
        [
          0.08289226772174298,
          -0.6763756665321644,
          -0.7037240840600735
        ],
        [
          -0.06517440212093796,
          0.9842740499676299,
          0.8645310338800289
        ]
      ],
      [
        [
          1.4509601571694366,
          -0.1455101650024468,
          -0.1688301835540797
        ],
        [
          -2.428583331948493,
          0.8341777149760626,
          1.7653776918024013
        ],
        [
          2.4196728536786734,
          0.2026776669866095,
          0.4278893197202263
        ],
        [
          -1.5259971563817387,
          0.18416511516046058,
          0.9514787758407537
        ]
      ],
      [
        [
          0.037761364975991286,
          -0.04784486258625669,
          -3.256049411296738
        ],
        [
          0.1343948474979672,
          -0.07178681335565573,
          -0.20887359586235918
        ],
        [
          0.0048770974513465265,
          0.16241527139073297,
          -3.676166184932673
        ],
        [
          0.5273192961697228,
          -0.021784079836216767,
          -2.2374627500344633
        ]
      ],
      [
        [
          -0.5699496251933294,
          -0.10840570496397577,
          0.8567788023340099
        ],
        [
          1.235738714584053,
          -0.044885188541615634,
          -1.5511206089991751
        ],
        [
          2.5974657668027095,
          0.01756418128134485,
          3.4089695889343075
        ],
        [
          -0.5673405599477523,
          -0.002471092226735394,
          -0.44107520235979186
        ]
      ],
      [
        [
          3.6857709827028287,
          5.601247057879623e-05,
          1.7406329282024076
        ],
        [
          -0.769456338662706,
          -0.16464063375839358,
          -0.3338801058517279
        ],
        [
          2.819763786761268,
          -0.10488201458423771,
          1.9380481463817874
        ],
        [
          1.6495973681199616,
          -0.20759274139015776,
          0.38081540068846115
        ]
      ],
      [
        [
          -0.39179013174931354,
          0.10338570886685908,
          0.15506225598485474
        ],
        [
          0.4482738288367929,
          0.05708248491366441,
          -0.8241384779867168
        ],
        [
          0.7813975319863617,
          0.06982499972050764,
          0.5964435374302355
        ],
        [
          0.6045129546115583,
          0.08771396391175644,
          0.2149258751556481
        ]
      ]
    ]
  },
  "metrics": {
    "mse_train_noise": 0.04249628927590868,
    "mse_train_recovered": 0.019085468460160383,
    "delta_train_pct": 55.08909416479331,
    "mse_test_noise": 0.03574197205136823,
    "mse_test_recovered": 0.012771394668849427,
    "delta_test_pct": 64.26779515552631,
    "mse_train_recovered_pure": 0.0029538127909007027,
    "mse_test_recovered_pure": 0.0030312537050011515,
    "min_train_cost": 0.007654987299562814
  },
  "artifacts": {
    "weights_file": "weights_inst02_L4.npy",
    "circuit_diagram": "circuit_4q_3l_1t_L4_inst02.eps",
    "training_cost_plot": "training_cost_inst02_L4.eps",
    "cost_history": "cost_inst02_L4.json",
    "reconstruction_pure_plot": "reconstruction_pure_inst02_L4.eps",
    "reconstruction_noisy_plot": "reconstruction_noisy_inst02_L4.eps"
  }
}