{
  "schema": {
    "name": "stacked_qae_bundle",
    "version": "1.0"
  },
  "timestamp": "2026-01-15 13:26:51",
  "dataset": {
    "id": "mackey_glass_tau30_n200",
    "scale_low": 0.0,
    "scale_high": 1.0,
    "window_size": 6,
    "window_step": 2,
    "split": 0.75
  },
  "run": {
    "instance_id": 6,
    "layer": 3,
    "dec_epochs": 200,
    "enc_epochs": 500,
    "sigma_eval": 0.2,
    "test_seed_fixed": 99123,
    "device_seed": 13050,
    "stage1_time_sec": 68,
    "stage2_time_sec": 327
  },
  "environment": {
    "device": "lightning.qubit",
    "diff_method": "adjoint",
    "interface": "autograd"
  },
  "architecture": {
    "type": "stacked",
    "n_qubits": 6,
    "n_latent": 4,
    "n_trash": 2,
    "rot": "Rxyz"
  },
  "parameters": {
    "weights_stage1": [
      [
        [
          -0.0013994263288924843,
          1.4330952027786517,
          -0.000935431571936276
        ],
        [
          -0.0001913185026192642,
          1.361964566887856,
          -1.5710445019272614
        ],
        [
          0.0017760954324527781,
          1.218478135628025,
          3.148407870073846
        ],
        [
          -0.0009063006250816866,
          1.2472534720299575,
          1.5575525160948438
        ],
        [
          0.0023814139822375398,
          1.3368982384993848,
          0.014862756105407111
        ],
        [
          -1.5708077176938398,
          1.5721997842306283,
          0.2112246342098139
        ]
      ],
      [
        [
          1.361566772711273,
          -0.5298277410863023,
          0.04406530868307076
        ],
        [
          1.5550624279036318,
          0.18015318013889497,
          0.9756763914227851
        ],
        [
          -1.5568569895323403,
          0.2220829146233439,
          0.3456777861046538
        ],
        [
          -1.5644779046234965,
          -0.24276638724986196,
          0.3153924444114003
        ],
        [
          -0.017327478063849322,
          -0.366641277976449,
          -0.7614603162110883
        ],
        [
          0.6509471451480511,
          0.3296300467803733,
          0.5665524287146355
        ]
      ],
      [
        [
          0.10177923117164901,
          0.11127701159887607,
          0.21259338008224274
        ],
        [
          0.1461000616514512,
          0.008362334271335752,
          0.22640432729243326
        ],
        [
          0.9466025113333546,
          -0.039397038136095665,
          0.16765587690659595
        ],
        [
          0.22838132245680312,
          0.21203543336217823,
          0.28353311841842954
        ],
        [
          0.08732139936515365,
          -0.032198815950122875,
          0.012024009676491016
        ],
        [
          0.49782691390534956,
          0.0022996737714857636,
          0.10096771593036977
        ]
      ]
    ],
    "weights_stage2": [
      [
        [
          0.20360926954795752,
          1.4335926186651853,
          -0.10295424093944383
        ],
        [
          -2.8698495523803285,
          1.6206720970959567,
          0.4679407751670619
        ],
        [
          0.05802092917216313,
          0.9585978115037429,
          4.854362770018124
        ],
        [
          -0.09264152223764101,
          0.3611004730667447,
          1.5638330923184323
        ],
        [
          0.12452932357572037,
          1.1528385186968029,
          -1.915764553778713
        ],
        [
          -3.6131966884340163,
          1.409202382667843,
          0.005733007899482408
        ]
      ],
      [
        [
          0.40795899235979904,
          -0.5471443659521545,
          1.0486228415452352
        ],
        [
          1.4385197541515287,
          -0.22700166876604141,
          -0.1739053347004703
        ],
        [
          -1.397860497998604,
          0.0867202684343203,
          1.2457676544704692
        ],
        [
          -1.2995503095132417,
          -0.07162930966119775,
          0.10964510297558451
        ],
        [
          0.9123664981553794,
          -0.6216286284631135,
          -1.1971753149786986
        ],
        [
          -0.37029363001657445,
          -0.13826049397335127,
          1.6648385947028417
        ]
      ],
      [
        [
          -4.702450767198675,
          0.19567745526655667,
          0.5534074518395077
        ],
        [
          -0.09277019200535214,
          0.07681799611761668,
          0.005489279045780181
        ],
        [
          0.6242010120275278,
          0.04815420654910906,
          -0.46549472715917756
        ],
        [
          1.6308791965378602,
          0.07214271183286325,
          1.2643748056192803
        ],
        [
          0.4151454268081775,
          -0.04547115138203327,
          0.8104985852617044
        ],
        [
          0.276940632734906,
          -0.11576541195871894,
          0.7388239311275688
        ]
      ]
    ]
  },
  "metrics": {
    "stage1_min_cost": 0.16570804257333685,
    "stage2_min_cost": 0.12540690173896546,
    "mse_train_noise": 0.04208329887417109,
    "mse_train_recovered": 0.032765406012799064,
    "delta_train_pct": 22.141545721575895,
    "mse_test_noise": 0.03574197205136823,
    "mse_test_recovered": 0.02968390133165337,
    "delta_test_pct": 16.949458499402958,
    "mse_train_recovered_pure": 0.02024876176556098,
    "mse_test_recovered_pure": 0.015478495251850454
  },
  "artifacts": {
    "weights_s1_file": "weights_s1_inst06_L3.npy",
    "weights_s2_file": "weights_s2_inst06_L3.npy",
    "circuit_stage1": "circuit_stage1_6q_4l_2t_stacked_L03_inst06.eps",
    "circuit_stage2": "circuit_stage2_6q_4l_2t_stacked_L03_inst06.eps",
    "circuit_full": "circuit_full_6q_4l_2t_stacked_L3_inst06.eps",
    "training_cost_s1_plot": "training_cost_s1_dec200_enc500_inst06.eps",
    "training_cost_s2_plot": "training_cost_s2_dec200_enc500_inst06.eps",
    "reconstruction_pure_plot": "reconst_pure_dec200_enc500_inst06_L3.eps",
    "reconstruction_noisy_plot": "reconst_noisy_dec200_enc500_inst06_L3.eps"
  }
}