{
  "schema": {
    "name": "stacked_qae_bundle",
    "version": "1.0"
  },
  "timestamp": "2026-01-15 14:55:26",
  "dataset": {
    "id": "mackey_glass_tau30_n200",
    "scale_low": 0.0,
    "scale_high": 1.0,
    "window_size": 6,
    "window_step": 2,
    "split": 0.75
  },
  "run": {
    "instance_id": 4,
    "layer": 3,
    "dec_epochs": 400,
    "enc_epochs": 500,
    "sigma_eval": 0.2,
    "test_seed_fixed": 99123,
    "device_seed": 13048,
    "stage1_time_sec": 139,
    "stage2_time_sec": 329
  },
  "environment": {
    "device": "lightning.qubit",
    "diff_method": "adjoint",
    "interface": "autograd"
  },
  "architecture": {
    "type": "stacked",
    "n_qubits": 6,
    "n_latent": 4,
    "n_trash": 2,
    "rot": "Rxyz"
  },
  "parameters": {
    "weights_stage1": [
      [
        [
          -0.002048371116883469,
          1.4292218169653936,
          0.0003987490912377307
        ],
        [
          -0.00037878027218039156,
          1.360233947127599,
          1.57046014596605
        ],
        [
          -0.0002757276869767883,
          1.2201461000295204,
          4.194246646638359e-05
        ],
        [
          9.977499178844721e-05,
          1.2500355438040618,
          1.569378963038339
        ],
        [
          -0.0007093619698475964,
          1.3382267535432315,
          -0.01112705356293499
        ],
        [
          -1.571316514820916,
          1.5703195969545551,
          0.215287305250174
        ]
      ],
      [
        [
          -1.7709140623063768,
          -0.5234513555098638,
          1.5464397841450395
        ],
        [
          1.5732246287174687,
          0.18251720059021695,
          0.5554380222240551
        ],
        [
          1.572373985251139,
          0.22025988310777753,
          -1.5204359798259375
        ],
        [
          -1.5604300805750613,
          -0.24499373284500683,
          1.6044492757783482
        ],
        [
          0.010675256598683345,
          -0.369992773500132,
          0.05097660318672514
        ],
        [
          0.6342830838700679,
          -0.3234276644628567,
          0.41124410828274444
        ]
      ],
      [
        [
          0.14891701555145442,
          0.13861431510167393,
          0.26054751690406397
        ],
        [
          -0.3291476331050242,
          0.01140982282725994,
          0.27719327179961345
        ],
        [
          -1.3708239315973854,
          -0.049880502700040935,
          0.17416317190332822
        ],
        [
          0.040069803525597435,
          0.3016307762706629,
          0.02753843003324765
        ],
        [
          0.6159308375623849,
          0.0031308155187207533,
          0.17430469847478947
        ],
        [
          0.4415441510311049,
          0.010369401180847575,
          0.02803015970933255
        ]
      ]
    ],
    "weights_stage2": [
      [
        [
          -0.016126879815828943,
          1.4552603409201303,
          -0.6810496129289376
        ],
        [
          -0.19979221334235275,
          1.6108645186608281,
          1.0162754407327879
        ],
        [
          0.0011121774493712837,
          0.8879368949410148,
          0.8868530084764876
        ],
        [
          0.00970762403021737,
          0.2503920618094824,
          -2.5505570159469335
        ],
        [
          0.11219193873314152,
          1.0992687780142691,
          1.2702989155375084
        ],
        [
          -2.536848564038871,
          1.4626894615775379,
          0.061007407942933425
        ]
      ],
      [
        [
          -1.3658188912443205,
          -0.6158968422926691,
          1.2335853974234416
        ],
        [
          1.2979909785221388,
          0.2870768973037356,
          2.8738970714086784
        ],
        [
          1.8765976550740442,
          0.11877370234628475,
          -0.5870591328684881
        ],
        [
          -1.6415922402378256,
          -0.05976212400714386,
          0.46669211377387115
        ],
        [
          -1.009928133590023,
          -0.5500012275811043,
          -0.891717397047089
        ],
        [
          0.20665332007676823,
          -0.126532181751636,
          0.542425074631077
        ]
      ],
      [
        [
          -0.704313001993085,
          0.17122548345262728,
          1.019808660612135
        ],
        [
          -0.6281790628158048,
          0.05297865360653717,
          0.3077165594952354
        ],
        [
          -1.4692412406365192,
          -1.5365713814234663,
          1.5216689808954333
        ],
        [
          -0.012491519489884305,
          0.39853459150949855,
          -0.01372205402934802
        ],
        [
          1.52620129782535,
          0.12356875339878612,
          0.023467810916408954
        ],
        [
          -1.1270686234699123,
          0.11211888968231938,
          -0.19781867182301408
        ]
      ]
    ]
  },
  "metrics": {
    "stage1_min_cost": 0.16569661442999123,
    "stage2_min_cost": 0.1210058972702373,
    "mse_train_noise": 0.04208329887417109,
    "mse_train_recovered": 0.032222731650046646,
    "delta_train_pct": 23.43107001570267,
    "mse_test_noise": 0.03574197205136823,
    "mse_test_recovered": 0.029122904602274617,
    "delta_test_pct": 18.51903258046511,
    "mse_train_recovered_pure": 0.01983649214490288,
    "mse_test_recovered_pure": 0.0155633889949602
  },
  "artifacts": {
    "weights_s1_file": "weights_s1_inst04_L3.npy",
    "weights_s2_file": "weights_s2_inst04_L3.npy",
    "circuit_stage1": "circuit_stage1_6q_4l_2t_stacked_L03_inst04.eps",
    "circuit_stage2": "circuit_stage2_6q_4l_2t_stacked_L03_inst04.eps",
    "circuit_full": "circuit_full_6q_4l_2t_stacked_L3_inst04.eps",
    "training_cost_s1_plot": "training_cost_s1_dec400_enc500_inst04.eps",
    "training_cost_s2_plot": "training_cost_s2_dec400_enc500_inst04.eps",
    "reconstruction_pure_plot": "reconst_pure_dec400_enc500_inst04_L3.eps",
    "reconstruction_noisy_plot": "reconst_noisy_dec400_enc500_inst04_L3.eps"
  }
}