{
  "schema": {
    "name": "stacked_qae_bundle",
    "version": "1.0"
  },
  "timestamp": "2026-01-15 13:13:36",
  "dataset": {
    "id": "mackey_glass_tau30_n200",
    "scale_low": 0.0,
    "scale_high": 1.0,
    "window_size": 6,
    "window_step": 2,
    "split": 0.75
  },
  "run": {
    "instance_id": 4,
    "layer": 3,
    "dec_epochs": 200,
    "enc_epochs": 500,
    "sigma_eval": 0.2,
    "test_seed_fixed": 99123,
    "device_seed": 13048,
    "stage1_time_sec": 68,
    "stage2_time_sec": 327
  },
  "environment": {
    "device": "lightning.qubit",
    "diff_method": "adjoint",
    "interface": "autograd"
  },
  "architecture": {
    "type": "stacked",
    "n_qubits": 6,
    "n_latent": 4,
    "n_trash": 2,
    "rot": "Rxyz"
  },
  "parameters": {
    "weights_stage1": [
      [
        [
          -0.0008403406817275033,
          1.432890739323595,
          -0.004912661042551218
        ],
        [
          -0.000469665646660391,
          1.3689320785758339,
          1.5579425755408873
        ],
        [
          0.0008008592793079381,
          1.232353321922793,
          -0.041716634458623274
        ],
        [
          0.0004806940960576883,
          1.2589559421462244,
          1.5937944591411355
        ],
        [
          -0.0014844850738629073,
          1.3537294632793224,
          -0.03899490137344042
        ],
        [
          -1.6539153959026198,
          1.5562759875064183,
          0.19623600846753306
        ]
      ],
      [
        [
          -1.7708894283039678,
          -0.5197224576368665,
          1.499743128196528
        ],
        [
          1.5638618953623407,
          0.1847604768528414,
          0.16145974598702234
        ],
        [
          1.5861023393636644,
          0.22185035988642096,
          -1.281757892520134
        ],
        [
          -1.5640834443038507,
          -0.24656596696673788,
          1.2801107616336882
        ],
        [
          0.03921782936684989,
          -0.37639344475590397,
          -0.045858036411223865
        ],
        [
          0.646581711573911,
          -0.31891074291160865,
          0.20280100497239872
        ]
      ],
      [
        [
          0.14891701556602965,
          0.13861431508984215,
          0.2605475169298459
        ],
        [
          0.5674330890670137,
          0.0017873250343832866,
          0.277193271991926
        ],
        [
          -1.1832668764172662,
          -0.04705321074085819,
          0.17416317204417747
        ],
        [
          0.04006980347242809,
          0.3016307763119521,
          0.02753843003720375
        ],
        [
          0.47840796216912274,
          0.0016532828635300594,
          0.1743046985504119
        ],
        [
          0.4592845686639305,
          0.0012216490682666339,
          0.028030159705298145
        ]
      ]
    ],
    "weights_stage2": [
      [
        [
          -0.07072141679244673,
          1.493497408060613,
          -0.06429180476274166
        ],
        [
          -0.09650404400931868,
          1.4081105289845168,
          1.4933575223026956
        ],
        [
          -0.003339690574655753,
          0.9136866357887682,
          0.2424028597099422
        ],
        [
          2.5466964472619593,
          -0.1038620810125714,
          -0.9204972570701581
        ],
        [
          0.006281579689262835,
          1.0953580418790319,
          0.030699939125870584
        ],
        [
          -2.960682722870405,
          1.3993650960486912,
          1.6165402931594959
        ]
      ],
      [
        [
          -2.0544221496572335,
          -1.1454031716331243,
          1.0348039477652617
        ],
        [
          1.5657771479180052,
          0.1522532712040019,
          0.38810399401624696
        ],
        [
          1.7584274932238264,
          -0.14329966240985711,
          -0.6571566617037937
        ],
        [
          -1.3851872426888272,
          0.42393704834562973,
          0.7267801875019388
        ],
        [
          -1.6327826522367375,
          -0.15582149673392165,
          0.2849351393017116
        ],
        [
          0.6488392909525109,
          -0.8410526693827437,
          -0.7052283587712632
        ]
      ],
      [
        [
          -0.9217126779992156,
          0.10527201158735028,
          0.07194637039256917
        ],
        [
          0.21890887267307618,
          -0.07829967171188221,
          -0.7473069789336626
        ],
        [
          -1.4957233512125514,
          0.06477193160107297,
          0.3265476788633525
        ],
        [
          0.5072838619698516,
          0.23797338584117583,
          -0.3172048706074559
        ],
        [
          1.2959076506336185,
          0.10775066131908712,
          1.071966158497301
        ],
        [
          0.2654144150694996,
          0.16981370922802413,
          0.3787076414807938
        ]
      ]
    ]
  },
  "metrics": {
    "stage1_min_cost": 0.16579859831147925,
    "stage2_min_cost": 0.12744475592967583,
    "mse_train_noise": 0.04208329887417109,
    "mse_train_recovered": 0.03422408872261277,
    "delta_train_pct": 18.675366147167615,
    "mse_test_noise": 0.03574197205136823,
    "mse_test_recovered": 0.03079655355719765,
    "delta_test_pct": 13.836445529818686,
    "mse_train_recovered_pure": 0.02009476235280246,
    "mse_test_recovered_pure": 0.016500028962497512
  },
  "artifacts": {
    "weights_s1_file": "weights_s1_inst04_L3.npy",
    "weights_s2_file": "weights_s2_inst04_L3.npy",
    "circuit_stage1": "circuit_stage1_6q_4l_2t_stacked_L03_inst04.eps",
    "circuit_stage2": "circuit_stage2_6q_4l_2t_stacked_L03_inst04.eps",
    "circuit_full": "circuit_full_6q_4l_2t_stacked_L3_inst04.eps",
    "training_cost_s1_plot": "training_cost_s1_dec200_enc500_inst04.eps",
    "training_cost_s2_plot": "training_cost_s2_dec200_enc500_inst04.eps",
    "reconstruction_pure_plot": "reconst_pure_dec200_enc500_inst04_L3.eps",
    "reconstruction_noisy_plot": "reconst_noisy_dec200_enc500_inst04_L3.eps"
  }
}