{
  "schema": {
    "name": "stacked_qae_bundle",
    "version": "1.0"
  },
  "timestamp": "2026-01-15 12:53:40",
  "dataset": {
    "id": "mackey_glass_tau30_n200",
    "scale_low": 0.0,
    "scale_high": 1.0,
    "window_size": 6,
    "window_step": 2,
    "split": 0.75
  },
  "run": {
    "instance_id": 1,
    "layer": 3,
    "dec_epochs": 200,
    "enc_epochs": 500,
    "sigma_eval": 0.2,
    "test_seed_fixed": 99123,
    "device_seed": 13045,
    "stage1_time_sec": 68,
    "stage2_time_sec": 328
  },
  "environment": {
    "device": "lightning.qubit",
    "diff_method": "adjoint",
    "interface": "autograd"
  },
  "architecture": {
    "type": "stacked",
    "n_qubits": 6,
    "n_latent": 4,
    "n_trash": 2,
    "rot": "Rxyz"
  },
  "parameters": {
    "weights_stage1": [
      [
        [
          2.7875598890820802e-05,
          1.4324362832931181,
          -0.0006948833002862171
        ],
        [
          0.0003810706955922851,
          1.3613338018108812,
          1.56885112800679
        ],
        [
          0.0010661294728129959,
          1.2181027940434301,
          -0.01571347379087206
        ],
        [
          -0.0005727765233442425,
          1.247165594944341,
          1.5691684964225587
        ],
        [
          0.002516391860489241,
          1.3351156736483278,
          0.024591355186230953
        ],
        [
          -1.5778548404005175,
          1.5675550820141497,
          0.21699226757850493
        ]
      ],
      [
        [
          -1.7792570738391018,
          -0.5287487578269764,
          0.10288535822214201
        ],
        [
          1.5772372251808051,
          0.18060364826105738,
          -0.7065952228744077
        ],
        [
          1.5930882095401346,
          0.2207006828602301,
          0.6806699779626952
        ],
        [
          -1.581697345192075,
          -0.2432519957762316,
          -0.12471290807242129
        ],
        [
          -0.025628590103865548,
          -0.36642024982420873,
          -0.549662884715048
        ],
        [
          0.6458062249455361,
          -0.32909476932243187,
          -0.073685018958454
        ]
      ],
      [
        [
          0.1300470249873706,
          0.03052302142819444,
          0.21916500333256697
        ],
        [
          0.23090046730896288,
          -0.009070275314785558,
          0.07624422003234159
        ],
        [
          -1.781191231113137,
          0.04093177410957796,
          0.07273266100954327
        ],
        [
          0.09323059293389158,
          0.15361492164720283,
          0.05360220809045604
        ],
        [
          0.060649000902996006,
          -0.03163644347744132,
          0.2181759520786595
        ],
        [
          -0.34856440825116863,
          0.004843660022999055,
          0.18631616686763836
        ]
      ]
    ],
    "weights_stage2": [
      [
        [
          0.07411236613795268,
          1.3735869057034096,
          -1.665644852742603
        ],
        [
          0.1118254689540241,
          1.5364330682244727,
          -1.17098442169601
        ],
        [
          -0.011065680424394065,
          0.9313854505286481,
          0.30369146155553395
        ],
        [
          -0.13564440211498296,
          0.37918479489026574,
          2.7845007164154687
        ],
        [
          0.008337404034781087,
          1.2399987436341866,
          1.6575997673666658
        ],
        [
          -3.1658821621901065,
          1.327703003991931,
          -0.30036108600924444
        ]
      ],
      [
        [
          -1.573079136617571,
          -0.7073419695911988,
          0.011248680453158827
        ],
        [
          2.4671374941520092,
          0.15197200088983556,
          1.9097405883301433
        ],
        [
          1.859429961896992,
          -0.08476950706462476,
          -0.2490475611456538
        ],
        [
          -1.39330653658698,
          0.03748361293069662,
          1.6958980556241017
        ],
        [
          -1.4467077254975327,
          -0.7125899579142666,
          -1.652867000204975
        ],
        [
          0.5870729782869865,
          0.06939012331931173,
          -1.177186773916167
        ]
      ],
      [
        [
          1.9986677167920754,
          0.0941317942672642,
          -0.2698954530764031
        ],
        [
          0.6339418260723816,
          -1.6565653264572382,
          -1.5519713531030654
        ],
        [
          -1.7627138361945138,
          0.011905573064519538,
          -0.23986496648887945
        ],
        [
          -1.3253353284885263,
          0.10670396289504631,
          -0.6058915965606901
        ],
        [
          0.4072721301828481,
          -0.03556653834858151,
          0.7750162292563253
        ],
        [
          0.38127647152667865,
          -0.10733401297838203,
          1.3482558140277046
        ]
      ]
    ]
  },
  "metrics": {
    "stage1_min_cost": 0.16569817582683646,
    "stage2_min_cost": 0.12253591706183191,
    "mse_train_noise": 0.04208329887417109,
    "mse_train_recovered": 0.03277203397667381,
    "delta_train_pct": 22.125796091551486,
    "mse_test_noise": 0.03574197205136823,
    "mse_test_recovered": 0.030359814866669485,
    "delta_test_pct": 15.058366608768903,
    "mse_train_recovered_pure": 0.020502145895476446,
    "mse_test_recovered_pure": 0.01639614494879077
  },
  "artifacts": {
    "weights_s1_file": "weights_s1_inst01_L3.npy",
    "weights_s2_file": "weights_s2_inst01_L3.npy",
    "circuit_stage1": "circuit_stage1_6q_4l_2t_stacked_L03_inst01.eps",
    "circuit_stage2": "circuit_stage2_6q_4l_2t_stacked_L03_inst01.eps",
    "circuit_full": "circuit_full_6q_4l_2t_stacked_L3_inst01.eps",
    "training_cost_s1_plot": "training_cost_s1_dec200_enc500_inst01.eps",
    "training_cost_s2_plot": "training_cost_s2_dec200_enc500_inst01.eps",
    "reconstruction_pure_plot": "reconst_pure_dec200_enc500_inst01_L3.eps",
    "reconstruction_noisy_plot": "reconst_noisy_dec200_enc500_inst01_L3.eps"
  }
}