{
  "schema": {
    "name": "stacked_qae_bundle",
    "version": "1.0"
  },
  "timestamp": "2026-01-15 12:47:02",
  "dataset": {
    "id": "mackey_glass_tau30_n200",
    "scale_low": 0.0,
    "scale_high": 1.0,
    "window_size": 6,
    "window_step": 2,
    "split": 0.75
  },
  "run": {
    "instance_id": 7,
    "layer": 3,
    "dec_epochs": 100,
    "enc_epochs": 500,
    "sigma_eval": 0.2,
    "test_seed_fixed": 99123,
    "device_seed": 13051,
    "stage1_time_sec": 34,
    "stage2_time_sec": 327
  },
  "environment": {
    "device": "lightning.qubit",
    "diff_method": "adjoint",
    "interface": "autograd"
  },
  "architecture": {
    "type": "stacked",
    "n_qubits": 6,
    "n_latent": 4,
    "n_trash": 2,
    "rot": "Rxyz"
  },
  "parameters": {
    "weights_stage1": [
      [
        [
          -0.037600867138122857,
          1.4470286475363172,
          1.7704307858094335
        ],
        [
          -0.013834433568895488,
          1.2627862190196022,
          0.12418335578229271
        ],
        [
          -0.003844633831084642,
          1.156389413232811,
          1.550542139489577
        ],
        [
          -0.003080933657692666,
          1.1675897326536824,
          1.5666991220925153
        ],
        [
          -0.005535983916335374,
          1.1857290424741787,
          0.5282894296764894
        ],
        [
          0.7571518978181578,
          -0.4215994768125033,
          0.8647342924253696
        ]
      ],
      [
        [
          1.2620187477701938,
          -0.35588639342536565,
          0.4540522241313594
        ],
        [
          1.6310069485083238,
          0.22781484755189793,
          0.41969133495524236
        ],
        [
          -0.07799356030224439,
          0.1485468167560752,
          -0.4207233259783199
        ],
        [
          1.027728863272699,
          0.20777054298873684,
          0.26571205645170287
        ],
        [
          0.45115025177244644,
          0.06929492635835333,
          0.5184133399506206
        ],
        [
          0.21270484249157898,
          -0.5377535607920911,
          0.3401266210418487
        ]
      ],
      [
        [
          0.0909269881705723,
          0.006128600723056347,
          0.2435354689643988
        ],
        [
          0.07126399728666181,
          -0.010898507064276256,
          0.2134730729723124
        ],
        [
          0.15892235884623032,
          -0.04506324858543614,
          0.18698169086958166
        ],
        [
          0.008810459877448419,
          0.2686045422116653,
          0.025671440515982545
        ],
        [
          -0.2502519310761207,
          -0.004329704869946111,
          0.18038667282828638
        ],
        [
          0.5582787403044647,
          0.008550648967470086,
          0.0019613493879605585
        ]
      ]
    ],
    "weights_stage2": [
      [
        [
          0.3093405552765714,
          1.6261384065891216,
          1.6665852597362134
        ],
        [
          -0.047207695802075976,
          1.3392610233796425,
          0.5872619820373817
        ],
        [
          -0.028148436431796084,
          0.7783048923574861,
          1.9435023956517865
        ],
        [
          -0.060226251257044644,
          0.5202858181967706,
          -0.7454791064492893
        ],
        [
          0.07420405000987887,
          1.015598126672713,
          4.412744146351411
        ],
        [
          1.6631498335823025,
          -1.1249434655625203,
          0.43158106323474577
        ]
      ],
      [
        [
          2.0229959932760035,
          0.3500019746030685,
          0.2090245816094598
        ],
        [
          1.1172069619940064,
          0.11747602835727931,
          1.2005088525793368
        ],
        [
          -1.7616091173755002,
          0.17743044418879148,
          -0.10054175410202802
        ],
        [
          1.4536781065403972,
          -0.1981522891805191,
          0.46357957003353245
        ],
        [
          1.3664851708987593,
          0.3339493780617886,
          -0.028091434964118766
        ],
        [
          0.6799336347180912,
          -1.078231944669331,
          -0.22561612253268812
        ]
      ],
      [
        [
          2.0489949182193095,
          0.07572388215038837,
          -1.45486761966622
        ],
        [
          0.10646264771889183,
          0.1469551754508743,
          -1.2387057863060527
        ],
        [
          -0.17517210517083026,
          0.023644293427202336,
          0.10402081999486489
        ],
        [
          -0.22261019090750173,
          0.15512017230257355,
          0.4568304389665986
        ],
        [
          -0.0843215299703678,
          -0.02861913414699549,
          0.642953903230481
        ],
        [
          0.22795509899843072,
          0.06518218132334411,
          0.581901622680713
        ]
      ]
    ]
  },
  "metrics": {
    "stage1_min_cost": 0.1783983042966269,
    "stage2_min_cost": 0.13411331408160307,
    "mse_train_noise": 0.04208329887417109,
    "mse_train_recovered": 0.03442106285956611,
    "delta_train_pct": 18.207308408770515,
    "mse_test_noise": 0.03574197205136823,
    "mse_test_recovered": 0.031490395460200826,
    "delta_test_pct": 11.89519309415008,
    "mse_train_recovered_pure": 0.022995435625513528,
    "mse_test_recovered_pure": 0.019983926029350466
  },
  "artifacts": {
    "weights_s1_file": "weights_s1_inst07_L3.npy",
    "weights_s2_file": "weights_s2_inst07_L3.npy",
    "circuit_stage1": "circuit_stage1_6q_4l_2t_stacked_L03_inst07.eps",
    "circuit_stage2": "circuit_stage2_6q_4l_2t_stacked_L03_inst07.eps",
    "circuit_full": "circuit_full_6q_4l_2t_stacked_L3_inst07.eps",
    "training_cost_s1_plot": "training_cost_s1_dec100_enc500_inst07.eps",
    "training_cost_s2_plot": "training_cost_s2_dec100_enc500_inst07.eps",
    "reconstruction_pure_plot": "reconst_pure_dec100_enc500_inst07_L3.eps",
    "reconstruction_noisy_plot": "reconst_noisy_dec100_enc500_inst07_L3.eps"
  }
}