{
  "schema": {
    "name": "stacked_qae_bundle",
    "version": "1.0"
  },
  "timestamp": "2026-01-15 15:19:01",
  "dataset": {
    "id": "mackey_glass_tau30_n200",
    "scale_low": 0.0,
    "scale_high": 1.0,
    "window_size": 6,
    "window_step": 2,
    "split": 0.75
  },
  "run": {
    "instance_id": 7,
    "layer": 3,
    "dec_epochs": 400,
    "enc_epochs": 500,
    "sigma_eval": 0.2,
    "test_seed_fixed": 99123,
    "device_seed": 13051,
    "stage1_time_sec": 138,
    "stage2_time_sec": 332
  },
  "environment": {
    "device": "lightning.qubit",
    "diff_method": "adjoint",
    "interface": "autograd"
  },
  "architecture": {
    "type": "stacked",
    "n_qubits": 6,
    "n_latent": 4,
    "n_trash": 2,
    "rot": "Rxyz"
  },
  "parameters": {
    "weights_stage1": [
      [
        [
          -1.1196908228777872e-06,
          1.3458706971706438,
          1.5708042420823694
        ],
        [
          -4.706061206216588e-07,
          1.2566046388583845,
          1.8551665623339594e-05
        ],
        [
          1.1276866643504024e-06,
          1.1855346570975362,
          1.570714747076719
        ],
        [
          1.8576143978347074e-06,
          1.204366863055986,
          1.5707819622345094
        ],
        [
          -1.4843884018693367e-06,
          1.3191906254376327,
          -5.7614265554618355e-05
        ],
        [
          1.570798743039835,
          -1.5707946648764652,
          0.02140593592938431
        ]
      ],
      [
        [
          2.521037154555474,
          -0.33294430932627045,
          -0.12336013298188675
        ],
        [
          1.5708470472600653,
          0.1943656286906974,
          -0.00021495225446005532
        ],
        [
          0.00011917629837918478,
          0.17477326784688824,
          -5.498394210086196e-05
        ],
        [
          1.5708531107939339,
          0.2390456156139861,
          0.00016072039915148437
        ],
        [
          5.891862010454693e-05,
          0.3454992181007408,
          1.5706819503921858
        ],
        [
          -0.34804828366719404,
          -0.5061509175982125,
          0.6696202183277905
        ]
      ],
      [
        [
          0.09092698812696832,
          0.006128600717595348,
          0.2435354688913884
        ],
        [
          0.029476699936313674,
          5.042689264914982e-07,
          0.21347307292540452
        ],
        [
          1.0373370203986525,
          -0.07732697946153205,
          0.18698169083067304
        ],
        [
          0.008810459872560347,
          0.2686045421519689,
          0.025671440567157554
        ],
        [
          -0.31018571298709585,
          2.374884597637824e-06,
          0.1803866728297593
        ],
        [
          1.8736080154374324,
          -0.025934466568587215,
          0.0019613494596880062
        ]
      ]
    ],
    "weights_stage2": [
      [
        [
          -0.25494149015115813,
          1.440018464921838,
          1.8366209989566293
        ],
        [
          -0.23382204694203854,
          1.2954575462856115,
          -1.6829154413344287
        ],
        [
          -0.058012929548347185,
          0.8552611455191279,
          1.5292725689745132
        ],
        [
          0.07079837784463199,
          0.5381278031895704,
          -3.331396143682652
        ],
        [
          -0.07209015514861927,
          1.1659653722251475,
          1.4417297275696401
        ],
        [
          2.8101687068510426,
          -1.4921161477931548,
          -0.2520862473825306
        ]
      ],
      [
        [
          1.7444398524341032,
          0.6735277176813445,
          1.0632048682834052
        ],
        [
          0.8434357911545213,
          -0.14231764930430085,
          0.15087591342686762
        ],
        [
          0.37208698243477506,
          0.012823143347851952,
          -0.2337644983609738
        ],
        [
          1.4254145017754944,
          -0.02907854080860084,
          0.10510751390810796
        ],
        [
          -1.5119959524920739,
          0.746504006912261,
          2.968465233192796
        ],
        [
          -0.16072902240856515,
          0.28519082506467774,
          1.5097583684274523
        ]
      ],
      [
        [
          -1.8421379617874427,
          -0.0813882585494006,
          2.3237024496522345
        ],
        [
          -0.5504122178098728,
          0.07686825294594808,
          -0.7915193976264037
        ],
        [
          0.7871568843994942,
          0.07254617623661383,
          0.7378071263950109
        ],
        [
          -0.0451046277530073,
          0.1932044313088327,
          0.03590611930906037
        ],
        [
          0.2787167696334063,
          -0.005888078790092227,
          0.25544671494364457
        ],
        [
          1.571341013193554,
          -0.07068087052654538,
          -0.4693531832522173
        ]
      ]
    ]
  },
  "metrics": {
    "stage1_min_cost": 0.1705922705693748,
    "stage2_min_cost": 0.12223837679811018,
    "mse_train_noise": 0.04208329887417109,
    "mse_train_recovered": 0.032331961269524256,
    "delta_train_pct": 23.171514271738292,
    "mse_test_noise": 0.03574197205136823,
    "mse_test_recovered": 0.027269075390213286,
    "delta_test_pct": 23.705733553195472,
    "mse_train_recovered_pure": 0.020117949626758724,
    "mse_test_recovered_pure": 0.01572164182762564
  },
  "artifacts": {
    "weights_s1_file": "weights_s1_inst07_L3.npy",
    "weights_s2_file": "weights_s2_inst07_L3.npy",
    "circuit_stage1": "circuit_stage1_6q_4l_2t_stacked_L03_inst07.eps",
    "circuit_stage2": "circuit_stage2_6q_4l_2t_stacked_L03_inst07.eps",
    "circuit_full": "circuit_full_6q_4l_2t_stacked_L3_inst07.eps",
    "training_cost_s1_plot": "training_cost_s1_dec400_enc500_inst07.eps",
    "training_cost_s2_plot": "training_cost_s2_dec400_enc500_inst07.eps",
    "reconstruction_pure_plot": "reconst_pure_dec400_enc500_inst07_L3.eps",
    "reconstruction_noisy_plot": "reconst_noisy_dec400_enc500_inst07_L3.eps"
  }
}