{
  "schema": {
    "name": "stacked_qae_bundle",
    "version": "1.0"
  },
  "timestamp": "2026-01-15 13:00:18",
  "dataset": {
    "id": "mackey_glass_tau30_n200",
    "scale_low": 0.0,
    "scale_high": 1.0,
    "window_size": 6,
    "window_step": 2,
    "split": 0.75
  },
  "run": {
    "instance_id": 2,
    "layer": 3,
    "dec_epochs": 200,
    "enc_epochs": 500,
    "sigma_eval": 0.2,
    "test_seed_fixed": 99123,
    "device_seed": 13046,
    "stage1_time_sec": 68,
    "stage2_time_sec": 327
  },
  "environment": {
    "device": "lightning.qubit",
    "diff_method": "adjoint",
    "interface": "autograd"
  },
  "architecture": {
    "type": "stacked",
    "n_qubits": 6,
    "n_latent": 4,
    "n_trash": 2,
    "rot": "Rxyz"
  },
  "parameters": {
    "weights_stage1": [
      [
        [
          -0.004221108118452195,
          1.3131582598965956,
          0.026230396676618577
        ],
        [
          -0.005883598712926399,
          1.2762170580658654,
          1.174191232339982
        ],
        [
          0.0075862491412834005,
          1.2121133250180776,
          0.5464689860651046
        ],
        [
          -0.005257757108913755,
          1.2599807630766011,
          -1.5608366403571245
        ],
        [
          0.010433419780718775,
          1.4259436991318304,
          0.21830017600153723
        ],
        [
          -0.01857449387167679,
          1.699133816138567,
          0.02115364049756496
        ]
      ],
      [
        [
          -1.133397329711524,
          -0.3539712914638401,
          0.4785850626041379
        ],
        [
          1.669898953049802,
          0.19481324756894677,
          -2.2423356995822945
        ],
        [
          0.9302701937735569,
          -0.2078695098441009,
          -0.0009366133080626285
        ],
        [
          1.3860891211965816,
          -0.26513955793475896,
          -0.6941321481019201
        ],
        [
          -0.21774957006975343,
          -0.45168305558715927,
          0.1168875233136766
        ],
        [
          0.7366204955371519,
          -0.08584836072695028,
          -0.27504083964737325
        ]
      ],
      [
        [
          0.16757622796775862,
          0.19423719076878918,
          0.30819849618005163
        ],
        [
          -0.6379306211697812,
          -0.006945495920098072,
          0.2926520833223867
        ],
        [
          0.10010334443290622,
          0.03860798411377085,
          0.1803082820849019
        ],
        [
          0.28074658264138475,
          0.047785078044614925,
          0.2754784294603067
        ],
        [
          -0.35977147406749965,
          0.010010575888400059,
          0.0682519920870113
        ],
        [
          -0.07431122024468102,
          0.009687690746752749,
          0.16200099241424964
        ]
      ]
    ],
    "weights_stage2": [
      [
        [
          -0.1499407833714309,
          1.3150729135831842,
          -0.4281494664877861
        ],
        [
          0.42036342276764954,
          1.6318238596613468,
          -2.421654265338001
        ],
        [
          -0.11960652753625418,
          0.9013615289216028,
          0.4439040459072681
        ],
        [
          -0.05905899950089562,
          0.3893830616120025,
          -2.3998359653545185
        ],
        [
          -0.02283380313786795,
          1.4065868116097604,
          -1.5122953561158488
        ],
        [
          -0.044732790813114015,
          1.9955847356856522,
          0.4161607173462693
        ]
      ],
      [
        [
          -1.615720181690908,
          0.6219658406479743,
          0.8857303091208999
        ],
        [
          0.7598032100723834,
          -0.07000048188458119,
          -1.2688587207379078
        ],
        [
          0.4961458255686817,
          0.13073563777338085,
          0.35977662610254724
        ],
        [
          1.6350101480827632,
          0.09120528358870571,
          -1.5537548194688686
        ],
        [
          1.574906876733315,
          -0.7194248222806424,
          -0.06209615537101231
        ],
        [
          -1.1174902929175687,
          0.22169261858149997,
          -0.15107075476767515
        ]
      ],
      [
        [
          1.5980242657336792,
          0.21161852831063532,
          0.3617070891942437
        ],
        [
          -0.38516225168966234,
          -0.8066905587624631,
          1.537895954373573
        ],
        [
          -0.019133508358769837,
          3.1535185807563217,
          1.4132673948103438
        ],
        [
          -1.5235909121205835,
          0.0987091151246261,
          0.9824951942265814
        ],
        [
          -0.712352242801428,
          -0.08964510502918413,
          -0.5264320636755433
        ],
        [
          -0.7928309349758976,
          0.12886354636396025,
          0.431098347333572
        ]
      ]
    ]
  },
  "metrics": {
    "stage1_min_cost": 0.17027295202887643,
    "stage2_min_cost": 0.11948843113930176,
    "mse_train_noise": 0.04208329887417109,
    "mse_train_recovered": 0.03274782284094392,
    "delta_train_pct": 22.183327550295438,
    "mse_test_noise": 0.03574197205136823,
    "mse_test_recovered": 0.02772287500062092,
    "delta_test_pct": 22.436078902479963,
    "mse_train_recovered_pure": 0.020755081998891055,
    "mse_test_recovered_pure": 0.016220715980535493
  },
  "artifacts": {
    "weights_s1_file": "weights_s1_inst02_L3.npy",
    "weights_s2_file": "weights_s2_inst02_L3.npy",
    "circuit_stage1": "circuit_stage1_6q_4l_2t_stacked_L03_inst02.eps",
    "circuit_stage2": "circuit_stage2_6q_4l_2t_stacked_L03_inst02.eps",
    "circuit_full": "circuit_full_6q_4l_2t_stacked_L3_inst02.eps",
    "training_cost_s1_plot": "training_cost_s1_dec200_enc500_inst02.eps",
    "training_cost_s2_plot": "training_cost_s2_dec200_enc500_inst02.eps",
    "reconstruction_pure_plot": "reconst_pure_dec200_enc500_inst02_L3.eps",
    "reconstruction_noisy_plot": "reconst_noisy_dec200_enc500_inst02_L3.eps"
  }
}