{
  "schema": {
    "name": "sidekick_qae_bundle",
    "version": "1.0"
  },
  "timestamp": "2026-01-16 03:58:50",
  "dataset": {
    "id": "mackey_glass_tau30_n200",
    "scale_low": 0.0,
    "scale_high": 1.0,
    "window_size": 6,
    "window_step": 2,
    "split": 0.75
  },
  "run": {
    "instance_id": 2,
    "layer": 3,
    "dec_epochs": 500,
    "enc_epochs": 500,
    "sigma_eval": 0.2,
    "test_seed_fixed": 99123,
    "device_seed": 13046,
    "stage1_time_sec": 174,
    "stage2_time_sec": 336
  },
  "environment": {
    "device": "lightning.qubit",
    "diff_method": "adjoint",
    "interface": "autograd"
  },
  "architecture": {
    "type": "sidekick",
    "n_qubits": 6,
    "n_latent": 4,
    "n_trash": 2,
    "rot": "Rxyz"
  },
  "parameters": {
    "weights_stage1": [
      [
        [
          1.570745025831044,
          -1.570770640417728,
          -1.502487781767286
        ],
        [
          0.0007084440734508528,
          0.18229772321512164,
          -0.0032434200183588196
        ],
        [
          0.00024883901763370504,
          -1.5635127798544106,
          -1.568645520424942
        ],
        [
          0.0008756178325645479,
          1.1694160369475541,
          0.004030876937785864
        ],
        [
          0.009104304545554906,
          0.22433038146875717,
          1.5172909381029633
        ],
        [
          -1.5711590224675258,
          -1.5722967844628397,
          1.4330106466196777
        ]
      ],
      [
        [
          0.0570022094594696,
          -0.0001425492887301221,
          0.02637605360358316
        ],
        [
          0.8596718833211684,
          0.08721506793721692,
          -1.4106703318327272
        ],
        [
          -0.18183423548672947,
          0.047102215966543404,
          0.2880777496604124
        ],
        [
          -0.44199330373743934,
          -0.026910312895573357,
          0.5299821648788879
        ],
        [
          0.39883513422893674,
          -0.03827228008397682,
          -0.2977574950366457
        ],
        [
          -0.020834162190477044,
          0.09596602774773111,
          0.01859045238608927
        ]
      ],
      [
        [
          0.16757622801627256,
          0.19423719071946355,
          0.30819849623004136
        ],
        [
          0.44724691955585744,
          1.5708638456716255,
          0.29265208321278424
        ],
        [
          0.0008950670384861247,
          1.5665970847350827,
          0.1803082820077635
        ],
        [
          0.28074658263618296,
          0.04778507794557874,
          0.2754784295236612
        ],
        [
          -0.07086046625298915,
          1.5707000650691125,
          0.06825199203422232
        ],
        [
          0.0009823427369668692,
          1.5705428075176207,
          0.1620009923950243
        ]
      ]
    ],
    "weights_stage2": [
      [
        [
          1.5805116836725146,
          -1.525660684001599,
          -1.2725938825623249
        ],
        [
          -0.012557439998155397,
          0.20493690990716387,
          0.007832515223065321
        ],
        [
          0.020673845627799933,
          -1.6164887009125455,
          -1.566458355454936
        ],
        [
          -0.0013865902068290166,
          1.1667207496748828,
          0.0021039933972752433
        ],
        [
          0.017035549729218304,
          0.5568543390276659,
          1.5687047901303213
        ],
        [
          -1.7073028843657572,
          -0.03964011427227161,
          1.7364639206764605
        ]
      ],
      [
        [
          1.2329494446947276,
          0.0494339272869971,
          -1.2286973889193429
        ],
        [
          1.2042506596277296,
          0.12308377345081355,
          -1.3291110935970305
        ],
        [
          0.31330499849067955,
          -0.012067747527472064,
          -0.28053272656223605
        ],
        [
          -1.3304160823967766,
          -0.04429938460268344,
          1.3987702682927792
        ],
        [
          -1.4566536937129402,
          -0.274325251563174,
          1.6019092853451773
        ],
        [
          -0.04293113005645234,
          3.096888550369915e-05,
          0.030625256581424568
        ]
      ],
      [
        [
          0.04134261506985919,
          0.18935908057157338,
          0.4351779194043541
        ],
        [
          -0.9601087941198507,
          1.5843280839248395,
          0.03494059229762161
        ],
        [
          0.011515002275063099,
          1.5757609260428622,
          0.042681272908094946
        ],
        [
          0.35765828971582114,
          0.06120686290962794,
          0.1912885003101749
        ],
        [
          2.3314559864874243e-05,
          1.5570400247078984,
          0.268181967394068
        ],
        [
          0.04333285042637998,
          1.566376449906717,
          0.3091001331663619
        ]
      ]
    ]
  },
  "metrics": {
    "stage1_min_cost": 0.0940300064192415,
    "stage2_min_cost": 0.1693891406192809,
    "mse_train_noise": 0.04208329887417109,
    "mse_train_recovered": 0.02729693231479784,
    "delta_train_pct": 35.135949307549375,
    "mse_test_noise": 0.03574197205136823,
    "mse_test_recovered": 0.022070495192421286,
    "delta_test_pct": 38.250482763789165,
    "mse_train_recovered_pure": 0.00388700286648295,
    "mse_test_recovered_pure": 0.0062958444442588295
  },
  "artifacts": {
    "weights_s1_file": "weights_s1_inst02_L3.npy",
    "weights_s2_file": "weights_s2_inst02_L3.npy",
    "circuit_stage1": "circuit_stage1_6q_4l_2t_sidekick_L03_inst02.eps",
    "circuit_stage2": "circuit_stage1_6q_4l_2t_sidekick_L03_inst02.eps",
    "circuit_full": "circuit_full_6q_4l_2t_sidekick_L3_inst02.eps",
    "training_cost_s1_plot": "training_cost_s1_dec500_enc500_inst02.eps",
    "training_cost_s2_plot": "training_cost_s2_dec500_enc500_inst02.eps",
    "reconstruction_pure_plot": "reconst_pure_dec500_enc500_inst02_L3.eps",
    "reconstruction_noisy_plot": "reconst_noisy_dec500_enc500_inst02_L3.eps"
  }
}