{
  "schema": {
    "name": "sidekick_qae_bundle",
    "version": "1.0"
  },
  "timestamp": "2026-01-16 01:01:08",
  "dataset": {
    "id": "mackey_glass_tau30_n200",
    "scale_low": 0.0,
    "scale_high": 1.0,
    "window_size": 6,
    "window_step": 2,
    "split": 0.75
  },
  "run": {
    "instance_id": 6,
    "layer": 3,
    "dec_epochs": 100,
    "enc_epochs": 500,
    "sigma_eval": 0.2,
    "test_seed_fixed": 99123,
    "device_seed": 13050,
    "stage1_time_sec": 34,
    "stage2_time_sec": 335
  },
  "environment": {
    "device": "lightning.qubit",
    "diff_method": "adjoint",
    "interface": "autograd"
  },
  "architecture": {
    "type": "sidekick",
    "n_qubits": 6,
    "n_latent": 4,
    "n_trash": 2,
    "rot": "Rxyz"
  },
  "parameters": {
    "weights_stage1": [
      [
        [
          -0.12443980099002745,
          -0.20601634158319207,
          0.12267710172997519
        ],
        [
          0.2897127339074695,
          -0.3443820328175997,
          -0.02148984447009596
        ],
        [
          -0.14816390520972916,
          -0.27514237361056515,
          0.09482026468496418
        ],
        [
          0.7979272383969279,
          0.3969389650868083,
          0.14677297474593226
        ],
        [
          0.6324185600836848,
          -0.9438995732430401,
          0.8394188852080876
        ],
        [
          -0.0018886365894818231,
          -0.34470560429227537,
          -0.006628433383236996
        ]
      ],
      [
        [
          -0.279395317956647,
          0.03977598445265495,
          0.27902526203597905
        ],
        [
          -0.09371779897164755,
          0.0004254381873203632,
          0.10634154582966718
        ],
        [
          0.07873222149014754,
          -0.006043974259392721,
          -0.07224485527018366
        ],
        [
          0.17695017457123902,
          0.008058770138755458,
          -0.19512103035655015
        ],
        [
          -0.3306690813953358,
          0.03319480609658341,
          0.33431549651058773
        ],
        [
          -0.07183367510489805,
          -0.0020997907480675084,
          0.07368760050403447
        ]
      ],
      [
        [
          0.10177923125903583,
          0.11127701157979869,
          0.21259338011534026
        ],
        [
          0.0004965986601757929,
          1.610126527494649,
          0.2264043274031408
        ],
        [
          -6.830840428787162e-05,
          1.5793256206685997,
          0.16765587700873888
        ],
        [
          0.2283813224397231,
          0.2120354333942788,
          0.2835331183765244
        ],
        [
          0.006558694058445606,
          1.6040197632394932,
          0.012024009716254629
        ],
        [
          0.00026809580272620244,
          1.5514392309917058,
          0.10096771596531053
        ]
      ]
    ],
    "weights_stage2": [
      [
        [
          -1.5772428827420777,
          -1.5776355750954645,
          1.2140588456975985
        ],
        [
          0.33782054187613086,
          -0.2893044134632776,
          -0.07324217602951834
        ],
        [
          -0.21847268437992753,
          -0.2788805921355556,
          0.1358696033854966
        ],
        [
          0.4750188024355183,
          0.4401839824810925,
          0.4156622956290566
        ],
        [
          0.1410025706637934,
          -1.3177524748311602,
          1.1750286203784566
        ],
        [
          0.060460429039645665,
          -0.5477891533491688,
          -0.05176176492693176
        ]
      ],
      [
        [
          -1.4095300040362653,
          0.06327042501412385,
          1.4057104875489304
        ],
        [
          -0.3631196161127915,
          0.0015849749338640844,
          0.5076380809730124
        ],
        [
          1.5577571928922986,
          -0.12531258507918347,
          -1.5088570801131969
        ],
        [
          1.57214490409056,
          -0.0162599859244816,
          -1.5789911535087904
        ],
        [
          -1.5572034999887503,
          0.5225305615789583,
          1.5589233280182453
        ],
        [
          0.027307672398785524,
          -0.003399225729364355,
          -0.0358594609852275
        ]
      ],
      [
        [
          0.8386297104502166,
          0.13778758262672444,
          -0.4352087464748355
        ],
        [
          -3.185794007449242,
          1.5608709988646572,
          -0.07290268531439745
        ],
        [
          0.11025828158866406,
          1.583618974077523,
          0.022814010870194388
        ],
        [
          0.38758974251708633,
          0.21821319265609995,
          0.07856774299429374
        ],
        [
          0.006521654652309491,
          1.577064892132482,
          0.17347810596900357
        ],
        [
          0.005540657219317722,
          1.564104402630903,
          0.1972684030813094
        ]
      ]
    ]
  },
  "metrics": {
    "stage1_min_cost": 0.12710302885758973,
    "stage2_min_cost": 0.18779003077227077,
    "mse_train_noise": 0.04208329887417109,
    "mse_train_recovered": 0.02970449928873733,
    "delta_train_pct": 29.414993397847265,
    "mse_test_noise": 0.03574197205136823,
    "mse_test_recovered": 0.02376612483427224,
    "delta_test_pct": 33.50639746425952,
    "mse_train_recovered_pure": 0.009247288443915634,
    "mse_test_recovered_pure": 0.01011734407468722
  },
  "artifacts": {
    "weights_s1_file": "weights_s1_inst06_L3.npy",
    "weights_s2_file": "weights_s2_inst06_L3.npy",
    "circuit_stage1": "circuit_stage1_6q_4l_2t_sidekick_L03_inst06.eps",
    "circuit_stage2": "circuit_stage1_6q_4l_2t_sidekick_L03_inst06.eps",
    "circuit_full": "circuit_full_6q_4l_2t_sidekick_L3_inst06.eps",
    "training_cost_s1_plot": "training_cost_s1_dec100_enc500_inst06.eps",
    "training_cost_s2_plot": "training_cost_s2_dec100_enc500_inst06.eps",
    "reconstruction_pure_plot": "reconst_pure_dec100_enc500_inst06_L3.eps",
    "reconstruction_noisy_plot": "reconst_noisy_dec100_enc500_inst06_L3.eps"
  }
}