{
  "schema": {
    "name": "sidekick_qae_bundle",
    "version": "1.0"
  },
  "timestamp": "2026-01-16 00:36:25",
  "dataset": {
    "id": "mackey_glass_tau30_n200",
    "scale_low": 0.0,
    "scale_high": 1.0,
    "window_size": 6,
    "window_step": 2,
    "split": 0.75
  },
  "run": {
    "instance_id": 2,
    "layer": 3,
    "dec_epochs": 100,
    "enc_epochs": 500,
    "sigma_eval": 0.2,
    "test_seed_fixed": 99123,
    "device_seed": 13046,
    "stage1_time_sec": 34,
    "stage2_time_sec": 335
  },
  "environment": {
    "device": "lightning.qubit",
    "diff_method": "adjoint",
    "interface": "autograd"
  },
  "architecture": {
    "type": "sidekick",
    "n_qubits": 6,
    "n_latent": 4,
    "n_trash": 2,
    "rot": "Rxyz"
  },
  "parameters": {
    "weights_stage1": [
      [
        [
          0.3619363531154349,
          -0.20587754483099416,
          -0.37679428877022497
        ],
        [
          0.006910599656713044,
          1.2648056871017204,
          -0.9798945634667795
        ],
        [
          -0.3121252094543422,
          -0.6930193940901734,
          -0.0070406673175655516
        ],
        [
          -0.13925489242743933,
          1.2385101779787446,
          0.22270776728251968
        ],
        [
          0.7738856363305512,
          -0.40282426529316256,
          0.9509087378649274
        ],
        [
          -0.21321856361866853,
          -0.35685815630278156,
          0.20048288326458966
        ]
      ],
      [
        [
          0.013929496475508358,
          0.001920140622663785,
          -0.016290479374547587
        ],
        [
          0.8757202513515963,
          0.02165270449285665,
          -0.9029490009357778
        ],
        [
          -0.1578366828484297,
          0.0034796169573102437,
          0.16366234231369986
        ],
        [
          -0.2989298045144862,
          -0.0075734095540517105,
          0.3112034627009822
        ],
        [
          0.19217857350490025,
          -0.014539505359353548,
          -0.190042746836943
        ],
        [
          0.03612196051938883,
          -0.005251020797935152,
          -0.04079790611680381
        ]
      ],
      [
        [
          0.16757622799349184,
          0.1942371907644491,
          0.30819849617151984
        ],
        [
          0.02613916902003743,
          1.608068415529647,
          0.29265208322669845
        ],
        [
          -0.0039081716399042695,
          1.57486063540719,
          0.1803082820161951
        ],
        [
          0.28074658267463026,
          0.047785078016531195,
          0.2754784294868764
        ],
        [
          -0.006350551437844124,
          1.5473700978711415,
          0.0682519920626715
        ],
        [
          -0.0018125421155845223,
          1.593061474077872,
          0.1620009924150743
        ]
      ]
    ],
    "weights_stage2": [
      [
        [
          1.0962078990553519,
          -0.6497126005712518,
          -0.9726481555675369
        ],
        [
          -0.05682236167219725,
          1.3475715005642281,
          -0.9263061709632607
        ],
        [
          -0.2892297769077107,
          -0.7224696951528303,
          -0.015040699025186854
        ],
        [
          -0.09540656218309998,
          1.2562127853740035,
          0.16794747346473365
        ],
        [
          0.5589978217699518,
          -0.24524015990923956,
          1.1660464521002096
        ],
        [
          -1.0191692269111514,
          -0.550767515648007,
          0.9742317539776819
        ]
      ],
      [
        [
          0.06668574990684499,
          -0.020463540748294217,
          -0.07105696373743071
        ],
        [
          1.2069642708677355,
          0.047312022544928944,
          -1.2875832559578375
        ],
        [
          -0.22783611139016585,
          -0.005289996023147123,
          0.2064009432702405
        ],
        [
          -1.411175650550638,
          -0.051681994890578474,
          1.4430549756355933
        ],
        [
          -1.2149073838291322,
          -0.04675168482246355,
          1.2603407717867072
        ],
        [
          -0.0001982609612186449,
          -0.0021118889881723995,
          0.020795579846330774
        ]
      ],
      [
        [
          0.15435502466075668,
          0.19321334242382865,
          0.3344693904936525
        ],
        [
          -0.538161472105589,
          1.6098081314704304,
          0.06622388554041095
        ],
        [
          -4.284976247294546,
          1.4587141866667297,
          -0.048909661059632896
        ],
        [
          0.2810493126409467,
          0.033214581884454926,
          0.23485494647718805
        ],
        [
          0.04737214074229135,
          1.5616571307341511,
          0.1979901265487222
        ],
        [
          -0.005079968960726896,
          1.5713252138180358,
          0.22909354308374816
        ]
      ]
    ]
  },
  "metrics": {
    "stage1_min_cost": 0.12685042077583777,
    "stage2_min_cost": 0.1708682683588797,
    "mse_train_noise": 0.04208329887417109,
    "mse_train_recovered": 0.02990823884482567,
    "delta_train_pct": 28.930859402797303,
    "mse_test_noise": 0.03574197205136823,
    "mse_test_recovered": 0.024262077563716955,
    "delta_test_pct": 32.11880550729662,
    "mse_train_recovered_pure": 0.006142520375111145,
    "mse_test_recovered_pure": 0.008296981703196576
  },
  "artifacts": {
    "weights_s1_file": "weights_s1_inst02_L3.npy",
    "weights_s2_file": "weights_s2_inst02_L3.npy",
    "circuit_stage1": "circuit_stage1_6q_4l_2t_sidekick_L03_inst02.eps",
    "circuit_stage2": "circuit_stage1_6q_4l_2t_sidekick_L03_inst02.eps",
    "circuit_full": "circuit_full_6q_4l_2t_sidekick_L3_inst02.eps",
    "training_cost_s1_plot": "training_cost_s1_dec100_enc500_inst02.eps",
    "training_cost_s2_plot": "training_cost_s2_dec100_enc500_inst02.eps",
    "reconstruction_pure_plot": "reconst_pure_dec100_enc500_inst02_L3.eps",
    "reconstruction_noisy_plot": "reconst_noisy_dec100_enc500_inst02_L3.eps"
  }
}