{
  "schema": {
    "name": "sidekick_qae_bundle",
    "version": "1.0"
  },
  "timestamp": "2026-01-16 05:09:27",
  "dataset": {
    "id": "mackey_glass_tau30_n200",
    "scale_low": 0.0,
    "scale_high": 1.0,
    "window_size": 6,
    "window_step": 2,
    "split": 0.75
  },
  "run": {
    "instance_id": 3,
    "layer": 3,
    "dec_epochs": 600,
    "enc_epochs": 500,
    "sigma_eval": 0.2,
    "test_seed_fixed": 99123,
    "device_seed": 13047,
    "stage1_time_sec": 212,
    "stage2_time_sec": 339
  },
  "environment": {
    "device": "lightning.qubit",
    "diff_method": "adjoint",
    "interface": "autograd"
  },
  "architecture": {
    "type": "sidekick",
    "n_qubits": 6,
    "n_latent": 4,
    "n_trash": 2,
    "rot": "Rxyz"
  },
  "parameters": {
    "weights_stage1": [
      [
        [
          -1.561833144092727,
          -1.5451430510305268,
          1.5161465416685713
        ],
        [
          -0.00359273608042652,
          0.22751199507601425,
          1.56663678069387
        ],
        [
          -0.038841251180730445,
          -0.3361827352131337,
          -1.534430072680413
        ],
        [
          -0.11923124858893559,
          -0.3675785339765834,
          0.11213412615241906
        ],
        [
          0.0037063099898740405,
          0.11448837139739479,
          1.5674513495626385
        ],
        [
          -1.5721104392496035,
          -1.5705439057256012,
          1.437734716013801
        ]
      ],
      [
        [
          1.5908147921404094,
          0.4682618763024237,
          -1.5995989308951732
        ],
        [
          0.1446654638061813,
          -0.00035683729117831896,
          0.35316732911326326
        ],
        [
          0.11466060113653181,
          0.05583729707643562,
          -0.1665877598970504
        ],
        [
          -0.005097676083929635,
          0.025538959012617088,
          -0.06833426295639196
        ],
        [
          -1.5024427849739663,
          0.34067652587133457,
          1.4041414900519387
        ],
        [
          0.03261504464857951,
          0.00039014041044420437,
          -0.03394304414433131
        ]
      ],
      [
        [
          0.25930922766600256,
          0.2419123207186206,
          0.2893004628611364
        ],
        [
          0.49484660696739574,
          1.5981762012181473,
          0.01762558017460254
        ],
        [
          -0.0009674288134476543,
          1.575967260896785,
          0.005334225429240186
        ],
        [
          0.12981642415515598,
          0.24602091147386812,
          0.2550432888481298
        ],
        [
          0.04112072510904299,
          1.3848767277818923,
          0.14174489980723562
        ],
        [
          -0.0013326701868413206,
          1.5659451034170526,
          0.13898459587682047
        ]
      ]
    ],
    "weights_stage2": [
      [
        [
          -1.569112500150004,
          -1.5558944760434048,
          1.4392306576051412
        ],
        [
          1.25462985510712,
          0.03074386569063312,
          0.30409005028215047
        ],
        [
          -0.02230386898560922,
          -0.33765438201235765,
          -1.5481614839782998
        ],
        [
          -0.08543486849829468,
          -0.30415672227013735,
          0.07459062949544906
        ],
        [
          0.002740785801160469,
          0.424350697112441,
          1.5720415085768418
        ],
        [
          -1.5728295662962293,
          0.23432235954561656,
          1.5662524700860054
        ]
      ],
      [
        [
          1.5717827521289212,
          0.18292588883905506,
          -1.570972966840265
        ],
        [
          0.05130167963957772,
          -0.0018698283368892873,
          0.24996377340550482
        ],
        [
          -0.19532122977376898,
          -0.022156301799818607,
          0.17226456596928932
        ],
        [
          1.6084124977893817,
          -0.06964644706433216,
          -1.67219577731415
        ],
        [
          -1.748106146266331,
          -0.06991974738464202,
          1.724809040157212
        ],
        [
          -0.4260289577684533,
          0.004159523212590688,
          0.4556282033131605
        ]
      ],
      [
        [
          0.26007947803049386,
          0.24197683732666025,
          0.2835910476188079
        ],
        [
          3.6568790306999888,
          1.5762493380023896,
          0.009327899667492756
        ],
        [
          -2.937223548596925,
          1.5726400809059038,
          0.0003351900481890451
        ],
        [
          0.12863958511759857,
          0.24788278632359034,
          0.25310171273645365
        ],
        [
          0.00936935735756874,
          1.5912090402165278,
          0.15840773664057725
        ],
        [
          -0.08064531046653789,
          1.5692645313066824,
          0.14274834017387897
        ]
      ]
    ]
  },
  "metrics": {
    "stage1_min_cost": 0.09265492804378586,
    "stage2_min_cost": 0.1869146855498611,
    "mse_train_noise": 0.04208329887417109,
    "mse_train_recovered": 0.02832904753459436,
    "delta_train_pct": 32.683396281983235,
    "mse_test_noise": 0.03574197205136823,
    "mse_test_recovered": 0.021355308786051623,
    "delta_test_pct": 40.25145351420495,
    "mse_train_recovered_pure": 0.0036285693450832553,
    "mse_test_recovered_pure": 0.006057455658016155
  },
  "artifacts": {
    "weights_s1_file": "weights_s1_inst03_L3.npy",
    "weights_s2_file": "weights_s2_inst03_L3.npy",
    "circuit_stage1": "circuit_stage1_6q_4l_2t_sidekick_L03_inst03.eps",
    "circuit_stage2": "circuit_stage1_6q_4l_2t_sidekick_L03_inst03.eps",
    "circuit_full": "circuit_full_6q_4l_2t_sidekick_L3_inst03.eps",
    "training_cost_s1_plot": "training_cost_s1_dec600_enc500_inst03.eps",
    "training_cost_s2_plot": "training_cost_s2_dec600_enc500_inst03.eps",
    "reconstruction_pure_plot": "reconst_pure_dec600_enc500_inst03_L3.eps",
    "reconstruction_noisy_plot": "reconst_noisy_dec600_enc500_inst03_L3.eps"
  }
}