{
  "schema": {
    "name": "sidekick_qae_bundle",
    "version": "1.0"
  },
  "timestamp": "2026-01-16 01:54:32",
  "dataset": {
    "id": "mackey_glass_tau30_n200",
    "scale_low": 0.0,
    "scale_high": 1.0,
    "window_size": 6,
    "window_step": 2,
    "split": 0.75
  },
  "run": {
    "instance_id": 7,
    "layer": 3,
    "dec_epochs": 200,
    "enc_epochs": 500,
    "sigma_eval": 0.2,
    "test_seed_fixed": 99123,
    "device_seed": 13051,
    "stage1_time_sec": 69,
    "stage2_time_sec": 335
  },
  "environment": {
    "device": "lightning.qubit",
    "diff_method": "adjoint",
    "interface": "autograd"
  },
  "architecture": {
    "type": "sidekick",
    "n_qubits": 6,
    "n_latent": 4,
    "n_trash": 2,
    "rot": "Rxyz"
  },
  "parameters": {
    "weights_stage1": [
      [
        [
          0.13077601728712968,
          -0.198860168109604,
          -0.1355868242523341
        ],
        [
          0.030772393930631685,
          0.41952020926888156,
          0.22185082465426265
        ],
        [
          -0.19490404351537427,
          -0.5514965650367847,
          0.20588170091885266
        ],
        [
          0.9213455080699376,
          0.17900517579024772,
          0.6096405440794297
        ],
        [
          0.700580465419967,
          -0.513222141816832,
          0.8655063360896978
        ],
        [
          0.125167253192554,
          -0.3495700775264398,
          -0.11662520829366972
        ]
      ],
      [
        [
          0.3236114595805396,
          -0.0007369590324005765,
          -0.323569104077192
        ],
        [
          0.04690771778957459,
          0.00020323866558385933,
          -0.06178807182264602
        ],
        [
          0.0808579792438108,
          0.00014577314140003526,
          -0.07817709706274432
        ],
        [
          -0.3436575720906383,
          -0.0003440667393717939,
          0.345642097943964
        ],
        [
          0.07592214829167974,
          -0.0027541921443641516,
          -0.07514141549814544
        ],
        [
          -0.13754272113358976,
          0.0006207512962662046,
          0.13782206106947248
        ]
      ],
      [
        [
          0.09092698814613305,
          0.006128600743906807,
          0.24353546897953576
        ],
        [
          -0.016089673568512736,
          1.569325439678167,
          0.21347307301164783
        ],
        [
          0.002694938270672923,
          1.5927503426026566,
          0.1869816909350204
        ],
        [
          0.008810459891182416,
          0.26860454222598223,
          0.025671440541456737
        ],
        [
          -0.00043074534901982103,
          1.5704824383891107,
          0.18038667285899937
        ],
        [
          -0.0013044753604299695,
          1.5773444955633138,
          0.0019613493848166276
        ]
      ]
    ],
    "weights_stage2": [
      [
        [
          1.5731431810491896,
          -1.5805490108998037,
          -1.2292795434991393
        ],
        [
          0.001174773214437421,
          0.4647896551782301,
          0.2498823588678885
        ],
        [
          -0.19693938002819072,
          -0.5585480014574996,
          0.16261718993190255
        ],
        [
          0.8294187630190353,
          0.18158005913972497,
          0.634770854805322
        ],
        [
          0.31643499879794196,
          -0.4682922511890753,
          1.226898181037366
        ],
        [
          1.034732388030096,
          -0.6201373803048585,
          -0.9081065534586621
        ]
      ],
      [
        [
          1.5631173565487428,
          -0.03209215542350771,
          -1.5508412227993944
        ],
        [
          -0.23811539949042093,
          0.014105912537122772,
          -0.010795002902958577
        ],
        [
          1.508695289201449,
          -0.1894187139111086,
          -1.497423645764971
        ],
        [
          -0.7844834783665653,
          -0.020832285430197786,
          0.8308852615070723
        ],
        [
          0.5068835928806512,
          -0.022359599499622643,
          -0.4982791404702395
        ],
        [
          -0.43903001918997975,
          -0.06086712012567396,
          0.40535616533070684
        ]
      ],
      [
        [
          1.365300490017727,
          0.09198531143943053,
          -0.9238072864735705
        ],
        [
          -4.497817201162457,
          1.5437379815991905,
          -0.006844316103564872
        ],
        [
          0.16865722455550686,
          1.5405393005009722,
          0.11522459511311894
        ],
        [
          0.0335485578506669,
          0.2747967638536812,
          -0.04164234936623639
        ],
        [
          -0.03689110566727236,
          1.572615768456349,
          0.3216097009108364
        ],
        [
          0.005142871731489033,
          1.577028478735737,
          0.06002496705360007
        ]
      ]
    ]
  },
  "metrics": {
    "stage1_min_cost": 0.12669478265863263,
    "stage2_min_cost": 0.18733786114339665,
    "mse_train_noise": 0.04208329887417109,
    "mse_train_recovered": 0.029256090192139046,
    "delta_train_pct": 30.480520836508916,
    "mse_test_noise": 0.03574197205136823,
    "mse_test_recovered": 0.023199012689592936,
    "delta_test_pct": 35.09308144427118,
    "mse_train_recovered_pure": 0.005705179200476982,
    "mse_test_recovered_pure": 0.008662106776738171
  },
  "artifacts": {
    "weights_s1_file": "weights_s1_inst07_L3.npy",
    "weights_s2_file": "weights_s2_inst07_L3.npy",
    "circuit_stage1": "circuit_stage1_6q_4l_2t_sidekick_L03_inst07.eps",
    "circuit_stage2": "circuit_stage1_6q_4l_2t_sidekick_L03_inst07.eps",
    "circuit_full": "circuit_full_6q_4l_2t_sidekick_L3_inst07.eps",
    "training_cost_s1_plot": "training_cost_s1_dec200_enc500_inst07.eps",
    "training_cost_s2_plot": "training_cost_s2_dec200_enc500_inst07.eps",
    "reconstruction_pure_plot": "reconst_pure_dec200_enc500_inst07_L3.eps",
    "reconstruction_noisy_plot": "reconst_noisy_dec200_enc500_inst07_L3.eps"
  }
}