{
  "schema": {
    "name": "sidekick_qae_bundle",
    "version": "1.0"
  },
  "timestamp": "2026-01-16 01:41:00",
  "dataset": {
    "id": "mackey_glass_tau30_n200",
    "scale_low": 0.0,
    "scale_high": 1.0,
    "window_size": 6,
    "window_step": 2,
    "split": 0.75
  },
  "run": {
    "instance_id": 5,
    "layer": 3,
    "dec_epochs": 200,
    "enc_epochs": 500,
    "sigma_eval": 0.2,
    "test_seed_fixed": 99123,
    "device_seed": 13049,
    "stage1_time_sec": 69,
    "stage2_time_sec": 333
  },
  "environment": {
    "device": "lightning.qubit",
    "diff_method": "adjoint",
    "interface": "autograd"
  },
  "architecture": {
    "type": "sidekick",
    "n_qubits": 6,
    "n_latent": 4,
    "n_trash": 2,
    "rot": "Rxyz"
  },
  "parameters": {
    "weights_stage1": [
      [
        [
          -0.006077076576158552,
          -0.22609613426796826,
          0.006327571374078374
        ],
        [
          -0.12151901637887687,
          0.32243783028314543,
          0.21435599524853635
        ],
        [
          0.410004223569424,
          -0.3733596019936497,
          -0.20327133966710853
        ],
        [
          0.6656633082343822,
          0.8633095977390359,
          0.06253506412635107
        ],
        [
          0.6439354164946437,
          0.02070708179450818,
          0.9068589722551126
        ],
        [
          -1.5675999749739253,
          -1.5520817905444024,
          1.3483386779458704
        ]
      ],
      [
        [
          0.0490562375723159,
          0.002302880580988767,
          -0.03528993652504193
        ],
        [
          -0.07563531149107117,
          -0.00025895336420804477,
          0.07630885788815896
        ],
        [
          0.16692506024419498,
          -0.00010807452474895717,
          -0.16833223739466632
        ],
        [
          -0.2622470224316019,
          -0.01219204350265099,
          0.266362632874656
        ],
        [
          -1.3099402720835984,
          -0.026760817205094385,
          1.3131138235293576
        ],
        [
          -0.006470500467340119,
          -0.0003793754389089561,
          -0.010142662753156563
        ]
      ],
      [
        [
          0.30870637770517884,
          0.04805745314904715,
          0.2505631867851934
        ],
        [
          0.4325031851609214,
          1.58936705618364,
          0.17130071616369327
        ],
        [
          0.0054852092866468595,
          1.5750824146767166,
          0.17347192679017132
        ],
        [
          0.024080317621560002,
          0.02665180991495539,
          0.024513380658065593
        ],
        [
          0.007220425367153973,
          1.5689153266677742,
          0.14466523555106656
        ],
        [
          -0.01835671984462685,
          1.5845841692926266,
          0.1171241840291565
        ]
      ]
    ],
    "weights_stage2": [
      [
        [
          -1.5693950918543416,
          -1.5791699970105317,
          1.1668107360060003
        ],
        [
          -0.0845905533501391,
          0.3309076713383939,
          0.18633204508447918
        ],
        [
          0.42549114533166366,
          -0.39835467126949603,
          -0.21132663126622372
        ],
        [
          0.3743227639687061,
          0.9154951263085592,
          0.2504946183517898
        ],
        [
          0.00292172581828796,
          0.5107561579740905,
          1.560869477713953
        ],
        [
          -1.6288477973297666,
          -3.275213546831668,
          1.5289665878805943
        ]
      ],
      [
        [
          0.031833561860951,
          0.006273981892297742,
          -0.030998590417426388
        ],
        [
          -0.5271335400350322,
          -0.011234357175182307,
          0.661286289154368
        ],
        [
          0.6557512147988753,
          -0.04434979473386543,
          -0.6151251726237683
        ],
        [
          -0.34720845358485,
          -0.0064629262977772784,
          0.40298849730890723
        ],
        [
          -1.5799912003606134,
          -0.5338115918570504,
          1.5820328307048985
        ],
        [
          -0.38652920242137395,
          0.01089130829980207,
          0.4002494064761935
        ]
      ],
      [
        [
          1.4519241623272967,
          0.1041033629545458,
          -0.8489051265889496
        ],
        [
          -1.1465285949667836,
          1.5714491997754658,
          0.009368844087185576
        ],
        [
          2.019340734715559,
          1.5243243423506192,
          -0.00719192474122257
        ],
        [
          0.43825675194688124,
          -0.01552489747124689,
          -0.4015124267826853
        ],
        [
          -0.01522393657447292,
          1.576428452669946,
          0.22838277245605942
        ],
        [
          0.009836078120586976,
          1.5530508012968203,
          0.1880075339962108
        ]
      ]
    ]
  },
  "metrics": {
    "stage1_min_cost": 0.11242993218849479,
    "stage2_min_cost": 0.17447191746154295,
    "mse_train_noise": 0.04208329887417109,
    "mse_train_recovered": 0.028943230359140235,
    "delta_train_pct": 31.223950751388596,
    "mse_test_noise": 0.03574197205136823,
    "mse_test_recovered": 0.02309898056546871,
    "delta_test_pct": 35.37295442940043,
    "mse_train_recovered_pure": 0.005276120769430968,
    "mse_test_recovered_pure": 0.00664311403975054
  },
  "artifacts": {
    "weights_s1_file": "weights_s1_inst05_L3.npy",
    "weights_s2_file": "weights_s2_inst05_L3.npy",
    "circuit_stage1": "circuit_stage1_6q_4l_2t_sidekick_L03_inst05.eps",
    "circuit_stage2": "circuit_stage1_6q_4l_2t_sidekick_L03_inst05.eps",
    "circuit_full": "circuit_full_6q_4l_2t_sidekick_L3_inst05.eps",
    "training_cost_s1_plot": "training_cost_s1_dec200_enc500_inst05.eps",
    "training_cost_s2_plot": "training_cost_s2_dec200_enc500_inst05.eps",
    "reconstruction_pure_plot": "reconst_pure_dec200_enc500_inst05_L3.eps",
    "reconstruction_noisy_plot": "reconst_noisy_dec200_enc500_inst05_L3.eps"
  }
}