{
  "schema": {
    "name": "stacked_qae_bundle",
    "version": "1.0"
  },
  "timestamp": "2025-12-03 18:07:16",
  "dataset": {
    "id": "mackey_glass_tau17_n200",
    "scale_low": 0.0,
    "scale_high": 1.0,
    "window_size": 6,
    "window_step": 2,
    "split": 0.75
  },
  "run": {
    "instance_id": 6,
    "layer": 5,
    "sigma_eval": 0.2,
    "test_seed_fixed": 99123,
    "device_seed": 15050,
    "stage1_time_sec": 335,
    "stage2_time_sec": 335
  },
  "environment": {
    "device": "lightning.qubit",
    "diff_method": "adjoint",
    "interface": "autograd"
  },
  "architecture": {
    "type": "stacked",
    "n_qubits": 6,
    "n_latent": 2,
    "n_trash": 4,
    "rot": "Rxyz"
  },
  "parameters": {
    "weights_stage1": [
      [
        [
          -0.35212962901544465,
          0.0834305931042586,
          -2.549353071890428
        ],
        [
          -0.11233928337131369,
          1.3510974935962554,
          -0.2134809073405847
        ],
        [
          1.6020677255016107,
          -1.111248525977276,
          -0.2835151850324632
        ],
        [
          -0.3118812858949325,
          1.8735701256478388,
          1.2878582396153666
        ],
        [
          0.04469289584064439,
          1.2324403976719425,
          1.2531522935256945
        ],
        [
          -1.6284030765263315,
          1.5601604670313491,
          0.5781005074807113
        ]
      ],
      [
        [
          1.8534919206628038,
          0.17984294420438507,
          -0.2355443391918345
        ],
        [
          0.13673851459136804,
          0.45804088716403196,
          1.1991103485582435
        ],
        [
          1.639370408113098,
          -0.8691123886772321,
          -1.6493925858140532
        ],
        [
          1.241718760481346,
          0.09262302966758457,
          -0.9174364697963462
        ],
        [
          1.5275642908689462,
          0.27649683739084274,
          -1.7775114154806555
        ],
        [
          0.17909830360233592,
          0.1971572097322127,
          -0.20397438188580325
        ]
      ],
      [
        [
          -0.41743416841502134,
          0.19840347380208462,
          -0.06870769382376864
        ],
        [
          -0.31369348706400957,
          -0.014282232070539955,
          0.026333720355262893
        ],
        [
          0.3674361488260037,
          -1.5484681164274248,
          0.018207208396901625
        ],
        [
          -0.5132146913044935,
          0.04253165629264265,
          0.28393229382843704
        ],
        [
          -0.03229840507941013,
          0.005887913768711004,
          -0.15803971574402698
        ],
        [
          1.6097557135057334,
          1.5586974879707314,
          -0.08461487652017631
        ]
      ],
      [
        [
          0.08973475395926954,
          -0.13923862972022147,
          -0.2770104863471436
        ],
        [
          0.08024129908598332,
          0.720402909572925,
          1.625962324577775
        ],
        [
          0.09049823794093818,
          1.5941718446233877,
          0.7370307400768219
        ],
        [
          0.015372409783109551,
          0.015414242980213034,
          -0.15779083641157643
        ],
        [
          -0.4136103442057158,
          0.0020703851837179732,
          -0.9087872140217756
        ],
        [
          -0.7381437500356398,
          0.35231323033036427,
          0.5921563676300785
        ]
      ],
      [
        [
          -1.886310579664233,
          -0.14464392039483254,
          0.18036465475325206
        ],
        [
          0.0277519311304779,
          0.045908926081735475,
          0.1503322086903888
        ],
        [
          -1.7745410443126943,
          -0.028851371941886705,
          0.035425410045615384
        ],
        [
          0.04230464684024746,
          0.32460152405929693,
          0.13199546444392615
        ],
        [
          0.9947566851862132,
          0.6412409553217572,
          0.05490701083859008
        ],
        [
          4.867334765206602,
          0.2750290408062471,
          0.16220538030057227
        ]
      ]
    ],
    "weights_stage2": [
      [
        [
          -3.7069514312050753,
          1.9580069436981378,
          0.23986113384314
        ],
        [
          -0.08742537666950011,
          -0.19536622351875246,
          -1.6070104261863807
        ],
        [
          1.8427903025214047,
          -1.6974974644065046,
          -0.19331437649311944
        ],
        [
          -0.8770457248483623,
          1.4965378452786904,
          1.328516680232708
        ],
        [
          1.1470610840624222,
          1.2113001632180231,
          1.3176435961286248
        ],
        [
          -2.151008842385241,
          1.6403187270205102,
          -0.9546925166088152
        ]
      ],
      [
        [
          1.6567562422138071,
          0.3256277453801448,
          0.005779318213299872
        ],
        [
          -0.5201321468670771,
          0.1919640209358404,
          -0.7820309626702282
        ],
        [
          0.15945608022252122,
          -0.8713554523898929,
          -1.4561470403005843
        ],
        [
          2.245187934343621,
          -0.015137258186955358,
          0.03451666975372689
        ],
        [
          1.436497202049776,
          0.48442465520625394,
          -1.3919115997227682
        ],
        [
          -1.2924899169758095,
          0.03459863790770274,
          -0.2620877288529465
        ]
      ],
      [
        [
          -0.7155764956858666,
          -0.13709809874536813,
          -1.1893888773849988
        ],
        [
          0.2884784442433866,
          -0.2427694254707385,
          0.2702698494611564
        ],
        [
          -0.041115465906149465,
          -1.4071390189534168,
          -0.09241476386481498
        ],
        [
          -0.1567714615880212,
          0.031722423054129936,
          0.15722856725589374
        ],
        [
          0.887029860494678,
          0.003927533274742323,
          -0.15271576404440257
        ],
        [
          1.5946294918081176,
          1.5898357186451728,
          -0.12264429024773434
        ]
      ],
      [
        [
          -0.03696897261327146,
          -0.5537662314699733,
          0.05432662621592111
        ],
        [
          0.08556525078560717,
          0.02384352562460509,
          2.155569044393852
        ],
        [
          0.0524688242133779,
          1.609344723039765,
          1.7561579860569285
        ],
        [
          -0.1789550132559018,
          0.022959406051632342,
          -0.02127852419854765
        ],
        [
          -1.1583429608639124,
          0.07209038052946702,
          -0.1599557050151626
        ],
        [
          3.121834067373226,
          1.6909012981593528,
          0.05236926942026201
        ]
      ],
      [
        [
          -1.6459624074477168,
          -1.9578600084048376,
          0.10473863711557933
        ],
        [
          -0.02832109882284042,
          0.6839108917196978,
          0.6964152520962638
        ],
        [
          10.313289622212965,
          0.0293179537459605,
          0.035425410005466354
        ],
        [
          0.042304646616622046,
          0.3246015247811581,
          0.1319954637729527
        ],
        [
          0.9947566841181801,
          0.6412409549117971,
          0.05490701000833104
        ],
        [
          4.905521482541151,
          -1.3325480209543905,
          -1.6759987612839942
        ]
      ]
    ]
  },
  "metrics": {
    "stage1_min_cost": 0.1560790745007051,
    "stage2_min_cost": 0.10422830965998094,
    "mse_train_noise": 0.0400301695648753,
    "mse_train_recovered": 0.027022902037999147,
    "delta_train_pct": 32.49366082698148,
    "mse_test_noise": 0.04102832521598486,
    "mse_test_recovered": 0.027767258644162948,
    "delta_test_pct": 32.321735050143666,
    "mse_train_recovered_pure": 0.015488907486071265,
    "mse_test_recovered_pure": 0.01698184014127854
  },
  "artifacts": {
    "weights_s1_file": "weights_s1_inst06_L5.npy",
    "weights_s2_file": "weights_s2_inst06_L5.npy",
    "circuit_stage1": "circuit_stage1_6q_2l_4t_stacked_L5_inst06.eps",
    "circuit_stage2": "circuit_stage2_6q_2l_4t_stacked_L5_inst06.eps",
    "circuit_full": "circuit_full_6q_2l_4t_stacked_L5_inst06.eps",
    "training_cost_s1_plot": "training_cost_s1_inst06_L5.eps",
    "training_cost_s2_plot": "training_cost_s2_inst06_L5.eps",
    "reconstruction_pure_plot": "reconstruction_pure_inst06_L5.eps",
    "reconstruction_noisy_plot": "reconstruction_noisy_inst06_L5.eps"
  }
}