{
  "schema": {
    "name": "sidekick_qae_bundle",
    "version": "1.0"
  },
  "timestamp": "2025-12-05 04:39:05",
  "dataset": {
    "id": "mackey_glass_tau30_n200",
    "scale_low": 0.0,
    "scale_high": 1.0,
    "window_size": 6,
    "window_step": 2,
    "split": 0.75
  },
  "run": {
    "instance_id": 7,
    "layer": 5,
    "sigma_eval": 0.2,
    "test_seed_fixed": 99123,
    "device_seed": 15051,
    "stage1_time_sec": 296,
    "stage2_time_sec": 539
  },
  "environment": {
    "device": "lightning.qubit",
    "diff_method": "adjoint",
    "interface": "autograd"
  },
  "architecture": {
    "type": "sidekick",
    "n_qubits": 6,
    "n_latent": 4,
    "n_trash": 2,
    "rot": "Rxyz"
  },
  "parameters": {
    "weights_stage1": [
      [
        [
          -1.5718253350271374,
          1.5434057790682514,
          0.08440325111455205
        ],
        [
          -0.9944482084540199,
          -0.03690363222836268,
          -0.5764118451750709
        ],
        [
          -1.5703726715113768,
          -1.5539283766761114,
          0.00028551657298726173
        ],
        [
          -0.7666329884412666,
          0.0422875098362899,
          -0.7999707803198612
        ],
        [
          1.585857418421273,
          1.567525245491488,
          0.11258379568226144
        ],
        [
          0.0076906681884329284,
          1.2893234360089656,
          1.5380365063407764
        ]
      ],
      [
        [
          1.570304188939187,
          -0.7263219560224434,
          -1.5701631360349009
        ],
        [
          -0.34936380559550745,
          0.24766990964048585,
          0.9785893969489546
        ],
        [
          1.5715496307374512,
          0.7692591845590229,
          -0.0002796608360776861
        ],
        [
          -1.5660660682529364,
          -0.28055990003767023,
          1.5663811594491894
        ],
        [
          -0.29353683472327635,
          0.005058431157533935,
          0.29173973648255
        ],
        [
          0.8996788461586777,
          -0.0025388791622992578,
          0.6679488523775119
        ]
      ],
      [
        [
          1.2133514878202547,
          1.5275467020559574,
          -3.1543483395467105
        ],
        [
          0.9011564128621842,
          0.0010721557939081356,
          0.6353364461074033
        ],
        [
          0.20924380805725562,
          0.021510539231785697,
          -0.20846233070490758
        ],
        [
          -0.6010854473578363,
          1.6052013497255326,
          0.5093324493621867
        ],
        [
          -0.1632586734156507,
          1.5710750335424635,
          0.7245954923946302
        ],
        [
          -0.42713117240515475,
          -0.026855633533709664,
          0.23061435070798844
        ]
      ],
      [
        [
          0.6776484874233263,
          0.0005649392458257833,
          0.5585477153365939
        ],
        [
          0.7465725071319517,
          -0.0021461117883877215,
          0.14759705921404048
        ],
        [
          0.18487847843736188,
          1.5775014368715439,
          1.6393809566759119
        ],
        [
          0.047111089654447574,
          -0.04300029759549983,
          0.05823785709019194
        ],
        [
          1.3684945159956077,
          0.0004850024030020439,
          0.07919333347350364
        ],
        [
          0.3521930133671455,
          0.0008398653406742567,
          0.11446652412638152
        ]
      ],
      [
        [
          0.02479041749718018,
          -0.20048229442756782,
          0.22612732817027328
        ],
        [
          0.006970703443021464,
          0.02128752406252679,
          0.06065241124828412
        ],
        [
          0.2979659334879947,
          0.28995873318734167,
          0.2832889785483569
        ],
        [
          0.004722133143403418,
          0.08328681478532296,
          0.17063104280832175
        ],
        [
          -0.009447026374426072,
          -0.027513567590701535,
          0.29808663557008486
        ],
        [
          1.5001556110162668,
          0.15763290577652989,
          0.11511837315414554
        ]
      ]
    ],
    "weights_stage2": [
      [
        [
          -1.559954399531593,
          1.553901920692909,
          0.07185956960653281
        ],
        [
          -1.3439220267091785,
          0.010202899716930135,
          -0.22110778408389364
        ],
        [
          -1.5840752669508527,
          -1.5425751287437202,
          -0.0020240354666543297
        ],
        [
          -0.2623915700467286,
          0.13288480308948986,
          -1.3284493642487198
        ],
        [
          1.595039450984167,
          1.5724789016808398,
          0.12030162461029821
        ],
        [
          -0.012564081067628933,
          1.3627776673538754,
          1.5514595526941906
        ]
      ],
      [
        [
          1.5677915559073468,
          -0.728547685973789,
          -1.5741963023323617
        ],
        [
          -0.38373196870143966,
          0.2608410449200647,
          1.0408282872394021
        ],
        [
          1.5741536800874532,
          0.6250743248393643,
          -0.001231993823794118
        ],
        [
          -1.5608351143782684,
          -0.20571531585608965,
          1.5635134810226752
        ],
        [
          -0.9322534178934652,
          -0.012825087205478128,
          0.9522074215123096
        ],
        [
          0.9439474742556102,
          -0.006573827875866025,
          0.6366244628752915
        ]
      ],
      [
        [
          1.1761953464555142,
          1.554137790085065,
          -3.156601331017937
        ],
        [
          0.8738931127873684,
          -0.008421327008572569,
          0.6880200483436725
        ],
        [
          0.481443147403357,
          0.01853725430793524,
          -0.47793350148769176
        ],
        [
          -0.6278901673945027,
          1.5792730884726933,
          0.986712768235448
        ],
        [
          -0.135694531752464,
          1.5643886776848035,
          0.7553907614781945
        ],
        [
          -0.11634902300609834,
          -0.030935246723579793,
          0.07395804211151083
        ]
      ],
      [
        [
          1.1550288062965766,
          -0.003425514843688039,
          1.0338403403672185
        ],
        [
          0.7773677762155254,
          -0.02364770739856693,
          0.06987015499438473
        ],
        [
          0.02822216984087767,
          1.5754480238968323,
          2.1860149782968836
        ],
        [
          -0.04662713780064611,
          -0.048728683680242135,
          0.12511294447655208
        ],
        [
          0.9631749522790227,
          -0.004578669748818085,
          -0.9592419209661265
        ],
        [
          0.4781360024673742,
          -0.005387651157148351,
          -0.026003479534664822
        ]
      ],
      [
        [
          0.1467910466181179,
          -0.14960952862012106,
          -0.10504767983445204
        ],
        [
          -0.18695659166928616,
          0.048271075780476944,
          0.255514654100034
        ],
        [
          -0.35763945904094563,
          0.2752994891538443,
          0.30849540409411685
        ],
        [
          0.12225693314328354,
          0.12548678641597083,
          0.03258726810554764
        ],
        [
          -1.9654292745030024,
          0.006726186863394907,
          0.29808663877319996
        ],
        [
          0.4824689027812615,
          0.4631915987822332,
          1.3223888233340009
        ]
      ]
    ]
  },
  "metrics": {
    "stage1_min_cost": 0.03610930891375142,
    "stage2_min_cost": 0.1732713085508048,
    "mse_train_noise": 0.04208329887417109,
    "mse_train_recovered": 0.024886964994413268,
    "delta_train_pct": 40.86260901545479,
    "mse_test_noise": 0.03574197205136823,
    "mse_test_recovered": 0.017991827371078867,
    "delta_test_pct": 49.66190632900423,
    "mse_train_recovered_pure": 0.004885420140950652,
    "mse_test_recovered_pure": 0.005802518501740598
  },
  "artifacts": {
    "weights_s1_file": "weights_s1_inst07_L5.npy",
    "weights_s2_file": "weights_s2_inst07_L5.npy",
    "circuit_stage1": "circuit_stage1_6q_4l_2t_sidekick_L5_inst07.eps",
    "circuit_stage2": "circuit_stage2_6q_4l_2t_sidekick_L5_inst07.eps",
    "circuit_full": "circuit_full_6q_4l_2t_sidekick_L5_inst07.eps",
    "training_cost_s1_plot": "training_cost_s1_inst07_L5.eps",
    "training_cost_s2_plot": "training_cost_s2_inst07_L5.eps",
    "reconstruction_pure_plot": "reconstruction_pure_inst07_L5.eps",
    "reconstruction_noisy_plot": "reconstruction_noisy_inst07_L5.eps"
  }
}