{
  "schema": {
    "name": "monolith_qae_bundle",
    "version": "1.0"
  },
  "timestamp": "2025-12-01 14:16:59",
  "dataset": {
    "id": "mackey_glass_tau30_n200",
    "scale_low": 0.0,
    "scale_high": 1.0,
    "window_size": 6,
    "window_step": 2,
    "split": 0.75
  },
  "run": {
    "instance_id": 4,
    "layer": 4,
    "sigma_eval": 0.2,
    "test_seed_fixed": 99123,
    "device_seed": 14048,
    "training_time_sec": 325
  },
  "environment": {
    "device": "lightning.qubit",
    "diff_method": "adjoint",
    "interface": "autograd"
  },
  "architecture": {
    "type": "monolith",
    "n_qubits": 6,
    "n_latent": 2,
    "n_trash": 4,
    "n_extra": 0,
    "rot": "Rxyz"
  },
  "parameters": {
    "weights": [
      [
        [
          3.1256260157478155,
          0.7111304271512316,
          3.1396100877635633
        ],
        [
          0.019574772827109087,
          -0.9370531215617012,
          -5.046715079425364
        ],
        [
          -1.9015534718156633,
          1.7858671932901475,
          -0.8857604278262393
        ],
        [
          -1.606290995406263,
          0.2508312239504543,
          1.9506026223355697
        ],
        [
          0.41883741165676336,
          -1.754138945534316,
          2.022639886326062
        ],
        [
          -1.2360755491542963,
          -1.4849934864417864,
          -2.663355876835129
        ]
      ],
      [
        [
          2.290359070105194,
          0.023212504576585337,
          0.7858641393676581
        ],
        [
          0.3557478794962822,
          -0.026912185274923523,
          1.100131120406956
        ],
        [
          0.34984060804360945,
          1.0172937098067563,
          2.9083665188294607
        ],
        [
          1.6849690193466802,
          -1.0467493665300365,
          -1.7209192448910196
        ],
        [
          0.24107425029735918,
          -1.6131836533489692,
          -0.06880408957973976
        ],
        [
          1.4894667899333143,
          -0.20608582669426753,
          0.020038890961028462
        ]
      ],
      [
        [
          0.024626717190177134,
          0.15874526698722893,
          1.4646228760930264
        ],
        [
          -0.7507093382817966,
          -1.5471349308275506,
          -0.012169284881648281
        ],
        [
          1.4749813557508937,
          1.169381582718954,
          3.8974313996223264
        ],
        [
          -0.25023028330261554,
          1.5596081018131656,
          0.8878157285288102
        ],
        [
          1.2447488720111217,
          1.5532359296702634,
          3.9429586625226385
        ],
        [
          -3.0705278095321624,
          2.699066570400068,
          0.7451931746152021
        ]
      ],
      [
        [
          0.5632908542840099,
          1.6320856176503735,
          -4.399772816204131
        ],
        [
          3.8972926976497426,
          1.4115788398891274,
          -1.5234158466799712
        ],
        [
          0.6494823881439145,
          -3.230755007567739,
          0.2744490172759732
        ],
        [
          -2.401054202976902,
          -0.34359446989010417,
          0.4320414015422392
        ],
        [
          -4.594277700971536,
          2.665620535615503,
          -12.597331720415859
        ],
        [
          -0.06408337053816306,
          4.921236997933201,
          0.025243620165229127
        ]
      ],
      [
        [
          0.35791129538871724,
          -2.219605576663037,
          0.10398425873298416
        ],
        [
          0.556095161331017,
          -0.5509724569810978,
          -7.062807521466563
        ],
        [
          0.02472502177442402,
          -0.5615388561219747,
          1.5436547788721828
        ],
        [
          0.03757157695896157,
          0.07312641186499365,
          6.448793019047325
        ],
        [
          0.4486181221682583,
          0.2972502291564478,
          3.4130408074758045
        ],
        [
          0.3531859291465386,
          -1.5088925313490409,
          -2.2247732443098367
        ]
      ],
      [
        [
          -1.4524259793421468,
          -0.1860959496792241,
          -2.1385439306977725
        ],
        [
          1.039840660960663,
          0.015183731557836597,
          -0.5960185224496575
        ],
        [
          -0.8318849442948304,
          0.021172438897237567,
          -0.3660394578492332
        ],
        [
          -0.05756739829417339,
          0.331970782867152,
          -0.40747361026454676
        ],
        [
          0.522326890330183,
          0.12389216316062504,
          0.6973841477624119
        ],
        [
          1.1478346622963773,
          -0.17782492906872782,
          1.6832828018439794
        ]
      ],
      [
        [
          4.544607323358273,
          0.034832040623538396,
          4.5580744391666395
        ],
        [
          3.493464655156497,
          0.049618501090436244,
          2.393433862894465
        ],
        [
          -0.8989554642526746,
          -2.6739566898075964,
          -0.9000640206005717
        ],
        [
          4.109879664749239,
          0.04484752277277168,
          5.493519843928831
        ],
        [
          -0.9372561853751153,
          -0.012329836020831564,
          0.9249088579426648
        ],
        [
          0.19654682474834817,
          0.5680070888776494,
          -0.3104798027827855
        ]
      ],
      [
        [
          5.59466483146024,
          -0.07210014290981924,
          0.3287805116319444
        ],
        [
          0.6208893058736618,
          -1.5747334086382005,
          -0.5169364896342266
        ],
        [
          0.007771522929471097,
          1.5998565448045723,
          0.22824013085768857
        ],
        [
          2.5996585039809847,
          0.07288074973681945,
          0.10624281299309353
        ],
        [
          0.20346713670371724,
          0.052480057479217586,
          0.10456173310374477
        ],
        [
          1.570182344561063,
          3.282448399389136,
          -0.8857086268018934
        ]
      ]
    ]
  },
  "metrics": {
    "mse_train_noise": 0.04208329887417109,
    "mse_train_recovered": 0.02022953083769914,
    "delta_train_pct": 51.92978835099081,
    "mse_test_noise": 0.03574197205136823,
    "mse_test_recovered": 0.013516475011181105,
    "delta_test_pct": 62.183186222194806,
    "mse_train_recovered_pure": 0.00923834747809868,
    "mse_test_recovered_pure": 0.00823018402068349,
    "min_train_cost": 0.010604901104718005
  },
  "artifacts": {
    "weights_file": "weights_inst04_L4.npy",
    "circuit_diagram": "circuit_6q_2l_4t_L4_inst04.eps",
    "training_cost_plot": "training_cost_inst04_L4.eps",
    "cost_history": "cost_inst04_L4.json",
    "reconstruction_pure_plot": "reconstruction_pure_inst04_L4.eps",
    "reconstruction_noisy_plot": "reconstruction_noisy_inst04_L4.eps"
  }
}