{
  "schema": {
    "name": "stacked_qae_bundle",
    "version": "1.0"
  },
  "timestamp": "2025-12-04 18:39:48",
  "dataset": {
    "id": "mackey_glass_tau30_n200",
    "scale_low": 0.0,
    "scale_high": 1.0,
    "window_size": 4,
    "window_step": 2,
    "split": 0.75
  },
  "run": {
    "instance_id": 5,
    "layer": 4,
    "sigma_eval": 0.2,
    "test_seed_fixed": 99123,
    "device_seed": 14049,
    "stage1_time_sec": 174,
    "stage2_time_sec": 192
  },
  "environment": {
    "device": "lightning.qubit",
    "diff_method": "adjoint",
    "interface": "autograd"
  },
  "architecture": {
    "type": "stacked",
    "n_qubits": 4,
    "n_latent": 2,
    "n_trash": 2,
    "rot": "Rxyz"
  },
  "parameters": {
    "weights_stage1": [
      [
        [
          -1.5697675174969863,
          1.5735264482897657,
          0.14017514752795848
        ],
        [
          0.030935211425254364,
          -0.09568221379902196,
          -1.5993880696311424
        ],
        [
          0.5263392578548182,
          -0.04650356761404972,
          1.04796065082264
        ],
        [
          -0.2259013350868352,
          -0.059804276623663485,
          0.24001165570225202
        ]
      ],
      [
        [
          0.4295831878034764,
          1.1141630842908865,
          0.7656910971208957
        ],
        [
          0.19155241329756553,
          0.002381938030600269,
          0.7043893548140748
        ],
        [
          -0.017623817668975066,
          0.0225430814357185,
          0.5206323506462437
        ],
        [
          0.23094019910845257,
          0.11534267623939277,
          0.008429186245684877
        ]
      ],
      [
        [
          0.5838537125820878,
          0.08731969289884522,
          0.4941798699494313
        ],
        [
          -0.2096124111451838,
          0.6109299776821888,
          -1.5578698307933603
        ],
        [
          -0.09354677081596839,
          1.4388580582740471,
          0.6230620313860288
        ],
        [
          0.019055190084608504,
          0.22265117200450926,
          1.5526658400624798
        ]
      ],
      [
        [
          -0.013843674334847199,
          0.7490702321107581,
          0.0679964764093045
        ],
        [
          -0.3435437508484982,
          -0.12267444910137687,
          0.2688490729678508
        ],
        [
          0.20688645623842283,
          0.7240542503095566,
          0.06872162531995965
        ],
        [
          0.01690030240593844,
          1.5705195133051872,
          0.053947578332338514
        ]
      ]
    ],
    "weights_stage2": [
      [
        [
          -3.3606304363100787,
          1.6454412344361358,
          -0.5875589790888083
        ],
        [
          0.4954944904383627,
          0.02457855795128044,
          -2.1739170482128394
        ],
        [
          -1.6979531191079675,
          0.42528632809661165,
          -1.118884673937866
        ],
        [
          -1.7643610650139085,
          0.09321270448707226,
          0.49386530909235127
        ]
      ],
      [
        [
          -1.9602306971299743,
          1.0698614535481303,
          0.40179870800008516
        ],
        [
          -0.2503390756707376,
          0.08327656841711478,
          -1.2076711094566674
        ],
        [
          -1.3292614893008565,
          1.266157867865407,
          0.6310443079867161
        ],
        [
          2.1567877659833146,
          0.2707588867520732,
          1.1793792597790587
        ]
      ],
      [
        [
          0.6942656699225606,
          -0.741703018485107,
          -0.5718705486382598
        ],
        [
          0.9613376623881912,
          -1.1528315100199598,
          -1.4049349998492693
        ],
        [
          -1.4139464670912392,
          -0.729610718167567,
          1.4306408709214316
        ],
        [
          1.8038504039555543,
          0.5044917469953639,
          1.676789653248158
        ]
      ],
      [
        [
          0.3434872600954045,
          0.517452529468594,
          0.255738552172039
        ],
        [
          -0.8027998485155844,
          0.11488161923836199,
          0.45394704216928006
        ],
        [
          0.24939163694682703,
          0.1885483926130281,
          1.1665435143618395
        ],
        [
          0.8958994979278252,
          1.3316525091634424,
          0.053947577351087815
        ]
      ]
    ]
  },
  "metrics": {
    "stage1_min_cost": 0.03665616015597933,
    "stage2_min_cost": 0.052149432718004596,
    "mse_train_noise": 0.04249628927590868,
    "mse_train_recovered": 0.020133549901367113,
    "delta_train_pct": 52.62280485091458,
    "mse_test_noise": 0.03574197205136823,
    "mse_test_recovered": 0.014936144512740309,
    "delta_test_pct": 58.21119077796229,
    "mse_train_recovered_pure": 0.00568568917824032,
    "mse_test_recovered_pure": 0.005250326817901934
  },
  "artifacts": {
    "weights_s1_file": "weights_s1_inst05_L4.npy",
    "weights_s2_file": "weights_s2_inst05_L4.npy",
    "circuit_stage1": "circuit_stage1_4q_2l_2t_stacked_L4_inst05.eps",
    "circuit_stage2": "circuit_stage2_4q_2l_2t_stacked_L4_inst05.eps",
    "circuit_full": "circuit_full_4q_2l_2t_stacked_L4_inst05.eps",
    "training_cost_s1_plot": "training_cost_s1_inst05_L4.eps",
    "training_cost_s2_plot": "training_cost_s2_inst05_L4.eps",
    "reconstruction_pure_plot": "reconstruction_pure_inst05_L4.eps",
    "reconstruction_noisy_plot": "reconstruction_noisy_inst05_L4.eps"
  }
}