{
  "schema": {
    "name": "stacked_qae_bundle",
    "version": "1.0"
  },
  "timestamp": "2025-12-04 18:45:59",
  "dataset": {
    "id": "mackey_glass_tau30_n200",
    "scale_low": 0.0,
    "scale_high": 1.0,
    "window_size": 4,
    "window_step": 2,
    "split": 0.75
  },
  "run": {
    "instance_id": 6,
    "layer": 4,
    "sigma_eval": 0.2,
    "test_seed_fixed": 99123,
    "device_seed": 14050,
    "stage1_time_sec": 173,
    "stage2_time_sec": 192
  },
  "environment": {
    "device": "lightning.qubit",
    "diff_method": "adjoint",
    "interface": "autograd"
  },
  "architecture": {
    "type": "stacked",
    "n_qubits": 4,
    "n_latent": 2,
    "n_trash": 2,
    "rot": "Rxyz"
  },
  "parameters": {
    "weights_stage1": [
      [
        [
          -0.01558972251862364,
          0.2479671269095425,
          -1.5552112932134425
        ],
        [
          1.5746375919427076,
          1.5735448426180036,
          -1.2096597851916582
        ],
        [
          -0.10523554766260511,
          -0.17153602240271046,
          0.10375758060177752
        ],
        [
          -0.04229731373196168,
          -0.014852104342740646,
          0.042158528490885465
        ]
      ],
      [
        [
          0.3507829441117592,
          1.7752705472476689,
          -0.8439434948032868
        ],
        [
          -0.11981782468193636,
          -0.0018638699033196975,
          -0.5620638689593902
        ],
        [
          -0.11587315445485312,
          0.0004566089342118048,
          -0.007383131151504325
        ],
        [
          -0.27926116492322817,
          0.15637734495353522,
          0.027790014130958347
        ]
      ],
      [
        [
          0.07182650825583914,
          0.8132104117696777,
          0.8045142117561621
        ],
        [
          0.03509319712261591,
          -0.09482090095949301,
          0.09281479254939216
        ],
        [
          0.0018667705793200579,
          -1.5704506898190649,
          0.8184747387137523
        ],
        [
          -0.021202961316442507,
          -0.7787981885607653,
          0.020531701971715836
        ]
      ],
      [
        [
          0.7136998777150918,
          -0.0019536594921509306,
          0.04035123134503117
        ],
        [
          0.004753440160460786,
          -0.31801016702570883,
          0.1207350646033048
        ],
        [
          -0.005198436552715758,
          -0.8360158164760281,
          0.26214632585837505
        ],
        [
          0.6724538026768294,
          1.575679908961139,
          0.16484043133523255
        ]
      ]
    ],
    "weights_stage2": [
      [
        [
          -1.2428391580795743,
          0.30947121556909585,
          0.26130529258664936
        ],
        [
          1.1041818764366849,
          1.5437302539613862,
          -0.8734754478150188
        ],
        [
          -1.4237479731104665,
          -0.19111761419583567,
          1.1726210388180243
        ],
        [
          1.1569676796495116,
          -0.33184816383788907,
          -1.0637534081675621
        ]
      ],
      [
        [
          0.6609496262716857,
          1.8266480210508975,
          -0.9670914621507406
        ],
        [
          -0.6704147839719546,
          0.23183252960901063,
          -0.290841480519967
        ],
        [
          -0.08230280755924876,
          0.026291174031065564,
          -0.133225435312088
        ],
        [
          -0.15522219828149497,
          0.00236989672522225,
          0.07952091053852026
        ]
      ],
      [
        [
          -0.054015795904743855,
          0.887086961388709,
          -0.093751093635106
        ],
        [
          0.08682409353017916,
          -0.25646951284909103,
          -0.1711661647890822
        ],
        [
          -0.3583661518033881,
          -1.8208061116703307,
          0.21941848789422994
        ],
        [
          -0.9986480771810055,
          -1.3016933329331224,
          -0.7872236449542932
        ]
      ],
      [
        [
          1.3411186744906807,
          -0.5189868316970792,
          -0.46484481986404297
        ],
        [
          -0.4621060337779897,
          -0.18309661066389818,
          0.8402765327926865
        ],
        [
          -0.43687729324157315,
          -1.0514373588824644,
          0.7556525882179312
        ],
        [
          1.7782522255876703,
          2.265018180352348,
          0.16484042938457427
        ]
      ]
    ]
  },
  "metrics": {
    "stage1_min_cost": 0.04849725017690285,
    "stage2_min_cost": 0.056989267460949,
    "mse_train_noise": 0.04249628927590868,
    "mse_train_recovered": 0.021573654568300373,
    "delta_train_pct": 49.23402740358658,
    "mse_test_noise": 0.03574197205136823,
    "mse_test_recovered": 0.018033455890255408,
    "delta_test_pct": 49.545436764547325,
    "mse_train_recovered_pure": 0.006706727490555355,
    "mse_test_recovered_pure": 0.006166264889951145
  },
  "artifacts": {
    "weights_s1_file": "weights_s1_inst06_L4.npy",
    "weights_s2_file": "weights_s2_inst06_L4.npy",
    "circuit_stage1": "circuit_stage1_4q_2l_2t_stacked_L4_inst06.eps",
    "circuit_stage2": "circuit_stage2_4q_2l_2t_stacked_L4_inst06.eps",
    "circuit_full": "circuit_full_4q_2l_2t_stacked_L4_inst06.eps",
    "training_cost_s1_plot": "training_cost_s1_inst06_L4.eps",
    "training_cost_s2_plot": "training_cost_s2_inst06_L4.eps",
    "reconstruction_pure_plot": "reconstruction_pure_inst06_L4.eps",
    "reconstruction_noisy_plot": "reconstruction_noisy_inst06_L4.eps"
  }
}