{
  "schema": {
    "name": "monolith_qae_bundle",
    "version": "1.0"
  },
  "timestamp": "2025-12-01 13:50:35",
  "dataset": {
    "id": "mackey_glass_tau30_n200",
    "scale_low": 0.0,
    "scale_high": 1.0,
    "window_size": 6,
    "window_step": 2,
    "split": 0.75
  },
  "run": {
    "instance_id": 6,
    "layer": 3,
    "sigma_eval": 0.2,
    "test_seed_fixed": 99123,
    "device_seed": 13050,
    "training_time_sec": 257
  },
  "environment": {
    "device": "lightning.qubit",
    "diff_method": "adjoint",
    "interface": "autograd"
  },
  "architecture": {
    "type": "monolith",
    "n_qubits": 6,
    "n_latent": 2,
    "n_trash": 4,
    "n_extra": 0,
    "rot": "Rxyz"
  },
  "parameters": {
    "weights": [
      [
        [
          0.30225164510496805,
          -0.2645629717761083,
          6.248230981643507
        ],
        [
          -0.5641974038884546,
          -1.1486617779989763,
          -1.8258064822024085
        ],
        [
          0.544399236935608,
          -0.917853541997408,
          1.8873917996361602
        ],
        [
          -0.4697310380995996,
          -2.2471342081753276,
          0.3722947061976717
        ],
        [
          0.6232947973050501,
          0.8117001861612058,
          1.5824362716448641
        ],
        [
          0.20128695853743556,
          -0.29523289928465934,
          -2.7633090676686076
        ]
      ],
      [
        [
          -1.5026855692349308,
          -0.6070897084852837,
          -3.0602547901039854
        ],
        [
          4.549199567899977,
          0.2023009107258455,
          0.6898117042719265
        ],
        [
          1.495136558957315,
          0.605792385958937,
          1.069608109544469
        ],
        [
          2.3939491248887412,
          1.6356740573310262,
          -3.0527977406453597
        ],
        [
          2.358410196977809,
          0.334048095191108,
          2.687541286096945
        ],
        [
          2.634175057199011,
          1.6966022812906658,
          0.2160198955456729
        ]
      ],
      [
        [
          -0.09668293945998098,
          1.4780347229044277,
          -0.1781252238791352
        ],
        [
          -3.1311236555815385,
          -4.570955521867641,
          -4.291170438952646
        ],
        [
          0.47083121166801634,
          0.589181631607575,
          0.3353117546980272
        ],
        [
          1.2905121020102146,
          -1.1824073755998497,
          -3.013057390359456
        ],
        [
          1.1642144684465272,
          -0.034250230731689424,
          0.013640830748206729
        ],
        [
          0.47079772350900556,
          0.47570136183287925,
          0.201935433256551
        ]
      ],
      [
        [
          0.43579755741769666,
          -0.051864953640496654,
          11.03513980207392
        ],
        [
          0.28474685412740797,
          0.9587133942144113,
          1.5543042288882851
        ],
        [
          0.24627392421358088,
          0.05762792881163098,
          4.77499263403622
        ],
        [
          0.6026923788003344,
          -0.9682590161376894,
          1.6602189573954709
        ],
        [
          0.04311750136143902,
          0.048212647280272546,
          -7.078659759292949
        ],
        [
          0.22445814831304312,
          -0.0033174382580581055,
          -1.3141628294301544
        ]
      ],
      [
        [
          -3.8944896959383906,
          -0.08807283244136759,
          2.4356603026263604
        ],
        [
          -0.3839732192759628,
          -0.006876578732905901,
          -0.40599734080501787
        ],
        [
          1.8893630287970815,
          0.01400923329371991,
          -1.9394191450339058
        ],
        [
          4.1346460959244915,
          -0.016786518470957936,
          3.6374165106609024
        ],
        [
          -0.8176791494770964,
          0.007348201602822986,
          0.7993625138055069
        ],
        [
          -1.5819536537153585,
          -0.5085168570293954,
          -1.650557755056639
        ]
      ],
      [
        [
          1.5878701602107042,
          -0.04982004542722432,
          3.6565249705410516
        ],
        [
          -0.7156917227529611,
          -0.058796975282145655,
          0.41309370791034117
        ],
        [
          1.469981990162964,
          -0.497774408980207,
          0.016296165814702206
        ],
        [
          2.0324054098178417,
          0.06256685448027526,
          3.61426376807989
        ],
        [
          3.877744249449638,
          0.007492321793079548,
          0.4941539971569234
        ],
        [
          -11.251867856714622,
          0.02253651040245541,
          0.3073586391896067
        ]
      ]
    ]
  },
  "metrics": {
    "mse_train_noise": 0.04208329887417109,
    "mse_train_recovered": 0.02794419452215558,
    "delta_train_pct": 33.59789923858245,
    "mse_test_noise": 0.03574197205136823,
    "mse_test_recovered": 0.022788049379470262,
    "delta_test_pct": 36.24288736301578,
    "mse_train_recovered_pure": 0.020058672489346,
    "mse_test_recovered_pure": 0.018988093961718702,
    "min_train_cost": 0.015983415252595844
  },
  "artifacts": {
    "weights_file": "weights_inst06_L3.npy",
    "circuit_diagram": "circuit_6q_2l_4t_L3_inst06.eps",
    "training_cost_plot": "training_cost_inst06_L3.eps",
    "cost_history": "cost_inst06_L3.json",
    "reconstruction_pure_plot": "reconstruction_pure_inst06_L3.eps",
    "reconstruction_noisy_plot": "reconstruction_noisy_inst06_L3.eps"
  }
}