{
  "schema": {
    "name": "monolith_qae_bundle",
    "version": "1.0"
  },
  "timestamp": "2025-12-03 03:12:21",
  "dataset": {
    "id": "mackey_glass_tau30_n200",
    "scale_low": 0.0,
    "scale_high": 1.0,
    "window_size": 6,
    "window_step": 2,
    "split": 0.75
  },
  "run": {
    "instance_id": 5,
    "layer": 5,
    "sigma_eval": 0.2,
    "test_seed_fixed": 99123,
    "device_seed": 15049,
    "training_time_sec": 399
  },
  "environment": {
    "device": "lightning.qubit",
    "diff_method": "adjoint",
    "interface": "autograd"
  },
  "architecture": {
    "type": "monolith",
    "n_qubits": 6,
    "n_latent": 2,
    "n_trash": 4,
    "n_extra": 0,
    "rot": "Rxyz"
  },
  "parameters": {
    "weights": [
      [
        [
          -0.7910648413999896,
          0.8494249401345068,
          0.4103447484671125
        ],
        [
          -0.5181715419418116,
          -1.0444917518398007,
          -2.0864303150904258
        ],
        [
          2.900230840004386,
          -0.6573607731452522,
          0.3182437659908759
        ],
        [
          1.5165670057286107,
          -1.3458646011129136,
          1.8337420437068583
        ],
        [
          0.12442359861675374,
          -1.7024856339492704,
          -1.4677416303361066
        ],
        [
          -0.0024472641695243045,
          -0.4012510138998023,
          0.8706050030640626
        ]
      ],
      [
        [
          -1.5588756680978675,
          -0.7909010654636125,
          1.5797661023538392
        ],
        [
          1.9525398015696802,
          0.5505463302672174,
          2.455262409983413
        ],
        [
          1.6914324253950772,
          -0.4548162562963511,
          -0.17795268162510045
        ],
        [
          1.3283753203000874,
          -0.7964205520015605,
          0.023196255254858147
        ],
        [
          -1.340312125730419,
          -0.46026717977436665,
          -0.15951412060746167
        ],
        [
          1.1364313579335035,
          -0.22360600931914137,
          0.4523287536306124
        ]
      ],
      [
        [
          -0.9946871604661373,
          -0.2632776622739385,
          0.5333434068346604
        ],
        [
          -1.3885858327356695,
          -2.101526427710542,
          -0.9569178722484804
        ],
        [
          2.690923840282318,
          2.1962585435425868,
          -2.111395107807337
        ],
        [
          -0.2118705109330452,
          -0.5162364445706553,
          -0.2619851457893002
        ],
        [
          0.4392515847150296,
          -0.2739696101676819,
          -0.5557527499280975
        ],
        [
          0.10158041659492952,
          6.167488242598991,
          2.137527498051298
        ]
      ],
      [
        [
          -0.4507788393201975,
          0.15548648014341723,
          2.329209248065613
        ],
        [
          -0.16040500838219193,
          0.5041041365542207,
          -1.4911119923456961
        ],
        [
          1.7925040730436599,
          0.4805127035430855,
          0.8074503792126919
        ],
        [
          -1.754126438982438,
          -0.09296223637281559,
          1.6388378431180803
        ],
        [
          1.3095334053208993,
          -1.2355178584680824,
          2.6849707158800196
        ],
        [
          -1.0978184175351617,
          0.08194518838878236,
          1.4220481508987255
        ]
      ],
      [
        [
          -0.5787438805002865,
          -0.1199893489185642,
          0.5518124315830081
        ],
        [
          2.2407163499515543,
          1.390310654128197,
          -0.14333167246911005
        ],
        [
          -1.718370712290653,
          0.18260677414795734,
          0.01325806044735427
        ],
        [
          0.18818872549453458,
          0.1503885643064567,
          0.562204678233101
        ],
        [
          0.31838880744534703,
          0.3041115063625551,
          0.2290003342063483
        ],
        [
          0.06731653727080807,
          0.21348049901236818,
          -0.12684487019566182
        ]
      ],
      [
        [
          0.36633297583986635,
          1.1989037027006357,
          -1.3498124868550958
        ],
        [
          0.002172752751465139,
          0.12424051135152073,
          -0.006201858689560685
        ],
        [
          0.026972068069492032,
          1.500174948909141,
          -0.07667028899407494
        ],
        [
          0.5568637072042156,
          0.019239775448146618,
          -5.731611382150859
        ],
        [
          0.4824621331488215,
          0.06968462867455338,
          -11.875468446884351
        ],
        [
          0.44268774506966185,
          -1.7676145499673857,
          1.5668786448853564
        ]
      ],
      [
        [
          1.5960444217393128,
          0.04372458846516408,
          2.2788527252277904
        ],
        [
          -1.5734778982950122,
          -0.0748333484256147,
          -0.18628650659337906
        ],
        [
          0.6887294573668902,
          0.043867155278809244,
          -0.8741326099694781
        ],
        [
          1.3557451846064554,
          0.12221320282083434,
          0.1321960592888903
        ],
        [
          -1.4714530344214236,
          -0.04122803475156711,
          -0.012844214909284446
        ],
        [
          2.2711178912898857,
          -0.01785350208721716,
          0.8716811700887759
        ]
      ],
      [
        [
          3.5522242387220118,
          0.12543479485403725,
          6.623885937806916
        ],
        [
          1.351799471698321,
          -0.06262515711866799,
          -1.4234098567978397
        ],
        [
          -0.6277665195324887,
          -0.1486674876175027,
          -0.9635686829287982
        ],
        [
          -0.7382454731331876,
          -0.005535437829038441,
          -0.21252337415360595
        ],
        [
          -0.10323022497958835,
          0.033603286207821666,
          0.48787565915967196
        ],
        [
          1.3130550451404104,
          -0.10228799580630415,
          1.8693121530135437
        ]
      ],
      [
        [
          -0.13143636962596794,
          0.020973507272144674,
          -1.0441067353317603
        ],
        [
          0.4509531434064119,
          -1.1458593953709648,
          0.842525283970054
        ],
        [
          1.5825979271234178,
          1.7440879621903835,
          0.06463066520949297
        ],
        [
          1.879216928981635,
          0.2858260764829878,
          0.5166830122932207
        ],
        [
          0.30649332743139535,
          0.04660507826116343,
          0.23893056486616782
        ],
        [
          6.525461999373181,
          -0.05433174121604375,
          4.695599371973848
        ]
      ],
      [
        [
          -0.5357956342631212,
          1.437649363601122,
          0.7356920083651767
        ],
        [
          7.167386054448825,
          1.8265059407554418,
          -0.37327938300935687
        ],
        [
          -3.6665953408906757,
          0.27908410060557565,
          0.02258875297727285
        ],
        [
          6.308775769683895,
          0.5429343019421985,
          0.01656633588664579
        ],
        [
          1.7264291971002654,
          0.05410488370690497,
          0.5973379192821665
        ],
        [
          0.7248080648732913,
          -1.462150017960187,
          0.2583549162635477
        ]
      ]
    ]
  },
  "metrics": {
    "mse_train_noise": 0.04208329887417109,
    "mse_train_recovered": 0.019849344551376404,
    "delta_train_pct": 52.833202048333064,
    "mse_test_noise": 0.03574197205136823,
    "mse_test_recovered": 0.012163227783485008,
    "delta_test_pct": 65.96934336470281,
    "mse_train_recovered_pure": 0.011880740624293928,
    "mse_test_recovered_pure": 0.011008476232088405,
    "min_train_cost": 0.00958666458960459
  },
  "artifacts": {
    "weights_file": "weights_inst05_L5.npy",
    "circuit_diagram": "circuit_6q_2l_4t_L5_inst05.eps",
    "training_cost_plot": "training_cost_inst05_L5.eps",
    "cost_history": "cost_inst05_L5.json",
    "reconstruction_pure_plot": "reconstruction_pure_inst05_L5.eps",
    "reconstruction_noisy_plot": "reconstruction_noisy_inst05_L5.eps"
  }
}