{
  "schema": {
    "name": "monolith_qae_bundle",
    "version": "1.0"
  },
  "timestamp": "2025-12-03 03:05:38",
  "dataset": {
    "id": "mackey_glass_tau30_n200",
    "scale_low": 0.0,
    "scale_high": 1.0,
    "window_size": 6,
    "window_step": 2,
    "split": 0.75
  },
  "run": {
    "instance_id": 4,
    "layer": 5,
    "sigma_eval": 0.2,
    "test_seed_fixed": 99123,
    "device_seed": 15048,
    "training_time_sec": 400
  },
  "environment": {
    "device": "lightning.qubit",
    "diff_method": "adjoint",
    "interface": "autograd"
  },
  "architecture": {
    "type": "monolith",
    "n_qubits": 6,
    "n_latent": 2,
    "n_trash": 4,
    "n_extra": 0,
    "rot": "Rxyz"
  },
  "parameters": {
    "weights": [
      [
        [
          0.00020208319755477965,
          -0.5943676684937731,
          -0.039699291075931856
        ],
        [
          -0.019539995402841653,
          -1.3797247760822478,
          1.6543087723641599
        ],
        [
          0.09208819563461858,
          -0.40214314410953234,
          0.2591526444118052
        ],
        [
          -0.591291962866797,
          -0.17693383993080627,
          2.1927902630284937
        ],
        [
          0.9215867431506025,
          -0.8937106557587086,
          -0.8440866314400123
        ],
        [
          -1.567406907529661,
          -1.657228054450458,
          -0.35860320600491313
        ]
      ],
      [
        [
          1.3516384573649962,
          -0.19319705620596658,
          0.929674707315668
        ],
        [
          0.11388016286417177,
          -1.6648327917162233,
          -0.38043449878736246
        ],
        [
          1.3551812438493085,
          -0.3032110225891781,
          -0.12151994168549926
        ],
        [
          1.509512061597009,
          0.9487075115344877,
          3.0819024624493028
        ],
        [
          0.03005749697270364,
          1.5380845774482141,
          -1.090603760978716
        ],
        [
          -1.190966577176597,
          0.20194060553447135,
          -2.1470577598024745
        ]
      ],
      [
        [
          0.7109821685439955,
          0.03473213172651656,
          3.6711241429946195
        ],
        [
          0.6903651841972686,
          0.025806174674738384,
          -0.04594111625527711
        ],
        [
          -0.30411555580140137,
          -0.40908819223353327,
          1.165603213536591
        ],
        [
          -1.3386643900974486,
          0.6318047526171833,
          0.436473707143673
        ],
        [
          -2.372208000216803,
          0.04002592885063748,
          0.7257811484912147
        ],
        [
          1.689289755058124,
          0.8244763883084447,
          0.8574264701261614
        ]
      ],
      [
        [
          0.8778023312614512,
          1.6328206968020877,
          -0.3477502348292248
        ],
        [
          0.2947636058447228,
          -0.08257069368246829,
          -1.5646632464343313
        ],
        [
          0.8002568792330499,
          -0.4044802699597875,
          3.1059405389270123
        ],
        [
          1.4853089471569116,
          -1.6754647235329356,
          6.296861966969941
        ],
        [
          0.9890401983368893,
          -0.16160013716330807,
          -0.9000991200585707
        ],
        [
          -0.6688431453041752,
          2.2002672754457406,
          0.3829307153325687
        ]
      ],
      [
        [
          4.407846240937093,
          -0.04856960446596107,
          1.635715377256485
        ],
        [
          -3.9159057871912317,
          0.46399424977560155,
          0.7510501259342829
        ],
        [
          -0.1652934911412483,
          0.49405398057107386,
          0.1000931731256882
        ],
        [
          0.46540285825022104,
          0.5712004264745788,
          0.30563408687682886
        ],
        [
          0.1695538767567205,
          0.032649668857479844,
          0.02535554251440995
        ],
        [
          3.1384108845125493,
          -0.539920663879782,
          4.612315339559161
        ]
      ],
      [
        [
          0.4703996000732913,
          1.7182787780812183,
          2.2592089690275508
        ],
        [
          0.47356966139531237,
          0.09147588333925027,
          -5.369709073024119
        ],
        [
          0.014263346299604063,
          -0.49443933005251145,
          1.8321052928933008
        ],
        [
          0.2359049768549155,
          0.0686833513300712,
          -0.588802347678992
        ],
        [
          0.2053862692639372,
          -0.057037531127472015,
          -2.310880432741335
        ],
        [
          0.024781954315207206,
          1.0002801668662964,
          1.47112574442754
        ]
      ],
      [
        [
          1.7695273897085424,
          -0.0577217701752608,
          2.9467217258972696
        ],
        [
          1.8078353900753856,
          0.00918034138875984,
          1.3804120414749488
        ],
        [
          -0.39422188280579834,
          0.08863626959140085,
          -1.4023479334824644
        ],
        [
          -0.2621786499518069,
          -0.022935051648897867,
          1.082720278982212
        ],
        [
          -1.374556807024802,
          -0.06166801586634088,
          -2.0829352846794067
        ],
        [
          0.4103369820115737,
          -0.020385697202207304,
          0.11409727816749304
        ]
      ],
      [
        [
          -4.566704618148787,
          -0.013507486059398173,
          -4.806659080221172
        ],
        [
          4.800668216888276,
          1.0688102125701162,
          0.15975110879642768
        ],
        [
          1.7884739834493932,
          0.12612489269876023,
          0.5334158459715861
        ],
        [
          1.0320150220624633,
          0.10157143831338106,
          2.9687914199679293
        ],
        [
          -1.5149474213164902,
          -0.5424350184349692,
          1.55153578790195
        ],
        [
          -0.0820468079146981,
          -0.11348000728141347,
          -0.6098319224938011
        ]
      ],
      [
        [
          3.2183021277388955,
          0.07899465316224583,
          2.1754430314137165
        ],
        [
          1.4520791390011432,
          -0.7612987340646902,
          -1.7351773219774156
        ],
        [
          -0.20156276235036796,
          1.448079266522093,
          -8.051636785068688
        ],
        [
          0.28246426514247824,
          -0.015267639521982655,
          0.26791174780283594
        ],
        [
          -0.06332441850429611,
          -0.8024023344940052,
          -0.4239973382962493
        ],
        [
          0.511853424800639,
          -0.011372151244200683,
          1.696308970821305
        ]
      ],
      [
        [
          -0.5320104954685938,
          -0.0056313099853353196,
          1.4139803085120197
        ],
        [
          2.3701984483916845,
          0.15138436472913758,
          2.247504741665969
        ],
        [
          -10.006639025362098,
          0.0049614197213258,
          0.3305844716753946
        ],
        [
          5.013153339660817,
          -0.06375430027344334,
          0.13158866923779114
        ],
        [
          -4.049595666693997,
          -0.06158906704454601,
          0.015124921364314063
        ],
        [
          2.0749259805290974,
          -0.019542981566547844,
          1.7218748289820005
        ]
      ]
    ]
  },
  "metrics": {
    "mse_train_noise": 0.04208329887417109,
    "mse_train_recovered": 0.019023688526366198,
    "delta_train_pct": 54.79515856576036,
    "mse_test_noise": 0.03574197205136823,
    "mse_test_recovered": 0.014219858894710344,
    "delta_test_pct": 60.2152369369166,
    "mse_train_recovered_pure": 0.01028966285084631,
    "mse_test_recovered_pure": 0.00990858734354373,
    "min_train_cost": 0.010590572531257537
  },
  "artifacts": {
    "weights_file": "weights_inst04_L5.npy",
    "circuit_diagram": "circuit_6q_2l_4t_L5_inst04.eps",
    "training_cost_plot": "training_cost_inst04_L5.eps",
    "cost_history": "cost_inst04_L5.json",
    "reconstruction_pure_plot": "reconstruction_pure_inst04_L5.eps",
    "reconstruction_noisy_plot": "reconstruction_noisy_inst04_L5.eps"
  }
}