{
  "schema": {
    "name": "monolith_qae_bundle",
    "version": "1.0"
  },
  "timestamp": "2025-12-03 03:25:47",
  "dataset": {
    "id": "mackey_glass_tau30_n200",
    "scale_low": 0.0,
    "scale_high": 1.0,
    "window_size": 6,
    "window_step": 2,
    "split": 0.75
  },
  "run": {
    "instance_id": 7,
    "layer": 5,
    "sigma_eval": 0.2,
    "test_seed_fixed": 99123,
    "device_seed": 15051,
    "training_time_sec": 398
  },
  "environment": {
    "device": "lightning.qubit",
    "diff_method": "adjoint",
    "interface": "autograd"
  },
  "architecture": {
    "type": "monolith",
    "n_qubits": 6,
    "n_latent": 2,
    "n_trash": 4,
    "n_extra": 0,
    "rot": "Rxyz"
  },
  "parameters": {
    "weights": [
      [
        [
          1.5157116313802559,
          0.17355676017297914,
          -1.8113506375959125
        ],
        [
          0.08170484095589238,
          -1.1508421528405404,
          1.776286740488062
        ],
        [
          -0.04513798607206932,
          -0.7332803234037468,
          0.13104970107789185
        ],
        [
          0.1448438620940771,
          -1.5892087088109101,
          -0.29834758386402715
        ],
        [
          1.55076281122491,
          0.3391436372850973,
          -1.4286403988646579
        ],
        [
          1.3123832029824554,
          -1.5816303621195007,
          0.3049689474049409
        ]
      ],
      [
        [
          1.5403321578150806,
          -0.8065024675026295,
          1.5010404150443215
        ],
        [
          -0.40268898241938367,
          0.020509016355033778,
          0.8505358286342561
        ],
        [
          3.350216671466637,
          -0.21260359190620132,
          2.7280348327493926
        ],
        [
          0.4121650557028872,
          0.7216391227695943,
          2.157786406389902
        ],
        [
          -0.04554748053934969,
          0.8163136533508822,
          -1.1690758741770746
        ],
        [
          -1.2929356374817003,
          0.7284710978824684,
          -1.7216284567137758
        ]
      ],
      [
        [
          0.7820125321287942,
          -0.045551863261886316,
          2.2059024327261643
        ],
        [
          -1.1735442901010238,
          0.20331871066471727,
          1.1211974386205614
        ],
        [
          -0.3984335847254925,
          -1.627062666143724,
          -0.067016454683927
        ],
        [
          0.5416995906284995,
          4.842611501906039,
          -0.4275801377945404
        ],
        [
          1.3975517744111576,
          -0.011116491370519923,
          0.8976350366096737
        ],
        [
          -1.1059397562140818,
          -0.020461352128539098,
          0.3525121289145195
        ]
      ],
      [
        [
          -0.09094806167226036,
          0.07796293234179195,
          -2.9976534243719746
        ],
        [
          0.9415890660843215,
          0.5166825638733873,
          -1.7542276908642456
        ],
        [
          0.26104038437326754,
          -0.02027150707560102,
          2.124568228705093
        ],
        [
          0.5565410946727085,
          -0.19224144604611887,
          3.094802628397208
        ],
        [
          -0.6141885990585899,
          -0.1136687923382617,
          2.8460899871926193
        ],
        [
          -4.765542444533232,
          3.041280235525396,
          -1.6868122355240833
        ]
      ],
      [
        [
          1.2824137887941727,
          -0.41272225807688023,
          3.4554331275307777
        ],
        [
          0.6226690561838495,
          0.1284968015633816,
          2.4606848281561122
        ],
        [
          -1.1667027024684593,
          0.11592815147847513,
          0.5665779568372055
        ],
        [
          0.009444266057764873,
          0.1665736298628053,
          0.3412620854893819
        ],
        [
          0.3035411497647905,
          0.09757407559069943,
          0.5961732721347754
        ],
        [
          7.348343925318896,
          1.751985560879192,
          -1.6308023311336954
        ]
      ],
      [
        [
          0.12121334971599557,
          1.6196241397845978,
          1.3829029109018365
        ],
        [
          0.20815884327678505,
          0.14743087501198224,
          4.517241447036001
        ],
        [
          0.5118649045747317,
          -1.0797056408851426,
          1.4463307027232544
        ],
        [
          0.16251081162962386,
          -0.14959605205748394,
          -4.69249184169983
        ],
        [
          0.24891878145277493,
          -0.02685694568673051,
          6.579292510963035
        ],
        [
          0.1407721119180077,
          -1.6138111483354285,
          -0.3577536177517344
        ]
      ],
      [
        [
          1.265465903350572,
          -0.6185697663592193,
          0.11484690119552568
        ],
        [
          1.2915603968461091,
          -0.053619098445236386,
          -0.95654921609961
        ],
        [
          -1.2642471568603,
          -0.0662270041357752,
          -0.18402704309090384
        ],
        [
          1.5493175059760411,
          -0.08507576108360937,
          -0.2393579781544321
        ],
        [
          2.737951359246126,
          -0.09957342236762871,
          1.868772172376499
        ],
        [
          1.539235917273934,
          0.5920080272600143,
          1.5095951308326572
        ]
      ],
      [
        [
          2.6440083165444195,
          1.5323293459445613,
          -0.15394671568643795
        ],
        [
          -1.994542026014871,
          -0.1416826982149937,
          0.24734017784909854
        ],
        [
          -2.0590615136925146,
          -0.3051957055943203,
          2.1079554954151
        ],
        [
          0.017181069845908857,
          -0.4051487162881248,
          0.202915169064325
        ],
        [
          -1.5033250989461724,
          -0.5775446800156937,
          -0.5645151537727541
        ],
        [
          -0.3194110596652486,
          -0.11895376048237319,
          -1.2450026479829555
        ]
      ],
      [
        [
          -0.20847186086710764,
          0.48140619204654256,
          1.3320734002027992
        ],
        [
          -0.7187900439090583,
          -1.534371528063367,
          1.4442685931514927
        ],
        [
          -1.4513448120415038,
          -1.5539771480673377,
          0.3552426515652812
        ],
        [
          0.0591915236234865,
          -1.5603962799938098,
          -0.6420587648450768
        ],
        [
          1.5513392319853385,
          0.508291270039387,
          -1.2571784091612836
        ],
        [
          -2.1303718003044385,
          0.26142498876799886,
          -0.5631844195051421
        ]
      ],
      [
        [
          -0.1903072043430323,
          0.29067565927556244,
          0.4483492495830762
        ],
        [
          -1.1343098707795958,
          0.13473815946946602,
          6.9980572757963895
        ],
        [
          -0.3048067953688447,
          0.8602544461750401,
          0.06855545732522791
        ],
        [
          -4.729325929386308,
          0.007784981046101154,
          0.4851731405787555
        ],
        [
          6.3922282980239284,
          0.0023734796218265026,
          0.24829717881951363
        ],
        [
          2.588034189606904,
          -0.20235829599660138,
          0.2771824231157944
        ]
      ]
    ]
  },
  "metrics": {
    "mse_train_noise": 0.04208329887417109,
    "mse_train_recovered": 0.019645625065878088,
    "delta_train_pct": 53.317288350852834,
    "mse_test_noise": 0.03574197205136823,
    "mse_test_recovered": 0.014462188906781135,
    "delta_test_pct": 59.53723849933035,
    "mse_train_recovered_pure": 0.011560663419702202,
    "mse_test_recovered_pure": 0.011259636863956191,
    "min_train_cost": 0.009297237226073157
  },
  "artifacts": {
    "weights_file": "weights_inst07_L5.npy",
    "circuit_diagram": "circuit_6q_2l_4t_L5_inst07.eps",
    "training_cost_plot": "training_cost_inst07_L5.eps",
    "cost_history": "cost_inst07_L5.json",
    "reconstruction_pure_plot": "reconstruction_pure_inst07_L5.eps",
    "reconstruction_noisy_plot": "reconstruction_noisy_inst07_L5.eps"
  }
}