{
  "schema": {
    "name": "monolith_qae_bundle",
    "version": "1.0"
  },
  "timestamp": "2025-12-01 00:42:25",
  "dataset": {
    "id": "mackey_glass_tau17_n200",
    "scale_low": 0.0,
    "scale_high": 1.0,
    "window_size": 6,
    "window_step": 2,
    "split": 0.75
  },
  "run": {
    "instance_id": 7,
    "layer": 3,
    "sigma_eval": 0.2,
    "test_seed_fixed": 99123,
    "device_seed": 13051,
    "training_time_sec": 263
  },
  "environment": {
    "device": "lightning.qubit",
    "diff_method": "adjoint",
    "interface": "autograd"
  },
  "architecture": {
    "type": "monolith",
    "n_qubits": 6,
    "n_latent": 4,
    "n_trash": 2,
    "n_extra": 0,
    "rot": "Rxyz"
  },
  "parameters": {
    "weights": [
      [
        [
          1.3125478651565647,
          -1.6108997343864133,
          0.7675765850654109
        ],
        [
          0.5562616180947602,
          0.19984004705832287,
          0.9760825383176176
        ],
        [
          -0.08330398677111488,
          -0.40856054316212054,
          -3.7393287150836385
        ],
        [
          -0.456281873442926,
          -1.3580827187778068,
          -1.6858700169991254
        ],
        [
          2.3183890239865708,
          0.8789761205974727,
          -1.5420938493523568
        ],
        [
          0.5724795246007456,
          0.09820569549116674,
          -0.41961399281604006
        ]
      ],
      [
        [
          2.124432707091966,
          0.2649550677861645,
          -0.6552746085223349
        ],
        [
          -0.16969112096144287,
          0.12146967640163443,
          -1.106048506772132
        ],
        [
          1.5831952483753966,
          -0.7896742118261427,
          1.5098665072713358
        ],
        [
          -1.543694006858892,
          -0.8813600570930071,
          0.11896385810277121
        ],
        [
          0.19471147873252204,
          0.01779219188291089,
          0.2011429018685685
        ],
        [
          1.2040736092014936,
          1.5006303462026829,
          0.08305257802101665
        ]
      ],
      [
        [
          1.469669193601632,
          -0.42493657296609777,
          -0.29949794026454113
        ],
        [
          -1.4611750961437318,
          2.123302637233718,
          -1.0976318079755383
        ],
        [
          0.12432871569809738,
          0.08980433092141202,
          0.1829955727276381
        ],
        [
          0.24443211838945736,
          0.5721174720877215,
          3.4827301206744927
        ],
        [
          1.245235924050546,
          0.2640932846317668,
          0.11681442884816448
        ],
        [
          0.05305950992059507,
          -1.4504240446131424,
          0.052610876035966314
        ]
      ],
      [
        [
          0.4028297206536712,
          1.4964138580574247,
          -1.1341548804660928
        ],
        [
          0.4932714509522871,
          0.9180985355500213,
          4.700554313256395
        ],
        [
          0.30215824041455147,
          -0.01695756718167525,
          -0.13044176814876904
        ],
        [
          0.2621306308161686,
          -0.05871043833010019,
          -0.35013287281279004
        ],
        [
          0.6121214379191123,
          -0.8348972014867523,
          -1.6377209109025739
        ],
        [
          0.15016826793000465,
          -0.9987819546960139,
          0.16852927480626798
        ]
      ],
      [
        [
          -1.488147096081887,
          0.6296228740632397,
          -0.1554354220008344
        ],
        [
          -0.026920583986971138,
          -0.003423560607484438,
          0.75216954411934
        ],
        [
          -0.03731749882337544,
          0.18955614755099195,
          -1.7797838975544809
        ],
        [
          2.3963260683348095,
          -0.03471888260313046,
          0.8191565306013006
        ],
        [
          1.5841520586459539,
          -0.6634679709514714,
          0.1599317401734298
        ],
        [
          1.3740515371048587,
          0.02243494287480763,
          0.1559969396742721
        ]
      ],
      [
        [
          1.775320063517216,
          -0.009101400259456058,
          0.8689273125063479
        ],
        [
          0.9070029095575046,
          -0.08808392829731769,
          0.619322846378257
        ],
        [
          0.2294551788226106,
          -0.022293008607238804,
          0.18274892794803133
        ],
        [
          -4.03035914623754,
          -0.005650572952681454,
          -3.131030629851582
        ],
        [
          2.609768173494905,
          -0.04040225957389428,
          0.2796808938897312
        ],
        [
          -0.3027306157777043,
          -0.032954615382923894,
          -0.02315025872470579
        ]
      ]
    ]
  },
  "metrics": {
    "mse_train_noise": 0.0400301695648753,
    "mse_train_recovered": 0.019861659935190276,
    "delta_train_pct": 50.383273038598354,
    "mse_test_noise": 0.04102832521598486,
    "mse_test_recovered": 0.023016406139299724,
    "delta_test_pct": 43.90118042075867,
    "mse_train_recovered_pure": 0.011884411911609301,
    "mse_test_recovered_pure": 0.012994346394243935,
    "min_train_cost": 0.012381698257489795
  },
  "artifacts": {
    "weights_file": "weights_inst07_L3.npy",
    "circuit_diagram": "circuit_6q_4l_2t_L3_inst07.eps",
    "training_cost_plot": "training_cost_inst07_L3.eps",
    "cost_history": "cost_inst07_L3.json",
    "reconstruction_pure_plot": "reconstruction_pure_inst07_L3.eps",
    "reconstruction_noisy_plot": "reconstruction_noisy_inst07_L3.eps"
  }
}