{
  "schema": {
    "name": "sidekick_qae_bundle",
    "version": "1.0"
  },
  "timestamp": "2025-12-06 08:31:16",
  "dataset": {
    "id": "mackey_glass_tau30_n200",
    "scale_low": 0.0,
    "scale_high": 1.0,
    "window_size": 4,
    "window_step": 2,
    "split": 0.75
  },
  "run": {
    "instance_id": 7,
    "layer": 4,
    "sigma_eval": 0.2,
    "test_seed_fixed": 99123,
    "device_seed": 14051,
    "stage1_time_sec": 152,
    "stage2_time_sec": 246
  },
  "environment": {
    "device": "lightning.qubit",
    "diff_method": "adjoint",
    "interface": "autograd"
  },
  "architecture": {
    "type": "sidekick",
    "n_qubits": 4,
    "n_latent": 3,
    "n_trash": 1,
    "rot": "Rxyz"
  },
  "parameters": {
    "weights_stage1": [
      [
        [
          -0.2826046409113315,
          -0.18727867480304983,
          -1.296000938088878
        ],
        [
          -0.3178121149610747,
          -0.11371357826087575,
          0.32228202606198875
        ],
        [
          -0.19981470754929886,
          -0.1665013401739245,
          0.19911752252148318
        ],
        [
          1.5688659062401136,
          -1.5470359675140766,
          0.018660995272290527
        ]
      ],
      [
        [
          0.8858676049010916,
          -0.13991152169812696,
          0.7852004401848731
        ],
        [
          0.0358504200849405,
          -0.7800445358579191,
          -0.031902866972029834
        ],
        [
          -0.0024104166611831402,
          -0.5535711229613698,
          -0.06839157767415122
        ],
        [
          2.0652950930641563,
          -0.4966925515520639,
          0.01837346771971126
        ]
      ],
      [
        [
          0.2146714222712526,
          0.008937367921137595,
          -0.14450771799346485
        ],
        [
          -0.004079883917537337,
          1.0094611897754044,
          -0.19606606217197448
        ],
        [
          1.2193673954344186,
          -0.3165598415015661,
          1.0680025691957173
        ],
        [
          0.20140612865679808,
          0.013464293259974008,
          -0.058463301310865814
        ]
      ],
      [
        [
          0.022244561200602034,
          0.7822262646464795,
          0.3135505599104309
        ],
        [
          0.008359279874085692,
          1.5359614041475682,
          0.31201545959282995
        ],
        [
          1.3788643786453396,
          0.029292685776790978,
          0.1644094290267043
        ],
        [
          0.3017826229058691,
          0.3683474524510543,
          0.30726360011623294
        ]
      ]
    ],
    "weights_stage2": [
      [
        [
          -0.3805110761943626,
          -0.17554695649949098,
          -1.1946230969766394
        ],
        [
          -0.5809314643188873,
          -0.06437225940858769,
          0.5734597414384272
        ],
        [
          -0.2079220062136348,
          -0.16820498411948528,
          0.19653366625165533
        ],
        [
          1.6133860925938932,
          -1.5247424195112562,
          0.038551712655783804
        ]
      ],
      [
        [
          0.3721291976395937,
          -0.2171048386406958,
          1.1815294244168182
        ],
        [
          0.032555158690806656,
          -0.7780670923819899,
          -0.04248464421292915
        ],
        [
          -0.01470349586453323,
          -0.6709246010413442,
          -0.5598567446940691
        ],
        [
          1.9420586033086278,
          -0.4576331942785678,
          0.19100429620231185
        ]
      ],
      [
        [
          -0.27679374474866814,
          -0.08170389676480623,
          0.8362088667748416
        ],
        [
          0.1685509445650622,
          1.0338254586860451,
          -0.1973547651023062
        ],
        [
          1.7241649251920215,
          -0.4370931965349918,
          0.4815977539107808
        ],
        [
          0.5078851310804381,
          0.06623858872396447,
          -0.24298111879950593
        ]
      ],
      [
        [
          0.03389185703102919,
          0.8001522158650111,
          0.19690702672979957
        ],
        [
          -0.03441567507715505,
          1.3740300640702485,
          0.2820218885221435
        ],
        [
          0.8081498433026505,
          0.10090570277145089,
          0.7786509919503856
        ],
        [
          0.06149579717873404,
          0.39024281099986946,
          0.5815597328068183
        ]
      ]
    ]
  },
  "metrics": {
    "stage1_min_cost": 0.018391845633503386,
    "stage2_min_cost": 0.11536989793704376,
    "mse_train_noise": 0.04249628927590868,
    "mse_train_recovered": 0.026032026073805996,
    "delta_train_pct": 38.742825509323566,
    "mse_test_noise": 0.03574197205136823,
    "mse_test_recovered": 0.015383564610052695,
    "delta_test_pct": 56.95938492721248,
    "mse_train_recovered_pure": 0.004402062829460942,
    "mse_test_recovered_pure": 0.005333068873691897
  },
  "artifacts": {
    "weights_s1_file": "weights_s1_inst07_L4.npy",
    "weights_s2_file": "weights_s2_inst07_L4.npy",
    "circuit_stage1": "circuit_stage1_4q_3l_1t_sidekick_L4_inst07.eps",
    "circuit_stage2": "circuit_stage2_4q_3l_1t_sidekick_L4_inst07.eps",
    "circuit_full": "circuit_full_4q_3l_1t_sidekick_L4_inst07.eps",
    "training_cost_s1_plot": "training_cost_s1_inst07_L4.eps",
    "training_cost_s2_plot": "training_cost_s2_inst07_L4.eps",
    "reconstruction_pure_plot": "reconstruction_pure_inst07_L4.eps",
    "reconstruction_noisy_plot": "reconstruction_noisy_inst07_L4.eps"
  }
}