{
  "schema": {
    "name": "sidekick_qae_bundle",
    "version": "1.0"
  },
  "timestamp": "2025-12-06 08:24:32",
  "dataset": {
    "id": "mackey_glass_tau30_n200",
    "scale_low": 0.0,
    "scale_high": 1.0,
    "window_size": 4,
    "window_step": 2,
    "split": 0.75
  },
  "run": {
    "instance_id": 6,
    "layer": 4,
    "sigma_eval": 0.2,
    "test_seed_fixed": 99123,
    "device_seed": 14050,
    "stage1_time_sec": 153,
    "stage2_time_sec": 246
  },
  "environment": {
    "device": "lightning.qubit",
    "diff_method": "adjoint",
    "interface": "autograd"
  },
  "architecture": {
    "type": "sidekick",
    "n_qubits": 4,
    "n_latent": 3,
    "n_trash": 1,
    "rot": "Rxyz"
  },
  "parameters": {
    "weights_stage1": [
      [
        [
          -0.7890998601095696,
          -0.07204468460170722,
          -0.7813608362463923
        ],
        [
          0.0032907678784121317,
          -0.07928315867362884,
          -0.008083316890627164
        ],
        [
          0.12359771741095414,
          -0.07832725506815665,
          -0.11711137519519983
        ],
        [
          1.5725695726791917,
          -1.5737263033562883,
          0.06398262833958558
        ]
      ],
      [
        [
          0.009084438253105794,
          -0.03779621958864086,
          0.03972248446205276
        ],
        [
          0.007051470925208634,
          0.9764824155827313,
          1.567832553733042
        ],
        [
          0.018800842182939308,
          -0.22087299605208327,
          0.11536875235606939
        ],
        [
          -0.5020329285231373,
          -0.04606211623231799,
          0.3894589521328235
        ]
      ],
      [
        [
          0.19457839176341574,
          0.006673536904581145,
          -0.32798213945014054
        ],
        [
          0.3967621351244817,
          1.5753902702746199,
          0.00403990490524232
        ],
        [
          0.7197763392828579,
          -0.04436312673365749,
          1.0680010732569727
        ],
        [
          -0.9363181720916323,
          0.9762879707261392,
          1.3768015601081638
        ]
      ],
      [
        [
          -8.003735067277728e-05,
          1.5780036681839522,
          0.040351231429578124
        ],
        [
          0.5216487000387016,
          0.30800304669193734,
          0.12073506495072726
        ],
        [
          0.000773401238658,
          0.7034869132021594,
          0.2621463259967202
        ],
        [
          -1.0551456817369116,
          -0.075890945554268,
          0.16484043143006671
        ]
      ]
    ],
    "weights_stage2": [
      [
        [
          -1.0285630505458192,
          -0.09258104842486291,
          -0.5405312163987154
        ],
        [
          0.49795891853648494,
          -0.023562496959376168,
          -0.5023543302351116
        ],
        [
          0.5696017335940181,
          -0.07135498911243468,
          -0.5516698648120163
        ],
        [
          1.5749893661008818,
          -1.567978114979935,
          0.06787664777619888
        ]
      ],
      [
        [
          -0.18917054583009907,
          -0.03978193231432077,
          0.12723289028847734
        ],
        [
          0.014240212202245764,
          1.4496106892583263,
          1.543884045376744
        ],
        [
          0.01720851124995809,
          -0.21846358121610596,
          0.7138618905635293
        ],
        [
          -0.31126052274871047,
          -0.06806294589939564,
          0.3117440638965721
        ]
      ],
      [
        [
          0.7930715299708762,
          0.027136315557449445,
          -1.5256986649295734
        ],
        [
          0.31904724688823005,
          1.5791962716893932,
          0.012338222247840955
        ],
        [
          1.142077096644749,
          -0.06882341290882223,
          0.687004077813103
        ],
        [
          -0.657203084003604,
          0.6358774851843415,
          0.9440011733824193
        ]
      ],
      [
        [
          0.0064163019110579705,
          1.5846395546098724,
          0.03256505614374679
        ],
        [
          0.6424748829756983,
          0.3873079236083589,
          -0.043713181278965375
        ],
        [
          -0.0037017911180752794,
          0.6402712889830711,
          0.26792879375861955
        ],
        [
          -0.9393503730695569,
          0.012256276407693058,
          0.10207179379929286
        ]
      ]
    ]
  },
  "metrics": {
    "stage1_min_cost": 0.015627533599249437,
    "stage2_min_cost": 0.11467753937672964,
    "mse_train_noise": 0.04249628927590868,
    "mse_train_recovered": 0.03027943119138156,
    "delta_train_pct": 28.748058460372228,
    "mse_test_noise": 0.03574197205136823,
    "mse_test_recovered": 0.02101056968277641,
    "delta_test_pct": 41.215975289275875,
    "mse_train_recovered_pure": 0.004341230710105048,
    "mse_test_recovered_pure": 0.005024496096874835
  },
  "artifacts": {
    "weights_s1_file": "weights_s1_inst06_L4.npy",
    "weights_s2_file": "weights_s2_inst06_L4.npy",
    "circuit_stage1": "circuit_stage1_4q_3l_1t_sidekick_L4_inst06.eps",
    "circuit_stage2": "circuit_stage2_4q_3l_1t_sidekick_L4_inst06.eps",
    "circuit_full": "circuit_full_4q_3l_1t_sidekick_L4_inst06.eps",
    "training_cost_s1_plot": "training_cost_s1_inst06_L4.eps",
    "training_cost_s2_plot": "training_cost_s2_inst06_L4.eps",
    "reconstruction_pure_plot": "reconstruction_pure_inst06_L4.eps",
    "reconstruction_noisy_plot": "reconstruction_noisy_inst06_L4.eps"
  }
}