{
  "schema": {
    "name": "sidekick_qae_bundle",
    "version": "1.0"
  },
  "timestamp": "2025-12-05 02:38:50",
  "dataset": {
    "id": "mackey_glass_tau30_n200",
    "scale_low": 0.0,
    "scale_high": 1.0,
    "window_size": 6,
    "window_step": 2,
    "split": 0.75
  },
  "run": {
    "instance_id": 5,
    "layer": 4,
    "sigma_eval": 0.2,
    "test_seed_fixed": 99123,
    "device_seed": 14049,
    "stage1_time_sec": 232,
    "stage2_time_sec": 442
  },
  "environment": {
    "device": "lightning.qubit",
    "diff_method": "adjoint",
    "interface": "autograd"
  },
  "architecture": {
    "type": "sidekick",
    "n_qubits": 6,
    "n_latent": 4,
    "n_trash": 2,
    "rot": "Rxyz"
  },
  "parameters": {
    "weights_stage1": [
      [
        [
          -1.5722182954445583,
          -1.5732860251450542,
          1.3303574040872843
        ],
        [
          0.14454926917493024,
          -0.15871142591290502,
          -0.14258324052535895
        ],
        [
          0.1469590692394442,
          0.005585806775552961,
          -0.14046992858428464
        ],
        [
          -0.06147985131305712,
          -0.21093963791136305,
          -1.5072532948948583
        ],
        [
          -0.017571919419461776,
          1.1924332606223842,
          0.011778606475665993
        ],
        [
          0.01125241776671264,
          1.1398417316628027,
          0.002669244236569536
        ]
      ],
      [
        [
          -0.6882835623160757,
          -0.042851218983691375,
          0.6844431192618455
        ],
        [
          0.3252308234121116,
          -1.5680688825948095,
          0.035494592044208885
        ],
        [
          -0.03953621499377801,
          1.2473205290815785,
          -1.3886646532558091
        ],
        [
          0.8445663331366876,
          0.16163404319330765,
          -1.0207041970292423
        ],
        [
          -0.23753891792247314,
          -0.0003786805452903661,
          1.7408060942840253
        ],
        [
          1.4752406233402247,
          -0.0031659182424010677,
          0.09621858540257129
        ]
      ],
      [
        [
          0.8108506262845044,
          0.6024522009921356,
          0.6621544334615433
        ],
        [
          1.1439716773187159,
          0.0011187643727019404,
          0.4219037406816079
        ],
        [
          0.18820975598082848,
          0.01161183840360681,
          0.06700731792932388
        ],
        [
          0.20881883785468844,
          0.44988261635787397,
          -0.8172295186261888
        ],
        [
          0.0005679279436884968,
          1.5709677636780064,
          -0.14026166436385581
        ],
        [
          -2.7516019603847433,
          -0.09658546523366571,
          0.14945933280336357
        ]
      ],
      [
        [
          -0.734956788673183,
          1.56614485501059,
          0.25411299688482675
        ],
        [
          -0.11612329110745978,
          0.10378496610834796,
          0.23234636208832568
        ],
        [
          0.3084974638755274,
          0.25286231657806507,
          0.009975660477526353
        ],
        [
          0.06614248025804938,
          0.17855929467796594,
          0.28324835747098126
        ],
        [
          -0.4617398778277318,
          0.010622435269644874,
          0.04632959958739883
        ],
        [
          -0.4843868979956393,
          1.5716082620795409,
          0.24957794898435484
        ]
      ]
    ],
    "weights_stage2": [
      [
        [
          -1.5783057798775144,
          -1.5795133245806623,
          1.2071750762534719
        ],
        [
          -0.019278069617076645,
          -0.20156579133829214,
          0.012429680213554289
        ],
        [
          1.1543667293786106,
          0.18640761519068155,
          -1.129228006535458
        ],
        [
          0.02151336636489618,
          -0.16038353958735294,
          -1.6303129625574548
        ],
        [
          -0.012018363378755077,
          1.1511119463438193,
          0.02262686456465404
        ],
        [
          0.028287813560610737,
          1.1891093317878239,
          0.006402266562246654
        ]
      ],
      [
        [
          -1.059844775012308,
          -0.059296818529632506,
          1.0592622080178933
        ],
        [
          0.23224093143504648,
          -1.5921301899728435,
          -0.13000680987410704
        ],
        [
          0.014837792420418971,
          1.3470551996583933,
          -1.4324226789614705
        ],
        [
          1.0861300078608207,
          0.12386354893778476,
          -1.220166424349373
        ],
        [
          -0.28520550250201615,
          0.004586665364434477,
          1.8229845855202633
        ],
        [
          1.5512077706215701,
          -0.007263575991306286,
          0.024637340041706868
        ]
      ],
      [
        [
          0.5743964801112144,
          0.5410978018738564,
          0.9193515283363877
        ],
        [
          1.197510920294405,
          0.008241106541557066,
          0.35161471146039325
        ],
        [
          0.24073362675090262,
          -0.020003203621237788,
          -0.01913785265162809
        ],
        [
          0.12779433410634616,
          0.44467037307089335,
          -0.8093669866028698
        ],
        [
          0.006129408781929974,
          1.5673146670708689,
          -0.02718381770900928
        ],
        [
          -2.872023678848314,
          -0.07151053474564477,
          0.17023522959146906
        ]
      ],
      [
        [
          -0.727094256649864,
          1.5516703952054718,
          0.32899651960804654
        ],
        [
          -0.003045444452608803,
          0.09783583958331457,
          0.19369451696357587
        ],
        [
          0.32927336066363344,
          0.20492976310182842,
          0.09674979127276304
        ],
        [
          0.18081265851185804,
          0.20309307466321783,
          0.2272327413562795
        ],
        [
          -0.4970096907260799,
          -0.007021084085907785,
          -0.02385987816253377
        ],
        [
          -0.35383124178606384,
          1.5686341657832439,
          0.12289409475790422
        ]
      ]
    ]
  },
  "metrics": {
    "stage1_min_cost": 0.10652503754411267,
    "stage2_min_cost": 0.23610243250785873,
    "mse_train_noise": 0.04208329887417109,
    "mse_train_recovered": 0.027600366738200415,
    "delta_train_pct": 34.41491642391104,
    "mse_test_noise": 0.03574197205136823,
    "mse_test_recovered": 0.018433935326382798,
    "delta_test_pct": 48.42496295422756,
    "mse_train_recovered_pure": 0.00851739267234199,
    "mse_test_recovered_pure": 0.003947788726546217
  },
  "artifacts": {
    "weights_s1_file": "weights_s1_inst05_L4.npy",
    "weights_s2_file": "weights_s2_inst05_L4.npy",
    "circuit_stage1": "circuit_stage1_6q_4l_2t_sidekick_L4_inst05.eps",
    "circuit_stage2": "circuit_stage2_6q_4l_2t_sidekick_L4_inst05.eps",
    "circuit_full": "circuit_full_6q_4l_2t_sidekick_L4_inst05.eps",
    "training_cost_s1_plot": "training_cost_s1_inst05_L4.eps",
    "training_cost_s2_plot": "training_cost_s2_inst05_L4.eps",
    "reconstruction_pure_plot": "reconstruction_pure_inst05_L4.eps",
    "reconstruction_noisy_plot": "reconstruction_noisy_inst05_L4.eps"
  }
}