{
  "schema": {
    "name": "sidekick_qae_bundle",
    "version": "1.0"
  },
  "timestamp": "2025-12-05 02:04:45",
  "dataset": {
    "id": "mackey_glass_tau30_n200",
    "scale_low": 0.0,
    "scale_high": 1.0,
    "window_size": 6,
    "window_step": 2,
    "split": 0.75
  },
  "run": {
    "instance_id": 2,
    "layer": 4,
    "sigma_eval": 0.2,
    "test_seed_fixed": 99123,
    "device_seed": 14046,
    "stage1_time_sec": 233,
    "stage2_time_sec": 445
  },
  "environment": {
    "device": "lightning.qubit",
    "diff_method": "adjoint",
    "interface": "autograd"
  },
  "architecture": {
    "type": "sidekick",
    "n_qubits": 6,
    "n_latent": 4,
    "n_trash": 2,
    "rot": "Rxyz"
  },
  "parameters": {
    "weights_stage1": [
      [
        [
          0.13489332573466142,
          -0.32080302319525705,
          -0.11785719218895539
        ],
        [
          1.5467764692224772,
          -1.4631864201970697,
          -1.2134883037675368
        ],
        [
          1.5711230181151317,
          -1.6001876446933552,
          -1.4979073021228775
        ],
        [
          0.08595822525323361,
          0.129963992914536,
          -0.06648158278904505
        ],
        [
          1.5253921099695007,
          -1.558989678994187,
          0.05083822098614034
        ],
        [
          1.7025090577732802,
          0.008624484953283804,
          -0.1375087997878517
        ]
      ],
      [
        [
          0.17892424338813614,
          3.4408661683758735e-05,
          -0.1786636927177238
        ],
        [
          -1.0514602002193711,
          -0.0565172646030936,
          0.5929433648978737
        ],
        [
          -0.03272898827206571,
          0.003991423208008979,
          0.03150380987351026
        ],
        [
          0.3271948978735154,
          -0.16076165967750833,
          1.263715275052949
        ],
        [
          -1.5273456141709854,
          -0.851530817778156,
          1.5376193069599349
        ],
        [
          -1.56228883676797,
          -0.12215826002277905,
          -0.007865450525314266
        ]
      ],
      [
        [
          0.12798639627677158,
          -0.0021873117411705676,
          -0.09229380348794643
        ],
        [
          1.0453151805322605,
          -0.05367736825677691,
          -0.4094514204350586
        ],
        [
          -0.4815274228626971,
          0.23265194086049093,
          0.47350904414658906
        ],
        [
          -0.561993607447122,
          1.5671977541260924,
          0.7897679829908059
        ],
        [
          -0.00026452185865258906,
          1.5679422101070117,
          0.7117022295832145
        ],
        [
          0.004347979313945969,
          1.5653467999551136,
          0.2012183620971728
        ]
      ],
      [
        [
          0.762948411444666,
          0.2505349044344173,
          0.25221721504863853
        ],
        [
          0.85018304448873,
          -1.565040488435351,
          0.29294217965835684
        ],
        [
          0.21988638532370397,
          0.1736110823012653,
          0.1918773995686628
        ],
        [
          0.29865126542305875,
          0.19291932911170956,
          0.06846362853499174
        ],
        [
          -1.5486053443773296,
          0.12711148626870128,
          0.11601012813354195
        ],
        [
          -1.5720402380459486,
          1.4307142734340637,
          0.24438457944739897
        ]
      ]
    ],
    "weights_stage2": [
      [
        [
          0.18412834523909336,
          -0.34952730451809744,
          -0.16039909670824115
        ],
        [
          1.558535846529943,
          -1.4824175937771344,
          -1.1805716623958515
        ],
        [
          1.5731451278285242,
          -1.6198966279903086,
          -1.4716764908161046
        ],
        [
          0.05344524726132103,
          0.1280806720929017,
          -0.03738701959499798
        ],
        [
          1.5494931300666661,
          -1.557388211348466,
          0.0203476995718035
        ],
        [
          2.472830654169941,
          0.12421219772495243,
          -0.9127382894316731
        ]
      ],
      [
        [
          0.583635952286515,
          -0.004294615268754251,
          -0.5705507138313999
        ],
        [
          -0.8600520361735926,
          -0.07621885317015727,
          0.474289534758197
        ],
        [
          -0.06134471662980522,
          0.011130541067676362,
          0.07324103959718979
        ],
        [
          0.2420616473502389,
          -0.14297802890856978,
          1.3812857512271208
        ],
        [
          -1.4910027734833151,
          -0.6641851091501835,
          1.511033302070176
        ],
        [
          -1.4403581334428053,
          -0.12994684767712952,
          -0.11506843178701252
        ]
      ],
      [
        [
          0.1929449244816497,
          -0.001473629918428336,
          -0.08621634649392815
        ],
        [
          1.1066210065911617,
          -0.04400438210721283,
          -0.6241606695916136
        ],
        [
          -1.1795210205778535,
          0.5036619594540608,
          1.1510442773540155
        ],
        [
          -0.5500471372356066,
          1.5659191326087076,
          0.783351532109176
        ],
        [
          -0.013931476747246688,
          1.5728990456229057,
          0.7065855931268035
        ],
        [
          -0.0028528866750013094,
          1.5640646492504877,
          0.18890637789966103
        ]
      ],
      [
        [
          0.7565319605630352,
          0.2860562735763774,
          0.2689923058288366
        ],
        [
          0.8450664080323286,
          -1.5299573349920428,
          0.07102494253362564
        ],
        [
          0.20757440112619724,
          0.19756525763373056,
          0.23999709557239432
        ],
        [
          0.35010039358628864,
          0.20872843807244562,
          0.008126032711220057
        ],
        [
          -1.7395966451109526,
          0.12551419395887906,
          0.28432663528381236
        ],
        [
          -1.5176437298016938,
          1.0759802463368313,
          0.4367216195084817
        ]
      ]
    ]
  },
  "metrics": {
    "stage1_min_cost": 0.06997533701224504,
    "stage2_min_cost": 0.2015974676711506,
    "mse_train_noise": 0.04208329887417109,
    "mse_train_recovered": 0.026967711868790756,
    "delta_train_pct": 35.918255958440625,
    "mse_test_noise": 0.03574197205136823,
    "mse_test_recovered": 0.021680499924817777,
    "delta_test_pct": 39.34162364164283,
    "mse_train_recovered_pure": 0.0053186447528816155,
    "mse_test_recovered_pure": 0.005318711212511319
  },
  "artifacts": {
    "weights_s1_file": "weights_s1_inst02_L4.npy",
    "weights_s2_file": "weights_s2_inst02_L4.npy",
    "circuit_stage1": "circuit_stage1_6q_4l_2t_sidekick_L4_inst02.eps",
    "circuit_stage2": "circuit_stage2_6q_4l_2t_sidekick_L4_inst02.eps",
    "circuit_full": "circuit_full_6q_4l_2t_sidekick_L4_inst02.eps",
    "training_cost_s1_plot": "training_cost_s1_inst02_L4.eps",
    "training_cost_s2_plot": "training_cost_s2_inst02_L4.eps",
    "reconstruction_pure_plot": "reconstruction_pure_inst02_L4.eps",
    "reconstruction_noisy_plot": "reconstruction_noisy_inst02_L4.eps"
  }
}