{
  "schema": {
    "name": "sidekick_qae_bundle",
    "version": "1.0"
  },
  "timestamp": "2025-12-05 03:01:35",
  "dataset": {
    "id": "mackey_glass_tau30_n200",
    "scale_low": 0.0,
    "scale_high": 1.0,
    "window_size": 6,
    "window_step": 2,
    "split": 0.75
  },
  "run": {
    "instance_id": 7,
    "layer": 4,
    "sigma_eval": 0.2,
    "test_seed_fixed": 99123,
    "device_seed": 14051,
    "stage1_time_sec": 233,
    "stage2_time_sec": 443
  },
  "environment": {
    "device": "lightning.qubit",
    "diff_method": "adjoint",
    "interface": "autograd"
  },
  "architecture": {
    "type": "sidekick",
    "n_qubits": 6,
    "n_latent": 4,
    "n_trash": 2,
    "rot": "Rxyz"
  },
  "parameters": {
    "weights_stage1": [
      [
        [
          0.009362204760348119,
          -0.1579446887966393,
          -0.008600935565093504
        ],
        [
          1.5720444718127826,
          -1.574606037117354,
          -1.403660579053724
        ],
        [
          -0.5322766160083626,
          -0.04752093249283213,
          0.5290419069803245
        ],
        [
          1.5691419574146033,
          1.5889404343402422,
          1.49734614151409
        ],
        [
          -0.20707179901696637,
          -0.1613370552932164,
          0.20323225847517415
        ],
        [
          -1.570626326978975,
          -1.5707392937389741,
          1.3189688377373414
        ]
      ],
      [
        [
          0.3025690813038726,
          -0.00018883302426922287,
          -0.28973907616734396
        ],
        [
          0.12739728150336613,
          -0.0037167436568089165,
          -0.3153575310164754
        ],
        [
          -0.5506697487828888,
          -0.0008456071255008101,
          0.5052987464456512
        ],
        [
          -0.01695582124869365,
          -0.7851043515815667,
          1.5913015168835765
        ],
        [
          0.9011779083197606,
          -0.0870409587672121,
          0.6717502460219544
        ],
        [
          0.22553100522834893,
          0.00044565512442330465,
          -0.14276510807448411
        ]
      ],
      [
        [
          1.8363237695620707,
          0.005849277754283737,
          1.5318731433224289
        ],
        [
          0.1841918169273997,
          -0.16980552520981482,
          0.12785620559770683
        ],
        [
          -0.17463453675387572,
          -1.3350051318949165,
          -0.9226065039244659
        ],
        [
          -0.6189699597482141,
          1.9699220216553308,
          1.0844764048369586
        ],
        [
          -1.5711577618705563,
          1.337562478275592,
          0.8312621537001882
        ],
        [
          0.0029521541623269577,
          1.5697253740598307,
          0.04109051096299462
        ]
      ],
      [
        [
          0.9530944042218583,
          0.9873751025858878,
          0.19122617937107578
        ],
        [
          0.740956003862111,
          1.5671588296084553,
          0.11302599313218258
        ],
        [
          0.18226889467196353,
          0.128233448491368,
          0.08342082058068642
        ],
        [
          0.020467018193029755,
          0.11166275566935456,
          0.06583417989284485
        ],
        [
          0.12728362588114456,
          1.6854703118424486,
          0.26826156127026557
        ],
        [
          -1.4887078464121548,
          0.29388169512560813,
          0.20365656369335983
        ]
      ]
    ],
    "weights_stage2": [
      [
        [
          0.07650897057520253,
          -0.20404936597283488,
          -0.07945644127554057
        ],
        [
          1.5717854305072945,
          -1.6108890359478183,
          -1.3797014248786441
        ],
        [
          -0.7382832308996335,
          -0.05498040981697099,
          0.7272563172310778
        ],
        [
          1.562236053194615,
          1.6110234905683964,
          1.4574664207316939
        ],
        [
          -0.050933031166763426,
          -0.20936033068645019,
          0.08911990299099848
        ],
        [
          -1.5871915373567724,
          -1.6008333010690299,
          1.1792130550468702
        ]
      ],
      [
        [
          0.4398026857960898,
          0.0030799590140212895,
          -0.44285074102406236
        ],
        [
          0.28531982734846983,
          -0.020003924040888063,
          -0.36317571739950205
        ],
        [
          -0.9830040256304979,
          -0.006360420497175976,
          0.8980177668433724
        ],
        [
          -0.011639904058155154,
          -0.818110675236827,
          1.595021362737182
        ],
        [
          0.26356789896944516,
          -0.15518832515823894,
          1.3126395437296576
        ],
        [
          0.20139212287454067,
          0.0019792950378901848,
          -0.17258283593661602
        ]
      ],
      [
        [
          1.8276043048120316,
          0.07926742937298288,
          1.5218993596297383
        ],
        [
          0.40557621644029135,
          -0.04279579920870158,
          -0.26607454059093094
        ],
        [
          -0.07705950961192513,
          -1.4774997689752318,
          -0.8996482165774438
        ],
        [
          -0.6590814110279376,
          2.050516430618772,
          1.1077066678667993
        ],
        [
          -1.5703895738158473,
          1.396128316316333,
          0.8361344292533396
        ],
        [
          0.004769489202724045,
          1.5727380116689982,
          0.023944145296941173
        ]
      ],
      [
        [
          0.9763246672517047,
          0.943422343985466,
          0.09252949382186962
        ],
        [
          0.7458282794152603,
          1.5466632926745074,
          0.03509080236691004
        ],
        [
          0.16512252900590596,
          0.12155091571175207,
          0.14105215839080357
        ],
        [
          0.7728621845596396,
          0.11148904440884243,
          -0.6871488768076132
        ],
        [
          0.07431521572094292,
          1.6638228701082527,
          0.2917112115633829
        ],
        [
          -1.4437230157978864,
          0.10729430584245203,
          0.19809785554603165
        ]
      ]
    ]
  },
  "metrics": {
    "stage1_min_cost": 0.1006065650710383,
    "stage2_min_cost": 0.22668055490710945,
    "mse_train_noise": 0.04208329887417109,
    "mse_train_recovered": 0.02972280578388208,
    "delta_train_pct": 29.37149277970541,
    "mse_test_noise": 0.03574197205136823,
    "mse_test_recovered": 0.025040708081732824,
    "delta_test_pct": 29.940328849945917,
    "mse_train_recovered_pure": 0.009395918332176857,
    "mse_test_recovered_pure": 0.009639213862813568
  },
  "artifacts": {
    "weights_s1_file": "weights_s1_inst07_L4.npy",
    "weights_s2_file": "weights_s2_inst07_L4.npy",
    "circuit_stage1": "circuit_stage1_6q_4l_2t_sidekick_L4_inst07.eps",
    "circuit_stage2": "circuit_stage2_6q_4l_2t_sidekick_L4_inst07.eps",
    "circuit_full": "circuit_full_6q_4l_2t_sidekick_L4_inst07.eps",
    "training_cost_s1_plot": "training_cost_s1_inst07_L4.eps",
    "training_cost_s2_plot": "training_cost_s2_inst07_L4.eps",
    "reconstruction_pure_plot": "reconstruction_pure_inst07_L4.eps",
    "reconstruction_noisy_plot": "reconstruction_noisy_inst07_L4.eps"
  }
}