{
  "schema": {
    "name": "full_qae_bundle",
    "version": "1.0"
  },
  "timestamp": "2025-09-16 17:01:52",
  "dataset": {
    "id": "mackey_glass_tau30_n200",
    "scale_low": 0.2,
    "scale_high": 0.8,
    "window_size": 6,
    "window_step": 2,
    "split": 0.75
  },
  "run": {
    "instance_id": 5,
    "layer": 3,
    "sigma_eval": 0.2,
    "test_seed_fixed": 99123
  },
  "environment": {
    "device": "default.qubit",
    "diff_method": "best",
    "reset_mode": "swap"
  },
  "architecture": {
    "n_qubits": 6,
    "n_latent": 2,
    "n_trash": 4,
    "n_extra": 0,
    "rot": "Rxyz"
  },
  "parameters": {
    "weights": [
      [
        [
          -0.11341569165026477,
          -0.40495524484619755,
          0.0704205752479634
        ],
        [
          0.44952957503063257,
          -1.0838116431696607,
          -1.1232361956544372
        ],
        [
          0.37979036483743056,
          -0.8208996715335709,
          2.0402667417473044
        ],
        [
          1.3414352264727403,
          -1.397675893677902,
          -2.8166298227035282
        ],
        [
          -0.11690359919488401,
          1.057310022919568,
          -1.2305344539668985
        ],
        [
          0.03273397007451508,
          -0.49329444296957187,
          3.1023392044318534
        ]
      ],
      [
        [
          -1.5780250500685513,
          -0.5516790848660792,
          0.20589827814588896
        ],
        [
          0.7168774315975955,
          -0.10275002531287517,
          -0.5418510231257483
        ],
        [
          -1.8392276946654962,
          0.447018242940501,
          0.44002252125350755
        ],
        [
          0.8031527072511359,
          -0.9487202636164465,
          -0.3438252902021678
        ],
        [
          0.879316057235023,
          -0.2959935384629308,
          0.13980324771689942
        ],
        [
          0.9138303106586394,
          -1.4131723252986144,
          0.10990321064883289
        ]
      ],
      [
        [
          0.2030102411077504,
          1.5587164696949993,
          -0.05355806261478407
        ],
        [
          1.01234260755933,
          0.9782622607309653,
          0.362494960172475
        ],
        [
          0.001755807007738489,
          0.035072787080383895,
          0.22576170804570814
        ],
        [
          1.3450174892546518,
          1.2368006993825282,
          -0.1335842884949318
        ],
        [
          0.07747862920635572,
          0.043338418374090026,
          -0.2456272996038197
        ],
        [
          0.21088606352424044,
          0.21523027811404435,
          0.10698076997491461
        ]
      ],
      [
        [
          0.21844397547400793,
          -0.0070104767059934615,
          2.042838625649955
        ],
        [
          0.22010149873269455,
          0.7650687095654316,
          0.06553211168505761
        ],
        [
          0.23847192927022554,
          4.180459915274476e-08,
          0.24638780996719972
        ],
        [
          0.30735556032185807,
          0.6782129016865953,
          -1.6448197534182327
        ],
        [
          0.1266523727170032,
          7.417148431212106e-09,
          0.18523646757306592
        ],
        [
          0.02482357351539585,
          -0.05679747971447454,
          0.0318327903776165
        ]
      ],
      [
        [
          -0.3497409623467537,
          -0.14367521297457483,
          0.09491108384943449
        ],
        [
          0.05785671384028145,
          -5.701543103679045e-09,
          -0.38267888774998904
        ],
        [
          1.7061865825090932,
          1.3193867608844759e-09,
          1.497153671254447
        ],
        [
          -0.9824868350606807,
          -2.835501579571882e-09,
          -0.6299007513363706
        ],
        [
          1.5078591703878712,
          2.0440043103347953e-08,
          0.0706940817105754
        ],
        [
          -0.009266886604368758,
          0.38495454978549487,
          0.4380628268703475
        ]
      ],
      [
        [
          -0.02239446486515905,
          9.235324089336827e-09,
          0.2673600006964897
        ],
        [
          0.46524860109232197,
          0.525716352064656,
          0.5155906709753095
        ],
        [
          0.037429363468018374,
          0.3095900990451685,
          0.034843159281533635
        ],
        [
          0.533888394542854,
          -3.515094057481587e-08,
          0.43030590252517814
        ],
        [
          -0.3214499270866504,
          0.38070480276244906,
          0.4940738477976017
        ],
        [
          -0.31032894789718224,
          0.06917192491157441,
          0.21700166454619768
        ]
      ]
    ]
  },
  "metrics_series": {
    "mse_train_noise": 0.019067164300121137,
    "mse_train_recovered": 0.009710444469892908,
    "delta_train_pct": 49.07242462985849,
    "mse_test_noise": 0.01895794215292774,
    "mse_test_recovered": 0.008240809097187858,
    "delta_test_pct": 56.5310990469754
  }
}