{
  "schema": {
    "name": "monolith_qae_bundle",
    "version": "1.0"
  },
  "timestamp": "2025-12-01 00:58:53",
  "dataset": {
    "id": "mackey_glass_tau17_n200",
    "scale_low": 0.0,
    "scale_high": 1.0,
    "window_size": 6,
    "window_step": 2,
    "split": 0.75
  },
  "run": {
    "instance_id": 3,
    "layer": 4,
    "sigma_eval": 0.2,
    "test_seed_fixed": 99123,
    "device_seed": 14047,
    "training_time_sec": 323
  },
  "environment": {
    "device": "lightning.qubit",
    "diff_method": "adjoint",
    "interface": "autograd"
  },
  "architecture": {
    "type": "monolith",
    "n_qubits": 6,
    "n_latent": 4,
    "n_trash": 2,
    "n_extra": 0,
    "rot": "Rxyz"
  },
  "parameters": {
    "weights": [
      [
        [
          -1.1779611367964022,
          0.11118588972457588,
          2.285561885349231
        ],
        [
          0.2565952802168763,
          -0.05363341916715083,
          0.1502186606658568
        ],
        [
          -0.5266339821498225,
          -0.5514792684946985,
          0.13410424163473153
        ],
        [
          -0.01918764367554055,
          -1.1004728627674745,
          0.7511627975717609
        ],
        [
          0.08059899982829781,
          -0.12674299650816354,
          1.3531841159684392
        ],
        [
          2.1174946843127302,
          -0.18976752605949115,
          4.7694773288211305
        ]
      ],
      [
        [
          1.6010764574183842,
          -0.9465707317491936,
          0.794548026792672
        ],
        [
          -0.4553407223101111,
          0.35761481105486853,
          -1.6559756491339785
        ],
        [
          1.3365225715368032,
          -0.046760526468283894,
          0.7585597081569339
        ],
        [
          1.432379301077694,
          -0.11037231752787244,
          0.853289527148904
        ],
        [
          -1.082438789423445,
          -0.5700473887632986,
          -0.6015052503930478
        ],
        [
          0.7685014750098201,
          0.8443492589061853,
          -0.5639796861417898
        ]
      ],
      [
        [
          2.694189374345414,
          0.21375087789907174,
          -1.0820914098469119
        ],
        [
          0.4051371795799025,
          -0.11898331739411806,
          1.098338014192796
        ],
        [
          3.542730292374531,
          -0.5276022781808277,
          1.3184110085071834
        ],
        [
          2.1108376410630387,
          -0.20835483766621102,
          2.9212347688578344
        ],
        [
          -0.6952031223381827,
          -0.4936577886537658,
          -2.1201153310904797
        ],
        [
          1.7557388656620552,
          0.2468680626075259,
          0.2769943995167062
        ]
      ],
      [
        [
          3.173980272667824,
          -0.09193644070788262,
          7.020280284545833
        ],
        [
          -2.6573197557845094,
          0.5229397640689342,
          -0.8686223313389831
        ],
        [
          0.4054447599630514,
          2.7252325114880773,
          -0.18460554944421204
        ],
        [
          -0.10776867380608192,
          2.0080227340664027,
          0.8213563600637601
        ],
        [
          2.5397739286949452,
          -0.23354643808704542,
          5.609745222657852
        ],
        [
          2.7761441483501934,
          -0.30601458136595777,
          0.8703846446332675
        ]
      ],
      [
        [
          0.16344456648651717,
          -1.4746624917649813,
          0.0011286486001357004
        ],
        [
          0.38874667055193796,
          1.601503979331336,
          -0.023290492578983454
        ],
        [
          0.6208812228472484,
          -0.10043314691449207,
          9.072790286332983
        ],
        [
          0.06561575548582474,
          -0.10578634943560056,
          2.370027464497065
        ],
        [
          0.3058556519346425,
          -0.7056652575332861,
          3.1392637187310775
        ],
        [
          0.5060336876025596,
          -0.0003863389698074123,
          0.5129956203556827
        ]
      ],
      [
        [
          0.04834566009225289,
          1.5364763038936493,
          -2.9908580727149747
        ],
        [
          1.3104483129963984,
          0.06621574448193579,
          0.16120276029080632
        ],
        [
          1.4709230487512648,
          0.08481483098875749,
          0.7785032600132054
        ],
        [
          1.3861312835475128,
          0.0252567984283825,
          0.24340140134867658
        ],
        [
          1.449467926609798,
          0.013262177764031803,
          0.2961840707638111
        ],
        [
          -0.8437047276094927,
          -0.021671451971280658,
          -0.13470264250299765
        ]
      ],
      [
        [
          1.3159811168718205,
          -1.000313395961651,
          2.992867492529691
        ],
        [
          -2.643380359574259,
          -0.007426667249810817,
          1.3349417941645902
        ],
        [
          0.23093090296215538,
          0.010636646729687975,
          -0.40005627777008124
        ],
        [
          8.07322924676795,
          -0.026324357834659327,
          -2.2055500410386877
        ],
        [
          -3.5658832804592464,
          0.06348220603164774,
          0.32392531203052005
        ],
        [
          -0.8666294360826317,
          -0.011655382802347933,
          -0.7374931004493994
        ]
      ],
      [
        [
          -1.8800005229719026,
          -0.057880604120678136,
          -4.919094519421534
        ],
        [
          0.5792533916266605,
          0.04306056752457887,
          -0.06692203508645322
        ],
        [
          -0.8426761092243906,
          -0.37128111296988847,
          -0.7931823864226999
        ],
        [
          1.7690283621793337,
          2.166293049195674,
          -0.5507397529470413
        ],
        [
          -4.167334676171442,
          -0.0037098831793355375,
          -5.010137265625519
        ],
        [
          0.11829240510768603,
          -0.010109852264667327,
          -0.44504091556289255
        ]
      ]
    ]
  },
  "metrics": {
    "mse_train_noise": 0.0400301695648753,
    "mse_train_recovered": 0.019658769986645636,
    "delta_train_pct": 50.8901156294493,
    "mse_test_noise": 0.04102832521598486,
    "mse_test_recovered": 0.021797174292739523,
    "delta_test_pct": 46.87286361801767,
    "mse_train_recovered_pure": 0.009884771738818538,
    "mse_test_recovered_pure": 0.013285562151709328,
    "min_train_cost": 0.010048429747016504
  },
  "artifacts": {
    "weights_file": "weights_inst03_L4.npy",
    "circuit_diagram": "circuit_6q_4l_2t_L4_inst03.eps",
    "training_cost_plot": "training_cost_inst03_L4.eps",
    "cost_history": "cost_inst03_L4.json",
    "reconstruction_pure_plot": "reconstruction_pure_inst03_L4.eps",
    "reconstruction_noisy_plot": "reconstruction_noisy_inst03_L4.eps"
  }
}