{
  "schema": {
    "name": "monolith_qae_bundle",
    "version": "1.0"
  },
  "timestamp": "2025-12-01 01:15:11",
  "dataset": {
    "id": "mackey_glass_tau17_n200",
    "scale_low": 0.0,
    "scale_high": 1.0,
    "window_size": 6,
    "window_step": 2,
    "split": 0.75
  },
  "run": {
    "instance_id": 6,
    "layer": 4,
    "sigma_eval": 0.2,
    "test_seed_fixed": 99123,
    "device_seed": 14050,
    "training_time_sec": 321
  },
  "environment": {
    "device": "lightning.qubit",
    "diff_method": "adjoint",
    "interface": "autograd"
  },
  "architecture": {
    "type": "monolith",
    "n_qubits": 6,
    "n_latent": 4,
    "n_trash": 2,
    "n_extra": 0,
    "rot": "Rxyz"
  },
  "parameters": {
    "weights": [
      [
        [
          0.5091911936678086,
          -1.3523963136311028,
          2.2358339694557947
        ],
        [
          1.39874422491759,
          -0.3095222949982596,
          1.1587641376883517
        ],
        [
          -0.2504991523722506,
          -0.8063180411134628,
          -2.524543984911167
        ],
        [
          0.051070311078022734,
          -1.0695001951131011,
          1.5277254145434451
        ],
        [
          -0.4046970041537591,
          -0.5273429269175092,
          3.2701259267834764
        ],
        [
          4.15336522827477,
          -0.28750266011290443,
          0.0505791145654673
        ]
      ],
      [
        [
          3.2343047057706618,
          -0.4545089792149362,
          1.8898125052998704
        ],
        [
          -0.2629246182110248,
          0.5251473802930129,
          1.5625089141747845
        ],
        [
          1.668108542322596,
          0.40124403638823747,
          -0.18957069065244192
        ],
        [
          1.091966202912559,
          0.28521565736716437,
          2.553278481898162
        ],
        [
          -2.5416315330067607,
          0.7480682076617903,
          0.40552823045481134
        ],
        [
          -0.8559728596567189,
          -0.6412415926807233,
          1.8188267472596344
        ]
      ],
      [
        [
          2.6412251518181398,
          1.1179130525991776,
          -0.0816321398511257
        ],
        [
          2.674583624338189,
          -0.7288868789811052,
          3.3959293502351424
        ],
        [
          0.5606833027130222,
          -0.3246618896258052,
          -4.183136106923866
        ],
        [
          2.9115956930367,
          -0.27400648950070405,
          -1.035473367716199
        ],
        [
          -2.5981534599821963,
          -0.7346742958113854,
          -4.125366435455586
        ],
        [
          -1.1231961692654826,
          0.7870527393867999,
          -0.8833453847014908
        ]
      ],
      [
        [
          -0.9299198880939339,
          0.015480551373579262,
          -8.98209024361571
        ],
        [
          -4.685771241623362,
          -0.5408404819095475,
          -8.471155210332068
        ],
        [
          -0.5234093068337135,
          -0.09138906941708062,
          -0.8515975170952047
        ],
        [
          -0.9877269079411856,
          1.4320309464333987,
          -0.39632505203434365
        ],
        [
          2.851112659736522,
          0.18554914160435948,
          -3.2744446022744733
        ],
        [
          -0.20111079457482528,
          0.23201524424694886,
          6.230157972609535
        ]
      ],
      [
        [
          0.2728824510139081,
          0.5649575781085564,
          1.204223157773309
        ],
        [
          0.2731321293193367,
          0.049045721669521904,
          7.649775261924363
        ],
        [
          0.27812839993861904,
          -0.16092484202751178,
          11.968559261016457
        ],
        [
          0.4615418193886556,
          -0.002392330247560542,
          10.367316185264979
        ],
        [
          0.038597001030637464,
          0.0061170874036457715,
          7.262136795293908
        ],
        [
          0.3363949495530045,
          0.09230907440155108,
          -3.209219916813609
        ]
      ],
      [
        [
          -3.482479115684909,
          -0.02421098927568785,
          -1.2612373812775972
        ],
        [
          2.3816662870545735,
          0.062213395112425934,
          1.9615265350919393
        ],
        [
          2.818968447429329,
          0.010833210316129157,
          2.781149721097042
        ],
        [
          -0.2877751098961816,
          0.0053675412025903976,
          -1.0417250908648041
        ],
        [
          1.6698701721728706,
          0.010161149690872562,
          1.736219908657491
        ],
        [
          1.6243331791697166,
          0.029985314164185685,
          2.4974231535764844
        ]
      ],
      [
        [
          6.903259996174948,
          1.9671812647875588,
          -0.1207667617557326
        ],
        [
          -4.653941799018505,
          -0.020217364586709193,
          -1.5364081260645677
        ],
        [
          2.4442884492924035,
          -0.01663508952263213,
          1.728423694823015
        ],
        [
          2.72587912732485,
          -0.008089449322444748,
          -2.8082887564259127
        ],
        [
          -7.953388654351782,
          -0.0196123567738191,
          -4.911226897706695
        ],
        [
          -0.8170586824394719,
          -0.02522177794853839,
          1.8964816269213716
        ]
      ],
      [
        [
          -2.8385076189507368,
          0.03238366687817036,
          3.7960969030579927
        ],
        [
          -4.880902774272033,
          0.0481689815693003,
          -6.056214697668132
        ],
        [
          2.2282968069296274,
          -0.6488996251918435,
          0.4467498284059293
        ],
        [
          0.4091746818323091,
          0.15078588676909235,
          -1.4500148675608704
        ],
        [
          3.851263999135779,
          -0.016376664392000733,
          4.054570189445114
        ],
        [
          -2.4983654861858033,
          -0.019040929774508067,
          -6.072328667240917
        ]
      ]
    ]
  },
  "metrics": {
    "mse_train_noise": 0.0400301695648753,
    "mse_train_recovered": 0.019929208856941338,
    "delta_train_pct": 50.21452800832415,
    "mse_test_noise": 0.04102832521598486,
    "mse_test_recovered": 0.020960951254517454,
    "delta_test_pct": 48.91102392268512,
    "mse_train_recovered_pure": 0.011852437938928019,
    "mse_test_recovered_pure": 0.013438168254943074,
    "min_train_cost": 0.010566581434521485
  },
  "artifacts": {
    "weights_file": "weights_inst06_L4.npy",
    "circuit_diagram": "circuit_6q_4l_2t_L4_inst06.eps",
    "training_cost_plot": "training_cost_inst06_L4.eps",
    "cost_history": "cost_inst06_L4.json",
    "reconstruction_pure_plot": "reconstruction_pure_inst06_L4.eps",
    "reconstruction_noisy_plot": "reconstruction_noisy_inst06_L4.eps"
  }
}