{
  "schema": {
    "name": "monolith_qae_bundle",
    "version": "1.0"
  },
  "timestamp": "2025-12-01 01:04:17",
  "dataset": {
    "id": "mackey_glass_tau17_n200",
    "scale_low": 0.0,
    "scale_high": 1.0,
    "window_size": 6,
    "window_step": 2,
    "split": 0.75
  },
  "run": {
    "instance_id": 4,
    "layer": 4,
    "sigma_eval": 0.2,
    "test_seed_fixed": 99123,
    "device_seed": 14048,
    "training_time_sec": 320
  },
  "environment": {
    "device": "lightning.qubit",
    "diff_method": "adjoint",
    "interface": "autograd"
  },
  "architecture": {
    "type": "monolith",
    "n_qubits": 6,
    "n_latent": 4,
    "n_trash": 2,
    "n_extra": 0,
    "rot": "Rxyz"
  },
  "parameters": {
    "weights": [
      [
        [
          -0.1508551954386752,
          -0.5503118489153417,
          3.4018053953942324
        ],
        [
          -0.005556107426957622,
          -0.8025817102388795,
          2.7587278980328613
        ],
        [
          -0.05019598401610109,
          -0.8263357795463052,
          -0.39437630459428424
        ],
        [
          -0.004748895605843237,
          -1.0593156044401715,
          -0.49399421610813893
        ],
        [
          -0.2482014164749055,
          -1.0656636339197059,
          0.22964224061556732
        ],
        [
          0.37820695695709733,
          -1.0076848396138087,
          -0.8188105171701425
        ]
      ],
      [
        [
          1.0190997545128677,
          -0.16786971816556082,
          2.266775744742871
        ],
        [
          1.9050023877372544,
          -0.024325387545204066,
          -1.7354940115920037
        ],
        [
          -0.4564481493466249,
          0.5666701758910602,
          3.0027042201201857
        ],
        [
          0.003101390769976925,
          -0.12959487386731336,
          0.150070099019516
        ],
        [
          1.6201391475729898,
          -1.1057810482411876,
          2.16583962482428
        ],
        [
          -1.6977894191093894,
          -0.17676497005101383,
          -0.3027691087084175
        ]
      ],
      [
        [
          0.997519357225607,
          0.01893191998697758,
          -0.5411504451372724
        ],
        [
          2.4810968496022197,
          1.3018665259541766,
          -0.005847750247458824
        ],
        [
          -3.0851935132402057,
          0.734536047653407,
          0.03994776524015277
        ],
        [
          0.8643520157753398,
          -0.15487008523467216,
          1.1987882979521605
        ],
        [
          -0.44027890994590374,
          -0.6465663100757578,
          0.713857033063787
        ],
        [
          1.9343342383780688,
          -0.4250937671789849,
          -1.6914097155101164
        ]
      ],
      [
        [
          0.87426342370735,
          -2.570811923733852,
          3.6294852775241258
        ],
        [
          0.668191068190893,
          -1.6178290236037798,
          4.8825481592775395
        ],
        [
          -1.7871205019814056,
          -0.9423902445001514,
          0.2400858789794604
        ],
        [
          0.7899893580282102,
          1.517146320273465,
          0.0009135099080250187
        ],
        [
          2.995806148362324,
          1.4330144062611905,
          0.6810513974497401
        ],
        [
          0.5126881662500661,
          -1.2401437987956196,
          -0.7515726297762376
        ]
      ],
      [
        [
          0.35791129538871724,
          1.660162369277628,
          -0.0643093597022553
        ],
        [
          0.5560951613293575,
          -1.730785644633867,
          1.4413019408884393
        ],
        [
          0.024725021940449645,
          -0.20826957224646336,
          -2.9140447975950554
        ],
        [
          0.037571577152627086,
          0.04414587800584257,
          1.745929469003022
        ],
        [
          0.44861812111274274,
          0.011467207669009098,
          3.924177629236327
        ],
        [
          0.35318592891846995,
          -0.4553240482349945,
          1.098585115301626
        ]
      ],
      [
        [
          1.6442283095020742,
          -1.5702359534966197,
          0.19707322154251103
        ],
        [
          2.037107856755693,
          -0.011363061195304293,
          0.02294057212452944
        ],
        [
          0.06612007721748048,
          0.019034691353591128,
          0.6743620691445075
        ],
        [
          1.6662335201880405,
          0.07581447946768165,
          1.5022720105309955
        ],
        [
          0.1525449989292498,
          0.027174397595392696,
          0.4077594740971767
        ],
        [
          0.3106655219637867,
          -0.05877178866386115,
          -0.08503353725417377
        ]
      ],
      [
        [
          2.6691941683055576,
          -0.1263013899831347,
          0.15985523963648035
        ],
        [
          7.065717149924928,
          0.07887508867986628,
          6.7113682002906385
        ],
        [
          -1.0384343568490726,
          0.024217298515008322,
          -0.50035373162917
        ],
        [
          2.784561308681597,
          -0.007955116118671493,
          2.5254635340198504
        ],
        [
          -0.056509531853640306,
          -0.037904425516696885,
          -0.21827696211335368
        ],
        [
          0.01957344114532692,
          0.007438082214073618,
          -0.27615985968685847
        ]
      ],
      [
        [
          2.6266085215511725,
          0.027129300148806202,
          0.06004853226300897
        ],
        [
          -0.5222965141823663,
          0.3510438170657919,
          1.3886724999506173
        ],
        [
          0.04209146602540838,
          2.227157083161544,
          -1.8225843028313742
        ],
        [
          0.5939384262236916,
          2.2005506892544124,
          0.7197566873734941
        ],
        [
          -6.0548796991113,
          -0.061071348937291076,
          -0.1641702462651664
        ],
        [
          3.4141731510700457,
          0.026584799655855695,
          1.0199003627829533
        ]
      ]
    ]
  },
  "metrics": {
    "mse_train_noise": 0.0400301695648753,
    "mse_train_recovered": 0.017157942983024674,
    "delta_train_pct": 57.137471138568415,
    "mse_test_noise": 0.04102832521598486,
    "mse_test_recovered": 0.020842824357319854,
    "delta_test_pct": 49.19893939711832,
    "mse_train_recovered_pure": 0.007732345076001112,
    "mse_test_recovered_pure": 0.011413141307790014,
    "min_train_cost": 0.008008842196838605
  },
  "artifacts": {
    "weights_file": "weights_inst04_L4.npy",
    "circuit_diagram": "circuit_6q_4l_2t_L4_inst04.eps",
    "training_cost_plot": "training_cost_inst04_L4.eps",
    "cost_history": "cost_inst04_L4.json",
    "reconstruction_pure_plot": "reconstruction_pure_inst04_L4.eps",
    "reconstruction_noisy_plot": "reconstruction_noisy_inst04_L4.eps"
  }
}