{
  "schema": {
    "name": "stacked_qae_bundle",
    "version": "1.0"
  },
  "timestamp": "2025-12-04 18:59:37",
  "dataset": {
    "id": "mackey_glass_tau30_n200",
    "scale_low": 0.0,
    "scale_high": 1.0,
    "window_size": 4,
    "window_step": 2,
    "split": 0.75
  },
  "run": {
    "instance_id": 1,
    "layer": 5,
    "sigma_eval": 0.2,
    "test_seed_fixed": 99123,
    "device_seed": 15045,
    "stage1_time_sec": 211,
    "stage2_time_sec": 225
  },
  "environment": {
    "device": "lightning.qubit",
    "diff_method": "adjoint",
    "interface": "autograd"
  },
  "architecture": {
    "type": "stacked",
    "n_qubits": 4,
    "n_latent": 2,
    "n_trash": 2,
    "rot": "Rxyz"
  },
  "parameters": {
    "weights_stage1": [
      [
        [
          -1.8123382140758397,
          0.6424401557358458,
          1.767343057439604
        ],
        [
          0.06812735697819403,
          -0.049643065428775494,
          -0.10246420421869473
        ],
        [
          -1.6593355315493377,
          1.0000837726115477,
          1.6653005439965254
        ],
        [
          -1.8417379881385214,
          0.33859003942174837,
          1.8882044464758234
        ]
      ],
      [
        [
          1.1896973121356964,
          1.76005067108975,
          -0.08105135008783226
        ],
        [
          -0.18377028674209053,
          -0.9881382441649584,
          -0.6997840501627705
        ],
        [
          0.13069234952401212,
          -0.02885376217280443,
          0.10217549179567506
        ],
        [
          -0.6104800599047836,
          -0.23271251985043598,
          -0.07536369532857273
        ]
      ],
      [
        [
          -0.11001878955979974,
          0.5097091861723824,
          -0.0695340386028908
        ],
        [
          -0.19846296951526962,
          -0.2400062430484127,
          1.597539282391664
        ],
        [
          1.728586163484957,
          0.32422897575964066,
          0.43270833969969147
        ],
        [
          0.2052412115689463,
          0.5855342591741248,
          0.8878495698442624
        ]
      ],
      [
        [
          -0.10683764692502021,
          0.19357553020408144,
          0.03629088092135609
        ],
        [
          1.4597940732849317,
          1.564441484212104,
          -0.0355282793819411
        ],
        [
          -1.636991793007293,
          1.1672542552955198,
          1.5791043933609001
        ],
        [
          -1.6315782854962502,
          0.493641023433901,
          3.3004574703247833
        ]
      ],
      [
        [
          0.04000377799864311,
          -0.42745766451155753,
          0.2347896648756188
        ],
        [
          0.3226558069007067,
          1.4005703021186722,
          0.2552397835347854
        ],
        [
          0.11224514477679456,
          0.4052959178839308,
          0.05243165781264618
        ],
        [
          -1.0850977197147165,
          0.22069364289211796,
          0.2566186150019347
        ]
      ]
    ],
    "weights_stage2": [
      [
        [
          -2.363440256540222,
          1.565409792664523,
          1.9703610353165408
        ],
        [
          1.090242606392707,
          -0.30326568613616967,
          -1.5691926595484489
        ],
        [
          -4.672065890087056,
          0.8041046414416635,
          1.4540317799882807
        ],
        [
          -1.8316110381643904,
          0.0954559150602577,
          2.0470440420241136
        ]
      ],
      [
        [
          1.6775663729792714,
          1.6215365408051945,
          0.07933787437657029
        ],
        [
          -0.42984641175820504,
          -0.6033974624111319,
          -0.6494501970921337
        ],
        [
          -0.7992134876996186,
          0.2711229481671745,
          -0.15109595393689224
        ],
        [
          -0.2882362218114913,
          -0.030435570140519286,
          -1.6079586641522399
        ]
      ],
      [
        [
          -0.36329023529236565,
          1.3343649840623062,
          -0.0555035329584134
        ],
        [
          -1.731057938338938,
          -0.16023739138379178,
          3.411113565640394
        ],
        [
          1.06946049013428,
          -0.6200724018076903,
          1.5101178142393112
        ],
        [
          0.3517375941286846,
          0.9270957159974837,
          0.44250146192357376
        ]
      ],
      [
        [
          0.5017667140147745,
          -0.09654005443483475,
          0.929403622633449
        ],
        [
          1.5537290277218971,
          1.3193667805439309,
          -1.7861518342802893
        ],
        [
          -1.6442691499012974,
          1.1900847528598757,
          0.634570625589335
        ],
        [
          -0.3564017270056649,
          0.6692968477860063,
          2.399249375302154
        ]
      ],
      [
        [
          -1.0794513155413423,
          0.08328811363817457,
          1.5859820372537583
        ],
        [
          0.4707435523139082,
          -0.10062179670475434,
          0.004207575447236912
        ],
        [
          0.12403812464859265,
          0.011441015347278058,
          0.8233623313604429
        ],
        [
          -0.24225421490379115,
          1.2124419480814712,
          -1.1961432245607078
        ]
      ]
    ]
  },
  "metrics": {
    "stage1_min_cost": 0.04322921778709503,
    "stage2_min_cost": 0.04785472307351622,
    "mse_train_noise": 0.04249628927590868,
    "mse_train_recovered": 0.019889404824702986,
    "delta_train_pct": 53.197314015888985,
    "mse_test_noise": 0.03574197205136823,
    "mse_test_recovered": 0.013665354072061079,
    "delta_test_pct": 61.766647759610805,
    "mse_train_recovered_pure": 0.004663757291982058,
    "mse_test_recovered_pure": 0.004418846065971989
  },
  "artifacts": {
    "weights_s1_file": "weights_s1_inst01_L5.npy",
    "weights_s2_file": "weights_s2_inst01_L5.npy",
    "circuit_stage1": "circuit_stage1_4q_2l_2t_stacked_L5_inst01.eps",
    "circuit_stage2": "circuit_stage2_4q_2l_2t_stacked_L5_inst01.eps",
    "circuit_full": "circuit_full_4q_2l_2t_stacked_L5_inst01.eps",
    "training_cost_s1_plot": "training_cost_s1_inst01_L5.eps",
    "training_cost_s2_plot": "training_cost_s2_inst01_L5.eps",
    "reconstruction_pure_plot": "reconstruction_pure_inst01_L5.eps",
    "reconstruction_noisy_plot": "reconstruction_noisy_inst01_L5.eps"
  }
}