{
  "schema": {
    "name": "stacked_qae_bundle",
    "version": "1.0"
  },
  "timestamp": "2025-12-04 19:14:33",
  "dataset": {
    "id": "mackey_glass_tau30_n200",
    "scale_low": 0.0,
    "scale_high": 1.0,
    "window_size": 4,
    "window_step": 2,
    "split": 0.75
  },
  "run": {
    "instance_id": 3,
    "layer": 5,
    "sigma_eval": 0.2,
    "test_seed_fixed": 99123,
    "device_seed": 15047,
    "stage1_time_sec": 210,
    "stage2_time_sec": 229
  },
  "environment": {
    "device": "lightning.qubit",
    "diff_method": "adjoint",
    "interface": "autograd"
  },
  "architecture": {
    "type": "stacked",
    "n_qubits": 4,
    "n_latent": 2,
    "n_trash": 2,
    "rot": "Rxyz"
  },
  "parameters": {
    "weights_stage1": [
      [
        [
          0.2518596006562621,
          -0.1408215242382122,
          1.3136058977090657
        ],
        [
          0.009733985366775423,
          1.2765146253980288,
          0.0176962477753822
        ],
        [
          0.0074726216745963775,
          1.4663772889373805,
          0.0036515694668321744
        ],
        [
          -0.00208821682841444,
          1.4929237705222083,
          1.5701451633781385
        ]
      ],
      [
        [
          -1.394901891371944,
          0.6877912626597731,
          1.4375394534006627
        ],
        [
          0.004841209297677648,
          -0.6811958796192681,
          1.5813628852045043
        ],
        [
          1.561887311337016,
          -0.5974613645107676,
          0.07783077643300274
        ],
        [
          0.0013344927866693324,
          1.2629984105851817,
          -0.617984247848856
        ]
      ],
      [
        [
          -0.07089425162577491,
          1.5683880294412509,
          0.011810451953606242
        ],
        [
          -0.9186889563391561,
          0.08926591533488787,
          -0.033026157257068076
        ],
        [
          0.004888405314771542,
          0.005514195820644665,
          -0.011609701329649235
        ],
        [
          1.5578868950721922,
          0.806647926542772,
          -1.5625887065600141
        ]
      ],
      [
        [
          -1.4259825902835999,
          1.1956118333231869,
          0.2595422932731433
        ],
        [
          1.5732351247993195,
          -1.5020723965013134,
          0.19866515272854288
        ],
        [
          0.30089103470075085,
          -0.002122446241345816,
          -0.31839439365425165
        ],
        [
          -0.0993550048417404,
          -0.815596567727546,
          0.7011409089784738
        ]
      ],
      [
        [
          1.485016365621907,
          0.07440755827907988,
          0.20962553544379509
        ],
        [
          1.4357200278062097,
          1.5707726144319234,
          0.2846348974663335
        ],
        [
          2.7118193433208306,
          -0.0011630400483456363,
          0.04297163485846386
        ],
        [
          -0.06704291553074565,
          1.507488563208707,
          0.2658245475098418
        ]
      ]
    ],
    "weights_stage2": [
      [
        [
          1.3688912094651084,
          -0.4826570303666068,
          1.1380055822408426
        ],
        [
          0.8538073711847659,
          2.463192255623671,
          0.014873286995293082
        ],
        [
          -0.3771362124066207,
          0.930005753600517,
          -0.399414177218592
        ],
        [
          0.20926223484983036,
          1.5807232590439615,
          1.6562982044176164
        ]
      ],
      [
        [
          0.1647899980523206,
          1.201622389837521,
          0.19554264775376076
        ],
        [
          2.3092213763312452,
          -0.2628283332326556,
          2.247180588299481
        ],
        [
          0.028972170905251907,
          -0.44210520336619386,
          0.8779796941348551
        ],
        [
          0.5155001480267538,
          1.6882325764057842,
          -0.18274443524078396
        ]
      ],
      [
        [
          0.7292546660760751,
          1.9142427687954136,
          -0.2560341267532693
        ],
        [
          -0.48344914373108466,
          -0.20107678392367684,
          -0.8686259683077955
        ],
        [
          -0.6776574068135881,
          0.3631085344916668,
          0.9371738326818383
        ],
        [
          1.4463079574915243,
          2.2223836484996706,
          -1.8453658772870354
        ]
      ],
      [
        [
          -1.8603917385729674,
          1.2070254007840429,
          1.2123040925516566
        ],
        [
          2.1276747630161825,
          -1.8050197997498922,
          -0.06606676792217034
        ],
        [
          0.8762496737686905,
          0.1783070665057305,
          -0.5902501280625776
        ],
        [
          0.3518920748850238,
          -0.9940460191041435,
          1.3291307089496749
        ]
      ],
      [
        [
          0.3382973311952492,
          -0.2925561536604035,
          1.5137298099898968
        ],
        [
          -0.6492692551374994,
          1.6815988749007944,
          -0.4972460595893948
        ],
        [
          2.5741596861146423,
          -0.26242207910958776,
          0.13832321435439685
        ],
        [
          -0.1069695530257223,
          2.7925199037606316,
          0.08299189161574551
        ]
      ]
    ]
  },
  "metrics": {
    "stage1_min_cost": 0.03777655447115015,
    "stage2_min_cost": 0.051079673604070015,
    "mse_train_noise": 0.04249628927590868,
    "mse_train_recovered": 0.019686654753308643,
    "delta_train_pct": 53.67441466361373,
    "mse_test_noise": 0.03574197205136823,
    "mse_test_recovered": 0.012547927135038132,
    "delta_test_pct": 64.89301956533261,
    "mse_train_recovered_pure": 0.005298356996679145,
    "mse_test_recovered_pure": 0.004940514875047748
  },
  "artifacts": {
    "weights_s1_file": "weights_s1_inst03_L5.npy",
    "weights_s2_file": "weights_s2_inst03_L5.npy",
    "circuit_stage1": "circuit_stage1_4q_2l_2t_stacked_L5_inst03.eps",
    "circuit_stage2": "circuit_stage2_4q_2l_2t_stacked_L5_inst03.eps",
    "circuit_full": "circuit_full_4q_2l_2t_stacked_L5_inst03.eps",
    "training_cost_s1_plot": "training_cost_s1_inst03_L5.eps",
    "training_cost_s2_plot": "training_cost_s2_inst03_L5.eps",
    "reconstruction_pure_plot": "reconstruction_pure_inst03_L5.eps",
    "reconstruction_noisy_plot": "reconstruction_noisy_inst03_L5.eps"
  }
}