{
  "schema": {
    "name": "monolith_qae_bundle",
    "version": "1.0"
  },
  "timestamp": "2025-12-03 07:54:04",
  "dataset": {
    "id": "mackey_glass_tau30_n200",
    "scale_low": 0.0,
    "scale_high": 1.0,
    "window_size": 6,
    "window_step": 2,
    "split": 0.75
  },
  "run": {
    "instance_id": 5,
    "layer": 5,
    "sigma_eval": 0.2,
    "test_seed_fixed": 99123,
    "device_seed": 15049,
    "training_time_sec": 394
  },
  "environment": {
    "device": "lightning.qubit",
    "diff_method": "adjoint",
    "interface": "autograd"
  },
  "architecture": {
    "type": "monolith",
    "n_qubits": 6,
    "n_latent": 4,
    "n_trash": 2,
    "n_extra": 0,
    "rot": "Rxyz"
  },
  "parameters": {
    "weights": [
      [
        [
          0.37148383873685226,
          -1.0400384307770179,
          2.049041875371296
        ],
        [
          -0.2113420851192283,
          -1.0259147576695622,
          0.226186529309385
        ],
        [
          -0.07042200598274986,
          -1.3729960330134272,
          0.0869032785831412
        ],
        [
          0.10947654335020666,
          -0.9036769826169443,
          0.6180546008303576
        ],
        [
          -0.1931801334508404,
          -0.7761099766422168,
          -2.0361482731808196
        ],
        [
          0.05825299017225191,
          1.560476668508863,
          0.1973988036967677
        ]
      ],
      [
        [
          0.46530566808362256,
          -0.013708195429015765,
          -0.0416598261534175
        ],
        [
          0.34572705324246183,
          -0.16857319668479903,
          -1.3353425500701745
        ],
        [
          1.7917534059687354,
          -0.46242799006719837,
          0.01929324637483437
        ],
        [
          -1.7336308791669663,
          -0.23715660799767355,
          0.8871011992125196
        ],
        [
          0.0665937451969013,
          -0.01161554444646821,
          0.3962293049458153
        ],
        [
          0.3175275318464072,
          -0.08989335871625903,
          1.0984888364369243
        ]
      ],
      [
        [
          -1.8099925119361515,
          0.7187079978349268,
          -0.4826873170384315
        ],
        [
          -0.901206681288526,
          -0.16497072219138423,
          0.39272410665242824
        ],
        [
          0.45468568848408875,
          -0.3396318504540811,
          0.9439183573032163
        ],
        [
          -2.916295157619364,
          -0.23312160571131194,
          0.7993625582403584
        ],
        [
          -0.39679368957254335,
          0.0008033279195930033,
          0.04993142394270664
        ],
        [
          -0.9251458956128715,
          0.1383040810201102,
          0.683328852863999
        ]
      ],
      [
        [
          0.6105688647094669,
          -0.6169043273246665,
          1.298235004052356
        ],
        [
          0.44527916548860924,
          1.4878431097198446,
          1.1296053632724201
        ],
        [
          0.338305427856351,
          -1.6473311014132266,
          0.4796260679057603
        ],
        [
          2.5705942563647945,
          -0.8588833411388854,
          3.7160904883360795
        ],
        [
          0.21588782710001408,
          -0.3153170702295481,
          2.0859684998877808
        ],
        [
          1.2565474794779001,
          -0.30106827897402877,
          0.1734752896229912
        ]
      ],
      [
        [
          0.8692356479233138,
          -0.09864080288845642,
          2.4743653585228564
        ],
        [
          0.6245706708455038,
          2.2104160493552727,
          -0.27151479605362877
        ],
        [
          -0.5623202874867546,
          -0.6752306253446979,
          0.6805075700771103
        ],
        [
          -0.4424586413978495,
          0.6219885325972941,
          0.8670255402381242
        ],
        [
          1.6367210480138894,
          -0.7325848491085954,
          0.2290003338332678
        ],
        [
          0.024617518950915886,
          -0.08173493479928338,
          -1.3122123173251652
        ]
      ],
      [
        [
          0.36633297583986635,
          -0.4810727039917403,
          -2.560688125438919
        ],
        [
          0.002172752554768317,
          0.05977672181964105,
          -0.8411946829850582
        ],
        [
          0.02697206922339467,
          0.06988741577775387,
          3.5298926692826575
        ],
        [
          0.5568637073647845,
          0.005245290841913702,
          8.848020752497398
        ],
        [
          0.48246213340067867,
          -0.12278386871170997,
          12.176808469277065
        ],
        [
          0.4426877459104033,
          2.094889243914843,
          0.31294736632984554
        ]
      ],
      [
        [
          -0.44789182296849,
          0.07633750331635272,
          0.11670864357910331
        ],
        [
          -1.4456107522602808,
          -0.05143979582415627,
          -0.38626587702051696
        ],
        [
          -0.8557373836085833,
          -0.0007085207687072073,
          0.5199941402817189
        ],
        [
          0.45801056968582676,
          -0.007687484173087468,
          -0.8814800431538403
        ],
        [
          0.3918453867509301,
          0.07324966343540115,
          1.7620870766303058
        ],
        [
          -0.26348214460434316,
          -0.03740425786635072,
          0.10106044168779167
        ]
      ],
      [
        [
          4.971469269325203,
          0.5166741030037435,
          0.8663093431504478
        ],
        [
          -1.113574339390911,
          -0.014378182112609026,
          -1.0138582363707023
        ],
        [
          0.18510796160210502,
          0.0636587452692664,
          -0.2761392596531327
        ],
        [
          0.605852073978737,
          -0.015732982721979486,
          0.44053821791861075
        ],
        [
          0.38246277144075574,
          0.012100502041746996,
          0.6802945602748602
        ],
        [
          -0.08306737169330257,
          -0.07829996496690003,
          0.45495990324879415
        ]
      ],
      [
        [
          0.5216252224462491,
          -0.048190879683979566,
          0.8611993297160345
        ],
        [
          0.6433720445215977,
          -1.183598805203347,
          1.3790024476331744
        ],
        [
          0.16824567735866558,
          -1.4496110439432712,
          1.0132402132300982
        ],
        [
          -0.6346694860792421,
          0.9869634516497067,
          -0.12905367530265832
        ],
        [
          3.2018590179453774,
          0.027053276998754098,
          3.6075969250807667
        ],
        [
          4.119410462701212,
          0.006827951327562455,
          3.517856950649419
        ]
      ],
      [
        [
          0.5763389233412309,
          0.04621527228678561,
          0.748119621012468
        ],
        [
          0.6255912573942346,
          1.6911310391469538,
          -0.2956433786821857
        ],
        [
          1.8123214160329222,
          -0.6771529868475595,
          0.3365728171877156
        ],
        [
          0.6070605834642469,
          0.10728089001493919,
          -0.33245378905220024
        ],
        [
          9.506937587722009,
          -0.04459046573675962,
          0.5973379211456267
        ],
        [
          0.5309137480368915,
          0.07883776825821641,
          0.27078252891084054
        ]
      ]
    ]
  },
  "metrics": {
    "mse_train_noise": 0.04208329887417109,
    "mse_train_recovered": 0.01721815169130091,
    "delta_train_pct": 59.08554663743657,
    "mse_test_noise": 0.03574197205136823,
    "mse_test_recovered": 0.010857720003115502,
    "delta_test_pct": 69.6219335980935,
    "mse_train_recovered_pure": 0.006367381744144641,
    "mse_test_recovered_pure": 0.006523448682457029,
    "min_train_cost": 0.00734732114860147
  },
  "artifacts": {
    "weights_file": "weights_inst05_L5.npy",
    "circuit_diagram": "circuit_6q_4l_2t_L5_inst05.eps",
    "training_cost_plot": "training_cost_inst05_L5.eps",
    "cost_history": "cost_inst05_L5.json",
    "reconstruction_pure_plot": "reconstruction_pure_inst05_L5.eps",
    "reconstruction_noisy_plot": "reconstruction_noisy_inst05_L5.eps"
  }
}