{
  "schema": {
    "name": "monolith_qae_bundle",
    "version": "1.0"
  },
  "timestamp": "2025-12-03 08:07:20",
  "dataset": {
    "id": "mackey_glass_tau30_n200",
    "scale_low": 0.0,
    "scale_high": 1.0,
    "window_size": 6,
    "window_step": 2,
    "split": 0.75
  },
  "run": {
    "instance_id": 7,
    "layer": 5,
    "sigma_eval": 0.2,
    "test_seed_fixed": 99123,
    "device_seed": 15051,
    "training_time_sec": 393
  },
  "environment": {
    "device": "lightning.qubit",
    "diff_method": "adjoint",
    "interface": "autograd"
  },
  "architecture": {
    "type": "monolith",
    "n_qubits": 6,
    "n_latent": 4,
    "n_trash": 2,
    "n_extra": 0,
    "rot": "Rxyz"
  },
  "parameters": {
    "weights": [
      [
        [
          -0.31060804708165746,
          -1.0654343902366654,
          0.9214471037474368
        ],
        [
          0.19029945770255538,
          -0.8609746197411077,
          2.4357790423892705
        ],
        [
          0.37206676552979506,
          -0.8057769082247707,
          -0.951365105231594
        ],
        [
          -0.06658286763709308,
          -0.9602906013915128,
          2.0988420500395155
        ],
        [
          0.21484628429953725,
          -0.8351134481216709,
          -3.5533698709899553
        ],
        [
          -0.1088878080268843,
          0.5698613581094976,
          1.583150188379097
        ]
      ],
      [
        [
          0.26372115128803114,
          -0.11611975657321146,
          -0.14210174804786774
        ],
        [
          0.13850874841194208,
          -0.2899592319887762,
          -1.069330618414656
        ],
        [
          2.001044069271684,
          -0.7197233525742374,
          0.674577809294552
        ],
        [
          0.007951147910449468,
          0.19339236899808784,
          0.42677129910970724
        ],
        [
          -1.335449137722634,
          -0.5297181324137608,
          -0.5093828798009232
        ],
        [
          -0.6809600504863115,
          -0.2871538525150302,
          -0.11971345126168291
        ]
      ],
      [
        [
          -0.9516428766339803,
          -0.4353251677401812,
          0.46811628567866687
        ],
        [
          0.7266018900915869,
          0.5073021007018865,
          1.6604317683656613
        ],
        [
          1.9761293307459324,
          -0.10729955012135829,
          1.6301490161975245
        ],
        [
          -0.028387891532063815,
          -0.5588447467851124,
          1.951132987150344
        ],
        [
          0.5697291593685024,
          0.48813602988983945,
          0.7534321840867264
        ],
        [
          -0.21821978189505767,
          0.05344173074433227,
          0.26190448322944965
        ]
      ],
      [
        [
          2.287765063272626,
          -0.06158849318799052,
          0.9788355734437288
        ],
        [
          0.7973862135613806,
          -0.11512402500426647,
          0.5740100552132952
        ],
        [
          0.17043273868819234,
          0.05252246068451668,
          0.8300333750110501
        ],
        [
          0.8832468752146841,
          -0.3555106596291922,
          1.8161388805599281
        ],
        [
          -1.1448028676539945,
          -0.002780772792411628,
          0.09238082135024778
        ],
        [
          0.34899008094563094,
          0.15644802160433605,
          -0.5541078866215191
        ]
      ],
      [
        [
          0.2638142708731527,
          0.30706873240883437,
          0.5453342283607081
        ],
        [
          -0.5104281955216049,
          0.11518406720243181,
          0.4753691025588083
        ],
        [
          -0.2735539383712803,
          1.7369605899725067,
          0.30005550629133737
        ],
        [
          0.6650786771265519,
          1.6423330110056753,
          -0.7313004155654936
        ],
        [
          3.6230052310579772,
          -0.3702327741821676,
          0.5961732734748826
        ],
        [
          -0.7853231285401558,
          1.5388618311674678,
          -1.2022086286177964
        ]
      ],
      [
        [
          0.12121334971599557,
          -0.2501864185341807,
          0.6171247655669251
        ],
        [
          0.2081588434724098,
          0.089382647740221,
          4.077325096801999
        ],
        [
          0.5118649044384058,
          0.15808385424344487,
          -3.0835994245960885
        ],
        [
          0.16251081110054177,
          1.3010950383491797,
          3.2530885078202263
        ],
        [
          0.2489187813329585,
          -1.5283632971151662,
          -3.1675523270225336
        ],
        [
          0.14077211226056915,
          1.6773004358573966,
          0.06743881699565472
        ]
      ],
      [
        [
          0.9399660312603505,
          0.08409338291113924,
          0.5017313988898623
        ],
        [
          4.173180461518778,
          0.007794061234105608,
          2.1390115989998573
        ],
        [
          1.6212539694510866,
          -0.06657593685881646,
          1.3982581525713795
        ],
        [
          0.11526242838617408,
          1.6664737080937118,
          0.2825094096774398
        ],
        [
          3.19614180616692,
          1.412402316003258,
          -1.774396309163045
        ],
        [
          -0.721603528461108,
          -0.04389982303661644,
          -0.20050486261005665
        ]
      ],
      [
        [
          6.281421952559037,
          0.03019581537159957,
          -0.7186218735676112
        ],
        [
          -0.5229214990004097,
          0.06912744899218919,
          -0.3755467030315945
        ],
        [
          -0.5339209700017116,
          0.0896353804722656,
          1.1533856856319766
        ],
        [
          -1.5275408704483875,
          0.010878362822119183,
          5.075230242214205
        ],
        [
          0.18776850843066176,
          -0.11221298817314634,
          -0.21462141805190274
        ],
        [
          1.346009883440427,
          -0.06902862988867774,
          0.45333880781992947
        ]
      ],
      [
        [
          4.663843212282784,
          -0.005280983188373369,
          -0.11172928553274628
        ],
        [
          -0.36889630818821095,
          0.027811135855545607,
          1.4860723652682784
        ],
        [
          0.24699664376137428,
          -0.042951917517865465,
          0.42345516149094875
        ],
        [
          -0.4200881930047073,
          0.6066442708010081,
          -0.5319630668554342
        ],
        [
          -0.30531495932584835,
          -0.029896755306943506,
          -0.9562311136956092
        ],
        [
          -0.5921096851574884,
          0.052017812412211185,
          -1.4112840104088409
        ]
      ],
      [
        [
          1.8917962866494287,
          0.12705100420121843,
          1.021322599548236
        ],
        [
          0.5388221811307142,
          -0.1267359514683244,
          -0.2904838793248742
        ],
        [
          0.7611601906618966,
          1.6446073846979286,
          0.013537428004878877
        ],
        [
          0.356751089605867,
          1.6713632327743324,
          -0.6563877881189745
        ],
        [
          -4.237246556451952,
          -0.08617382457035311,
          0.24829717783981797
        ],
        [
          0.656520401501231,
          -0.10490839397811344,
          0.8501557730809299
        ]
      ]
    ]
  },
  "metrics": {
    "mse_train_noise": 0.04208329887417109,
    "mse_train_recovered": 0.018449968893254853,
    "delta_train_pct": 56.158453859759916,
    "mse_test_noise": 0.03574197205136823,
    "mse_test_recovered": 0.012252700964565358,
    "delta_test_pct": 65.71901251851516,
    "mse_train_recovered_pure": 0.007912417533767485,
    "mse_test_recovered_pure": 0.006940601362154185,
    "min_train_cost": 0.00793832917267269
  },
  "artifacts": {
    "weights_file": "weights_inst07_L5.npy",
    "circuit_diagram": "circuit_6q_4l_2t_L5_inst07.eps",
    "training_cost_plot": "training_cost_inst07_L5.eps",
    "cost_history": "cost_inst07_L5.json",
    "reconstruction_pure_plot": "reconstruction_pure_inst07_L5.eps",
    "reconstruction_noisy_plot": "reconstruction_noisy_inst07_L5.eps"
  }
}