{
  "schema": {
    "name": "stacked_qae_bundle",
    "version": "1.0"
  },
  "timestamp": "2026-02-18 23:20:57",
  "dataset": {
    "id": "mackey_glass_tau30_n200",
    "scale_low": 0.0,
    "scale_high": 1.0,
    "window_size": 6,
    "window_step": 2,
    "split": 0.75
  },
  "run": {
    "instance_id": 3,
    "layer": 3,
    "dec_epochs": 400,
    "enc_epochs": 300,
    "sigma_eval": 0.2,
    "test_seed_fixed": 99123,
    "device_seed": 13047,
    "stage1_time_sec": 139,
    "stage2_time_sec": 272
  },
  "environment": {
    "device": "lightning.qubit",
    "diff_method": "adjoint",
    "interface": "autograd"
  },
  "architecture": {
    "type": "stacked",
    "n_qubits": 6,
    "n_latent": 4,
    "n_trash": 2,
    "rot": "Rxyz"
  },
  "parameters": {
    "weights_stage1": [
      [
        [
          0.2609206393085614,
          -0.2467776508648227,
          -0.26673259324834325
        ],
        [
          0.005856284787684811,
          1.2947175199033232,
          -1.5797215925085295
        ],
        [
          -0.0007864655780662077,
          1.302427036186834,
          0.012856756011142405
        ],
        [
          0.003441227496258466,
          1.3171789536020515,
          0.8135159762444963
        ],
        [
          -0.005700538908044817,
          0.01666646763371331,
          1.5769259009535879
        ],
        [
          1.5708096317336981,
          -1.5699324388978313,
          -1.3953876786082748
        ]
      ],
      [
        [
          0.024671055926009378,
          0.0277714635615055,
          0.15676688656360901
        ],
        [
          0.628217665628077,
          -0.0042958404564936705,
          -0.6077251887694595
        ],
        [
          0.035788787156624355,
          0.0013332661686721614,
          -0.03373778390409954
        ],
        [
          -0.09387944192506831,
          0.0022620386089826513,
          0.09815945298578792
        ],
        [
          -1.579379289805076,
          1.6336093966255605,
          1.576399303545166
        ],
        [
          0.07981316807197604,
          -0.0676831582338471,
          -0.07536708497358945
        ]
      ],
      [
        [
          0.2593092277251694,
          0.2419123207041613,
          0.28930046295022976
        ],
        [
          0.50871522706563,
          1.570275987897564,
          0.017625579974687028
        ],
        [
          0.013596269236884685,
          -1.5759144579424558,
          0.0053342254514279356
        ],
        [
          0.12981642434969706,
          0.24602091137201396,
          0.25504328902447093
        ],
        [
          0.3400434503626042,
          1.5713099376109867,
          0.14174489973061277
        ],
        [
          0.00893310342073212,
          1.5793576897501174,
          0.13898459583948108
        ]
      ]
    ],
    "weights_stage2": [
      [
        [
          -1.665595697189326,
          -1.4548730856712924,
          -1.5011208429363705
        ],
        [
          1.0067854507800906,
          0.06620777909101604,
          -1.2220772859419327
        ],
        [
          1.5877619393845177,
          3.178938844456607,
          1.6635494105408462
        ],
        [
          1.3944115116302187,
          0.2225140546983533,
          0.051337157372298534
        ],
        [
          -1.760589672323375,
          -0.7032829998620668,
          3.3096786513085403
        ],
        [
          -0.13038048895882845,
          -1.6558675630229676,
          0.11551538437610906
        ]
      ],
      [
        [
          -0.7857138408636705,
          0.8385091552998634,
          1.4081271181264294
        ],
        [
          -0.11675624231523421,
          -1.4565079018923587e-05,
          -1.3002900218888283
        ],
        [
          -0.05815827142997735,
          0.13033980320927074,
          -0.2559596163680908
        ],
        [
          -1.3892380561780202,
          0.42771226909774507,
          1.5503548136672698
        ],
        [
          -1.5583586786242456,
          1.3293852906876238,
          1.6475744269328236
        ],
        [
          -1.0274573725820992,
          0.28391472143192054,
          1.0420665776100673
        ]
      ],
      [
        [
          -0.408350178763421,
          0.4907143789956062,
          0.6651974133295837
        ],
        [
          -0.8372474883020313,
          1.425676345049248,
          -0.1243895235841998
        ],
        [
          -4.96560291451459,
          -1.5639503548060483,
          -0.07160451287686803
        ],
        [
          0.22052884776864648,
          0.0005783494358145953,
          0.5364379622963157
        ],
        [
          0.22145529233127345,
          2.102122949873432,
          0.23059268972642843
        ],
        [
          -0.12695424620069204,
          1.64625872598493,
          0.20660126082875602
        ]
      ],
      [
        [
          0.2609206393085614,
          -1.4186084298401798,
          -1.4564813961235958
        ],
        [
          0.005856284985864916,
          -0.3187019702876149,
          -4.246406735341404
        ],
        [
          -0.0007864655320720168,
          2.6187777533551113,
          0.9048719344284748
        ],
        [
          0.003441227635433693,
          -0.40070775382575435,
          -2.4295263076386475
        ],
        [
          -0.005700539760110888,
          -0.4514073520674243,
          1.7744314267469734
        ],
        [
          1.570809631732247,
          -1.5964456362347157,
          -1.6419919886310572
        ]
      ],
      [
        [
          -1.6379767383336314,
          -0.9327432773898805,
          1.6266108642152783
        ],
        [
          2.0595508632251676,
          0.030052212643525398,
          -0.7597321470340127
        ],
        [
          0.8122180916464331,
          0.11910952080333104,
          -0.946751479868194
        ],
        [
          -0.7864449047394543,
          -0.21900212782399825,
          0.9263593728542402
        ],
        [
          -1.4908802276211839,
          1.7883035106091405,
          1.6190157390993363
        ],
        [
          -0.05623533557071297,
          -0.527812393052775,
          -0.060464460296442084
        ]
      ],
      [
        [
          1.0040121707535594,
          0.5023724105232814,
          -0.08659648742912932
        ],
        [
          2.045946953883967,
          1.6052414501929486,
          -0.07122221002112716
        ],
        [
          0.47180456225698997,
          -2.0650270610142134,
          -0.0622824395378441
        ],
        [
          -0.4720960994798614,
          0.15272860556744555,
          -0.026351384247371046
        ],
        [
          -0.03207796328614378,
          1.5509732779056378,
          0.05289710973479804
        ],
        [
          0.26956737674441167,
          1.9644288662608325,
          0.07136793085020601
        ]
      ]
    ]
  },
  "metrics": {
    "stage1_min_cost": 0.10532064168404279,
    "stage2_min_cost": 0.053194634213875394,
    "mse_train_noise": 0.04208329887417109,
    "mse_train_recovered": 0.027594668528619436,
    "delta_train_pct": 34.42845673499267,
    "mse_test_noise": 0.03574197205136823,
    "mse_test_recovered": 0.020477750276610026,
    "delta_test_pct": 42.70671397991281,
    "mse_train_recovered_pure": 0.004102475097922034,
    "mse_test_recovered_pure": 0.004172073832637938
  },
  "artifacts": {
    "weights_s1_file": "weights_s1_inst03_L3.npy",
    "weights_s2_file": "weights_s2_inst03_L3.npy",
    "circuit_stage1": "circuit_stage1_6q_4l_2t_stacked_L03_inst03.eps",
    "circuit_stage2": "circuit_stage2_6q_4l_2t_stacked_L03_inst03.eps",
    "circuit_full": "circuit_full_6q_4l_2t_stacked_L3_inst03.eps",
    "training_cost_s1_plot": "training_cost_s1_dec400_enc300_inst03.eps",
    "training_cost_s2_plot": "training_cost_s2_dec400_enc300_inst03.eps",
    "reconstruction_pure_plot": "reconst_pure_dec400_enc300_inst03_L3.eps",
    "reconstruction_noisy_plot": "reconst_noisy_dec400_enc300_inst03_L3.eps"
  }
}