{
  "schema": {
    "name": "stacked_qae_bundle",
    "version": "1.0"
  },
  "timestamp": "2026-02-18 22:35:03",
  "dataset": {
    "id": "mackey_glass_tau30_n200",
    "scale_low": 0.0,
    "scale_high": 1.0,
    "window_size": 6,
    "window_step": 2,
    "split": 0.75
  },
  "run": {
    "instance_id": 3,
    "layer": 3,
    "dec_epochs": 300,
    "enc_epochs": 300,
    "sigma_eval": 0.2,
    "test_seed_fixed": 99123,
    "device_seed": 13047,
    "stage1_time_sec": 103,
    "stage2_time_sec": 270
  },
  "environment": {
    "device": "lightning.qubit",
    "diff_method": "adjoint",
    "interface": "autograd"
  },
  "architecture": {
    "type": "stacked",
    "n_qubits": 6,
    "n_latent": 4,
    "n_trash": 2,
    "rot": "Rxyz"
  },
  "parameters": {
    "weights_stage1": [
      [
        [
          0.1720850919246291,
          -0.22740509331632958,
          -0.18084005547154208
        ],
        [
          0.06551779185206474,
          1.183485023961444,
          -1.0973588135106607
        ],
        [
          -0.010729710907982765,
          1.1459489132427,
          0.08081292912270946
        ],
        [
          0.04465103891244091,
          1.0463310265919792,
          0.8729812097787822
        ],
        [
          0.007510507799677328,
          0.20832689407654903,
          1.5808730747383108
        ],
        [
          1.5706816976205389,
          -1.5709439400551408,
          -1.442489579929104
        ]
      ],
      [
        [
          -0.04845099834687601,
          0.013489249018801445,
          0.07554704895783203
        ],
        [
          0.6257043152833213,
          -4.9908640973081887e-05,
          -0.6103306640662471
        ],
        [
          0.032980138096004176,
          0.002484873965651901,
          -0.033930043708738075
        ],
        [
          -0.12420069001468972,
          -0.012105578432512183,
          0.10894090168125833
        ],
        [
          -1.0809136599274367,
          0.058465369249137374,
          1.0853985644217172
        ],
        [
          0.06975455392004494,
          -0.048746502819043844,
          -0.05977396939696645
        ]
      ],
      [
        [
          0.25930922770127307,
          0.2419123206658654,
          0.2893004629157475
        ],
        [
          0.4414763027411568,
          1.5748022193754994,
          0.017625579976475247
        ],
        [
          -0.014337090653383107,
          -1.5769596166516333,
          0.005334225455131877
        ],
        [
          0.12981642432233864,
          0.24602091135816648,
          0.2550432889877847
        ],
        [
          0.04533025321332569,
          1.5733434811734743,
          0.14174489974768295
        ],
        [
          0.008060906406586153,
          1.5797469590933662,
          0.1389845958452987
        ]
      ]
    ],
    "weights_stage2": [
      [
        [
          -0.8836210992085947,
          1.4507954147561828,
          -1.7012736788528184
        ],
        [
          1.2359803698123843,
          -0.4174070259204297,
          -0.8811459560058866
        ],
        [
          -1.4756670078712482,
          0.2943017572767444,
          3.118396681004063
        ],
        [
          1.3811677169473107,
          -0.07182802205791952,
          -2.8870462966546437
        ],
        [
          1.3574358035545115,
          0.5788812512624992,
          0.1326664926983779
        ],
        [
          -0.045276888700408566,
          -1.5846055514944637,
          -0.1715082822587846
        ]
      ],
      [
        [
          -1.5579506135151402,
          -0.8285030543171477,
          1.3116962816457531
        ],
        [
          -0.060859413135100376,
          -0.18588540644239832,
          1.6685200046073345
        ],
        [
          -1.6171027780429912,
          0.3455946163286399,
          1.5074739308563392
        ],
        [
          1.670750924020597,
          0.4066983997256271,
          -1.2016656374269459
        ],
        [
          -1.3768710584831534,
          -1.6089924623553298,
          1.736567661922349
        ],
        [
          0.058030478595584925,
          -0.2294999092969484,
          0.35615317274801905
        ]
      ],
      [
        [
          -0.6404549293106134,
          0.003533979399727606,
          -0.16218516300603722
        ],
        [
          -1.9688807673745645,
          1.702639208524327,
          0.022135721268868556
        ],
        [
          2.4917871256854665,
          -1.7924236699870901,
          0.2177666038367446
        ],
        [
          -0.18031720797764683,
          0.06437432818740617,
          2.2158372881216755
        ],
        [
          0.21087503681332617,
          1.1591187578124933,
          0.042543390364148774
        ],
        [
          0.17140602962237414,
          1.4805448888522759,
          0.09091757117596058
        ]
      ],
      [
        [
          0.1720850919246291,
          -1.3388160140041334,
          -1.5585569753698874
        ],
        [
          0.06551779224623684,
          0.5567971798627604,
          -3.607901700199733
        ],
        [
          -0.010729709937586708,
          -0.5397372303104402,
          3.8078893996350156
        ],
        [
          0.044651038654295025,
          0.067008141855928,
          -2.5439205704804624
        ],
        [
          0.007510507877605452,
          0.595584517592021,
          1.3951082450026786
        ],
        [
          1.5706816987505046,
          -1.5854546718573637,
          -1.6144809727870324
        ]
      ],
      [
        [
          -1.2548967041742751,
          0.9209439297181645,
          1.4549627900373547
        ],
        [
          2.321124038168186,
          -0.31940868909156,
          -1.013388010876461
        ],
        [
          1.7799315324418454,
          0.5542674267395443,
          -1.448130626165767
        ],
        [
          -0.4548915521803076,
          -0.10314866185412548,
          0.511021008822026
        ],
        [
          -1.3752719973087455,
          0.9592073816208281,
          1.6670392925707933
        ],
        [
          0.20329196747745357,
          -0.4569704785728793,
          -0.03841756010274008
        ]
      ],
      [
        [
          0.8065303061660704,
          0.4172557612995293,
          0.7407860888375348
        ],
        [
          2.1214930767776017,
          1.6440742703076874,
          0.11682708936001145
        ],
        [
          0.4152420532771759,
          -1.3474166199796895,
          0.05340125012447143
        ],
        [
          1.2671611771317737,
          0.0300945712535004,
          -1.7057507101461162
        ],
        [
          0.06477675216526328,
          1.5480841406065504,
          0.2409464091312199
        ],
        [
          0.22877958346247007,
          1.382324838997973,
          0.18705162051463647
        ]
      ]
    ]
  },
  "metrics": {
    "stage1_min_cost": 0.11182763363527218,
    "stage2_min_cost": 0.0518580977691299,
    "mse_train_noise": 0.04208329887417109,
    "mse_train_recovered": 0.02941929860536598,
    "delta_train_pct": 30.09269854692338,
    "mse_test_noise": 0.03574197205136823,
    "mse_test_recovered": 0.02312468482143796,
    "delta_test_pct": 35.301038263352545,
    "mse_train_recovered_pure": 0.004233451509768183,
    "mse_test_recovered_pure": 0.005439397325965835
  },
  "artifacts": {
    "weights_s1_file": "weights_s1_inst03_L3.npy",
    "weights_s2_file": "weights_s2_inst03_L3.npy",
    "circuit_stage1": "circuit_stage1_6q_4l_2t_stacked_L03_inst03.eps",
    "circuit_stage2": "circuit_stage2_6q_4l_2t_stacked_L03_inst03.eps",
    "circuit_full": "circuit_full_6q_4l_2t_stacked_L3_inst03.eps",
    "training_cost_s1_plot": "training_cost_s1_dec300_enc300_inst03.eps",
    "training_cost_s2_plot": "training_cost_s2_dec300_enc300_inst03.eps",
    "reconstruction_pure_plot": "reconst_pure_dec300_enc300_inst03_L3.eps",
    "reconstruction_noisy_plot": "reconst_noisy_dec300_enc300_inst03_L3.eps"
  }
}