{
  "schema": {
    "name": "stacked_qae_bundle",
    "version": "1.0"
  },
  "timestamp": "2026-02-18 22:53:55",
  "dataset": {
    "id": "mackey_glass_tau30_n200",
    "scale_low": 0.0,
    "scale_high": 1.0,
    "window_size": 6,
    "window_step": 2,
    "split": 0.75
  },
  "run": {
    "instance_id": 6,
    "layer": 3,
    "dec_epochs": 300,
    "enc_epochs": 300,
    "sigma_eval": 0.2,
    "test_seed_fixed": 99123,
    "device_seed": 13050,
    "stage1_time_sec": 104,
    "stage2_time_sec": 272
  },
  "environment": {
    "device": "lightning.qubit",
    "diff_method": "adjoint",
    "interface": "autograd"
  },
  "architecture": {
    "type": "stacked",
    "n_qubits": 6,
    "n_latent": 4,
    "n_trash": 2,
    "rot": "Rxyz"
  },
  "parameters": {
    "weights_stage1": [
      [
        [
          -0.0008867307584798808,
          1.4330453559908962,
          -6.012843964436859e-05
        ],
        [
          -0.0002817213677156326,
          1.3622647398720318,
          -1.571602930257875
        ],
        [
          0.001674623431368537,
          1.2195394113130642,
          3.134096478393824
        ],
        [
          -0.0010181367127389603,
          1.248706081858747,
          1.5643663732135622
        ],
        [
          0.0026454410022541176,
          1.33814129280748,
          0.024718499709668336
        ],
        [
          -1.5699257695190338,
          1.5722286394245593,
          0.21178393033438145
        ]
      ],
      [
        [
          1.3628925261322566,
          -0.5289423816519365,
          0.0073689287614491245
        ],
        [
          1.5775879501568473,
          0.1804928141529942,
          1.0816303253609936
        ],
        [
          -1.5523745959450228,
          0.22137720896969157,
          0.5572699618519837
        ],
        [
          -1.5780426024914365,
          -0.24330441103674832,
          0.23213542788925395
        ],
        [
          -0.026509966025134536,
          -0.3677333372627942,
          -0.6274260562412829
        ],
        [
          0.6485701612054118,
          0.32876409694169484,
          0.567064239433996
        ]
      ],
      [
        [
          0.10177923112532913,
          0.11127701158828088,
          0.21259338002871206
        ],
        [
          0.4578307231028081,
          0.011985053800572742,
          0.22640432723185294
        ],
        [
          1.22345766858323,
          -0.040383402197619135,
          0.16765587680146143
        ],
        [
          0.2283813224763361,
          0.2120354333412835,
          0.2835331184651666
        ],
        [
          0.10944129494061683,
          -0.03220187547375451,
          0.012024009623639987
        ],
        [
          0.556926609769368,
          0.003821718823113576,
          0.1009677158827098
        ]
      ]
    ],
    "weights_stage2": [
      [
        [
          0.08451552286443019,
          -0.024796830622153643,
          1.3214164125173296
        ],
        [
          1.7376230094384224,
          1.0738852566445656,
          -0.08411925193067234
        ],
        [
          -0.19251184802358845,
          1.7063374891676752,
          3.085887611264361
        ],
        [
          0.2765236422512049,
          1.6010876110824634,
          -4.92426410001661
        ],
        [
          0.8799303936754217,
          0.14606444351936546,
          -1.8339918304010754
        ],
        [
          -1.5372141156661596,
          1.6311111582413773,
          -0.020915545474519407
        ]
      ],
      [
        [
          1.5897119970006257,
          -0.515608114999902,
          1.6132315567277373
        ],
        [
          1.8462403094524367,
          -0.35973183514871226,
          -1.111886640314359
        ],
        [
          -1.9576258104749118,
          -0.41185170155982964,
          0.3797577007667081
        ],
        [
          -1.4589080162427228,
          -0.23892610092870964,
          1.634012795999415
        ],
        [
          -0.04428553022330311,
          -1.268364895497004,
          -6.077903068184271
        ],
        [
          1.591693706423962,
          -0.14170139895554518,
          1.5482911317492407
        ]
      ],
      [
        [
          -0.21067607443893227,
          0.09507278934297278,
          -0.2764652704492002
        ],
        [
          0.20344868182440565,
          -0.014920204612117034,
          -0.8683667475844449
        ],
        [
          1.118297163601923,
          0.03965731120631887,
          -1.141764264295898
        ],
        [
          0.5290574463536504,
          0.18108131264605706,
          -0.37397689577534676
        ],
        [
          2.763004409997543,
          -0.005756186722691092,
          -0.17708220761072024
        ],
        [
          1.881887690970923,
          -0.06187090556018845,
          -0.09078996356683462
        ]
      ],
      [
        [
          -0.0008867307584798808,
          0.2111138867552492,
          2.776213057946313
        ],
        [
          -0.00028172146323939906,
          0.13014494569119317,
          -0.6662586844280622
        ],
        [
          0.001674623448444811,
          1.563413453461635,
          3.0657481183194997
        ],
        [
          -0.0010181364497039095,
          -0.19846193623939976,
          -0.09587895837019429
        ],
        [
          0.0026454411206652253,
          1.6139595799991053,
          0.008445759621041026
        ],
        [
          -1.5699257707730676,
          1.6030014256738536,
          1.628792163985148
        ]
      ],
      [
        [
          1.9411347364491494,
          0.05189107342928476,
          1.2317457526911957
        ],
        [
          1.0854701061636052,
          1.107424204808142,
          0.009945076877917448
        ],
        [
          -2.026936876684608,
          0.04109270069978321,
          0.5213850717958483
        ],
        [
          -1.5003725805699377,
          0.05960698432672434,
          1.7103678949928904
        ],
        [
          0.03388331150531105,
          -0.8428545595797257,
          1.478642347187132
        ],
        [
          0.73599209568417,
          -0.18867062743150456,
          1.715428029467602
        ]
      ],
      [
        [
          -1.2482050438640795,
          0.5565606501359852,
          0.7016520305066241
        ],
        [
          0.141342007275435,
          0.005850355298405398,
          0.4155105444662116
        ],
        [
          1.0773843829875998,
          -0.003786530819052079,
          0.3594135562510055
        ],
        [
          -1.1979663140892416,
          0.922896850835493,
          0.9410431327056828
        ],
        [
          0.2303769286071153,
          0.1316324220329776,
          0.20113022685799847
        ],
        [
          1.5298073581069644,
          0.5672731249116904,
          0.2927253953322536
        ]
      ]
    ]
  },
  "metrics": {
    "stage1_min_cost": 0.16569547759816372,
    "stage2_min_cost": 0.07859643086646836,
    "mse_train_noise": 0.04208329887417109,
    "mse_train_recovered": 0.04108395688867407,
    "delta_train_pct": 2.374675969403084,
    "mse_test_noise": 0.03574197205136823,
    "mse_test_recovered": 0.03578584468395947,
    "delta_test_pct": -0.12274821469890895,
    "mse_train_recovered_pure": 0.026247985173465247,
    "mse_test_recovered_pure": 0.02073611937036004
  },
  "artifacts": {
    "weights_s1_file": "weights_s1_inst06_L3.npy",
    "weights_s2_file": "weights_s2_inst06_L3.npy",
    "circuit_stage1": "circuit_stage1_6q_4l_2t_stacked_L03_inst06.eps",
    "circuit_stage2": "circuit_stage2_6q_4l_2t_stacked_L03_inst06.eps",
    "circuit_full": "circuit_full_6q_4l_2t_stacked_L3_inst06.eps",
    "training_cost_s1_plot": "training_cost_s1_dec300_enc300_inst06.eps",
    "training_cost_s2_plot": "training_cost_s2_dec300_enc300_inst06.eps",
    "reconstruction_pure_plot": "reconst_pure_dec300_enc300_inst06_L3.eps",
    "reconstruction_noisy_plot": "reconst_noisy_dec300_enc300_inst06_L3.eps"
  }
}