{
  "schema": {
    "name": "stacked_qae_bundle",
    "version": "1.0"
  },
  "timestamp": "2026-02-18 21:48:00",
  "dataset": {
    "id": "mackey_glass_tau30_n200",
    "scale_low": 0.0,
    "scale_high": 1.0,
    "window_size": 6,
    "window_step": 2,
    "split": 0.75
  },
  "run": {
    "instance_id": 2,
    "layer": 3,
    "dec_epochs": 200,
    "enc_epochs": 300,
    "sigma_eval": 0.2,
    "test_seed_fixed": 99123,
    "device_seed": 13046,
    "stage1_time_sec": 68,
    "stage2_time_sec": 268
  },
  "environment": {
    "device": "lightning.qubit",
    "diff_method": "adjoint",
    "interface": "autograd"
  },
  "architecture": {
    "type": "stacked",
    "n_qubits": 6,
    "n_latent": 4,
    "n_trash": 2,
    "rot": "Rxyz"
  },
  "parameters": {
    "weights_stage1": [
      [
        [
          -0.004221108118452195,
          1.3131582598965956,
          0.026230396676618577
        ],
        [
          -0.005883598712926399,
          1.2762170580658654,
          1.174191232339982
        ],
        [
          0.0075862491412834005,
          1.2121133250180776,
          0.5464689860651046
        ],
        [
          -0.005257757108913755,
          1.2599807630766011,
          -1.5608366403571245
        ],
        [
          0.010433419780718775,
          1.4259436991318304,
          0.21830017600153723
        ],
        [
          -0.01857449387167679,
          1.699133816138567,
          0.02115364049756496
        ]
      ],
      [
        [
          -1.133397329711524,
          -0.3539712914638401,
          0.4785850626041379
        ],
        [
          1.669898953049802,
          0.19481324756894677,
          -2.2423356995822945
        ],
        [
          0.9302701937735569,
          -0.2078695098441009,
          -0.0009366133080626285
        ],
        [
          1.3860891211965816,
          -0.26513955793475896,
          -0.6941321481019201
        ],
        [
          -0.21774957006975343,
          -0.45168305558715927,
          0.1168875233136766
        ],
        [
          0.7366204955371519,
          -0.08584836072695028,
          -0.27504083964737325
        ]
      ],
      [
        [
          0.16757622796775862,
          0.19423719076878918,
          0.30819849618005163
        ],
        [
          -0.6379306211697812,
          -0.006945495920098072,
          0.2926520833223867
        ],
        [
          0.10010334443290622,
          0.03860798411377085,
          0.1803082820849019
        ],
        [
          0.28074658264138475,
          0.047785078044614925,
          0.2754784294603067
        ],
        [
          -0.35977147406749965,
          0.010010575888400059,
          0.0682519920870113
        ],
        [
          -0.07431122024468102,
          0.009687690746752749,
          0.16200099241424964
        ]
      ]
    ],
    "weights_stage2": [
      [
        [
          -1.553975555035146,
          0.7881942832657957,
          -0.043594455230548175
        ],
        [
          0.3033900057528619,
          0.35818161423491546,
          -0.33272170309859106
        ],
        [
          -2.3477480754954154,
          1.4244672071415008,
          -0.12640536051830334
        ],
        [
          -0.27159630230636317,
          1.6672069880722298,
          -1.4484651569170737
        ],
        [
          -0.012016684852405264,
          1.6621654215456507,
          -0.20086237475701552
        ],
        [
          -0.6356129528758193,
          1.666594058105217,
          0.0014931050422772793
        ]
      ],
      [
        [
          -1.4746137641803432,
          -0.07889628956312518,
          1.7178481228053935
        ],
        [
          2.3331324757680085,
          1.1731767831388333,
          -0.3999497248214058
        ],
        [
          3.3720275247807323,
          -1.1756833297711733,
          -2.14383789220512
        ],
        [
          2.3964408549535317,
          -0.18908357953352872,
          -1.2326351046446768
        ],
        [
          0.021594138600904516,
          -1.5485428398777532,
          -1.9402285456499535
        ],
        [
          1.461636019851552,
          0.2250032752523202,
          1.6480337390155106
        ]
      ],
      [
        [
          0.9419767382751626,
          -0.4268523442205002,
          -0.0005337784130968644
        ],
        [
          -1.4065254945131207,
          2.143191532022783,
          1.8858551383149635
        ],
        [
          -0.47609730762260705,
          0.4077958715551713,
          1.215126562627377
        ],
        [
          -1.2452220859251573,
          -0.9784376035575774,
          0.6390314975221848
        ],
        [
          -0.4702666765485611,
          0.09229495784311442,
          -0.005403184250455521
        ],
        [
          -1.261386926772372,
          0.5196516367688282,
          0.3220294462277103
        ]
      ],
      [
        [
          -0.004221108118452195,
          -0.011460218658687338,
          2.534728494898003
        ],
        [
          -0.005883598778334573,
          -0.021692361756255028,
          -2.8696381960561452
        ],
        [
          0.00758624962263806,
          1.6429018437297356,
          0.17652299428081655
        ],
        [
          -0.00525775682892491,
          -1.6769268998324691,
          -1.3816713864097203
        ],
        [
          0.010433420135109105,
          1.4923210357266887,
          -0.0897829586123196
        ],
        [
          -0.01857449359585551,
          1.5271116619962777,
          0.06856615088364088
        ]
      ],
      [
        [
          -1.286295872246753,
          -0.07272768801071874,
          1.5563000086372327
        ],
        [
          -0.402942228954839,
          -0.01335844284731788,
          -4.282602071835769
        ],
        [
          -0.38209828732588724,
          -0.8536925476900152,
          1.8468935447607426
        ],
        [
          2.366058955738163,
          0.942603736933727,
          -1.562775005978486
        ],
        [
          0.005932748275291168,
          -1.5787462520919706,
          -0.6945071404253065
        ],
        [
          2.3865051234295596,
          -0.03002607955126303,
          0.6674937220045412
        ]
      ],
      [
        [
          0.18724374026104465,
          -0.277930676219177,
          0.616930770773197
        ],
        [
          -0.773812842289517,
          -0.009574731478002788,
          0.3663072596598543
        ],
        [
          -0.17570492885022576,
          0.02721805451389409,
          0.020279828271440606
        ],
        [
          -0.817075111847955,
          0.07454431001152077,
          -0.08807463860157361
        ],
        [
          -0.21978771099512556,
          -0.012878906264445633,
          0.14190716842447565
        ],
        [
          -0.13776366373458943,
          -0.01812980420242929,
          0.00197253860078933
        ]
      ]
    ]
  },
  "metrics": {
    "stage1_min_cost": 0.17027295202887643,
    "stage2_min_cost": 0.06532775918401426,
    "mse_train_noise": 0.04208329887417109,
    "mse_train_recovered": 0.035943754000040594,
    "delta_train_pct": 14.589029468644343,
    "mse_test_noise": 0.03574197205136823,
    "mse_test_recovered": 0.03149735391037383,
    "delta_test_pct": 11.875724526039166,
    "mse_train_recovered_pure": 0.022474045483665106,
    "mse_test_recovered_pure": 0.01653954665240616
  },
  "artifacts": {
    "weights_s1_file": "weights_s1_inst02_L3.npy",
    "weights_s2_file": "weights_s2_inst02_L3.npy",
    "circuit_stage1": "circuit_stage1_6q_4l_2t_stacked_L03_inst02.eps",
    "circuit_stage2": "circuit_stage2_6q_4l_2t_stacked_L03_inst02.eps",
    "circuit_full": "circuit_full_6q_4l_2t_stacked_L3_inst02.eps",
    "training_cost_s1_plot": "training_cost_s1_dec200_enc300_inst02.eps",
    "training_cost_s2_plot": "training_cost_s2_dec200_enc300_inst02.eps",
    "reconstruction_pure_plot": "reconst_pure_dec200_enc300_inst02_L3.eps",
    "reconstruction_noisy_plot": "reconst_noisy_dec200_enc300_inst02_L3.eps"
  }
}