{
  "schema": {
    "name": "stacked_qae_bundle",
    "version": "1.0"
  },
  "timestamp": "2026-02-18 22:41:19",
  "dataset": {
    "id": "mackey_glass_tau30_n200",
    "scale_low": 0.0,
    "scale_high": 1.0,
    "window_size": 6,
    "window_step": 2,
    "split": 0.75
  },
  "run": {
    "instance_id": 4,
    "layer": 3,
    "dec_epochs": 300,
    "enc_epochs": 300,
    "sigma_eval": 0.2,
    "test_seed_fixed": 99123,
    "device_seed": 13048,
    "stage1_time_sec": 103,
    "stage2_time_sec": 271
  },
  "environment": {
    "device": "lightning.qubit",
    "diff_method": "adjoint",
    "interface": "autograd"
  },
  "architecture": {
    "type": "stacked",
    "n_qubits": 6,
    "n_latent": 4,
    "n_trash": 2,
    "rot": "Rxyz"
  },
  "parameters": {
    "weights_stage1": [
      [
        [
          -0.00021748829228164653,
          1.42857664158289,
          0.00021665399333983977
        ],
        [
          -7.704677864559137e-05,
          1.3601018008821815,
          1.5709944991629987
        ],
        [
          -1.9379115101144956e-05,
          1.2202552382039984,
          -0.0011916924144826956
        ],
        [
          2.739584731177265e-05,
          1.2499872631717688,
          1.5712202725268936
        ],
        [
          -0.00023957408105984397,
          1.3380794309027821,
          -0.004101112597466906
        ],
        [
          -1.570277274940639,
          1.5708364732509197,
          0.2155413817577954
        ]
      ],
      [
        [
          -1.7709299856685234,
          -0.5235562845938795,
          1.5163482312351815
        ],
        [
          1.572287875669101,
          0.1823207895791924,
          0.2581519346834558
        ],
        [
          1.5713677810207503,
          0.22008577792380343,
          -1.5606955426530964
        ],
        [
          -1.568117573185234,
          -0.24487762803703517,
          1.2970033655029114
        ],
        [
          0.004032151023688577,
          -0.3698499712677907,
          0.002674159008708138
        ],
        [
          0.6336529244589911,
          -0.3236357676209877,
          0.21285050687136087
        ]
      ],
      [
        [
          0.1489170155811541,
          0.13861431509765923,
          0.26054751693840833
        ],
        [
          0.34365212368333997,
          0.005330777775814747,
          0.27719327190790166
        ],
        [
          -1.3728522200997937,
          -0.04910547802277204,
          0.17416317197831307
        ],
        [
          0.04006980350044376,
          0.3016307763159941,
          0.027538430001723894
        ],
        [
          0.5328495160478735,
          0.0003071205274756705,
          0.17430469852457095
        ],
        [
          0.44365092039126586,
          0.0012956086688389976,
          0.02803015970608357
        ]
      ]
    ],
    "weights_stage2": [
      [
        [
          -0.35043844400717306,
          0.15302913778227656,
          1.3121505928937027
        ],
        [
          -0.7430144991602909,
          1.4693071861213627,
          3.375139194836996
        ],
        [
          3.094772010436407,
          1.5987771199386993,
          1.2421754402263523
        ],
        [
          0.38196292029465506,
          1.4281922847418513,
          1.598288853827878
        ],
        [
          -0.2957754699025344,
          1.7662012995722294,
          -0.11425043392365246
        ],
        [
          -0.527631603259059,
          1.7560426895821297,
          -0.362274839970522
        ]
      ],
      [
        [
          -1.5008227127632656,
          -0.3876074549521876,
          1.647361373816316
        ],
        [
          1.6744817711040207,
          -0.375178907644501,
          1.0886874744239277
        ],
        [
          1.5082090382638609,
          0.7109494368406598,
          -1.2748330067734197
        ],
        [
          0.10707754833501709,
          -0.1503705277870477,
          -1.58856180928465
        ],
        [
          0.06928858593687993,
          -1.5691126697523186,
          -0.5817507728120129
        ],
        [
          1.4806915602824822,
          0.2282363287563229,
          -1.4948593506921812
        ]
      ],
      [
        [
          0.9392724175561435,
          0.9150785401350005,
          -0.236539499676487
        ],
        [
          0.048551572827495386,
          -0.1863058788332723,
          0.06551379811727591
        ],
        [
          -0.2708240257048891,
          -1.4121999075537763,
          1.3047306329708972
        ],
        [
          -0.671160917537632,
          0.7240434580655993,
          0.2726654485645154
        ],
        [
          0.532633528564803,
          0.06562865938530156,
          0.2261831969050944
        ],
        [
          0.12487380508216842,
          0.04176288537267213,
          -0.014626933499898808
        ]
      ],
      [
        [
          -0.00021748829228164653,
          -0.006426211489484724,
          2.180615569028874
        ],
        [
          -7.704661326511132e-05,
          0.8779175308508089,
          -1.4682767397231773
        ],
        [
          -1.9378672338049428e-05,
          1.6913414458929914,
          0.6015773595870763
        ],
        [
          2.7396061222821883e-05,
          0.00024195313205597254,
          1.4401226727589849
        ],
        [
          -0.00023957378885319943,
          1.4755091313486042,
          -0.09674455232754305
        ],
        [
          -1.570277275031333,
          1.47728752795986,
          0.12015688884398422
        ]
      ],
      [
        [
          -1.1028956057980261,
          -0.014842571743992693,
          1.1629164436467914
        ],
        [
          4.885905565645729,
          -0.29916205984510946,
          -3.4274388327496483
        ],
        [
          1.4634744883616173,
          0.012478139176263685,
          -2.784223399754646
        ],
        [
          -1.6308225764255506,
          -0.0030155285894196706,
          1.5383873253651905
        ],
        [
          -0.026214208408645773,
          -1.5763781158709609,
          -0.5742769620469947
        ],
        [
          0.3862403258029921,
          0.0016934578546835123,
          -0.4162467164913428
        ]
      ],
      [
        [
          -0.9884081212859885,
          -0.035302673480198915,
          0.7576345335533076
        ],
        [
          0.28151517741829024,
          0.01627907920882517,
          0.22531477352737736
        ],
        [
          -1.279338914479867,
          0.10405788203537909,
          0.21682026518429637
        ],
        [
          0.37315987420372826,
          0.025696277744896127,
          -0.21758858856106814
        ],
        [
          0.501974654180731,
          -0.01339915557842499,
          0.12242620014404826
        ],
        [
          1.539150138732539,
          -0.5119965991511539,
          0.07068725291206478
        ]
      ]
    ]
  },
  "metrics": {
    "stage1_min_cost": 0.16570960200877308,
    "stage2_min_cost": 0.07048697534713494,
    "mse_train_noise": 0.04208329887417109,
    "mse_train_recovered": 0.040864535609199094,
    "delta_train_pct": 2.896073496082352,
    "mse_test_noise": 0.03574197205136823,
    "mse_test_recovered": 0.03473727475906962,
    "delta_test_pct": 2.810973302913078,
    "mse_train_recovered_pure": 0.025298845642213824,
    "mse_test_recovered_pure": 0.019764336240402136
  },
  "artifacts": {
    "weights_s1_file": "weights_s1_inst04_L3.npy",
    "weights_s2_file": "weights_s2_inst04_L3.npy",
    "circuit_stage1": "circuit_stage1_6q_4l_2t_stacked_L03_inst04.eps",
    "circuit_stage2": "circuit_stage2_6q_4l_2t_stacked_L03_inst04.eps",
    "circuit_full": "circuit_full_6q_4l_2t_stacked_L3_inst04.eps",
    "training_cost_s1_plot": "training_cost_s1_dec300_enc300_inst04.eps",
    "training_cost_s2_plot": "training_cost_s2_dec300_enc300_inst04.eps",
    "reconstruction_pure_plot": "reconst_pure_dec300_enc300_inst04_L3.eps",
    "reconstruction_noisy_plot": "reconst_noisy_dec300_enc300_inst04_L3.eps"
  }
}