{
  "schema": {
    "name": "stacked_qae_bundle",
    "version": "1.0"
  },
  "timestamp": "2026-02-18 22:22:32",
  "dataset": {
    "id": "mackey_glass_tau30_n200",
    "scale_low": 0.0,
    "scale_high": 1.0,
    "window_size": 6,
    "window_step": 2,
    "split": 0.75
  },
  "run": {
    "instance_id": 1,
    "layer": 3,
    "dec_epochs": 300,
    "enc_epochs": 300,
    "sigma_eval": 0.2,
    "test_seed_fixed": 99123,
    "device_seed": 13045,
    "stage1_time_sec": 103,
    "stage2_time_sec": 270
  },
  "environment": {
    "device": "lightning.qubit",
    "diff_method": "adjoint",
    "interface": "autograd"
  },
  "architecture": {
    "type": "stacked",
    "n_qubits": 6,
    "n_latent": 4,
    "n_trash": 2,
    "rot": "Rxyz"
  },
  "parameters": {
    "weights_stage1": [
      [
        [
          0.000363521555189648,
          1.4332198160781793,
          -0.002171843547843961
        ],
        [
          3.62409221561173e-05,
          1.3624816719208879,
          1.5667752237981758
        ],
        [
          0.0007743271960186645,
          1.2195142301121487,
          -0.0008804671653163359
        ],
        [
          -0.0009298164527190607,
          1.249017070126321,
          1.56095287502487
        ],
        [
          0.004118115079365615,
          1.337043987027025,
          0.054137721817224274
        ],
        [
          -1.5729846397633465,
          1.5715434449820846,
          0.2156562720945099
        ]
      ],
      [
        [
          -1.7788203848073667,
          -0.52843917178974,
          0.009030188844490212
        ],
        [
          1.5706571548107922,
          0.18042640171456215,
          -0.9770282962476314
        ],
        [
          1.5852576545759063,
          0.2205033368831981,
          0.7444783462047196
        ],
        [
          -1.5947501163651792,
          -0.24386638149264386,
          0.05553098095928077
        ],
        [
          -0.05570581766712198,
          -0.3677666553599653,
          -0.405737004493609
        ],
        [
          0.64628372049732,
          -0.32853875232935636,
          -0.0985884263348559
        ]
      ],
      [
        [
          0.1300470249258138,
          0.030523021426359598,
          0.21916500327740662
        ],
        [
          0.9335749703831915,
          -0.01788469974387864,
          0.0762442201263288
        ],
        [
          -1.6752105662006886,
          0.041736111114568764,
          0.07273266109635401
        ],
        [
          0.0932305928710146,
          0.15361492163938528,
          0.05360220803771274
        ],
        [
          0.10444964334034776,
          -0.030785801879907516,
          0.21817595213702182
        ],
        [
          -0.5829825786398348,
          0.004141907312499767,
          0.18631616690631428
        ]
      ]
    ],
    "weights_stage2": [
      [
        [
          0.49753657812670093,
          0.37149696946181865,
          -2.045178732936276
        ],
        [
          -0.243701416478289,
          1.5906850471330165,
          1.5102010200358846
        ],
        [
          -1.4440728301713996,
          1.792937872818905,
          -0.253586427302919
        ],
        [
          0.4320291378776974,
          2.6302948979765985,
          2.015403635317476
        ],
        [
          1.5018603460420505,
          2.3168955774969127,
          -0.1583988191867389
        ],
        [
          -1.9185143863929408,
          1.6251021893287967,
          -0.04950639775634925
        ]
      ],
      [
        [
          -0.6938214100785104,
          -0.020085320358651983,
          -0.9176577466108741
        ],
        [
          1.4197829599775778,
          0.8580268833311456,
          2.219551879216122
        ],
        [
          1.2414948786180098,
          0.9901478474277617,
          0.24582960276625868
        ],
        [
          -1.7649229463451737,
          -1.3207466763397813,
          0.2071411971074097
        ],
        [
          -0.24265248874195508,
          -1.646816833804171,
          -1.5580757166334922
        ],
        [
          1.9976242397808228,
          -0.04378028257106924,
          -0.39804258927192054
        ]
      ],
      [
        [
          -0.23949420281597225,
          -0.1720070802342871,
          0.21721016082527797
        ],
        [
          0.8612087258523178,
          -0.02546058557446467,
          -0.954045471119558
        ],
        [
          -1.572097385248808,
          -0.26883447813436334,
          -1.0265244084559275
        ],
        [
          0.08318237357660865,
          -0.7581110292141241,
          0.10585043598743438
        ],
        [
          -0.4465321716307713,
          0.18824688513593102,
          0.5596644117789279
        ],
        [
          0.5664045464960182,
          0.6035796369260593,
          0.23087939518025086
        ]
      ],
      [
        [
          0.000363521555189648,
          0.36923610432591014,
          1.8937770497279478
        ],
        [
          3.62407132747623e-05,
          1.5961818804940227,
          1.4636555472994977
        ],
        [
          0.0007743272053039777,
          1.3127799567838672,
          -1.6041507218860027
        ],
        [
          -0.0009298166271877186,
          2.7176816851331167,
          1.5816658142568267
        ],
        [
          0.0041181140567432125,
          1.4257487576559231,
          0.145176093456
        ],
        [
          -1.572984640541705,
          1.5573450009862786,
          0.047365150105657366
        ]
      ],
      [
        [
          -1.723771267129714,
          0.19022397955263853,
          0.05492700484699258
        ],
        [
          1.5390253151118134,
          0.8357074404463761,
          -1.743366569147091
        ],
        [
          1.9690850198800771,
          1.001694133620248,
          -0.15115364820664054
        ],
        [
          -1.7930821348557022,
          -1.1580350607739838,
          0.06846635180930988
        ],
        [
          -0.03688602320903843,
          -1.5193548901605094,
          -1.814687509176086
        ],
        [
          1.804881603949536,
          -0.25236112690488494,
          -0.18622292099499438
        ]
      ],
      [
        [
          -0.140669772133895,
          0.1376988875263234,
          0.2211198457295358
        ],
        [
          1.621048242104594,
          -1.3568295653890134,
          -0.2652442395155712
        ],
        [
          -1.384753209327138,
          -0.05629760824970739,
          0.028169432822419828
        ],
        [
          0.8266582486132075,
          -0.37017053645984604,
          0.001353980087987414
        ],
        [
          -1.2061698589016696,
          -0.532474070313121,
          -0.12331250750488248
        ],
        [
          -0.5063102920031879,
          -0.21489975516222715,
          0.14175293863237992
        ]
      ]
    ]
  },
  "metrics": {
    "stage1_min_cost": 0.1656806504676081,
    "stage2_min_cost": 0.07951210773323954,
    "mse_train_noise": 0.04208329887417109,
    "mse_train_recovered": 0.041509034443010774,
    "delta_train_pct": 1.3645898646809096,
    "mse_test_noise": 0.03574197205136823,
    "mse_test_recovered": 0.0368470158784944,
    "delta_test_pct": -3.091725956077629,
    "mse_train_recovered_pure": 0.02680924569637954,
    "mse_test_recovered_pure": 0.02101026236914697
  },
  "artifacts": {
    "weights_s1_file": "weights_s1_inst01_L3.npy",
    "weights_s2_file": "weights_s2_inst01_L3.npy",
    "circuit_stage1": "circuit_stage1_6q_4l_2t_stacked_L03_inst01.eps",
    "circuit_stage2": "circuit_stage2_6q_4l_2t_stacked_L03_inst01.eps",
    "circuit_full": "circuit_full_6q_4l_2t_stacked_L3_inst01.eps",
    "training_cost_s1_plot": "training_cost_s1_dec300_enc300_inst01.eps",
    "training_cost_s2_plot": "training_cost_s2_dec300_enc300_inst01.eps",
    "reconstruction_pure_plot": "reconst_pure_dec300_enc300_inst01_L3.eps",
    "reconstruction_noisy_plot": "reconst_noisy_dec300_enc300_inst01_L3.eps"
  }
}