{
  "schema": {
    "name": "stacked_qae_bundle",
    "version": "1.0"
  },
  "timestamp": "2026-02-18 22:47:37",
  "dataset": {
    "id": "mackey_glass_tau30_n200",
    "scale_low": 0.0,
    "scale_high": 1.0,
    "window_size": 6,
    "window_step": 2,
    "split": 0.75
  },
  "run": {
    "instance_id": 5,
    "layer": 3,
    "dec_epochs": 300,
    "enc_epochs": 300,
    "sigma_eval": 0.2,
    "test_seed_fixed": 99123,
    "device_seed": 13049,
    "stage1_time_sec": 104,
    "stage2_time_sec": 272
  },
  "environment": {
    "device": "lightning.qubit",
    "diff_method": "adjoint",
    "interface": "autograd"
  },
  "architecture": {
    "type": "stacked",
    "n_qubits": 6,
    "n_latent": 4,
    "n_trash": 2,
    "rot": "Rxyz"
  },
  "parameters": {
    "weights_stage1": [
      [
        [
          0.003059545293450989,
          1.4339229787381325,
          0.00250633467738741
        ],
        [
          0.0010952364413781908,
          1.3624791200658675,
          -1.5671739358855026
        ],
        [
          -0.0012368570433548512,
          1.2200001809536474,
          -0.009596814731354361
        ],
        [
          0.0013897988542909728,
          1.2495810850656304,
          -1.5620174549974568
        ],
        [
          -0.00377782543600593,
          1.3376607771815983,
          -0.056995872816048905
        ],
        [
          1.5719633093933745,
          1.57244811658223,
          -0.21513702292869
        ]
      ],
      [
        [
          1.7761880897186324,
          -0.5274480437305893,
          0.0647700749926945
        ],
        [
          1.5724034169089636,
          -0.18084822703552447,
          1.779892865080491
        ],
        [
          1.568004196469841,
          -0.22082612086643774,
          -0.9030419664299232
        ],
        [
          1.5992438184693205,
          -0.24426780249008634,
          0.5336538019940957
        ],
        [
          0.05697504561241663,
          -0.3682982350974385,
          0.3110411579071025
        ],
        [
          -0.6426437276785858,
          -0.3272480128467865,
          -0.6990517890950217
        ]
      ],
      [
        [
          0.3087063780143706,
          0.048057453225217164,
          0.25056318712218073
        ],
        [
          -1.3351278290096233,
          0.019777137498531227,
          0.1713007163345149
        ],
        [
          1.5688052416282163,
          -0.04485529552429484,
          0.17347192683070725
        ],
        [
          0.024080317781865593,
          0.026651809928362052,
          0.024513380764760076
        ],
        [
          -0.1836984044545845,
          0.024955193263667016,
          0.1446652355495291
        ],
        [
          -0.5454907525898961,
          -0.012777098807340459,
          0.11712418410091041
        ]
      ]
    ],
    "weights_stage2": [
      [
        [
          -3.0420235791895984,
          -0.22353833832077338,
          0.3241989995913816
        ],
        [
          1.9308847379538312,
          1.437969308844564,
          0.0983563661289341
        ],
        [
          -1.5480565638533814,
          0.8182377353931588,
          7.823413746587337e-05
        ],
        [
          0.5952291588435663,
          0.40067011293080373,
          -3.8246143146686427
        ],
        [
          -0.1741243258217268,
          1.0304452663554167,
          1.4988372493707722
        ],
        [
          4.798812498380705,
          1.5672737913159585,
          0.18860078771750355
        ]
      ],
      [
        [
          1.6793998808586177,
          0.8190217991921803,
          0.5585286689056322
        ],
        [
          2.3243621996718336,
          0.553762466458975,
          2.2113074458205695
        ],
        [
          2.6361709072158206,
          0.06816726926449625,
          -0.8141369882849983
        ],
        [
          1.7565384460295206,
          -0.16933115618534164,
          1.4341449206680499
        ],
        [
          -0.4961634357115795,
          -0.7582318893716418,
          0.6382346436041828
        ],
        [
          -1.8483120852956945,
          -0.46092714252411154,
          0.4874573716761372
        ]
      ],
      [
        [
          -0.6182344404696344,
          -0.0208890168944664,
          0.11643466609331475
        ],
        [
          -2.1371809716794106,
          1.1292527931248035,
          -1.2003588256655193
        ],
        [
          1.3118482165697052,
          -1.5424627423824193,
          1.2342117889386788
        ],
        [
          1.912800887595412,
          0.30427496288074246,
          0.022814715588615725
        ],
        [
          0.49835912797547605,
          0.36191060654735907,
          0.3311202985365795
        ],
        [
          -0.26025915335971583,
          -0.08586402381314918,
          -0.04431047882366089
        ]
      ],
      [
        [
          0.003059545293450989,
          0.5400289242855455,
          -4.4253760402659275
        ],
        [
          0.0010952366125530015,
          0.01974709488223,
          -2.5081792477552964
        ],
        [
          -0.001236857065165804,
          1.0363176546642363,
          -1.5670728731482122
        ],
        [
          0.0013897986336276222,
          1.123921620842228,
          -4.719594605191616
        ],
        [
          -0.0037778259097115048,
          1.5794917052458197,
          -0.08286814433462539
        ],
        [
          1.571963309242111,
          1.6003436464820444,
          0.048785806476962235
        ]
      ],
      [
        [
          1.678723974266169,
          -0.009995961953451035,
          0.6725579817965148
        ],
        [
          2.0543220349008764,
          -0.020113241482034378,
          2.030766520669934
        ],
        [
          2.540858227781134,
          0.5653014319192713,
          -0.6350802200233895
        ],
        [
          1.5426348457103265,
          0.6994645860313299,
          1.58839106710148
        ],
        [
          -0.0218687879364144,
          -1.5380433180571418,
          1.4056796138761443
        ],
        [
          -1.194146864116074,
          -0.0007837749376509854,
          -0.4705109794983082
        ]
      ],
      [
        [
          0.693373804128139,
          0.005729765282371345,
          0.38469170815104836
        ],
        [
          -1.7026601977020772,
          0.002138772066024061,
          -0.015154346652535563
        ],
        [
          1.444555979804436,
          0.001903094280119112,
          0.33490658975527576
        ],
        [
          1.7235307561505517,
          0.3869644101533686,
          0.02621204594090938
        ],
        [
          -0.04317536349578187,
          0.012105938476969284,
          -0.041789827437522915
        ],
        [
          0.07601320281714227,
          0.10612898206630025,
          0.27855884702548106
        ]
      ]
    ]
  },
  "metrics": {
    "stage1_min_cost": 0.16567225153165374,
    "stage2_min_cost": 0.08700038132995264,
    "mse_train_noise": 0.04208329887417109,
    "mse_train_recovered": 0.04204149005871974,
    "delta_train_pct": 0.09934776162952019,
    "mse_test_noise": 0.03574197205136823,
    "mse_test_recovered": 0.0386238042639382,
    "delta_test_pct": -8.062879710241532,
    "mse_train_recovered_pure": 0.027627645258919042,
    "mse_test_recovered_pure": 0.02180846783308172
  },
  "artifacts": {
    "weights_s1_file": "weights_s1_inst05_L3.npy",
    "weights_s2_file": "weights_s2_inst05_L3.npy",
    "circuit_stage1": "circuit_stage1_6q_4l_2t_stacked_L03_inst05.eps",
    "circuit_stage2": "circuit_stage2_6q_4l_2t_stacked_L03_inst05.eps",
    "circuit_full": "circuit_full_6q_4l_2t_stacked_L3_inst05.eps",
    "training_cost_s1_plot": "training_cost_s1_dec300_enc300_inst05.eps",
    "training_cost_s2_plot": "training_cost_s2_dec300_enc300_inst05.eps",
    "reconstruction_pure_plot": "reconst_pure_dec300_enc300_inst05_L3.eps",
    "reconstruction_noisy_plot": "reconst_noisy_dec300_enc300_inst05_L3.eps"
  }
}