{
  "schema": {
    "name": "stacked_qae_bundle",
    "version": "1.0"
  },
  "timestamp": "2026-02-18 23:07:10",
  "dataset": {
    "id": "mackey_glass_tau30_n200",
    "scale_low": 0.0,
    "scale_high": 1.0,
    "window_size": 6,
    "window_step": 2,
    "split": 0.75
  },
  "run": {
    "instance_id": 1,
    "layer": 3,
    "dec_epochs": 400,
    "enc_epochs": 300,
    "sigma_eval": 0.2,
    "test_seed_fixed": 99123,
    "device_seed": 13045,
    "stage1_time_sec": 139,
    "stage2_time_sec": 273
  },
  "environment": {
    "device": "lightning.qubit",
    "diff_method": "adjoint",
    "interface": "autograd"
  },
  "architecture": {
    "type": "stacked",
    "n_qubits": 6,
    "n_latent": 4,
    "n_trash": 2,
    "rot": "Rxyz"
  },
  "parameters": {
    "weights_stage1": [
      [
        [
          -0.0008457592792982574,
          1.4319080455879356,
          -0.0019204545428428475
        ],
        [
          -0.0011844928371204902,
          1.3617635904221803,
          1.566785156457072
        ],
        [
          0.00010966899319837374,
          1.219996307008518,
          -0.00802309902487418
        ],
        [
          -0.0007745371914682427,
          1.249558096932,
          1.5656536487429413
        ],
        [
          0.003245483283727692,
          1.3372187312191455,
          0.04051339297378903
        ],
        [
          -1.5720389132208088,
          1.5715694999823666,
          0.21644187388287794
        ]
      ],
      [
        [
          -1.776208584450329,
          -0.5273188707838926,
          0.03251981509127811
        ],
        [
          1.5765650760228498,
          0.1807128454001228,
          -0.9422781113213979
        ],
        [
          1.5848087094542052,
          0.22047339839539956,
          0.9182996337393363
        ],
        [
          -1.5892774001807508,
          -0.2445675667598953,
          0.44574582514329025
        ],
        [
          -0.04214693588636646,
          -0.36831821562343053,
          -0.29812705100521175
        ],
        [
          0.6413779889945883,
          -0.3273411887627259,
          -0.18513574352106069
        ]
      ],
      [
        [
          0.130047024857995,
          0.030523021427561026,
          0.21916500322142934
        ],
        [
          1.387007383058905,
          -0.021717375878934863,
          0.07624422016347882
        ],
        [
          -1.5418256882611252,
          0.04344620241388354,
          0.07273266114612306
        ],
        [
          0.09323059287911793,
          0.15361492161759488,
          0.053602208038236135
        ],
        [
          0.1509082056161864,
          -0.02854534792624668,
          0.21817595217213187
        ],
        [
          -0.9681777476356478,
          0.008324193552261171,
          0.1863161669528924
        ]
      ]
    ],
    "weights_stage2": [
      [
        [
          -0.046695142364192525,
          0.20803146263215333,
          1.407973217679134
        ],
        [
          -3.25866220134703,
          1.7345476657408145,
          3.06901223720668
        ],
        [
          -3.897568294156002,
          1.4470739930006256,
          0.2782587475132124
        ],
        [
          -0.31746730389134653,
          1.6949268918332623,
          1.5967370308931126
        ],
        [
          -0.3409258475314063,
          1.372594236952102,
          3.018669025667268
        ],
        [
          -0.1318234036189558,
          1.6293835386100262,
          -0.15036696661081778
        ]
      ],
      [
        [
          -1.5863486312308444,
          -0.4520910676592904,
          1.4841194976928402
        ],
        [
          3.520501897433793,
          0.40556247702570614,
          4.0572657137619
        ],
        [
          0.6926804589540084,
          0.7208448958776325,
          1.501881867547708
        ],
        [
          -2.4016696700629234,
          0.8091469898694805,
          1.56808742507527
        ],
        [
          -0.06216764618205778,
          -1.5765065971437064,
          0.0554541265436626
        ],
        [
          1.6588947012564008,
          0.218687826116705,
          -1.5904719909035698
        ]
      ],
      [
        [
          0.0700034437057442,
          -0.08279086386720651,
          0.29246563941535536
        ],
        [
          1.6845701742248844,
          -2.086501382724778,
          1.6341021485084628
        ],
        [
          -1.3169800831445477,
          1.4295895595157098,
          1.6690787820284758
        ],
        [
          1.4721967241626288,
          -0.7051092734995391,
          0.16723415920407486
        ],
        [
          0.022038250346145417,
          -0.2772402096336258,
          -0.17532453784901791
        ],
        [
          -2.0750638279982647,
          -0.0441749539156504,
          -0.41049882802865484
        ]
      ],
      [
        [
          -0.0008457592792982574,
          0.014350423771341563,
          -6.498835898175335
        ],
        [
          -0.0011844928330378562,
          0.24143838958324818,
          -3.4697598332027413
        ],
        [
          0.00010966863721186194,
          1.5375732193010143,
          0.07727377958526821
        ],
        [
          -0.0007745378281419925,
          -1.7483683599628657,
          1.667044115453633
        ],
        [
          0.00324548362173364,
          1.6953088694766416,
          -0.07929650147472135
        ],
        [
          -1.5720389128820185,
          1.5099577829450739,
          0.03376031993199168
        ]
      ],
      [
        [
          -1.086282254924056,
          0.04068452031406914,
          1.076086642983696
        ],
        [
          0.20469977109776394,
          1.6096507213610194,
          -3.1749823155780965
        ],
        [
          -0.5421145392041005,
          0.8394927432746918,
          1.9530539291497102
        ],
        [
          -0.8583038844519031,
          1.2815428846411667,
          1.6066385189699623
        ],
        [
          0.04251419727137867,
          -1.6012494720850596,
          4.3445251792509625
        ],
        [
          1.4148997300653612,
          -0.0156114459306631,
          -1.2639377997216998
        ]
      ],
      [
        [
          0.13665456872492648,
          -0.08652126110074307,
          0.145864367027506
        ],
        [
          1.8979162582289513,
          0.011723661476733966,
          0.46974471018462693
        ],
        [
          -3.1727198185693255,
          -0.532062199849308,
          0.6695476561276734
        ],
        [
          1.6600171353411108,
          -0.07177417748636712,
          -0.0600297431276019
        ],
        [
          0.38678135826613247,
          0.04290753342230564,
          0.6116764421932789
        ],
        [
          -1.5771154582790643,
          -0.8680287463298114,
          0.7831311619344424
        ]
      ]
    ]
  },
  "metrics": {
    "stage1_min_cost": 0.1656704466511689,
    "stage2_min_cost": 0.06216258607556705,
    "mse_train_noise": 0.04208329887417109,
    "mse_train_recovered": 0.042527189843376695,
    "delta_train_pct": -1.0547912855711328,
    "mse_test_noise": 0.03574197205136823,
    "mse_test_recovered": 0.037946982239743896,
    "delta_test_pct": -6.169246020355645,
    "mse_train_recovered_pure": 0.02741701539150842,
    "mse_test_recovered_pure": 0.021330491764347377
  },
  "artifacts": {
    "weights_s1_file": "weights_s1_inst01_L3.npy",
    "weights_s2_file": "weights_s2_inst01_L3.npy",
    "circuit_stage1": "circuit_stage1_6q_4l_2t_stacked_L03_inst01.eps",
    "circuit_stage2": "circuit_stage2_6q_4l_2t_stacked_L03_inst01.eps",
    "circuit_full": "circuit_full_6q_4l_2t_stacked_L3_inst01.eps",
    "training_cost_s1_plot": "training_cost_s1_dec400_enc300_inst01.eps",
    "training_cost_s2_plot": "training_cost_s2_dec400_enc300_inst01.eps",
    "reconstruction_pure_plot": "reconst_pure_dec400_enc300_inst01_L3.eps",
    "reconstruction_noisy_plot": "reconst_noisy_dec400_enc300_inst01_L3.eps"
  }
}