{
  "schema": {
    "name": "stacked_qae_bundle",
    "version": "1.0"
  },
  "timestamp": "2026-02-18 23:14:05",
  "dataset": {
    "id": "mackey_glass_tau30_n200",
    "scale_low": 0.0,
    "scale_high": 1.0,
    "window_size": 6,
    "window_step": 2,
    "split": 0.75
  },
  "run": {
    "instance_id": 2,
    "layer": 3,
    "dec_epochs": 400,
    "enc_epochs": 300,
    "sigma_eval": 0.2,
    "test_seed_fixed": 99123,
    "device_seed": 13046,
    "stage1_time_sec": 140,
    "stage2_time_sec": 273
  },
  "environment": {
    "device": "lightning.qubit",
    "diff_method": "adjoint",
    "interface": "autograd"
  },
  "architecture": {
    "type": "stacked",
    "n_qubits": 6,
    "n_latent": 4,
    "n_trash": 2,
    "rot": "Rxyz"
  },
  "parameters": {
    "weights_stage1": [
      [
        [
          -0.0012223409404901245,
          1.4318790397683554,
          -0.0006539161868945613
        ],
        [
          -4.584835468572126e-05,
          1.3612650449015131,
          1.5697880780064115
        ],
        [
          0.0015105906104019274,
          1.2197116727846309,
          0.0003643117066947015
        ],
        [
          -0.0011656013353713952,
          1.2486792390236396,
          -1.5831656781017525
        ],
        [
          0.003690286111003367,
          1.3377658615757713,
          0.04919020303885716
        ],
        [
          -1.5715451670761578,
          1.5718150191232996,
          0.21310955322022151
        ]
      ],
      [
        [
          -1.779030113904342,
          -0.5288612295374182,
          0.04712646746684197
        ],
        [
          1.574769784463166,
          0.18009139379608044,
          -2.5223685539539042
        ],
        [
          1.5885681000057958,
          -0.2211808105133248,
          0.5056337365449433
        ],
        [
          1.5513154438085361,
          -0.24351126906421505,
          -1.0642479448250965
        ],
        [
          -0.050282575407468416,
          -0.36764153933974425,
          -0.5638918429243086
        ],
        [
          0.6484392883652993,
          -0.32877697059154043,
          0.4455603729988119
        ]
      ],
      [
        [
          0.16757622802078212,
          0.19423719073569684,
          0.30819849622647183
        ],
        [
          -1.2770983374550269,
          0.020372202327706607,
          0.2926520833241073
        ],
        [
          1.2444772076812094,
          0.03946716326882123,
          0.18030828210764954
        ],
        [
          0.2807465827308855,
          0.047785078034219476,
          0.27547842956498253
        ],
        [
          0.1469745509491399,
          0.035528510299487955,
          0.06825199209509929
        ],
        [
          0.776236733782826,
          0.007002132670149966,
          0.16200099244332136
        ]
      ]
    ],
    "weights_stage2": [
      [
        [
          2.57275491793534,
          -0.3458409043851837,
          -1.2083898393510728
        ],
        [
          3.005014556759192,
          1.854912976666355,
          4.1714393437828265
        ],
        [
          1.6970299511964757,
          1.5792487856533608,
          0.33651131017069397
        ],
        [
          0.7581576559322452,
          2.189550890549036,
          -1.4328052894992735
        ],
        [
          0.8804592215688353,
          0.8581831362786777,
          -3.315413147977851
        ],
        [
          -4.802443314432818,
          1.8225954457423712,
          0.18175611609890707
        ]
      ],
      [
        [
          -1.7016014225969203,
          -0.38508755096801117,
          0.9699207073867646
        ],
        [
          2.365499120972152,
          0.4333314381406826,
          -1.9036414863399895
        ],
        [
          1.1523658292569372,
          -0.6674046185414134,
          0.737246144841503
        ],
        [
          0.9538120224929088,
          0.6461153140798993,
          -1.2672801329125758
        ],
        [
          0.2506641418170559,
          -1.4787962486967048,
          5.599893962995659
        ],
        [
          1.8545478256383627,
          0.48011028508095466,
          -1.349576983403618
        ]
      ],
      [
        [
          -1.6179008989824448,
          0.3073422603860244,
          0.19581014190900708
        ],
        [
          -1.3485006958909123,
          1.2439345290464816,
          1.744185557741328
        ],
        [
          0.9842700445547381,
          0.7140312060175942,
          -1.200713624496495
        ],
        [
          0.48607272375291116,
          0.525530541510033,
          0.2521391001192214
        ],
        [
          -0.26568959887065496,
          -0.052373155529957076,
          -0.008171876526538554
        ],
        [
          0.03215156720210999,
          0.10778110132064235,
          0.406261921340915
        ]
      ],
      [
        [
          -0.0012223409404901245,
          -0.06957451308879854,
          -0.15703587167684388
        ],
        [
          -4.584820744722762e-05,
          0.0773580179395348,
          -2.5940412248297755
        ],
        [
          0.0015105908852813578,
          1.4710587604470076,
          -3.419199705853733
        ],
        [
          -0.0011656011678747493,
          1.248349100661506,
          -1.6278494164773512
        ],
        [
          0.003690286301201989,
          1.5371115532731763,
          -0.03940192186700355
        ],
        [
          -1.5715451667029798,
          1.5821022149493096,
          0.03928578861755508
        ]
      ],
      [
        [
          -1.057198919559855,
          0.026023695582518425,
          0.2883603459184077
        ],
        [
          6.038291936274311,
          -0.07403663721640256,
          -3.2239855414808702
        ],
        [
          0.007987436324263051,
          0.7526213618796298,
          1.603370152215833
        ],
        [
          0.8224994745587285,
          -1.5186318479171081,
          -1.5702877069334247
        ],
        [
          0.0012682214726536377,
          -1.5656435011467928,
          2.7664386683725417
        ],
        [
          0.6252070513059967,
          -0.08698970274232723,
          0.018388212146389395
        ]
      ],
      [
        [
          1.230966138856678,
          -0.3992541328177495,
          0.4205868505439353
        ],
        [
          -1.377659658628693,
          0.00396027661260049,
          0.3690759519457432
        ],
        [
          1.2702583760756971,
          -0.011597091920384802,
          -0.06395264678994864
        ],
        [
          0.832918702724513,
          -0.2624251849769416,
          0.29881775901074453
        ],
        [
          0.056197115643656106,
          0.0009017024238492727,
          0.14467586071673322
        ],
        [
          0.09516830757285877,
          0.05156867116992032,
          -0.0822599364542713
        ]
      ]
    ]
  },
  "metrics": {
    "stage1_min_cost": 0.1656768061269996,
    "stage2_min_cost": 0.07464072176403186,
    "mse_train_noise": 0.04208329887417109,
    "mse_train_recovered": 0.042003653398689174,
    "delta_train_pct": 0.18925673037195612,
    "mse_test_noise": 0.03574197205136823,
    "mse_test_recovered": 0.036804398412876325,
    "delta_test_pct": -2.9724894865374996,
    "mse_train_recovered_pure": 0.02627435147595048,
    "mse_test_recovered_pure": 0.020413747324866907
  },
  "artifacts": {
    "weights_s1_file": "weights_s1_inst02_L3.npy",
    "weights_s2_file": "weights_s2_inst02_L3.npy",
    "circuit_stage1": "circuit_stage1_6q_4l_2t_stacked_L03_inst02.eps",
    "circuit_stage2": "circuit_stage2_6q_4l_2t_stacked_L03_inst02.eps",
    "circuit_full": "circuit_full_6q_4l_2t_stacked_L3_inst02.eps",
    "training_cost_s1_plot": "training_cost_s1_dec400_enc300_inst02.eps",
    "training_cost_s2_plot": "training_cost_s2_dec400_enc300_inst02.eps",
    "reconstruction_pure_plot": "reconst_pure_dec400_enc300_inst02_L3.eps",
    "reconstruction_noisy_plot": "reconst_noisy_dec400_enc300_inst02_L3.eps"
  }
}