{
  "schema": {
    "name": "stacked_qae_bundle",
    "version": "1.0"
  },
  "timestamp": "2026-02-19 00:10:57",
  "dataset": {
    "id": "mackey_glass_tau30_n200",
    "scale_low": 0.0,
    "scale_high": 1.0,
    "window_size": 6,
    "window_step": 2,
    "split": 0.75
  },
  "run": {
    "instance_id": 3,
    "layer": 3,
    "dec_epochs": 500,
    "enc_epochs": 300,
    "sigma_eval": 0.2,
    "test_seed_fixed": 99123,
    "device_seed": 13047,
    "stage1_time_sec": 174,
    "stage2_time_sec": 277
  },
  "environment": {
    "device": "lightning.qubit",
    "diff_method": "adjoint",
    "interface": "autograd"
  },
  "architecture": {
    "type": "stacked",
    "n_qubits": 6,
    "n_latent": 4,
    "n_trash": 2,
    "rot": "Rxyz"
  },
  "parameters": {
    "weights_stage1": [
      [
        [
          0.9569217027839507,
          -0.4798770026651899,
          -1.0387901632964402
        ],
        [
          0.039039460101104796,
          1.0414872761461718,
          -1.535629700483279
        ],
        [
          -0.006578968435499859,
          1.2080145205907222,
          -0.17895156310451402
        ],
        [
          0.0011564691539519684,
          1.3292030945843665,
          0.7238055978930826
        ],
        [
          -0.0030129831418323145,
          -0.026547236938292234,
          1.5746550611756287
        ],
        [
          1.5706814417119008,
          -1.5668046530741913,
          -1.3816554626088138
        ]
      ],
      [
        [
          0.06767258563669215,
          0.03311792467441806,
          0.12891707204436198
        ],
        [
          0.7052143555442433,
          -0.017969431376580455,
          -0.5318182546212621
        ],
        [
          0.04186423217693146,
          0.0013067545785901808,
          -0.03410367083255276
        ],
        [
          -0.07881382832916388,
          0.005523006764109028,
          0.09015421113222506
        ],
        [
          -1.6212649021353343,
          1.6410887116052026,
          1.596553806344851
        ],
        [
          0.10664251426762696,
          -0.057895105611044745,
          -0.11838124094704823
        ]
      ],
      [
        [
          0.2593092278211282,
          0.24191232076768432,
          0.289300463010017
        ],
        [
          0.5044002086791889,
          1.562165750920345,
          0.01762557994720944
        ],
        [
          0.0434030560847338,
          -1.5842824208117474,
          0.005334225456037189
        ],
        [
          0.12981642426862391,
          0.2460209113474681,
          0.25504328895317696
        ],
        [
          0.35228539237960715,
          1.573383374113596,
          0.1417448997422941
        ],
        [
          -0.01051432597399172,
          1.5852949479489222,
          0.1389845958689268
        ]
      ]
    ],
    "weights_stage2": [
      [
        [
          1.7235305464458408,
          -1.4350662510750583,
          -1.5426754774457654
        ],
        [
          1.6064598057545312,
          -0.4477693714116837,
          -1.318578013736587
        ],
        [
          1.7608837227981065,
          0.4092946497636563,
          1.002380521353804
        ],
        [
          1.7376955865511223,
          -0.2164707088284296,
          2.480830391447818
        ],
        [
          -1.7487828425656822,
          0.5782955300177136,
          3.1720313463713263
        ],
        [
          -0.1978105906551505,
          -1.6639250580738494,
          -0.1029978064989805
        ]
      ],
      [
        [
          -1.4238772231559715,
          0.6277688146489256,
          1.2627882795909176
        ],
        [
          0.39705999503951056,
          0.17882198932453774,
          -2.0686787803872617
        ],
        [
          -0.07617344111038432,
          -0.31005092471470164,
          -0.26137793793162317
        ],
        [
          -0.9811592799857326,
          0.5730832827161125,
          1.2022327709793592
        ],
        [
          -1.4746633573230767,
          1.172416599037652,
          1.560779767673239
        ],
        [
          -1.2662734821445194,
          0.2820525528137283,
          1.2232646055759095
        ]
      ],
      [
        [
          1.0847366380360306,
          -0.11400611583288568,
          0.4805829625997431
        ],
        [
          -2.612787631021318,
          1.6591428141551636,
          0.006263036217522179
        ],
        [
          0.09866803279351101,
          -1.4571349258735604,
          -0.016733805882331847
        ],
        [
          -0.18077445947118603,
          -0.06505502137713605,
          1.6208797616647879
        ],
        [
          0.31198642188515113,
          1.1594536480520092,
          0.10573101422177276
        ],
        [
          -0.11901874682266715,
          1.6051084068186598,
          0.11081986115070877
        ]
      ],
      [
        [
          0.9569217027839507,
          -1.7065405758255232,
          -1.6255461019362754
        ],
        [
          0.03903946045143163,
          0.2652826438421218,
          -3.924554164316194
        ],
        [
          -0.006578968395194378,
          0.2765035949284123,
          1.207665851216534
        ],
        [
          0.001156469601020417,
          0.37402280735465787,
          -0.559432213339096
        ],
        [
          -0.0030129828038804765,
          -0.5188623121481049,
          -1.4917401742699081
        ],
        [
          1.5706814418012949,
          -1.5301394968642343,
          -1.487730779253993
        ]
      ],
      [
        [
          1.429070164381951,
          0.8890495527515426,
          -1.2878143278449519
        ],
        [
          1.7742371182311878,
          0.06519186289468981,
          0.0624035402834049
        ],
        [
          0.6205115453810732,
          0.09548383437669199,
          -0.7283959777452736
        ],
        [
          -0.4544283279933465,
          0.16325386749576487,
          0.5357596964174745
        ],
        [
          -1.6419561465380101,
          1.757874372115149,
          1.5993567564834499
        ],
        [
          -0.0010834879742015566,
          -0.5340273876010043,
          -0.021263694432237377
        ]
      ],
      [
        [
          0.8892372186736491,
          0.1834676477361211,
          0.09801796342029272
        ],
        [
          1.070276758032485,
          1.5746570962456317,
          0.053639465467734466
        ],
        [
          0.3983967930140966,
          -1.117125732757427,
          0.033498960174257575
        ],
        [
          0.49145476148590167,
          0.12517722041864343,
          -1.110793183758436
        ],
        [
          -0.10319310674648752,
          1.6528345232454695,
          0.17775878526281583
        ],
        [
          0.14941474094005064,
          1.3395516974624961,
          0.16714933058714168
        ]
      ]
    ]
  },
  "metrics": {
    "stage1_min_cost": 0.10426904411446386,
    "stage2_min_cost": 0.05455755920050373,
    "mse_train_noise": 0.04208329887417109,
    "mse_train_recovered": 0.027502980774650597,
    "delta_train_pct": 34.64632880401223,
    "mse_test_noise": 0.03574197205136823,
    "mse_test_recovered": 0.020072394922112227,
    "delta_test_pct": 43.84082978615659,
    "mse_train_recovered_pure": 0.004263029915603861,
    "mse_test_recovered_pure": 0.004352150199542424
  },
  "artifacts": {
    "weights_s1_file": "weights_s1_inst03_L3.npy",
    "weights_s2_file": "weights_s2_inst03_L3.npy",
    "circuit_stage1": "circuit_stage1_6q_4l_2t_stacked_L03_inst03.eps",
    "circuit_stage2": "circuit_stage2_6q_4l_2t_stacked_L03_inst03.eps",
    "circuit_full": "circuit_full_6q_4l_2t_stacked_L3_inst03.eps",
    "training_cost_s1_plot": "training_cost_s1_dec500_enc300_inst03.eps",
    "training_cost_s2_plot": "training_cost_s2_dec500_enc300_inst03.eps",
    "reconstruction_pure_plot": "reconst_pure_dec500_enc300_inst03_L3.eps",
    "reconstruction_noisy_plot": "reconst_noisy_dec500_enc300_inst03_L3.eps"
  }
}