{
  "schema": {
    "name": "stacked_qae_bundle",
    "version": "1.0"
  },
  "timestamp": "2026-02-18 21:26:31",
  "dataset": {
    "id": "mackey_glass_tau30_n200",
    "scale_low": 0.0,
    "scale_high": 1.0,
    "window_size": 6,
    "window_step": 2,
    "split": 0.75
  },
  "run": {
    "instance_id": 5,
    "layer": 3,
    "dec_epochs": 100,
    "enc_epochs": 300,
    "sigma_eval": 0.2,
    "test_seed_fixed": 99123,
    "device_seed": 13049,
    "stage1_time_sec": 34,
    "stage2_time_sec": 268
  },
  "environment": {
    "device": "lightning.qubit",
    "diff_method": "adjoint",
    "interface": "autograd"
  },
  "architecture": {
    "type": "stacked",
    "n_qubits": 6,
    "n_latent": 4,
    "n_trash": 2,
    "rot": "Rxyz"
  },
  "parameters": {
    "weights_stage1": [
      [
        [
          0.0011199755043098945,
          1.352152598346637,
          0.006642950478395609
        ],
        [
          0.0018171256000782889,
          1.31642649449712,
          -1.5417108840439415
        ],
        [
          0.0030464505847573845,
          1.2393576725814617,
          -0.08740205749473405
        ],
        [
          -0.0005737497339710876,
          1.2821144525764039,
          -1.4165892926503674
        ],
        [
          0.0045925245938623575,
          1.4572247508705969,
          0.03278777338104811
        ],
        [
          1.0003598037044503,
          1.7012802905739293,
          0.010575306561681314
        ]
      ],
      [
        [
          1.5289697215466858,
          -0.41782648902859315,
          0.4228341332972375
        ],
        [
          1.5557348930858197,
          -0.20397464152812556,
          1.5175519948454377
        ],
        [
          1.5853711112116433,
          -0.22382575562732943,
          -0.24651986040079482
        ],
        [
          1.4123319590533938,
          -0.26681160969849804,
          0.9816732645504957
        ],
        [
          -0.030654333032618872,
          -0.4546048112677282,
          0.8059438875652788
        ],
        [
          -0.46650902559683544,
          -0.19395133548418317,
          0.151927630125929
        ]
      ],
      [
        [
          0.30870637778652027,
          0.048057453228602505,
          0.25056318688544627
        ],
        [
          -0.3982102298581987,
          0.007900287912046111,
          0.17130071622461066
        ],
        [
          0.8612411573253385,
          -0.011883687170459973,
          0.17347192676613507
        ],
        [
          0.024080317635802737,
          0.02665180992618514,
          0.024513380633281134
        ],
        [
          -0.18456832231604503,
          0.015297142972320214,
          0.1446652355488906
        ],
        [
          0.15793848948129846,
          -0.0014441026524932342,
          0.11712418405521226
        ]
      ]
    ],
    "weights_stage2": [
      [
        [
          0.8456867799041989,
          -0.550834617796837,
          1.996693877876516
        ],
        [
          0.17587131285610594,
          0.3973594509877612,
          2.3958559366592325
        ],
        [
          0.19558229389117546,
          1.734051353898624,
          0.11702251144865428
        ],
        [
          3.4067990395526326,
          -1.403080579180759,
          -1.4598412096419362
        ],
        [
          -2.9727419188821966,
          1.5290832060141626,
          -0.2673739661665134
        ],
        [
          -0.7385954433896413,
          1.5742757209528062,
          -0.12941429181521602
        ]
      ],
      [
        [
          1.3118544046433465,
          -0.5567506834242498,
          2.0441201972827208
        ],
        [
          3.803237099719384,
          1.5126494809134312,
          4.081690511729469
        ],
        [
          2.233829815715786,
          -0.8743185993027619,
          -0.5732629245032246
        ],
        [
          0.3114591995578317,
          -0.07267109896450805,
          2.3740573944490055
        ],
        [
          -0.004692248166674678,
          -1.5376574463802584,
          0.5615008669921088
        ],
        [
          -0.8730737761903209,
          0.32727654375505344,
          0.7620708973281232
        ]
      ],
      [
        [
          0.14767686493903656,
          -0.29551705739798456,
          0.5604406656124015
        ],
        [
          -1.0892162777948016,
          0.19524444667703109,
          1.0309497053927474
        ],
        [
          0.7153697721423969,
          1.4510120600022207,
          -1.6312978444753063
        ],
        [
          0.029954025531918636,
          0.9748504277683188,
          0.476408757350928
        ],
        [
          -0.8364982715681839,
          0.43173322957756916,
          0.14640239803039284
        ],
        [
          1.5337486527029325,
          -0.9762194263123604,
          0.15685625223270913
        ]
      ],
      [
        [
          0.0011199755043098945,
          0.09654777917757532,
          -2.2168922611563446
        ],
        [
          0.0018171253509220529,
          1.5805491270047094,
          -0.029568304312205765
        ],
        [
          0.003046450300812212,
          1.6303791930197424,
          -0.0531161322634488
        ],
        [
          -0.0005737494374287406,
          1.3503422330641273,
          -1.5640060744215387
        ],
        [
          0.004592525345804003,
          1.6038342288205718,
          0.04666298128131825
        ],
        [
          1.0003598032908718,
          1.6093355891248846,
          0.0318058604595252
        ]
      ],
      [
        [
          1.6128418853441608,
          0.14964205232366934,
          1.473338601834304
        ],
        [
          -0.008655380897798534,
          -1.6259837699867532,
          8.235486117118116
        ],
        [
          1.792068298488564,
          -2.0909754017357067,
          -0.17561174240163954
        ],
        [
          1.4164704117154692,
          0.45507290061652605,
          1.746495029207568
        ],
        [
          -0.02135592830486816,
          -1.5680939660424282,
          3.237748213097671
        ],
        [
          -1.591215639235842,
          -0.1799117917187707,
          1.7466995854452745
        ]
      ],
      [
        [
          1.623388564257735,
          -0.33498891797187086,
          -0.05931429184151677
        ],
        [
          -0.3653855117549621,
          -0.003965368748740809,
          0.16956355374310633
        ],
        [
          0.9491586487102641,
          0.01029705091823307,
          0.13373985858863377
        ],
        [
          -0.03200625358615961,
          1.2369459849782478,
          -0.4273819960843662
        ],
        [
          -0.616850705982167,
          0.06691560822972692,
          0.14292807306739103
        ],
        [
          -0.06501594820935135,
          0.012351883817221182,
          0.07739211587771472
        ]
      ]
    ]
  },
  "metrics": {
    "stage1_min_cost": 0.16772872887084064,
    "stage2_min_cost": 0.06687375208429372,
    "mse_train_noise": 0.04208329887417109,
    "mse_train_recovered": 0.0362259936429649,
    "delta_train_pct": 13.918360461045387,
    "mse_test_noise": 0.03574197205136823,
    "mse_test_recovered": 0.030318669055777396,
    "delta_test_pct": 15.173485636988593,
    "mse_train_recovered_pure": 0.02110559860808008,
    "mse_test_recovered_pure": 0.016691319049667225
  },
  "artifacts": {
    "weights_s1_file": "weights_s1_inst05_L3.npy",
    "weights_s2_file": "weights_s2_inst05_L3.npy",
    "circuit_stage1": "circuit_stage1_6q_4l_2t_stacked_L03_inst05.eps",
    "circuit_stage2": "circuit_stage2_6q_4l_2t_stacked_L03_inst05.eps",
    "circuit_full": "circuit_full_6q_4l_2t_stacked_L3_inst05.eps",
    "training_cost_s1_plot": "training_cost_s1_dec100_enc300_inst05.eps",
    "training_cost_s2_plot": "training_cost_s2_dec100_enc300_inst05.eps",
    "reconstruction_pure_plot": "reconst_pure_dec100_enc300_inst05_L3.eps",
    "reconstruction_noisy_plot": "reconst_noisy_dec100_enc300_inst05_L3.eps"
  }
}