{
  "schema": {
    "name": "stacked_qae_bundle",
    "version": "1.0"
  },
  "timestamp": "2026-02-18 23:41:36",
  "dataset": {
    "id": "mackey_glass_tau30_n200",
    "scale_low": 0.0,
    "scale_high": 1.0,
    "window_size": 6,
    "window_step": 2,
    "split": 0.75
  },
  "run": {
    "instance_id": 6,
    "layer": 3,
    "dec_epochs": 400,
    "enc_epochs": 300,
    "sigma_eval": 0.2,
    "test_seed_fixed": 99123,
    "device_seed": 13050,
    "stage1_time_sec": 138,
    "stage2_time_sec": 271
  },
  "environment": {
    "device": "lightning.qubit",
    "diff_method": "adjoint",
    "interface": "autograd"
  },
  "architecture": {
    "type": "stacked",
    "n_qubits": 6,
    "n_latent": 4,
    "n_trash": 2,
    "rot": "Rxyz"
  },
  "parameters": {
    "weights_stage1": [
      [
        [
          -0.0015685701724053667,
          1.4342170697114107,
          -0.0010617623887169713
        ],
        [
          -0.000554672181448354,
          1.3628051233192642,
          -1.5728699253539504
        ],
        [
          0.0016137866361219944,
          1.2197490745378146,
          3.1396800982507016
        ],
        [
          -0.001144801282534446,
          1.2491290441924905,
          1.5638759961972544
        ],
        [
          0.0031787000360932838,
          1.3377839625707242,
          0.038362401689932484
        ],
        [
          -1.5710999214265895,
          1.5721921987567549,
          0.21368605400832189
        ]
      ],
      [
        [
          1.3628504237207149,
          -0.5288573921304714,
          -0.021401669007869103
        ],
        [
          1.5755935381126853,
          0.18014985372631107,
          1.422499053395857
        ],
        [
          -1.5574942478753395,
          0.22110974914048337,
          0.6788265419638124
        ],
        [
          -1.5871129005909375,
          -0.2438531546120607,
          -0.15397403089013592
        ],
        [
          -0.039700877565065594,
          -0.3678380655313033,
          -0.5165640433602039
        ],
        [
          0.647512422602537,
          0.3287371475360475,
          0.5706816127956634
        ]
      ],
      [
        [
          0.10177923115942875,
          0.11127701162118944,
          0.21259338003779993
        ],
        [
          1.0630627279536262,
          0.01957089353435357,
          0.2264043272281564
        ],
        [
          1.3620134543280449,
          -0.041607338336085,
          0.16765587673551693
        ],
        [
          0.22838132251825397,
          0.21203543332415056,
          0.2835331184992109
        ],
        [
          0.11904156458360503,
          -0.029927348670871767,
          0.0120240095602513
        ],
        [
          0.6471014769243147,
          0.007146436605624784,
          0.1009677158736449
        ]
      ]
    ],
    "weights_stage2": [
      [
        [
          -0.5781431445599842,
          -0.23809234854521677,
          -2.8253445398155344
        ],
        [
          -0.6167378895954526,
          1.5263767103302395,
          -0.05826946262249861
        ],
        [
          1.4867765960782675,
          -0.07460467389415876,
          3.3463438281719453
        ],
        [
          0.7215824534126531,
          0.0017408055630211377,
          3.6996596400981274
        ],
        [
          0.018249209051372943,
          1.397753846109245,
          -1.777136127701688
        ],
        [
          0.3705467417989793,
          1.526663144375501,
          0.385590665056966
        ]
      ],
      [
        [
          1.925137186056945,
          -0.24118828718965207,
          -0.33336011339067784
        ],
        [
          4.799412271642839,
          -0.6409617562710747,
          -1.3351118966514164
        ],
        [
          -1.9949155061043384,
          0.008473237750176391,
          1.911176921182375
        ],
        [
          -2.5400510241136534,
          0.021105127704012724,
          0.8684683538575738
        ],
        [
          1.563827401007247,
          -0.7459198783691559,
          -3.1394116465567063
        ],
        [
          1.6660642365108658,
          -0.10631364365936406,
          0.03760811634207505
        ]
      ],
      [
        [
          -1.2481265614823724,
          0.0889211998873168,
          0.3609607302046967
        ],
        [
          1.8663559396818357,
          -1.280523561446487,
          1.7895214585623123
        ],
        [
          1.6717681080343383,
          -1.8133488855872024,
          -1.5497139973020404
        ],
        [
          0.33575352316757245,
          0.21956267438421523,
          -1.2744034569677172
        ],
        [
          0.7961912115814613,
          0.06340553830271292,
          0.3595742198827745
        ],
        [
          0.09732270695165829,
          -0.008707311158812696,
          -0.403884314441809
        ]
      ],
      [
        [
          -0.0015685701724053667,
          -0.3496634507321623,
          0.700591243965234
        ],
        [
          -0.0005546721122422558,
          -0.8124525551732819,
          1.5287742110774434
        ],
        [
          0.0016137866156364302,
          0.0031798509893580873,
          2.320226873668909
        ],
        [
          -0.0011448018539041583,
          -0.1966162996438384,
          -0.6309203618788746
        ],
        [
          0.0031786999303756573,
          1.5464162790967684,
          -1.561527771916091
        ],
        [
          -1.5710999215664219,
          1.8928636534569525,
          0.22614924627647126
        ]
      ],
      [
        [
          1.5316525249042976,
          0.23746424948223102,
          -0.07092152024629035
        ],
        [
          0.48045116308537555,
          0.0652337608008094,
          -0.08708745205007651
        ],
        [
          -0.912054976386101,
          0.03242950801066639,
          2.7938917282090507
        ],
        [
          -4.348436242221353,
          -0.05402943039492364,
          -3.6117654194750672
        ],
        [
          1.5583259846616475,
          -1.5061583769049405,
          3.0378299505325668
        ],
        [
          1.2737760661363415,
          0.09117004806748501,
          -0.08553696863057578
        ]
      ],
      [
        [
          0.7513220985201905,
          0.05195699356594211,
          0.06422602987092131
        ],
        [
          1.7542881091740896,
          -0.36357685807880274,
          -0.12114588309436948
        ],
        [
          2.266712718278874,
          -1.0674729951082529,
          0.6725079070509723
        ],
        [
          -1.0585524236512929,
          -0.010708919886837158,
          1.841469693966141
        ],
        [
          0.08826676878472034,
          -0.47072689442604765,
          -0.3355262007622713
        ],
        [
          -0.027476429965536613,
          -0.8806382779314993,
          0.6058197461891
        ]
      ]
    ]
  },
  "metrics": {
    "stage1_min_cost": 0.16567680659060346,
    "stage2_min_cost": 0.07856438215196151,
    "mse_train_noise": 0.04208329887417109,
    "mse_train_recovered": 0.04402602797208333,
    "delta_train_pct": -4.616389755282735,
    "mse_test_noise": 0.03574197205136823,
    "mse_test_recovered": 0.04097036472931313,
    "delta_test_pct": -14.62815949391565,
    "mse_train_recovered_pure": 0.02917736532937775,
    "mse_test_recovered_pure": 0.022925528545628036
  },
  "artifacts": {
    "weights_s1_file": "weights_s1_inst06_L3.npy",
    "weights_s2_file": "weights_s2_inst06_L3.npy",
    "circuit_stage1": "circuit_stage1_6q_4l_2t_stacked_L03_inst06.eps",
    "circuit_stage2": "circuit_stage2_6q_4l_2t_stacked_L03_inst06.eps",
    "circuit_full": "circuit_full_6q_4l_2t_stacked_L3_inst06.eps",
    "training_cost_s1_plot": "training_cost_s1_dec400_enc300_inst06.eps",
    "training_cost_s2_plot": "training_cost_s2_dec400_enc300_inst06.eps",
    "reconstruction_pure_plot": "reconst_pure_dec400_enc300_inst06_L3.eps",
    "reconstruction_noisy_plot": "reconst_noisy_dec400_enc300_inst06_L3.eps"
  }
}