{
  "schema": {
    "name": "stacked_qae_bundle",
    "version": "1.0"
  },
  "timestamp": "2026-02-18 21:31:36",
  "dataset": {
    "id": "mackey_glass_tau30_n200",
    "scale_low": 0.0,
    "scale_high": 1.0,
    "window_size": 6,
    "window_step": 2,
    "split": 0.75
  },
  "run": {
    "instance_id": 6,
    "layer": 3,
    "dec_epochs": 100,
    "enc_epochs": 300,
    "sigma_eval": 0.2,
    "test_seed_fixed": 99123,
    "device_seed": 13050,
    "stage1_time_sec": 34,
    "stage2_time_sec": 269
  },
  "environment": {
    "device": "lightning.qubit",
    "diff_method": "adjoint",
    "interface": "autograd"
  },
  "architecture": {
    "type": "stacked",
    "n_qubits": 6,
    "n_latent": 4,
    "n_trash": 2,
    "rot": "Rxyz"
  },
  "parameters": {
    "weights_stage1": [
      [
        [
          -0.0033787570813271113,
          1.389769499818493,
          0.028383717805570776
        ],
        [
          0.00870323087840871,
          1.3005979959414176,
          -1.377683587812184
        ],
        [
          -0.005684903115004317,
          1.184036549439662,
          2.332375680368549
        ],
        [
          0.0039043738215366434,
          1.2140631137759532,
          0.9489222937930841
        ],
        [
          -0.012903970672221328,
          1.3575957203181177,
          -0.19384081068102468
        ],
        [
          -1.2121101753072738,
          1.616748325005181,
          0.10940879372903041
        ]
      ],
      [
        [
          1.1997609148595794,
          -0.480594929958377,
          1.1234477531790055
        ],
        [
          1.3793698053373946,
          0.11837638217669678,
          0.9240293441836114
        ],
        [
          0.12422946207561313,
          0.1443356085611487,
          -0.3414776123648989
        ],
        [
          -0.7693640360374232,
          -0.22501037545088767,
          0.24550890210011703
        ],
        [
          0.17913174269633872,
          -0.3792069900669299,
          -0.022118696520074536
        ],
        [
          1.0566341228794824,
          0.2869262110786126,
          0.48399296069147435
        ]
      ],
      [
        [
          0.10177923117344877,
          0.11127701157283067,
          0.21259338003922643
        ],
        [
          -0.1326314774053372,
          0.016390297973321238,
          0.22640432735750005
        ],
        [
          0.7077906271696015,
          -0.04135723680987591,
          0.16765587695184422
        ],
        [
          0.22838132240988374,
          0.21203543336501518,
          0.28353311837617134
        ],
        [
          -0.20228758732179558,
          0.004194056525264562,
          0.012024009707073237
        ],
        [
          0.4226162497982872,
          -0.011136564076619993,
          0.10096771595629088
        ]
      ]
    ],
    "weights_stage2": [
      [
        [
          -1.2208172300294526,
          -0.4037560838159049,
          1.0932664757171697
        ],
        [
          1.4420932014744305,
          1.9607071591407688,
          0.08479283968872318
        ],
        [
          1.8952661077466177,
          0.10413513249213889,
          -0.2542581398908426
        ],
        [
          -2.6101053418407165,
          0.07092416980890341,
          1.2815649292441362
        ],
        [
          0.06662170736041143,
          1.4144998365010852,
          1.5268872088087047
        ],
        [
          -0.22345724201528497,
          1.6392130959917877,
          -0.5190265498079254
        ]
      ],
      [
        [
          1.035694617043144,
          0.33831540106426183,
          3.631092311859108
        ],
        [
          1.9500410228051004,
          -0.6424575399828483,
          1.540436056779235
        ],
        [
          0.13098811570018606,
          0.060785806021641395,
          -0.11744703288915265
        ],
        [
          -0.9021404019003407,
          0.014992725398487295,
          -0.8019040683213241
        ],
        [
          -2.064661997306753,
          -0.8223649624324196,
          0.11079639461009308
        ],
        [
          1.8614246134645596,
          0.47445353240809646,
          -0.363444068206139
        ]
      ],
      [
        [
          2.014707620927041,
          0.18696236686868148,
          0.7277453501102227
        ],
        [
          -0.43745983145409806,
          0.13473448290994902,
          0.1513399808529132
        ],
        [
          1.0854520369189364,
          0.17206600435231886,
          -1.3518683263791358
        ],
        [
          1.5515885122606499,
          0.026977623656269517,
          1.598862832983958
        ],
        [
          -0.3989157639060922,
          0.015399082571729613,
          -0.23379047027639377
        ],
        [
          0.2083007745696703,
          -0.02347364649123696,
          0.6904220266197033
        ]
      ],
      [
        [
          -0.0033787570813271113,
          0.45151925137899446,
          -2.189054708382031
        ],
        [
          0.008703230756425557,
          -0.30631505744147114,
          -5.151733383723339
        ],
        [
          -0.005684903291404691,
          -0.0026070554369539015,
          3.503510528632029
        ],
        [
          0.003904373816352418,
          0.27432756571404576,
          -2.825122792521527
        ],
        [
          -0.012903970995525302,
          1.5545324057574808,
          1.4772792275378905
        ],
        [
          -1.2121101747065697,
          1.465865909717437,
          -0.06136923871594386
        ]
      ],
      [
        [
          2.89993896686156,
          -0.028482997325975312,
          1.8874982581106066
        ],
        [
          2.83806195526669,
          0.2773790684481077,
          1.4855141431853531
        ],
        [
          -0.745347167210355,
          0.024323659395286898,
          -1.0844839093341223
        ],
        [
          0.048259060390279926,
          0.01226407057433153,
          0.08311839290201718
        ],
        [
          -1.4814148850404305,
          -1.5573740563672676,
          -2.0703598183671756
        ],
        [
          1.2883996594740925,
          -0.1049181203491229,
          0.7334421763405923
        ]
      ],
      [
        [
          6.573868560176739,
          -0.04086798478105194,
          -0.30255859003178687
        ],
        [
          -0.9101222792258581,
          0.23043893622161643,
          0.47221880734097404
        ],
        [
          1.073161888267902,
          -1.1551965095036898,
          -0.42179843371155873
        ],
        [
          -2.0406808414406243,
          0.12857011217565242,
          -1.031796596231608
        ],
        [
          -0.46008113049221766,
          0.22084432380710878,
          0.2578384896905425
        ],
        [
          0.016686781917157088,
          -0.9096144135326752,
          -0.4884865947071184
        ]
      ]
    ]
  },
  "metrics": {
    "stage1_min_cost": 0.17144408785767357,
    "stage2_min_cost": 0.08081938749994835,
    "mse_train_noise": 0.04208329887417109,
    "mse_train_recovered": 0.038180549508920046,
    "delta_train_pct": 9.273867471559793,
    "mse_test_noise": 0.03574197205136823,
    "mse_test_recovered": 0.031110186571872363,
    "delta_test_pct": 12.958953335980128,
    "mse_train_recovered_pure": 0.023313678065040103,
    "mse_test_recovered_pure": 0.017771122986797554
  },
  "artifacts": {
    "weights_s1_file": "weights_s1_inst06_L3.npy",
    "weights_s2_file": "weights_s2_inst06_L3.npy",
    "circuit_stage1": "circuit_stage1_6q_4l_2t_stacked_L03_inst06.eps",
    "circuit_stage2": "circuit_stage2_6q_4l_2t_stacked_L03_inst06.eps",
    "circuit_full": "circuit_full_6q_4l_2t_stacked_L3_inst06.eps",
    "training_cost_s1_plot": "training_cost_s1_dec100_enc300_inst06.eps",
    "training_cost_s2_plot": "training_cost_s2_dec100_enc300_inst06.eps",
    "reconstruction_pure_plot": "reconst_pure_dec100_enc300_inst06_L3.eps",
    "reconstruction_noisy_plot": "reconst_noisy_dec100_enc300_inst06_L3.eps"
  }
}