{
  "schema": {
    "name": "sidekick_qae_bundle",
    "version": "1.0"
  },
  "timestamp": "2025-12-02 00:00:17",
  "dataset": {
    "id": "mackey_glass_tau17_n200",
    "scale_low": 0.0,
    "scale_high": 1.0,
    "window_size": 6,
    "window_step": 2,
    "split": 0.75
  },
  "run": {
    "instance_id": 4,
    "layer": 4,
    "sigma_eval": 0.2,
    "test_seed_fixed": 99123,
    "device_seed": 14048,
    "stage1_time_sec": 248,
    "stage2_time_sec": 455
  },
  "environment": {
    "device": "lightning.qubit",
    "diff_method": "adjoint",
    "interface": "autograd"
  },
  "architecture": {
    "type": "sidekick",
    "n_qubits": 6,
    "n_latent": 4,
    "n_trash": 2,
    "rot": "Rxyz"
  },
  "parameters": {
    "weights_stage1": [
      [
        [
          -0.005107355320681709,
          0.41540890019467186,
          -0.0014698527718407378
        ],
        [
          -1.5723172912282921,
          -1.5782288425929687,
          1.604594276857989
        ],
        [
          -0.11127337570057713,
          -0.2219296670273842,
          0.10917649521887468
        ],
        [
          0.08718109925252505,
          0.27349071487196447,
          -1.7243883034431002
        ],
        [
          -1.5513808499269202,
          -1.5255667227104799,
          0.022364855972859747
        ],
        [
          0.012542940251600227,
          -1.6000134682653246,
          1.5450267485196592
        ]
      ],
      [
        [
          1.136860701984799,
          -0.026335834930225108,
          -1.1359291584471332
        ],
        [
          0.6513329338817258,
          -0.0011426568407212306,
          -0.05200230967530931
        ],
        [
          -0.39056613184534755,
          -0.1436512287065628,
          0.17916965962813738
        ],
        [
          -0.19723528019736744,
          -1.6467701849692562,
          -1.497111193982461
        ],
        [
          1.5703695011514691,
          0.8323513888186094,
          -1.566076536379366
        ],
        [
          1.5656132135974226,
          1.6186196949626797,
          0.0008878668304251781
        ]
      ],
      [
        [
          0.9325021306349033,
          0.4083156391224726,
          1.541738476723983
        ],
        [
          1.6063486283568893,
          1.5038780207608775,
          1.5448825449781018
        ],
        [
          1.279462861857375,
          -0.005980563331110933,
          -0.13712062748362525
        ],
        [
          0.004393483008521817,
          1.5777919989028497,
          -0.5040887215889537
        ],
        [
          0.15499551441343992,
          1.5706018284353453,
          0.011253427813695331
        ],
        [
          0.00147489023621055,
          1.5678575281941145,
          0.1570641342249229
        ]
      ],
      [
        [
          -0.6663511587113542,
          -0.22798715995577598,
          0.23873921724407682
        ],
        [
          -0.01157955462275513,
          1.4274527803004708,
          0.17402995555911255
        ],
        [
          0.10920874103551238,
          0.08978901352742032,
          0.1372245090666842
        ],
        [
          0.1472320836311372,
          0.2878159993462178,
          0.21602070158568173
        ],
        [
          1.6837106786557103,
          -0.21525288462448944,
          0.14106903476811009
        ],
        [
          -0.012737025278753887,
          2.4571163069379316,
          0.12625514133275717
        ]
      ]
    ],
    "weights_stage2": [
      [
        [
          -0.02416917724847058,
          0.47916205322197863,
          -0.0043494235635690055
        ],
        [
          -1.5414323673947865,
          -1.5847935867335865,
          1.5861831848405106
        ],
        [
          -0.2905006889666047,
          -0.17350396361835788,
          0.25666213043496455
        ],
        [
          0.3204486185316285,
          0.2038448954582401,
          -1.8747890626341972
        ],
        [
          -1.562352667866053,
          -1.519218295040881,
          0.1811952482327967
        ],
        [
          -0.03051005915741585,
          -1.7583646298441817,
          1.5458846570608566
        ]
      ],
      [
        [
          1.5466295020877006,
          0.02037827486673615,
          -1.552117775481134
        ],
        [
          0.7473966166556361,
          -0.03264850627811491,
          -0.18679506404620208
        ],
        [
          -0.38031554857887906,
          -0.10834436693117189,
          0.17819595515998254
        ],
        [
          -0.1803089722509481,
          -1.6527805324016736,
          -1.3902991162315863
        ],
        [
          1.5381731712730715,
          0.7579322596117062,
          -1.5458451388152785
        ],
        [
          1.565483331095607,
          1.5982584517787999,
          0.002724378533861904
        ]
      ],
      [
        [
          1.0043091944460492,
          0.560343935767428,
          1.5408472156642146
        ],
        [
          1.5941036793371073,
          0.5331488726043209,
          1.5226390080797265
        ],
        [
          1.2115653416835126,
          -0.00655334983897442,
          0.0150996510685215
        ],
        [
          0.012081597162393166,
          1.5760185931205428,
          -0.503841977553967
        ],
        [
          0.18469869151447507,
          1.5554922355179774,
          0.02585721962202151
        ],
        [
          0.015832667347086476,
          1.5488906487176182,
          0.1612429976566235
        ]
      ],
      [
        [
          -0.666104414676369,
          -0.20444354511831617,
          0.735629314610875
        ],
        [
          0.003024237185567257,
          1.4224934714073136,
          -0.0052037745892552275
        ],
        [
          0.1133876044672181,
          0.08736366416360963,
          0.05488096401447351
        ],
        [
          0.5839872694375685,
          0.2542973479337586,
          -0.3141867529296227
        ],
        [
          1.6150103375971938,
          -1.1626598471647165,
          -0.3044391093597521
        ],
        [
          -0.035726339081982736,
          2.625551267164727,
          0.28170410783788624
        ]
      ]
    ]
  },
  "metrics": {
    "stage1_min_cost": 0.07177304752340705,
    "stage2_min_cost": 0.20120354277533484,
    "mse_train_noise": 0.0400301695648753,
    "mse_train_recovered": 0.027532467214394285,
    "delta_train_pct": 31.220707996818465,
    "mse_test_noise": 0.04102832521598486,
    "mse_test_recovered": 0.03541522117073728,
    "delta_test_pct": 13.681045998584118,
    "mse_train_recovered_pure": 0.005284884790445581,
    "mse_test_recovered_pure": 0.006523126575817175
  },
  "artifacts": {
    "weights_s1_file": "weights_s1_inst04_L4.npy",
    "weights_s2_file": "weights_s2_inst04_L4.npy",
    "circuit_stage1": "circuit_stage1_6q_4l_2t_sidekick_L4_inst04.eps",
    "circuit_stage2": "circuit_stage2_6q_4l_2t_sidekick_L4_inst04.eps",
    "circuit_full": "circuit_full_6q_4l_2t_sidekick_L4_inst04.eps",
    "training_cost_s1_plot": "training_cost_s1_inst04_L4.eps",
    "training_cost_s2_plot": "training_cost_s2_inst04_L4.eps",
    "reconstruction_pure_plot": "reconstruction_pure_inst04_L4.eps",
    "reconstruction_noisy_plot": "reconstruction_noisy_inst04_L4.eps"
  }
}