{
  "schema": {
    "name": "sidekick_qae_bundle",
    "version": "1.0"
  },
  "timestamp": "2025-12-01 23:25:14",
  "dataset": {
    "id": "mackey_glass_tau17_n200",
    "scale_low": 0.0,
    "scale_high": 1.0,
    "window_size": 6,
    "window_step": 2,
    "split": 0.75
  },
  "run": {
    "instance_id": 1,
    "layer": 4,
    "sigma_eval": 0.2,
    "test_seed_fixed": 99123,
    "device_seed": 14045,
    "stage1_time_sec": 234,
    "stage2_time_sec": 452
  },
  "environment": {
    "device": "lightning.qubit",
    "diff_method": "adjoint",
    "interface": "autograd"
  },
  "architecture": {
    "type": "sidekick",
    "n_qubits": 6,
    "n_latent": 4,
    "n_trash": 2,
    "rot": "Rxyz"
  },
  "parameters": {
    "weights_stage1": [
      [
        [
          -1.5703508306650926,
          -1.5683564324310848,
          1.6038466642862015
        ],
        [
          0.00038843270880463106,
          3.534186048093128,
          -1.5700299724697677
        ],
        [
          0.0008346564511836402,
          0.9231303552826797,
          0.0020359455174599945
        ],
        [
          -3.139765251690984,
          0.3869377423032649,
          1.5700396748721512
        ],
        [
          -1.559036507086606,
          -1.577975109718936,
          0.30180386366868944
        ],
        [
          -0.12895533433853784,
          -0.9836227593828955,
          0.06835838724165641
        ]
      ],
      [
        [
          -1.5990961221009414,
          1.8468324580864823,
          1.5421941178566487
        ],
        [
          0.0291659457102951,
          -0.044148943787880236,
          -0.417320696123286
        ],
        [
          0.06353439290159513,
          0.018775977475593165,
          0.0734533601202914
        ],
        [
          -1.5770218095581279,
          -0.8236650213157388,
          1.817880898152454
        ],
        [
          0.36978714801431306,
          0.1140825569326536,
          1.199530614646858
        ],
        [
          -0.3021576326350294,
          -0.0015245592606729442,
          0.30040149132629296
        ]
      ],
      [
        [
          -0.397823850799637,
          -0.009997381122044636,
          -0.1876489230625071
        ],
        [
          0.2118428970018087,
          0.002499057440253723,
          -0.13952910060051513
        ],
        [
          -0.05589024326512779,
          1.199909409270477,
          0.020753415242733157
        ],
        [
          0.0029960795294447554,
          1.595008553811892,
          -0.008826778424380309
        ],
        [
          -0.18523350394235194,
          -0.0006991709378726192,
          1.059758564308104
        ],
        [
          0.003959534185213075,
          1.5709343285598367,
          0.12510399162798858
        ]
      ],
      [
        [
          0.003511791616868874,
          1.17096533138311,
          0.22824977774180227
        ],
        [
          0.7900739114203543,
          0.03830561461757647,
          0.14267084396843938
        ],
        [
          0.22180567612904417,
          0.012756788809665404,
          0.10929999209246008
        ],
        [
          0.01664622704362121,
          0.0654709959795191,
          0.26114252492533174
        ],
        [
          -0.3777728130179533,
          1.5820962882648035,
          0.2310053653289742
        ],
        [
          -1.5328092345058135,
          1.5169631108654174,
          0.12060189152587536
        ]
      ]
    ],
    "weights_stage2": [
      [
        [
          -1.5610257684767994,
          -1.54176899531411,
          1.504595162005492
        ],
        [
          -0.021583509704301798,
          3.50990455696194,
          -1.622494738532734
        ],
        [
          0.0033090126180407714,
          0.9528139512352717,
          0.025020704093729994
        ],
        [
          -3.137642533699963,
          0.31461037788479534,
          1.5645989424005287
        ],
        [
          -1.5612562811225852,
          -1.5644338555399158,
          0.20945309021782524
        ],
        [
          -0.11515355847418883,
          -0.9262441959426508,
          0.0637053608064771
        ]
      ],
      [
        [
          -1.587927469787617,
          1.7570277486649406,
          1.5696526050139363
        ],
        [
          -0.07634961681731786,
          -0.08013747713813546,
          -0.15784122892470853
        ],
        [
          -0.7155145883951959,
          0.0462094613484124,
          0.8373260706818655
        ],
        [
          -1.593168169938425,
          -0.8193216886109197,
          1.7821588621115432
        ],
        [
          0.5712414618170467,
          0.07217143196499692,
          0.998713308025424
        ],
        [
          0.39430995527484886,
          -0.009449751450723791,
          -0.38578887015583163
        ]
      ],
      [
        [
          -0.48148702884575995,
          0.017192995637353017,
          -0.10965720871104344
        ],
        [
          0.1869582910495026,
          -0.005333758334121978,
          -0.20775961392691125
        ],
        [
          -1.4737466019445957,
          1.5317819392767749,
          0.32682971061597893
        ],
        [
          0.010271625848735004,
          1.5961657848454882,
          -0.011342637078423983
        ],
        [
          1.1425677997348664,
          -0.014415375036393329,
          1.1158676206011198
        ],
        [
          -0.002831399526966656,
          1.5689048483804846,
          0.1600788813774696
        ]
      ],
      [
        [
          0.0009959329628127203,
          1.254366300408752,
          1.341689755867666
        ],
        [
          0.8461829677133781,
          -0.010233267185539881,
          -0.03045416747268903
        ],
        [
          0.256780565878526,
          -0.0071619891368892115,
          0.0365734316704954
        ],
        [
          -0.032225296867303264,
          0.06402414904564736,
          0.3515189382303001
        ],
        [
          -0.2555394206882518,
          1.550436596318167,
          -0.8777488982868558
        ],
        [
          -1.4625215760242702,
          0.10860160964729074,
          -1.2471848271871546
        ]
      ]
    ]
  },
  "metrics": {
    "stage1_min_cost": 0.09520260470054955,
    "stage2_min_cost": 0.23626225662608288,
    "mse_train_noise": 0.0400301695648753,
    "mse_train_recovered": 0.025882094184415526,
    "delta_train_pct": 35.34353097738082,
    "mse_test_noise": 0.04102832521598486,
    "mse_test_recovered": 0.028510315621583075,
    "delta_test_pct": 30.510652161655138,
    "mse_train_recovered_pure": 0.008983319303973742,
    "mse_test_recovered_pure": 0.01620688206731391
  },
  "artifacts": {
    "weights_s1_file": "weights_s1_inst01_L4.npy",
    "weights_s2_file": "weights_s2_inst01_L4.npy",
    "circuit_stage1": "circuit_stage1_6q_4l_2t_sidekick_L4_inst01.eps",
    "circuit_stage2": "circuit_stage2_6q_4l_2t_sidekick_L4_inst01.eps",
    "circuit_full": "circuit_full_6q_4l_2t_sidekick_L4_inst01.eps",
    "training_cost_s1_plot": "training_cost_s1_inst01_L4.eps",
    "training_cost_s2_plot": "training_cost_s2_inst01_L4.eps",
    "reconstruction_pure_plot": "reconstruction_pure_inst01_L4.eps",
    "reconstruction_noisy_plot": "reconstruction_noisy_inst01_L4.eps"
  }
}