{
  "schema": {
    "name": "monolith_qae_bundle",
    "version": "1.0"
  },
  "timestamp": "2025-12-03 00:26:01",
  "dataset": {
    "id": "mackey_glass_tau17_n200",
    "scale_low": 0.0,
    "scale_high": 1.0,
    "window_size": 6,
    "window_step": 2,
    "split": 0.75
  },
  "run": {
    "instance_id": 5,
    "layer": 5,
    "sigma_eval": 0.2,
    "test_seed_fixed": 99123,
    "device_seed": 15049,
    "training_time_sec": 396
  },
  "environment": {
    "device": "lightning.qubit",
    "diff_method": "adjoint",
    "interface": "autograd"
  },
  "architecture": {
    "type": "monolith",
    "n_qubits": 6,
    "n_latent": 4,
    "n_trash": 2,
    "n_extra": 0,
    "rot": "Rxyz"
  },
  "parameters": {
    "weights": [
      [
        [
          1.726809779805829,
          -1.038364811515337,
          1.9745345837088992
        ],
        [
          0.07646170905048515,
          -0.8454342258119932,
          0.5964023934219482
        ],
        [
          0.008412187290308404,
          -1.4269761160268828,
          -2.5942347402117574
        ],
        [
          0.13481706526281936,
          -0.805968532465381,
          1.2050440592739653
        ],
        [
          -0.405602385759494,
          -0.8351623693103651,
          -0.6711699473659136
        ],
        [
          0.29304419948866123,
          1.6595275374949314,
          -0.3373518902386287
        ]
      ],
      [
        [
          -1.7110715701643215,
          0.4407672349222012,
          -0.47958364477545407
        ],
        [
          0.1880826100307019,
          -0.0023469850706894996,
          0.5551337969878902
        ],
        [
          1.4377235667156985,
          0.6551126597120879,
          0.08796443278541154
        ],
        [
          -0.48138453665186887,
          -0.05076681512931428,
          0.2703497634283607
        ],
        [
          -0.45625096069852095,
          0.2976089503049993,
          -1.3939362276801086
        ],
        [
          -0.8475788094018605,
          -0.4676057091989414,
          0.5963909515707378
        ]
      ],
      [
        [
          0.0957176062690106,
          0.5225566432529634,
          0.7986542890083733
        ],
        [
          -1.8818084603298422,
          -0.4977907645831841,
          1.1363480213516894
        ],
        [
          0.8360233172195042,
          0.3005876892712955,
          0.8354640564489034
        ],
        [
          -0.5540814124441793,
          -0.14134793174034774,
          0.6536745186345221
        ],
        [
          1.1866797440542056,
          0.31480318798051177,
          0.8549254480627423
        ],
        [
          -0.3215452309529288,
          -0.41076277899904773,
          0.5494307030916182
        ]
      ],
      [
        [
          0.4648808251036227,
          0.036889878710127895,
          0.26052336682762595
        ],
        [
          1.2502731896086408,
          0.2688494550143785,
          -0.9723251014433902
        ],
        [
          0.20440727808396875,
          -1.3060623722437663,
          -2.1294451497736056
        ],
        [
          2.6725740357898045,
          0.1687483787879818,
          1.1696416078843288
        ],
        [
          -2.516903800849985,
          0.2806085164124232,
          -1.5995118661964396
        ],
        [
          -0.28486013639329866,
          -0.1697139723107938,
          -2.4935641929759877
        ]
      ],
      [
        [
          -0.12936861570779767,
          0.182239585820323,
          0.3426010126187753
        ],
        [
          2.9425447551840618,
          1.6521572787770633,
          0.9396818524781736
        ],
        [
          -0.2349813883047061,
          0.029555361273069174,
          1.4804919038068747
        ],
        [
          0.5708030465525777,
          -0.968781389437663,
          1.2491760898618653
        ],
        [
          -1.2445688910237285,
          0.29526732207633194,
          0.22900033279852297
        ],
        [
          0.17329565888229975,
          1.61359173684598,
          1.9828596115135122
        ]
      ],
      [
        [
          0.36633297583986635,
          -1.5615633541074003,
          -0.6137565907249745
        ],
        [
          0.0021727529640466533,
          0.05568359006903146,
          7.6623650352287935
        ],
        [
          0.026972069206602653,
          0.02905678762429337,
          1.8116960582328765
        ],
        [
          0.5568637066044848,
          0.037800391289403594,
          7.478457330866683
        ],
        [
          0.4824621331529165,
          -0.057910798896523084,
          -1.2726065516846683
        ],
        [
          0.442687745135795,
          3.2115813708049843,
          -2.4658062766072164
        ]
      ],
      [
        [
          -2.7706871594306475,
          -0.05452668496399957,
          -2.4261923713996283
        ],
        [
          -1.0253939890809025,
          0.07872244029864042,
          0.11115219898232251
        ],
        [
          0.38431397111278237,
          -0.0006185731443645063,
          0.8142514760371748
        ],
        [
          1.9636359024222976,
          0.2613117616328124,
          1.4656953999766122
        ],
        [
          0.9359817152839033,
          -0.06464591421577098,
          1.1971326849981985
        ],
        [
          -0.2446291649910062,
          -0.013723815226629486,
          -0.06178463394441037
        ]
      ],
      [
        [
          -5.053855929063604,
          0.43134021958102586,
          0.013290632436109388
        ],
        [
          -2.0463937223020925,
          0.021702471324508685,
          -3.915981908734921
        ],
        [
          1.3026130839987373,
          -0.29546852760788855,
          0.26597332845416827
        ],
        [
          0.5285918905794988,
          0.008340059674423427,
          0.42932465515983853
        ],
        [
          1.3266888753956914,
          -0.07260466612179667,
          1.482419391961378
        ],
        [
          -0.13477205295461134,
          -0.47266831937854886,
          1.693975979879903
        ]
      ],
      [
        [
          0.5104116596874883,
          0.012074273099404453,
          -0.2788909647362295
        ],
        [
          1.4454968762081155,
          -0.11673835771141701,
          1.269911644908594
        ],
        [
          1.4072617539897778,
          -1.5370148468077163,
          0.5920043126966956
        ],
        [
          -0.13399548441200673,
          -0.5935434559219723,
          -0.28417976426475877
        ],
        [
          3.5430864689514876,
          0.037585726357448765,
          1.487884260905882
        ],
        [
          1.1024650790874582,
          -0.0026511264743649754,
          -0.753906822631969
        ]
      ],
      [
        [
          -0.04646496007112388,
          0.03227957224247811,
          0.31373015685003086
        ],
        [
          0.007133488621925908,
          1.4525403527809209,
          0.836340524489832
        ],
        [
          0.7091821722434047,
          0.14106879128934185,
          -0.6253502002154221
        ],
        [
          1.786594104687545,
          -0.4415553719606579,
          0.9120225245135192
        ],
        [
          1.0960800762603482,
          -0.08878184277676486,
          0.5973379196591531
        ],
        [
          0.1836631861566569,
          0.018064277626706277,
          -0.16360693525159425
        ]
      ]
    ]
  },
  "metrics": {
    "mse_train_noise": 0.0400301695648753,
    "mse_train_recovered": 0.016926088669085983,
    "delta_train_pct": 57.71667006892252,
    "mse_test_noise": 0.04102832521598486,
    "mse_test_recovered": 0.018127106063237693,
    "delta_test_pct": 55.8180696681831,
    "mse_train_recovered_pure": 0.006930768310464417,
    "mse_test_recovered_pure": 0.009779974946456386,
    "min_train_cost": 0.0079601398127525
  },
  "artifacts": {
    "weights_file": "weights_inst05_L5.npy",
    "circuit_diagram": "circuit_6q_4l_2t_L5_inst05.eps",
    "training_cost_plot": "training_cost_inst05_L5.eps",
    "cost_history": "cost_inst05_L5.json",
    "reconstruction_pure_plot": "reconstruction_pure_inst05_L5.eps",
    "reconstruction_noisy_plot": "reconstruction_noisy_inst05_L5.eps"
  }
}