{
  "schema": {
    "name": "stacked_qae_bundle",
    "version": "1.0"
  },
  "timestamp": "2025-12-04 12:00:47",
  "dataset": {
    "id": "mackey_glass_tau30_n200",
    "scale_low": 0.0,
    "scale_high": 1.0,
    "window_size": 6,
    "window_step": 2,
    "split": 0.75
  },
  "run": {
    "instance_id": 7,
    "layer": 4,
    "sigma_eval": 0.2,
    "test_seed_fixed": 99123,
    "device_seed": 14051,
    "stage1_time_sec": 255,
    "stage2_time_sec": 281
  },
  "environment": {
    "device": "lightning.qubit",
    "diff_method": "adjoint",
    "interface": "autograd"
  },
  "architecture": {
    "type": "stacked",
    "n_qubits": 6,
    "n_latent": 2,
    "n_trash": 4,
    "rot": "Rxyz"
  },
  "parameters": {
    "weights_stage1": [
      [
        [
          -1.551669493132461,
          -1.5497692644326184,
          -0.04747087710102796
        ],
        [
          -0.0019753261811437522,
          1.5800913545218778,
          -1.5731771596565043
        ],
        [
          1.5594126665644994,
          1.5738376034967287,
          0.1685212767741951
        ],
        [
          0.001801347086668893,
          1.4033136254097136,
          -1.5592271356729182
        ],
        [
          0.00010231515548767003,
          1.2352962321249386,
          -0.05886218027007234
        ],
        [
          -2.7787052834430273,
          0.204390864223752,
          1.2252109084715133
        ]
      ],
      [
        [
          1.8189029134491617,
          0.3586644469532904,
          1.4289418011546389
        ],
        [
          1.3761486919668644,
          -0.5552442425042895,
          -0.34286334147202835
        ],
        [
          1.5654998780038756,
          -0.3932839583834199,
          -0.013655356617412606
        ],
        [
          1.582633415312225,
          -0.16817800958124682,
          -0.08188990225435766
        ],
        [
          1.5680071154833495,
          -0.15575118251109085,
          0.0898288700482286
        ],
        [
          -0.017913114040337807,
          0.24128747706319678,
          0.017470641621986856
        ]
      ],
      [
        [
          0.8157687128124435,
          -1.5145288787584668,
          0.05188866641937817
        ],
        [
          -0.7491403706930622,
          -0.002172903953044591,
          -0.8248980081601979
        ],
        [
          -0.8004192410074955,
          1.5708566951651992,
          -6.580386880530409e-05
        ],
        [
          0.38966045563838,
          0.0023966037848471935,
          0.3172023758245682
        ],
        [
          -0.40032085542523255,
          0.013161289816092095,
          0.20188435347055542
        ],
        [
          1.5363109397695096,
          1.567073442195352,
          -0.05330408140472068
        ]
      ],
      [
        [
          0.1858203752094637,
          0.0029225225095489923,
          0.19122617935877095
        ],
        [
          0.1115782036324767,
          1.0237496761706009,
          0.11302599306032197
        ],
        [
          0.08787430235117243,
          -1.5677831060377825,
          0.08342082053362307
        ],
        [
          -0.006135594289207703,
          1.5743247658333424,
          0.06583417983319702
        ],
        [
          0.23008957380994152,
          -0.00017877077123135192,
          0.2682615612763541
        ],
        [
          1.5513374092177192,
          -1.1383081401631256,
          0.20365656375479152
        ]
      ]
    ],
    "weights_stage2": [
      [
        [
          -1.346352251648469,
          -1.4995688641192966,
          -1.3526532533601818
        ],
        [
          0.18508670951152667,
          1.5768666488078826,
          -1.53460921074103
        ],
        [
          1.1690985606096889,
          1.6678715992496556,
          -0.07126499885659453
        ],
        [
          4.151165868670676,
          1.911656126686421,
          -1.5190847654896587
        ],
        [
          -2.0701758637441086,
          -0.03320525657080951,
          1.0802047153227712
        ],
        [
          -1.3722568789438097,
          -0.5384565300453177,
          -0.0882924618673895
        ]
      ],
      [
        [
          0.33707068890307657,
          0.25579747079288917,
          2.040692570296099
        ],
        [
          1.4240704467670868,
          -1.0695478128709084,
          0.7809076670450046
        ],
        [
          1.7340649041445806,
          -1.1886716100323325,
          -0.1787376740781072
        ],
        [
          1.412586897702859,
          2.983493894000732,
          -0.1936689937732018
        ],
        [
          2.0730577445067477,
          -0.4299414555272152,
          -0.30953022118109896
        ],
        [
          -0.19685937615393584,
          -0.24722273147290988,
          0.05825098821031385
        ]
      ],
      [
        [
          1.1431572184716319,
          -1.5081903795070433,
          0.008448955954710968
        ],
        [
          0.23643309800184364,
          0.44302153374889897,
          -1.2058303230949756
        ],
        [
          -0.1681473977995142,
          1.6053315892602027,
          -0.014671390462649673
        ],
        [
          1.8200455783909792,
          1.5069113268847847,
          0.050334889786704265
        ],
        [
          0.4200618755843526,
          0.17435605198679396,
          -0.0781192262949075
        ],
        [
          1.7476878702400238,
          1.7036158791144445,
          -0.052244756735750075
        ]
      ],
      [
        [
          -0.08104711082839938,
          1.7398267397796545,
          -0.7816248186137581
        ],
        [
          -0.16842537613298414,
          0.9852978787869882,
          0.03989889181908478
        ],
        [
          0.08893362702014322,
          -1.5592512897711468,
          0.08342082075678116
        ],
        [
          -0.14080249086417124,
          1.7629484642794235,
          0.06583417964332985
        ],
        [
          -0.6159147315185705,
          -0.44877198836146415,
          1.133441717313545
        ],
        [
          1.7225223590693517,
          -1.33742617382739,
          0.6143868974967372
        ]
      ]
    ]
  },
  "metrics": {
    "stage1_min_cost": 0.16254266378700813,
    "stage2_min_cost": 0.1286597597656828,
    "mse_train_noise": 0.04208329887417109,
    "mse_train_recovered": 0.030695624775140106,
    "delta_train_pct": 27.0598417987147,
    "mse_test_noise": 0.03574197205136823,
    "mse_test_recovered": 0.02004262555348709,
    "delta_test_pct": 43.92411945070658,
    "mse_train_recovered_pure": 0.01792465601528295,
    "mse_test_recovered_pure": 0.014181430320599337
  },
  "artifacts": {
    "weights_s1_file": "weights_s1_inst07_L4.npy",
    "weights_s2_file": "weights_s2_inst07_L4.npy",
    "circuit_stage1": "circuit_stage1_6q_2l_4t_stacked_L4_inst07.eps",
    "circuit_stage2": "circuit_stage2_6q_2l_4t_stacked_L4_inst07.eps",
    "circuit_full": "circuit_full_6q_2l_4t_stacked_L4_inst07.eps",
    "training_cost_s1_plot": "training_cost_s1_inst07_L4.eps",
    "training_cost_s2_plot": "training_cost_s2_inst07_L4.eps",
    "reconstruction_pure_plot": "reconstruction_pure_inst07_L4.eps",
    "reconstruction_noisy_plot": "reconstruction_noisy_inst07_L4.eps"
  }
}