{
  "schema": {
    "name": "sidekick_qae_bundle",
    "version": "1.0"
  },
  "timestamp": "2026-02-22 15:26:35",
  "dataset": {
    "id": "mackey_glass_tau30_n200",
    "scale_low": 0.0,
    "scale_high": 1.0,
    "window_size": 6,
    "window_step": 2,
    "split": 0.75
  },
  "run": {
    "instance_id": 6,
    "layer": 3,
    "dec_epochs": 200,
    "enc_epochs": 300,
    "sigma_eval": 0.2,
    "test_seed_fixed": 99123,
    "device_seed": 13050,
    "stage1_time_sec": 68,
    "stage2_time_sec": 224
  },
  "environment": {
    "device": "lightning.qubit",
    "diff_method": "adjoint",
    "interface": "autograd"
  },
  "architecture": {
    "type": "sidekick",
    "n_qubits": 6,
    "n_latent": 4,
    "n_trash": 2,
    "rot": "Rxyz"
  },
  "parameters": {
    "weights_stage1": [
      [
        [
          -0.4604488622461601,
          -0.2264561322877624,
          0.44677296153344703
        ],
        [
          0.26937080522554124,
          -0.34125873445163923,
          -0.034454654802051905
        ],
        [
          -0.12339876449144863,
          -0.2743010790430475,
          0.11668144234867618
        ],
        [
          0.8198467322233627,
          0.38827609895380805,
          0.15501992273487544
        ],
        [
          0.6512592288299315,
          -0.9417161417551014,
          0.8288611574069786
        ],
        [
          0.004689384178321638,
          -0.34502520924030256,
          -0.004482642004280878
        ]
      ],
      [
        [
          -0.28318480042479,
          0.00041618936390736195,
          0.28311631929031195
        ],
        [
          -0.0778372035084819,
          0.0012268164591169185,
          0.1218815803309442
        ],
        [
          0.07778511699994188,
          -0.0005584223473788589,
          -0.07479708764735035
        ],
        [
          0.18234870114829924,
          0.00401676848463567,
          -0.19079658604434407
        ],
        [
          -0.3357458829066049,
          0.011502775565616099,
          0.3377959734610684
        ],
        [
          -0.07285410198197874,
          -0.0010553312844791645,
          0.07297160243524872
        ]
      ],
      [
        [
          0.10177923129246225,
          0.11127701155416576,
          0.2125933801475442
        ],
        [
          -0.00067600927999656,
          1.570922772136817,
          0.2264043274378669
        ],
        [
          -0.0014852814988732237,
          1.5772576396932545,
          0.16765587703797802
        ],
        [
          0.22838132243342793,
          0.2120354334700876,
          0.28353311837371853
        ],
        [
          0.0005763387370955678,
          1.5709416312530764,
          0.012024009728814039
        ],
        [
          0.0002689381236939027,
          1.572426227709206,
          0.1009677159924297
        ]
      ]
    ],
    "weights_stage2": [
      [
        [
          -1.5675743801047148,
          -1.6735988789112486,
          1.0621151038550432
        ],
        [
          1.1956407387216323,
          -0.12214942481289336,
          -2.0057646163849823
        ],
        [
          -1.373349009370124,
          0.0031772369854534944,
          1.4384424633758524
        ],
        [
          -0.0049891129417248626,
          1.3136959354654225,
          3.0976177387533017
        ],
        [
          0.03641799486755992,
          -1.5729703881817114,
          1.5479450788549256
        ],
        [
          -0.65909779053715,
          -1.0470543976182822,
          0.3600398859218895
        ]
      ],
      [
        [
          -0.3013943636574089,
          0.027877205420205282,
          0.31133594590804675
        ],
        [
          -0.434237357258437,
          0.06154582821260156,
          0.531779183358365
        ],
        [
          0.760092767902755,
          -0.02649434345916352,
          -0.7390611702840013
        ],
        [
          1.57610324102036,
          0.20429789959845837,
          -1.612500911094422
        ],
        [
          -2.006900713895998,
          -0.0295671186004145,
          2.0403608378180644
        ],
        [
          0.18249143367841394,
          0.037067687366495454,
          -0.16399917221989008
        ]
      ],
      [
        [
          0.4344338824626078,
          0.013255113166951086,
          0.2433749386813215
        ],
        [
          1.544377151654906,
          1.5969930687555076,
          -0.03257206195075894
        ],
        [
          0.9175249006852528,
          1.6430925133449052,
          0.05275377015567241
        ],
        [
          0.42639158958584844,
          0.050759239182348696,
          0.3886208193415346
        ],
        [
          -0.01443798169208535,
          1.580555527727364,
          0.010270401898733334
        ],
        [
          0.02843426398198819,
          1.586149008049652,
          0.06333090914757268
        ]
      ],
      [
        [
          -1.9714267129532268,
          -2.243603120937131,
          0.9043330473145518
        ],
        [
          1.0660478579022872,
          -0.028344578104511634,
          -1.954168519336579
        ],
        [
          -1.4189231718274729,
          0.03774667217193997,
          1.4583395483078683
        ],
        [
          -0.024129916698629236,
          1.26369580146474,
          3.068363156763801
        ],
        [
          0.01239892388524286,
          -1.5300799069256983,
          1.5580875594236652
        ],
        [
          -0.38262359968302634,
          -1.0440882833708087,
          0.2842927900855743
        ]
      ],
      [
        [
          -0.2714040494535851,
          0.01781327078926242,
          0.2212881179700451
        ],
        [
          -0.256493682008745,
          0.0072398376774075075,
          0.22945255922647526
        ],
        [
          0.12779535959003738,
          0.003459401494094182,
          -0.102537604663559
        ],
        [
          1.5385119452287848,
          0.12702986317176784,
          -1.572113867073968
        ],
        [
          -1.1118004454180055,
          -0.017167579414322103,
          1.1368200604800403
        ],
        [
          -0.09096383600053677,
          -0.0026898555686668225,
          0.09017958104807461
        ]
      ],
      [
        [
          0.486292368924738,
          0.08233941410753022,
          0.1818118216137647
        ],
        [
          1.5883305635573641,
          1.5904108447930085,
          0.056283539182951765
        ],
        [
          1.9427336296393571,
          1.5374676746715077,
          -0.04176371064899948
        ],
        [
          0.6376218295983523,
          0.00034652244930411696,
          0.17844541740590739
        ],
        [
          -0.0392410780939337,
          1.5662637538671846,
          0.013777617558888226
        ],
        [
          0.04569211654717461,
          1.5256982923549423,
          0.13860452283729247
        ]
      ]
    ]
  },
  "metrics": {
    "stage1_min_cost": 0.12662266525705657,
    "stage2_min_cost": 0.1630114723826326,
    "mse_train_noise": 0.04208329887417109,
    "mse_train_recovered": 0.0291120994021696,
    "delta_train_pct": 30.822677449278224,
    "mse_test_noise": 0.03574197205136823,
    "mse_test_recovered": 0.02276190063347114,
    "delta_test_pct": 36.31604713708069,
    "mse_train_recovered_pure": 0.006232213485365328,
    "mse_test_recovered_pure": 0.008018919471597495
  },
  "artifacts": {
    "weights_s1_file": "weights_s1_inst06_L3.npy",
    "weights_s2_file": "weights_s2_inst06_L3.npy",
    "circuit_stage1": "circuit_stage1_6q_4l_2t_sidekick_L03_inst06.eps",
    "circuit_stage2": "circuit_stage1_6q_4l_2t_sidekick_L03_inst06.eps",
    "circuit_full": "circuit_full_6q_4l_2t_sidekick_L3_inst06.eps",
    "training_cost_s1_plot": "training_cost_s1_dec200_enc300_inst06.eps",
    "training_cost_s2_plot": "training_cost_s2_dec200_enc300_inst06.eps",
    "reconstruction_pure_plot": "reconst_pure_dec200_enc300_inst06_L3.eps",
    "reconstruction_noisy_plot": "reconst_noisy_dec200_enc300_inst06_L3.eps"
  }
}