{
  "schema": {
    "name": "sidekick_qae_bundle",
    "version": "1.0"
  },
  "timestamp": "2026-02-22 16:09:57",
  "dataset": {
    "id": "mackey_glass_tau30_n200",
    "scale_low": 0.0,
    "scale_high": 1.0,
    "window_size": 6,
    "window_step": 2,
    "split": 0.75
  },
  "run": {
    "instance_id": 7,
    "layer": 3,
    "dec_epochs": 300,
    "enc_epochs": 300,
    "sigma_eval": 0.2,
    "test_seed_fixed": 99123,
    "device_seed": 13051,
    "stage1_time_sec": 103,
    "stage2_time_sec": 224
  },
  "environment": {
    "device": "lightning.qubit",
    "diff_method": "adjoint",
    "interface": "autograd"
  },
  "architecture": {
    "type": "sidekick",
    "n_qubits": 6,
    "n_latent": 4,
    "n_trash": 2,
    "rot": "Rxyz"
  },
  "parameters": {
    "weights_stage1": [
      [
        [
          1.3064051383597737,
          -0.725592638370753,
          -1.3798901863500788
        ],
        [
          0.03330373094502793,
          0.32478744132227094,
          0.2295240295128622
        ],
        [
          -0.19697419519427078,
          -0.5462513224417173,
          0.19855744110381135
        ],
        [
          0.9506506062876321,
          0.12317160957277631,
          0.6443751799110101
        ],
        [
          0.7338236103461564,
          -0.43577851728124867,
          0.7716205793961459
        ],
        [
          0.5560776641203491,
          -0.4065921703818625,
          -0.5200236848401645
        ]
      ],
      [
        [
          0.3234340111679852,
          -0.004476209676942756,
          -0.32398430792636773
        ],
        [
          -0.10512461141844967,
          0.003712188058742639,
          -0.23071809367283727
        ],
        [
          0.10536659382448324,
          0.004200329239975222,
          -0.052116893641782985
        ],
        [
          -0.3263740893266471,
          -0.0072103555561314325,
          0.36423411301488395
        ],
        [
          0.08662850218057977,
          -0.05757262609920668,
          -0.06453675969329907
        ],
        [
          -0.14923355342125136,
          0.008897680915968821,
          0.14724218264436656
        ]
      ],
      [
        [
          0.09092698814681889,
          0.006128600755473814,
          0.2435354689886611
        ],
        [
          -0.07832505614678097,
          1.5681962878904183,
          0.2134730730440099
        ],
        [
          0.03189292205171059,
          1.5923991238277808,
          0.18698169095986938
        ],
        [
          0.008810459938380524,
          0.2686045421895875,
          0.02567144058223163
        ],
        [
          -0.0020874222116446387,
          1.5694104087532936,
          0.18038667287856655
        ],
        [
          -0.00981171146504322,
          1.5812729221151363,
          0.0019613493972163564
        ]
      ]
    ],
    "weights_stage2": [
      [
        [
          1.5266277784187148,
          -1.6596174465619886,
          -1.1342543786990762
        ],
        [
          -1.6846390452542939,
          -0.026413772071852915,
          0.25829983138721635
        ],
        [
          -0.5299631317820644,
          -0.0029890781850959993,
          -3.0275090212775857
        ],
        [
          -0.011750703546599291,
          1.180338706570592,
          1.295580904166532
        ],
        [
          0.016774295416110196,
          0.8779463870392671,
          0.13866371172990383
        ],
        [
          0.9062908226793517,
          0.6261664515907011,
          -0.8577371522212658
        ]
      ],
      [
        [
          0.33661196511707,
          -0.05612551717828519,
          -0.34800608574801783
        ],
        [
          0.25619385155475904,
          0.018031912998037768,
          -0.30748329111532846
        ],
        [
          0.7104643647052847,
          0.03622417401635863,
          -0.7617778346603157
        ],
        [
          -0.6405952667861576,
          0.050898961422349356,
          0.5872419338716899
        ],
        [
          0.3681290208176453,
          0.005161429611489035,
          -0.3820768416908194
        ],
        [
          0.05882480516820181,
          -0.01169294807541211,
          -0.05696274912514008
        ]
      ],
      [
        [
          0.44630706737259296,
          -0.00806617311748773,
          0.23974477832881796
        ],
        [
          -4.3307418961365745,
          1.5731095951705452,
          -0.037019326098580274
        ],
        [
          -2.0793127741441837,
          1.5788877658212352,
          0.04449279070719704
        ],
        [
          0.030895939306726586,
          0.1268454420139762,
          0.028808835320818137
        ],
        [
          -0.00274782793896332,
          1.5970993627401584,
          0.20552363219433128
        ],
        [
          0.04360606873006223,
          1.5765123379516703,
          -0.022028909322864873
        ]
      ],
      [
        [
          1.618349939117035,
          -1.6471545639752132,
          -1.2260179951295063
        ],
        [
          -1.5788848415915426,
          -0.040278624449195014,
          0.1643090406597638
        ],
        [
          -5.043503470871608,
          0.07809363901791824,
          1.476058031666237
        ],
        [
          -0.04698962430774978,
          1.1052498227990324,
          1.3012309758225555
        ],
        [
          0.009618740656664071,
          0.8454049843435341,
          0.18005764972197438
        ],
        [
          0.9660138089232936,
          -2.622273292281183,
          -2.275987305979744
        ]
      ],
      [
        [
          0.7693948111998495,
          0.03481702961603087,
          -0.7554324321654668
        ],
        [
          0.10199283091097858,
          0.005849678771439084,
          -0.14861371848669067
        ],
        [
          0.6012213976811476,
          0.02216836493952738,
          -0.42955752286760057
        ],
        [
          -1.4736586583866085,
          0.07683473633570834,
          1.6053151989122385
        ],
        [
          0.06147706184785783,
          0.01554688000455445,
          -0.10530421928058768
        ],
        [
          0.12772760187262902,
          -0.029729894544161178,
          -0.10987718411347415
        ]
      ],
      [
        [
          0.4756397005329614,
          -0.020414161702061742,
          0.24732615964851598
        ],
        [
          -1.2431785831542588,
          1.6032692880183685,
          -0.03556847231598539
        ],
        [
          1.7064288329942852,
          1.5987407918075687,
          -0.03428018092498023
        ],
        [
          0.026720243664107045,
          0.09441089223747601,
          0.02253404584363957
        ],
        [
          0.030819300363126075,
          1.5456179060042112,
          0.1552497135628036
        ],
        [
          -0.030815715277932677,
          1.5532879863390632,
          0.025951608117296177
        ]
      ]
    ]
  },
  "metrics": {
    "stage1_min_cost": 0.11972544946762828,
    "stage2_min_cost": 0.1590252881114945,
    "mse_train_noise": 0.04208329887417109,
    "mse_train_recovered": 0.028667777529717726,
    "delta_train_pct": 31.878492664193747,
    "mse_test_noise": 0.03574197205136823,
    "mse_test_recovered": 0.022008376340938014,
    "delta_test_pct": 38.424280816660996,
    "mse_train_recovered_pure": 0.004162034634305856,
    "mse_test_recovered_pure": 0.007167706472992607
  },
  "artifacts": {
    "weights_s1_file": "weights_s1_inst07_L3.npy",
    "weights_s2_file": "weights_s2_inst07_L3.npy",
    "circuit_stage1": "circuit_stage1_6q_4l_2t_sidekick_L03_inst07.eps",
    "circuit_stage2": "circuit_stage1_6q_4l_2t_sidekick_L03_inst07.eps",
    "circuit_full": "circuit_full_6q_4l_2t_sidekick_L3_inst07.eps",
    "training_cost_s1_plot": "training_cost_s1_dec300_enc300_inst07.eps",
    "training_cost_s2_plot": "training_cost_s2_dec300_enc300_inst07.eps",
    "reconstruction_pure_plot": "reconst_pure_dec300_enc300_inst07_L3.eps",
    "reconstruction_noisy_plot": "reconst_noisy_dec300_enc300_inst07_L3.eps"
  }
}