{
  "schema": {
    "name": "sidekick_qae_bundle",
    "version": "1.0"
  },
  "timestamp": "2026-02-22 15:21:41",
  "dataset": {
    "id": "mackey_glass_tau30_n200",
    "scale_low": 0.0,
    "scale_high": 1.0,
    "window_size": 6,
    "window_step": 2,
    "split": 0.75
  },
  "run": {
    "instance_id": 5,
    "layer": 3,
    "dec_epochs": 200,
    "enc_epochs": 300,
    "sigma_eval": 0.2,
    "test_seed_fixed": 99123,
    "device_seed": 13049,
    "stage1_time_sec": 68,
    "stage2_time_sec": 223
  },
  "environment": {
    "device": "lightning.qubit",
    "diff_method": "adjoint",
    "interface": "autograd"
  },
  "architecture": {
    "type": "sidekick",
    "n_qubits": 6,
    "n_latent": 4,
    "n_trash": 2,
    "rot": "Rxyz"
  },
  "parameters": {
    "weights_stage1": [
      [
        [
          -0.006077076576158552,
          -0.22609613426796826,
          0.006327571374078374
        ],
        [
          -0.12151901637887687,
          0.32243783028314543,
          0.21435599524853635
        ],
        [
          0.410004223569424,
          -0.3733596019936497,
          -0.20327133966710853
        ],
        [
          0.6656633082343822,
          0.8633095977390359,
          0.06253506412635107
        ],
        [
          0.6439354164946437,
          0.02070708179450818,
          0.9068589722551126
        ],
        [
          -1.5675999749739253,
          -1.5520817905444024,
          1.3483386779458704
        ]
      ],
      [
        [
          0.0490562375723159,
          0.002302880580988767,
          -0.03528993652504193
        ],
        [
          -0.07563531149107117,
          -0.00025895336420804477,
          0.07630885788815896
        ],
        [
          0.16692506024419498,
          -0.00010807452474895717,
          -0.16833223739466632
        ],
        [
          -0.2622470224316019,
          -0.01219204350265099,
          0.266362632874656
        ],
        [
          -1.3099402720835984,
          -0.026760817205094385,
          1.3131138235293576
        ],
        [
          -0.006470500467340119,
          -0.0003793754389089561,
          -0.010142662753156563
        ]
      ],
      [
        [
          0.30870637770517884,
          0.04805745314904715,
          0.2505631867851934
        ],
        [
          0.4325031851609214,
          1.58936705618364,
          0.17130071616369327
        ],
        [
          0.0054852092866468595,
          1.5750824146767166,
          0.17347192679017132
        ],
        [
          0.024080317621560002,
          0.02665180991495539,
          0.024513380658065593
        ],
        [
          0.007220425367153973,
          1.5689153266677742,
          0.14466523555106656
        ],
        [
          -0.01835671984462685,
          1.5845841692926266,
          0.1171241840291565
        ]
      ]
    ],
    "weights_stage2": [
      [
        [
          -1.622817907448098,
          -1.559780640309972,
          1.09906209991779
        ],
        [
          1.8140797019320023,
          -0.05583463443512924,
          0.8526451067483676
        ],
        [
          1.3913982539338607,
          -0.1469359019139907,
          -0.7822866148715257
        ],
        [
          -0.03803920196260429,
          1.2041433488021727,
          0.5257011538298716
        ],
        [
          -0.015681903292607127,
          0.8940422782367378,
          0.9002854104030888
        ],
        [
          -1.4039176715291273,
          -1.9053044638631143,
          2.0971278714522916
        ]
      ],
      [
        [
          -1.4220114760664404,
          0.0781471971576072,
          1.4392159516089962
        ],
        [
          0.25919852083146167,
          -0.009424859389469268,
          -0.21996099085633894
        ],
        [
          0.5340617188276318,
          0.011321490228722366,
          -0.5372346245187528
        ],
        [
          -1.2314601897565784,
          0.10555207607863369,
          1.2308241540382998
        ],
        [
          -1.577766777947347,
          0.04565941348668898,
          1.548576055647252
        ],
        [
          -0.3253533402918042,
          0.015772044208689384,
          0.3088821700730959
        ]
      ],
      [
        [
          0.3723606219943468,
          -0.04595468471636376,
          0.18581169582643317
        ],
        [
          5.437206127208899,
          1.5616563821100444,
          -0.021848674219085762
        ],
        [
          -5.81754003992666,
          1.5437724229736896,
          -0.0030954314116965137
        ],
        [
          0.0017374668485386773,
          -0.013117945882280765,
          -0.011405347861906858
        ],
        [
          -0.02434861685664844,
          1.5734912779490882,
          0.10642558379384762
        ],
        [
          -0.0011014243964483214,
          1.5615938333450292,
          0.14187425285628824
        ]
      ],
      [
        [
          -1.5206008384751322,
          -1.4552839178483838,
          1.1605381879762473
        ],
        [
          1.6775718492371414,
          -0.0700928399956581,
          0.9932720412245869
        ],
        [
          1.6056892802199052,
          -0.12860621166477937,
          -1.0020084976809265
        ],
        [
          -0.009472259670383943,
          1.1531054672111292,
          0.5484678595785758
        ],
        [
          0.005034499320931836,
          0.8687891056477132,
          0.8657715247986432
        ],
        [
          -1.9176017438375008,
          2.3353292174629634,
          0.994242667731276
        ]
      ],
      [
        [
          0.06505880259519214,
          -0.01995546602933399,
          -0.04991000435217619
        ],
        [
          -0.21474433420253078,
          0.013378358351510234,
          0.264576828389762
        ],
        [
          -0.005530450904821299,
          0.04428465079142097,
          -0.06619211531249321
        ],
        [
          -1.5191473256686647,
          0.0679511804316208,
          1.4537470337785874
        ],
        [
          -1.5423752074800134,
          0.07014650446193188,
          1.573997299698312
        ],
        [
          0.4745888583469965,
          -0.06995464938389293,
          -0.49129652654094197
        ]
      ],
      [
        [
          0.19710062841275625,
          -0.06119185584575334,
          0.3153146777439414
        ],
        [
          1.100424070235049,
          1.4962965067783727,
          0.022322058729740163
        ],
        [
          -2.142341097198614,
          1.5602328146936275,
          0.01447218192100968
        ],
        [
          -0.06263796485246248,
          -0.014818853553409804,
          0.06043210917804145
        ],
        [
          0.037687012327832774,
          1.5689415895444532,
          0.1829048873082928
        ],
        [
          0.013617846843075305,
          1.5661106430221574,
          0.09237411520202406
        ]
      ]
    ]
  },
  "metrics": {
    "stage1_min_cost": 0.11242993218849479,
    "stage2_min_cost": 0.1571499945895532,
    "mse_train_noise": 0.04208329887417109,
    "mse_train_recovered": 0.029124851298914237,
    "delta_train_pct": 30.792375887647406,
    "mse_test_noise": 0.03574197205136823,
    "mse_test_recovered": 0.02157414710992904,
    "delta_test_pct": 39.639180851793085,
    "mse_train_recovered_pure": 0.0038749519933915753,
    "mse_test_recovered_pure": 0.005106000419776582
  },
  "artifacts": {
    "weights_s1_file": "weights_s1_inst05_L3.npy",
    "weights_s2_file": "weights_s2_inst05_L3.npy",
    "circuit_stage1": "circuit_stage1_6q_4l_2t_sidekick_L03_inst05.eps",
    "circuit_stage2": "circuit_stage1_6q_4l_2t_sidekick_L03_inst05.eps",
    "circuit_full": "circuit_full_6q_4l_2t_sidekick_L3_inst05.eps",
    "training_cost_s1_plot": "training_cost_s1_dec200_enc300_inst05.eps",
    "training_cost_s2_plot": "training_cost_s2_dec200_enc300_inst05.eps",
    "reconstruction_pure_plot": "reconst_pure_dec200_enc300_inst05_L3.eps",
    "reconstruction_noisy_plot": "reconst_noisy_dec200_enc300_inst05_L3.eps"
  }
}