{
  "schema": {
    "name": "sidekick_qae_bundle",
    "version": "1.0"
  },
  "timestamp": "2026-02-22 14:52:56",
  "dataset": {
    "id": "mackey_glass_tau30_n200",
    "scale_low": 0.0,
    "scale_high": 1.0,
    "window_size": 6,
    "window_step": 2,
    "split": 0.75
  },
  "run": {
    "instance_id": 6,
    "layer": 3,
    "dec_epochs": 100,
    "enc_epochs": 300,
    "sigma_eval": 0.2,
    "test_seed_fixed": 99123,
    "device_seed": 13050,
    "stage1_time_sec": 34,
    "stage2_time_sec": 222
  },
  "environment": {
    "device": "lightning.qubit",
    "diff_method": "adjoint",
    "interface": "autograd"
  },
  "architecture": {
    "type": "sidekick",
    "n_qubits": 6,
    "n_latent": 4,
    "n_trash": 2,
    "rot": "Rxyz"
  },
  "parameters": {
    "weights_stage1": [
      [
        [
          -0.12443980099002745,
          -0.20601634158319207,
          0.12267710172997519
        ],
        [
          0.2897127339074695,
          -0.3443820328175997,
          -0.02148984447009596
        ],
        [
          -0.14816390520972916,
          -0.27514237361056515,
          0.09482026468496418
        ],
        [
          0.7979272383969279,
          0.3969389650868083,
          0.14677297474593226
        ],
        [
          0.6324185600836848,
          -0.9438995732430401,
          0.8394188852080876
        ],
        [
          -0.0018886365894818231,
          -0.34470560429227537,
          -0.006628433383236996
        ]
      ],
      [
        [
          -0.279395317956647,
          0.03977598445265495,
          0.27902526203597905
        ],
        [
          -0.09371779897164755,
          0.0004254381873203632,
          0.10634154582966718
        ],
        [
          0.07873222149014754,
          -0.006043974259392721,
          -0.07224485527018366
        ],
        [
          0.17695017457123902,
          0.008058770138755458,
          -0.19512103035655015
        ],
        [
          -0.3306690813953358,
          0.03319480609658341,
          0.33431549651058773
        ],
        [
          -0.07183367510489805,
          -0.0020997907480675084,
          0.07368760050403447
        ]
      ],
      [
        [
          0.10177923125903583,
          0.11127701157979869,
          0.21259338011534026
        ],
        [
          0.0004965986601757929,
          1.610126527494649,
          0.2264043274031408
        ],
        [
          -6.830840428787162e-05,
          1.5793256206685997,
          0.16765587700873888
        ],
        [
          0.2283813224397231,
          0.2120354333942788,
          0.2835331183765244
        ],
        [
          0.006558694058445606,
          1.6040197632394932,
          0.012024009716254629
        ],
        [
          0.00026809580272620244,
          1.5514392309917058,
          0.10096771596531053
        ]
      ]
    ],
    "weights_stage2": [
      [
        [
          -1.4775742388019315,
          -1.4934604580861501,
          1.106145981829248
        ],
        [
          1.62510170604302,
          0.16076745901521322,
          -0.5895568397790689
        ],
        [
          -1.2608264637184494,
          -0.04422579919382845,
          0.8632583294064283
        ],
        [
          0.044930994258349746,
          1.247408628606883,
          1.7124905373995734
        ],
        [
          -0.02684520200745169,
          -1.5700255427473886,
          0.01523065813250898
        ],
        [
          -0.005099229041755839,
          -0.9488174023152065,
          -0.014381782208972967
        ]
      ],
      [
        [
          -0.28113819343561935,
          -0.04664298471378928,
          0.3299725276407403
        ],
        [
          -0.1784179950129404,
          -0.052604687448269495,
          0.253398208625413
        ],
        [
          0.7379130707183231,
          0.03136063358174812,
          -0.7861407861095093
        ],
        [
          -0.11189154907847673,
          0.012325177234024523,
          0.1303050766249593
        ],
        [
          -1.520256503348637,
          -0.0004589019376276457,
          1.4972326103789235
        ],
        [
          0.29144205290589154,
          0.06120066646010909,
          -0.35238731354109193
        ]
      ],
      [
        [
          0.46946933631203297,
          0.027163133020263408,
          0.14226013165661572
        ],
        [
          0.4653400615845631,
          1.5648639396987063,
          -0.03417133187556934
        ],
        [
          0.1060863235446275,
          1.5877107905164027,
          -0.0024978965485972387
        ],
        [
          0.4348219284687703,
          0.03696646421870845,
          0.31033572849300534
        ],
        [
          0.032885925024174006,
          1.5657439420097912,
          0.025178552619263432
        ],
        [
          -0.0006175078342127594,
          1.5547316948494336,
          0.1595373980917695
        ]
      ],
      [
        [
          1.6589708581528135,
          -1.7415786221642697,
          -1.1870629676932136
        ],
        [
          1.7874649997213554,
          0.17627013373574912,
          -0.8415674981712338
        ],
        [
          -1.3892288806775,
          -0.04093267070490836,
          1.0033889411459356
        ],
        [
          -0.010218466128131492,
          1.1822643196818794,
          1.7755646332901964
        ],
        [
          0.005213047412144254,
          -1.6028164369569933,
          -0.04728011961021768
        ],
        [
          0.09461814810626036,
          -1.0594506862540785,
          -0.0631168503617175
        ]
      ],
      [
        [
          -0.4113139877520221,
          0.03498728112011002,
          0.379496976571049
        ],
        [
          0.07224212920022507,
          0.027008143544903353,
          -0.1607835470371471
        ],
        [
          0.5303168705719798,
          -0.04561686717020004,
          -0.45519880323276196
        ],
        [
          1.5795467936222234,
          0.011942579087480401,
          -1.4582184821160231
        ],
        [
          -0.887539811129791,
          0.001720705082754557,
          0.8399099977271739
        ],
        [
          0.1360792187246903,
          0.008372264395881982,
          -0.08224766947632628
        ]
      ],
      [
        [
          0.35830083178199784,
          0.028329515624295077,
          0.282926628574062
        ],
        [
          2.5020419084956202,
          1.572421766466174,
          0.04355662891065606
        ],
        [
          1.3992246431924968,
          1.5165763698849037,
          0.009396921807066383
        ],
        [
          0.5706419827045707,
          0.025305875345108298,
          0.25673050826003374
        ],
        [
          -0.022409004630855517,
          1.5868625128315141,
          -0.0011305331867536624
        ],
        [
          -0.039735505913783095,
          1.55973123332822,
          0.04239803383884451
        ]
      ]
    ]
  },
  "metrics": {
    "stage1_min_cost": 0.12710302885758976,
    "stage2_min_cost": 0.16411363541330148,
    "mse_train_noise": 0.04208329887417109,
    "mse_train_recovered": 0.029063485591250715,
    "delta_train_pct": 30.938195510407983,
    "mse_test_noise": 0.03574197205136823,
    "mse_test_recovered": 0.02277522695362773,
    "delta_test_pct": 36.27876234446366,
    "mse_train_recovered_pure": 0.0063308419526687185,
    "mse_test_recovered_pure": 0.008067127468211885
  },
  "artifacts": {
    "weights_s1_file": "weights_s1_inst06_L3.npy",
    "weights_s2_file": "weights_s2_inst06_L3.npy",
    "circuit_stage1": "circuit_stage1_6q_4l_2t_sidekick_L03_inst06.eps",
    "circuit_stage2": "circuit_stage1_6q_4l_2t_sidekick_L03_inst06.eps",
    "circuit_full": "circuit_full_6q_4l_2t_sidekick_L3_inst06.eps",
    "training_cost_s1_plot": "training_cost_s1_dec100_enc300_inst06.eps",
    "training_cost_s2_plot": "training_cost_s2_dec100_enc300_inst06.eps",
    "reconstruction_pure_plot": "reconst_pure_dec100_enc300_inst06_L3.eps",
    "reconstruction_noisy_plot": "reconst_noisy_dec100_enc300_inst06_L3.eps"
  }
}