{
  "schema": {
    "name": "sidekick_qae_bundle",
    "version": "1.0"
  },
  "timestamp": "2026-02-22 14:31:24",
  "dataset": {
    "id": "mackey_glass_tau30_n200",
    "scale_low": 0.0,
    "scale_high": 1.0,
    "window_size": 6,
    "window_step": 2,
    "split": 0.75
  },
  "run": {
    "instance_id": 1,
    "layer": 3,
    "dec_epochs": 100,
    "enc_epochs": 300,
    "sigma_eval": 0.2,
    "test_seed_fixed": 99123,
    "device_seed": 13045,
    "stage1_time_sec": 34,
    "stage2_time_sec": 221
  },
  "environment": {
    "device": "lightning.qubit",
    "diff_method": "adjoint",
    "interface": "autograd"
  },
  "architecture": {
    "type": "sidekick",
    "n_qubits": 6,
    "n_latent": 4,
    "n_trash": 2,
    "rot": "Rxyz"
  },
  "parameters": {
    "weights_stage1": [
      [
        [
          0.019916201538745074,
          -0.19871130802447998,
          -0.017368867770099883
        ],
        [
          -0.7413986718239904,
          -0.41153942381099184,
          -0.8237890291618206
        ],
        [
          0.6565912631990432,
          -0.6182569112797038,
          1.0163209111541163
        ],
        [
          0.08030517735244767,
          -0.5949933424539526,
          -0.03909455885571761
        ],
        [
          0.4803632290554737,
          -0.9122079456698028,
          0.1817533574548885
        ],
        [
          -0.5109261037157213,
          -0.3244455465680648,
          0.4284215376116504
        ]
      ],
      [
        [
          0.16558344727091348,
          0.008509570238990715,
          -0.17759025779223636
        ],
        [
          0.6845772591033688,
          0.0069246967588735674,
          -0.6909410101411881
        ],
        [
          -0.022014880782594174,
          0.007765308717876117,
          0.020690049610689255
        ],
        [
          0.01952047450546607,
          -0.003528435337821898,
          -0.011152042251306064
        ],
        [
          0.12361127265978333,
          -0.012935707890530971,
          -0.1243894791959344
        ],
        [
          0.09031059303470773,
          0.018697641771760153,
          -0.0854056173601683
        ]
      ],
      [
        [
          0.13004702499196624,
          0.030523021400858566,
          0.2191650032943649
        ],
        [
          0.13144984567797688,
          1.5328477879056706,
          0.07624422008108676
        ],
        [
          -0.007937614509074412,
          1.6101725996575584,
          0.07273266103155444
        ],
        [
          0.09323059293976785,
          0.15361492163810686,
          0.053602208036556714
        ],
        [
          0.016485750677169984,
          1.3495274796284926,
          0.21817595203869405
        ],
        [
          -0.013502842719073746,
          1.569784772773361,
          0.1863161668893647
        ]
      ]
    ],
    "weights_stage2": [
      [
        [
          -1.669984847809326,
          -1.8053451017511848,
          1.0811627488132154
        ],
        [
          -1.8609471869210308,
          0.022462249171300207,
          -1.3411638374844923
        ],
        [
          1.709302302820352,
          0.13546261260253012,
          1.2815443471421222
        ],
        [
          0.00222340582858142,
          -1.8812945167937503,
          0.16622882924701762
        ],
        [
          0.050122862544193604,
          -1.6003505459956917,
          1.29900072525756
        ],
        [
          -0.8001991649136924,
          -1.201168981998957,
          0.3958342169774069
        ]
      ],
      [
        [
          0.9043286257311697,
          0.00535330252348128,
          -0.8877577327664123
        ],
        [
          0.9341273498856462,
          -0.0004456184623133075,
          -0.7999808366566866
        ],
        [
          0.10167780369966177,
          0.0014866092908004678,
          -0.13635099733556444
        ],
        [
          0.33211504038983564,
          0.03954424347876637,
          -0.2509413876465392
        ],
        [
          0.5374470928255569,
          0.044140870648930255,
          -0.549699180781067
        ],
        [
          0.20890901026459582,
          -0.0219524829966221,
          -0.23241544761722654
        ]
      ],
      [
        [
          0.47238559949871783,
          0.0676083910588042,
          0.44905914591801316
        ],
        [
          0.5318323096948192,
          1.5894538700713114,
          -0.10704534622045812
        ],
        [
          1.918365558565158,
          1.533396625988704,
          0.01583815922319714
        ],
        [
          0.042295558715629435,
          0.07416105018995892,
          -0.02232618030301549
        ],
        [
          -0.020842850161706873,
          1.5804412525944895,
          0.21526001491335262
        ],
        [
          -0.02716189826318604,
          1.5725540678423726,
          0.1914941965478893
        ]
      ],
      [
        [
          1.4648017507000148,
          -1.424247549525296,
          -1.1192621252339683
        ],
        [
          -2.0464791433063985,
          0.03599450323556554,
          -1.1177504713701012
        ],
        [
          1.6215795557947676,
          0.018683055124248178,
          1.3350664630741054
        ],
        [
          0.012090457871135748,
          -1.9396498239872701,
          0.1445173728209182
        ],
        [
          -0.01185818506703255,
          -1.5821432658055061,
          1.2838099500528186
        ],
        [
          -1.0177560270912718,
          -1.3350940754541913,
          0.44934095640180705
        ]
      ],
      [
        [
          0.14182283795285458,
          -0.02770911647978873,
          -0.1414004442119508
        ],
        [
          1.1954201816435284,
          -0.031310753034316144,
          -1.2513623852306488
        ],
        [
          0.0423047774869171,
          -0.014486061559350316,
          0.032843441125108876
        ],
        [
          -0.47008173682412935,
          -0.035651180961459784,
          0.42062178316986193
        ],
        [
          0.9468600443749493,
          0.025089113004404025,
          -0.9402864957266932
        ],
        [
          -0.4301605891450495,
          0.012747058870825834,
          0.4849301052576205
        ]
      ],
      [
        [
          0.9709757904663576,
          0.006590655410747051,
          -0.010729139329287292
        ],
        [
          -1.1458037516409034,
          1.543925214766996,
          -0.04132609640463796
        ],
        [
          4.676520177206077,
          1.5642373198469035,
          0.012428717707532995
        ],
        [
          -0.11314120550000321,
          0.14103852313251664,
          0.12953059637613515
        ],
        [
          0.008883055531346995,
          1.5923513913499139,
          0.22109188916402964
        ],
        [
          0.012984352245122004,
          1.5678359304924385,
          0.1811381372308387
        ]
      ]
    ]
  },
  "metrics": {
    "stage1_min_cost": 0.12371762366248246,
    "stage2_min_cost": 0.1636519460497943,
    "mse_train_noise": 0.04208329887417109,
    "mse_train_recovered": 0.02874978865021555,
    "delta_train_pct": 31.683614594527597,
    "mse_test_noise": 0.03574197205136823,
    "mse_test_recovered": 0.02485176651099228,
    "delta_test_pct": 30.468955447462687,
    "mse_train_recovered_pure": 0.005008459017974234,
    "mse_test_recovered_pure": 0.00627735313660433
  },
  "artifacts": {
    "weights_s1_file": "weights_s1_inst01_L3.npy",
    "weights_s2_file": "weights_s2_inst01_L3.npy",
    "circuit_stage1": "circuit_stage1_6q_4l_2t_sidekick_L03_inst01.eps",
    "circuit_stage2": "circuit_stage1_6q_4l_2t_sidekick_L03_inst01.eps",
    "circuit_full": "circuit_full_6q_4l_2t_sidekick_L3_inst01.eps",
    "training_cost_s1_plot": "training_cost_s1_dec100_enc300_inst01.eps",
    "training_cost_s2_plot": "training_cost_s2_dec100_enc300_inst01.eps",
    "reconstruction_pure_plot": "reconst_pure_dec100_enc300_inst01_L3.eps",
    "reconstruction_noisy_plot": "reconst_noisy_dec100_enc300_inst01_L3.eps"
  }
}