{
  "schema": {
    "name": "sidekick_qae_bundle",
    "version": "1.0"
  },
  "timestamp": "2026-02-22 16:04:27",
  "dataset": {
    "id": "mackey_glass_tau30_n200",
    "scale_low": 0.0,
    "scale_high": 1.0,
    "window_size": 6,
    "window_step": 2,
    "split": 0.75
  },
  "run": {
    "instance_id": 6,
    "layer": 3,
    "dec_epochs": 300,
    "enc_epochs": 300,
    "sigma_eval": 0.2,
    "test_seed_fixed": 99123,
    "device_seed": 13050,
    "stage1_time_sec": 103,
    "stage2_time_sec": 224
  },
  "environment": {
    "device": "lightning.qubit",
    "diff_method": "adjoint",
    "interface": "autograd"
  },
  "architecture": {
    "type": "sidekick",
    "n_qubits": 6,
    "n_latent": 4,
    "n_trash": 2,
    "rot": "Rxyz"
  },
  "parameters": {
    "weights_stage1": [
      [
        [
          -1.5733648419828763,
          -1.576801723191536,
          1.559401289843246
        ],
        [
          0.1260830564711143,
          0.21805951808838026,
          0.24485784861454268
        ],
        [
          -0.15845145876205657,
          -0.46777530103507253,
          -0.06700876642339881
        ],
        [
          0.8013815028001962,
          -0.023014006762047505,
          -0.036760003470253676
        ],
        [
          0.6846090885341278,
          -0.9505526892253772,
          0.9406158247292435
        ],
        [
          0.013151059046441508,
          -0.32304606214554493,
          -0.012436920064635214
        ]
      ],
      [
        [
          -0.28147378196579215,
          -0.0016046457746719434,
          0.2849576982292664
        ],
        [
          0.1480964718658475,
          -0.02609177934702613,
          0.3414052749387913
        ],
        [
          0.03826890157492623,
          -0.0001511969129330455,
          -0.11349107578817337
        ],
        [
          0.144921864709897,
          0.022406278373024148,
          -0.22667291361142716
        ],
        [
          -0.3333963754431955,
          0.11939125302221963,
          0.33837777949402126
        ],
        [
          -0.07101145757391884,
          -0.009672208884279073,
          0.07308586513002044
        ]
      ],
      [
        [
          0.10177923131995037,
          0.11127701151627659,
          0.21259338018533538
        ],
        [
          -0.0013905175288052491,
          1.570789769768122,
          0.22640432742951136
        ],
        [
          -0.03247328551592529,
          1.5769841705215875,
          0.16765587704186594
        ],
        [
          0.22838132241840536,
          0.2120354335023012,
          0.2835331183586549
        ],
        [
          0.0018649032514626617,
          1.5666791574707246,
          0.012024009737602233
        ],
        [
          0.03147600579240571,
          1.5964650687853852,
          0.10096771599778981
        ]
      ]
    ],
    "weights_stage2": [
      [
        [
          -1.4479895448167495,
          -1.374672167388644,
          1.1171044370455652
        ],
        [
          0.025235022992968575,
          0.5154024210594507,
          0.16288728736250632
        ],
        [
          -1.6562000768475034,
          0.0820456433028926,
          -0.0433890111699606
        ],
        [
          0.01130847856605602,
          1.1768967424669885,
          -0.1275350651044144
        ],
        [
          0.034069327713033164,
          -2.180862506378382,
          1.4849040169394805
        ],
        [
          -0.20245070411479976,
          -2.488436935971857,
          -0.11726588029284393
        ]
      ],
      [
        [
          -1.0352738949647948,
          -0.0390377965601764,
          1.055226090524635
        ],
        [
          -0.31609328681148907,
          0.02267722887497795,
          0.3710536621223967
        ],
        [
          0.05981286069724278,
          -0.070350879821404,
          -0.07468895079622413
        ],
        [
          1.6984598467770076,
          -0.16441651762308157,
          -1.7421870502774923
        ],
        [
          -1.3885061118452369,
          0.03878972913589045,
          1.4223572954075359
        ],
        [
          0.10016570254070097,
          0.01261233881298761,
          -0.14545337988020415
        ]
      ],
      [
        [
          0.03296778764849177,
          -0.003679775492460745,
          0.21217787324493106
        ],
        [
          1.1282218642173598,
          1.5650751317296854,
          0.021128213114181085
        ],
        [
          -4.911568034142296,
          1.6116862179356197,
          -0.0017923276977526393
        ],
        [
          0.11266537924072673,
          -0.0279759225962354,
          0.2724196804821608
        ],
        [
          0.011881547003600236,
          1.6027742994482534,
          0.02335641714145402
        ],
        [
          -0.02450752334780129,
          1.5702002274393594,
          0.09946930014571949
        ]
      ],
      [
        [
          -1.5030409441846162,
          -1.283380867815191,
          1.202706665744005
        ],
        [
          0.09076057690478054,
          0.501172969313484,
          0.06383541198035013
        ],
        [
          -1.5390860417266543,
          0.11375516622173738,
          -0.12801874063544882
        ],
        [
          -0.0046767769307366385,
          1.1572853429332375,
          -0.12487589483700373
        ],
        [
          0.005709955695850645,
          -2.2252005286492653,
          1.523163723639838
        ],
        [
          0.474185738852404,
          -2.5051272184480924,
          0.39620803873740085
        ]
      ],
      [
        [
          -0.4055412003123393,
          0.09160471697044044,
          0.36040013881768457
        ],
        [
          -0.058906383888449966,
          0.03994607710675095,
          0.17560626327599352
        ],
        [
          -0.46615676560350006,
          -0.03375161114602467,
          0.3606647512932734
        ],
        [
          1.6376111653598886,
          -0.04335956404174974,
          -1.652303082031837
        ],
        [
          -0.20054172307770582,
          -0.058023759922630244,
          0.17705511558966583
        ],
        [
          -0.10397672652473845,
          -0.005921169621648386,
          0.17023323731717555
        ]
      ],
      [
        [
          -0.014106483576948808,
          -0.022150022886473563,
          0.21300888712575433
        ],
        [
          1.3043359304136495,
          1.5711542560082128,
          -0.0186021439238413
        ],
        [
          -2.19992839363977,
          1.5374956692662218,
          0.01962573802421733
        ],
        [
          0.06368533499024348,
          -0.04657173545379211,
          0.29464655623514685
        ],
        [
          -0.010165872675647267,
          1.5963347578222922,
          0.000691602333744769
        ],
        [
          -0.011902174311542028,
          1.56649770109904,
          0.10246613184986399
        ]
      ]
    ]
  },
  "metrics": {
    "stage1_min_cost": 0.10947133622412734,
    "stage2_min_cost": 0.15686737705747308,
    "mse_train_noise": 0.04208329887417109,
    "mse_train_recovered": 0.02797111272087638,
    "delta_train_pct": 33.53393514964237,
    "mse_test_noise": 0.03574197205136823,
    "mse_test_recovered": 0.021221517158177352,
    "delta_test_pct": 40.62577988792039,
    "mse_train_recovered_pure": 0.004131690992532831,
    "mse_test_recovered_pure": 0.007226031752652968
  },
  "artifacts": {
    "weights_s1_file": "weights_s1_inst06_L3.npy",
    "weights_s2_file": "weights_s2_inst06_L3.npy",
    "circuit_stage1": "circuit_stage1_6q_4l_2t_sidekick_L03_inst06.eps",
    "circuit_stage2": "circuit_stage1_6q_4l_2t_sidekick_L03_inst06.eps",
    "circuit_full": "circuit_full_6q_4l_2t_sidekick_L3_inst06.eps",
    "training_cost_s1_plot": "training_cost_s1_dec300_enc300_inst06.eps",
    "training_cost_s2_plot": "training_cost_s2_dec300_enc300_inst06.eps",
    "reconstruction_pure_plot": "reconst_pure_dec300_enc300_inst06_L3.eps",
    "reconstruction_noisy_plot": "reconst_noisy_dec300_enc300_inst06_L3.eps"
  }
}