{
  "schema": {
    "name": "sidekick_qae_bundle",
    "version": "1.0"
  },
  "timestamp": "2026-02-22 17:26:16",
  "dataset": {
    "id": "mackey_glass_tau30_n200",
    "scale_low": 0.0,
    "scale_high": 1.0,
    "window_size": 6,
    "window_step": 2,
    "split": 0.75
  },
  "run": {
    "instance_id": 5,
    "layer": 3,
    "dec_epochs": 500,
    "enc_epochs": 300,
    "sigma_eval": 0.2,
    "test_seed_fixed": 99123,
    "device_seed": 13049,
    "stage1_time_sec": 174,
    "stage2_time_sec": 227
  },
  "environment": {
    "device": "lightning.qubit",
    "diff_method": "adjoint",
    "interface": "autograd"
  },
  "architecture": {
    "type": "sidekick",
    "n_qubits": 6,
    "n_latent": 4,
    "n_trash": 2,
    "rot": "Rxyz"
  },
  "parameters": {
    "weights_stage1": [
      [
        [
          -1.5726925694688474,
          -1.577108045136883,
          1.5157885998038432
        ],
        [
          -0.0007275998257790909,
          0.22146648675357544,
          0.002515393810653777
        ],
        [
          0.47761510230007154,
          0.0019062806478578297,
          -0.4845120925266755
        ],
        [
          0.06766275029621041,
          2.4905128318039895,
          0.058617248742201165
        ],
        [
          0.03530643449967348,
          0.17092498206050605,
          1.5077977787891055
        ],
        [
          -1.570872150792273,
          -1.5710100982638318,
          1.4373614318843924
        ]
      ],
      [
        [
          0.0434355099839574,
          -5.123378100616931e-05,
          -0.04164574958281828
        ],
        [
          0.15445100163408784,
          -0.00033823038062031545,
          0.30317358266047195
        ],
        [
          0.14923407621111592,
          -0.0010378571998701331,
          -0.1841680695002724
        ],
        [
          -0.2659300465661641,
          0.018286758091380993,
          0.3174483430524615
        ],
        [
          -1.196888933675073,
          -0.12587175175748586,
          1.2853182439019493
        ],
        [
          0.002095387714653599,
          -0.024706928292013465,
          -0.0016282093223621832
        ]
      ],
      [
        [
          0.3087063777303642,
          0.04805745315214508,
          0.2505631867716571
        ],
        [
          0.4443901295602246,
          1.6461538809559744,
          0.17130071610085243
        ],
        [
          -7.768718652442563e-05,
          1.5697151734878072,
          0.1734719267293454
        ],
        [
          0.02408031764887468,
          0.026651809820909,
          0.024513380637908026
        ],
        [
          0.00028213042499699486,
          1.552888402242733,
          0.14466523550661958
        ],
        [
          6.03061781383464e-05,
          1.5709647132415363,
          0.11712418397850609
        ]
      ]
    ],
    "weights_stage2": [
      [
        [
          -1.5135203157525328,
          -1.3943004096740355,
          1.097819228050993
        ],
        [
          0.02987002049877783,
          0.3134502988304658,
          0.6700099430275458
        ],
        [
          1.7760503603122733,
          -0.12485574931635916,
          -0.7551873894502487
        ],
        [
          0.019587811281013195,
          1.1616228341729318,
          -0.5344662704538993
        ],
        [
          -0.006061156362780503,
          0.8793886029610865,
          -0.9279520525544753
        ],
        [
          -1.9893475599711727,
          2.262998351579384,
          1.031980795727471
        ]
      ],
      [
        [
          -0.036422871654331904,
          -0.010303450706267574,
          0.05821229408651452
        ],
        [
          -0.2749284180417524,
          0.003323506267573749,
          0.2991627899276038
        ],
        [
          0.5198470627056152,
          -0.019019289332754097,
          -0.521870561143223
        ],
        [
          -0.9560355230965629,
          -0.07287840319472641,
          0.9083585872821892
        ],
        [
          -1.6346839137495555,
          0.0200891162628296,
          1.5899563760578066
        ],
        [
          0.045801654773745974,
          -0.0026833809162255208,
          -0.06442539036009493
        ]
      ],
      [
        [
          0.562662684862672,
          0.003497880169019326,
          0.28575445966343016
        ],
        [
          -0.2659090863833433,
          1.5787388247312015,
          -0.014645754103862482
        ],
        [
          3.3143703119622767,
          1.5613060263601721,
          -0.004009053730139713
        ],
        [
          0.1786707724395409,
          -0.019759272824146308,
          0.05690599786801415
        ],
        [
          -0.03252180319299613,
          1.5266036271693122,
          0.1323825561724286
        ],
        [
          -0.03461770536916209,
          1.5733782229977311,
          0.11365229722173456
        ]
      ],
      [
        [
          -1.5406055301570178,
          -1.3292048611025145,
          1.144444184883477
        ],
        [
          0.05796837050025055,
          0.34455074999051344,
          0.6421438237782048
        ],
        [
          1.92001050383031,
          -0.06521438173074795,
          -0.8865233022568245
        ],
        [
          0.00634257999856234,
          1.1640498653708775,
          -0.47295355897375024
        ],
        [
          -0.02463170401488073,
          0.8686908476940908,
          -0.9256824966813294
        ],
        [
          -2.0258887610781806,
          -3.8408148624596787,
          1.0031295579948343
        ]
      ],
      [
        [
          1.1947653519688932,
          -0.08517307421435585,
          -1.1867289128798346
        ],
        [
          -0.10531443859979765,
          -0.032446298078117525,
          0.1788043354778897
        ],
        [
          -0.011405240055670042,
          0.016744518043101588,
          -0.04514304194515688
        ],
        [
          -1.0629712352612102,
          -0.07685134917803639,
          0.9780001950109906
        ],
        [
          -1.7012823668848218,
          -0.06181974095088984,
          1.695878084474667
        ],
        [
          0.1481612108628846,
          -0.007980991021427592,
          -0.17109254021303913
        ]
      ],
      [
        [
          0.6616025782864199,
          -0.020552680699672993,
          0.21537191387987664
        ],
        [
          1.9193806791868964,
          1.562324691242696,
          0.023707865094708618
        ],
        [
          -1.422716548755628,
          1.594270582390034,
          0.002946371290905141
        ],
        [
          0.23769098657902504,
          -0.00637159025904351,
          -0.007879236592189318
        ],
        [
          0.015224805004748482,
          1.5522281017180641,
          0.15694791484081302
        ],
        [
          -0.017850186586451496,
          1.6028635341129185,
          0.12059607073527852
        ]
      ]
    ]
  },
  "metrics": {
    "stage1_min_cost": 0.09515298752606605,
    "stage2_min_cost": 0.15628815903383614,
    "mse_train_noise": 0.04208329887417109,
    "mse_train_recovered": 0.02816920998211965,
    "delta_train_pct": 33.063208598866055,
    "mse_test_noise": 0.03574197205136823,
    "mse_test_recovered": 0.022211897252265637,
    "delta_test_pct": 37.854863687032214,
    "mse_train_recovered_pure": 0.0024978611596206124,
    "mse_test_recovered_pure": 0.004708732663644218
  },
  "artifacts": {
    "weights_s1_file": "weights_s1_inst05_L3.npy",
    "weights_s2_file": "weights_s2_inst05_L3.npy",
    "circuit_stage1": "circuit_stage1_6q_4l_2t_sidekick_L03_inst05.eps",
    "circuit_stage2": "circuit_stage1_6q_4l_2t_sidekick_L03_inst05.eps",
    "circuit_full": "circuit_full_6q_4l_2t_sidekick_L3_inst05.eps",
    "training_cost_s1_plot": "training_cost_s1_dec500_enc300_inst05.eps",
    "training_cost_s2_plot": "training_cost_s2_dec500_enc300_inst05.eps",
    "reconstruction_pure_plot": "reconst_pure_dec500_enc300_inst05_L3.eps",
    "reconstruction_noisy_plot": "reconst_noisy_dec500_enc300_inst05_L3.eps"
  }
}