{
  "schema": {
    "name": "sidekick_qae_bundle",
    "version": "1.0"
  },
  "timestamp": "2026-02-22 15:42:29",
  "dataset": {
    "id": "mackey_glass_tau30_n200",
    "scale_low": 0.0,
    "scale_high": 1.0,
    "window_size": 6,
    "window_step": 2,
    "split": 0.75
  },
  "run": {
    "instance_id": 2,
    "layer": 3,
    "dec_epochs": 300,
    "enc_epochs": 300,
    "sigma_eval": 0.2,
    "test_seed_fixed": 99123,
    "device_seed": 13046,
    "stage1_time_sec": 103,
    "stage2_time_sec": 224
  },
  "environment": {
    "device": "lightning.qubit",
    "diff_method": "adjoint",
    "interface": "autograd"
  },
  "architecture": {
    "type": "sidekick",
    "n_qubits": 6,
    "n_latent": 4,
    "n_trash": 2,
    "rot": "Rxyz"
  },
  "parameters": {
    "weights_stage1": [
      [
        [
          1.5651880007356647,
          -1.5629043724554812,
          -1.5310497953816367
        ],
        [
          0.20754744681220677,
          0.24436732123980104,
          -0.5651137250649243
        ],
        [
          0.026602834785386893,
          -1.1385430551486688,
          -1.6080120145985277
        ],
        [
          0.025142435190992258,
          1.418005566548501,
          0.06762966223966586
        ],
        [
          0.20620443543839534,
          0.1911342444933371,
          0.9623896958010291
        ],
        [
          -1.5713498298830533,
          -1.5719780254374256,
          1.4264323051350138
        ]
      ],
      [
        [
          0.04826310995732932,
          -0.0037150692700880466,
          0.017908453981518066
        ],
        [
          0.8174281400114118,
          0.2163237715197709,
          -1.370416763741886
        ],
        [
          -0.11895520943834992,
          0.06299233132543168,
          0.27502645489728944
        ],
        [
          -0.32868989391128617,
          -0.014630769828292032,
          0.42681759670216174
        ],
        [
          0.22581919630013728,
          -0.02996688605464589,
          -0.16675106901799192
        ],
        [
          -0.0004452980939061189,
          0.0783885458600802,
          -0.0007592567807790296
        ]
      ],
      [
        [
          0.16757622799231509,
          0.19423719076098653,
          0.3081984962075381
        ],
        [
          0.44403266604643105,
          1.573188191770048,
          0.29265208322819075
        ],
        [
          0.01202359264803196,
          1.5660489856469093,
          0.18030828204595403
        ],
        [
          0.28074658264358193,
          0.04778507800058899,
          0.275478429494586
        ],
        [
          -0.04049217495568177,
          1.5569126605747823,
          0.06825199204627659
        ],
        [
          -0.00412274377393522,
          1.5669685267024789,
          0.1620009924200129
        ]
      ]
    ],
    "weights_stage2": [
      [
        [
          1.5483490145225227,
          -1.5377275286234553,
          -1.113800953445396
        ],
        [
          -1.9983367149996871,
          -0.16352388448216787,
          -1.6353539029749475
        ],
        [
          0.048179918073575516,
          -1.5039018636728518,
          -3.4337951753065914
        ],
        [
          0.004281889130634497,
          1.2918018006630787,
          0.6286804807058394
        ],
        [
          0.004700356203223272,
          0.9457725672750019,
          1.2142631590856523
        ],
        [
          -1.6495673357732048,
          -1.4305204743001574,
          2.2308824910336447
        ]
      ],
      [
        [
          -0.665800727688877,
          -0.004426781635074675,
          0.6912941121582202
        ],
        [
          1.1689524263170847,
          -0.10018519836299425,
          -1.208418708675645
        ],
        [
          -0.8713274304811404,
          0.014027708516901907,
          0.7779127329182558
        ],
        [
          -1.4435504665811834,
          0.10521297933240399,
          1.3698493486910797
        ],
        [
          0.06021670607933316,
          0.02010787266937894,
          -0.04528855528888793
        ],
        [
          0.39687282436234095,
          -0.010003988086213228,
          -0.4262683519660133
        ]
      ],
      [
        [
          -0.33004886763355923,
          0.0056725907716291615,
          0.3664356249857513
        ],
        [
          3.7253409025855375,
          1.596359110565182,
          -0.03369353153708309
        ],
        [
          -0.312840495448015,
          1.5750259458891671,
          0.020942129531437526
        ],
        [
          0.0713324287775843,
          -0.04887560307721938,
          0.24300747058788488
        ],
        [
          0.0132648789311994,
          1.5492939262979901,
          0.044270166842350814
        ],
        [
          0.057085216049368996,
          1.5821053684726063,
          0.19342030702057386
        ]
      ],
      [
        [
          1.4939790045289127,
          -1.4456887050550162,
          -1.1268173289338024
        ],
        [
          -1.6405839808628322,
          -0.04855694469696433,
          -2.0976711670850063
        ],
        [
          0.14444063385923306,
          -1.4922365555047818,
          -3.374270368762006
        ],
        [
          -0.05722415513392288,
          1.2496073405823338,
          0.6549492075973993
        ],
        [
          0.0015932404513995342,
          0.8969996802254461,
          1.2164356258898028
        ],
        [
          -1.7617368242396625,
          -1.2660947028528384,
          2.1595317537772556
        ]
      ],
      [
        [
          0.8994767213630552,
          0.013145739936557491,
          -0.8903795136564138
        ],
        [
          1.1464557338767054,
          -0.026111957899435104,
          -1.234212554806553
        ],
        [
          -1.2616476077820407,
          0.10784454448403755,
          1.1978774079597008
        ],
        [
          -1.5964482162217912,
          0.07541091948667389,
          1.5628452397231725
        ],
        [
          0.33080367144832684,
          -0.06775197944516975,
          -0.2499308016140704
        ],
        [
          -0.789984403480541,
          0.01919461673014789,
          0.8191797350152162
        ]
      ],
      [
        [
          -0.11449030549268499,
          0.04040643857875359,
          0.24996136742933425
        ],
        [
          2.228817850850279,
          1.5536956917057037,
          -0.006081167805495754
        ],
        [
          -0.834208329039861,
          1.5923625047149914,
          0.024509568939960945
        ],
        [
          0.12063873377496385,
          0.016326925568404326,
          0.3079493884012925
        ],
        [
          -0.07024433264306265,
          1.5944345004939942,
          0.09223381725020469
        ],
        [
          0.06757064244223861,
          1.583154327171143,
          0.130581677819454
        ]
      ]
    ]
  },
  "metrics": {
    "stage1_min_cost": 0.09447779385094653,
    "stage2_min_cost": 0.15483107626097944,
    "mse_train_noise": 0.04208329887417109,
    "mse_train_recovered": 0.02647796869750627,
    "delta_train_pct": 37.082003060940394,
    "mse_test_noise": 0.03574197205136823,
    "mse_test_recovered": 0.020358745783640362,
    "delta_test_pct": 43.03966844811795,
    "mse_train_recovered_pure": 0.0029544142252347846,
    "mse_test_recovered_pure": 0.005158668931247196
  },
  "artifacts": {
    "weights_s1_file": "weights_s1_inst02_L3.npy",
    "weights_s2_file": "weights_s2_inst02_L3.npy",
    "circuit_stage1": "circuit_stage1_6q_4l_2t_sidekick_L03_inst02.eps",
    "circuit_stage2": "circuit_stage1_6q_4l_2t_sidekick_L03_inst02.eps",
    "circuit_full": "circuit_full_6q_4l_2t_sidekick_L3_inst02.eps",
    "training_cost_s1_plot": "training_cost_s1_dec300_enc300_inst02.eps",
    "training_cost_s2_plot": "training_cost_s2_dec300_enc300_inst02.eps",
    "reconstruction_pure_plot": "reconst_pure_dec300_enc300_inst02_L3.eps",
    "reconstruction_noisy_plot": "reconst_noisy_dec300_enc300_inst02_L3.eps"
  }
}