{
  "schema": {
    "name": "sidekick_qae_bundle",
    "version": "1.0"
  },
  "timestamp": "2026-02-22 16:40:27",
  "dataset": {
    "id": "mackey_glass_tau30_n200",
    "scale_low": 0.0,
    "scale_high": 1.0,
    "window_size": 6,
    "window_step": 2,
    "split": 0.75
  },
  "run": {
    "instance_id": 5,
    "layer": 3,
    "dec_epochs": 400,
    "enc_epochs": 300,
    "sigma_eval": 0.2,
    "test_seed_fixed": 99123,
    "device_seed": 13049,
    "stage1_time_sec": 138,
    "stage2_time_sec": 226
  },
  "environment": {
    "device": "lightning.qubit",
    "diff_method": "adjoint",
    "interface": "autograd"
  },
  "architecture": {
    "type": "sidekick",
    "n_qubits": 6,
    "n_latent": 4,
    "n_trash": 2,
    "rot": "Rxyz"
  },
  "parameters": {
    "weights_stage1": [
      [
        [
          -0.812782591180843,
          -0.37148715072940136,
          0.7928918450215905
        ],
        [
          -0.16841560658140992,
          -0.12059936876333346,
          0.15925901779030216
        ],
        [
          0.4644699411861662,
          -0.09647575446490841,
          -0.46650456684378777
        ],
        [
          0.6010343128347655,
          1.6497438054698879,
          0.2661865493104622
        ],
        [
          0.1586651525523901,
          0.14661057600045088,
          1.2829650881705492
        ],
        [
          -1.5692011770465024,
          -1.568308155825405,
          1.396689968744608
        ]
      ],
      [
        [
          0.048474002940875616,
          -0.003578947654648174,
          -0.03603492403605102
        ],
        [
          -0.018205861188937418,
          -0.0022604787415803186,
          0.1326192726621128
        ],
        [
          0.1675633638964635,
          6.257641875732738e-05,
          -0.16724546271637075
        ],
        [
          -0.34676244945996554,
          -0.008258862228029788,
          0.34394685711804684
        ],
        [
          -1.2961542852450796,
          0.006791036438314073,
          1.3112220137621355
        ],
        [
          -0.006780641850711147,
          0.0006988179427587384,
          -0.0106905375972499
        ]
      ],
      [
        [
          0.30870637772114035,
          0.0480574531863146,
          0.25056318674980704
        ],
        [
          0.45467408345243393,
          1.6339995297145047,
          0.17130071612007863
        ],
        [
          0.025587624562272093,
          1.5669787855229882,
          0.17347192674846412
        ],
        [
          0.0240803176515947,
          0.02665180983171424,
          0.024513380663109482
        ],
        [
          0.01970561984772064,
          1.5599200830591382,
          0.1446652355145173
        ],
        [
          -0.0364688342342524,
          1.5651081472493638,
          0.11712418398755986
        ]
      ]
    ],
    "weights_stage2": [
      [
        [
          -1.6856677726347131,
          -1.8205896528501186,
          1.073812498070736
        ],
        [
          -1.6203787076776912,
          0.05274507634895231,
          0.3591032864893299
        ],
        [
          1.5887145477160447,
          -0.16758231320752742,
          -0.41731965856981557
        ],
        [
          0.02119239703147205,
          1.2089460819310847,
          -0.06756202889289771
        ],
        [
          -0.011897741956377347,
          0.9667482210839763,
          1.631103843497078
        ],
        [
          -1.8428974324726217,
          1.912390965403251,
          0.8386365933257148
        ]
      ],
      [
        [
          0.25712509003983985,
          -0.04418122784727875,
          -0.3026591916994279
        ],
        [
          -0.22106574072672022,
          -0.029885661727575223,
          0.19026483310007297
        ],
        [
          0.7159123851825898,
          0.01921262465467511,
          -0.7176012620073338
        ],
        [
          -1.6241989745772154,
          0.130168943913551,
          1.6554628152154143
        ],
        [
          -1.3221890657800588,
          0.029016169214028824,
          1.3534167922037024
        ],
        [
          0.0793026744986127,
          -0.04479128756110314,
          -0.07639048647964511
        ]
      ],
      [
        [
          0.6884053819283606,
          0.006863457480541153,
          0.15322487071751958
        ],
        [
          1.9634641732053153,
          1.5793975210544922,
          -0.01282418321427594
        ],
        [
          -1.702454420855389,
          1.5577570459597097,
          0.009262265439393354
        ],
        [
          -0.345133784092097,
          0.008270165131912277,
          -0.02760262057316173
        ],
        [
          -0.0042618346127638665,
          1.583469950107142,
          0.15146688814937836
        ],
        [
          0.0026592574973756332,
          1.5711054960280129,
          0.10410545701209771
        ]
      ],
      [
        [
          -1.5226439158484293,
          -1.5315265187640466,
          1.1657577213735912
        ],
        [
          -1.874093686865802,
          0.06200229300676671,
          0.6344392573064229
        ],
        [
          1.7326571468132639,
          -0.1660830086827415,
          -0.5475559303953397
        ],
        [
          0.02966141303722692,
          1.181859698343031,
          -0.025596657837952473
        ],
        [
          -0.0037980711152123627,
          0.9222587191346344,
          1.583933867565865
        ],
        [
          -1.6626584518063794,
          1.6825317549859622,
          0.9990366840073366
        ]
      ],
      [
        [
          -0.10268659786972557,
          -0.029004394905528714,
          0.04123669995189872
        ],
        [
          -0.2324406473863362,
          -0.03732653327866933,
          0.2870281578400528
        ],
        [
          0.5112599525655424,
          -0.027282034550347844,
          -0.5201088735557761
        ],
        [
          -1.5708582241722808,
          0.0754530670934995,
          1.5620861264400594
        ],
        [
          -1.608743092424085,
          0.07550397342476176,
          1.611400588955418
        ],
        [
          0.05003733806174448,
          -0.012439806266031481,
          -0.024273939895176917
        ]
      ],
      [
        [
          0.5646656360321862,
          -0.0008799484948555304,
          0.34790150278209725
        ],
        [
          2.4006389471820793,
          1.5996239201955236,
          -0.03259280426438338
        ],
        [
          -1.698167708148373,
          1.5495927037857344,
          -0.002619948006544346
        ],
        [
          -0.450168067704865,
          -0.016042335743228983,
          0.07662938189938168
        ],
        [
          0.017820027094426018,
          1.615016348071767,
          0.13786358287965808
        ],
        [
          -0.009640777868926656,
          1.5741124744011166,
          0.1301429109630256
        ]
      ]
    ]
  },
  "metrics": {
    "stage1_min_cost": 0.11083391121708205,
    "stage2_min_cost": 0.1560840422611795,
    "mse_train_noise": 0.04208329887417109,
    "mse_train_recovered": 0.02874354413407291,
    "delta_train_pct": 31.69845306087814,
    "mse_test_noise": 0.03574197205136823,
    "mse_test_recovered": 0.022738872174965293,
    "delta_test_pct": 36.38047687384158,
    "mse_train_recovered_pure": 0.0035502545168325825,
    "mse_test_recovered_pure": 0.004635654768671791
  },
  "artifacts": {
    "weights_s1_file": "weights_s1_inst05_L3.npy",
    "weights_s2_file": "weights_s2_inst05_L3.npy",
    "circuit_stage1": "circuit_stage1_6q_4l_2t_sidekick_L03_inst05.eps",
    "circuit_stage2": "circuit_stage1_6q_4l_2t_sidekick_L03_inst05.eps",
    "circuit_full": "circuit_full_6q_4l_2t_sidekick_L3_inst05.eps",
    "training_cost_s1_plot": "training_cost_s1_dec400_enc300_inst05.eps",
    "training_cost_s2_plot": "training_cost_s2_dec400_enc300_inst05.eps",
    "reconstruction_pure_plot": "reconst_pure_dec400_enc300_inst05_L3.eps",
    "reconstruction_noisy_plot": "reconst_noisy_dec400_enc300_inst05_L3.eps"
  }
}