{
  "schema": {
    "name": "sidekick_qae_bundle",
    "version": "1.0"
  },
  "timestamp": "2026-02-22 14:57:15",
  "dataset": {
    "id": "mackey_glass_tau30_n200",
    "scale_low": 0.0,
    "scale_high": 1.0,
    "window_size": 6,
    "window_step": 2,
    "split": 0.75
  },
  "run": {
    "instance_id": 7,
    "layer": 3,
    "dec_epochs": 100,
    "enc_epochs": 300,
    "sigma_eval": 0.2,
    "test_seed_fixed": 99123,
    "device_seed": 13051,
    "stage1_time_sec": 34,
    "stage2_time_sec": 222
  },
  "environment": {
    "device": "lightning.qubit",
    "diff_method": "adjoint",
    "interface": "autograd"
  },
  "architecture": {
    "type": "sidekick",
    "n_qubits": 6,
    "n_latent": 4,
    "n_trash": 2,
    "rot": "Rxyz"
  },
  "parameters": {
    "weights_stage1": [
      [
        [
          0.03896709563086969,
          -0.1918994612831255,
          -0.042426342685566804
        ],
        [
          0.03335945180952676,
          0.4188821825960899,
          0.22388234838375132
        ],
        [
          -0.1873011668812218,
          -0.5574599196280228,
          0.20902735125868516
        ],
        [
          0.9140402784697884,
          0.2082679837769618,
          0.6164241504870116
        ],
        [
          0.6886712450436975,
          -0.5401192118166329,
          0.9301837113973885
        ],
        [
          0.05451025765168778,
          -0.34729136471367894,
          -0.0521383891408119
        ]
      ],
      [
        [
          0.32180494979161334,
          0.01651167642495723,
          -0.3226344613964598
        ],
        [
          0.05145785806858305,
          -0.001034626971933973,
          -0.05669499895021017
        ],
        [
          0.07890277155169914,
          0.003169798946591254,
          -0.07969603402501926
        ],
        [
          -0.34495483833410395,
          -5.61444955814911e-05,
          0.3440132655652788
        ],
        [
          0.07587029677463042,
          -0.0026236664197393502,
          -0.0753164379003831
        ],
        [
          -0.13698061736942962,
          0.00046124516277266356,
          0.1373492968869072
        ]
      ],
      [
        [
          0.09092698815104854,
          0.006128600729534719,
          0.2435354689775691
        ],
        [
          -0.011263480406356942,
          1.5696752853435503,
          0.21347307300988053
        ],
        [
          0.0005422947415790879,
          1.5774641619470429,
          0.1869816909235238
        ],
        [
          0.008810459860470103,
          0.2686045422182543,
          0.02567144050777017
        ],
        [
          -2.2943132932107908e-05,
          1.5959444303038322,
          0.18038667284295717
        ],
        [
          0.0008271107767506784,
          1.5603572375220505,
          0.0019613493881690965
        ]
      ]
    ],
    "weights_stage2": [
      [
        [
          -1.6408801632456618,
          -1.7866776166705658,
          1.0811097712838846
        ],
        [
          0.4138299778561469,
          0.2789480841829853,
          -0.13687704076578264
        ],
        [
          -1.527492640036194,
          0.05962641416507849,
          -0.23844933687317008
        ],
        [
          0.003704599307127916,
          1.2112801868848242,
          0.014891129694760167
        ],
        [
          0.008418408950366003,
          0.9670382171797464,
          1.5717323777699364
        ],
        [
          1.182521033777058,
          1.152201388307946,
          -0.8013108148227529
        ]
      ],
      [
        [
          1.3274969785038164,
          0.04930914480535191,
          -1.303810308313299
        ],
        [
          -0.32377475649859006,
          -0.015644360717746615,
          0.3283576462749845
        ],
        [
          0.48992663500871764,
          -0.06349833710190801,
          -0.4507952761891706
        ],
        [
          -1.6107247090814247,
          0.13949979283346423,
          1.6135202301569023
        ],
        [
          -1.0309035288384676,
          -0.0033915532038052473,
          0.9919453522649054
        ],
        [
          -0.24196099629284598,
          -0.039857397677464684,
          0.24515072960157497
        ]
      ],
      [
        [
          0.26483574514696695,
          0.07328119153323813,
          0.21528602284532156
        ],
        [
          0.2802242112983123,
          1.546565032101152,
          -0.014123086183911088
        ],
        [
          -0.06675878846380827,
          1.5750756544390871,
          -0.01957853018494825
        ],
        [
          0.31552235833674935,
          -0.0025643559508599567,
          -0.0319143183845966
        ],
        [
          -0.04749326689479107,
          1.5864953868302065,
          0.1786627974840924
        ],
        [
          0.040639461267640904,
          1.5797435824118582,
          0.0056663706083649
        ]
      ],
      [
        [
          -1.7626459968374437,
          -1.8921090520843655,
          1.1215064362653595
        ],
        [
          0.3096643759909936,
          0.2950347230980114,
          0.01666808934880356
        ],
        [
          -1.5075007033489758,
          0.06316612210075381,
          -0.2180939693382074
        ],
        [
          -0.004957579572593649,
          1.1924501690465255,
          0.01250960553710178
        ],
        [
          0.002757170788232612,
          0.9228708813253699,
          1.5602719959085871
        ],
        [
          -0.08062581103571025,
          0.5914290496657537,
          0.0565000136618384
        ]
      ],
      [
        [
          1.1971917901203726,
          -0.04487657473662795,
          -1.1778985057071756
        ],
        [
          -0.28055251695042177,
          -0.04201231406882327,
          0.4363511660637484
        ],
        [
          -0.09660895119261434,
          -0.03371090635953497,
          0.017371154825288594
        ],
        [
          -1.5622879874784736,
          0.02637162741053372,
          1.5408761110282794
        ],
        [
          -0.01062047627933813,
          -0.02654001223781126,
          0.0742861990995734
        ],
        [
          0.059193580094353354,
          0.013898571557838522,
          -0.08787773146555862
        ]
      ],
      [
        [
          0.17160368785946928,
          0.04605693292172043,
          0.27178491510981967
        ],
        [
          -6.549199233887055,
          1.5689021738463496,
          -0.037696002313098255
        ],
        [
          2.2134564890503072,
          1.544167188019095,
          0.013369700363621862
        ],
        [
          0.26695870325060633,
          0.009921962877736498,
          0.08325719940013303
        ],
        [
          0.01584587052039772,
          1.5846385686455076,
          0.18211054820181702
        ],
        [
          0.008923038464728006,
          1.5806508009070213,
          -0.0017436718320163682
        ]
      ]
    ]
  },
  "metrics": {
    "stage1_min_cost": 0.12680185518717285,
    "stage2_min_cost": 0.15686388757478625,
    "mse_train_noise": 0.04208329887417109,
    "mse_train_recovered": 0.029336546793611792,
    "delta_train_pct": 30.289336676461698,
    "mse_test_noise": 0.03574197205136823,
    "mse_test_recovered": 0.02280395254938406,
    "delta_test_pct": 36.19839298007871,
    "mse_train_recovered_pure": 0.004850125950625683,
    "mse_test_recovered_pure": 0.007243910197129565
  },
  "artifacts": {
    "weights_s1_file": "weights_s1_inst07_L3.npy",
    "weights_s2_file": "weights_s2_inst07_L3.npy",
    "circuit_stage1": "circuit_stage1_6q_4l_2t_sidekick_L03_inst07.eps",
    "circuit_stage2": "circuit_stage1_6q_4l_2t_sidekick_L03_inst07.eps",
    "circuit_full": "circuit_full_6q_4l_2t_sidekick_L3_inst07.eps",
    "training_cost_s1_plot": "training_cost_s1_dec100_enc300_inst07.eps",
    "training_cost_s2_plot": "training_cost_s2_dec100_enc300_inst07.eps",
    "reconstruction_pure_plot": "reconst_pure_dec100_enc300_inst07_L3.eps",
    "reconstruction_noisy_plot": "reconst_noisy_dec100_enc300_inst07_L3.eps"
  }
}