{
  "schema": {
    "name": "sidekick_qae_bundle",
    "version": "1.0"
  },
  "timestamp": "2026-02-22 14:44:20",
  "dataset": {
    "id": "mackey_glass_tau30_n200",
    "scale_low": 0.0,
    "scale_high": 1.0,
    "window_size": 6,
    "window_step": 2,
    "split": 0.75
  },
  "run": {
    "instance_id": 4,
    "layer": 3,
    "dec_epochs": 100,
    "enc_epochs": 300,
    "sigma_eval": 0.2,
    "test_seed_fixed": 99123,
    "device_seed": 13048,
    "stage1_time_sec": 34,
    "stage2_time_sec": 223
  },
  "environment": {
    "device": "lightning.qubit",
    "diff_method": "adjoint",
    "interface": "autograd"
  },
  "architecture": {
    "type": "sidekick",
    "n_qubits": 6,
    "n_latent": 4,
    "n_trash": 2,
    "rot": "Rxyz"
  },
  "parameters": {
    "weights_stage1": [
      [
        [
          -0.008871507594652706,
          -0.21247892077330172,
          0.009959509816999775
        ],
        [
          -0.05760531550194726,
          0.8290016790681957,
          0.8508507472040157
        ],
        [
          0.0003133711568873175,
          -0.5738527896345966,
          -0.03597355778755863
        ],
        [
          0.5193874980428066,
          0.9789223592208627,
          0.1605196274744804
        ],
        [
          0.4380707860547552,
          -0.42935630405898456,
          0.9081969434251195
        ],
        [
          1.3346309126877791,
          -0.9193879821407631,
          -1.1579760245631847
        ]
      ],
      [
        [
          0.5020065538620344,
          -0.02032273780202249,
          -0.4994754457674526
        ],
        [
          -0.0837929454279651,
          0.0007989206594903477,
          0.0886417593547208
        ],
        [
          0.3819786964140425,
          0.0013227662288174307,
          -0.38553658997436757
        ],
        [
          0.1052889791661899,
          -0.0040203143405263845,
          -0.10859244034678356
        ],
        [
          -0.6169963893165872,
          -0.0032591226366300366,
          0.617015505054133
        ],
        [
          -0.01210987374822573,
          0.012209411113514881,
          0.016472354132626238
        ]
      ],
      [
        [
          0.14891701571806082,
          0.13861431510005898,
          0.26054751707101076
        ],
        [
          -0.2928194679394587,
          1.5583166572605673,
          0.2771932721560671
        ],
        [
          -0.013684687259814914,
          1.5768625367537858,
          0.17416317210798224
        ],
        [
          0.04006980358106609,
          0.3016307763292774,
          0.027538430098244183
        ],
        [
          -0.004998952333559949,
          1.580287335601895,
          0.17430469851975416
        ],
        [
          -0.01313685605601049,
          1.5647325661661948,
          0.028030159665994755
        ]
      ]
    ],
    "weights_stage2": [
      [
        [
          -1.628760348271631,
          -1.6991759975312641,
          1.0789085120061488
        ],
        [
          -1.1620897372229373,
          0.15161701390366925,
          1.2106426848130196
        ],
        [
          1.8840880335862613,
          0.16985307978404604,
          1.0838631170340252
        ],
        [
          0.019943242863026324,
          1.1846088100558512,
          -0.08566659850539435
        ],
        [
          0.04682207909253314,
          0.9575476830243135,
          1.4907360813371582
        ],
        [
          4.876929450543206,
          1.2362307409737716,
          -5.229441768032352
        ]
      ],
      [
        [
          0.5919169859954031,
          -0.02467116563802482,
          -0.6076330651172782
        ],
        [
          -0.3247671521881403,
          -0.033984309446179195,
          0.3867761508387048
        ],
        [
          1.1240016101618562,
          0.03273229058452513,
          -1.0807497848405547
        ],
        [
          0.008227452136803304,
          -0.0060670178615733214,
          -0.00477686923325085
        ],
        [
          1.5020395765240697,
          0.019292962490370404,
          -1.4990062852609147
        ],
        [
          -0.8776349416174725,
          -0.018745923268572932,
          0.8728288512103446
        ]
      ],
      [
        [
          -0.6737803578446347,
          -0.027438085959120607,
          0.28579123083678115
        ],
        [
          -5.34417605131844,
          1.6155377723140785,
          -0.03460654250826106
        ],
        [
          -0.944804392491124,
          1.6460008531412014,
          0.01592566008841631
        ],
        [
          0.10692466602756273,
          0.05847985973298969,
          0.040457891864675716
        ],
        [
          -0.013471167702480448,
          1.5908724737559077,
          0.17406799190695071
        ],
        [
          -0.02959638872438152,
          1.5630396406986455,
          0.007645529896142672
        ]
      ],
      [
        [
          1.5678226440968968,
          -1.4804840694308878,
          -1.118927967004983
        ],
        [
          -1.4524734898475964,
          0.08378995318289092,
          1.5521721163607778
        ],
        [
          1.6969437750775285,
          0.18413351116017174,
          1.2214546078170636
        ],
        [
          0.01022333623665172,
          1.1633309909493648,
          -0.050330592410572556
        ],
        [
          -0.0070704775207171095,
          0.83607160147108,
          1.4751283896593745
        ],
        [
          5.103685750829557,
          0.8132800772366419,
          -5.322297556652117
        ]
      ],
      [
        [
          0.794338201074712,
          -0.0014900362407452186,
          -0.8293872597777338
        ],
        [
          -0.8925867621622467,
          -0.05227236035244268,
          0.8231474381069345
        ],
        [
          0.6235008053375451,
          -0.004206661626599544,
          -0.5362726546126148
        ],
        [
          1.0640946024886695,
          -0.05717972669554103,
          -1.0017101638188834
        ],
        [
          0.29781029931429076,
          -0.011423161758339174,
          -0.3183552247065548
        ],
        [
          -0.23935375481612703,
          0.0062092148601357484,
          0.24979516501719062
        ]
      ],
      [
        [
          -0.6034252197290407,
          -0.0536882649220162,
          0.23530380330524026
        ],
        [
          0.38385707973213706,
          1.5753852003623758,
          -0.014593815934993008
        ],
        [
          -0.21126238667217903,
          1.57192843354698,
          0.04563211825192854
        ],
        [
          0.14820591690266366,
          0.02346657034173376,
          0.014618968331811096
        ],
        [
          0.010370864057836314,
          1.5689352406220458,
          0.17454140513255245
        ],
        [
          0.034260387330623115,
          1.6196674904815727,
          0.04841478943584212
        ]
      ]
    ]
  },
  "metrics": {
    "stage1_min_cost": 0.12010153774751493,
    "stage2_min_cost": 0.15766325915254484,
    "mse_train_noise": 0.04208329887417109,
    "mse_train_recovered": 0.028391276704473917,
    "delta_train_pct": 32.535524866138154,
    "mse_test_noise": 0.03574197205136823,
    "mse_test_recovered": 0.021385250357788314,
    "delta_test_pct": 40.16768205443866,
    "mse_train_recovered_pure": 0.004474048330052837,
    "mse_test_recovered_pure": 0.005876614962490607
  },
  "artifacts": {
    "weights_s1_file": "weights_s1_inst04_L3.npy",
    "weights_s2_file": "weights_s2_inst04_L3.npy",
    "circuit_stage1": "circuit_stage1_6q_4l_2t_sidekick_L03_inst04.eps",
    "circuit_stage2": "circuit_stage1_6q_4l_2t_sidekick_L03_inst04.eps",
    "circuit_full": "circuit_full_6q_4l_2t_sidekick_L3_inst04.eps",
    "training_cost_s1_plot": "training_cost_s1_dec100_enc300_inst04.eps",
    "training_cost_s2_plot": "training_cost_s2_dec100_enc300_inst04.eps",
    "reconstruction_pure_plot": "reconst_pure_dec100_enc300_inst04_L3.eps",
    "reconstruction_noisy_plot": "reconst_noisy_dec100_enc300_inst04_L3.eps"
  }
}