{
  "schema": {
    "name": "sidekick_qae_bundle",
    "version": "1.0"
  },
  "timestamp": "2026-02-22 15:58:57",
  "dataset": {
    "id": "mackey_glass_tau30_n200",
    "scale_low": 0.0,
    "scale_high": 1.0,
    "window_size": 6,
    "window_step": 2,
    "split": 0.75
  },
  "run": {
    "instance_id": 5,
    "layer": 3,
    "dec_epochs": 300,
    "enc_epochs": 300,
    "sigma_eval": 0.2,
    "test_seed_fixed": 99123,
    "device_seed": 13049,
    "stage1_time_sec": 103,
    "stage2_time_sec": 225
  },
  "environment": {
    "device": "lightning.qubit",
    "diff_method": "adjoint",
    "interface": "autograd"
  },
  "architecture": {
    "type": "sidekick",
    "n_qubits": 6,
    "n_latent": 4,
    "n_trash": 2,
    "rot": "Rxyz"
  },
  "parameters": {
    "weights_stage1": [
      [
        [
          -0.022440908902700805,
          -0.22592351397179278,
          0.022081958247106414
        ],
        [
          -0.18974921232590622,
          -0.17415757540571775,
          0.14094412031205475
        ],
        [
          0.3226453598843329,
          -0.3298123370687121,
          -0.35025027705382705
        ],
        [
          0.638166657292314,
          1.1347302950079285,
          0.30865488719704287
        ],
        [
          0.1599666399724174,
          0.1820477693748808,
          0.9766285210390819
        ],
        [
          -1.570445263799907,
          -1.5698464195310857,
          1.399387157840143
        ]
      ],
      [
        [
          0.05117174047970057,
          -0.002500863233037597,
          -0.03277332213970418
        ],
        [
          -0.07491369448431608,
          8.407987085504863e-05,
          0.07701225979794167
        ],
        [
          0.16812882712269284,
          0.00137855528385211,
          -0.16703864772353283
        ],
        [
          -0.30393914958693824,
          -0.011294237608220806,
          0.30665396471709
        ],
        [
          -1.3099162078950028,
          -0.012909124791156053,
          1.311031801023677
        ],
        [
          -0.0072214595863594215,
          0.0011645518831935257,
          -0.010804291577159585
        ]
      ],
      [
        [
          0.308706377714675,
          0.04805745318995971,
          0.2505631867652988
        ],
        [
          0.4556830759212638,
          1.6069855320846496,
          0.17130071613598588
        ],
        [
          0.008424035715941029,
          1.5752940177371575,
          0.17347192677208328
        ],
        [
          0.024080317614832356,
          0.02665180989925322,
          0.02451338064135638
        ],
        [
          0.004252939722467733,
          1.5647630983849308,
          0.14466523553582214
        ],
        [
          -0.03856315277305305,
          1.571245542792813,
          0.11712418400353594
        ]
      ]
    ],
    "weights_stage2": [
      [
        [
          -1.4270746766287894,
          -1.335896636196694,
          1.0757540375749854
        ],
        [
          -1.9612299757637957,
          -0.11164760889726506,
          0.05744074128709497
        ],
        [
          1.6152880617068193,
          -0.22535632620132728,
          -0.3918238763707212
        ],
        [
          -0.004747737300498046,
          1.1642712305663108,
          -0.12201325020986764
        ],
        [
          0.027296901789118377,
          0.9207946102871863,
          1.5452483820349543
        ],
        [
          -1.2193605056617214,
          -2.0530477355724406,
          2.226006653175036
        ]
      ],
      [
        [
          -0.1542519750582411,
          0.017198722010760926,
          0.1851456629301635
        ],
        [
          0.1175863702699875,
          -0.030824943337682868,
          -0.12241274429295934
        ],
        [
          0.6042536052184734,
          0.05182882153065234,
          -0.582993056201237
        ],
        [
          -1.2099867293926005,
          0.13725837496508264,
          1.1738689357083236
        ],
        [
          -1.224773182906383,
          -0.004624191772966312,
          1.1895983964714407
        ],
        [
          -0.09137919846584655,
          0.035017457583516785,
          0.07520537390203007
        ]
      ],
      [
        [
          0.16766490281524102,
          0.034657068569787314,
          0.2642837787078895
        ],
        [
          1.2857225915805273,
          1.571560615216605,
          0.01907190005510118
        ],
        [
          -0.08369670892420547,
          1.5781879712647282,
          0.009606341445119428
        ],
        [
          -0.04800200255038727,
          -0.0010069593934347873,
          0.02724711415604424
        ],
        [
          0.00964602492196339,
          1.5498225513418247,
          0.12351856327128491
        ],
        [
          0.003607826124396816,
          1.5706904526833871,
          0.10774898545797773
        ]
      ],
      [
        [
          1.659380556469995,
          -1.723011432746384,
          -1.1134646105660664
        ],
        [
          -1.536599443855178,
          -0.12989583855440762,
          -0.42559578481852633
        ],
        [
          1.8348057969381748,
          -0.19044904506610089,
          -0.6245148854693967
        ],
        [
          -0.05367415697569425,
          1.1710244956005582,
          -0.06896429392704607
        ],
        [
          0.007726419813060407,
          0.8807650526628267,
          1.510754517584105
        ],
        [
          -1.2594506342160872,
          -2.172478671576057,
          2.1362048177366715
        ]
      ],
      [
        [
          0.13234268862779547,
          0.010564179111861959,
          -0.09986537677307883
        ],
        [
          -0.10322075945392159,
          -0.02126648571310304,
          0.0014514437842233923
        ],
        [
          -0.27488193143686274,
          -0.057795970743264,
          0.23986819766381962
        ],
        [
          -1.3865473596363147,
          0.09103818859771176,
          1.4036550110254238
        ],
        [
          -1.3355656438651073,
          0.036025056833318296,
          1.3060293939903465
        ],
        [
          0.2036201341950985,
          0.002845408242438204,
          -0.19764425742230396
        ]
      ],
      [
        [
          0.22960185329276536,
          0.013610638079825564,
          0.23684259482271022
        ],
        [
          0.12192959714327273,
          1.5722145622107317,
          -0.02530182017748028
        ],
        [
          1.7719238808950397,
          1.58406966781751,
          0.03474330671042769
        ],
        [
          -0.06869494594395374,
          -0.03630086966364717,
          0.02177964712667661
        ],
        [
          -0.018823735679379824,
          1.540615394389532,
          0.1658119078003612
        ],
        [
          0.0636686896472318,
          1.5896244027469941,
          0.1264993825490874
        ]
      ]
    ]
  },
  "metrics": {
    "stage1_min_cost": 0.11193164306628398,
    "stage2_min_cost": 0.15499084134764773,
    "mse_train_noise": 0.04208329887417109,
    "mse_train_recovered": 0.02898114811110116,
    "delta_train_pct": 31.133849088792466,
    "mse_test_noise": 0.03574197205136823,
    "mse_test_recovered": 0.02205097886069129,
    "delta_test_pct": 38.30508616312579,
    "mse_train_recovered_pure": 0.004029857727677275,
    "mse_test_recovered_pure": 0.0051962305213747095
  },
  "artifacts": {
    "weights_s1_file": "weights_s1_inst05_L3.npy",
    "weights_s2_file": "weights_s2_inst05_L3.npy",
    "circuit_stage1": "circuit_stage1_6q_4l_2t_sidekick_L03_inst05.eps",
    "circuit_stage2": "circuit_stage1_6q_4l_2t_sidekick_L03_inst05.eps",
    "circuit_full": "circuit_full_6q_4l_2t_sidekick_L3_inst05.eps",
    "training_cost_s1_plot": "training_cost_s1_dec300_enc300_inst05.eps",
    "training_cost_s2_plot": "training_cost_s2_dec300_enc300_inst05.eps",
    "reconstruction_pure_plot": "reconst_pure_dec300_enc300_inst05_L3.eps",
    "reconstruction_noisy_plot": "reconst_noisy_dec300_enc300_inst05_L3.eps"
  }
}