{
  "schema": {
    "name": "sidekick_qae_bundle",
    "version": "1.0"
  },
  "timestamp": "2026-02-22 17:33:00",
  "dataset": {
    "id": "mackey_glass_tau30_n200",
    "scale_low": 0.0,
    "scale_high": 1.0,
    "window_size": 6,
    "window_step": 2,
    "split": 0.75
  },
  "run": {
    "instance_id": 6,
    "layer": 3,
    "dec_epochs": 500,
    "enc_epochs": 300,
    "sigma_eval": 0.2,
    "test_seed_fixed": 99123,
    "device_seed": 13050,
    "stage1_time_sec": 175,
    "stage2_time_sec": 227
  },
  "environment": {
    "device": "lightning.qubit",
    "diff_method": "adjoint",
    "interface": "autograd"
  },
  "architecture": {
    "type": "sidekick",
    "n_qubits": 6,
    "n_latent": 4,
    "n_trash": 2,
    "rot": "Rxyz"
  },
  "parameters": {
    "weights_stage1": [
      [
        [
          -1.570707174103479,
          -1.57023210366841,
          1.4620492069380147
        ],
        [
          -0.047740398448246804,
          0.012936165273607879,
          1.6208390474926064
        ],
        [
          0.010321707957375198,
          -0.9590624936640425,
          -1.5857669634482316
        ],
        [
          0.6927514246596918,
          -0.8473793022127202,
          -0.49848089905938925
        ],
        [
          0.8301257083751591,
          -1.3473958662352987,
          0.018723491244835237
        ],
        [
          -0.6757950346895218,
          -0.3507685207238666,
          0.5769124029771018
        ]
      ],
      [
        [
          -0.3364277230198064,
          0.01334493566559461,
          0.32501281896881823
        ],
        [
          0.16338801253427318,
          0.0007382362277428252,
          0.34502903039803484
        ],
        [
          1.3866406621702498,
          0.6633121188959447,
          -1.4754564561733687
        ],
        [
          0.16473489428462032,
          0.030534029449859456,
          -0.1743184227210426
        ],
        [
          -0.3639932102072615,
          0.033372149108873844,
          0.36258642271690905
        ],
        [
          -0.07280955900186696,
          -0.01197318731492288,
          0.07408586451246052
        ]
      ],
      [
        [
          0.10177923136206155,
          0.11127701152755248,
          0.2125933802187564
        ],
        [
          0.13417463981485214,
          1.5391200532740215,
          0.22640432746994843
        ],
        [
          -0.022245488063131386,
          1.5761602067785634,
          0.16765587711475027
        ],
        [
          0.22838132242830902,
          0.21203543347002296,
          0.28353311836853606
        ],
        [
          0.009403980433920635,
          1.2970086862815322,
          0.012024009757232883
        ],
        [
          0.026536392796711276,
          1.573781185597872,
          0.10096771599605298
        ]
      ]
    ],
    "weights_stage2": [
      [
        [
          -1.667644646286545,
          -1.71062794102912,
          1.0540105640199653
        ],
        [
          -1.9483229536186972,
          -0.10712069804841316,
          0.3854977622295037
        ],
        [
          -0.11333245707129024,
          -1.3489368467235145,
          -3.134878742639753
        ],
        [
          0.011613407403719429,
          -1.659381926217904,
          1.579861699853139
        ],
        [
          0.03764632453553872,
          -2.2825608084772258,
          -0.03490465799375691
        ],
        [
          -1.410782047910097,
          -1.7802965752601776,
          -1.1391627637329758
        ]
      ],
      [
        [
          -0.13512992757237927,
          0.007814040284465362,
          0.1882992166099004
        ],
        [
          0.12496790003581737,
          0.0024632400538270273,
          -0.08567384010185576
        ],
        [
          1.6006573195853377,
          -0.48112492051656724,
          -1.620969974681003
        ],
        [
          0.333030567948523,
          0.003998031313460888,
          -0.35457935968796855
        ],
        [
          -0.7085408341663813,
          -0.009949562480060629,
          0.7162221360153974
        ],
        [
          -0.09840485943770536,
          0.03810131718623492,
          0.12985171572195814
        ]
      ],
      [
        [
          0.15947035650821553,
          -0.05820165491448665,
          0.202269616781464
        ],
        [
          -0.033295355563063615,
          1.5404022981634493,
          -0.008551046590537091
        ],
        [
          -1.0819218295371194,
          1.3862962856079692,
          -0.08858730051138686
        ],
        [
          0.46071903115278107,
          0.06343285677980075,
          0.28978725610876327
        ],
        [
          0.001525434796441104,
          1.528888099349908,
          0.02470064879129043
        ],
        [
          -0.033659628726488124,
          1.5715665281900326,
          0.11958113717709498
        ]
      ],
      [
        [
          -1.5025288876258869,
          -1.398478643290734,
          1.1038433387490698
        ],
        [
          -1.6220423461886413,
          -0.1697280874158857,
          -0.04819501606092011
        ],
        [
          -0.10100816359642967,
          -1.312259759550682,
          -3.1305546964869952
        ],
        [
          0.014064429775073193,
          -1.7238107584501643,
          1.5762811934778955
        ],
        [
          0.015448762475759504,
          -2.2961800945444133,
          -0.04136750414624191
        ],
        [
          -1.1902182406857436,
          -2.430728927968798,
          -1.0442233936228809
        ]
      ],
      [
        [
          -0.27297102205730717,
          -0.03728360988550866,
          0.2400305672764192
        ],
        [
          -0.4364235901268012,
          0.044644753813988865,
          0.504090639769529
        ],
        [
          1.6115661005406317,
          -0.3736874989328034,
          -1.6448871259461924
        ],
        [
          0.7768983062471307,
          0.06209534747750016,
          -0.7298178413276291
        ],
        [
          -1.322553074708446,
          -0.018279322175567266,
          1.2914713122266193
        ],
        [
          -0.13317886698822287,
          -0.029620955243971372,
          0.09593515445329259
        ]
      ],
      [
        [
          0.14448255768746548,
          -0.12175018355830575,
          0.22291714365604
        ],
        [
          1.69627910698724,
          1.5568886156460093,
          0.0037934966277256388
        ],
        [
          -0.3568329711443195,
          1.520714059663315,
          -0.096359882599107
        ],
        [
          0.3755473638205678,
          0.04478664793210366,
          0.2772789806283101
        ],
        [
          0.0018098294662102373,
          1.5370239379592499,
          -0.0006526292768347412
        ],
        [
          0.002621805505033312,
          1.6194845101358342,
          0.08235429481500227
        ]
      ]
    ]
  },
  "metrics": {
    "stage1_min_cost": 0.1047797642075254,
    "stage2_min_cost": 0.15436418927931467,
    "mse_train_noise": 0.04208329887417109,
    "mse_train_recovered": 0.027122447606374746,
    "delta_train_pct": 35.55056677597741,
    "mse_test_noise": 0.03574197205136823,
    "mse_test_recovered": 0.021228887211789997,
    "delta_test_pct": 40.605159722916476,
    "mse_train_recovered_pure": 0.0049162617758851,
    "mse_test_recovered_pure": 0.005947525926075186
  },
  "artifacts": {
    "weights_s1_file": "weights_s1_inst06_L3.npy",
    "weights_s2_file": "weights_s2_inst06_L3.npy",
    "circuit_stage1": "circuit_stage1_6q_4l_2t_sidekick_L03_inst06.eps",
    "circuit_stage2": "circuit_stage1_6q_4l_2t_sidekick_L03_inst06.eps",
    "circuit_full": "circuit_full_6q_4l_2t_sidekick_L3_inst06.eps",
    "training_cost_s1_plot": "training_cost_s1_dec500_enc300_inst06.eps",
    "training_cost_s2_plot": "training_cost_s2_dec500_enc300_inst06.eps",
    "reconstruction_pure_plot": "reconst_pure_dec500_enc300_inst06_L3.eps",
    "reconstruction_noisy_plot": "reconst_noisy_dec500_enc300_inst06_L3.eps"
  }
}