{
  "schema": {
    "name": "sidekick_qae_bundle",
    "version": "1.0"
  },
  "timestamp": "2026-02-22 15:11:54",
  "dataset": {
    "id": "mackey_glass_tau30_n200",
    "scale_low": 0.0,
    "scale_high": 1.0,
    "window_size": 6,
    "window_step": 2,
    "split": 0.75
  },
  "run": {
    "instance_id": 3,
    "layer": 3,
    "dec_epochs": 200,
    "enc_epochs": 300,
    "sigma_eval": 0.2,
    "test_seed_fixed": 99123,
    "device_seed": 13047,
    "stage1_time_sec": 68,
    "stage2_time_sec": 223
  },
  "environment": {
    "device": "lightning.qubit",
    "diff_method": "adjoint",
    "interface": "autograd"
  },
  "architecture": {
    "type": "sidekick",
    "n_qubits": 6,
    "n_latent": 4,
    "n_trash": 2,
    "rot": "Rxyz"
  },
  "parameters": {
    "weights_stage1": [
      [
        [
          0.0038057769839196206,
          -0.23088766971547375,
          -0.0038231752982127725
        ],
        [
          0.30936869320579224,
          -0.010372059926341928,
          1.2551994091163077
        ],
        [
          -1.0316158966630986,
          -0.14604567577205158,
          -0.5553008032131327
        ],
        [
          -0.29703091718801405,
          -0.2450255836739953,
          0.2968004160969491
        ],
        [
          0.5583064105065308,
          0.0453539570498686,
          1.0399602943915318
        ],
        [
          -1.5709862378268706,
          -1.5796393499653216,
          1.37672239879134
        ]
      ],
      [
        [
          1.3042157485786505,
          0.04941401515156913,
          -1.306522031083631
        ],
        [
          -0.10000360848585285,
          0.00989114972869222,
          0.10076199110760785
        ],
        [
          0.0149829034493759,
          0.00040163766482340563,
          -0.016011029459989508
        ],
        [
          0.03579964732519467,
          -0.005380779680208936,
          -0.046667486198725364
        ],
        [
          -0.8276461204753526,
          0.02736591953808502,
          0.8278641010991619
        ],
        [
          0.07682571534817238,
          0.002735413486806048,
          -0.08157444077294583
        ]
      ],
      [
        [
          0.25930922785146293,
          0.24191232066023252,
          0.2893004630663549
        ],
        [
          0.511412592988192,
          1.5998969477524478,
          0.017625580085440153
        ],
        [
          -0.03043005134134516,
          1.5714599183276738,
          0.0053342253974771985
        ],
        [
          0.12981642426527917,
          0.24602091143734076,
          0.2550432889070666
        ],
        [
          0.01693236735112542,
          1.368988130359803,
          0.14174489980282676
        ],
        [
          -0.03512571445772635,
          1.5753472693394892,
          0.13898459582656433
        ]
      ]
    ],
    "weights_stage2": [
      [
        [
          1.6611700919213266,
          -1.627099064374059,
          -1.0361678930665825
        ],
        [
          1.9264257614959825,
          -0.20761835551039837,
          1.4691060639076794
        ],
        [
          -1.610795665660661,
          0.10785445501739194,
          -0.26649837924429176
        ],
        [
          -0.011098766473081367,
          1.2245532080842847,
          0.06614155604354993
        ],
        [
          -0.004804127164342103,
          0.989683375000696,
          1.449488985527738
        ],
        [
          -2.3453908410981392,
          -4.013103644312854,
          0.587426380073628
        ]
      ],
      [
        [
          1.5800705310343286,
          0.030658044417299985,
          -1.5598750626911084
        ],
        [
          -0.39884903571154373,
          -0.02770489783509325,
          0.3529270590011
        ],
        [
          -0.0725121436770979,
          0.008819922129853483,
          0.09428973243725951
        ],
        [
          1.6947713026348734,
          -0.1520620427593347,
          -1.696109113359844
        ],
        [
          -0.4602648590128938,
          -0.052237122357991675,
          0.365595978295428
        ],
        [
          -1.1026537617932668,
          -0.011575692859226005,
          1.111760636087641
        ]
      ],
      [
        [
          0.6551249028819552,
          0.017402218684483457,
          0.27586676271768856
        ],
        [
          1.4013026458090405,
          1.5733960362349166,
          -0.012663860446695692
        ],
        [
          -4.620462241789527,
          1.5652101822475277,
          -0.02934228146899813
        ],
        [
          0.45755936782994205,
          0.008293985072432317,
          0.23555173942357452
        ],
        [
          -0.013178154689241769,
          1.6019070997878682,
          0.13142616081331787
        ],
        [
          -0.006754974707609337,
          1.5465083514533857,
          0.1571797196512901
        ]
      ],
      [
        [
          -1.5757392408441429,
          -1.5755797071992348,
          1.1358878797806595
        ],
        [
          1.6871919482751538,
          -0.2078843587262841,
          1.7267374211142976
        ],
        [
          -1.5289699268136365,
          0.1613876865266189,
          -0.3226041017821746
        ],
        [
          0.017209986880634374,
          1.2009715270315875,
          -0.0032959772114203884
        ],
        [
          0.006917770867111124,
          0.9222422589458766,
          1.5439026297420313
        ],
        [
          -1.1871427001205144,
          1.0920246015049955,
          0.8549300189817864
        ]
      ],
      [
        [
          1.6084873109263076,
          0.004164360719922172,
          -1.5850592254538622
        ],
        [
          -0.04765355919392967,
          -0.03274419049248502,
          0.11693861394186807
        ],
        [
          -0.27907156985807874,
          -0.013931575401324248,
          0.22515848624064852
        ],
        [
          -1.4790394320685027,
          0.029797480760900875,
          1.4787109183126712
        ],
        [
          -1.2620577260606316,
          0.03380846209824212,
          1.2632731151038752
        ],
        [
          -0.5303308058276676,
          0.051225817501497475,
          0.5036619365804919
        ]
      ],
      [
        [
          0.6091611396676898,
          -0.0025232151273391207,
          0.3027341634150281
        ],
        [
          0.7575557989130143,
          1.5687679380419188,
          -0.010186085188123051
        ],
        [
          0.7374606877176483,
          1.5383040905724654,
          0.004933453840913129
        ],
        [
          0.3761420011733554,
          0.034944352472705435,
          0.27453483839055354
        ],
        [
          -0.018463726934787317,
          1.5386351321774898,
          0.15206363879233498
        ],
        [
          0.022521832163397554,
          1.5613173021372369,
          0.12078947200183685
        ]
      ]
    ]
  },
  "metrics": {
    "stage1_min_cost": 0.10939833186920793,
    "stage2_min_cost": 0.1561800860214169,
    "mse_train_noise": 0.04208329887417109,
    "mse_train_recovered": 0.029728934630716453,
    "delta_train_pct": 29.35692917134215,
    "mse_test_noise": 0.03574197205136823,
    "mse_test_recovered": 0.023013058246401565,
    "delta_test_pct": 35.613350563513166,
    "mse_train_recovered_pure": 0.003458437767935665,
    "mse_test_recovered_pure": 0.004176766555240667
  },
  "artifacts": {
    "weights_s1_file": "weights_s1_inst03_L3.npy",
    "weights_s2_file": "weights_s2_inst03_L3.npy",
    "circuit_stage1": "circuit_stage1_6q_4l_2t_sidekick_L03_inst03.eps",
    "circuit_stage2": "circuit_stage1_6q_4l_2t_sidekick_L03_inst03.eps",
    "circuit_full": "circuit_full_6q_4l_2t_sidekick_L3_inst03.eps",
    "training_cost_s1_plot": "training_cost_s1_dec200_enc300_inst03.eps",
    "training_cost_s2_plot": "training_cost_s2_dec200_enc300_inst03.eps",
    "reconstruction_pure_plot": "reconst_pure_dec200_enc300_inst03_L3.eps",
    "reconstruction_noisy_plot": "reconst_noisy_dec200_enc300_inst03_L3.eps"
  }
}