{
  "schema": {
    "name": "sidekick_qae_bundle",
    "version": "1.0"
  },
  "timestamp": "2026-02-22 15:16:47",
  "dataset": {
    "id": "mackey_glass_tau30_n200",
    "scale_low": 0.0,
    "scale_high": 1.0,
    "window_size": 6,
    "window_step": 2,
    "split": 0.75
  },
  "run": {
    "instance_id": 4,
    "layer": 3,
    "dec_epochs": 200,
    "enc_epochs": 300,
    "sigma_eval": 0.2,
    "test_seed_fixed": 99123,
    "device_seed": 13048,
    "stage1_time_sec": 68,
    "stage2_time_sec": 223
  },
  "environment": {
    "device": "lightning.qubit",
    "diff_method": "adjoint",
    "interface": "autograd"
  },
  "architecture": {
    "type": "sidekick",
    "n_qubits": 6,
    "n_latent": 4,
    "n_trash": 2,
    "rot": "Rxyz"
  },
  "parameters": {
    "weights_stage1": [
      [
        [
          -0.07668335633676461,
          -0.22740461101361256,
          0.08175604159457796
        ],
        [
          0.044107278529658143,
          0.8091253947098606,
          1.3324135221616535
        ],
        [
          0.05983565256177347,
          -0.6211279160400188,
          -0.028846811248443696
        ],
        [
          0.31848181629572647,
          1.0610869386373072,
          0.10602990901137885
        ],
        [
          0.18900984747190408,
          0.1828303958349013,
          0.9169426517927346
        ],
        [
          1.5714312718967576,
          -1.5722223332239287,
          -1.4006391091421229
        ]
      ],
      [
        [
          0.49693019585795484,
          -0.027753068186803252,
          -0.51303356772969
        ],
        [
          -0.08093477864652443,
          0.002214885618547033,
          0.09169159203561955
        ],
        [
          0.38285669701175884,
          -0.000655772948195313,
          -0.38544398285527914
        ],
        [
          0.10500878971984659,
          0.000976061578755347,
          -0.10720154316462477
        ],
        [
          -0.619493162695104,
          0.00023883454625007333,
          0.6189547472372223
        ],
        [
          -0.007775657748596084,
          0.033407310836162094,
          0.024659803548073907
        ]
      ],
      [
        [
          0.14891701578368963,
          0.1386143150908134,
          0.260547517109029
        ],
        [
          -0.4533243577842382,
          1.5706522142046397,
          0.27719327214176653
        ],
        [
          -0.01809089167737377,
          1.5561664011962102,
          0.1741631721301399
        ],
        [
          0.04006980356725743,
          0.3016307763430517,
          0.027538430083705778
        ],
        [
          -0.006375848688223987,
          1.566629252326487,
          0.17430469852279645
        ],
        [
          0.017092986169052648,
          1.5470858422125198,
          0.028030159679201944
        ]
      ]
    ],
    "weights_stage2": [
      [
        [
          -1.7612171111754134,
          -1.9095972048614964,
          1.006707199994584
        ],
        [
          -1.8018972953112864,
          -0.0987933059292609,
          1.480680908172677
        ],
        [
          -2.035083158003943,
          0.10109224474920368,
          -0.781514795580456
        ],
        [
          -0.016692934196704062,
          1.1865041379273336,
          -0.3514507824532555
        ],
        [
          -0.040252202296899575,
          0.8546516933145105,
          0.4632139596913339
        ],
        [
          2.0509792842279904,
          -0.6829436548602748,
          -2.1367329201641305
        ]
      ],
      [
        [
          0.4358016767685613,
          -0.04562844887168763,
          -0.40833215585611937
        ],
        [
          1.2957455126294082,
          -0.0023490622051518563,
          -1.3014732812769816
        ],
        [
          1.0654216728038974,
          0.01832539624939613,
          -1.0757857312210082
        ],
        [
          0.05743253015340723,
          -0.017807913222115487,
          -0.03555672246994892
        ],
        [
          -0.8712048761867229,
          0.0032177390651830554,
          0.8729432627507199
        ],
        [
          -0.39550372750060103,
          0.013347565776958694,
          0.4860304638063694
        ]
      ],
      [
        [
          0.4417019730117601,
          -0.11796999809462014,
          0.2244698842877117
        ],
        [
          2.298806238421168,
          1.5805443583430574,
          0.06295875231774886
        ],
        [
          -4.950199823863023,
          1.556140356646225,
          0.020813995932097033
        ],
        [
          0.11967056191646895,
          0.0062671017568648206,
          0.07459435168196606
        ],
        [
          0.0167938277962312,
          1.5473624809919324,
          0.15056807586845555
        ],
        [
          -0.07929567874261273,
          1.6019798623992347,
          0.021188364728341035
        ]
      ],
      [
        [
          0.7354580371782391,
          -0.5462120133703546,
          -0.6680584271012517
        ],
        [
          -1.5307192516341324,
          -0.07177554675067617,
          1.2123489137527714
        ],
        [
          -1.3472197049568535,
          0.09771508237846152,
          -1.4237288387695306
        ],
        [
          -0.04479899448684139,
          1.1571819798482328,
          -0.3321438765869929
        ],
        [
          0.0007810613585923858,
          0.8183764853821892,
          0.4823226248986358
        ],
        [
          1.180034943772708,
          -2.5022269082732658,
          -2.0750634403559753
        ]
      ],
      [
        [
          0.43746242351166964,
          0.039997116748869854,
          -0.43578409391221495
        ],
        [
          -0.8934499247789953,
          0.02028859830652175,
          0.8121880256297265
        ],
        [
          1.0700723445660782,
          -0.05153949185371569,
          -1.0181620938913747
        ],
        [
          0.17878419154351474,
          0.020517855108067858,
          -0.14578608498592657
        ],
        [
          -0.8307050632333032,
          0.04055959507207722,
          0.7809471219689272
        ],
        [
          0.09003172604136593,
          0.018505347525196385,
          -0.07219255108470599
        ]
      ],
      [
        [
          0.4287602454171048,
          -0.06752056990367743,
          0.2966251499303436
        ],
        [
          -0.4275684049003802,
          1.5583341052070703,
          0.039339806222900495
        ],
        [
          -1.434046833402205,
          1.5845997106602296,
          0.0011465203086932021
        ],
        [
          0.20770185726828141,
          0.006454906493763502,
          -0.019517491514554477
        ],
        [
          -0.0006907533458466548,
          1.5733347282285504,
          0.19804132117713547
        ],
        [
          -0.03244591301130271,
          1.5942118802847636,
          0.034871954630064976
        ]
      ]
    ]
  },
  "metrics": {
    "stage1_min_cost": 0.11203602844307854,
    "stage2_min_cost": 0.158397098674044,
    "mse_train_noise": 0.04208329887417109,
    "mse_train_recovered": 0.028763355397563705,
    "delta_train_pct": 31.651376752649462,
    "mse_test_noise": 0.03574197205136823,
    "mse_test_recovered": 0.021984453987144128,
    "delta_test_pct": 38.49121152143438,
    "mse_train_recovered_pure": 0.0042103454388864,
    "mse_test_recovered_pure": 0.00532893670680563
  },
  "artifacts": {
    "weights_s1_file": "weights_s1_inst04_L3.npy",
    "weights_s2_file": "weights_s2_inst04_L3.npy",
    "circuit_stage1": "circuit_stage1_6q_4l_2t_sidekick_L03_inst04.eps",
    "circuit_stage2": "circuit_stage1_6q_4l_2t_sidekick_L03_inst04.eps",
    "circuit_full": "circuit_full_6q_4l_2t_sidekick_L3_inst04.eps",
    "training_cost_s1_plot": "training_cost_s1_dec200_enc300_inst04.eps",
    "training_cost_s2_plot": "training_cost_s2_dec200_enc300_inst04.eps",
    "reconstruction_pure_plot": "reconst_pure_dec200_enc300_inst04_L3.eps",
    "reconstruction_noisy_plot": "reconst_noisy_dec200_enc300_inst04_L3.eps"
  }
}