{
  "schema": {
    "name": "sidekick_qae_bundle",
    "version": "1.0"
  },
  "timestamp": "2026-02-22 16:22:09",
  "dataset": {
    "id": "mackey_glass_tau30_n200",
    "scale_low": 0.0,
    "scale_high": 1.0,
    "window_size": 6,
    "window_step": 2,
    "split": 0.75
  },
  "run": {
    "instance_id": 2,
    "layer": 3,
    "dec_epochs": 400,
    "enc_epochs": 300,
    "sigma_eval": 0.2,
    "test_seed_fixed": 99123,
    "device_seed": 13046,
    "stage1_time_sec": 138,
    "stage2_time_sec": 226
  },
  "environment": {
    "device": "lightning.qubit",
    "diff_method": "adjoint",
    "interface": "autograd"
  },
  "architecture": {
    "type": "sidekick",
    "n_qubits": 6,
    "n_latent": 4,
    "n_trash": 2,
    "rot": "Rxyz"
  },
  "parameters": {
    "weights_stage1": [
      [
        [
          1.5707513630860206,
          -1.57068210620868,
          -1.5030475874408802
        ],
        [
          0.0035738412947143865,
          0.1859230088263646,
          -0.009342277479262317
        ],
        [
          0.001150190172145411,
          -1.5314932292074697,
          -1.55808328492856
        ],
        [
          0.0050108352324739255,
          1.183629415951025,
          0.02342663446145294
        ],
        [
          0.0426472564203638,
          0.2253793941513658,
          1.271818921202766
        ],
        [
          -1.5716648972300813,
          -1.573688423121959,
          1.4335860217999579
        ]
      ],
      [
        [
          0.05755904787920524,
          -0.00021306268624595655,
          0.026939207907336695
        ],
        [
          0.8551022722306099,
          0.10212175048610835,
          -1.4109741925076507
        ],
        [
          -0.16774646446487856,
          0.048050502666981396,
          0.27622774741645917
        ],
        [
          -0.3825342791707507,
          -0.023808308125347875,
          0.4732044014830957
        ],
        [
          0.2971331708021675,
          -0.0329209804588516,
          -0.20321804883019498
        ],
        [
          -0.027871265335129916,
          0.09445555317649465,
          0.027688835223489878
        ]
      ],
      [
        [
          0.16757622800287073,
          0.1942371907607106,
          0.30819849624355317
        ],
        [
          0.4476650653973694,
          1.5711880884725093,
          0.2926520832650568
        ],
        [
          0.000643318162357869,
          1.566740998083838,
          0.1803082820601352
        ],
        [
          0.28074658264207636,
          0.04778507796780732,
          0.27547842952533896
        ],
        [
          -0.06764679877989023,
          1.5705442680224602,
          0.06825199206954799
        ],
        [
          -0.00045851704297737234,
          1.5703303004939901,
          0.1620009924452418
        ]
      ]
    ],
    "weights_stage2": [
      [
        [
          1.6018528766417088,
          -1.7835273804425644,
          -1.1668141713433733
        ],
        [
          -0.19304591898624954,
          0.5854017460159019,
          -0.287720407708804
        ],
        [
          -0.07968594727522688,
          -2.5139089359308437,
          -2.324706333643901
        ],
        [
          0.03144194484594015,
          1.2215668556839594,
          -0.11226493904892157
        ],
        [
          -0.006589871754609476,
          0.9611125976941863,
          1.543316245634896
        ],
        [
          -2.133377654865086,
          -4.227813827481805,
          0.6729773412747883
        ]
      ],
      [
        [
          -0.41723420766603486,
          0.041086040052978945,
          0.41457448714366063
        ],
        [
          -0.734434463285947,
          0.001518118012819016,
          0.7071873213928229
        ],
        [
          -0.1638770617940514,
          -0.023741699176481397,
          0.08459385267526134
        ],
        [
          -1.5769745662051804,
          0.12274845770531391,
          1.5639658282782567
        ],
        [
          0.33793854191939987,
          0.05298988365401053,
          -0.25747056178287425
        ],
        [
          -0.5241498480139112,
          -0.007496076408756191,
          0.5806765407185186
        ]
      ],
      [
        [
          0.4980794452584109,
          -0.024604512172744033,
          0.2556555601799853
        ],
        [
          0.056115949810864395,
          1.5977626162712617,
          0.03891215877451551
        ],
        [
          -3.062394485971439,
          1.52849073090856,
          0.004270014154961064
        ],
        [
          0.23919488045760565,
          0.027211606680256923,
          0.2189146431635231
        ],
        [
          0.012558519307370952,
          1.6195432173941546,
          0.10345740547198731
        ],
        [
          -0.0019672798963273866,
          1.6192227487650463,
          0.1769793449193157
        ]
      ],
      [
        [
          1.5853394368003713,
          -1.6406299412549805,
          -1.2571911995444531
        ],
        [
          -0.15094154647575486,
          0.6093144019676657,
          -0.3456392961527485
        ],
        [
          -0.07346021696825479,
          -2.507131967803964,
          -2.2713821398824674
        ],
        [
          0.03249354062142962,
          1.2011717837021527,
          -0.1438117583212098
        ],
        [
          0.0009501671860905952,
          0.9431820496038963,
          1.5547435646352201
        ],
        [
          -2.0906408407490154,
          -0.9706863333489884,
          2.444165007342269
        ]
      ],
      [
        [
          -0.1133558317701263,
          -0.06294148646547316,
          0.1255374804576274
        ],
        [
          -0.2454858076403224,
          0.033365753341489224,
          0.06770069063342028
        ],
        [
          -0.32685279559631414,
          -0.08155550239699004,
          0.2856541616457727
        ],
        [
          -1.561595535626055,
          0.07386794651705925,
          1.5232780845054628
        ],
        [
          0.653168925370795,
          0.013056993533941453,
          -0.5725072809989892
        ],
        [
          -0.14793666566393043,
          0.054135284142190244,
          0.1607364451332257
        ]
      ],
      [
        [
          0.34352306571631636,
          -0.027048247358928204,
          0.3607414323071337
        ],
        [
          4.2204007352041115,
          1.58680994635666,
          0.004546715710447588
        ],
        [
          -6.048698647201111,
          1.5450142293104316,
          0.01756310116849224
        ],
        [
          0.16394297089945856,
          -0.00999963744722498,
          0.3320422158871591
        ],
        [
          -0.06962447349636701,
          1.566808889981775,
          0.03304657866710732
        ],
        [
          0.011369546508385158,
          1.5609197665110857,
          0.14702263997116546
        ]
      ]
    ]
  },
  "metrics": {
    "stage1_min_cost": 0.09404710618263855,
    "stage2_min_cost": 0.1555851411556372,
    "mse_train_noise": 0.04208329887417109,
    "mse_train_recovered": 0.026799006223834028,
    "delta_train_pct": 36.31914098758522,
    "mse_test_noise": 0.03574197205136823,
    "mse_test_recovered": 0.02001398640984907,
    "delta_test_pct": 44.004246936668636,
    "mse_train_recovered_pure": 0.003142974643366425,
    "mse_test_recovered_pure": 0.0052382512897484745
  },
  "artifacts": {
    "weights_s1_file": "weights_s1_inst02_L3.npy",
    "weights_s2_file": "weights_s2_inst02_L3.npy",
    "circuit_stage1": "circuit_stage1_6q_4l_2t_sidekick_L03_inst02.eps",
    "circuit_stage2": "circuit_stage1_6q_4l_2t_sidekick_L03_inst02.eps",
    "circuit_full": "circuit_full_6q_4l_2t_sidekick_L3_inst02.eps",
    "training_cost_s1_plot": "training_cost_s1_dec400_enc300_inst02.eps",
    "training_cost_s2_plot": "training_cost_s2_dec400_enc300_inst02.eps",
    "reconstruction_pure_plot": "reconst_pure_dec400_enc300_inst02_L3.eps",
    "reconstruction_noisy_plot": "reconst_noisy_dec400_enc300_inst02_L3.eps"
  }
}