{
  "schema": {
    "name": "sidekick_qae_bundle",
    "version": "1.0"
  },
  "timestamp": "2026-02-22 16:28:15",
  "dataset": {
    "id": "mackey_glass_tau30_n200",
    "scale_low": 0.0,
    "scale_high": 1.0,
    "window_size": 6,
    "window_step": 2,
    "split": 0.75
  },
  "run": {
    "instance_id": 3,
    "layer": 3,
    "dec_epochs": 400,
    "enc_epochs": 300,
    "sigma_eval": 0.2,
    "test_seed_fixed": 99123,
    "device_seed": 13047,
    "stage1_time_sec": 138,
    "stage2_time_sec": 225
  },
  "environment": {
    "device": "lightning.qubit",
    "diff_method": "adjoint",
    "interface": "autograd"
  },
  "architecture": {
    "type": "sidekick",
    "n_qubits": 6,
    "n_latent": 4,
    "n_trash": 2,
    "rot": "Rxyz"
  },
  "parameters": {
    "weights_stage1": [
      [
        [
          -0.02005482898844067,
          -0.23189731894710403,
          0.01883754136869057
        ],
        [
          0.11861013974689193,
          -0.5766752504078415,
          1.453035333169578
        ],
        [
          -0.6166680831904695,
          -0.5113934327363646,
          -1.0042876388806476
        ],
        [
          -0.2891188417509103,
          -0.2935320492789463,
          0.2813894527512071
        ],
        [
          0.21472580125031668,
          0.0857269190493247,
          1.3445198375483145
        ],
        [
          -1.5721218629011644,
          -1.5740954028944338,
          1.4024418040659663
        ]
      ],
      [
        [
          1.485755805673111,
          -0.20576105445624168,
          -1.492047811941144
        ],
        [
          -0.10338598920246035,
          0.005690887895156213,
          0.10575526943483887
        ],
        [
          0.021647493376579258,
          0.0017082469955045931,
          -0.021407708085425945
        ],
        [
          0.057603635693203425,
          -0.0024469462788345104,
          -0.06298729139715327
        ],
        [
          -0.9001432094810399,
          0.014071294050924478,
          0.8993948691920697
        ],
        [
          0.07450182658139912,
          -0.030381974513629548,
          -0.06695925846775952
        ]
      ],
      [
        [
          0.2593092277441134,
          0.24191232069252885,
          0.28930046294914497
        ],
        [
          0.532562253051232,
          1.5863832468136758,
          0.017625580097627113
        ],
        [
          -0.03075181484887327,
          1.572422332961273,
          0.005334225427670906
        ],
        [
          0.12981642420235195,
          0.2460209114478848,
          0.25504328884587735
        ],
        [
          -0.0011270753504569362,
          1.3617702737494228,
          0.14174489980688337
        ],
        [
          -0.05052570863071074,
          1.5790824207970802,
          0.1389845958665372
        ]
      ]
    ],
    "weights_stage2": [
      [
        [
          1.5408053487500728,
          -1.572340404290195,
          -1.0787862822534722
        ],
        [
          -1.7118067372343782,
          -0.10583193268534766,
          1.791913073787471
        ],
        [
          -1.489392565776634,
          -0.12177012579796179,
          -1.462826224002329
        ],
        [
          -0.019611814428751453,
          1.1928335126843403,
          0.02066062966882303
        ],
        [
          0.025210832265186525,
          0.9656627670363885,
          1.5050211982644222
        ],
        [
          -1.9757546661143046,
          2.0573089001297005,
          0.782870296311425
        ]
      ],
      [
        [
          1.5041356202683682,
          -0.006081740327799225,
          -1.4639410402084183
        ],
        [
          -0.8281804220678918,
          -0.0002791298066234589,
          0.7785934165759186
        ],
        [
          -0.09629316287555567,
          -0.005438568935729206,
          0.08312604195309567
        ],
        [
          1.3202968894551943,
          -0.12078671798544244,
          -1.3486837495680646
        ],
        [
          -1.0583901024191666,
          -0.014468578346329966,
          1.0529676214916166
        ],
        [
          1.0260566969108393,
          0.010504402166441735,
          -1.0795353548244428
        ]
      ],
      [
        [
          0.934657247620357,
          -0.002680761670562111,
          0.47124681618430225
        ],
        [
          -0.6941604156321151,
          1.5729507005858674,
          -0.006741694206058063
        ],
        [
          5.888275216532818,
          1.559894300629358,
          0.05247715587675983
        ],
        [
          -0.13806938306590216,
          0.06480254155338866,
          0.30679346508721617
        ],
        [
          0.07933523074950596,
          1.584016247540431,
          0.16755338847889562
        ],
        [
          0.10716952716315113,
          1.5830406503714782,
          0.13863789985678523
        ]
      ],
      [
        [
          -1.3535914477992979,
          -1.28535778875367,
          1.0734732867285361
        ],
        [
          -1.4983897012440885,
          -0.14020267184448246,
          1.5572900765997213
        ],
        [
          -1.6453291184971255,
          -0.0861236271796506,
          -1.27861131511886
        ],
        [
          0.042523671192613965,
          1.189303596916035,
          -0.035567972935512546
        ],
        [
          0.03294749808872531,
          0.9257125369496296,
          1.4887789564694678
        ],
        [
          -1.1032747654927404,
          -5.383872992537006,
          0.7958917488155116
        ]
      ],
      [
        [
          1.670384969796494,
          -0.02454677864124931,
          -1.632672686488498
        ],
        [
          -0.862879921961268,
          -0.009726727544732458,
          0.9169387698062713
        ],
        [
          -0.5185575857240036,
          -0.03498006008954153,
          0.43284397067276614
        ],
        [
          -1.5188408398190465,
          0.08240579732648003,
          1.4723356371168055
        ],
        [
          -0.2311260536936026,
          0.03452333054160203,
          0.23044726208124647
        ],
        [
          -0.14298521302444375,
          -0.019315353753363317,
          0.1958016456087085
        ]
      ],
      [
        [
          1.3500509172491668,
          0.04413041709784022,
          0.10735410971399868
        ],
        [
          -0.2993038854928307,
          1.6273537105404086,
          -0.0030766694878002956
        ],
        [
          -7.266655827728342,
          1.6394143050096337,
          0.03701732865494114
        ],
        [
          -0.03805815628352005,
          0.03950077488875382,
          0.2032931126045449
        ],
        [
          0.0011797247787867712,
          1.5496047842141636,
          0.11593641113488223
        ],
        [
          -0.013847558966562822,
          1.5375003336475241,
          0.13933129187628496
        ]
      ]
    ]
  },
  "metrics": {
    "stage1_min_cost": 0.10880963166123904,
    "stage2_min_cost": 0.1565330326654079,
    "mse_train_noise": 0.04208329887417109,
    "mse_train_recovered": 0.029900372772571644,
    "delta_train_pct": 28.94955107494389,
    "mse_test_noise": 0.03574197205136823,
    "mse_test_recovered": 0.024629685547554306,
    "delta_test_pct": 31.0903004675942,
    "mse_train_recovered_pure": 0.003584507775072543,
    "mse_test_recovered_pure": 0.004187678731206984
  },
  "artifacts": {
    "weights_s1_file": "weights_s1_inst03_L3.npy",
    "weights_s2_file": "weights_s2_inst03_L3.npy",
    "circuit_stage1": "circuit_stage1_6q_4l_2t_sidekick_L03_inst03.eps",
    "circuit_stage2": "circuit_stage1_6q_4l_2t_sidekick_L03_inst03.eps",
    "circuit_full": "circuit_full_6q_4l_2t_sidekick_L3_inst03.eps",
    "training_cost_s1_plot": "training_cost_s1_dec400_enc300_inst03.eps",
    "training_cost_s2_plot": "training_cost_s2_dec400_enc300_inst03.eps",
    "reconstruction_pure_plot": "reconst_pure_dec400_enc300_inst03_L3.eps",
    "reconstruction_noisy_plot": "reconst_noisy_dec400_enc300_inst03_L3.eps"
  }
}