{
  "schema": {
    "name": "sidekick_qae_bundle",
    "version": "1.0"
  },
  "timestamp": "2026-02-22 14:48:38",
  "dataset": {
    "id": "mackey_glass_tau30_n200",
    "scale_low": 0.0,
    "scale_high": 1.0,
    "window_size": 6,
    "window_step": 2,
    "split": 0.75
  },
  "run": {
    "instance_id": 5,
    "layer": 3,
    "dec_epochs": 100,
    "enc_epochs": 300,
    "sigma_eval": 0.2,
    "test_seed_fixed": 99123,
    "device_seed": 13049,
    "stage1_time_sec": 33,
    "stage2_time_sec": 222
  },
  "environment": {
    "device": "lightning.qubit",
    "diff_method": "adjoint",
    "interface": "autograd"
  },
  "architecture": {
    "type": "sidekick",
    "n_qubits": 6,
    "n_latent": 4,
    "n_trash": 2,
    "rot": "Rxyz"
  },
  "parameters": {
    "weights_stage1": [
      [
        [
          -0.010872347045107686,
          -0.19851816174878148,
          0.010731160882117887
        ],
        [
          -0.12592992352783663,
          0.41614102216225524,
          0.16415356926927135
        ],
        [
          0.4375868222822096,
          -0.3711475769784848,
          -0.1743858722528662
        ],
        [
          0.6501096284846813,
          0.8102250009896288,
          -0.028939459121483116
        ],
        [
          0.7564478942283576,
          -0.5569120410155324,
          0.921556112380433
        ],
        [
          -0.20390130749652513,
          -0.3540633311992493,
          0.1895412835286609
        ]
      ],
      [
        [
          0.042866443776071385,
          0.0016484007154697628,
          -0.042073896255669666
        ],
        [
          -0.07551109810357963,
          0.0021333369040501433,
          0.07628987816188804
        ],
        [
          0.16292283120193068,
          0.00591552498719902,
          -0.17103400658081774
        ],
        [
          -0.2507488863096615,
          -0.011466938784692016,
          0.2656292857903982
        ],
        [
          -1.2631794552563294,
          -0.09616279743680343,
          1.2647842083300267
        ],
        [
          -0.003299679045455124,
          -0.0016489107479024693,
          -0.00033827684312605133
        ]
      ],
      [
        [
          0.30870637770328013,
          0.04805745316881537,
          0.25056318680347506
        ],
        [
          0.02516182433526791,
          1.5903776822621476,
          0.1713007162078512
        ],
        [
          0.0009347469603247275,
          1.5809744879441927,
          0.17347192681073603
        ],
        [
          0.024080317609610886,
          0.026651809927286208,
          0.02451338063638426
        ],
        [
          -0.0031905744674732956,
          1.5636797423709685,
          0.14466523557631164
        ],
        [
          0.00034797810859303385,
          1.56441843786209,
          0.1171241840608425
        ]
      ]
    ],
    "weights_stage2": [
      [
        [
          -0.412790123056995,
          -0.5402135193971106,
          0.32004232198218974
        ],
        [
          -0.07128915070146924,
          0.38527855139091727,
          0.044845579484692547
        ],
        [
          1.6302426775745427,
          -0.041869724689514325,
          -0.5242902464996205
        ],
        [
          0.0398242436311932,
          1.2045941885632387,
          0.004781216714966858
        ],
        [
          -0.025446134690234837,
          0.9614187051046953,
          1.5781454208461405
        ],
        [
          -0.4159144115106776,
          0.6950479247443788,
          0.2650197711739137
        ]
      ],
      [
        [
          -0.8294950491308973,
          0.04306372238675771,
          0.8533449931735225
        ],
        [
          0.23935567141167263,
          0.02918619845304579,
          -0.1898994649741476
        ],
        [
          0.7311049281678678,
          -0.02389895431836278,
          -0.6830457509934381
        ],
        [
          -1.566525662301838,
          0.13254396456789755,
          1.555238139746972
        ],
        [
          -0.34743874463428936,
          -0.0012428565150239494,
          0.31920297040210055
        ],
        [
          -0.1349760311582539,
          0.029054987517921366,
          0.11095406799275556
        ]
      ],
      [
        [
          0.22982331580630258,
          -0.04713345318441456,
          0.3101667693052369
        ],
        [
          0.7090259989892885,
          1.5849254922635316,
          -0.0113736772741676
        ],
        [
          4.888885866283095,
          1.5336221426582024,
          -0.010388745356373264
        ],
        [
          -0.06961765632527761,
          0.022249719681563203,
          -0.02022501585287119
        ],
        [
          0.030950230525935832,
          1.5546606814100503,
          0.17254640791601217
        ],
        [
          -0.02821373955415187,
          1.5627604692990584,
          0.12200071511723228
        ]
      ],
      [
        [
          -1.5910122662595936,
          -1.68126537892622,
          1.1746689755678466
        ],
        [
          -0.04636207963749128,
          0.43777142468037605,
          -0.017677985789955625
        ],
        [
          1.6598518373916635,
          -0.0671791832077951,
          -0.5423765377772426
        ],
        [
          0.054442089847018246,
          1.1780201354240964,
          0.014330999307258313
        ],
        [
          0.011768865860804419,
          0.9405524220346245,
          1.5803448993926918
        ],
        [
          0.1677200307834552,
          0.5672766983294093,
          -0.12443583973550011
        ]
      ],
      [
        [
          -0.12489325601079324,
          0.03235980098199601,
          0.10742709663332671
        ],
        [
          0.4453897873422235,
          -0.038968064421508616,
          -0.31533685901118597
        ],
        [
          -0.06103955898012726,
          0.03615772967340827,
          -0.010663398664677783
        ],
        [
          -1.5921945224445848,
          0.05358811779636692,
          1.4873636105334893
        ],
        [
          -1.5484594675819223,
          0.02931809150157629,
          1.530706151872964
        ],
        [
          -0.0930992838499099,
          0.036767598693162054,
          0.06214494809502186
        ]
      ],
      [
        [
          0.2928562661385791,
          -0.04403317920203428,
          0.19095960430170655
        ],
        [
          6.233294020533976,
          1.5633831556880144,
          0.009975756837496736
        ],
        [
          1.0838266071936962,
          1.59631723055692,
          0.03165093343504526
        ],
        [
          -0.11901840190557396,
          -0.018169849713318975,
          0.06925177712563915
        ],
        [
          -0.01983819468300845,
          1.5843726169475878,
          0.11678406323661318
        ],
        [
          -0.01643854921404858,
          1.5931168019325754,
          0.11224765300445257
        ]
      ]
    ]
  },
  "metrics": {
    "stage1_min_cost": 0.12678058800074501,
    "stage2_min_cost": 0.15730451435222687,
    "mse_train_noise": 0.04208329887417109,
    "mse_train_recovered": 0.029487865745471388,
    "delta_train_pct": 29.9297665954373,
    "mse_test_noise": 0.03574197205136823,
    "mse_test_recovered": 0.023122114532942113,
    "delta_test_pct": 35.30822949637168,
    "mse_train_recovered_pure": 0.0056791519497795045,
    "mse_test_recovered_pure": 0.007802965892075853
  },
  "artifacts": {
    "weights_s1_file": "weights_s1_inst05_L3.npy",
    "weights_s2_file": "weights_s2_inst05_L3.npy",
    "circuit_stage1": "circuit_stage1_6q_4l_2t_sidekick_L03_inst05.eps",
    "circuit_stage2": "circuit_stage1_6q_4l_2t_sidekick_L03_inst05.eps",
    "circuit_full": "circuit_full_6q_4l_2t_sidekick_L3_inst05.eps",
    "training_cost_s1_plot": "training_cost_s1_dec100_enc300_inst05.eps",
    "training_cost_s2_plot": "training_cost_s2_dec100_enc300_inst05.eps",
    "reconstruction_pure_plot": "reconst_pure_dec100_enc300_inst05_L3.eps",
    "reconstruction_noisy_plot": "reconst_noisy_dec100_enc300_inst05_L3.eps"
  }
}