{
  "schema": {
    "name": "sidekick_qae_bundle",
    "version": "1.0"
  },
  "timestamp": "2026-02-22 15:31:30",
  "dataset": {
    "id": "mackey_glass_tau30_n200",
    "scale_low": 0.0,
    "scale_high": 1.0,
    "window_size": 6,
    "window_step": 2,
    "split": 0.75
  },
  "run": {
    "instance_id": 7,
    "layer": 3,
    "dec_epochs": 200,
    "enc_epochs": 300,
    "sigma_eval": 0.2,
    "test_seed_fixed": 99123,
    "device_seed": 13051,
    "stage1_time_sec": 68,
    "stage2_time_sec": 224
  },
  "environment": {
    "device": "lightning.qubit",
    "diff_method": "adjoint",
    "interface": "autograd"
  },
  "architecture": {
    "type": "sidekick",
    "n_qubits": 6,
    "n_latent": 4,
    "n_trash": 2,
    "rot": "Rxyz"
  },
  "parameters": {
    "weights_stage1": [
      [
        [
          0.13077601728712968,
          -0.198860168109604,
          -0.1355868242523341
        ],
        [
          0.030772393930631685,
          0.41952020926888156,
          0.22185082465426265
        ],
        [
          -0.19490404351537427,
          -0.5514965650367847,
          0.20588170091885266
        ],
        [
          0.9213455080699376,
          0.17900517579024772,
          0.6096405440794297
        ],
        [
          0.700580465419967,
          -0.513222141816832,
          0.8655063360896978
        ],
        [
          0.125167253192554,
          -0.3495700775264398,
          -0.11662520829366972
        ]
      ],
      [
        [
          0.3236114595805396,
          -0.0007369590324005765,
          -0.323569104077192
        ],
        [
          0.04690771778957459,
          0.00020323866558385933,
          -0.06178807182264602
        ],
        [
          0.0808579792438108,
          0.00014577314140003526,
          -0.07817709706274432
        ],
        [
          -0.3436575720906383,
          -0.0003440667393717939,
          0.345642097943964
        ],
        [
          0.07592214829167974,
          -0.0027541921443641516,
          -0.07514141549814544
        ],
        [
          -0.13754272113358976,
          0.0006207512962662046,
          0.13782206106947248
        ]
      ],
      [
        [
          0.09092698814613305,
          0.006128600743906807,
          0.24353546897953576
        ],
        [
          -0.016089673568512736,
          1.569325439678167,
          0.21347307301164783
        ],
        [
          0.002694938270672923,
          1.5927503426026566,
          0.1869816909350204
        ],
        [
          0.008810459891182416,
          0.26860454222598223,
          0.025671440541456737
        ],
        [
          -0.00043074534901982103,
          1.5704824383891107,
          0.18038667285899937
        ],
        [
          -0.0013044753604299695,
          1.5773444955633138,
          0.0019613493848166276
        ]
      ]
    ],
    "weights_stage2": [
      [
        [
          -1.488069345673406,
          -1.3077077976953513,
          1.1237093721954434
        ],
        [
          -0.49107247232889933,
          0.25588925427548354,
          -1.555857693024093
        ],
        [
          -1.3694433438178988,
          -0.06128797435308473,
          0.2807774738538719
        ],
        [
          0.011258255024377257,
          1.2122831968320094,
          3.2347753202504737
        ],
        [
          -0.014448354818758427,
          0.9606182762182772,
          -1.6221124950664743
        ],
        [
          -0.09245031617382203,
          0.6941755415106641,
          0.10772764513496974
        ]
      ],
      [
        [
          1.2729595209601559,
          0.036678980110684746,
          -1.289879715010638
        ],
        [
          -0.5971062685285443,
          -0.025194950498668725,
          0.67954971165419
        ],
        [
          0.5611115575390436,
          0.07213604824837921,
          -0.6099699288794759
        ],
        [
          -1.6911582103414569,
          0.10634695582658335,
          1.6756560242404
        ],
        [
          -0.8371323575519167,
          0.02871487755594768,
          0.8299391942331827
        ],
        [
          -0.1893160177184794,
          -0.02690327730705761,
          0.17213244012530085
        ]
      ],
      [
        [
          0.20926159950452952,
          -0.04461678863962979,
          0.22552009808780615
        ],
        [
          -3.5776185970891476,
          1.5828506715793491,
          -0.007610220046067099
        ],
        [
          -3.639490896147563,
          1.5645853202955935,
          -0.021691204636408473
        ],
        [
          0.2270304510215813,
          0.11329952794797449,
          0.010214481071094619
        ],
        [
          -0.009459731407647476,
          1.5727353608930392,
          0.18875858920504365
        ],
        [
          -0.05886370688795366,
          1.566952266614597,
          -0.0022241935763447074
        ]
      ],
      [
        [
          -1.600889428423496,
          -1.5753246284695541,
          1.1995478709999932
        ],
        [
          -0.3908277060593723,
          0.29492802797189815,
          -1.5325153207876339
        ],
        [
          -1.5284747083726973,
          -0.0886869400381414,
          0.3519221893474423
        ],
        [
          0.011446509552337244,
          1.1905215639446673,
          3.2934233710730356
        ],
        [
          -0.019892782991771142,
          0.9096504745791673,
          -1.6513492188862615
        ],
        [
          0.5162476549814743,
          0.661353975267696,
          -0.4050270135331306
        ]
      ],
      [
        [
          1.0607213721240467,
          0.10003785529538405,
          -1.021082262015358
        ],
        [
          -0.1112353042497905,
          -0.023778900932115845,
          0.24623245616917847
        ],
        [
          0.07306384783742029,
          0.037196953535144774,
          -0.19726899818255336
        ],
        [
          -1.566877441038183,
          0.04433983029299976,
          1.503945575244972
        ],
        [
          0.0968385831801574,
          0.03853588812816478,
          -0.034277896618119204
        ],
        [
          -0.026684591528767572,
          0.007029086469857293,
          0.04134200766795576
        ]
      ],
      [
        [
          0.20041101009167855,
          0.0036802271045146464,
          0.26155083987127126
        ],
        [
          2.9404099797244374,
          1.5755444524167244,
          0.03253037891091023
        ],
        [
          1.8127203804346081,
          1.6079887264098403,
          0.02951997781835087
        ],
        [
          0.2454519831200166,
          0.12589040815447647,
          0.041128400011812685
        ],
        [
          0.019622942375960867,
          1.6045192799123065,
          0.17201475651295392
        ],
        [
          -0.005938292283639921,
          1.5619629700468962,
          0.006146892345980487
        ]
      ]
    ]
  },
  "metrics": {
    "stage1_min_cost": 0.12669478265863263,
    "stage2_min_cost": 0.15658710005212378,
    "mse_train_noise": 0.04208329887417109,
    "mse_train_recovered": 0.029415216570366814,
    "delta_train_pct": 30.1023984400125,
    "mse_test_noise": 0.03574197205136823,
    "mse_test_recovered": 0.022837283779456024,
    "delta_test_pct": 36.105137828896616,
    "mse_train_recovered_pure": 0.004798964847773225,
    "mse_test_recovered_pure": 0.007202641338990256
  },
  "artifacts": {
    "weights_s1_file": "weights_s1_inst07_L3.npy",
    "weights_s2_file": "weights_s2_inst07_L3.npy",
    "circuit_stage1": "circuit_stage1_6q_4l_2t_sidekick_L03_inst07.eps",
    "circuit_stage2": "circuit_stage1_6q_4l_2t_sidekick_L03_inst07.eps",
    "circuit_full": "circuit_full_6q_4l_2t_sidekick_L3_inst07.eps",
    "training_cost_s1_plot": "training_cost_s1_dec200_enc300_inst07.eps",
    "training_cost_s2_plot": "training_cost_s2_dec200_enc300_inst07.eps",
    "reconstruction_pure_plot": "reconst_pure_dec200_enc300_inst07_L3.eps",
    "reconstruction_noisy_plot": "reconst_noisy_dec200_enc300_inst07_L3.eps"
  }
}