{
  "schema": {
    "name": "sidekick_qae_bundle",
    "version": "1.0"
  },
  "timestamp": "2026-02-22 16:16:02",
  "dataset": {
    "id": "mackey_glass_tau30_n200",
    "scale_low": 0.0,
    "scale_high": 1.0,
    "window_size": 6,
    "window_step": 2,
    "split": 0.75
  },
  "run": {
    "instance_id": 1,
    "layer": 3,
    "dec_epochs": 400,
    "enc_epochs": 300,
    "sigma_eval": 0.2,
    "test_seed_fixed": 99123,
    "device_seed": 13045,
    "stage1_time_sec": 138,
    "stage2_time_sec": 225
  },
  "environment": {
    "device": "lightning.qubit",
    "diff_method": "adjoint",
    "interface": "autograd"
  },
  "architecture": {
    "type": "sidekick",
    "n_qubits": 6,
    "n_latent": 4,
    "n_trash": 2,
    "rot": "Rxyz"
  },
  "parameters": {
    "weights_stage1": [
      [
        [
          -1.5822439598722766,
          -1.627218253560699,
          1.469257561372043
        ],
        [
          -0.2896683004877089,
          0.10942828102873522,
          -1.2060386977771194
        ],
        [
          0.5564850620344653,
          -0.3728987318220487,
          1.0097549388135096
        ],
        [
          0.07050754562859804,
          -0.29840380300659347,
          -0.06827816067147303
        ],
        [
          0.40828013954768466,
          0.1151196750946965,
          1.11443690893921
        ],
        [
          -1.5739865743395858,
          -1.5764299476359391,
          1.4144103985797412
        ]
      ],
      [
        [
          0.17634611651178192,
          0.0004548587920376538,
          -0.17356265450057948
        ],
        [
          1.0324739545460417,
          0.009504622738620657,
          -0.556643372651007
        ],
        [
          0.013862886388621421,
          -0.05102272866399893,
          -0.041407503439553885
        ],
        [
          -0.038378132442351706,
          0.028485926971723936,
          -0.03830167323742237
        ],
        [
          0.041971108569097054,
          0.05753436865858666,
          -0.13584365190451075
        ],
        [
          0.08360407589907835,
          0.0016074537249173933,
          -0.08346418353818937
        ]
      ],
      [
        [
          0.13004702503620766,
          0.030523021362347903,
          0.21916500329221852
        ],
        [
          0.4809104890839646,
          1.5958560885777076,
          0.07624422004379357
        ],
        [
          0.0019238388471826161,
          1.566812863125779,
          0.0727326610146158
        ],
        [
          0.09323059297739422,
          0.15361492157442205,
          0.05360220804972697
        ],
        [
          0.0080046161336375,
          1.410759800066445,
          0.21817595203516077
        ],
        [
          0.00229259564952693,
          1.569962227375355,
          0.18631616691778544
        ]
      ]
    ],
    "weights_stage2": [
      [
        [
          -1.6345920729528438,
          -1.5582266548089987,
          1.0644728704931485
        ],
        [
          1.009283742725592,
          0.0025796585839872235,
          -0.5085084187163138
        ],
        [
          1.653952966529774,
          -0.0889761120103639,
          2.0985155995969675
        ],
        [
          -0.02219156288882354,
          1.1833218811788795,
          -0.021546397707225613
        ],
        [
          -0.04773010044138929,
          0.9435966584674297,
          1.4639070996356867
        ],
        [
          -1.7409085349392426,
          1.9451165119831433,
          1.03957059989161
        ]
      ],
      [
        [
          -0.4875730857431801,
          -0.032842874857415424,
          0.5050370974660282
        ],
        [
          0.31542178279728345,
          0.04981840486898278,
          -0.2994507585734064
        ],
        [
          0.27084752456727434,
          -0.017746184251218693,
          -0.25018220409265396
        ],
        [
          -0.2022131112055265,
          0.0015789228939466628,
          0.15769258614644027
        ],
        [
          1.300010042218467,
          0.014544247592452132,
          -1.3188145331687746
        ],
        [
          -0.6044496635775145,
          0.011856909483919273,
          0.5596624895032725
        ]
      ],
      [
        [
          0.5313454327092133,
          -0.012448122195791105,
          0.2559410608199955
        ],
        [
          -1.6793586271392809,
          1.5506966254923555,
          0.07470099935861614
        ],
        [
          1.7375422507530383,
          1.530836176922748,
          0.009215346569095655
        ],
        [
          -0.25149275097983464,
          0.09567480891756577,
          0.1282781173336346
        ],
        [
          0.015453987923545662,
          1.586183918142723,
          0.2564264814984359
        ],
        [
          0.006652585924658754,
          1.5685028595839507,
          0.19317446902605315
        ]
      ],
      [
        [
          -1.940360955150737,
          -2.1585701501652736,
          1.0278484325709987
        ],
        [
          1.2399764097309518,
          -0.0020908379480069324,
          -0.7286343204900264
        ],
        [
          1.739359590574515,
          -0.15662678241366862,
          2.0485943484858726
        ],
        [
          0.011490905897256602,
          1.1676682805612446,
          0.056714887992353066
        ],
        [
          0.012575403050263993,
          0.8609306012073864,
          1.5262658360870303
        ],
        [
          -3.944689603423262,
          -3.748928125475828,
          -0.7473245555754185
        ]
      ],
      [
        [
          0.9117151084408799,
          -0.002341631006807097,
          -0.9082561691778334
        ],
        [
          -0.01804993344561833,
          -0.01638150829346933,
          0.1338438530802534
        ],
        [
          -0.13926424876832166,
          -0.045207286327936684,
          0.10358705338061645
        ],
        [
          1.5576294424619426,
          -0.08303561121126513,
          -1.5243372864904716
        ],
        [
          -0.520176422251266,
          -0.018489803107987805,
          0.5976431400112313
        ],
        [
          0.1856940061707629,
          0.012376930358801014,
          -0.19914610255088655
        ]
      ],
      [
        [
          0.654308682751485,
          0.04072595520726249,
          0.18238894576442452
        ],
        [
          2.955452627301797,
          1.6091045128218302,
          -0.022123132909319256
        ],
        [
          1.9204721379485403,
          1.5239281070815147,
          0.0032466005494176525
        ],
        [
          -0.06298118818815934,
          0.10632821132615466,
          -0.02107370123417032
        ],
        [
          0.002384320812082642,
          1.5799049868425246,
          0.17992542257188668
        ],
        [
          -0.004438493034174902,
          1.581224799330585,
          0.17945786480951123
        ]
      ]
    ]
  },
  "metrics": {
    "stage1_min_cost": 0.09367170275575648,
    "stage2_min_cost": 0.1587869601642194,
    "mse_train_noise": 0.04208329887417109,
    "mse_train_recovered": 0.028860889725647616,
    "delta_train_pct": 31.41961182287165,
    "mse_test_noise": 0.03574197205136823,
    "mse_test_recovered": 0.02242304950457711,
    "delta_test_pct": 37.26409535447349,
    "mse_train_recovered_pure": 0.002685878954184671,
    "mse_test_recovered_pure": 0.004719177816956092
  },
  "artifacts": {
    "weights_s1_file": "weights_s1_inst01_L3.npy",
    "weights_s2_file": "weights_s2_inst01_L3.npy",
    "circuit_stage1": "circuit_stage1_6q_4l_2t_sidekick_L03_inst01.eps",
    "circuit_stage2": "circuit_stage1_6q_4l_2t_sidekick_L03_inst01.eps",
    "circuit_full": "circuit_full_6q_4l_2t_sidekick_L3_inst01.eps",
    "training_cost_s1_plot": "training_cost_s1_dec400_enc300_inst01.eps",
    "training_cost_s2_plot": "training_cost_s2_dec400_enc300_inst01.eps",
    "reconstruction_pure_plot": "reconst_pure_dec400_enc300_inst01_L3.eps",
    "reconstruction_noisy_plot": "reconst_noisy_dec400_enc300_inst01_L3.eps"
  }
}