{
  "schema": {
    "name": "sidekick_qae_bundle",
    "version": "1.0"
  },
  "timestamp": "2026-02-22 17:06:05",
  "dataset": {
    "id": "mackey_glass_tau30_n200",
    "scale_low": 0.0,
    "scale_high": 1.0,
    "window_size": 6,
    "window_step": 2,
    "split": 0.75
  },
  "run": {
    "instance_id": 2,
    "layer": 3,
    "dec_epochs": 500,
    "enc_epochs": 300,
    "sigma_eval": 0.2,
    "test_seed_fixed": 99123,
    "device_seed": 13046,
    "stage1_time_sec": 174,
    "stage2_time_sec": 227
  },
  "environment": {
    "device": "lightning.qubit",
    "diff_method": "adjoint",
    "interface": "autograd"
  },
  "architecture": {
    "type": "sidekick",
    "n_qubits": 6,
    "n_latent": 4,
    "n_trash": 2,
    "rot": "Rxyz"
  },
  "parameters": {
    "weights_stage1": [
      [
        [
          1.570745025831044,
          -1.570770640417728,
          -1.502487781767286
        ],
        [
          0.0007084440734508528,
          0.18229772321512164,
          -0.0032434200183588196
        ],
        [
          0.00024883901763370504,
          -1.5635127798544106,
          -1.568645520424942
        ],
        [
          0.0008756178325645479,
          1.1694160369475541,
          0.004030876937785864
        ],
        [
          0.009104304545554906,
          0.22433038146875717,
          1.5172909381029633
        ],
        [
          -1.5711590224675258,
          -1.5722967844628397,
          1.4330106466196777
        ]
      ],
      [
        [
          0.0570022094594696,
          -0.0001425492887301221,
          0.02637605360358316
        ],
        [
          0.8596718833211684,
          0.08721506793721692,
          -1.4106703318327272
        ],
        [
          -0.18183423548672947,
          0.047102215966543404,
          0.2880777496604124
        ],
        [
          -0.44199330373743934,
          -0.026910312895573357,
          0.5299821648788879
        ],
        [
          0.39883513422893674,
          -0.03827228008397682,
          -0.2977574950366457
        ],
        [
          -0.020834162190477044,
          0.09596602774773111,
          0.01859045238608927
        ]
      ],
      [
        [
          0.16757622801627256,
          0.19423719071946355,
          0.30819849623004136
        ],
        [
          0.44724691955585744,
          1.5708638456716255,
          0.29265208321278424
        ],
        [
          0.0008950670384861247,
          1.5665970847350827,
          0.1803082820077635
        ],
        [
          0.28074658263618296,
          0.04778507794557874,
          0.2754784295236612
        ],
        [
          -0.07086046625298915,
          1.5707000650691125,
          0.06825199203422232
        ],
        [
          0.0009823427369668692,
          1.5705428075176207,
          0.1620009923950243
        ]
      ]
    ],
    "weights_stage2": [
      [
        [
          1.5750330168408841,
          -1.5743140179737072,
          -1.0524147865922813
        ],
        [
          0.39257421788053426,
          0.24842479020470412,
          1.2491818678523936
        ],
        [
          1.6936613273638104,
          -3.058832753286846,
          -2.7329126815013463
        ],
        [
          -0.005506491541114943,
          1.2182282731119347,
          -0.0694720554243834
        ],
        [
          -0.003684186565555276,
          0.9672895017259037,
          1.6255596706878068
        ],
        [
          -1.9144765343332766,
          1.945894410704064,
          0.828954439065078
        ]
      ],
      [
        [
          1.0013042012163988,
          0.02705011298394349,
          -1.0265963138375793
        ],
        [
          0.25220145110802494,
          0.019264674003684475,
          -0.24635300226660692
        ],
        [
          -0.053686673696049576,
          0.05150040962275624,
          0.024546563942907666
        ],
        [
          -1.5980516787118837,
          0.1107747216930827,
          1.54515312909189
        ],
        [
          0.3636373425538157,
          0.08251231124539675,
          -0.323174261702937
        ],
        [
          -0.1573979266756395,
          0.024880118567197164,
          0.20902630828607754
        ]
      ],
      [
        [
          0.27812560146213783,
          0.00010567864777293772,
          0.31951649368833657
        ],
        [
          4.760100491039309,
          1.5413361090670201,
          -0.016401190860643382
        ],
        [
          1.1957143207752068,
          1.5995412925974861,
          0.0037205964091069042
        ],
        [
          0.15253358103517825,
          0.010398265904357551,
          0.3001477205211917
        ],
        [
          0.000565310336467237,
          1.5561909136826328,
          0.08193243313133035
        ],
        [
          -0.006783441668581303,
          1.5747656733474575,
          0.16453586295830153
        ]
      ],
      [
        [
          1.7451889780750007,
          -2.0770670347211673,
          -1.0593724299358052
        ],
        [
          0.3190388893721146,
          0.30578887162724644,
          1.2654644591376534
        ],
        [
          1.4835372221331233,
          -3.1038394011082713,
          -2.9675930083657573
        ],
        [
          0.015803923372310492,
          1.1974237433689185,
          -0.08601809051593774
        ],
        [
          0.020794587370082527,
          0.8916517058555913,
          1.6405030457899992
        ],
        [
          -2.53553932731709,
          -0.6635781960204703,
          2.7026883663799044
        ]
      ],
      [
        [
          -1.0358663609014416,
          0.08801806635989114,
          0.972067103559613
        ],
        [
          0.14338552838132856,
          0.03533075219140185,
          -0.2923719226918381
        ],
        [
          -0.4620628586191128,
          0.0402392290088747,
          0.4311062853310446
        ],
        [
          -1.5756824048668778,
          0.0465603542884145,
          1.5472957156699043
        ],
        [
          0.72761636097225,
          0.006847925350127461,
          -0.7668704951803549
        ],
        [
          0.36821327426408035,
          0.0023565998088481573,
          -0.4057079883947598
        ]
      ],
      [
        [
          0.22112176578019474,
          -0.02265036805883757,
          0.29688049877174094
        ],
        [
          6.9044905108566486,
          1.5608903767067794,
          -0.0018990331771689848
        ],
        [
          -4.488891948610771,
          1.551890040857517,
          -0.00362575204869946
        ],
        [
          0.1786615867438873,
          -0.04587893049274363,
          0.25080913852613756
        ],
        [
          0.01768261282549355,
          1.5595236939209185,
          0.05457155093711144
        ],
        [
          -0.04185159846875079,
          1.5759313248239781,
          0.1594661218317511
        ]
      ]
    ]
  },
  "metrics": {
    "stage1_min_cost": 0.09403000641924146,
    "stage2_min_cost": 0.1584044576628836,
    "mse_train_noise": 0.04208329887417109,
    "mse_train_recovered": 0.02681016153053699,
    "delta_train_pct": 36.292633306387714,
    "mse_test_noise": 0.03574197205136823,
    "mse_test_recovered": 0.019971442670894433,
    "delta_test_pct": 44.12327713145893,
    "mse_train_recovered_pure": 0.00312504763219775,
    "mse_test_recovered_pure": 0.005161787755217186
  },
  "artifacts": {
    "weights_s1_file": "weights_s1_inst02_L3.npy",
    "weights_s2_file": "weights_s2_inst02_L3.npy",
    "circuit_stage1": "circuit_stage1_6q_4l_2t_sidekick_L03_inst02.eps",
    "circuit_stage2": "circuit_stage1_6q_4l_2t_sidekick_L03_inst02.eps",
    "circuit_full": "circuit_full_6q_4l_2t_sidekick_L3_inst02.eps",
    "training_cost_s1_plot": "training_cost_s1_dec500_enc300_inst02.eps",
    "training_cost_s2_plot": "training_cost_s2_dec500_enc300_inst02.eps",
    "reconstruction_pure_plot": "reconst_pure_dec500_enc300_inst02_L3.eps",
    "reconstruction_noisy_plot": "reconst_noisy_dec500_enc300_inst02_L3.eps"
  }
}