{
  "schema": {
    "name": "sidekick_qae_bundle",
    "version": "1.0"
  },
  "timestamp": "2026-02-22 15:47:58",
  "dataset": {
    "id": "mackey_glass_tau30_n200",
    "scale_low": 0.0,
    "scale_high": 1.0,
    "window_size": 6,
    "window_step": 2,
    "split": 0.75
  },
  "run": {
    "instance_id": 3,
    "layer": 3,
    "dec_epochs": 300,
    "enc_epochs": 300,
    "sigma_eval": 0.2,
    "test_seed_fixed": 99123,
    "device_seed": 13047,
    "stage1_time_sec": 103,
    "stage2_time_sec": 224
  },
  "environment": {
    "device": "lightning.qubit",
    "diff_method": "adjoint",
    "interface": "autograd"
  },
  "architecture": {
    "type": "sidekick",
    "n_qubits": 6,
    "n_latent": 4,
    "n_trash": 2,
    "rot": "Rxyz"
  },
  "parameters": {
    "weights_stage1": [
      [
        [
          -0.00597837064317183,
          -0.23193161202483262,
          0.005681020424869101
        ],
        [
          0.26369592279435783,
          -0.42276483638496126,
          1.3178701595275744
        ],
        [
          -0.6989970856429004,
          -0.5058489677553769,
          -0.9260038150651579
        ],
        [
          -0.2919913962708823,
          -0.28596341991831564,
          0.28493399771924993
        ],
        [
          0.36570280016775697,
          0.08234776281633886,
          1.1866172901134786
        ],
        [
          -1.5729223780194004,
          -1.5760313836941167,
          1.397853262792373
        ]
      ],
      [
        [
          1.4555843217482831,
          -0.0641122154728397,
          -1.460725144658102
        ],
        [
          -0.10162958921133959,
          0.006668448219624856,
          0.10288316262844771
        ],
        [
          0.015659297848587064,
          0.002184507397725007,
          -0.01602530959914448
        ],
        [
          0.05113566960582438,
          -0.002974367959223876,
          -0.05616944765712015
        ],
        [
          -0.8691917772455968,
          0.01400160458319581,
          0.8691259381632367
        ],
        [
          0.08203077766133501,
          -0.02370837100468282,
          -0.0763568525682946
        ]
      ],
      [
        [
          0.25930922781753835,
          0.24191232066670806,
          0.2893004630267811
        ],
        [
          0.529351253761794,
          1.5860173463655465,
          0.017625580095677485
        ],
        [
          -0.03163150524412139,
          1.5726445609870596,
          0.005334225405761245
        ],
        [
          0.12981642424089676,
          0.24602091142687077,
          0.25504328888257194
        ],
        [
          0.0006504274579868237,
          1.3623586383451527,
          0.1417448998081975
        ],
        [
          -0.04772352479591457,
          1.5804041376294977,
          0.1389845958365631
        ]
      ]
    ],
    "weights_stage2": [
      [
        [
          -1.5447330514050024,
          -1.4723447722551146,
          1.0893664103534912
        ],
        [
          -1.5153649757597192,
          0.0349176765105532,
          1.8981741116406623
        ],
        [
          -1.5873877162977752,
          -0.012203265568741541,
          -1.2845907166044888
        ],
        [
          -0.0041241362465737385,
          1.1698905838354305,
          0.7445759211864398
        ],
        [
          0.0007526711865571065,
          0.892623062242112,
          0.5680035920250068
        ],
        [
          -0.9072123682365624,
          3.7397117926773435,
          2.3450615930854144
        ]
      ],
      [
        [
          1.4885994819145336,
          -0.0718205557265556,
          -1.5220632020255997
        ],
        [
          -0.33823139138109143,
          0.02590779393515611,
          0.44701244152919606
        ],
        [
          -0.12221556874389784,
          0.018718063163573932,
          0.13668568788482932
        ],
        [
          0.0778088166533969,
          -0.07474617389723008,
          -0.07415806697549977
        ],
        [
          -0.7949924160751378,
          -0.02107845810045115,
          0.7945816145052645
        ],
        [
          -0.6925117498002907,
          -0.010499875575418162,
          0.6998219464165637
        ]
      ],
      [
        [
          -0.230034941346857,
          -0.012035507903924894,
          0.5810723887970817
        ],
        [
          -0.21086666318467853,
          1.527183624910649,
          -0.054463281081848995
        ],
        [
          5.981480413099174,
          1.5775377383592237,
          -0.022165247014886647
        ],
        [
          -0.3083928454088634,
          0.018519990184464798,
          0.28121274066612045
        ],
        [
          -0.0008836640719071492,
          1.5658145417984874,
          0.12447535369336313
        ],
        [
          0.021463434228403168,
          1.5896449670302322,
          0.14386821695234045
        ]
      ],
      [
        [
          1.6033662743167023,
          -1.5487692666340904,
          -1.18575386111474
        ],
        [
          -1.5839119860425206,
          -0.00853495440155452,
          1.9996012728102166
        ],
        [
          -1.494227988620706,
          0.0707159063105661,
          -1.44821572379853
        ],
        [
          -0.007188249056248642,
          1.137547287505368,
          0.6443908707770367
        ],
        [
          0.08770714357161286,
          0.839774794353415,
          0.6062048154297964
        ],
        [
          -0.8440135110903886,
          -5.813804713838399,
          0.7626651005483647
        ]
      ],
      [
        [
          1.7677360482063433,
          -0.015478997674382083,
          -1.7899293644635843
        ],
        [
          0.08828281595229319,
          -0.011336607468077275,
          -0.18810356215350046
        ],
        [
          0.06950161657799345,
          0.01272570898202065,
          0.00656201831482859
        ],
        [
          -0.968070080982582,
          0.04095145949057165,
          1.011925284221864
        ],
        [
          -0.1944132278955401,
          0.011229816053753252,
          0.19627281748023456
        ],
        [
          -0.9733247949817481,
          0.06367755941618566,
          0.9575041176064751
        ]
      ],
      [
        [
          0.25420263454145947,
          0.017393932708388085,
          -0.0024714627435151334
        ],
        [
          -1.5303875717017847,
          1.5684587003052155,
          -0.026987747267555526
        ],
        [
          -9.169377445067001,
          1.5667754949950559,
          0.014991361667912895
        ],
        [
          -0.31279106482140595,
          0.056200248892306216,
          0.22887383709902287
        ],
        [
          0.0276413531460198,
          1.5783907696967707,
          0.15901444592303618
        ],
        [
          0.03833568508154313,
          1.5754371912812142,
          0.13410097472078653
        ]
      ]
    ]
  },
  "metrics": {
    "stage1_min_cost": 0.10886297814116737,
    "stage2_min_cost": 0.156695325822991,
    "mse_train_noise": 0.04208329887417109,
    "mse_train_recovered": 0.029898265097400175,
    "delta_train_pct": 28.95455941608599,
    "mse_test_noise": 0.03574197205136823,
    "mse_test_recovered": 0.02385012473603195,
    "delta_test_pct": 33.27137992902396,
    "mse_train_recovered_pure": 0.0035591747258231646,
    "mse_test_recovered_pure": 0.004237226747077794
  },
  "artifacts": {
    "weights_s1_file": "weights_s1_inst03_L3.npy",
    "weights_s2_file": "weights_s2_inst03_L3.npy",
    "circuit_stage1": "circuit_stage1_6q_4l_2t_sidekick_L03_inst03.eps",
    "circuit_stage2": "circuit_stage1_6q_4l_2t_sidekick_L03_inst03.eps",
    "circuit_full": "circuit_full_6q_4l_2t_sidekick_L3_inst03.eps",
    "training_cost_s1_plot": "training_cost_s1_dec300_enc300_inst03.eps",
    "training_cost_s2_plot": "training_cost_s2_dec300_enc300_inst03.eps",
    "reconstruction_pure_plot": "reconst_pure_dec300_enc300_inst03_L3.eps",
    "reconstruction_noisy_plot": "reconst_noisy_dec300_enc300_inst03_L3.eps"
  }
}