{
  "schema": {
    "name": "sidekick_qae_bundle",
    "version": "1.0"
  },
  "timestamp": "2026-02-22 17:12:48",
  "dataset": {
    "id": "mackey_glass_tau30_n200",
    "scale_low": 0.0,
    "scale_high": 1.0,
    "window_size": 6,
    "window_step": 2,
    "split": 0.75
  },
  "run": {
    "instance_id": 3,
    "layer": 3,
    "dec_epochs": 500,
    "enc_epochs": 300,
    "sigma_eval": 0.2,
    "test_seed_fixed": 99123,
    "device_seed": 13047,
    "stage1_time_sec": 174,
    "stage2_time_sec": 227
  },
  "environment": {
    "device": "lightning.qubit",
    "diff_method": "adjoint",
    "interface": "autograd"
  },
  "architecture": {
    "type": "sidekick",
    "n_qubits": 6,
    "n_latent": 4,
    "n_trash": 2,
    "rot": "Rxyz"
  },
  "parameters": {
    "weights_stage1": [
      [
        [
          -0.33627865328010764,
          -0.24833949821949086,
          0.3164139547931341
        ],
        [
          -0.04997711317187953,
          -0.688560787851308,
          1.6181776056732822
        ],
        [
          -0.4900131752421543,
          -0.47614063111915544,
          -1.1196553632679536
        ],
        [
          -0.27317007273549426,
          -0.29222749934319314,
          0.2652547579376266
        ],
        [
          0.07845443315373515,
          0.08856982468425834,
          1.4885961273312567
        ],
        [
          -1.5707592895086642,
          -1.570772619019576,
          1.4053480265498273
        ]
      ],
      [
        [
          1.5168148265575236,
          -0.32916620766912624,
          -1.5250524483403327
        ],
        [
          -0.08737874244033292,
          0.0053766395172797675,
          0.12443410534685453
        ],
        [
          0.033752742978796824,
          0.0035846936782628984,
          -0.02518474811589767
        ],
        [
          0.05933436534413479,
          0.0007587352540982437,
          -0.06930273804027362
        ],
        [
          -0.9647782129913874,
          0.022912352026517157,
          0.95482317744661
        ],
        [
          0.053283076243710335,
          -0.03382802050011026,
          -0.04517030801819492
        ]
      ],
      [
        [
          0.2593092277351129,
          0.24191232070800467,
          0.28930046290596434
        ],
        [
          0.5329768455806437,
          1.587999196030211,
          0.01762558014533512
        ],
        [
          -0.029385917000309087,
          1.5723597410359074,
          0.005334225448599245
        ],
        [
          0.1298164241868499,
          0.24602091146183738,
          0.25504328885784444
        ],
        [
          -0.0007151865622994632,
          1.3616091608074326,
          0.14174489979489147
        ],
        [
          -0.05083924884034313,
          1.5774016587277018,
          0.13898459588184905
        ]
      ]
    ],
    "weights_stage2": [
      [
        [
          -1.3472703152711312,
          -1.1853724205449567,
          0.9554010922213813
        ],
        [
          1.6305458213893735,
          -0.16683794819395362,
          1.8737479827048975
        ],
        [
          -1.7424396032094869,
          0.06140873348779667,
          -1.0100187279371466
        ],
        [
          -0.045333121505843836,
          1.2393241261305508,
          -0.0005760825887874157
        ],
        [
          0.016137516752164578,
          0.9737906225689155,
          1.513978037239237
        ],
        [
          -2.0031483144337416,
          2.0142276693932484,
          0.7501569144580592
        ]
      ],
      [
        [
          1.5855687393664635,
          0.03604370454131733,
          -1.5729038159601079
        ],
        [
          -0.1954151413885031,
          -0.022517398591443184,
          0.21615106108921342
        ],
        [
          0.261779436630924,
          0.006757449126348947,
          -0.26327160661999177
        ],
        [
          1.6566567473481058,
          -0.10284711233357985,
          -1.6723530250556933
        ],
        [
          0.9141620243261023,
          0.01797974261334563,
          -0.9245719211967385
        ],
        [
          0.34321593104744186,
          -0.05185316995920849,
          -0.36738887718987
        ]
      ],
      [
        [
          0.7898274008823967,
          0.05436590758769775,
          0.2756559695731703
        ],
        [
          -4.913936277479039,
          1.5693216509815497,
          0.041321839673602485
        ],
        [
          -0.9349990568668131,
          1.600200386463828,
          0.04959527859486821
        ],
        [
          -0.20864163179311193,
          -0.010308847281303156,
          0.4001946059412089
        ],
        [
          0.025632238085158566,
          1.5544994009582749,
          0.100747049340489
        ],
        [
          -0.03435527631088704,
          1.559223713538091,
          0.15904218167154147
        ]
      ],
      [
        [
          -1.7858474251046488,
          -1.9434209075571887,
          1.0472549634143011
        ],
        [
          1.4746554296731282,
          -0.20098245074603788,
          2.0721102470356936
        ],
        [
          -1.5169980442205409,
          0.03807912692334878,
          -1.1968305864999873
        ],
        [
          0.00836757626712701,
          1.2214741773851323,
          0.04618115940649947
        ],
        [
          0.04823544170841619,
          0.9660735486152785,
          1.5213491870157339
        ],
        [
          -1.163077093414141,
          0.9872516159495257,
          0.7719757837469261
        ]
      ],
      [
        [
          1.518757075059264,
          -0.06007660428463258,
          -1.4914138247806374
        ],
        [
          -0.09342510613518006,
          0.04417763283989251,
          0.12565863501759447
        ],
        [
          -0.11585013152220476,
          -0.02923557270225285,
          0.07586838798330983
        ],
        [
          -1.5078599169735476,
          0.10902073911287824,
          1.5643714650989269
        ],
        [
          0.6840959858664192,
          0.01967228380478622,
          -0.6563131170024571
        ],
        [
          -0.03226994289312071,
          0.046905221069912614,
          0.04767957278897758
        ]
      ],
      [
        [
          0.8201889627182046,
          -0.030525468901426763,
          0.3029449562387533
        ],
        [
          -1.0434745532867724,
          1.6106512071532892,
          -0.023841227770459116
        ],
        [
          4.475051671535538,
          1.6440196912837144,
          0.015236491323296297
        ],
        [
          0.20780520606778266,
          0.036615740711675296,
          0.10989197177448212
        ],
        [
          0.011681913775946408,
          1.5636362696197192,
          0.18274275024928782
        ],
        [
          -0.044095269094315215,
          1.539221851132322,
          0.11892701009215592
        ]
      ]
    ]
  },
  "metrics": {
    "stage1_min_cost": 0.10871600048008885,
    "stage2_min_cost": 0.15824370474723626,
    "mse_train_noise": 0.04208329887417109,
    "mse_train_recovered": 0.02982695175171789,
    "delta_train_pct": 29.124017009929837,
    "mse_test_noise": 0.03574197205136823,
    "mse_test_recovered": 0.025249430336167573,
    "delta_test_pct": 29.356359240952955,
    "mse_train_recovered_pure": 0.0036426597242221236,
    "mse_test_recovered_pure": 0.004181432978867252
  },
  "artifacts": {
    "weights_s1_file": "weights_s1_inst03_L3.npy",
    "weights_s2_file": "weights_s2_inst03_L3.npy",
    "circuit_stage1": "circuit_stage1_6q_4l_2t_sidekick_L03_inst03.eps",
    "circuit_stage2": "circuit_stage1_6q_4l_2t_sidekick_L03_inst03.eps",
    "circuit_full": "circuit_full_6q_4l_2t_sidekick_L3_inst03.eps",
    "training_cost_s1_plot": "training_cost_s1_dec500_enc300_inst03.eps",
    "training_cost_s2_plot": "training_cost_s2_dec500_enc300_inst03.eps",
    "reconstruction_pure_plot": "reconst_pure_dec500_enc300_inst03_L3.eps",
    "reconstruction_noisy_plot": "reconst_noisy_dec500_enc300_inst03_L3.eps"
  }
}