{
  "schema": {
    "name": "sidekick_qae_bundle",
    "version": "1.0"
  },
  "timestamp": "2026-02-22 16:52:41",
  "dataset": {
    "id": "mackey_glass_tau30_n200",
    "scale_low": 0.0,
    "scale_high": 1.0,
    "window_size": 6,
    "window_step": 2,
    "split": 0.75
  },
  "run": {
    "instance_id": 7,
    "layer": 3,
    "dec_epochs": 400,
    "enc_epochs": 300,
    "sigma_eval": 0.2,
    "test_seed_fixed": 99123,
    "device_seed": 13051,
    "stage1_time_sec": 139,
    "stage2_time_sec": 226
  },
  "environment": {
    "device": "lightning.qubit",
    "diff_method": "adjoint",
    "interface": "autograd"
  },
  "architecture": {
    "type": "sidekick",
    "n_qubits": 6,
    "n_latent": 4,
    "n_trash": 2,
    "rot": "Rxyz"
  },
  "parameters": {
    "weights_stage1": [
      [
        [
          1.572659911559624,
          -1.5735650062147697,
          -1.5281073375764946
        ],
        [
          0.15037249496870383,
          0.19309238687881664,
          0.7847224703608774
        ],
        [
          -0.17178445193925038,
          -0.7091261646234023,
          -0.34270181377798703
        ],
        [
          1.1158529473910874,
          -0.01675878191746132,
          0.9953956198820972
        ],
        [
          0.21527611983719758,
          0.20273799051356467,
          1.026555700465452
        ],
        [
          1.5727323796474983,
          -1.5789871968465452,
          -1.4265098138037673
        ]
      ],
      [
        [
          0.3141350273759345,
          0.0011732742132084459,
          -0.3356981079880303
        ],
        [
          -0.18242255132217755,
          0.04276216966241102,
          -0.31169396628792656
        ],
        [
          0.11423256635164056,
          0.004415558455107694,
          -0.04223450849849838
        ],
        [
          -0.311881308099315,
          0.011800847159693,
          0.3671321145567039
        ],
        [
          0.11323010427811536,
          -0.04692322983643431,
          -0.03330780917367284
        ],
        [
          -0.24364963163041742,
          0.01193465431709616,
          0.24412553979651472
        ]
      ],
      [
        [
          0.09092698817153397,
          0.006128600772383799,
          0.24353546901416306
        ],
        [
          -0.4368073794948896,
          1.569819239432978,
          0.213473073059382
        ],
        [
          -0.0033170026585659976,
          1.5471510415215093,
          0.1869816909616543
        ],
        [
          0.0088104599712718,
          0.26860454208939016,
          0.025671440591576753
        ],
        [
          0.007804391369257075,
          1.549327338726917,
          0.18038667287319032
        ],
        [
          0.00030191649503468116,
          1.5648268208633611,
          0.00196134939705007
        ]
      ]
    ],
    "weights_stage2": [
      [
        [
          1.7209019749347956,
          -1.7879459652442702,
          -1.0183173139603567
        ],
        [
          1.658627047814832,
          -0.11413824180596086,
          0.8739194858658181
        ],
        [
          -0.06860801416785275,
          -1.3310068222514675,
          0.0196713711514974
        ],
        [
          0.02284297491399907,
          1.4863258351886448,
          1.5269552356129894
        ],
        [
          -0.034107485676397736,
          0.879182696030322,
          0.0009272211154030593
        ],
        [
          1.922556827879928,
          -4.045310415825506,
          -1.0346483506253104
        ]
      ],
      [
        [
          1.4093113125487997,
          -0.06308404072045375,
          -1.4311981064837427
        ],
        [
          -0.4583577530618317,
          0.05430328961575086,
          0.4226487352053739
        ],
        [
          1.557949055906846,
          0.4773515911377527,
          -1.522792076971279
        ],
        [
          -0.1452200532985967,
          -0.018433759301409988,
          0.1445000528907052
        ],
        [
          0.3736223104198756,
          0.015485971209842596,
          -0.3336776911914374
        ],
        [
          0.019903616734519517,
          0.013604674278013982,
          -0.04180523434977863
        ]
      ],
      [
        [
          -0.14274139155852286,
          0.08933167007607201,
          0.2475531437443213
        ],
        [
          1.756956766142917,
          1.601465670247908,
          0.05346497701574461
        ],
        [
          -0.062451138816576005,
          1.596014156933046,
          0.08559204882457368
        ],
        [
          0.14197902976236548,
          -0.12170225111099575,
          0.022369376605046
        ],
        [
          0.0010939107773637966,
          1.5584137117649706,
          0.19236342285531954
        ],
        [
          -0.007593289639012551,
          1.5724920306697014,
          0.04488881816026206
        ]
      ],
      [
        [
          1.632792038868651,
          -1.661587770403436,
          -1.0874643868461045
        ],
        [
          1.4781379410611981,
          -0.09293145046682164,
          1.089883816977983
        ],
        [
          -0.06007025152523986,
          -1.2714641602229637,
          -0.039794656650590635
        ],
        [
          -0.007973229261477246,
          1.4162594848729557,
          1.564549371430638
        ],
        [
          0.030161778810475767,
          0.8417540148931834,
          0.05392327266024948
        ],
        [
          1.7580342482948677,
          -4.185744595051452,
          -1.1783121713859206
        ]
      ],
      [
        [
          0.2060723985039647,
          -0.03216789708155587,
          -0.2228594850450583
        ],
        [
          -0.18509257454323905,
          0.011541397005341339,
          0.11237636986317322
        ],
        [
          1.485586596211723,
          0.37421288332964764,
          -1.5348564167312355
        ],
        [
          0.059570438562346395,
          -0.07346969556864318,
          -0.12926346841704503
        ],
        [
          -0.12221123917123695,
          0.01499425949641914,
          0.151251631001425
        ],
        [
          0.7589929143248378,
          -0.04168884234601089,
          -0.7649304111913492
        ]
      ],
      [
        [
          -0.11874860979083339,
          0.10051241861616962,
          0.23951779428399897
        ],
        [
          -3.3224122943051815,
          1.601090841079444,
          0.018958061421657083
        ],
        [
          0.7684990727678204,
          1.5219534599132718,
          0.054232880955011546
        ],
        [
          0.10597526079503651,
          -0.09532402071364215,
          0.028973504578102827
        ],
        [
          -0.06325414304643932,
          1.5484928316624842,
          0.16840992289106033
        ],
        [
          -0.012174263330340735,
          1.566933263146081,
          -0.0409661193661613
        ]
      ]
    ]
  },
  "metrics": {
    "stage1_min_cost": 0.09523714997844111,
    "stage2_min_cost": 0.1542335896306085,
    "mse_train_noise": 0.04208329887417109,
    "mse_train_recovered": 0.028649240874233792,
    "delta_train_pct": 31.922540198440906,
    "mse_test_noise": 0.03574197205136823,
    "mse_test_recovered": 0.02148928026433313,
    "delta_test_pct": 39.87662394943173,
    "mse_train_recovered_pure": 0.0030317947301686018,
    "mse_test_recovered_pure": 0.00542446521899766
  },
  "artifacts": {
    "weights_s1_file": "weights_s1_inst07_L3.npy",
    "weights_s2_file": "weights_s2_inst07_L3.npy",
    "circuit_stage1": "circuit_stage1_6q_4l_2t_sidekick_L03_inst07.eps",
    "circuit_stage2": "circuit_stage1_6q_4l_2t_sidekick_L03_inst07.eps",
    "circuit_full": "circuit_full_6q_4l_2t_sidekick_L3_inst07.eps",
    "training_cost_s1_plot": "training_cost_s1_dec400_enc300_inst07.eps",
    "training_cost_s2_plot": "training_cost_s2_dec400_enc300_inst07.eps",
    "reconstruction_pure_plot": "reconst_pure_dec400_enc300_inst07_L3.eps",
    "reconstruction_noisy_plot": "reconst_noisy_dec400_enc300_inst07_L3.eps"
  }
}