{
  "schema": {
    "name": "sidekick_qae_bundle",
    "version": "1.0"
  },
  "timestamp": "2026-02-22 17:39:44",
  "dataset": {
    "id": "mackey_glass_tau30_n200",
    "scale_low": 0.0,
    "scale_high": 1.0,
    "window_size": 6,
    "window_step": 2,
    "split": 0.75
  },
  "run": {
    "instance_id": 7,
    "layer": 3,
    "dec_epochs": 500,
    "enc_epochs": 300,
    "sigma_eval": 0.2,
    "test_seed_fixed": 99123,
    "device_seed": 13051,
    "stage1_time_sec": 175,
    "stage2_time_sec": 227
  },
  "environment": {
    "device": "lightning.qubit",
    "diff_method": "adjoint",
    "interface": "autograd"
  },
  "architecture": {
    "type": "sidekick",
    "n_qubits": 6,
    "n_latent": 4,
    "n_trash": 2,
    "rot": "Rxyz"
  },
  "parameters": {
    "weights_stage1": [
      [
        [
          1.570711030161693,
          -1.5708144406412947,
          -1.47847973343481
        ],
        [
          0.014848040818959747,
          0.11983064383209148,
          1.5504310496457137
        ],
        [
          -0.6880106183824647,
          -0.199356679658713,
          -0.8716749083086909
        ],
        [
          1.3172721620675674,
          -0.1693764712351255,
          1.83069327931879
        ],
        [
          -0.002928563721706364,
          0.18180647198705152,
          1.570495983879891
        ],
        [
          1.5707335145193582,
          -1.571026707561569,
          -1.4385514309847431
        ]
      ],
      [
        [
          0.3573954772697057,
          0.002739651725407943,
          -0.36598914636993995
        ],
        [
          -0.16777533027221112,
          0.005053947166383395,
          -0.29704092061180204
        ],
        [
          -0.001390239866987387,
          0.035294860435888295,
          0.027981938580611102
        ],
        [
          -0.27411977711015056,
          0.023360941632208577,
          0.36003448062369864
        ],
        [
          0.22451775454389708,
          -0.06784316812843329,
          -0.13964023318121593
        ],
        [
          -0.2465392540484154,
          -0.001008879909270374,
          0.24705637514404438
        ]
      ],
      [
        [
          0.09092698814132798,
          0.006128600771033845,
          0.24353546896681083
        ],
        [
          -0.4915113041379591,
          1.6049942789573575,
          0.21347307305312738
        ],
        [
          -0.0006877265591906074,
          1.5652710666194813,
          0.18698169097077252
        ],
        [
          0.008810459940119265,
          0.2686045420862326,
          0.025671440553786312
        ],
        [
          -0.009983769904091099,
          1.4081151943078345,
          0.18038667287453108
        ],
        [
          0.00032891209534618505,
          1.5693335238743011,
          0.0019613494081969435
        ]
      ]
    ],
    "weights_stage2": [
      [
        [
          1.5739421026538394,
          -1.7316697195571527,
          -1.1207794252310275
        ],
        [
          0.5158047902603315,
          0.43220827723957334,
          1.886102430468515
        ],
        [
          -1.3415346263269436,
          -0.13073186528446404,
          -1.6341307578093747
        ],
        [
          0.002476971026326903,
          1.225748703383193,
          3.1361482655981483
        ],
        [
          -0.001405174730751716,
          0.959285836864558,
          1.5824880598572817
        ],
        [
          0.7838568218388124,
          0.905680141008872,
          -0.5799179972981401
        ]
      ],
      [
        [
          -0.33601384830056247,
          -0.004445399958888841,
          0.25850718205036916
        ],
        [
          0.4241300566946722,
          -0.012991897400256257,
          -0.46469649295778653
        ],
        [
          -0.09995514501111448,
          0.0030370646624935465,
          0.10424985026915087
        ],
        [
          -1.380820267543401,
          -0.12207663278478184,
          1.3209851849394152
        ],
        [
          0.2741368858223079,
          0.020818224640341124,
          -0.30808990796869223
        ],
        [
          0.12539754341693954,
          0.00918650859673693,
          -0.07751262590162022
        ]
      ],
      [
        [
          0.19080793022027387,
          -0.03527100964687938,
          0.27055147663763707
        ],
        [
          -4.375488434039359,
          1.5687034670996465,
          -0.03603154637792508
        ],
        [
          -3.543302594638831,
          1.5591757725389719,
          0.06814426239449957
        ],
        [
          0.058168621415523834,
          -0.008954892027400737,
          0.027676523397897532
        ],
        [
          0.0006457489371975776,
          1.605355795058748,
          0.18418259313308613
        ],
        [
          -0.0017451653574727015,
          1.5663817102003272,
          -0.017702211318473278
        ]
      ],
      [
        [
          1.6458103381881222,
          -1.599911911691072,
          -1.1959745762514196
        ],
        [
          0.4626917918450348,
          0.4401937599806425,
          1.8722210783346331
        ],
        [
          -1.6033399437738367,
          -0.1980018775392176,
          -1.3968701820029998
        ],
        [
          0.008849053107242143,
          1.2039058658779873,
          3.1680176460439804
        ],
        [
          -0.0007936872173422705,
          0.9360547599734389,
          1.508147082629753
        ],
        [
          0.4613101908469745,
          -5.625236774464281,
          -0.35453268593101295
        ]
      ],
      [
        [
          0.02887720541291139,
          -0.02386848287447545,
          -0.0415268615063141
        ],
        [
          -0.038871473347461216,
          0.035676077571326355,
          -0.09930345189638853
        ],
        [
          0.17745332325404536,
          -0.009698719304035213,
          -0.0806997753013907
        ],
        [
          -1.6107082487240838,
          -0.09452920893678081,
          1.6505235972529435
        ],
        [
          1.1060558565366212,
          -0.0334217438147723,
          -1.1652759694676142
        ],
        [
          -0.8412502606622486,
          0.062026487995898674,
          0.8427091182918599
        ]
      ],
      [
        [
          0.1644117695784321,
          0.07746524363948878,
          0.21651946129598368
        ],
        [
          -0.9138179927470809,
          1.5610363862469294,
          0.025567291238562467
        ],
        [
          -0.8327609117416447,
          1.5324042827954774,
          -0.0084808347703543
        ],
        [
          0.09757071819375542,
          0.02832307203348319,
          0.023666357709681098
        ],
        [
          0.010108101634100822,
          1.5970483993051432,
          0.17659075261597115
        ],
        [
          0.05292801634041846,
          1.5358744500286545,
          0.021624910134867923
        ]
      ]
    ]
  },
  "metrics": {
    "stage1_min_cost": 0.09363946329451212,
    "stage2_min_cost": 0.15660348240830235,
    "mse_train_noise": 0.04208329887417109,
    "mse_train_recovered": 0.027913373239981894,
    "delta_train_pct": 33.67113798886637,
    "mse_test_noise": 0.03574197205136823,
    "mse_test_recovered": 0.021144889609836237,
    "delta_test_pct": 40.840170823683486,
    "mse_train_recovered_pure": 0.002911899738605153,
    "mse_test_recovered_pure": 0.004857044623286356
  },
  "artifacts": {
    "weights_s1_file": "weights_s1_inst07_L3.npy",
    "weights_s2_file": "weights_s2_inst07_L3.npy",
    "circuit_stage1": "circuit_stage1_6q_4l_2t_sidekick_L03_inst07.eps",
    "circuit_stage2": "circuit_stage1_6q_4l_2t_sidekick_L03_inst07.eps",
    "circuit_full": "circuit_full_6q_4l_2t_sidekick_L3_inst07.eps",
    "training_cost_s1_plot": "training_cost_s1_dec500_enc300_inst07.eps",
    "training_cost_s2_plot": "training_cost_s2_dec500_enc300_inst07.eps",
    "reconstruction_pure_plot": "reconst_pure_dec500_enc300_inst07_L3.eps",
    "reconstruction_noisy_plot": "reconst_noisy_dec500_enc300_inst07_L3.eps"
  }
}