{
  "schema": {
    "name": "sidekick_qae_bundle",
    "version": "1.0"
  },
  "timestamp": "2026-02-22 15:37:00",
  "dataset": {
    "id": "mackey_glass_tau30_n200",
    "scale_low": 0.0,
    "scale_high": 1.0,
    "window_size": 6,
    "window_step": 2,
    "split": 0.75
  },
  "run": {
    "instance_id": 1,
    "layer": 3,
    "dec_epochs": 300,
    "enc_epochs": 300,
    "sigma_eval": 0.2,
    "test_seed_fixed": 99123,
    "device_seed": 13045,
    "stage1_time_sec": 103,
    "stage2_time_sec": 224
  },
  "environment": {
    "device": "lightning.qubit",
    "diff_method": "adjoint",
    "interface": "autograd"
  },
  "architecture": {
    "type": "sidekick",
    "n_qubits": 6,
    "n_latent": 4,
    "n_trash": 2,
    "rot": "Rxyz"
  },
  "parameters": {
    "weights_stage1": [
      [
        [
          -0.20005596593350772,
          -0.23882031189642863,
          0.19227577757444425
        ],
        [
          -0.5292004911181811,
          -0.45166255672940725,
          -1.0769457991029823
        ],
        [
          0.5892708065463218,
          -0.5224388815240856,
          1.0315516188689278
        ],
        [
          0.05973002888616047,
          -0.30249633713734425,
          -0.05889404919098439
        ],
        [
          0.5596381037373158,
          0.06277253949523388,
          0.9904623468293029
        ],
        [
          -1.5729078773165557,
          -1.5759723879589007,
          1.3908071833132687
        ]
      ],
      [
        [
          0.17540695570761275,
          0.01608251936228312,
          -0.18060013635180577
        ],
        [
          0.7058080077963002,
          0.009025239827589293,
          -0.6856848351873408
        ],
        [
          -0.04087108865326853,
          0.00134998004960745,
          0.04311688866262568
        ],
        [
          0.013578573725170469,
          0.002670807792935735,
          -0.017003046115575564
        ],
        [
          0.12210843284318944,
          0.0016849537913661285,
          -0.12801358238774857
        ],
        [
          0.0893839965156825,
          0.025103851025092386,
          -0.0829213189852928
        ]
      ],
      [
        [
          0.13004702502168267,
          0.03052302134155641,
          0.21916500329071495
        ],
        [
          0.5293458235291532,
          1.582529053683836,
          0.0762442200750401
        ],
        [
          -0.03337381948152171,
          1.5719877222097787,
          0.07273266105163252
        ],
        [
          0.09323059296335873,
          0.15361492159291373,
          0.05360220804575759
        ],
        [
          -0.0022947736795603858,
          1.3604434669212062,
          0.21817595204587362
        ],
        [
          -0.04763412530324433,
          1.5784197953181398,
          0.1863161669078847
        ]
      ]
    ],
    "weights_stage2": [
      [
        [
          -1.6013541159866391,
          -1.5239389202256286,
          1.0740902342895855
        ],
        [
          -2.055834169119003,
          0.025905282835676585,
          -1.3044131933792633
        ],
        [
          1.2077779393887214,
          -0.048353226044467255,
          1.5993683881588374
        ],
        [
          0.021740871376750653,
          1.1832467555780997,
          -0.03986008158898627
        ],
        [
          -0.0035621290391524892,
          0.9444836485985632,
          1.6471098139835059
        ],
        [
          -1.5231251836297701,
          -7.943215153321133,
          2.217708980623693
        ]
      ],
      [
        [
          0.9786774159822167,
          0.15569014141653487,
          -0.9774295872036995
        ],
        [
          0.394540574516436,
          -0.011430092114739122,
          -0.3711486547021486
        ],
        [
          0.2849690061214125,
          0.006767740860577758,
          -0.2506181886371943
        ],
        [
          -1.0611853132450586,
          0.1326547304067,
          1.0534989623971664
        ],
        [
          -0.03716964119360959,
          -0.00031736289308203786,
          0.04218560550105595
        ],
        [
          0.15952762096241424,
          -0.009182404869552272,
          -0.1503055797872028
        ]
      ],
      [
        [
          -0.085285055037127,
          7.082650294687205e-05,
          0.1854223402522316
        ],
        [
          1.5794326072721137,
          1.5586427735463635,
          -0.006067243664245686
        ],
        [
          2.4275001824260416,
          1.540954454415696,
          -0.06397174704823287
        ],
        [
          0.04031061006971325,
          0.08090868523109727,
          -0.023565426754088892
        ],
        [
          -0.023688801677421514,
          1.583118971570499,
          0.19568188623449304
        ],
        [
          0.008872904108500439,
          1.5750524816165892,
          0.16203281323003185
        ]
      ],
      [
        [
          -1.469361362204435,
          -1.3686084457025791,
          1.1209260092915219
        ],
        [
          -2.4158155484494173,
          0.08401958464566903,
          -1.03740118971408
        ],
        [
          1.5373152024921963,
          -0.051852052197076774,
          1.2887759585736949
        ],
        [
          0.002305482947394518,
          1.1708069949496975,
          -0.04638971419437684
        ],
        [
          -0.04121364050683242,
          0.9306195574691251,
          1.587784891704961
        ],
        [
          -1.9620436179687255,
          -7.2932774457592435,
          2.255541712661701
        ]
      ],
      [
        [
          0.7181934662586659,
          -0.0438519884693845,
          -0.6812005958689981
        ],
        [
          0.3146677280001171,
          0.027599272741321124,
          -0.18083832325442725
        ],
        [
          0.3858958670235319,
          0.021537117841214194,
          -0.4161053799946563
        ],
        [
          1.678879628095907,
          -0.09594864333966636,
          -1.7194906754276142
        ],
        [
          1.4064526746075825,
          -0.03189232810530587,
          -1.4568608141768418
        ],
        [
          -0.07641898308797022,
          -0.019993877206516807,
          0.06640071260254764
        ]
      ],
      [
        [
          -0.1385388214590107,
          -0.027517958154291373,
          0.25290766632920497
        ],
        [
          -4.399499574511026,
          1.5731406137669008,
          0.07930163880494802
        ],
        [
          1.690731957966564,
          1.4830943437767972,
          0.013206006569263374
        ],
        [
          -0.07147462082835049,
          -0.006862554581205127,
          0.1307698428455989
        ],
        [
          -0.028125949788351878,
          1.580428145452477,
          0.24067001785725595
        ],
        [
          0.03582760399119183,
          1.5691726598521876,
          0.210599520585734
        ]
      ]
    ]
  },
  "metrics": {
    "stage1_min_cost": 0.10885947925286997,
    "stage2_min_cost": 0.15722530748748165,
    "mse_train_noise": 0.04208329887417109,
    "mse_train_recovered": 0.029746636391928316,
    "delta_train_pct": 29.314865545900638,
    "mse_test_noise": 0.03574197205136823,
    "mse_test_recovered": 0.023404636902424225,
    "delta_test_pct": 34.51777963234047,
    "mse_train_recovered_pure": 0.0035128933404741324,
    "mse_test_recovered_pure": 0.0042085685506679975
  },
  "artifacts": {
    "weights_s1_file": "weights_s1_inst01_L3.npy",
    "weights_s2_file": "weights_s2_inst01_L3.npy",
    "circuit_stage1": "circuit_stage1_6q_4l_2t_sidekick_L03_inst01.eps",
    "circuit_stage2": "circuit_stage1_6q_4l_2t_sidekick_L03_inst01.eps",
    "circuit_full": "circuit_full_6q_4l_2t_sidekick_L3_inst01.eps",
    "training_cost_s1_plot": "training_cost_s1_dec300_enc300_inst01.eps",
    "training_cost_s2_plot": "training_cost_s2_dec300_enc300_inst01.eps",
    "reconstruction_pure_plot": "reconst_pure_dec300_enc300_inst01_L3.eps",
    "reconstruction_noisy_plot": "reconst_noisy_dec300_enc300_inst01_L3.eps"
  }
}