{
  "schema": {
    "name": "sidekick_qae_bundle",
    "version": "1.0"
  },
  "timestamp": "2026-02-22 15:07:00",
  "dataset": {
    "id": "mackey_glass_tau30_n200",
    "scale_low": 0.0,
    "scale_high": 1.0,
    "window_size": 6,
    "window_step": 2,
    "split": 0.75
  },
  "run": {
    "instance_id": 2,
    "layer": 3,
    "dec_epochs": 200,
    "enc_epochs": 300,
    "sigma_eval": 0.2,
    "test_seed_fixed": 99123,
    "device_seed": 13046,
    "stage1_time_sec": 68,
    "stage2_time_sec": 223
  },
  "environment": {
    "device": "lightning.qubit",
    "diff_method": "adjoint",
    "interface": "autograd"
  },
  "architecture": {
    "type": "sidekick",
    "n_qubits": 6,
    "n_latent": 4,
    "n_trash": 2,
    "rot": "Rxyz"
  },
  "parameters": {
    "weights_stage1": [
      [
        [
          1.401329638963435,
          -0.9084698832274871,
          -1.572481460511953
        ],
        [
          0.16031814111246853,
          0.9993793662551785,
          -1.4197262267403248
        ],
        [
          -0.22058932271580048,
          -0.723880980769081,
          -0.008549328545487213
        ],
        [
          -0.07410990819654735,
          1.3473156176204644,
          0.2178078468459988
        ],
        [
          0.7509244897784133,
          0.02230594735793482,
          0.9529779542937018
        ],
        [
          -1.602645092271368,
          -1.6800063477769007,
          1.3573812076981786
        ]
      ],
      [
        [
          0.022602779316008535,
          -0.038064278289272425,
          -0.006769442997786678
        ],
        [
          0.7138811894047395,
          0.32245470846764684,
          -1.0929745553105201
        ],
        [
          -0.12122720288021642,
          0.01755885650090838,
          0.20824985081781344
        ],
        [
          -0.2959082352464218,
          -0.012885550523962038,
          0.33457371085290233
        ],
        [
          0.20756206513696546,
          -0.030912136631643886,
          -0.1746018923387451
        ],
        [
          0.03399867073233196,
          0.04824618831090674,
          -0.04265615132547394
        ]
      ],
      [
        [
          0.16757622800290325,
          0.19423719075733412,
          0.3081984961974644
        ],
        [
          0.4275311807335368,
          1.5783288817041676,
          0.29265208322690534
        ],
        [
          0.03275114654510341,
          1.5733158170032067,
          0.1803082820222523
        ],
        [
          0.2807465826571944,
          0.04778507801306355,
          0.27547842948715034
        ],
        [
          0.010544789827226203,
          1.5728262798128123,
          0.06825199206864108
        ],
        [
          -0.00781868070785708,
          1.580094063175662,
          0.16200099241251856
        ]
      ]
    ],
    "weights_stage2": [
      [
        [
          1.592983676691511,
          -1.6397981044256174,
          -1.0810589122611869
        ],
        [
          -1.2328233530648376,
          0.08284477029260157,
          -2.0809315941574122
        ],
        [
          1.8926478459506262,
          0.05685892966580853,
          0.8348726395783815
        ],
        [
          -0.027458788883782868,
          1.2275463521730494,
          0.03164794551202802
        ],
        [
          0.009534242843015526,
          0.9712482399409795,
          1.5590398349062295
        ],
        [
          -2.8991950647255704,
          -0.7310637896565133,
          2.9582265695263885
        ]
      ],
      [
        [
          0.13497996002303725,
          0.05551159204063451,
          -0.1802117106857965
        ],
        [
          1.1594781460484411,
          -0.04819009851574244,
          -1.2001288191039918
        ],
        [
          -0.5235772485001877,
          -0.02670347146671926,
          0.47968754857394375
        ],
        [
          -1.7667588694351046,
          0.12959268565553225,
          1.7125719452696542
        ],
        [
          1.1539435266784523,
          0.012697066826817047,
          -1.1456891758722854
        ],
        [
          0.14406496331578264,
          -0.007108353436301654,
          -0.09699462026439767
        ]
      ],
      [
        [
          0.6453463965920231,
          0.00933168410537982,
          0.29725637471354055
        ],
        [
          1.7373185338907609,
          1.5487210653966599,
          -0.009107376649251037
        ],
        [
          -0.1937619137547155,
          1.5509570382129838,
          0.059308069563977425
        ],
        [
          0.11881283026891885,
          0.06927901484075555,
          0.2419073675132398
        ],
        [
          0.014233878943019546,
          1.5921849607644207,
          0.07133028695372956
        ],
        [
          0.009170122910564966,
          1.576412326349382,
          0.15509508970822994
        ]
      ],
      [
        [
          1.6204073415575035,
          -1.6598397920136359,
          -1.129693934092598
        ],
        [
          -1.5752075154038312,
          0.22269213352843353,
          -1.674062260495334
        ],
        [
          2.1002488284189775,
          0.005159364700454916,
          0.6139375486733267
        ],
        [
          0.01627259443129996,
          1.209785613137402,
          0.025740594796267773
        ],
        [
          -0.018924960012988136,
          0.9127671320394967,
          1.5738590366494516
        ],
        [
          -1.5431395129778966,
          -1.6083212878448006,
          2.159284276016561
        ]
      ],
      [
        [
          0.5305777029923929,
          -0.057412017280919325,
          -0.5307046953209029
        ],
        [
          0.8489776559999472,
          0.018216557560409463,
          -0.9399387483772547
        ],
        [
          -0.3921514107969734,
          -0.0035909174843753045,
          0.45162369938052066
        ],
        [
          -1.6250484193418124,
          0.07947478952696124,
          1.674071069925055
        ],
        [
          0.3517171811693388,
          0.001516116492973331,
          -0.3618630725942225
        ],
        [
          1.0757370950793146,
          0.012138487529863393,
          -1.0956029653463992
        ]
      ],
      [
        [
          0.5812788372981053,
          -0.04898267986274268,
          0.31914061768139484
        ],
        [
          -2.764346783514725,
          1.5579021433217333,
          -0.032374100944071005
        ],
        [
          -1.799347099461795,
          1.6413953893096314,
          -0.0709042205610762
        ],
        [
          0.10471057758256015,
          -0.045357012107531125,
          0.30904949146105903
        ],
        [
          -0.003648737907640602,
          1.5428288541648305,
          0.06517369718355412
        ],
        [
          -0.019407368066397757,
          1.5769311818314866,
          0.16890689511681042
        ]
      ]
    ]
  },
  "metrics": {
    "stage1_min_cost": 0.10589365732197423,
    "stage2_min_cost": 0.15626435943920178,
    "mse_train_noise": 0.04208329887417109,
    "mse_train_recovered": 0.026557453486272288,
    "delta_train_pct": 36.89312816070105,
    "mse_test_noise": 0.03574197205136823,
    "mse_test_recovered": 0.020967854579073145,
    "delta_test_pct": 41.33548493368463,
    "mse_train_recovered_pure": 0.003343103523996071,
    "mse_test_recovered_pure": 0.005056319042011389
  },
  "artifacts": {
    "weights_s1_file": "weights_s1_inst02_L3.npy",
    "weights_s2_file": "weights_s2_inst02_L3.npy",
    "circuit_stage1": "circuit_stage1_6q_4l_2t_sidekick_L03_inst02.eps",
    "circuit_stage2": "circuit_stage1_6q_4l_2t_sidekick_L03_inst02.eps",
    "circuit_full": "circuit_full_6q_4l_2t_sidekick_L3_inst02.eps",
    "training_cost_s1_plot": "training_cost_s1_dec200_enc300_inst02.eps",
    "training_cost_s2_plot": "training_cost_s2_dec200_enc300_inst02.eps",
    "reconstruction_pure_plot": "reconst_pure_dec200_enc300_inst02_L3.eps",
    "reconstruction_noisy_plot": "reconst_noisy_dec200_enc300_inst02_L3.eps"
  }
}