{
  "schema": {
    "name": "sidekick_qae_bundle",
    "version": "1.0"
  },
  "timestamp": "2026-02-22 16:34:21",
  "dataset": {
    "id": "mackey_glass_tau30_n200",
    "scale_low": 0.0,
    "scale_high": 1.0,
    "window_size": 6,
    "window_step": 2,
    "split": 0.75
  },
  "run": {
    "instance_id": 4,
    "layer": 3,
    "dec_epochs": 400,
    "enc_epochs": 300,
    "sigma_eval": 0.2,
    "test_seed_fixed": 99123,
    "device_seed": 13048,
    "stage1_time_sec": 138,
    "stage2_time_sec": 226
  },
  "environment": {
    "device": "lightning.qubit",
    "diff_method": "adjoint",
    "interface": "autograd"
  },
  "architecture": {
    "type": "sidekick",
    "n_qubits": 6,
    "n_latent": 4,
    "n_trash": 2,
    "rot": "Rxyz"
  },
  "parameters": {
    "weights_stage1": [
      [
        [
          -1.5704009152474185,
          -1.5696115579919987,
          1.5059280992814041
        ],
        [
          0.004803044816299731,
          0.189190609103207,
          -0.00032222089072433415
        ],
        [
          -0.006454360251718744,
          -1.523856022161536,
          -1.482342270357146
        ],
        [
          -0.0009339219932619346,
          1.175161315643353,
          0.08519944417629224
        ],
        [
          0.030398116761891126,
          0.22574392928162304,
          1.3855958667348898
        ],
        [
          1.5705625825626788,
          -1.5708802181000228,
          -1.433351388033914
        ]
      ],
      [
        [
          0.4673580061862392,
          -0.000114119019507744,
          -0.5544359502339232
        ],
        [
          0.1894420959232744,
          -0.018087603505980578,
          0.3659038513659257
        ],
        [
          0.3441176067822446,
          -0.05130502708840007,
          -0.4523696366340365
        ],
        [
          0.11387488370162711,
          0.02236634229659705,
          -0.20827613834314307
        ],
        [
          -0.7241578918575079,
          0.05060491357868606,
          0.6247907267960557
        ],
        [
          0.018221045183442242,
          0.09524631505633675,
          -0.018503852633969853
        ]
      ],
      [
        [
          0.14891701579317307,
          0.13861431509471062,
          0.2605475170796986
        ],
        [
          -0.4480666722011252,
          1.5712384237398815,
          0.27719327214514455
        ],
        [
          4.4037916877570705e-05,
          1.566289563961193,
          0.17416317219885782
        ],
        [
          0.0400698035125374,
          0.3016307762364439,
          0.02753843005308552
        ],
        [
          0.07142863217875503,
          1.5707937030202834,
          0.1743046985372404
        ],
        [
          -0.00041138043434672816,
          1.5712041242143162,
          0.02803015970897722
        ]
      ]
    ],
    "weights_stage2": [
      [
        [
          -1.6362666483677648,
          -1.6884340211240285,
          1.1997652521137339
        ],
        [
          -0.1276402243820126,
          0.4994936947691067,
          -0.3985247283981178
        ],
        [
          -0.3865474618339211,
          -2.8735969790262805,
          -1.6889935704154768
        ],
        [
          -0.038080783583335685,
          1.1594043618834577,
          0.01836943365712061
        ],
        [
          0.005362988406632678,
          0.8454194436195233,
          -0.023754012452350738
        ],
        [
          1.1459160400626585,
          0.7728951993237582,
          -0.9931977363661265
        ]
      ],
      [
        [
          1.625973188235009,
          0.007601275664919699,
          -1.6434196647478443
        ],
        [
          0.22102610737888845,
          -0.0024744951977282064,
          -0.16580047955633884
        ],
        [
          0.3184105316065989,
          0.019070976652792653,
          -0.24664004445529142
        ],
        [
          0.28257217764607234,
          0.02366064659762468,
          -0.2953863230702309
        ],
        [
          0.11899170010304154,
          0.00435528555802662,
          -0.10041651598330785
        ],
        [
          -0.07851436942210908,
          -0.024719250243348673,
          0.1519006760765741
        ]
      ],
      [
        [
          0.1316938970943928,
          0.03184286004106766,
          0.3446491979998093
        ],
        [
          2.367220111738436,
          1.574293325360827,
          0.0013725862854288657
        ],
        [
          1.670093307901926,
          1.575502671950917,
          0.005717217961666318
        ],
        [
          -0.0028524442178989554,
          0.096590327214423,
          0.05484973641923967
        ],
        [
          0.014937971148270978,
          1.621779287680791,
          0.14241540000756797
        ],
        [
          0.06842526738556134,
          1.5525543155763613,
          0.029563521159995776
        ]
      ],
      [
        [
          -1.496399546248447,
          -1.5054130265780319,
          1.2973729030802879
        ],
        [
          -0.08778121911784637,
          0.5025122800729345,
          -0.5152676087733684
        ],
        [
          -0.2775356182222423,
          -2.860969527876528,
          -1.6227068979264014
        ],
        [
          -0.014537839666306191,
          1.1420587919319354,
          0.013254179630339117
        ],
        [
          -0.008240777758209647,
          0.8307890808701638,
          -0.07955740933869034
        ],
        [
          1.7788070803358567,
          -4.161782463924739,
          -1.1679683774449945
        ]
      ],
      [
        [
          1.1939679772451983,
          0.10514670806141278,
          -1.2083987510599117
        ],
        [
          -0.3229318309257433,
          0.027412339197797782,
          0.47364514323483153
        ],
        [
          0.6406936130879104,
          0.02034978173633836,
          -0.5524442632055294
        ],
        [
          0.1141285558684861,
          -0.0032211816152875484,
          -0.11292742339595503
        ],
        [
          -0.1638518575374742,
          -0.005699803390285403,
          0.12124535105116921
        ],
        [
          -0.3434266095233985,
          -0.009858277602420525,
          0.3467134598279547
        ]
      ],
      [
        [
          0.3105469897556473,
          0.03420779225517594,
          0.176445836159587
        ],
        [
          -3.9776751791773917,
          1.5932967901897632,
          -0.008596278073080122
        ],
        [
          -0.09367743119126845,
          1.5741693441657607,
          -0.013396828996076438
        ],
        [
          0.05929093469062461,
          0.1280794225707793,
          0.00022712368693410603
        ],
        [
          -0.06265878206958697,
          1.5688772846567962,
          0.20619399706692218
        ],
        [
          -0.02521860170529455,
          1.5470189844879343,
          0.02649679825795987
        ]
      ]
    ]
  },
  "metrics": {
    "stage1_min_cost": 0.09402905086952226,
    "stage2_min_cost": 0.15661900789807703,
    "mse_train_noise": 0.04208329887417109,
    "mse_train_recovered": 0.02687832080527554,
    "delta_train_pct": 36.130670540725376,
    "mse_test_noise": 0.03574197205136823,
    "mse_test_recovered": 0.020126314157134284,
    "delta_test_pct": 43.689972875003036,
    "mse_train_recovered_pure": 0.0031518586537050354,
    "mse_test_recovered_pure": 0.0052564496077686885
  },
  "artifacts": {
    "weights_s1_file": "weights_s1_inst04_L3.npy",
    "weights_s2_file": "weights_s2_inst04_L3.npy",
    "circuit_stage1": "circuit_stage1_6q_4l_2t_sidekick_L03_inst04.eps",
    "circuit_stage2": "circuit_stage1_6q_4l_2t_sidekick_L03_inst04.eps",
    "circuit_full": "circuit_full_6q_4l_2t_sidekick_L3_inst04.eps",
    "training_cost_s1_plot": "training_cost_s1_dec400_enc300_inst04.eps",
    "training_cost_s2_plot": "training_cost_s2_dec400_enc300_inst04.eps",
    "reconstruction_pure_plot": "reconst_pure_dec400_enc300_inst04_L3.eps",
    "reconstruction_noisy_plot": "reconst_noisy_dec400_enc300_inst04_L3.eps"
  }
}