{
  "schema": {
    "name": "sidekick_qae_bundle",
    "version": "1.0"
  },
  "timestamp": "2026-02-22 15:53:27",
  "dataset": {
    "id": "mackey_glass_tau30_n200",
    "scale_low": 0.0,
    "scale_high": 1.0,
    "window_size": 6,
    "window_step": 2,
    "split": 0.75
  },
  "run": {
    "instance_id": 4,
    "layer": 3,
    "dec_epochs": 300,
    "enc_epochs": 300,
    "sigma_eval": 0.2,
    "test_seed_fixed": 99123,
    "device_seed": 13048,
    "stage1_time_sec": 103,
    "stage2_time_sec": 224
  },
  "environment": {
    "device": "lightning.qubit",
    "diff_method": "adjoint",
    "interface": "autograd"
  },
  "architecture": {
    "type": "sidekick",
    "n_qubits": 6,
    "n_latent": 4,
    "n_trash": 2,
    "rot": "Rxyz"
  },
  "parameters": {
    "weights_stage1": [
      [
        [
          -1.558410469675695,
          -1.4951635733984254,
          1.5269858100710898
        ],
        [
          -0.033600109099874424,
          0.15574723543420635,
          1.2813404562102235
        ],
        [
          -0.010997943168241445,
          -0.7965233347501988,
          0.11358343553451426
        ],
        [
          0.06406862990261053,
          1.2260219885328012,
          0.06906054857400379
        ],
        [
          0.023628838239577787,
          0.20571203884520411,
          1.0172252868327718
        ],
        [
          1.5716955101382943,
          -1.5734350183154568,
          -1.4302912869604243
        ]
      ],
      [
        [
          0.4819882883227198,
          -0.00021952050135546838,
          -0.5366651844135087
        ],
        [
          0.1619505728196903,
          -0.04669654198904499,
          0.3365534546344554
        ],
        [
          0.32440391692265436,
          0.0009056604209380108,
          -0.4493394265370061
        ],
        [
          0.07844237831723065,
          0.008204516337260326,
          -0.1554132483076684
        ],
        [
          -0.6338614045550999,
          0.021789754486123563,
          0.6069321044654189
        ],
        [
          -0.008814670268894455,
          0.012382993382690123,
          0.010915306665315485
        ]
      ],
      [
        [
          0.14891701580632333,
          0.138614315103813,
          0.26054751709340535
        ],
        [
          -0.43884941932306293,
          1.565600497395984,
          0.2771932721496584
        ],
        [
          -0.00437137449899524,
          1.572228742920412,
          0.17416317215176202
        ],
        [
          0.040069803555555686,
          0.30163077628269835,
          0.027538430067121627
        ],
        [
          0.026886397590052555,
          1.5720193265942246,
          0.17430469852725394
        ],
        [
          0.0033199368800115375,
          1.570699046760245,
          0.028030159704038396
        ]
      ]
    ],
    "weights_stage2": [
      [
        [
          -1.5551222813206647,
          -1.507310381115085,
          1.072023526854208
        ],
        [
          -0.5797658764509117,
          0.2415308808243346,
          1.0586242431570259
        ],
        [
          -0.10056070750757007,
          -1.3813554185678745,
          0.006371871093957567
        ],
        [
          -0.03627252442037747,
          1.490167392562705,
          1.572129597176573
        ],
        [
          0.03362609217907781,
          0.8656323546990802,
          0.02446377846778333
        ],
        [
          1.4825114229592926,
          -4.931655847337993,
          -1.1565910491110165
        ]
      ],
      [
        [
          -0.17927323573309045,
          0.07726650943898229,
          0.14258153548973732
        ],
        [
          0.23376563521316698,
          -0.015754592781777717,
          -0.21168884423495812
        ],
        [
          1.5956218918073455,
          0.49658835933987683,
          -1.6225487814547037
        ],
        [
          -0.11644115733729868,
          -0.00835627671091492,
          0.10927073594731648
        ],
        [
          -0.5682287246816287,
          -0.022941486639463243,
          0.5486704185603059
        ],
        [
          -0.8514534360347186,
          -0.05083001967384902,
          0.8298768116744837
        ]
      ],
      [
        [
          0.18533193496034442,
          -0.02188278942238973,
          0.2656692689851545
        ],
        [
          -0.9950480209203685,
          1.5350040632670388,
          0.02415351515806589
        ],
        [
          -3.9484075219753847,
          1.5377867554762923,
          -0.09128887819019582
        ],
        [
          -0.03230526658710438,
          0.0886447443452366,
          -0.002667997217852619
        ],
        [
          -0.011099170170019712,
          1.5856667157231812,
          0.12403561375925945
        ],
        [
          -0.03082586732489528,
          1.5675091307085123,
          0.05862605208575568
        ]
      ],
      [
        [
          -1.6439985437653426,
          -1.5637810707017232,
          1.1016393864920173
        ],
        [
          -0.7260061783434689,
          0.2252357331296622,
          1.2900885037853977
        ],
        [
          -0.12554681195867765,
          -1.3086668118598046,
          0.02537437633480769
        ],
        [
          -0.007172901506679062,
          1.3825751197224911,
          1.5569960674263896
        ],
        [
          -0.02787051823775871,
          0.8371002348525706,
          0.07295897269063109
        ],
        [
          2.725827028006621,
          -0.33606367057012865,
          -2.7401570318089012
        ]
      ],
      [
        [
          0.9351523298111768,
          -0.10748476544414318,
          -0.9419021721830374
        ],
        [
          -0.8577014510281977,
          0.0608484056554887,
          0.9182622064851058
        ],
        [
          1.6730105507470014,
          0.37945460907168915,
          -1.5923646705253303
        ],
        [
          0.8801163988279469,
          -0.040798087293561026,
          -0.828953706345695
        ],
        [
          -0.2303336215201885,
          -0.014704776714134473,
          0.23154255935548226
        ],
        [
          0.06578822790756582,
          0.033238926567310895,
          -0.057034204908869714
        ]
      ],
      [
        [
          0.1719686649063237,
          -0.00610536800582024,
          0.2554257652016584
        ],
        [
          0.926701023039927,
          1.609201107052254,
          -0.0075801464958973625
        ],
        [
          3.195207839651492,
          1.5757836571635715,
          -0.0287153261423719
        ],
        [
          -0.08677792727438963,
          0.1117164627589079,
          0.05774485735208419
        ],
        [
          0.0005048241998027954,
          1.5998499237272237,
          0.224573783295251
        ],
        [
          0.000511071029088506,
          1.5482588912447894,
          -0.0025657326776794267
        ]
      ]
    ]
  },
  "metrics": {
    "stage1_min_cost": 0.0955441300526,
    "stage2_min_cost": 0.1559057583236037,
    "mse_train_noise": 0.04208329887417109,
    "mse_train_recovered": 0.027228163587494938,
    "delta_train_pct": 35.29936027851084,
    "mse_test_noise": 0.03574197205136823,
    "mse_test_recovered": 0.021107283058903,
    "delta_test_pct": 40.94538760041642,
    "mse_train_recovered_pure": 0.003282030147383997,
    "mse_test_recovered_pure": 0.005667237904555262
  },
  "artifacts": {
    "weights_s1_file": "weights_s1_inst04_L3.npy",
    "weights_s2_file": "weights_s2_inst04_L3.npy",
    "circuit_stage1": "circuit_stage1_6q_4l_2t_sidekick_L03_inst04.eps",
    "circuit_stage2": "circuit_stage1_6q_4l_2t_sidekick_L03_inst04.eps",
    "circuit_full": "circuit_full_6q_4l_2t_sidekick_L3_inst04.eps",
    "training_cost_s1_plot": "training_cost_s1_dec300_enc300_inst04.eps",
    "training_cost_s2_plot": "training_cost_s2_dec300_enc300_inst04.eps",
    "reconstruction_pure_plot": "reconst_pure_dec300_enc300_inst04_L3.eps",
    "reconstruction_noisy_plot": "reconst_noisy_dec300_enc300_inst04_L3.eps"
  }
}