{
  "schema": {
    "name": "sidekick_qae_bundle",
    "version": "1.0"
  },
  "timestamp": "2026-02-22 16:46:33",
  "dataset": {
    "id": "mackey_glass_tau30_n200",
    "scale_low": 0.0,
    "scale_high": 1.0,
    "window_size": 6,
    "window_step": 2,
    "split": 0.75
  },
  "run": {
    "instance_id": 6,
    "layer": 3,
    "dec_epochs": 400,
    "enc_epochs": 300,
    "sigma_eval": 0.2,
    "test_seed_fixed": 99123,
    "device_seed": 13050,
    "stage1_time_sec": 138,
    "stage2_time_sec": 226
  },
  "environment": {
    "device": "lightning.qubit",
    "diff_method": "adjoint",
    "interface": "autograd"
  },
  "architecture": {
    "type": "sidekick",
    "n_qubits": 6,
    "n_latent": 4,
    "n_trash": 2,
    "rot": "Rxyz"
  },
  "parameters": {
    "weights_stage1": [
      [
        [
          -1.570572901517112,
          -1.5712285367990135,
          1.4980775314906531
        ],
        [
          0.020391896782086822,
          0.09703482140594386,
          1.5335939140743329
        ],
        [
          -0.38581175703764886,
          -0.697910923247223,
          -1.18248756618017
        ],
        [
          0.4427455883760125,
          -0.6304089783045527,
          -0.3426753495645981
        ],
        [
          0.5182776155171329,
          -1.0336372994863203,
          0.31507902138241994
        ],
        [
          -0.13146799059807587,
          -0.29577104099174656,
          0.0995994906107685
        ]
      ],
      [
        [
          -0.2850659522675146,
          -0.008675588072345877,
          0.2821727367461919
        ],
        [
          0.15964114436329813,
          -0.00918030007490605,
          0.3417029643190166
        ],
        [
          0.08402813881241923,
          0.06245479453022448,
          -0.1687364208255297
        ],
        [
          0.18306765670026132,
          0.021310718470221725,
          -0.1980544056134719
        ],
        [
          -0.34468392702289646,
          0.04265497074955802,
          0.33561398702801537
        ],
        [
          -0.07078662828862402,
          -0.00792656520414595,
          0.06928589885315915
        ]
      ],
      [
        [
          0.10177923136367811,
          0.11127701151411874,
          0.21259338022385532
        ],
        [
          0.06185843363090996,
          1.5619997844693063,
          0.22640432746848885
        ],
        [
          -0.04219178123916629,
          1.5714066343956505,
          0.16765587710019092
        ],
        [
          0.22838132243673862,
          0.21203543347837905,
          0.2835331183765611
        ],
        [
          0.00424664144740641,
          1.411615962955165,
          0.01202400975828659
        ],
        [
          0.03016156416115084,
          1.5788195831056304,
          0.10096771600084534
        ]
      ]
    ],
    "weights_stage2": [
      [
        [
          -1.5749800911665883,
          -1.50124998741096,
          1.0800727751955683
        ],
        [
          1.4248261701375917,
          -0.16820122458103298,
          1.8990301285283906
        ],
        [
          -0.048721291217517566,
          -1.1525983837920142,
          -0.415596753595337
        ],
        [
          0.024731549060507615,
          -1.9138534397291818,
          -0.05882982373419586
        ],
        [
          0.04803790211252277,
          -2.170211102161737,
          -1.6111287257815472
        ],
        [
          -1.6922850386332589,
          -1.3791695938376904,
          -0.8739549320511568
        ]
      ],
      [
        [
          -0.6171741881854309,
          0.05023945015522276,
          0.675727924177964
        ],
        [
          -0.37641444891372927,
          0.0295965004305297,
          0.3951122180614594
        ],
        [
          0.34137140487510137,
          0.05293659739892183,
          -0.29169570598181244
        ],
        [
          1.3064183301585828,
          -0.16369183002602586,
          -1.293880023966821
        ],
        [
          -1.628126062266172,
          -0.04251691436638285,
          1.5210786063287935
        ],
        [
          0.22955357737615742,
          -0.013265789695969678,
          -0.2667657868525303
        ]
      ],
      [
        [
          0.32877696281075325,
          0.024785982580678084,
          0.19999736740072874
        ],
        [
          0.5548733369257792,
          1.5818860271060682,
          -0.009606142946188287
        ],
        [
          -6.5330505571985125,
          1.577204444506722,
          0.07763238029255472
        ],
        [
          0.21174682259724117,
          -0.06240722393118435,
          0.2390179829824583
        ],
        [
          -0.019214439248467233,
          1.567273618063828,
          0.024955523674817272
        ],
        [
          0.020987779234274532,
          1.5571260267780602,
          0.1378943080755604
        ]
      ],
      [
        [
          -1.5756878714591138,
          -1.5326808679644004,
          1.1059320585091001
        ],
        [
          1.093689102608367,
          -0.11661106889573505,
          2.2343945406283896
        ],
        [
          -0.020112087385909888,
          -1.1189279522168114,
          -0.4184737920168112
        ],
        [
          0.003935454088315881,
          -1.9447963420509093,
          0.014805985645349603
        ],
        [
          -0.009869989608901508,
          -2.2082267536984923,
          -1.5431243719865873
        ],
        [
          1.4775836266273157,
          -1.7338040504082934,
          0.9563391573408552
        ]
      ],
      [
        [
          -0.9704676225538772,
          -0.006374299160373614,
          0.946613286349216
        ],
        [
          0.31489886449840687,
          -0.0429201581696379,
          -0.2442392327972512
        ],
        [
          0.07236992722017868,
          -0.015404880379826286,
          -0.02694041280142643
        ],
        [
          1.537701074028091,
          -0.08265322212928168,
          -1.5548894106398357
        ],
        [
          -0.5657851129331316,
          -0.008949249446815577,
          0.5200681865822915
        ],
        [
          -0.18041709062369218,
          0.02044423863491691,
          0.19657151828605504
        ]
      ],
      [
        [
          0.30439577785037814,
          0.06508509112997561,
          0.2251893930469782
        ],
        [
          2.73548266362123,
          1.6223299097655306,
          -0.01332358546822388
        ],
        [
          -1.4865615263571235,
          1.626890235357251,
          -0.016006584318636965
        ],
        [
          0.06564393408392208,
          -0.09467839881339599,
          0.32804825377066127
        ],
        [
          0.05275934772937119,
          1.568673804441242,
          -0.000907504158242315
        ],
        [
          -0.030035127238170475,
          1.5627540010716514,
          0.06404112392613565
        ]
      ]
    ]
  },
  "metrics": {
    "stage1_min_cost": 0.10799939311470583,
    "stage2_min_cost": 0.1558969394577344,
    "mse_train_noise": 0.04208329887417109,
    "mse_train_recovered": 0.027338932497401006,
    "delta_train_pct": 35.0361468117214,
    "mse_test_noise": 0.03574197205136823,
    "mse_test_recovered": 0.022720653983933834,
    "delta_test_pct": 36.43144829479529,
    "mse_train_recovered_pure": 0.00392953751303885,
    "mse_test_recovered_pure": 0.006252899433161296
  },
  "artifacts": {
    "weights_s1_file": "weights_s1_inst06_L3.npy",
    "weights_s2_file": "weights_s2_inst06_L3.npy",
    "circuit_stage1": "circuit_stage1_6q_4l_2t_sidekick_L03_inst06.eps",
    "circuit_stage2": "circuit_stage1_6q_4l_2t_sidekick_L03_inst06.eps",
    "circuit_full": "circuit_full_6q_4l_2t_sidekick_L3_inst06.eps",
    "training_cost_s1_plot": "training_cost_s1_dec400_enc300_inst06.eps",
    "training_cost_s2_plot": "training_cost_s2_dec400_enc300_inst06.eps",
    "reconstruction_pure_plot": "reconst_pure_dec400_enc300_inst06_L3.eps",
    "reconstruction_noisy_plot": "reconst_noisy_dec400_enc300_inst06_L3.eps"
  }
}