{
  "schema": {
    "name": "sidekick_qae_bundle",
    "version": "1.0"
  },
  "timestamp": "2026-02-22 16:59:23",
  "dataset": {
    "id": "mackey_glass_tau30_n200",
    "scale_low": 0.0,
    "scale_high": 1.0,
    "window_size": 6,
    "window_step": 2,
    "split": 0.75
  },
  "run": {
    "instance_id": 1,
    "layer": 3,
    "dec_epochs": 500,
    "enc_epochs": 300,
    "sigma_eval": 0.2,
    "test_seed_fixed": 99123,
    "device_seed": 13045,
    "stage1_time_sec": 173,
    "stage2_time_sec": 226
  },
  "environment": {
    "device": "lightning.qubit",
    "diff_method": "adjoint",
    "interface": "autograd"
  },
  "architecture": {
    "type": "sidekick",
    "n_qubits": 6,
    "n_latent": 4,
    "n_trash": 2,
    "rot": "Rxyz"
  },
  "parameters": {
    "weights_stage1": [
      [
        [
          -1.570868528324483,
          -1.5712620625428677,
          1.4763765469077321
        ],
        [
          -0.0176686925508703,
          0.11208070271144778,
          -1.5479129595990995
        ],
        [
          0.2324207979549611,
          -0.2586520044615327,
          1.336814563584839
        ],
        [
          0.04292368517554216,
          -0.2679902395604821,
          -0.0423787803325924
        ],
        [
          0.04169727503165003,
          0.14685308412458853,
          1.5220215826356716
        ],
        [
          -1.5712222694890763,
          -1.5714924307315912,
          1.4296772291231554
        ]
      ],
      [
        [
          0.1639746605846067,
          0.0018560144618617695,
          -0.15943729825251082
        ],
        [
          1.0334354331870816,
          0.0025496155240515074,
          -0.5562409118042719
        ],
        [
          0.2955657661242732,
          -0.054754187400147,
          -0.32057894717924956
        ],
        [
          -0.12093507068123258,
          0.027756484761573868,
          0.033531147850563534
        ],
        [
          -0.30595337006488893,
          0.06562096279564933,
          0.20796919883264156
        ],
        [
          0.08332174871117383,
          -0.00028199910518142705,
          -0.08324594855882904
        ]
      ],
      [
        [
          0.13004702506675322,
          0.030523021376067376,
          0.21916500333857
        ],
        [
          0.48819133730918496,
          1.601480048274555,
          0.07624422003697409
        ],
        [
          -2.7955245137500447e-05,
          1.5661114587177813,
          0.07273266097145163
        ],
        [
          0.09323059304101478,
          0.15361492155661433,
          0.053602208115663484
        ],
        [
          0.013234453598300578,
          1.40741852865083,
          0.21817595203665444
        ],
        [
          3.745264328051715e-05,
          1.5703753067087562,
          0.18631616690512837
        ]
      ]
    ],
    "weights_stage2": [
      [
        [
          -1.737524354919525,
          -1.933727471025679,
          1.0675802339772882
        ],
        [
          1.7250606015703747,
          -0.07204671921814683,
          -1.4660688726255366
        ],
        [
          1.3579066087917664,
          -0.021131715804056164,
          1.5805660663587247
        ],
        [
          -0.08692600006025236,
          1.2875488473389216,
          0.13523939639669094
        ],
        [
          -0.05398370026848251,
          1.5251129757457895,
          1.5299108196357583
        ],
        [
          -1.9437151406641,
          1.3043506179474926,
          -0.5189152671602651
        ]
      ],
      [
        [
          0.895929081840202,
          0.019043626334334037,
          -0.8790146087057933
        ],
        [
          1.3092176746891122,
          0.054768650984656324,
          -1.2620430544769805
        ],
        [
          0.8624903539288968,
          -0.01595423057474282,
          -0.9360481941894644
        ],
        [
          -1.5617638778146836,
          0.18062730198988483,
          1.5246957157415009
        ],
        [
          -1.5414391544590158,
          -0.12255839386318294,
          1.5242076730910814
        ],
        [
          -0.11143162633123774,
          0.018332262957605074,
          0.09335613826949446
        ]
      ],
      [
        [
          1.5449761092910999,
          0.04512027065148842,
          0.11986919152041746
        ],
        [
          -3.9207389445110805,
          1.6407929686436153,
          -0.0002673088631465083
        ],
        [
          -0.5520173136137038,
          1.5653682447381563,
          -0.04782464493522841
        ],
        [
          0.19224634613074687,
          -0.10807396544521096,
          0.10408071476366293
        ],
        [
          0.032820234105783455,
          1.5709239545268896,
          0.18420792942229683
        ],
        [
          0.03448280520447624,
          1.5733037141283377,
          0.21193907780942836
        ]
      ],
      [
        [
          -1.6719873809572265,
          -1.7097410262295694,
          1.1443254753736005
        ],
        [
          1.7258206878861688,
          -0.03935499179017698,
          -1.3428269649597147
        ],
        [
          1.377121232269896,
          -0.0018315555132447337,
          1.5219836274851224
        ],
        [
          -0.04645526984379315,
          1.2300068029500295,
          0.1573108254201552
        ],
        [
          -0.00635322602913293,
          1.6701061416031104,
          1.5595824851621685
        ],
        [
          -1.417864565574568,
          -4.6296971912289315,
          -0.5707966744312107
        ]
      ],
      [
        [
          -1.6344268291065585,
          0.014693133786516344,
          1.6345086919075626
        ],
        [
          1.4267268983927395,
          -0.0373726579406837,
          -1.2466247864379776
        ],
        [
          0.1589833053974672,
          -0.01979093912628588,
          -0.254477680822886
        ],
        [
          -1.558093359406287,
          0.15058408199447554,
          1.4704647007546836
        ],
        [
          -0.07932252340051697,
          -0.03405228860777403,
          0.0824179217938936
        ],
        [
          -0.04383974707857152,
          0.0427973461861155,
          0.03870603851486707
        ]
      ],
      [
        [
          1.4050346005657646,
          -0.016799335622342263,
          0.31846081515671504
        ],
        [
          -0.06922976848093615,
          1.584228243700025,
          -0.050970541271492156
        ],
        [
          -0.010145949936185027,
          1.5617137372281673,
          -0.044610530310048586
        ],
        [
          0.2331776065975085,
          -0.020227379314653165,
          0.0031237014676622093
        ],
        [
          -0.04117148660623667,
          1.5705131362218052,
          0.2521439746510167
        ],
        [
          -0.0147600388208972,
          1.5821924265636715,
          0.16069325600082585
        ]
      ]
    ]
  },
  "metrics": {
    "stage1_min_cost": 0.09346003549221345,
    "stage2_min_cost": 0.16010322312911096,
    "mse_train_noise": 0.04208329887417109,
    "mse_train_recovered": 0.028804880768809663,
    "delta_train_pct": 31.552702522356547,
    "mse_test_noise": 0.03574197205136823,
    "mse_test_recovered": 0.022349645898004162,
    "delta_test_pct": 37.46946624578148,
    "mse_train_recovered_pure": 0.002752036634884319,
    "mse_test_recovered_pure": 0.004759097132469935
  },
  "artifacts": {
    "weights_s1_file": "weights_s1_inst01_L3.npy",
    "weights_s2_file": "weights_s2_inst01_L3.npy",
    "circuit_stage1": "circuit_stage1_6q_4l_2t_sidekick_L03_inst01.eps",
    "circuit_stage2": "circuit_stage1_6q_4l_2t_sidekick_L03_inst01.eps",
    "circuit_full": "circuit_full_6q_4l_2t_sidekick_L3_inst01.eps",
    "training_cost_s1_plot": "training_cost_s1_dec500_enc300_inst01.eps",
    "training_cost_s2_plot": "training_cost_s2_dec500_enc300_inst01.eps",
    "reconstruction_pure_plot": "reconst_pure_dec500_enc300_inst01_L3.eps",
    "reconstruction_noisy_plot": "reconst_noisy_dec500_enc300_inst01_L3.eps"
  }
}