{
  "schema": {
    "name": "sidekick_qae_bundle",
    "version": "1.0"
  },
  "timestamp": "2026-02-22 14:35:42",
  "dataset": {
    "id": "mackey_glass_tau30_n200",
    "scale_low": 0.0,
    "scale_high": 1.0,
    "window_size": 6,
    "window_step": 2,
    "split": 0.75
  },
  "run": {
    "instance_id": 2,
    "layer": 3,
    "dec_epochs": 100,
    "enc_epochs": 300,
    "sigma_eval": 0.2,
    "test_seed_fixed": 99123,
    "device_seed": 13046,
    "stage1_time_sec": 34,
    "stage2_time_sec": 222
  },
  "environment": {
    "device": "lightning.qubit",
    "diff_method": "adjoint",
    "interface": "autograd"
  },
  "architecture": {
    "type": "sidekick",
    "n_qubits": 6,
    "n_latent": 4,
    "n_trash": 2,
    "rot": "Rxyz"
  },
  "parameters": {
    "weights_stage1": [
      [
        [
          0.3619363531154349,
          -0.20587754483099416,
          -0.37679428877022497
        ],
        [
          0.006910599656713044,
          1.2648056871017204,
          -0.9798945634667795
        ],
        [
          -0.3121252094543422,
          -0.6930193940901734,
          -0.0070406673175655516
        ],
        [
          -0.13925489242743933,
          1.2385101779787446,
          0.22270776728251968
        ],
        [
          0.7738856363305512,
          -0.40282426529316256,
          0.9509087378649274
        ],
        [
          -0.21321856361866853,
          -0.35685815630278156,
          0.20048288326458966
        ]
      ],
      [
        [
          0.013929496475508358,
          0.001920140622663785,
          -0.016290479374547587
        ],
        [
          0.8757202513515963,
          0.02165270449285665,
          -0.9029490009357778
        ],
        [
          -0.1578366828484297,
          0.0034796169573102437,
          0.16366234231369986
        ],
        [
          -0.2989298045144862,
          -0.0075734095540517105,
          0.3112034627009822
        ],
        [
          0.19217857350490025,
          -0.014539505359353548,
          -0.190042746836943
        ],
        [
          0.03612196051938883,
          -0.005251020797935152,
          -0.04079790611680381
        ]
      ],
      [
        [
          0.16757622799349184,
          0.1942371907644491,
          0.30819849617151984
        ],
        [
          0.02613916902003743,
          1.608068415529647,
          0.29265208322669845
        ],
        [
          -0.0039081716399042695,
          1.57486063540719,
          0.1803082820161951
        ],
        [
          0.28074658267463026,
          0.047785078016531195,
          0.2754784294868764
        ],
        [
          -0.006350551437844124,
          1.5473700978711415,
          0.0682519920626715
        ],
        [
          -0.0018125421155845223,
          1.593061474077872,
          0.1620009924150743
        ]
      ]
    ],
    "weights_stage2": [
      [
        [
          1.5003954562321242,
          -1.5138292127188415,
          -1.2035625064413886
        ],
        [
          0.1468091517834233,
          0.8518100030579236,
          -0.8780541148458625
        ],
        [
          -0.7024961484567804,
          -0.2331676273438804,
          0.1641331662264437
        ],
        [
          -0.06754916520152779,
          1.2009566331581976,
          0.03088653606739783
        ],
        [
          0.0029534346492970753,
          0.9588834590934809,
          1.5580377882697287
        ],
        [
          -0.8682157151914122,
          0.8906163795878786,
          0.576839930497706
        ]
      ],
      [
        [
          -0.16785676471352487,
          -0.0008944697225485212,
          0.2615928557835742
        ],
        [
          0.9254951451477562,
          -0.049709545297865136,
          -1.008575483038437
        ],
        [
          -0.4712885508328391,
          -0.027072943137382947,
          0.5386131188040792
        ],
        [
          -1.685789530156954,
          0.12183253271392284,
          1.700138967750406
        ],
        [
          0.5316119454459732,
          0.005979196669918266,
          -0.5935516685995836
        ],
        [
          -0.34612434244973916,
          -0.009453589847173954,
          0.32331974320487933
        ]
      ],
      [
        [
          0.026914455696430882,
          -0.006421151623067509,
          0.26018476317145045
        ],
        [
          -1.0167455098277343,
          1.551428051722029,
          0.0335861590147925
        ],
        [
          -2.9724402358747595,
          1.5570760135431991,
          0.04749088524859717
        ],
        [
          -0.20996774212856323,
          -0.15039175371818628,
          0.272173326094126
        ],
        [
          0.003056577358431164,
          1.644330579677796,
          0.09000355998747107
        ],
        [
          -0.05650528906429702,
          1.562702116403864,
          0.14102365474336062
        ]
      ],
      [
        [
          1.4832646637829043,
          -1.2117434530401274,
          -1.1822975007411567
        ],
        [
          0.07454533836793022,
          0.8682687074854281,
          -0.8779925802644165
        ],
        [
          -0.7095769266015538,
          -0.22052676943200192,
          0.2728539688741269
        ],
        [
          -0.011324513439766412,
          1.1948573797101203,
          0.017898197825097044
        ],
        [
          -0.019075006768413456,
          0.934780790700905,
          1.4824942148161295
        ],
        [
          -0.5714569546637183,
          0.6581102208487288,
          0.4290289243448275
        ]
      ],
      [
        [
          -0.1088505283745248,
          -0.020530085980098096,
          0.1111542254629766
        ],
        [
          0.6648943040110886,
          0.09325064766089891,
          -0.8010599150211274
        ],
        [
          -0.0050507191611961245,
          0.04789137005203611,
          0.11173549527640286
        ],
        [
          -1.6121229945439202,
          0.08821736250642837,
          1.6375983043334923
        ],
        [
          0.545240653697395,
          -0.006782363420993876,
          -0.5866723992235365
        ],
        [
          -0.06552937042835436,
          0.0036994625035941973,
          0.07842818764303332
        ]
      ],
      [
        [
          -0.07536116792039069,
          0.0009045263904061528,
          0.35621222917159184
        ],
        [
          1.9399261890901007,
          1.5467103916026546,
          0.005376702517797329
        ],
        [
          3.214125269629373,
          1.5739013311479786,
          0.08338165184098587
        ],
        [
          -0.2076025155053923,
          -0.14948211427663358,
          0.2787835328796302
        ],
        [
          -0.023190832955905537,
          1.6204812461483453,
          0.046500424137873274
        ],
        [
          -0.037984376404302175,
          1.5568814907049988,
          0.18297833008679124
        ]
      ]
    ]
  },
  "metrics": {
    "stage1_min_cost": 0.12685042077583775,
    "stage2_min_cost": 0.15708460058002255,
    "mse_train_noise": 0.04208329887417109,
    "mse_train_recovered": 0.02970764994933962,
    "delta_train_pct": 29.40750667345403,
    "mse_test_noise": 0.03574197205136823,
    "mse_test_recovered": 0.024207141558653063,
    "delta_test_pct": 32.27250716926686,
    "mse_train_recovered_pure": 0.005760425622841049,
    "mse_test_recovered_pure": 0.007690213552095321
  },
  "artifacts": {
    "weights_s1_file": "weights_s1_inst02_L3.npy",
    "weights_s2_file": "weights_s2_inst02_L3.npy",
    "circuit_stage1": "circuit_stage1_6q_4l_2t_sidekick_L03_inst02.eps",
    "circuit_stage2": "circuit_stage1_6q_4l_2t_sidekick_L03_inst02.eps",
    "circuit_full": "circuit_full_6q_4l_2t_sidekick_L3_inst02.eps",
    "training_cost_s1_plot": "training_cost_s1_dec100_enc300_inst02.eps",
    "training_cost_s2_plot": "training_cost_s2_dec100_enc300_inst02.eps",
    "reconstruction_pure_plot": "reconst_pure_dec100_enc300_inst02_L3.eps",
    "reconstruction_noisy_plot": "reconst_noisy_dec100_enc300_inst02_L3.eps"
  }
}