{
  "schema": {
    "name": "sidekick_qae_bundle",
    "version": "1.0"
  },
  "timestamp": "2026-02-22 17:19:33",
  "dataset": {
    "id": "mackey_glass_tau30_n200",
    "scale_low": 0.0,
    "scale_high": 1.0,
    "window_size": 6,
    "window_step": 2,
    "split": 0.75
  },
  "run": {
    "instance_id": 4,
    "layer": 3,
    "dec_epochs": 500,
    "enc_epochs": 300,
    "sigma_eval": 0.2,
    "test_seed_fixed": 99123,
    "device_seed": 13048,
    "stage1_time_sec": 174,
    "stage2_time_sec": 228
  },
  "environment": {
    "device": "lightning.qubit",
    "diff_method": "adjoint",
    "interface": "autograd"
  },
  "architecture": {
    "type": "sidekick",
    "n_qubits": 6,
    "n_latent": 4,
    "n_trash": 2,
    "rot": "Rxyz"
  },
  "parameters": {
    "weights_stage1": [
      [
        [
          -1.570767955051496,
          -1.5708008352509308,
          1.5041603345417989
        ],
        [
          -0.00033694421320438263,
          0.1861899112025802,
          0.002096265024278278
        ],
        [
          -4.8219214919554654e-05,
          -1.5726195736668969,
          -1.5699396960184566
        ],
        [
          1.0712055461082094e-05,
          1.1584734499172564,
          4.269234226857986e-05
        ],
        [
          0.00018835661944804853,
          0.22150847705889035,
          1.5703342132515514
        ],
        [
          1.5708788014756614,
          -1.5715942854017866,
          -1.4315236192669707
        ]
      ],
      [
        [
          0.4664998538401537,
          -0.00012437108162053468,
          -0.5553096773215078
        ],
        [
          0.18744479602716,
          -0.013908494668454422,
          0.36388507807672127
        ],
        [
          0.3657578427181732,
          -0.05085906691487112,
          -0.46808647605122977
        ],
        [
          0.18101029205589894,
          0.026208389631955355,
          -0.2756071660433836
        ],
        [
          -0.9669905937643225,
          0.07646446069362507,
          0.8584804690048853
        ],
        [
          0.01234485839172066,
          0.09747580698932072,
          -0.013061940863080022
        ]
      ],
      [
        [
          0.14891701582581368,
          0.1386143151165981,
          0.26054751711284524
        ],
        [
          -0.44594592423936463,
          1.5708062697284064,
          0.2771932721426962
        ],
        [
          0.00039855657272295565,
          1.5661032564691522,
          0.1741631722319906
        ],
        [
          0.04006980349250413,
          0.30163077622230317,
          0.02753843005550836
        ],
        [
          0.07993770042492893,
          1.5707331224868881,
          0.1743046985562596
        ],
        [
          0.0005363231381945112,
          1.5713746478280546,
          0.028030159730055768
        ]
      ]
    ],
    "weights_stage2": [
      [
        [
          -1.0633806875917455,
          -0.814382838817757,
          0.879762639087247
        ],
        [
          -0.11309135593167591,
          0.45701840654426357,
          0.5578059088191794
        ],
        [
          0.33647921086252486,
          -2.3954546589020196,
          -0.9132043581677479
        ],
        [
          0.029411644782060594,
          1.2135206781223196,
          0.552848942170872
        ],
        [
          -0.04209751462940772,
          0.8777532606875413,
          -2.0343925140091836
        ],
        [
          2.265882315801133,
          2.404093928217582,
          -0.7263345410676586
        ]
      ],
      [
        [
          1.4374393112799269,
          -0.006479577600841981,
          -1.440979718245898
        ],
        [
          1.2111240301861255,
          -0.048539801146337096,
          -1.1639087605064118
        ],
        [
          0.2957840674937702,
          -0.01880700526897262,
          -0.3187286584246275
        ],
        [
          0.6550176283125035,
          0.06204313591913954,
          -0.6626117325755979
        ],
        [
          0.7449364375228373,
          -0.015253981453044437,
          -0.7944434837567511
        ],
        [
          -0.09824558755009369,
          -0.025333673533274682,
          0.018450769071618824
        ]
      ],
      [
        [
          0.24078783500567388,
          0.07570962413325588,
          0.31517322866203135
        ],
        [
          0.579075184818499,
          1.5532190691640602,
          0.004931586842035241
        ],
        [
          2.4818244335298556,
          1.5693648832026028,
          0.013403320374849644
        ],
        [
          0.03246461937565707,
          -0.03154742882337436,
          0.045136623064113084
        ],
        [
          0.009513235013180675,
          1.5814283013991286,
          0.1852272481200457
        ],
        [
          -0.00987617196535184,
          1.5538582498091935,
          0.035753435645248036
        ]
      ],
      [
        [
          -1.8019559375269065,
          -2.037123423844604,
          1.1444719539800605
        ],
        [
          -0.08260699781943398,
          0.527262763724219,
          0.6633072696014045
        ],
        [
          0.34268755833476494,
          -2.4039527718395286,
          -0.9772724426176838
        ],
        [
          0.020113910157143634,
          1.178523078618049,
          0.5495944291900633
        ],
        [
          -0.0006166846627879679,
          0.9025403867317757,
          -1.9904447481728673
        ],
        [
          1.5334500897886634,
          -4.766074820217959,
          -1.1472703214425501
        ]
      ],
      [
        [
          1.6538307982505778,
          -0.057564821644723894,
          -1.5744165162390908
        ],
        [
          0.36185229762158005,
          -0.02181862022328676,
          -0.201002107181054
        ],
        [
          0.6651141972678193,
          0.03531192182390451,
          -0.5912923701504665
        ],
        [
          1.302199641543834,
          0.05754275208022411,
          -1.2548208160070728
        ],
        [
          -0.08175964629761386,
          -0.005915380377277205,
          0.059643236394479236
        ],
        [
          0.42885544614938875,
          0.008670027644743249,
          -0.4529035132640724
        ]
      ],
      [
        [
          0.24438226208952343,
          0.0929845969326162,
          0.20592180556365955
        ],
        [
          2.2729719744954067,
          1.5925608920600096,
          -0.026934454531745325
        ],
        [
          1.4675912688587054,
          1.568873173309749,
          0.033748871232806704
        ],
        [
          -0.06274334513216606,
          -0.00019917895471640613,
          0.009940237046899506
        ],
        [
          -0.13238791104644496,
          1.5460006015525662,
          0.16338214899247738
        ],
        [
          -0.011420695364316731,
          1.588521642400122,
          0.02030688381486557
        ]
      ]
    ]
  },
  "metrics": {
    "stage1_min_cost": 0.09398654827968085,
    "stage2_min_cost": 0.15641127553303366,
    "mse_train_noise": 0.04208329887417109,
    "mse_train_recovered": 0.026870472524492345,
    "delta_train_pct": 36.149319936074974,
    "mse_test_noise": 0.03574197205136823,
    "mse_test_recovered": 0.020040254271786902,
    "delta_test_pct": 43.930753896329165,
    "mse_train_recovered_pure": 0.003142670607801192,
    "mse_test_recovered_pure": 0.005184129126190142
  },
  "artifacts": {
    "weights_s1_file": "weights_s1_inst04_L3.npy",
    "weights_s2_file": "weights_s2_inst04_L3.npy",
    "circuit_stage1": "circuit_stage1_6q_4l_2t_sidekick_L03_inst04.eps",
    "circuit_stage2": "circuit_stage1_6q_4l_2t_sidekick_L03_inst04.eps",
    "circuit_full": "circuit_full_6q_4l_2t_sidekick_L3_inst04.eps",
    "training_cost_s1_plot": "training_cost_s1_dec500_enc300_inst04.eps",
    "training_cost_s2_plot": "training_cost_s2_dec500_enc300_inst04.eps",
    "reconstruction_pure_plot": "reconst_pure_dec500_enc300_inst04_L3.eps",
    "reconstruction_noisy_plot": "reconst_noisy_dec500_enc300_inst04_L3.eps"
  }
}