{
  "schema": {
    "name": "sidekick_qae_bundle",
    "version": "1.0"
  },
  "timestamp": "2026-02-22 15:02:07",
  "dataset": {
    "id": "mackey_glass_tau30_n200",
    "scale_low": 0.0,
    "scale_high": 1.0,
    "window_size": 6,
    "window_step": 2,
    "split": 0.75
  },
  "run": {
    "instance_id": 1,
    "layer": 3,
    "dec_epochs": 200,
    "enc_epochs": 300,
    "sigma_eval": 0.2,
    "test_seed_fixed": 99123,
    "device_seed": 13045,
    "stage1_time_sec": 68,
    "stage2_time_sec": 223
  },
  "environment": {
    "device": "lightning.qubit",
    "diff_method": "adjoint",
    "interface": "autograd"
  },
  "architecture": {
    "type": "sidekick",
    "n_qubits": 6,
    "n_latent": 4,
    "n_trash": 2,
    "rot": "Rxyz"
  },
  "parameters": {
    "weights_stage1": [
      [
        [
          -0.008946725865532251,
          -0.2253939743097288,
          0.008571871508639462
        ],
        [
          -0.6519781193840338,
          -0.6026993084580684,
          -1.0005066140052292
        ],
        [
          0.539753431282973,
          -0.6406848314842496,
          1.1180459474200257
        ],
        [
          0.057635769261692574,
          -0.5582340032180693,
          -0.05569151156242489
        ],
        [
          0.7413451839536165,
          -0.47608146129690665,
          0.7426061540374554
        ],
        [
          -1.5636079119947364,
          -1.492909311540063,
          1.2372982398375478
        ]
      ],
      [
        [
          0.1658209089752305,
          -0.005269945999719788,
          -0.17517166743354495
        ],
        [
          0.6901928452405413,
          0.011826056323204635,
          -0.689829815529991
        ],
        [
          -0.029610212711413786,
          0.006106481487513616,
          0.028657730233355404
        ],
        [
          0.015467234663006714,
          -0.000790033579992549,
          -0.016277357243592045
        ],
        [
          0.12559291355888189,
          0.0002271652783617558,
          -0.12489735907759635
        ],
        [
          0.09228583854209203,
          0.0329550643828112,
          -0.0837883175524583
        ]
      ],
      [
        [
          0.13004702498605142,
          0.03052302135647221,
          0.2191650032653863
        ],
        [
          0.45870434318442027,
          1.5507388102503654,
          0.07624422008761934
        ],
        [
          -0.05093419109357031,
          1.5770079828355563,
          0.07273266101855479
        ],
        [
          0.09323059295836918,
          0.15361492160262977,
          0.05360220805946511
        ],
        [
          0.011950063671410483,
          1.3602459805375595,
          0.21817595204798157
        ],
        [
          -0.03493581871155208,
          1.5788320485187297,
          0.18631616688759026
        ]
      ]
    ],
    "weights_stage2": [
      [
        [
          1.4078912777805896,
          -1.308599285740075,
          -1.0520177410215306
        ],
        [
          -1.51855985494042,
          -0.03412295836138352,
          -1.6831814822055278
        ],
        [
          1.5870834194019636,
          -0.029781023534264945,
          1.4985158987895428
        ],
        [
          0.027383592170158875,
          -1.965356122119868,
          -0.17307636093202447
        ],
        [
          -0.006295041203098719,
          0.8816519870718341,
          1.6856342347792064
        ],
        [
          0.8720640070113821,
          -2.5416323841054473,
          3.876746795169096
        ]
      ],
      [
        [
          1.3759544456200992,
          -0.04698195877674141,
          -1.362108455272283
        ],
        [
          0.5753350661697482,
          -0.048167909330624765,
          -0.5845727685559694
        ],
        [
          0.3907856291989324,
          0.0021854474208089355,
          -0.398596794769638
        ],
        [
          -0.059129936380706946,
          -0.0027027169393661382,
          0.09134235900236484
        ],
        [
          1.5608405284719447,
          0.08035890991214067,
          -1.5731619539425286
        ],
        [
          -0.5147164711321889,
          0.005093635111366118,
          0.5236818858825226
        ]
      ],
      [
        [
          1.2215206560664433,
          0.028370321941720015,
          0.08500617527342971
        ],
        [
          0.1029190636048367,
          1.6051036733650494,
          -0.06511867922421226
        ],
        [
          0.03826562542620777,
          1.5729055357856125,
          -0.022922501193865193
        ],
        [
          -0.17202211132044834,
          0.04271119690072963,
          -0.00693696665100018
        ],
        [
          0.0044218758006093935,
          1.5821221297105015,
          0.20009067199615696
        ],
        [
          0.030658022104625298,
          1.5551465127351884,
          0.19406885286475828
        ]
      ],
      [
        [
          1.6636164620032468,
          -1.7504112078631624,
          -1.103203568524441
        ],
        [
          -1.4074772553863875,
          -0.04806381143088237,
          -1.7986530503844484
        ],
        [
          1.6175429944879225,
          -0.05387618073588772,
          1.3949651974946777
        ],
        [
          0.01678874515334597,
          -1.9731216509190703,
          -0.13743006961165202
        ],
        [
          -0.006956137382896482,
          0.8353937054043268,
          1.7305080220603248
        ],
        [
          -1.1774060097886556,
          -2.387201934954484,
          2.0724135471577916
        ]
      ],
      [
        [
          -1.027001204041711,
          0.025434094196609386,
          0.9866128242282327
        ],
        [
          0.5321607672021496,
          0.02467106233197078,
          -0.6282957321168664
        ],
        [
          0.2704767505900075,
          0.00418682553346625,
          -0.252641353632211
        ],
        [
          0.15963200945189687,
          0.017617571009556698,
          -0.13079630749918797
        ],
        [
          -0.042882833022738265,
          -0.029593763587469575,
          0.11807277583665844
        ],
        [
          -0.3744089485975113,
          -0.02249802334223971,
          0.375935042186091
        ]
      ],
      [
        [
          0.9400990346348195,
          0.0105832179877687,
          0.3533238312573445
        ],
        [
          0.4771931530254084,
          1.5456344478090691,
          -0.04706757149865161
        ],
        [
          1.3131529097304744,
          1.5870972282787434,
          -0.025782920732849927
        ],
        [
          -0.26220569094270846,
          -0.015861397512551473,
          0.11414138276993434
        ],
        [
          -0.0030346239249391467,
          1.5835327122636425,
          0.23626123209980232
        ],
        [
          0.04443177722456745,
          1.5737448580698266,
          0.17856348091042576
        ]
      ]
    ]
  },
  "metrics": {
    "stage1_min_cost": 0.11239027032700448,
    "stage2_min_cost": 0.1557472458015023,
    "mse_train_noise": 0.04208329887417109,
    "mse_train_recovered": 0.02837639345333976,
    "delta_train_pct": 32.57089103640597,
    "mse_test_noise": 0.03574197205136823,
    "mse_test_recovered": 0.022442651578342965,
    "delta_test_pct": 37.209252063404705,
    "mse_train_recovered_pure": 0.0033144401728287796,
    "mse_test_recovered_pure": 0.004127865586584117
  },
  "artifacts": {
    "weights_s1_file": "weights_s1_inst01_L3.npy",
    "weights_s2_file": "weights_s2_inst01_L3.npy",
    "circuit_stage1": "circuit_stage1_6q_4l_2t_sidekick_L03_inst01.eps",
    "circuit_stage2": "circuit_stage1_6q_4l_2t_sidekick_L03_inst01.eps",
    "circuit_full": "circuit_full_6q_4l_2t_sidekick_L3_inst01.eps",
    "training_cost_s1_plot": "training_cost_s1_dec200_enc300_inst01.eps",
    "training_cost_s2_plot": "training_cost_s2_dec200_enc300_inst01.eps",
    "reconstruction_pure_plot": "reconst_pure_dec200_enc300_inst01_L3.eps",
    "reconstruction_noisy_plot": "reconst_noisy_dec200_enc300_inst01_L3.eps"
  }
}