{
  "schema": {
    "name": "sidekick_qae_bundle",
    "version": "1.0"
  },
  "timestamp": "2026-02-22 14:40:01",
  "dataset": {
    "id": "mackey_glass_tau30_n200",
    "scale_low": 0.0,
    "scale_high": 1.0,
    "window_size": 6,
    "window_step": 2,
    "split": 0.75
  },
  "run": {
    "instance_id": 3,
    "layer": 3,
    "dec_epochs": 100,
    "enc_epochs": 300,
    "sigma_eval": 0.2,
    "test_seed_fixed": 99123,
    "device_seed": 13047,
    "stage1_time_sec": 34,
    "stage2_time_sec": 224
  },
  "environment": {
    "device": "lightning.qubit",
    "diff_method": "adjoint",
    "interface": "autograd"
  },
  "architecture": {
    "type": "sidekick",
    "n_qubits": 6,
    "n_latent": 4,
    "n_trash": 2,
    "rot": "Rxyz"
  },
  "parameters": {
    "weights_stage1": [
      [
        [
          0.008011072360899672,
          -0.20734816631721975,
          -0.008074197803847183
        ],
        [
          0.06155340371705383,
          0.5022554823034397,
          0.9991156227597884
        ],
        [
          -0.9077885981767352,
          -0.14493834424504834,
          -0.42555032381271174
        ],
        [
          -0.11465417504706857,
          0.560671860183255,
          0.41184466652401813
        ],
        [
          0.14691525092132407,
          -0.8511870228085971,
          0.48006174278554087
        ],
        [
          -1.337583541407068,
          -0.9358430366290598,
          1.0745041653630754
        ]
      ],
      [
        [
          0.8705009746293643,
          0.035091782603990436,
          -0.8660330678131571
        ],
        [
          -0.10095653945347849,
          0.0011257908485461051,
          0.09929143772765456
        ],
        [
          0.01525473388704053,
          -0.0011878617815198789,
          -0.015168521838369465
        ],
        [
          0.030593924083074105,
          0.004989806788455132,
          -0.03962832840947904
        ],
        [
          -0.810701379422951,
          0.028315739835447263,
          0.8132704132045255
        ],
        [
          0.07755850596461598,
          0.009754986522198009,
          -0.08035491532215502
        ]
      ],
      [
        [
          0.2593092278236537,
          0.24191232065095677,
          0.28930046304845003
        ],
        [
          0.2531734469770061,
          1.5550622935492528,
          0.017625580085786536
        ],
        [
          0.003387164406038765,
          1.574562055386406,
          0.005334225429099984
        ],
        [
          0.12981642429072152,
          0.24602091141413457,
          0.25504328894003814
        ],
        [
          -0.00019757708140241334,
          1.5233422641712056,
          0.1417448998134548
        ],
        [
          0.025934215638852256,
          1.5709418838137914,
          0.13898459584325837
        ]
      ]
    ],
    "weights_stage2": [
      [
        [
          1.4971282887998927,
          -1.5151836354034804,
          -1.0713824335836069
        ],
        [
          -1.8304368546999052,
          -0.05085251413889596,
          1.6930261625944711
        ],
        [
          -1.4054697636729654,
          -0.11862830635285866,
          -0.46171312062185066
        ],
        [
          -0.007634561843288885,
          1.1773655222944988,
          0.5813032610329611
        ],
        [
          -0.05336108708345174,
          -2.2698406062153205,
          -0.859249277986244
        ],
        [
          -2.1020015460855555,
          -0.7539092957412826,
          -0.9736490845181478
        ]
      ],
      [
        [
          1.570574706449094,
          0.02606026187290761,
          -1.5638901775093657
        ],
        [
          -0.06731378692399739,
          -0.021722774938033294,
          0.04188684412308711
        ],
        [
          -0.2833120101388798,
          -0.010794368909052728,
          0.3045607118295901
        ],
        [
          0.3979435196110479,
          0.07768924390859143,
          -0.3460184348683382
        ],
        [
          -0.6948600353457537,
          -0.018723873422613124,
          0.7257031447720396
        ],
        [
          -0.7986782931589497,
          0.04888919277702717,
          0.826690788751502
        ]
      ],
      [
        [
          0.23346921417325306,
          0.012026413942948393,
          0.29918274977827214
        ],
        [
          0.07477928224942887,
          1.5807524109699467,
          -0.022512167668089746
        ],
        [
          1.6840826103495032,
          1.541892880605218,
          -0.04136553118979956
        ],
        [
          0.07105637168371448,
          -0.06104645320696949,
          0.3146159178181501
        ],
        [
          -0.00030140956764523603,
          1.5879489330285725,
          0.1370140473190057
        ],
        [
          0.019779318847096376,
          1.5391214444542705,
          0.14910232708711912
        ]
      ],
      [
        [
          1.5501656716483552,
          -1.4940388485285014,
          -1.1615590367489195
        ],
        [
          -1.1383945811141718,
          -0.07376989653287684,
          0.9561636998376729
        ],
        [
          -1.7074817734683316,
          -0.09136905232587456,
          -0.1980980444434027
        ],
        [
          0.009124914030386984,
          1.1507092896574707,
          0.5541844074333422
        ],
        [
          0.0378597855080932,
          -2.29585899882584,
          -0.8760100459477229
        ],
        [
          -1.638646147999555,
          -1.2756619288107758,
          -1.2237397670181875
        ]
      ],
      [
        [
          1.546647916394123,
          0.011916046524258274,
          -1.5853792921920034
        ],
        [
          -0.3264207701178481,
          -0.03326569721949881,
          0.2142247952467208
        ],
        [
          0.051895135330713806,
          -0.0038736566572989614,
          0.03108085521799616
        ],
        [
          0.7557334561051838,
          0.041910740821690155,
          -0.665635315818775
        ],
        [
          -0.9975126098857564,
          0.018302976006619003,
          1.0321192371567516
        ],
        [
          -0.6748477853704469,
          -0.007439736486198381,
          0.6420809445965198
        ]
      ],
      [
        [
          0.25993014914709,
          0.03391347645175843,
          0.27941817631862703
        ],
        [
          -0.5885631049576899,
          1.5562041268239186,
          0.005365911473080014
        ],
        [
          -1.8087804819358635,
          1.5441574533641726,
          -0.010050768720569921
        ],
        [
          0.1162480371084054,
          -0.09443284740635277,
          0.19547066006192196
        ],
        [
          -0.022189704820442482,
          1.5467700949593384,
          0.14647575230790486
        ],
        [
          0.041713514207562474,
          1.5448662977325918,
          0.12886686459939592
        ]
      ]
    ]
  },
  "metrics": {
    "stage1_min_cost": 0.12201444286318494,
    "stage2_min_cost": 0.1569926443115539,
    "mse_train_noise": 0.04208329887417109,
    "mse_train_recovered": 0.028881472408889813,
    "delta_train_pct": 31.370702436505017,
    "mse_test_noise": 0.03574197205136823,
    "mse_test_recovered": 0.02212179617501273,
    "delta_test_pct": 38.10695128064181,
    "mse_train_recovered_pure": 0.005496172078567025,
    "mse_test_recovered_pure": 0.007013114227412678
  },
  "artifacts": {
    "weights_s1_file": "weights_s1_inst03_L3.npy",
    "weights_s2_file": "weights_s2_inst03_L3.npy",
    "circuit_stage1": "circuit_stage1_6q_4l_2t_sidekick_L03_inst03.eps",
    "circuit_stage2": "circuit_stage1_6q_4l_2t_sidekick_L03_inst03.eps",
    "circuit_full": "circuit_full_6q_4l_2t_sidekick_L3_inst03.eps",
    "training_cost_s1_plot": "training_cost_s1_dec100_enc300_inst03.eps",
    "training_cost_s2_plot": "training_cost_s2_dec100_enc300_inst03.eps",
    "reconstruction_pure_plot": "reconst_pure_dec100_enc300_inst03_L3.eps",
    "reconstruction_noisy_plot": "reconst_noisy_dec100_enc300_inst03_L3.eps"
  }
}