{
  "schema": {
    "name": "sidekick_qae_bundle",
    "version": "1.0"
  },
  "timestamp": "2025-12-06 11:51:46",
  "dataset": {
    "id": "mackey_glass_tau30_n200",
    "scale_low": 0.0,
    "scale_high": 1.0,
    "window_size": 4,
    "window_step": 2,
    "split": 0.75
  },
  "run": {
    "instance_id": 1,
    "layer": 5,
    "sigma_eval": 0.2,
    "test_seed_fixed": 99123,
    "device_seed": 15045,
    "stage1_time_sec": 183,
    "stage2_time_sec": 293
  },
  "environment": {
    "device": "lightning.qubit",
    "diff_method": "adjoint",
    "interface": "autograd"
  },
  "architecture": {
    "type": "sidekick",
    "n_qubits": 4,
    "n_latent": 2,
    "n_trash": 2,
    "rot": "Rxyz"
  },
  "parameters": {
    "weights_stage1": [
      [
        [
          -0.6606678414942109,
          -0.17778319137090437,
          0.6820467792363386
        ],
        [
          -0.6403144364983082,
          -0.018364161169127355,
          0.6682793446764677
        ],
        [
          -1.5929045204585202,
          1.4812865299545304,
          1.6680713076263083
        ],
        [
          0.4992441113551459,
          0.16252803290134188,
          -0.4943828423245408
        ]
      ],
      [
        [
          -1.5647434692215436,
          -0.059030835730955106,
          1.5000129679176744
        ],
        [
          -0.0651052136810804,
          -0.479670304033316,
          0.16013541151465058
        ],
        [
          0.8040631614216553,
          0.006712583209068871,
          0.5111383812686876
        ],
        [
          2.1266735032883703,
          0.019898957385276132,
          0.7417792326090693
        ]
      ],
      [
        [
          0.29894409991321247,
          1.2945236547980548,
          -0.02801298688449148
        ],
        [
          0.6186799584223691,
          -0.02165209376652662,
          -1.7052292839648062
        ],
        [
          -0.47304153122962234,
          -0.1148810270603899,
          0.43429617429991063
        ],
        [
          0.4783059106208106,
          0.06259153223544764,
          0.27403984540266324
        ]
      ],
      [
        [
          0.37481757282250955,
          -0.15404991826546105,
          0.48884275347931944
        ],
        [
          1.899598034347098,
          -0.04288206945205051,
          0.7521803080972772
        ],
        [
          0.27304294560925985,
          1.3176798517782153,
          1.3248171977817704
        ],
        [
          -0.04178904115070953,
          0.9307045816500764,
          0.5697863705325017
        ]
      ],
      [
        [
          0.545014445300601,
          -0.03453597504531061,
          0.23478966506485527
        ],
        [
          0.0111559392951217,
          1.475511732876259,
          0.25523978345451576
        ],
        [
          -1.7931494103243586,
          -0.058888513471318585,
          0.05243165781658261
        ],
        [
          1.5856334594352701,
          0.46489634425611603,
          0.2566186147609308
        ]
      ]
    ],
    "weights_stage2": [
      [
        [
          0.38918442142261955,
          0.0013510888826179653,
          -0.22110220656312715
        ],
        [
          -1.7642977311357915,
          -1.6262461490921554,
          2.203931813928207
        ],
        [
          2.2409235671312486,
          0.07686535261646461,
          2.4351634631552925
        ],
        [
          2.501893625806816,
          -0.09834906476504746,
          -2.5534294071443018
        ]
      ],
      [
        [
          -1.609047540237754,
          -0.21836762481010027,
          1.6403253721067925
        ],
        [
          0.14839413105075927,
          -1.3614604948185718,
          -2.9514302007458686
        ],
        [
          -0.1367452475774553,
          -1.3671054950257755,
          0.8951208616087486
        ],
        [
          1.9524948734346725,
          -0.06920892548999927,
          1.4213758284726934
        ]
      ],
      [
        [
          0.6829265802532768,
          1.3204407789297448,
          -0.0327874893911514
        ],
        [
          1.2982765542859889,
          0.3073125086186845,
          -3.116989038833121
        ],
        [
          -0.013406083900542489,
          -1.5309490930886187,
          -0.12319785946718541
        ],
        [
          1.6704595886564881,
          0.02558630418319627,
          -0.09731920785389654
        ]
      ],
      [
        [
          1.4730508223869385,
          -0.0733173462421093,
          0.10598286604812598
        ],
        [
          2.1516766152520748,
          -0.007899676065178331,
          0.9709841842436673
        ],
        [
          -0.04009884795267653,
          1.522962420036326,
          1.5819632595819655
        ],
        [
          0.8237809699698213,
          -0.12143078215138728,
          -0.9889874205313741
        ]
      ],
      [
        [
          0.9386375088831159,
          0.16251104440926478,
          -0.9297395821331403
        ],
        [
          0.9887414394436556,
          0.08833550706361847,
          1.8957658239965232
        ],
        [
          -1.802677622381075,
          -0.016022661618163778,
          -0.6716101682540719
        ],
        [
          -0.23791084936822762,
          -0.07834025826529148,
          0.7081882194505822
        ]
      ]
    ]
  },
  "metrics": {
    "stage1_min_cost": 0.047701915051110134,
    "stage2_min_cost": 0.10198011811439159,
    "mse_train_noise": 0.04249628927590868,
    "mse_train_recovered": 0.024543087830896572,
    "delta_train_pct": 42.246515521508954,
    "mse_test_noise": 0.03574197205136823,
    "mse_test_recovered": 0.020943212796136527,
    "delta_test_pct": 41.404428479668056,
    "mse_train_recovered_pure": 0.006512271248428995,
    "mse_test_recovered_pure": 0.00615007199756112
  },
  "artifacts": {
    "weights_s1_file": "weights_s1_inst01_L5.npy",
    "weights_s2_file": "weights_s2_inst01_L5.npy",
    "circuit_stage1": "circuit_stage1_4q_2l_2t_sidekick_L5_inst01.eps",
    "circuit_stage2": "circuit_stage2_4q_2l_2t_sidekick_L5_inst01.eps",
    "circuit_full": "circuit_full_4q_2l_2t_sidekick_L5_inst01.eps",
    "training_cost_s1_plot": "training_cost_s1_inst01_L5.eps",
    "training_cost_s2_plot": "training_cost_s2_inst01_L5.eps",
    "reconstruction_pure_plot": "reconstruction_pure_inst01_L5.eps",
    "reconstruction_noisy_plot": "reconstruction_noisy_inst01_L5.eps"
  }
}