{
  "schema": {
    "name": "monolith_qae_bundle",
    "version": "1.0"
  },
  "timestamp": "2026-01-16 12:17:54",
  "dataset": {
    "id": "mackey_glass_tau30_n200",
    "scale_low": 0.0,
    "scale_high": 1.0,
    "window_size": 6,
    "window_step": 2,
    "split": 0.75
  },
  "run": {
    "instance_id": 6,
    "layer": 3,
    "dec_epochs": 0,
    "enc_epochs": 300,
    "sigma_eval": 0.2,
    "test_seed_fixed": 99123,
    "device_seed": 13050,
    "training_time_sec": 237
  },
  "environment": {
    "device": "lightning.qubit",
    "diff_method": "adjoint",
    "interface": "autograd"
  },
  "architecture": {
    "type": "monolith",
    "n_qubits": 6,
    "n_latent": 4,
    "n_trash": 2,
    "n_extra": 0,
    "rot": "Rxyz"
  },
  "parameters": {
    "weights": [
      [
        [
          1.885157915090566,
          -1.3432244053549898,
          -0.24414726230405567
        ],
        [
          -0.2655094598529194,
          0.8779161713470037,
          0.10425871214892068
        ],
        [
          1.0498801968148366,
          -1.7196323822766755,
          -1.140983104108217
        ],
        [
          0.5353456808070772,
          -1.0833238083841235,
          -1.2549557187216025
        ],
        [
          0.12047235926359191,
          -0.61263050814524,
          -0.18435530761883473
        ],
        [
          1.4921335517471124,
          0.1771562098515151,
          -0.22831047972184718
        ]
      ],
      [
        [
          -1.854326263287244,
          -1.421264227468954,
          0.9794531130126515
        ],
        [
          1.501212258782943,
          1.0357105452527677,
          0.7713706280070215
        ],
        [
          1.9186815067756389,
          0.634936755877738,
          0.6035323592152754
        ],
        [
          1.666048615973718,
          0.4382471296583586,
          0.21104389811719074
        ],
        [
          1.7377232999935233,
          -0.18922016937233863,
          -2.2519025867064326
        ],
        [
          1.5480943253876227,
          0.38358422537652237,
          0.19320382258217925
        ]
      ],
      [
        [
          -0.29535475463392263,
          -0.5283951456337633,
          -0.7562350142008417
        ],
        [
          -1.1808225546726634,
          1.246394067935717,
          1.3916152676452704
        ],
        [
          0.01304721845767219,
          1.4472845219216925,
          1.833844684234081
        ],
        [
          -0.4926538544947464,
          -0.16207047180239814,
          1.3336398955213389
        ],
        [
          0.054537325100842096,
          0.17102404243065686,
          -0.045724845970120456
        ],
        [
          0.5761166812475751,
          0.05055575080067756,
          0.3736249041659406
        ]
      ],
      [
        [
          0.43579755741769666,
          0.6450459003603825,
          0.038845904583481985
        ],
        [
          0.2847468540732503,
          0.228273987935276,
          2.402203569559993
        ],
        [
          0.24627392410382817,
          -0.057518380615836126,
          7.801206208026533
        ],
        [
          0.6026923792866652,
          0.17686778701898748,
          -7.3961416919235825
        ],
        [
          0.04311750154016808,
          0.9200511421963223,
          -10.889876226901603
        ],
        [
          0.22445814856565102,
          1.2996575981879466,
          -0.03796062659111011
        ]
      ],
      [
        [
          -1.1798684509142243,
          -0.12341014110850496,
          0.76123898106353
        ],
        [
          -0.3526902224237306,
          0.034177007075816834,
          -0.04010020605956561
        ],
        [
          -0.007306688914401408,
          0.117748896289988,
          -1.8208819471020754
        ],
        [
          0.5424118527467272,
          0.021258434028914173,
          1.1996782534878314
        ],
        [
          -1.5816535738580688,
          -0.8972340648088464,
          -0.8917924803171418
        ],
        [
          1.1313429841000047,
          0.03300126299083438,
          1.4779711656020036
        ]
      ],
      [
        [
          3.7691933923817706,
          0.02434576035627134,
          1.2578231178804162
        ],
        [
          0.7528782453782534,
          0.01608902679946075,
          0.4724593846286822
        ],
        [
          1.3056949256084043,
          -0.0540992368677655,
          -0.15539330579977728
        ],
        [
          -1.6363201147513888,
          -0.00010444801140790038,
          -0.7324335178008972
        ],
        [
          -0.6341301153982837,
          -0.029238470857713077,
          0.5535196738752489
        ],
        [
          0.2787792648687532,
          0.025506669533550762,
          0.13566916628531964
        ]
      ]
    ]
  },
  "metrics": {
    "mse_train_noise": 0.04208329887417109,
    "mse_train_recovered": 0.019609860414682812,
    "delta_train_pct": 53.40227373021249,
    "mse_test_noise": 0.03574197205136823,
    "mse_test_recovered": 0.014829274474590544,
    "delta_test_pct": 58.5101950914237,
    "mse_train_recovered_pure": 0.00876376882567669,
    "mse_test_recovered_pure": 0.008219762921598884,
    "min_train_cost": 0.01070659656667393
  },
  "artifacts": {
    "weights_file": "weights_inst06_L3.npy",
    "circuit_diagram": "circuit_stage1_6q_4l_2t_L03_inst06.eps",
    "training_cost_plot": "training_cost_000_enc300_instinst06_L3.eps",
    "cost_history": "cost_dec000_enc300_inst06_L3.json",
    "reconstruction_pure_plot": "reconst_pure_dec000_enc300_inst06_L3.eps",
    "reconstruction_noisy_plot": "reconst_noisy_dec000_enc300_inst06_L3.eps"
  }
}