{
  "schema": {
    "name": "stacked_qae_bundle",
    "version": "1.0"
  },
  "timestamp": "2025-12-03 21:46:01",
  "dataset": {
    "id": "mackey_glass_tau17_n200",
    "scale_low": 0.0,
    "scale_high": 1.0,
    "window_size": 4,
    "window_step": 2,
    "split": 0.75
  },
  "run": {
    "instance_id": 6,
    "layer": 5,
    "sigma_eval": 0.2,
    "test_seed_fixed": 99123,
    "device_seed": 15050,
    "stage1_time_sec": 235,
    "stage2_time_sec": 260
  },
  "environment": {
    "device": "lightning.qubit",
    "diff_method": "adjoint",
    "interface": "autograd"
  },
  "architecture": {
    "type": "stacked",
    "n_qubits": 4,
    "n_latent": 3,
    "n_trash": 1,
    "rot": "Rxyz"
  },
  "parameters": {
    "weights_stage1": [
      [
        [
          0.736129642362535,
          1.072554383374489,
          0.1653549748661849
        ],
        [
          -1.494806597480357,
          0.3491000442547816,
          -0.05082360595008838
        ],
        [
          1.5437322648809189,
          0.455811283065412,
          -0.050399448965753456
        ],
        [
          1.2117359017792588,
          -0.12784966898342093,
          -2.5414485537611466
        ]
      ],
      [
        [
          0.727117197170846,
          0.7013743199538098,
          -0.29492902874113475
        ],
        [
          0.21380621496328675,
          -0.01790993692171702,
          -0.9975015491485374
        ],
        [
          0.9015729942985116,
          0.17314175971235649,
          -0.34696749221025724
        ],
        [
          1.253044795586137,
          0.3040303789970998,
          0.25946107234007515
        ]
      ],
      [
        [
          -0.46916181534756446,
          -0.15848098627806664,
          -0.11219563575096446
        ],
        [
          0.3755976484115153,
          -0.010942849606407234,
          -1.8087907148984073
        ],
        [
          0.12869128238638397,
          -0.4206101497906446,
          0.16548200062417925
        ],
        [
          1.4303551658313203,
          1.7588880534920688,
          -0.6285558846966373
        ]
      ],
      [
        [
          1.1573763004913946,
          1.1764996526506577,
          -0.06493370003195884
        ],
        [
          0.013624298604544829,
          0.3066040413993447,
          1.3818719379601148
        ],
        [
          -0.23002208524384712,
          1.4337602938689802,
          0.08911324859175233
        ],
        [
          -0.1998697297108623,
          1.148245254068137,
          0.9176049330237294
        ]
      ],
      [
        [
          0.1827956433417432,
          0.08254635054555012,
          0.012036714501532897
        ],
        [
          0.45897982047826696,
          1.498253229082391,
          0.032965776861380684
        ],
        [
          0.10985925196031363,
          0.03260252349289031,
          0.28142425720593134
        ],
        [
          -0.083536742371866,
          0.9134285205624716,
          0.19479716102309166
        ]
      ]
    ],
    "weights_stage2": [
      [
        [
          0.3074508855978094,
          0.9141714934416466,
          0.18406492521380272
        ],
        [
          -1.1466505639881281,
          0.3679687915569765,
          -0.9819704969219938
        ],
        [
          1.778626721569755,
          0.10282706212347961,
          0.30095980136709105
        ],
        [
          1.6429618414206681,
          -0.1911017346984755,
          -3.1788183258942118
        ]
      ],
      [
        [
          1.3379976492706356,
          0.6727092407053694,
          -0.9297286580254951
        ],
        [
          0.5211104377006356,
          -0.3713255270473443,
          -0.9215427036504747
        ],
        [
          0.8367303931366254,
          0.7426665211791481,
          -0.1733882070732117
        ],
        [
          0.15711515646705124,
          0.11238850411534239,
          0.667828991420417
        ]
      ],
      [
        [
          -0.2955825302105203,
          -0.4902004787229945,
          -0.6235067365300889
        ],
        [
          0.7839655674918564,
          0.09396818418125823,
          -1.4609056076329174
        ],
        [
          -0.5501776165955854,
          -0.17498978082413869,
          0.9429782969114171
        ],
        [
          1.6714370061650223,
          1.7603873364604194,
          -0.5569694420435335
        ]
      ],
      [
        [
          0.6079233050154271,
          0.6181107748325877,
          -0.24509707103378922
        ],
        [
          0.9132655261148213,
          0.10959904694020269,
          0.40545109207916763
        ],
        [
          0.06370394735519326,
          1.092239491282985,
          0.23041460957007978
        ],
        [
          0.3051822850565726,
          1.2472458523474297,
          0.9954844198224596
        ]
      ],
      [
        [
          0.0675597433091813,
          1.0014694470190597,
          -0.05349568884064328
        ],
        [
          0.5143840965338634,
          1.172076490530403,
          -0.7320587975736126
        ],
        [
          1.092188325573401,
          0.7181061355042557,
          -0.7367980524173862
        ],
        [
          0.14331468664350766,
          0.22768770628207113,
          0.8363808133997924
        ]
      ]
    ]
  },
  "metrics": {
    "stage1_min_cost": 0.010698734414323192,
    "stage2_min_cost": 0.04773235956662081,
    "mse_train_noise": 0.0404157849091556,
    "mse_train_recovered": 0.019393253948250526,
    "delta_train_pct": 52.01564440269656,
    "mse_test_noise": 0.041028325215984866,
    "mse_test_recovered": 0.02223039375925103,
    "delta_test_pct": 45.81696025313276,
    "mse_train_recovered_pure": 0.003513895527467431,
    "mse_test_recovered_pure": 0.006256048777344008
  },
  "artifacts": {
    "weights_s1_file": "weights_s1_inst06_L5.npy",
    "weights_s2_file": "weights_s2_inst06_L5.npy",
    "circuit_stage1": "circuit_stage1_4q_3l_1t_stacked_L5_inst06.eps",
    "circuit_stage2": "circuit_stage2_4q_3l_1t_stacked_L5_inst06.eps",
    "circuit_full": "circuit_full_4q_3l_1t_stacked_L5_inst06.eps",
    "training_cost_s1_plot": "training_cost_s1_inst06_L5.eps",
    "training_cost_s2_plot": "training_cost_s2_inst06_L5.eps",
    "reconstruction_pure_plot": "reconstruction_pure_inst06_L5.eps",
    "reconstruction_noisy_plot": "reconstruction_noisy_inst06_L5.eps"
  }
}