{
  "schema": {
    "name": "sidekick_qae_bundle",
    "version": "1.0"
  },
  "timestamp": "2025-12-02 01:49:13",
  "dataset": {
    "id": "mackey_glass_tau17_n200",
    "scale_low": 0.0,
    "scale_high": 1.0,
    "window_size": 6,
    "window_step": 2,
    "split": 0.75
  },
  "run": {
    "instance_id": 5,
    "layer": 5,
    "sigma_eval": 0.2,
    "test_seed_fixed": 99123,
    "device_seed": 15049,
    "stage1_time_sec": 313,
    "stage2_time_sec": 562
  },
  "environment": {
    "device": "lightning.qubit",
    "diff_method": "adjoint",
    "interface": "autograd"
  },
  "architecture": {
    "type": "sidekick",
    "n_qubits": 6,
    "n_latent": 4,
    "n_trash": 2,
    "rot": "Rxyz"
  },
  "parameters": {
    "weights_stage1": [
      [
        [
          -0.7712292451257364,
          -0.2447185283673018,
          0.7517502467606725
        ],
        [
          0.45080766835514596,
          -0.20029791043236742,
          -0.43694917476161926
        ],
        [
          1.5474991358758607,
          -1.2605108507695553,
          -1.4896739421869576
        ],
        [
          0.737685006822645,
          -0.25482024379529267,
          -0.7277643342484844
        ],
        [
          1.3422931658559278,
          -0.7479213029085817,
          -1.2807041167926199
        ],
        [
          0.36607558633137255,
          -0.18384229487559325,
          -0.49495617977777767
        ]
      ],
      [
        [
          0.32099708387627396,
          0.003198445558547123,
          -0.3174154743233123
        ],
        [
          -0.075321264613269,
          1.2191169118892817,
          -0.0637752146171999
        ],
        [
          -0.027160175869592778,
          0.00010604420662920514,
          0.03730051006040325
        ],
        [
          -0.1924760760456871,
          -0.012606169452136001,
          -0.2051717186778518
        ],
        [
          0.10705776178157776,
          -0.009677485108252521,
          -0.11292475988599412
        ],
        [
          1.4799282983506417,
          1.3721375195522236,
          0.034534437102594503
        ]
      ],
      [
        [
          -0.11720227880561379,
          0.005496647453695776,
          -0.06640739271544682
        ],
        [
          -0.020423711808970145,
          0.0002902123826844776,
          -0.0789192016661778
        ],
        [
          0.32381947930731086,
          -0.02021929035931512,
          -0.3174689510610938
        ],
        [
          -1.7084101400348495,
          1.5277497735961452,
          0.8443255327552341
        ],
        [
          -0.07618857742906517,
          1.5788724494432116,
          0.24611905805449347
        ],
        [
          0.16141697503995442,
          1.5131046207933223,
          0.0007649413500435001
        ]
      ],
      [
        [
          0.7499286859897862,
          0.7348279675515547,
          -0.06286437874943986
        ],
        [
          0.4437929288274448,
          -0.04673953546625793,
          -0.32804247289830135
        ],
        [
          -0.17174677115378065,
          0.8393633874127104,
          1.684478026113518
        ],
        [
          -0.22058834505592012,
          0.5412345094623171,
          -0.13297176678836498
        ],
        [
          -0.24543236251558212,
          1.3915363458292687,
          -0.26458506858673736
        ],
        [
          0.1663403104851404,
          1.5664306609694174,
          0.22851775805438496
        ]
      ],
      [
        [
          -0.07122818359502271,
          0.7889990301307086,
          0.14636392228331702
        ],
        [
          0.09050381588509292,
          0.2111668192798888,
          0.3082894207878102
        ],
        [
          0.19070511948277394,
          0.25191181316330935,
          0.006629029916011422
        ],
        [
          0.09409436286626571,
          0.07519428225176306,
          0.2811023391444035
        ],
        [
          1.515934573038532,
          1.6773866155196042,
          0.11450016704910432
        ],
        [
          0.3415364427984952,
          -0.065345600780875,
          0.09285068294215501
        ]
      ]
    ],
    "weights_stage2": [
      [
        [
          -0.9614002621195908,
          -0.27220778189408074,
          0.9351348966417726
        ],
        [
          0.9327470036179303,
          -0.2365972580046883,
          -0.923079635349238
        ],
        [
          1.6023312093977877,
          -1.3536631301095599,
          -1.5200624456879512
        ],
        [
          1.1692740832396002,
          -0.3832937106399739,
          -1.1306820274282154
        ],
        [
          1.3487135821680312,
          -0.8786487726369109,
          -1.2623581588942234
        ],
        [
          0.29043048206776784,
          -0.07254091630986768,
          -0.43435651444296924
        ]
      ],
      [
        [
          0.687320665167656,
          0.005698320277787613,
          -0.6984320337674802
        ],
        [
          -0.04282750388432789,
          1.2131679915467668,
          -0.16244997379684417
        ],
        [
          -0.01747594961362457,
          -0.013880175113401696,
          -0.003824013663875345
        ],
        [
          1.3466159463937715,
          0.2237016338468481,
          -1.7554877154223962
        ],
        [
          1.0064032641098917,
          -0.024357262907636457,
          -0.980516514948124
        ],
        [
          1.4823863571977987,
          1.3431703022736285,
          0.012782766480565555
        ]
      ],
      [
        [
          -0.17246958457478323,
          -0.032502223904178895,
          0.014461577933427831
        ],
        [
          -0.5046954871388005,
          0.012582650164789362,
          0.4112429009511642
        ],
        [
          1.2442750140243002,
          -0.06118640768033643,
          -1.2451504304871075
        ],
        [
          -1.6779199785313974,
          1.482830984140652,
          0.8416588123741201
        ],
        [
          -0.09142854494875549,
          1.5960683323267117,
          -0.03847512787533718
        ],
        [
          0.1558566125093737,
          1.5305575743998079,
          0.0071190639968092065
        ]
      ],
      [
        [
          0.7472619656086718,
          0.7475645906059416,
          -0.08571498510707476
        ],
        [
          0.15919874289761346,
          -0.06915577297020727,
          0.22601817984483583
        ],
        [
          -0.16539264850701615,
          0.8074013871316852,
          1.706310803691694
        ],
        [
          -0.15386394314708474,
          0.5434611489747619,
          -0.17261352293802892
        ],
        [
          -0.2081423940374376,
          1.4495864749337628,
          -0.2898441452929298
        ],
        [
          0.16961645515886611,
          1.6225728445852412,
          0.21956740859011278
        ]
      ],
      [
        [
          -0.16859762771629333,
          0.794578845671432,
          -0.546999939266386
        ],
        [
          0.12046983338600202,
          0.19298558532640334,
          0.3210102096039335
        ],
        [
          0.26525014060529944,
          0.22601223326913913,
          -0.012332855523836336
        ],
        [
          -0.024878363255759144,
          0.05689368191139037,
          0.3764843484578053
        ],
        [
          1.5072473858833242,
          1.6552275146019453,
          0.11450016353065177
        ],
        [
          -0.24985253392356466,
          -0.2920514511327196,
          1.4547400684411504
        ]
      ]
    ]
  },
  "metrics": {
    "stage1_min_cost": 0.07171272218661798,
    "stage2_min_cost": 0.21363898065541426,
    "mse_train_noise": 0.0400301695648753,
    "mse_train_recovered": 0.024646327163932502,
    "delta_train_pct": 38.43062012518037,
    "mse_test_noise": 0.04102832521598486,
    "mse_test_recovered": 0.028614354828906233,
    "delta_test_pct": 30.25707318475207,
    "mse_train_recovered_pure": 0.006709142659182315,
    "mse_test_recovered_pure": 0.008924156475235277
  },
  "artifacts": {
    "weights_s1_file": "weights_s1_inst05_L5.npy",
    "weights_s2_file": "weights_s2_inst05_L5.npy",
    "circuit_stage1": "circuit_stage1_6q_4l_2t_sidekick_L5_inst05.eps",
    "circuit_stage2": "circuit_stage2_6q_4l_2t_sidekick_L5_inst05.eps",
    "circuit_full": "circuit_full_6q_4l_2t_sidekick_L5_inst05.eps",
    "training_cost_s1_plot": "training_cost_s1_inst05_L5.eps",
    "training_cost_s2_plot": "training_cost_s2_inst05_L5.eps",
    "reconstruction_pure_plot": "reconstruction_pure_inst05_L5.eps",
    "reconstruction_noisy_plot": "reconstruction_noisy_inst05_L5.eps"
  }
}