{
  "schema": {
    "name": "sidekick_qae_bundle",
    "version": "1.0"
  },
  "timestamp": "2025-12-02 00:50:04",
  "dataset": {
    "id": "mackey_glass_tau17_n200",
    "scale_low": 0.0,
    "scale_high": 1.0,
    "window_size": 6,
    "window_step": 2,
    "split": 0.75
  },
  "run": {
    "instance_id": 1,
    "layer": 5,
    "sigma_eval": 0.2,
    "test_seed_fixed": 99123,
    "device_seed": 15045,
    "stage1_time_sec": 329,
    "stage2_time_sec": 561
  },
  "environment": {
    "device": "lightning.qubit",
    "diff_method": "adjoint",
    "interface": "autograd"
  },
  "architecture": {
    "type": "sidekick",
    "n_qubits": 6,
    "n_latent": 4,
    "n_trash": 2,
    "rot": "Rxyz"
  },
  "parameters": {
    "weights_stage1": [
      [
        [
          1.570722515554207,
          -1.5706739133281293,
          -1.5191613411446487
        ],
        [
          0.004362080631452615,
          0.3574317836651107,
          -0.006801626226457929
        ],
        [
          -1.5748071659888678,
          -1.5775075357186268,
          1.38627292798673
        ],
        [
          -0.533585233619604,
          -0.0559211406263426,
          -1.055228803018824
        ],
        [
          -0.01964709547011207,
          0.3628179256434708,
          0.01057906363201275
        ],
        [
          -0.0028689642127134713,
          1.512890461747631,
          -0.0005369996866280297
        ]
      ],
      [
        [
          -0.1497927656216874,
          -0.0001532026701592475,
          0.1818761433457284
        ],
        [
          -0.24279041957238434,
          0.0010419616021776813,
          -0.2486453024781422
        ],
        [
          0.07945755599446191,
          0.0028214938625103388,
          -0.08452883114038309
        ],
        [
          0.5527764410044922,
          -0.009392621169061742,
          -0.5495291330628947
        ],
        [
          0.21192180013509193,
          0.0009382035638614859,
          -0.2124816305604288
        ],
        [
          0.705492955992726,
          0.007311648467189136,
          0.8665790212968177
        ]
      ],
      [
        [
          0.40155015140659306,
          1.813367404870082,
          -0.5171466987043674
        ],
        [
          0.10985852876641625,
          -1.4482280541042956,
          0.8438304432524081
        ],
        [
          0.05332240719441254,
          -0.02265764313704134,
          0.02869161601368563
        ],
        [
          -0.2542438682125648,
          -0.0007605668021114019,
          0.9425226462677657
        ],
        [
          0.025452794240587637,
          1.563593836551852,
          -0.01561859725475162
        ],
        [
          1.4711372020715097,
          -0.00043757507712569174,
          -0.5892727484170096
        ]
      ],
      [
        [
          0.8665990104013982,
          1.5708199915090968,
          1.1197494053857146e-05
        ],
        [
          -0.09328014444707614,
          1.593141189496851,
          -0.06879425804513536
        ],
        [
          -0.7006527174902328,
          0.5466914915418014,
          1.5491761586484296
        ],
        [
          0.015167849512262653,
          -0.22707635995353176,
          -0.13079198944031062
        ],
        [
          -0.31666061973178156,
          -0.5029046218477994,
          0.3566296064612739
        ],
        [
          -1.5753852147778546,
          0.4016674446573864,
          0.22420073433193638
        ]
      ],
      [
        [
          0.11531888036053231,
          -0.5635022381207455,
          0.20209594146297938
        ],
        [
          0.0804965224722068,
          0.009394032631891066,
          0.22663161090846515
        ],
        [
          0.019485877995609475,
          0.2474641588188799,
          0.1751760781585397
        ],
        [
          0.037198453433180206,
          0.030531988784642337,
          0.03224713747766155
        ],
        [
          -0.0002197466904779499,
          1.6623284370996547,
          0.025841451995592558
        ],
        [
          -0.034613462691972983,
          0.843971444952201,
          0.08587269025656158
        ]
      ]
    ],
    "weights_stage2": [
      [
        [
          1.577786999173845,
          -1.5842678434459387,
          -1.433380501359814
        ],
        [
          0.03287042306936682,
          0.44718285229777655,
          -0.031469287566592584
        ],
        [
          -1.5642871470201205,
          -1.5941214566866604,
          1.4190995452208495
        ],
        [
          -2.8728181084513342,
          -0.11575733775005387,
          1.3003181376266675
        ],
        [
          -0.008595652974139986,
          0.35973643419203527,
          -0.015299161140900007
        ],
        [
          0.03756126432996408,
          1.601768137198558,
          -0.010911675393749414
        ]
      ],
      [
        [
          -0.14063284270957593,
          -0.00015040326491542124,
          0.18961279470047163
        ],
        [
          -0.24880639265453888,
          0.021529983723454077,
          -0.1700676825667654
        ],
        [
          0.00826210835916647,
          0.0038735897737512603,
          -6.310806570541914e-05
        ],
        [
          1.6161934426833786,
          -0.13090118595248032,
          -1.6082388370681198
        ],
        [
          0.4801819924582718,
          0.011921038584007488,
          -0.4875343181948606
        ],
        [
          0.8096841196769095,
          -0.02123687634922744,
          0.7531536105572286
        ]
      ],
      [
        [
          0.7154965764309511,
          1.8430581537353423,
          -0.31338095249275943
        ],
        [
          0.22445986681035757,
          -1.2086756805218293,
          0.9719297489921265
        ],
        [
          0.17966362912281647,
          -0.00781324314017799,
          -0.0748677100280249
        ],
        [
          -0.18256221760380764,
          0.005784050015135663,
          1.0841435316710935
        ],
        [
          0.018534374481835206,
          1.5614549028293594,
          0.0014494344369888163
        ],
        [
          1.477745592639342,
          -0.003022062519193302,
          -0.5490687891855
        ]
      ],
      [
        [
          1.0082198958047341,
          1.572358429221124,
          0.00032955188329962244
        ],
        [
          -0.07621211275532358,
          1.556230752910527,
          -0.043251782092199334
        ],
        [
          -0.6604487582587271,
          0.13574663982445875,
          1.4633091989842135
        ],
        [
          0.9199778079821685,
          -0.3379234263338248,
          -1.0607866307503515
        ],
        [
          -0.8187220131977877,
          -0.6757219011223694,
          0.9231742448262115
        ],
        [
          -1.5620484847821041,
          0.3623112795247065,
          0.21741347631688118
        ]
      ],
      [
        [
          0.03562730355105613,
          -0.48174924709875117,
          -1.1301138165049454
        ],
        [
          0.221203944952807,
          -0.006715984991835338,
          0.11575199479995595
        ],
        [
          0.38699420317465355,
          0.26836237491372344,
          -0.18400782068397545
        ],
        [
          -0.06475727579013195,
          0.05364139263213504,
          0.20083741671044972
        ],
        [
          -0.014878693730007038,
          1.6036739708691767,
          0.025841451732603035
        ],
        [
          -0.084859478700419,
          -1.8162467638094564,
          1.6464268246272735
        ]
      ]
    ]
  },
  "metrics": {
    "stage1_min_cost": 0.061538556554948325,
    "stage2_min_cost": 0.19480406610917958,
    "mse_train_noise": 0.0400301695648753,
    "mse_train_recovered": 0.02462225040255171,
    "delta_train_pct": 38.49076666375991,
    "mse_test_noise": 0.04102832521598486,
    "mse_test_recovered": 0.02451997429303934,
    "delta_test_pct": 40.23647281735443,
    "mse_train_recovered_pure": 0.005053155239873471,
    "mse_test_recovered_pure": 0.009321026934596644
  },
  "artifacts": {
    "weights_s1_file": "weights_s1_inst01_L5.npy",
    "weights_s2_file": "weights_s2_inst01_L5.npy",
    "circuit_stage1": "circuit_stage1_6q_4l_2t_sidekick_L5_inst01.eps",
    "circuit_stage2": "circuit_stage2_6q_4l_2t_sidekick_L5_inst01.eps",
    "circuit_full": "circuit_full_6q_4l_2t_sidekick_L5_inst01.eps",
    "training_cost_s1_plot": "training_cost_s1_inst01_L5.eps",
    "training_cost_s2_plot": "training_cost_s2_inst01_L5.eps",
    "reconstruction_pure_plot": "reconstruction_pure_inst01_L5.eps",
    "reconstruction_noisy_plot": "reconstruction_noisy_inst01_L5.eps"
  }
}