{
  "schema": {
    "name": "monolith_qae_bundle",
    "version": "1.0"
  },
  "timestamp": "2025-11-30 22:33:37",
  "dataset": {
    "id": "mackey_glass_tau17_n200",
    "scale_low": 0.0,
    "scale_high": 1.0,
    "window_size": 6,
    "window_step": 2,
    "split": 0.75
  },
  "run": {
    "instance_id": 3,
    "layer": 3,
    "sigma_eval": 0.2,
    "test_seed_fixed": 99123,
    "device_seed": 13047,
    "training_time_sec": 252
  },
  "environment": {
    "device": "lightning.qubit",
    "diff_method": "adjoint",
    "interface": "autograd"
  },
  "architecture": {
    "type": "monolith",
    "n_qubits": 6,
    "n_latent": 2,
    "n_trash": 4,
    "n_extra": 0,
    "rot": "Rxyz"
  },
  "parameters": {
    "weights": [
      [
        [
          -0.7898108698050202,
          0.03773081202288743,
          0.6546212102589146
        ],
        [
          0.013076550360808445,
          -0.5737457690378773,
          1.5215139302110285
        ],
        [
          0.08189933571896106,
          -0.8498654865120769,
          1.5521007301654428
        ],
        [
          0.3391876899362695,
          -1.2885181026314814,
          3.071868978060397
        ],
        [
          3.026768885354423,
          1.1554651847325825,
          -0.5101571854090393
        ],
        [
          -1.456794119371047,
          -0.9008342099662701,
          1.3745466866335923
        ]
      ],
      [
        [
          1.6844359753795486,
          -0.1736217268911617,
          1.3940075870306479
        ],
        [
          2.2650944247112323,
          0.2045171977586112,
          -4.294509300507377
        ],
        [
          1.5749878279692888,
          -0.561741800922452,
          0.47836850927664154
        ],
        [
          1.1399176227338454,
          -0.9987857906249857,
          0.43820898880762665
        ],
        [
          -1.980173693081881,
          0.9858924991217499,
          -3.07498902281312
        ],
        [
          1.664920909670362,
          -1.5343643838232726,
          0.02950720740827962
        ]
      ],
      [
        [
          -2.917730785756408,
          -1.6078813064985416,
          0.07304793807858655
        ],
        [
          -0.33894072625065713,
          -1.4216940589627767,
          -4.442915130002625
        ],
        [
          0.5264286394877148,
          0.09516599638397402,
          0.010668451599777072
        ],
        [
          0.12841946440484817,
          -0.8403295782316861,
          -2.0341647314658675
        ],
        [
          1.2386807232422128,
          -0.05943701747825115,
          -0.5541304380806067
        ],
        [
          0.09826588260556637,
          0.3536482245354228,
          0.2779691919104211
        ]
      ],
      [
        [
          0.408114882547052,
          -0.012817271853589364,
          1.3562285929736884
        ],
        [
          0.3072937377930921,
          1.0445469630846531,
          -1.5946569224206109
        ],
        [
          0.5908153422513807,
          -0.05190278750415835,
          2.1572917957815907
        ],
        [
          0.17472459708044058,
          0.9979651955567815,
          1.0131520342306768
        ],
        [
          0.2634518099110299,
          0.019507383593264274,
          5.686609636760101
        ],
        [
          0.4864913374319757,
          0.07816752586294164,
          1.5422941155026453
        ]
      ],
      [
        [
          -0.007043413078817154,
          0.05271794614751419,
          0.6809021994238428
        ],
        [
          -0.2745070181392013,
          -0.03505378494063491,
          -1.0340515446522496
        ],
        [
          -1.8927426655143214,
          -0.002074474858080424,
          -0.32428051075213193
        ],
        [
          1.1659009397334787,
          -0.02966185092808868,
          0.16028081101908404
        ],
        [
          0.7066805300735298,
          0.00517998086439035,
          -0.8156233944474893
        ],
        [
          1.574314124303246,
          -0.5542147921024783,
          0.08691668139027496
        ]
      ],
      [
        [
          -3.6158507557092543,
          -0.0425586793701621,
          2.834622718295656
        ],
        [
          -3.157690755509711,
          0.0073859520339336114,
          1.1456983058971852
        ],
        [
          -0.8937654428850486,
          -0.45138698379812187,
          0.040110651725345906
        ],
        [
          -3.074249144265923,
          0.06294724268664144,
          2.6106837443096933
        ],
        [
          1.2384241884013807,
          0.036564553093261704,
          1.295916380365018
        ],
        [
          -2.784279162156119,
          0.030436866703054094,
          0.3187806722154622
        ]
      ]
    ]
  },
  "metrics": {
    "mse_train_noise": 0.0400301695648753,
    "mse_train_recovered": 0.03153175352818055,
    "delta_train_pct": 21.230027574381626,
    "mse_test_noise": 0.04102832521598486,
    "mse_test_recovered": 0.031808077013406384,
    "delta_test_pct": 22.472884657222657,
    "mse_train_recovered_pure": 0.02667669095161793,
    "mse_test_recovered_pure": 0.02617752277876564,
    "min_train_cost": 0.018857867499900816
  },
  "artifacts": {
    "weights_file": "weights_inst03_L3.npy",
    "circuit_diagram": "circuit_6q_2l_4t_L3_inst03.eps",
    "training_cost_plot": "training_cost_inst03_L3.eps",
    "cost_history": "cost_inst03_L3.json",
    "reconstruction_pure_plot": "reconstruction_pure_inst03_L3.eps",
    "reconstruction_noisy_plot": "reconstruction_noisy_inst03_L3.eps"
  }
}