{
  "schema": {
    "name": "monolith_qae_bundle",
    "version": "1.0"
  },
  "timestamp": "2025-11-30 22:50:38",
  "dataset": {
    "id": "mackey_glass_tau17_n200",
    "scale_low": 0.0,
    "scale_high": 1.0,
    "window_size": 6,
    "window_step": 2,
    "split": 0.75
  },
  "run": {
    "instance_id": 7,
    "layer": 3,
    "sigma_eval": 0.2,
    "test_seed_fixed": 99123,
    "device_seed": 13051,
    "training_time_sec": 252
  },
  "environment": {
    "device": "lightning.qubit",
    "diff_method": "adjoint",
    "interface": "autograd"
  },
  "architecture": {
    "type": "monolith",
    "n_qubits": 6,
    "n_latent": 2,
    "n_trash": 4,
    "n_extra": 0,
    "rot": "Rxyz"
  },
  "parameters": {
    "weights": [
      [
        [
          3.625443364408125,
          0.19854730324245998,
          2.82876845657855
        ],
        [
          -0.130796725363921,
          -1.0583403976862131,
          1.313775453232033
        ],
        [
          1.0444357575867933,
          -0.5038452235898504,
          2.220740309839742
        ],
        [
          -0.03687495562766711,
          -2.242087837884343,
          0.20744433055442552
        ],
        [
          2.3434800753709935,
          2.2485887027026004,
          1.05442579949805
        ],
        [
          0.5072808167851321,
          -0.2168598305749175,
          2.6052713432412906
        ]
      ],
      [
        [
          1.5587866850087455,
          -0.4173018545937261,
          -2.026864007582348
        ],
        [
          -4.530275275478213,
          0.23450562641720257,
          -0.19939433059843448
        ],
        [
          0.7592852621766603,
          0.455447030069311,
          -0.8968920422848156
        ],
        [
          -0.07689117321244618,
          -1.9308835783484004,
          -0.007927285212814002
        ],
        [
          -1.0715543957404596,
          0.27899089525735427,
          -1.0391893742634968
        ],
        [
          2.100566355967065,
          1.3918096654482466,
          -0.06370468879586577
        ]
      ],
      [
        [
          -1.2229292171483215,
          1.5804823388313485,
          -0.004286081092233621
        ],
        [
          -0.20352724621179344,
          -1.5948829755250136,
          0.3458292724719264
        ],
        [
          0.42460363368241355,
          0.5034141533449636,
          0.3739633826858458
        ],
        [
          -1.3680150524494217,
          1.5599155996047054,
          2.4474094818712913
        ],
        [
          2.457158290056227,
          -0.023374119223830807,
          0.5903592305712917
        ],
        [
          0.3754914341284746,
          0.44644709751216183,
          0.003922698775329672
        ]
      ],
      [
        [
          0.4028297206536712,
          0.026924797206642686,
          1.5385970607406894
        ],
        [
          0.49327145082182267,
          0.6174965580868167,
          -0.9429978733033453
        ],
        [
          0.3021582409407642,
          -0.002211179448023035,
          4.456253415769057
        ],
        [
          0.26213063065612496,
          0.6727125621605224,
          -2.0396297926684053
        ],
        [
          0.6121214380775135,
          -0.03986558942963762,
          -2.5427169636980933
        ],
        [
          0.15016826760157714,
          -0.037519675967714855,
          4.928017931399992
        ]
      ],
      [
        [
          -0.026732324934831457,
          0.405528092850907,
          1.5900687716133324
        ],
        [
          2.1319793796193367,
          0.01605559987630016,
          -2.5695588063445305
        ],
        [
          1.9246056125940851,
          0.03665560570815549,
          0.9317085147191521
        ],
        [
          0.48971203341205266,
          0.021351320832580387,
          1.0363876606558164
        ],
        [
          3.3116417252795984,
          0.04956911419296904,
          2.8382428705702627
        ],
        [
          -0.6920051707609837,
          0.17520122159585963,
          2.760525756856495
        ]
      ],
      [
        [
          0.5977760798849884,
          -0.0028038470407659648,
          -2.3137081665260033
        ],
        [
          -0.028642772368483536,
          -0.9243497174034156,
          0.1457780446551299
        ],
        [
          1.9930365186089505,
          -0.27253255710052193,
          0.23143710604368808
        ],
        [
          -3.3326300225773933,
          -0.025606526045674868,
          -2.095709991048386
        ],
        [
          0.18046944336177823,
          -0.6024031756936139,
          -0.1938639078333957
        ],
        [
          0.1650028325816561,
          0.15592002442306688,
          0.025537918848070953
        ]
      ]
    ]
  },
  "metrics": {
    "mse_train_noise": 0.0400301695648753,
    "mse_train_recovered": 0.02854781550968794,
    "delta_train_pct": 28.684250354169414,
    "mse_test_noise": 0.04102832521598486,
    "mse_test_recovered": 0.029581305906171196,
    "delta_test_pct": 27.900284131885165,
    "mse_train_recovered_pure": 0.0239448911134632,
    "mse_test_recovered_pure": 0.02284476934754998,
    "min_train_cost": 0.019424629221124846
  },
  "artifacts": {
    "weights_file": "weights_inst07_L3.npy",
    "circuit_diagram": "circuit_6q_2l_4t_L3_inst07.eps",
    "training_cost_plot": "training_cost_inst07_L3.eps",
    "cost_history": "cost_inst07_L3.json",
    "reconstruction_pure_plot": "reconstruction_pure_inst07_L3.eps",
    "reconstruction_noisy_plot": "reconstruction_noisy_inst07_L3.eps"
  }
}