{
  "schema": {
    "name": "monolith_qae_bundle",
    "version": "1.0"
  },
  "timestamp": "2025-11-30 22:37:52",
  "dataset": {
    "id": "mackey_glass_tau17_n200",
    "scale_low": 0.0,
    "scale_high": 1.0,
    "window_size": 6,
    "window_step": 2,
    "split": 0.75
  },
  "run": {
    "instance_id": 4,
    "layer": 3,
    "sigma_eval": 0.2,
    "test_seed_fixed": 99123,
    "device_seed": 13048,
    "training_time_sec": 251
  },
  "environment": {
    "device": "lightning.qubit",
    "diff_method": "adjoint",
    "interface": "autograd"
  },
  "architecture": {
    "type": "monolith",
    "n_qubits": 6,
    "n_latent": 2,
    "n_trash": 4,
    "n_extra": 0,
    "rot": "Rxyz"
  },
  "parameters": {
    "weights": [
      [
        [
          -0.9497662095794482,
          -0.21743492305500564,
          3.8282358908459857
        ],
        [
          0.15247765207979458,
          -1.0751614596152834,
          2.2012052691034554
        ],
        [
          -0.5795635037527059,
          -0.5114180015173394,
          0.699644843063257
        ],
        [
          0.2899084537924386,
          -2.08748470304988,
          -0.23661861928468195
        ],
        [
          2.2779004418974824,
          2.3885385356769877,
          3.0089495006301865
        ],
        [
          0.39235743766100684,
          -0.2525064388992637,
          -2.56154646478969
        ]
      ],
      [
        [
          1.5957113278397457,
          0.3556725364998061,
          0.3991244612038215
        ],
        [
          1.3561974685474993,
          -0.06895606100158505,
          0.33786152297530053
        ],
        [
          2.584552931641448,
          0.5073746236700333,
          -0.7867511262660899
        ],
        [
          0.0569972259921343,
          -1.562309077379338,
          -2.5943491778112975
        ],
        [
          -1.5882653135997624,
          -0.32734594248966487,
          0.20230176681429826
        ],
        [
          -0.5016309616061094,
          1.5253770876204993,
          -0.14326544053359136
        ]
      ],
      [
        [
          3.085914382368545,
          1.5366605003286344,
          0.04050588108128452
        ],
        [
          1.6633686069372824,
          1.15393323045311,
          -0.029280497533734823
        ],
        [
          0.020059243703605994,
          0.3648420462958905,
          0.3483263435994248
        ],
        [
          -1.8097105457733538,
          0.34906298229583743,
          0.6184530833612594
        ],
        [
          1.7695220075860985,
          -0.016173341136527627,
          1.5329551535873096
        ],
        [
          0.2216873460030255,
          0.30362859724186214,
          0.05606031977092108
        ]
      ],
      [
        [
          0.03652404476707539,
          0.010555912567079183,
          0.9855763100306506
        ],
        [
          0.5219459147563773,
          0.6229331107620553,
          1.7393292467688182
        ],
        [
          0.47563393720563424,
          -0.0015476855316040937,
          5.679265313729757
        ],
        [
          0.13373091837548462,
          0.7183704778401404,
          2.1663957980257504
        ],
        [
          0.3947850706244674,
          0.05017926782119286,
          -0.7794942942548083
        ],
        [
          0.47496064677612837,
          0.11315417082154593,
          3.8954185986956307
        ]
      ],
      [
        [
          3.1609818766989104,
          -0.48746853541342333,
          1.4343531445222393
        ],
        [
          -0.8249479267241789,
          -0.015227812940978398,
          1.2682927012936336
        ],
        [
          1.4368776379606005,
          0.009924927362416996,
          1.5610892460338865
        ],
        [
          -5.407982150314512,
          0.014538633623012949,
          -5.3500038013498505
        ],
        [
          2.766789331560417,
          -0.12256621601847942,
          2.320287595673068
        ],
        [
          4.9431772978033335,
          -0.1993757355687756,
          2.443517943137749
        ]
      ],
      [
        [
          -2.6131454447623783,
          0.0022152511136531695,
          -0.38307060544351623
        ],
        [
          -0.7821821186805464,
          0.9269079371836424,
          -0.6364492765847001
        ],
        [
          -0.9530606459548088,
          -0.25228086373051856,
          0.27953118049475856
        ],
        [
          1.4368652079240027,
          -0.00863955896897671,
          -0.3521670010613339
        ],
        [
          0.7976523421030453,
          -0.6556324899811167,
          -0.5636394616342668
        ],
        [
          -0.12108020174655716,
          0.17132688129515192,
          0.1918383258008379
        ]
      ]
    ]
  },
  "metrics": {
    "mse_train_noise": 0.0400301695648753,
    "mse_train_recovered": 0.030652345568553657,
    "delta_train_pct": 23.426890513474785,
    "mse_test_noise": 0.04102832521598486,
    "mse_test_recovered": 0.03141823509751173,
    "delta_test_pct": 23.42306215981974,
    "mse_train_recovered_pure": 0.02700906486556336,
    "mse_test_recovered_pure": 0.02615850263433133,
    "min_train_cost": 0.01978528327634461
  },
  "artifacts": {
    "weights_file": "weights_inst04_L3.npy",
    "circuit_diagram": "circuit_6q_2l_4t_L3_inst04.eps",
    "training_cost_plot": "training_cost_inst04_L3.eps",
    "cost_history": "cost_inst04_L3.json",
    "reconstruction_pure_plot": "reconstruction_pure_inst04_L3.eps",
    "reconstruction_noisy_plot": "reconstruction_noisy_inst04_L3.eps"
  }
}