{
  "schema": {
    "name": "stacked_qae_bundle",
    "version": "1.0"
  },
  "timestamp": "2026-02-19 00:03:23",
  "dataset": {
    "id": "mackey_glass_tau30_n200",
    "scale_low": 0.0,
    "scale_high": 1.0,
    "window_size": 6,
    "window_step": 2,
    "split": 0.75
  },
  "run": {
    "instance_id": 2,
    "layer": 3,
    "dec_epochs": 500,
    "enc_epochs": 300,
    "sigma_eval": 0.2,
    "test_seed_fixed": 99123,
    "device_seed": 13046,
    "stage1_time_sec": 174,
    "stage2_time_sec": 272
  },
  "environment": {
    "device": "lightning.qubit",
    "diff_method": "adjoint",
    "interface": "autograd"
  },
  "architecture": {
    "type": "stacked",
    "n_qubits": 6,
    "n_latent": 4,
    "n_trash": 2,
    "rot": "Rxyz"
  },
  "parameters": {
    "weights_stage1": [
      [
        [
          -0.00234679798104096,
          1.4320146406752876,
          -0.0008888099580876553
        ],
        [
          -0.0004394429981885837,
          1.3613558644336978,
          1.5694641385061743
        ],
        [
          0.0009148691433014924,
          1.2198760101377113,
          0.0014276596258970189
        ],
        [
          -0.0015268774214604794,
          1.2489082853517013,
          -1.582918188160932
        ],
        [
          0.0038835532072266526,
          1.3379615002262106,
          0.053769777742379246
        ],
        [
          -1.571387864379774,
          1.5722085799118346,
          0.21279483336637298
        ]
      ],
      [
        [
          -1.7780720104951337,
          -0.5286780868836025,
          0.03322688486861244
        ],
        [
          1.5745476291291423,
          0.18122677374676344,
          -2.3413734633321717
        ],
        [
          1.5872802249526996,
          -0.22122018177896732,
          0.5684266795951013
        ],
        [
          1.548150148116507,
          -0.24367394781287338,
          -0.9283744136524084
        ],
        [
          -0.05485908296945031,
          -0.36787967587461906,
          -0.5247753550244041
        ],
        [
          0.646990894512189,
          -0.32846454514499446,
          0.6093350871388302
        ]
      ],
      [
        [
          0.1675762279717478,
          0.19423719068655504,
          0.30819849613788847
        ],
        [
          -1.3514295288786253,
          0.019152591936492727,
          0.2926520834501615
        ],
        [
          1.304714763575988,
          0.04024056292906504,
          0.1803082821755349
        ],
        [
          0.2807465827051531,
          0.04778507803361248,
          0.27547842953849067
        ],
        [
          0.1591349206559029,
          0.033407515794194875,
          0.06825199211985564
        ],
        [
          0.8264905394482522,
          0.009293346130602308,
          0.16200099245924504
        ]
      ]
    ],
    "weights_stage2": [
      [
        [
          -1.6986434008476001,
          0.20697563532531352,
          2.529991723289858
        ],
        [
          -3.292024714614897,
          1.3582887758522237,
          3.042516927514112
        ],
        [
          -3.2222426866858074,
          0.3616035825711956,
          1.7050351605226168
        ],
        [
          -0.8019768106496868,
          0.14285097982737183,
          -3.1393185070368013
        ],
        [
          -0.08224925206736246,
          0.9399866804781324,
          1.1078469873651355
        ],
        [
          1.5212963955664862,
          1.4485480075850186,
          -0.15057347663695614
        ]
      ],
      [
        [
          -1.6232246559248924,
          -0.5648317091216496,
          1.7139191239499851
        ],
        [
          1.6550693537870518,
          -0.8315820222161118,
          2.4741304081679862
        ],
        [
          0.36587291585583886,
          0.653069675681419,
          2.605947084316603
        ],
        [
          1.316471864855915,
          -0.1133316569700458,
          0.0004338689527095701
        ],
        [
          -1.5779545409856925,
          -0.4564817278117688,
          -0.0809745449752275
        ],
        [
          1.8698120455851244,
          0.19452689894194738,
          -0.4613632958293363
        ]
      ],
      [
        [
          2.119710397938382,
          0.14297258803524943,
          1.5551792000172793
        ],
        [
          -1.0305400591554306,
          1.6414822125357609,
          1.6953697120255948
        ],
        [
          1.4812485686746084,
          0.08706933104509508,
          -1.3284592008752916
        ],
        [
          0.29695435998862635,
          0.04500112670520165,
          1.9421612008768683
        ],
        [
          0.08564408620363852,
          -0.025646298004886655,
          0.20825840960644648
        ],
        [
          0.39016443898011366,
          -0.0029370595898232437,
          0.6917943971026116
        ]
      ],
      [
        [
          -0.00234679798104096,
          -0.015019891149368353,
          5.998107310616518
        ],
        [
          -0.00043944302026205535,
          -0.9827209926897841,
          1.8242200115227332
        ],
        [
          0.0009148690086914559,
          -0.04637896106482384,
          -1.2351911197076322
        ],
        [
          -0.001526878005754419,
          0.02963669449677043,
          -1.3881161633918997
        ],
        [
          0.0038835513248428794,
          1.630050455498593,
          -0.03242678531340015
        ],
        [
          -1.5713878658836011,
          1.549757656907808,
          0.023271800280517233
        ]
      ],
      [
        [
          -0.843722666416292,
          -0.039993717110887735,
          0.7055423946655119
        ],
        [
          3.2165023291549613,
          0.07041849821302498,
          -0.046439103599408615
        ],
        [
          2.7011313752216437,
          0.002908025002737832,
          -1.2390037202200992
        ],
        [
          1.3498468914944561,
          -0.03348230371759596,
          -2.9301062756585585
        ],
        [
          -0.028241397811904597,
          -1.5937378088430183,
          3.197229488904661
        ],
        [
          1.223679112868179,
          0.043317179065364295,
          0.3872931629962498
        ]
      ],
      [
        [
          -0.2631670745494029,
          0.43085436463331245,
          -0.9387822077415108
        ],
        [
          -0.481622608242923,
          -0.021407095889311098,
          0.15264566596357163
        ],
        [
          2.4533672421126136,
          -1.088423324885324,
          -0.34948512246783026
        ],
        [
          0.667825490502602,
          0.04760715136878789,
          -1.3912043417998978
        ],
        [
          -0.0025259629096397777,
          0.017569497500950812,
          -0.0717544253667377
        ],
        [
          0.10431252070681932,
          -0.8701047707443088,
          -0.3677924121841184
        ]
      ]
    ]
  },
  "metrics": {
    "stage1_min_cost": 0.16567545562069055,
    "stage2_min_cost": 0.08005332612041352,
    "mse_train_noise": 0.04208329887417109,
    "mse_train_recovered": 0.04191025552413013,
    "delta_train_pct": 0.41119245560657935,
    "mse_test_noise": 0.03574197205136823,
    "mse_test_recovered": 0.03651588301036972,
    "delta_test_pct": -2.165272128491469,
    "mse_train_recovered_pure": 0.026023432604436455,
    "mse_test_recovered_pure": 0.02023782759152313
  },
  "artifacts": {
    "weights_s1_file": "weights_s1_inst02_L3.npy",
    "weights_s2_file": "weights_s2_inst02_L3.npy",
    "circuit_stage1": "circuit_stage1_6q_4l_2t_stacked_L03_inst02.eps",
    "circuit_stage2": "circuit_stage2_6q_4l_2t_stacked_L03_inst02.eps",
    "circuit_full": "circuit_full_6q_4l_2t_stacked_L3_inst02.eps",
    "training_cost_s1_plot": "training_cost_s1_dec500_enc300_inst02.eps",
    "training_cost_s2_plot": "training_cost_s2_dec500_enc300_inst02.eps",
    "reconstruction_pure_plot": "reconst_pure_dec500_enc300_inst02_L3.eps",
    "reconstruction_noisy_plot": "reconst_noisy_dec500_enc300_inst02_L3.eps"
  }
}