{
  "schema": {
    "name": "stacked_qae_bundle",
    "version": "1.0"
  },
  "timestamp": "2026-02-19 00:18:30",
  "dataset": {
    "id": "mackey_glass_tau30_n200",
    "scale_low": 0.0,
    "scale_high": 1.0,
    "window_size": 6,
    "window_step": 2,
    "split": 0.75
  },
  "run": {
    "instance_id": 4,
    "layer": 3,
    "dec_epochs": 500,
    "enc_epochs": 300,
    "sigma_eval": 0.2,
    "test_seed_fixed": 99123,
    "device_seed": 13048,
    "stage1_time_sec": 175,
    "stage2_time_sec": 276
  },
  "environment": {
    "device": "lightning.qubit",
    "diff_method": "adjoint",
    "interface": "autograd"
  },
  "architecture": {
    "type": "stacked",
    "n_qubits": 6,
    "n_latent": 4,
    "n_trash": 2,
    "rot": "Rxyz"
  },
  "parameters": {
    "weights_stage1": [
      [
        [
          -0.0016849326002608786,
          1.4310313385048743,
          -0.0014328325491201129
        ],
        [
          -0.0006998572912763097,
          1.3610953331109057,
          1.5682379050878623
        ],
        [
          -0.0012131897662834323,
          1.2203905806236326,
          0.024121965570960247
        ],
        [
          7.37680006104603e-05,
          1.2502267810680976,
          1.5623055191465627
        ],
        [
          -0.0018077090701464102,
          1.3384409637433934,
          -0.009006237678516306
        ],
        [
          -1.5781146470236596,
          1.5688023843571959,
          0.21436995940620382
        ]
      ],
      [
        [
          -1.772277033824781,
          -0.5254247439251449,
          1.750077245236452
        ],
        [
          1.5610924826071069,
          0.18171695476667565,
          0.8878495064852175
        ],
        [
          1.5489040827199547,
          0.22081764071599577,
          -1.3468295916802546
        ],
        [
          -1.561655904839892,
          -0.2450019762294606,
          2.199589358640158
        ],
        [
          0.010597831565062455,
          -0.3694440419982724,
          0.430221648464768
        ],
        [
          0.6365776672050443,
          -0.3251129926546387,
          0.8808080476744198
        ]
      ],
      [
        [
          0.1489170154347646,
          0.13861431507518815,
          0.26054751679510807
        ],
        [
          -1.3798726186039796,
          0.019032155400938323,
          0.27719327180132525
        ],
        [
          -1.4430233213684227,
          -0.047325085414956246,
          0.174163171974607
        ],
        [
          0.040069803507480836,
          0.3016307762228756,
          0.02753842999641483
        ],
        [
          1.5685259240758784,
          0.02169630200980698,
          0.17430469850016858
        ],
        [
          0.40898341500140073,
          0.015371610481586539,
          0.028030159722527377
        ]
      ]
    ],
    "weights_stage2": [
      [
        [
          0.34388865810829156,
          0.17621829436539335,
          -2.733916992892302
        ],
        [
          -0.4396711030682261,
          1.4571953180714163,
          -0.07113632927559199
        ],
        [
          0.5289989456313574,
          1.840751546676586,
          -2.538813982405108
        ],
        [
          -0.1593068854518988,
          1.5965545594783384,
          1.4617895559494025
        ],
        [
          0.031078100547975333,
          1.6681747985439868,
          -0.16983976308706686
        ],
        [
          0.286371797340273,
          1.6682231582318936,
          0.06435382458201418
        ]
      ],
      [
        [
          -1.561064956296393,
          -0.4496318463376464,
          1.5162079172372327
        ],
        [
          0.5533475326047113,
          0.8250526804854776,
          1.7381850888841501
        ],
        [
          2.495482978734671,
          -0.6658286446032462,
          -1.6303376847062299
        ],
        [
          -0.7498812402889532,
          -0.3883644520806561,
          1.929511299540792
        ],
        [
          0.0022854958543360128,
          -1.55435460980922,
          0.1357931049817889
        ],
        [
          1.583873130060835,
          0.4737552830160372,
          1.5854299688521443
        ]
      ],
      [
        [
          -0.40676948333125523,
          0.18851700825885198,
          0.4121438241901375
        ],
        [
          -1.546392898158702,
          -1.694246338940789,
          1.234073477903204
        ],
        [
          -2.028479741276361,
          0.23275480805296875,
          0.7454738495414072
        ],
        [
          1.184910270850998,
          -0.5653284678564939,
          0.8856711009142674
        ],
        [
          1.5045532004316065,
          0.30520334417793943,
          0.11211141608570324
        ],
        [
          0.14014978506327427,
          -0.12684605834750518,
          -0.2683736469557432
        ]
      ],
      [
        [
          -0.0016849326002608786,
          -0.09104995967716029,
          -1.2368409692815905
        ],
        [
          -0.0006998573171319429,
          1.5785190479739821,
          3.04247617473598
        ],
        [
          -0.001213189454715958,
          1.5290221942376339,
          -0.023540828712554532
        ],
        [
          7.376749370790469e-05,
          1.8748952367500042,
          1.4933660477327158
        ],
        [
          -0.0018077092650780465,
          1.5728822896596915,
          -0.016699487741013905
        ],
        [
          -1.5781146470886418,
          1.5786263988645575,
          0.03937807756721409
        ]
      ],
      [
        [
          -1.6445552034583606,
          -0.3504115993709475,
          1.5474910961152433
        ],
        [
          0.04039855378396256,
          1.5599511993419743,
          1.1683346927830307
        ],
        [
          2.228342560919086,
          0.8608136393343949,
          -0.8536530869442761
        ],
        [
          -1.2322435969772487,
          -0.560787060071223,
          2.1964593493695936
        ],
        [
          -0.009605602539386415,
          -1.5315243203385827,
          -3.1535141409259118
        ],
        [
          1.7519730263997058,
          0.3975000214983673,
          1.5430864933306914
        ]
      ],
      [
        [
          -0.10253823188770309,
          -0.26497040832039215,
          0.10895120940008496
        ],
        [
          -1.687627308277362,
          -0.14708641277334591,
          0.3393865542157873
        ],
        [
          -1.313149037603104,
          -0.11715296706156805,
          0.4705669786528788
        ],
        [
          -0.2809615547504958,
          0.09765644976140199,
          -0.8305942409214375
        ],
        [
          2.2751448720796303,
          0.05570508948580068,
          0.2364979809146333
        ],
        [
          -0.008323430750407862,
          0.017959044469998648,
          0.3244339664007985
        ]
      ]
    ]
  },
  "metrics": {
    "stage1_min_cost": 0.16566811382554647,
    "stage2_min_cost": 0.06879172087045984,
    "mse_train_noise": 0.04208329887417109,
    "mse_train_recovered": 0.043625596299229366,
    "delta_train_pct": -3.6648681693651097,
    "mse_test_noise": 0.03574197205136823,
    "mse_test_recovered": 0.03923837619903702,
    "delta_test_pct": -9.782348166586253,
    "mse_train_recovered_pure": 0.027565910867739518,
    "mse_test_recovered_pure": 0.021640857430088326
  },
  "artifacts": {
    "weights_s1_file": "weights_s1_inst04_L3.npy",
    "weights_s2_file": "weights_s2_inst04_L3.npy",
    "circuit_stage1": "circuit_stage1_6q_4l_2t_stacked_L03_inst04.eps",
    "circuit_stage2": "circuit_stage2_6q_4l_2t_stacked_L03_inst04.eps",
    "circuit_full": "circuit_full_6q_4l_2t_stacked_L3_inst04.eps",
    "training_cost_s1_plot": "training_cost_s1_dec500_enc300_inst04.eps",
    "training_cost_s2_plot": "training_cost_s2_dec500_enc300_inst04.eps",
    "reconstruction_pure_plot": "reconst_pure_dec500_enc300_inst04_L3.eps",
    "reconstruction_noisy_plot": "reconst_noisy_dec500_enc300_inst04_L3.eps"
  }
}