{
  "schema": {
    "name": "stacked_qae_bundle",
    "version": "1.0"
  },
  "timestamp": "2026-02-18 21:11:19",
  "dataset": {
    "id": "mackey_glass_tau30_n200",
    "scale_low": 0.0,
    "scale_high": 1.0,
    "window_size": 6,
    "window_step": 2,
    "split": 0.75
  },
  "run": {
    "instance_id": 2,
    "layer": 3,
    "dec_epochs": 100,
    "enc_epochs": 300,
    "sigma_eval": 0.2,
    "test_seed_fixed": 99123,
    "device_seed": 13046,
    "stage1_time_sec": 34,
    "stage2_time_sec": 268
  },
  "environment": {
    "device": "lightning.qubit",
    "diff_method": "adjoint",
    "interface": "autograd"
  },
  "architecture": {
    "type": "stacked",
    "n_qubits": 6,
    "n_latent": 4,
    "n_trash": 2,
    "rot": "Rxyz"
  },
  "parameters": {
    "weights_stage1": [
      [
        [
          0.0011660438379366943,
          1.084113788406774,
          0.055585615991026835
        ],
        [
          -0.037757284258313865,
          1.1134127763510457,
          0.10777732588487758
        ],
        [
          -0.0022345444392568824,
          1.1218888118167865,
          1.710631553301125
        ],
        [
          -0.0028077451867481035,
          1.1592749314048507,
          -1.1687726177557787
        ],
        [
          0.003303932885720518,
          1.2023682781925116,
          0.9398961220259902
        ],
        [
          0.5406451266977665,
          0.8193747241256318,
          0.5832773466170512
        ]
      ],
      [
        [
          -0.06253671610527475,
          -0.35465180210919917,
          0.10523300735700429
        ],
        [
          1.5424841873034885,
          0.19964789101668204,
          -0.717280442694118
        ],
        [
          -0.6907356603525006,
          -0.16297362356691242,
          -0.3868445275553848
        ],
        [
          0.20450877512918417,
          -0.2249562426083793,
          -0.453541633689458
        ],
        [
          0.14976000903764008,
          -0.068248281429121,
          0.2140918696969095
        ],
        [
          1.485527955634496,
          -0.19521529506691665,
          -0.3236985139964576
        ]
      ],
      [
        [
          0.16757622797912547,
          0.1942371907473695,
          0.3081984961860998
        ],
        [
          -0.41408320141744087,
          -0.006464148694326907,
          0.2926520832475773
        ],
        [
          -0.2025151240937206,
          0.04525595260584751,
          0.18030828211484212
        ],
        [
          0.2807465826712935,
          0.047785078037299415,
          0.2754784294745586
        ],
        [
          -0.4029056700113065,
          -0.0025675979270856925,
          0.06825199207761107
        ],
        [
          -0.14717823404884206,
          -0.013578272858646741,
          0.16200099242872157
        ]
      ]
    ],
    "weights_stage2": [
      [
        [
          -1.904898463466589,
          1.0253034767946776,
          2.996960714436606
        ],
        [
          -1.72355935191318,
          1.9304345201738558,
          -0.10082187463350911
        ],
        [
          1.245364928244876,
          0.017573805920641554,
          0.42953925006344457
        ],
        [
          -2.053499808133515,
          -0.08653546089605683,
          -4.0286300560400266
        ],
        [
          1.6244267641810257,
          0.44489710372551167,
          -0.1566224911109441
        ],
        [
          -1.6943517425203718,
          1.2144666413621992,
          0.01586588287761539
        ]
      ],
      [
        [
          -1.5146720990606621,
          0.446904747255171,
          1.4681040414937052
        ],
        [
          1.4415580144133686,
          -0.5215488068570524,
          -1.5532013663247222
        ],
        [
          -0.7575382384571494,
          0.03341183915893481,
          2.3868232864731045
        ],
        [
          0.02637642374321379,
          0.02772273641206615,
          1.8410852357393612
        ],
        [
          -1.4955864247710255,
          0.6961190092976665,
          -1.0136329638639991
        ],
        [
          2.5182755256060156,
          -0.5253179502689859,
          -0.46505324132010206
        ]
      ],
      [
        [
          2.7855526151854875,
          -0.03032655787912616,
          0.7351251163628836
        ],
        [
          -1.8262195163762556,
          0.10780460443291967,
          1.061388331119999
        ],
        [
          -0.5368174829862925,
          -0.06322561688855888,
          0.45338467062041615
        ],
        [
          -3.401823989146639,
          -0.0019013371042945512,
          3.2002433344052212
        ],
        [
          -0.37780718185412604,
          0.0973845517851454,
          0.40962035690487886
        ],
        [
          -0.42801897178296916,
          0.10825712464789776,
          -0.3068207218023618
        ]
      ],
      [
        [
          0.0011660438379366943,
          0.12135960582721089,
          1.3404154772946897
        ],
        [
          -0.037757284390797244,
          -1.6294258977037637,
          -3.0249983949062584
        ],
        [
          -0.0022345446970431205,
          0.04842845497430675,
          12.753241637329198
        ],
        [
          -0.0028077445588414332,
          0.028341020913894878,
          -9.293302345529067
        ],
        [
          0.0033039328674385553,
          0.124537402783324,
          -5.0431406206898535
        ],
        [
          0.5406451272846604,
          1.4392247203583524,
          2.2322352992382024
        ]
      ],
      [
        [
          -1.5249580548592891,
          -1.3898672089786983,
          1.6084431698921595
        ],
        [
          0.8270202030167593,
          0.08576440819025247,
          -2.0867898450078117
        ],
        [
          -1.1940659036301469,
          -0.12377531179936607,
          -0.5159090732239747
        ],
        [
          -0.017239545493723404,
          0.029361993149255118,
          -1.4384551900455333
        ],
        [
          1.2553029952392762,
          0.2844913961640502,
          1.0062092263998477
        ],
        [
          -0.05905620150261244,
          -1.034780078627347,
          0.0328599115706212
        ]
      ],
      [
        [
          -1.2722076566598655,
          0.11321616501915033,
          -0.11872812399068555
        ],
        [
          -1.6643504199661827,
          -1.074232782108374,
          -0.04871628157968856
        ],
        [
          0.15593327866305137,
          1.5023394807510777,
          0.6491299963459168
        ],
        [
          2.128200370550129,
          -0.08219583452919912,
          -2.6492864754561216
        ],
        [
          0.13216878774532395,
          1.1352720500236417,
          -0.27311637274965644
        ],
        [
          -0.12226441135019718,
          -1.4970362740704843,
          0.6308227066597983
        ]
      ]
    ]
  },
  "metrics": {
    "stage1_min_cost": 0.1855999314662459,
    "stage2_min_cost": 0.06764038114670781,
    "mse_train_noise": 0.04208329887417109,
    "mse_train_recovered": 0.04118136109468802,
    "delta_train_pct": 2.143220240836774,
    "mse_test_noise": 0.03574197205136823,
    "mse_test_recovered": 0.03399582888907125,
    "delta_test_pct": 4.885413596618083,
    "mse_train_recovered_pure": 0.027152931142443864,
    "mse_test_recovered_pure": 0.021436169030770367
  },
  "artifacts": {
    "weights_s1_file": "weights_s1_inst02_L3.npy",
    "weights_s2_file": "weights_s2_inst02_L3.npy",
    "circuit_stage1": "circuit_stage1_6q_4l_2t_stacked_L03_inst02.eps",
    "circuit_stage2": "circuit_stage2_6q_4l_2t_stacked_L03_inst02.eps",
    "circuit_full": "circuit_full_6q_4l_2t_stacked_L3_inst02.eps",
    "training_cost_s1_plot": "training_cost_s1_dec100_enc300_inst02.eps",
    "training_cost_s2_plot": "training_cost_s2_dec100_enc300_inst02.eps",
    "reconstruction_pure_plot": "reconst_pure_dec100_enc300_inst02_L3.eps",
    "reconstruction_noisy_plot": "reconst_noisy_dec100_enc300_inst02_L3.eps"
  }
}