{
  "schema": {
    "name": "stacked_qae_bundle",
    "version": "1.0"
  },
  "timestamp": "2026-02-18 22:28:47",
  "dataset": {
    "id": "mackey_glass_tau30_n200",
    "scale_low": 0.0,
    "scale_high": 1.0,
    "window_size": 6,
    "window_step": 2,
    "split": 0.75
  },
  "run": {
    "instance_id": 2,
    "layer": 3,
    "dec_epochs": 300,
    "enc_epochs": 300,
    "sigma_eval": 0.2,
    "test_seed_fixed": 99123,
    "device_seed": 13046,
    "stage1_time_sec": 103,
    "stage2_time_sec": 270
  },
  "environment": {
    "device": "lightning.qubit",
    "diff_method": "adjoint",
    "interface": "autograd"
  },
  "architecture": {
    "type": "stacked",
    "n_qubits": 6,
    "n_latent": 4,
    "n_trash": 2,
    "rot": "Rxyz"
  },
  "parameters": {
    "weights_stage1": [
      [
        [
          -0.0005990349438704049,
          1.4356225862683412,
          0.0006830610825490125
        ],
        [
          0.0003883505630687862,
          1.3631867932007133,
          1.5747347068559585
        ],
        [
          0.001622549030806125,
          1.2186088103974964,
          0.003292625032450213
        ],
        [
          -0.0009360739558049802,
          1.2469071371087512,
          -1.5810203468498238
        ],
        [
          0.002285925277399171,
          1.3358716416342147,
          0.018895015486108516
        ],
        [
          -1.5571641742802054,
          1.5765815009061728,
          0.21759525154489834
        ]
      ],
      [
        [
          -1.7884630786126823,
          -0.5321151005490683,
          0.11069970004284482
        ],
        [
          1.5574289536258283,
          0.1793534271508149,
          -2.4502754144976695
        ],
        [
          1.5877268127522801,
          -0.220085707289723,
          0.05532811662129575
        ],
        [
          1.565317097291861,
          -0.24311428302044943,
          -1.004796578562869
        ],
        [
          -0.02008974301618094,
          -0.3656457718627335,
          -0.42993030261361115
        ],
        [
          0.6620296648786367,
          -0.33295953146454105,
          0.24140099439603777
        ]
      ],
      [
        [
          0.16757622799732189,
          0.1942371907443362,
          0.30819849620919126
        ],
        [
          -1.0326000631760688,
          0.021350908460592087,
          0.2926520833039879
        ],
        [
          0.5950249014860189,
          0.022541893293594673,
          0.18030828210007332
        ],
        [
          0.2807465826928726,
          0.047785078038377685,
          0.275478429513941
        ],
        [
          0.07702970281064052,
          0.04483343514731416,
          0.0682519921144152
        ],
        [
          0.5343708509814119,
          0.007033267116476042,
          0.16200099243029054
        ]
      ]
    ],
    "weights_stage2": [
      [
        [
          0.35249085880882425,
          -0.11061533634428625,
          -1.1314119059788736
        ],
        [
          -1.172564008661466,
          1.5176935046716113,
          1.4580627709673493
        ],
        [
          1.773880805061149,
          1.64643419632642,
          0.13326379992019557
        ],
        [
          -0.18699788790235092,
          1.6816839586109793,
          -1.7493381966866086
        ],
        [
          -0.12448862298672173,
          1.689640964981301,
          -0.07933246350616854
        ],
        [
          -0.5127401971280262,
          1.549884401336925,
          -0.2971473132564633
        ]
      ],
      [
        [
          -1.7144331281363694,
          0.18499041878645037,
          1.7647672048108658
        ],
        [
          0.12535810663513894,
          -0.8007110987616874,
          1.0500974893806438
        ],
        [
          1.0983906059109314,
          0.9377897358973203,
          0.43004901425836656
        ],
        [
          1.9542780065973184,
          -0.646671656747445,
          -1.450918645115455
        ],
        [
          -0.05618183829665368,
          -1.57652069282757,
          -1.4128898652978963
        ],
        [
          0.3744271384438351,
          -0.044958236483136176,
          -0.39524569800071535
        ]
      ],
      [
        [
          0.6176088023532742,
          0.607571436832035,
          0.7261992993863517
        ],
        [
          -1.4395895878784015,
          1.007296868882757,
          1.5225136137401896
        ],
        [
          -0.386110468178998,
          1.0194889686981656,
          1.1331102331970992
        ],
        [
          -0.09441851589618046,
          0.12942648310850394,
          0.2939354343595997
        ],
        [
          0.9924170205282214,
          -0.08446147529825955,
          -0.335880873637994
        ],
        [
          1.5309144752332444,
          0.7063972880124688,
          -0.1779438640181766
        ]
      ],
      [
        [
          -0.0005990349438704049,
          0.6095938215865229,
          0.0064300969990299965
        ],
        [
          0.00038835067535947416,
          1.9055093686748943,
          0.07542522902108487
        ],
        [
          0.0016225489188261397,
          1.4907137036401603,
          0.22136786935111222
        ],
        [
          -0.0009360740246436967,
          -0.11670522146469617,
          -1.5035407201810722
        ],
        [
          0.002285925129067708,
          1.6908876350256221,
          0.027408246494040292
        ],
        [
          -1.557164174750476,
          1.7030996788748045,
          0.02294881833429742
        ]
      ],
      [
        [
          -1.247217872626134,
          0.0015258786716844507,
          1.2480888125512923
        ],
        [
          3.2266975542690597,
          1.899904288524175,
          1.1544118296184467
        ],
        [
          2.3467981286445148,
          -0.6346991729218503,
          -0.42682971534865066
        ],
        [
          1.353462152915906,
          0.6889937842201744,
          -1.432037110227023
        ],
        [
          -0.008360299520034725,
          -1.5291701175365116,
          -4.117500620463726
        ],
        [
          0.683862780247592,
          0.06590298836015157,
          -0.7140701700491061
        ]
      ],
      [
        [
          0.7169871315514807,
          -0.4107401383375746,
          -0.10980230696797547
        ],
        [
          -1.0229937511936178,
          -0.0002621858125746421,
          0.6967849490563978
        ],
        [
          0.04107291841289798,
          -0.04754122882467622,
          0.5202531385485388
        ],
        [
          0.09297863488719049,
          0.9087395353951645,
          0.2570214246682811
        ],
        [
          0.6592162759843233,
          -0.08517079239134134,
          0.4723848578668244
        ],
        [
          0.882858305722794,
          0.05274248557607161,
          0.5019458488787548
        ]
      ]
    ]
  },
  "metrics": {
    "stage1_min_cost": 0.1657122612456786,
    "stage2_min_cost": 0.06579874772145228,
    "mse_train_noise": 0.04208329887417109,
    "mse_train_recovered": 0.038259662253136505,
    "delta_train_pct": 9.085876638300727,
    "mse_test_noise": 0.03574197205136823,
    "mse_test_recovered": 0.03566432403076727,
    "delta_test_pct": 0.21724604476039966,
    "mse_train_recovered_pure": 0.024218309434250948,
    "mse_test_recovered_pure": 0.018607629424370206
  },
  "artifacts": {
    "weights_s1_file": "weights_s1_inst02_L3.npy",
    "weights_s2_file": "weights_s2_inst02_L3.npy",
    "circuit_stage1": "circuit_stage1_6q_4l_2t_stacked_L03_inst02.eps",
    "circuit_stage2": "circuit_stage2_6q_4l_2t_stacked_L03_inst02.eps",
    "circuit_full": "circuit_full_6q_4l_2t_stacked_L3_inst02.eps",
    "training_cost_s1_plot": "training_cost_s1_dec300_enc300_inst02.eps",
    "training_cost_s2_plot": "training_cost_s2_dec300_enc300_inst02.eps",
    "reconstruction_pure_plot": "reconst_pure_dec300_enc300_inst02_L3.eps",
    "reconstruction_noisy_plot": "reconst_noisy_dec300_enc300_inst02_L3.eps"
  }
}