{
  "schema": {
    "name": "stacked_qae_bundle",
    "version": "1.0"
  },
  "timestamp": "2026-02-19 00:41:01",
  "dataset": {
    "id": "mackey_glass_tau30_n200",
    "scale_low": 0.0,
    "scale_high": 1.0,
    "window_size": 6,
    "window_step": 2,
    "split": 0.75
  },
  "run": {
    "instance_id": 7,
    "layer": 3,
    "dec_epochs": 500,
    "enc_epochs": 300,
    "sigma_eval": 0.2,
    "test_seed_fixed": 99123,
    "device_seed": 13051,
    "stage1_time_sec": 175,
    "stage2_time_sec": 273
  },
  "environment": {
    "device": "lightning.qubit",
    "diff_method": "adjoint",
    "interface": "autograd"
  },
  "architecture": {
    "type": "stacked",
    "n_qubits": 6,
    "n_latent": 4,
    "n_trash": 2,
    "rot": "Rxyz"
  },
  "parameters": {
    "weights_stage1": [
      [
        [
          1.2429192623127946e-06,
          1.345878758710591,
          1.5707991056978214
        ],
        [
          3.345197109462484e-07,
          1.256606306597251,
          1.8642608131804484e-06
        ],
        [
          3.0275397557563004e-07,
          1.1855340260437064,
          1.5707938204627274
        ],
        [
          2.8681585304227076e-06,
          1.2043648406981229,
          1.5707840903850934
        ],
        [
          1.3827851582431436e-06,
          1.3191873737969055,
          5.903777748290711e-05
        ],
        [
          1.5707980815777676,
          -1.5707990793981481,
          0.02140659217303444
        ]
      ],
      [
        [
          2.5210449278512725,
          -0.3329502359651071,
          -0.1233602847086489
        ],
        [
          1.5708004401680413,
          0.1943692597224716,
          1.5418339395240635e-05
        ],
        [
          1.7794748750405792e-05,
          0.17477382083421195,
          -5.742454630338208e-05
        ],
        [
          1.5707627754033442,
          0.23904062510502289,
          -0.0002704072725845706
        ],
        [
          -5.9179832225686284e-05,
          0.34549562781715026,
          1.5708920380231297
        ],
        [
          -0.34805413022875503,
          -0.5061569216771207,
          0.6695273613271467
        ]
      ],
      [
        [
          0.09092698813876378,
          0.006128600720062206,
          0.24353546892498362
        ],
        [
          0.029476742674160526,
          1.3457810095497885e-07,
          0.21347307296018944
        ],
        [
          1.037278752762829,
          -0.07732789731329777,
          0.18698169089086586
        ],
        [
          0.008810459883214421,
          0.2686045421529597,
          0.025671440579056636
        ],
        [
          -0.3101855602033532,
          -1.2104964125157537e-06,
          0.18038667287866625
        ],
        [
          1.8721164525260134,
          -0.025934390832147956,
          0.0019613494961882366
        ]
      ]
    ],
    "weights_stage2": [
      [
        [
          2.078230735581603,
          0.012972232816934751,
          2.4783921680464562
        ],
        [
          4.251336062263588,
          1.370906442910352,
          -1.763712937136739
        ],
        [
          -0.2871664919278463,
          1.6714870934655748,
          1.5048239719825596
        ],
        [
          0.007486530394171197,
          1.4714536588512384,
          -0.20322473403160193
        ],
        [
          -0.33974906711898784,
          1.71518492817933,
          0.11555852083649767
        ],
        [
          0.20863168341335905,
          -1.5636080135445096,
          -0.0629218646306044
        ]
      ],
      [
        [
          2.178396642904744,
          -0.04579241374290158,
          0.901797026539467
        ],
        [
          3.427129289367279,
          0.15501634497026803,
          1.3159570487237535
        ],
        [
          0.010895473863167375,
          -1.4390008021021268,
          -0.43259997992304094
        ],
        [
          0.9612563990033184,
          -0.186559297848622,
          0.6749980861754235
        ],
        [
          -0.06599690601933551,
          1.5781015389860253,
          1.333760228604733
        ],
        [
          -0.7633489070136884,
          0.011692365570842661,
          0.5892928563124274
        ]
      ],
      [
        [
          1.0973246711222828,
          -0.8331516429374907,
          0.4177665826833577
        ],
        [
          -0.40293867671586525,
          0.2905924729648433,
          0.49792077168795446
        ],
        [
          0.8642013158033758,
          -1.2164518508071254,
          1.236164902049814
        ],
        [
          -0.969249546257943,
          0.1847999606176416,
          -0.2959410591521379
        ],
        [
          -0.26973891052024596,
          -0.025974927100343218,
          0.24340651173447722
        ],
        [
          1.684118364783551,
          -0.5227238332182765,
          -0.6176471281149718
        ]
      ],
      [
        [
          1.2429192623127946e-06,
          -0.0029670412311844393,
          -4.93530368352278
        ],
        [
          3.344040259462057e-07,
          -1.224218864961735,
          -3.1134756218287882
        ],
        [
          3.0215088550730335e-07,
          1.518802129556554,
          3.0027577023243426
        ],
        [
          2.868206772355583e-06,
          0.04092046598784742,
          -0.9533006331427317
        ],
        [
          1.383340462652801e-06,
          1.546688104604293,
          -0.03393066855637046
        ],
        [
          1.5707980809632434,
          -1.5220190562359974,
          0.004605722652916765
        ]
      ],
      [
        [
          2.442376439241666,
          0.007134230311274983,
          0.6352874395194122
        ],
        [
          -3.1661254776783645,
          -1.1794699837135105,
          -2.6731182853212516
        ],
        [
          0.5733085721831325,
          0.0022329354089712337,
          -0.6868482275765537
        ],
        [
          1.1127754997826618,
          -0.019518623782110587,
          0.6973913568143592
        ],
        [
          0.008185323644121036,
          1.5861373282857907,
          2.7262709861414427
        ],
        [
          -0.9570885679786273,
          -0.0045802601264880935,
          0.9251593073718002
        ]
      ],
      [
        [
          -0.15977451949682514,
          0.020819873180307636,
          0.06930435516660872
        ],
        [
          -0.08750822146382851,
          0.0006838255076067535,
          0.1504532341043769
        ],
        [
          0.39072388036345795,
          0.02216596606083771,
          0.8065901685020256
        ],
        [
          -1.9132045800648265,
          -0.5662883762197002,
          0.3472839403102504
        ],
        [
          -0.12091774196127632,
          0.024833132048805058,
          0.11736683402285777
        ],
        [
          1.553060283657765,
          0.007197403303450693,
          0.6215698271073474
        ]
      ]
    ]
  },
  "metrics": {
    "stage1_min_cost": 0.17059227048083075,
    "stage2_min_cost": 0.07130842913770595,
    "mse_train_noise": 0.04208329887417109,
    "mse_train_recovered": 0.036602010352363386,
    "delta_train_pct": 13.024854677378627,
    "mse_test_noise": 0.03574197205136823,
    "mse_test_recovered": 0.028886411973007932,
    "delta_test_pct": 19.180699007059587,
    "mse_train_recovered_pure": 0.022218086533374315,
    "mse_test_recovered_pure": 0.017616430050979785
  },
  "artifacts": {
    "weights_s1_file": "weights_s1_inst07_L3.npy",
    "weights_s2_file": "weights_s2_inst07_L3.npy",
    "circuit_stage1": "circuit_stage1_6q_4l_2t_stacked_L03_inst07.eps",
    "circuit_stage2": "circuit_stage2_6q_4l_2t_stacked_L03_inst07.eps",
    "circuit_full": "circuit_full_6q_4l_2t_stacked_L3_inst07.eps",
    "training_cost_s1_plot": "training_cost_s1_dec500_enc300_inst07.eps",
    "training_cost_s2_plot": "training_cost_s2_dec500_enc300_inst07.eps",
    "reconstruction_pure_plot": "reconst_pure_dec500_enc300_inst07_L3.eps",
    "reconstruction_noisy_plot": "reconst_noisy_dec500_enc300_inst07_L3.eps"
  }
}