{
  "schema": {
    "name": "stacked_qae_bundle",
    "version": "1.0"
  },
  "timestamp": "2026-02-18 22:04:57",
  "dataset": {
    "id": "mackey_glass_tau30_n200",
    "scale_low": 0.0,
    "scale_high": 1.0,
    "window_size": 6,
    "window_step": 2,
    "split": 0.75
  },
  "run": {
    "instance_id": 5,
    "layer": 3,
    "dec_epochs": 200,
    "enc_epochs": 300,
    "sigma_eval": 0.2,
    "test_seed_fixed": 99123,
    "device_seed": 13049,
    "stage1_time_sec": 68,
    "stage2_time_sec": 268
  },
  "environment": {
    "device": "lightning.qubit",
    "diff_method": "adjoint",
    "interface": "autograd"
  },
  "architecture": {
    "type": "stacked",
    "n_qubits": 6,
    "n_latent": 4,
    "n_trash": 2,
    "rot": "Rxyz"
  },
  "parameters": {
    "weights_stage1": [
      [
        [
          0.001098780179215595,
          1.4334829170044752,
          0.0026119520392313854
        ],
        [
          0.0006439113819850078,
          1.3625279134602792,
          -1.5674104442913703
        ],
        [
          -0.0009018675072826946,
          1.2204383002286807,
          -0.007987156270749841
        ],
        [
          0.0013115932326397146,
          1.2501113924909268,
          -1.5609191348670273
        ],
        [
          -0.004076791337720845,
          1.3381819170716787,
          -0.06413923972859747
        ],
        [
          1.5703356114172013,
          1.5732577828728047,
          -0.2148822133561078
        ]
      ],
      [
        [
          1.775653584304362,
          -0.5266276456245226,
          0.10262824750667338
        ],
        [
          1.572386156786033,
          -0.18108324492585728,
          1.571298935004426
        ],
        [
          1.5664277854401436,
          -0.22050807145324672,
          -0.9707352287904203
        ],
        [
          1.6029852174099717,
          -0.24436729164010879,
          0.5670886430256431
        ],
        [
          0.0636736308240746,
          -0.36882000202130233,
          0.24616716699276414
        ],
        [
          -0.6425702767569307,
          -0.32650836000372513,
          -0.23127733659577762
        ]
      ],
      [
        [
          0.30870637784598604,
          0.048057453226623706,
          0.25056318695231194
        ],
        [
          -1.1779282364839985,
          0.018849844842366528,
          0.1713007162997825
        ],
        [
          1.4947757063507354,
          -0.04559063781404978,
          0.17347192684031817
        ],
        [
          0.024080317673087215,
          0.026651809927174256,
          0.02451338064797887
        ],
        [
          -0.17765693074487093,
          0.023137483925195077,
          0.14466523555215308
        ],
        [
          -0.3080341778494778,
          -0.009497824474484697,
          0.11712418407772886
        ]
      ]
    ],
    "weights_stage2": [
      [
        [
          1.2224073689975217,
          0.42463591119017036,
          1.6219004977394387
        ],
        [
          -2.0393493478633213,
          1.3753551290003327,
          -1.0318430667108884
        ],
        [
          2.166216545599593,
          0.21586928404736638,
          -0.6985574871369247
        ],
        [
          -0.077154557561003,
          0.08230940398027757,
          -4.750901705228423
        ],
        [
          0.01737891519713394,
          0.7070476138634116,
          -2.640977732696036
        ],
        [
          4.7891375416146,
          1.5336356005739729,
          0.15445293772586074
        ]
      ],
      [
        [
          1.406517799504348,
          -0.17683320711620265,
          -1.6346305799605112
        ],
        [
          1.7751055318202638,
          -0.4402334404110928,
          -2.263005320869205
        ],
        [
          2.6277526297236764,
          -0.811296025267895,
          -2.8092364189554577
        ],
        [
          1.5846383456994113,
          0.19905747172319407,
          0.3197433523140721
        ],
        [
          1.901171308189672,
          -0.32758609107812636,
          -3.482601146545231
        ],
        [
          -0.8904212201848184,
          0.3582017164159455,
          -0.413923442532632
        ]
      ],
      [
        [
          -0.3202527493865222,
          -0.37065761688824855,
          0.7003060497107093
        ],
        [
          -1.5579285753921168,
          0.023570247239310404,
          0.9258298147765671
        ],
        [
          1.3335257902808524,
          0.5209610684442644,
          1.7191530945161704
        ],
        [
          0.4495559582055478,
          -0.10490346976267477,
          1.0340410292437074
        ],
        [
          0.2890131773416888,
          -0.019810719968158932,
          -0.28163154979257404
        ],
        [
          0.2725189459958844,
          -0.0752893484989913,
          -0.5428467106844594
        ]
      ],
      [
        [
          0.001098780179215595,
          0.10609904127192371,
          1.1656871515632088
        ],
        [
          0.0006439113773123383,
          -1.0775286299803897,
          0.1294907956967482
        ],
        [
          -0.0009018675986483401,
          -0.14004683540817028,
          -1.807941599704225
        ],
        [
          0.0013115934892992817,
          -0.04403952220787029,
          0.2603102079225319
        ],
        [
          -0.004076791659620355,
          1.9093197684035652,
          0.11153131196378878
        ],
        [
          1.5703356115517917,
          1.5714713335722754,
          0.1190168941242863
        ]
      ],
      [
        [
          0.5421658847631495,
          -0.10401066316681878,
          -0.7579888662269939
        ],
        [
          1.7136492968482777,
          -0.26740049563140994,
          1.5332460961700307
        ],
        [
          1.697341265333605,
          4.559310023191665e-05,
          -1.910543170107733
        ],
        [
          0.02736577291136154,
          0.014864033830520892,
          0.15565530991080906
        ],
        [
          -0.010343869176044589,
          -1.8865136762223815,
          4.62028098048646
        ],
        [
          -1.3287160547866674,
          -0.04175108525728425,
          -0.07301676163285784
        ]
      ],
      [
        [
          0.37712404961163043,
          -0.4044696386327936,
          -0.19917967580608192
        ],
        [
          -1.0080574760441312,
          0.08177353383910814,
          0.597597501644512
        ],
        [
          0.7339464920490111,
          -1.1499928476530688,
          0.8334428216025084
        ],
        [
          -0.015581378550342228,
          0.017147106198354734,
          -0.9850142679477638
        ],
        [
          0.5567599263577294,
          0.031936108889487454,
          0.5709620208968799
        ],
        [
          -0.09711304184927744,
          -0.847546224027086,
          0.77709507883992
        ]
      ]
    ]
  },
  "metrics": {
    "stage1_min_cost": 0.16567962611907303,
    "stage2_min_cost": 0.07989629593884784,
    "mse_train_noise": 0.04208329887417109,
    "mse_train_recovered": 0.04191457349888114,
    "delta_train_pct": 0.40093191314310994,
    "mse_test_noise": 0.03574197205136823,
    "mse_test_recovered": 0.03795173189349878,
    "delta_test_pct": -6.182534749214974,
    "mse_train_recovered_pure": 0.02720430461406268,
    "mse_test_recovered_pure": 0.021482501150315057
  },
  "artifacts": {
    "weights_s1_file": "weights_s1_inst05_L3.npy",
    "weights_s2_file": "weights_s2_inst05_L3.npy",
    "circuit_stage1": "circuit_stage1_6q_4l_2t_stacked_L03_inst05.eps",
    "circuit_stage2": "circuit_stage2_6q_4l_2t_stacked_L03_inst05.eps",
    "circuit_full": "circuit_full_6q_4l_2t_stacked_L3_inst05.eps",
    "training_cost_s1_plot": "training_cost_s1_dec200_enc300_inst05.eps",
    "training_cost_s2_plot": "training_cost_s2_dec200_enc300_inst05.eps",
    "reconstruction_pure_plot": "reconst_pure_dec200_enc300_inst05_L3.eps",
    "reconstruction_noisy_plot": "reconst_noisy_dec200_enc300_inst05_L3.eps"
  }
}