{
  "schema": {
    "name": "stacked_qae_bundle",
    "version": "1.0"
  },
  "timestamp": "2026-02-18 21:36:40",
  "dataset": {
    "id": "mackey_glass_tau30_n200",
    "scale_low": 0.0,
    "scale_high": 1.0,
    "window_size": 6,
    "window_step": 2,
    "split": 0.75
  },
  "run": {
    "instance_id": 7,
    "layer": 3,
    "dec_epochs": 100,
    "enc_epochs": 300,
    "sigma_eval": 0.2,
    "test_seed_fixed": 99123,
    "device_seed": 13051,
    "stage1_time_sec": 34,
    "stage2_time_sec": 267
  },
  "environment": {
    "device": "lightning.qubit",
    "diff_method": "adjoint",
    "interface": "autograd"
  },
  "architecture": {
    "type": "stacked",
    "n_qubits": 6,
    "n_latent": 4,
    "n_trash": 2,
    "rot": "Rxyz"
  },
  "parameters": {
    "weights_stage1": [
      [
        [
          -0.037600867138122857,
          1.4470286475363172,
          1.7704307858094335
        ],
        [
          -0.013834433568895488,
          1.2627862190196022,
          0.12418335578229271
        ],
        [
          -0.003844633831084642,
          1.156389413232811,
          1.550542139489577
        ],
        [
          -0.003080933657692666,
          1.1675897326536824,
          1.5666991220925153
        ],
        [
          -0.005535983916335374,
          1.1857290424741787,
          0.5282894296764894
        ],
        [
          0.7571518978181578,
          -0.4215994768125033,
          0.8647342924253696
        ]
      ],
      [
        [
          1.2620187477701938,
          -0.35588639342536565,
          0.4540522241313594
        ],
        [
          1.6310069485083238,
          0.22781484755189793,
          0.41969133495524236
        ],
        [
          -0.07799356030224439,
          0.1485468167560752,
          -0.4207233259783199
        ],
        [
          1.027728863272699,
          0.20777054298873684,
          0.26571205645170287
        ],
        [
          0.45115025177244644,
          0.06929492635835333,
          0.5184133399506206
        ],
        [
          0.21270484249157898,
          -0.5377535607920911,
          0.3401266210418487
        ]
      ],
      [
        [
          0.0909269881705723,
          0.006128600723056347,
          0.2435354689643988
        ],
        [
          0.07126399728666181,
          -0.010898507064276256,
          0.2134730729723124
        ],
        [
          0.15892235884623032,
          -0.04506324858543614,
          0.18698169086958166
        ],
        [
          0.008810459877448419,
          0.2686045422116653,
          0.025671440515982545
        ],
        [
          -0.2502519310761207,
          -0.004329704869946111,
          0.18038667282828638
        ],
        [
          0.5582787403044647,
          0.008550648967470086,
          0.0019613493879605585
        ]
      ]
    ],
    "weights_stage2": [
      [
        [
          -0.31295395839427653,
          1.8689168072041695,
          2.239702336261341
        ],
        [
          0.15971146994954713,
          1.6003127643907675,
          0.018535007934523985
        ],
        [
          -0.21490534996482227,
          1.3942470268332976,
          2.8058429996923246
        ],
        [
          1.301075001136618,
          0.18995162300102156,
          2.9664358179524064
        ],
        [
          0.3229750406402414,
          0.7982514979896517,
          0.6606826656551911
        ],
        [
          0.18756715630379836,
          -1.8345397012803477,
          -0.2940638075764292
        ]
      ],
      [
        [
          2.7453220209727593,
          -0.9485519575214812,
          -0.8776434749032667
        ],
        [
          2.0494086012665678,
          0.3129259138965675,
          -0.5941832457824192
        ],
        [
          -1.5440082028654771,
          0.6326876401938789,
          0.0660484458954282
        ],
        [
          1.6121082883611597,
          0.9969990848017186,
          -0.06587277545746353
        ],
        [
          1.9751773478320678,
          -0.16384385388306066,
          -0.47092422909118814
        ],
        [
          -0.9313770126030984,
          -1.2037229402996217,
          0.3037246425899476
        ]
      ],
      [
        [
          -6.795034230721071,
          0.009201615977904466,
          -3.710517282080488
        ],
        [
          -0.2465045674617176,
          0.021170244923239018,
          0.08284508394720783
        ],
        [
          0.011189842203515217,
          -0.052791535688334265,
          0.038983301081582364
        ],
        [
          -0.9630786535188278,
          -0.3492159909871758,
          0.7945966030408236
        ],
        [
          0.13729441049301935,
          0.024151508794781736,
          0.11534351956228325
        ],
        [
          0.9704239367954336,
          0.02400232424353617,
          0.09890946450234425
        ]
      ],
      [
        [
          -0.037600867138122857,
          1.8831750150347586,
          2.1091131235335236
        ],
        [
          -0.013834433386555121,
          1.9291886374503735,
          0.01888470148954178
        ],
        [
          -0.0038446335348736554,
          2.370616840128015,
          1.470960899866174
        ],
        [
          -0.0030809337661762953,
          0.03806376929792507,
          2.9358163237624053
        ],
        [
          -0.005535983507137766,
          -0.0758839929819839,
          -3.3808005301964057
        ],
        [
          0.7571518975294212,
          -1.6203498154386795,
          0.25282368628020274
        ]
      ],
      [
        [
          -0.29805469564956016,
          0.7617054663790238,
          2.1499285609423318
        ],
        [
          2.6486295838394978,
          2.6210668217626076,
          1.0851011152221406
        ],
        [
          -1.1796143142092803,
          -0.029678634278954313,
          -0.8509413321239283
        ],
        [
          1.0112584150527366,
          -0.08362471146269435,
          0.5305377646861741
        ],
        [
          1.1899926995802368,
          0.11886847772689184,
          0.4032699265083234
        ],
        [
          -0.8645102337508914,
          -0.8939971059315115,
          0.16807233634368673
        ]
      ],
      [
        [
          3.1167458122800946,
          0.10859792202601368,
          4.197588220009262
        ],
        [
          -0.07910341807305447,
          0.04589455288276524,
          0.27851622623831607
        ],
        [
          1.6311479519159133,
          -0.3260525366820124,
          0.09003357575520242
        ],
        [
          4.083721724647284,
          0.5265137259564703,
          -0.7432537220088534
        ],
        [
          -0.03829462710443875,
          0.018244847723101455,
          0.24542982609429226
        ],
        [
          -0.4743169570265294,
          -0.05213824117435171,
          -0.09498676572642313
        ]
      ]
    ]
  },
  "metrics": {
    "stage1_min_cost": 0.1783983042966269,
    "stage2_min_cost": 0.08196888778443534,
    "mse_train_noise": 0.04208329887417109,
    "mse_train_recovered": 0.0424827191290321,
    "delta_train_pct": -0.949118214461464,
    "mse_test_noise": 0.03574197205136823,
    "mse_test_recovered": 0.034490162907683655,
    "delta_test_pct": 3.502350519119324,
    "mse_train_recovered_pure": 0.02667060240964726,
    "mse_test_recovered_pure": 0.022159678252979757
  },
  "artifacts": {
    "weights_s1_file": "weights_s1_inst07_L3.npy",
    "weights_s2_file": "weights_s2_inst07_L3.npy",
    "circuit_stage1": "circuit_stage1_6q_4l_2t_stacked_L03_inst07.eps",
    "circuit_stage2": "circuit_stage2_6q_4l_2t_stacked_L03_inst07.eps",
    "circuit_full": "circuit_full_6q_4l_2t_stacked_L3_inst07.eps",
    "training_cost_s1_plot": "training_cost_s1_dec100_enc300_inst07.eps",
    "training_cost_s2_plot": "training_cost_s2_dec100_enc300_inst07.eps",
    "reconstruction_pure_plot": "reconst_pure_dec100_enc300_inst07_L3.eps",
    "reconstruction_noisy_plot": "reconst_noisy_dec100_enc300_inst07_L3.eps"
  }
}