{
  "schema": {
    "name": "stacked_qae_bundle",
    "version": "1.0"
  },
  "timestamp": "2026-02-19 00:26:01",
  "dataset": {
    "id": "mackey_glass_tau30_n200",
    "scale_low": 0.0,
    "scale_high": 1.0,
    "window_size": 6,
    "window_step": 2,
    "split": 0.75
  },
  "run": {
    "instance_id": 5,
    "layer": 3,
    "dec_epochs": 500,
    "enc_epochs": 300,
    "sigma_eval": 0.2,
    "test_seed_fixed": 99123,
    "device_seed": 13049,
    "stage1_time_sec": 176,
    "stage2_time_sec": 273
  },
  "environment": {
    "device": "lightning.qubit",
    "diff_method": "adjoint",
    "interface": "autograd"
  },
  "architecture": {
    "type": "stacked",
    "n_qubits": 6,
    "n_latent": 4,
    "n_trash": 2,
    "rot": "Rxyz"
  },
  "parameters": {
    "weights_stage1": [
      [
        [
          0.004871110792755518,
          1.4341988358134905,
          0.0022916789135819997
        ],
        [
          0.0015008216898530242,
          1.3624519429697128,
          -1.5671568287561533
        ],
        [
          -0.0013629744595079398,
          1.219955224995443,
          -0.00897976901564553
        ],
        [
          0.001436211562761938,
          1.2495352452715118,
          -1.5613802512119828
        ],
        [
          -0.004213397992785628,
          1.3376565513785268,
          -0.06548409918639617
        ],
        [
          1.572096442722646,
          1.5726799022456543,
          -0.21537048690425256
        ]
      ],
      [
        [
          1.7753567740211371,
          -0.5275758083548462,
          0.05811245861714664
        ],
        [
          1.5703478358267589,
          -0.1808674426530673,
          1.8576325041527038
        ],
        [
          1.566066541149437,
          -0.22100832809677035,
          -0.8857593256419132
        ],
        [
          1.6049668986078525,
          -0.24407822890383907,
          0.6702972866244007
        ],
        [
          0.06502269592477557,
          -0.3681926431844177,
          0.3104929910509729
        ],
        [
          -0.6421704910790879,
          -0.3271981048869071,
          -1.2297291514320707
        ]
      ],
      [
        [
          0.3087063780631364,
          0.04805745324319419,
          0.2505631871911552
        ],
        [
          -1.417260049319553,
          0.017448741400686876,
          0.17130071635978958
        ],
        [
          1.5823681450222558,
          -0.04500520869904068,
          0.17347192697176125
        ],
        [
          0.02408031786718427,
          0.02665180993018563,
          0.024513380880014937
        ],
        [
          -0.19230849764118366,
          0.025324284914849754,
          0.14466523558529207
        ],
        [
          -0.07881589727954172,
          -0.01490919142757401,
          0.11712418417290753
        ]
      ]
    ],
    "weights_stage2": [
      [
        [
          -1.0326194863108802,
          0.33264903453907396,
          -0.12364047715687813
        ],
        [
          1.0845477224085647,
          1.1922119531281072,
          -0.21593049660716715
        ],
        [
          -0.06549863003237229,
          1.7091408417975045,
          -0.30276337990036534
        ],
        [
          3.3443738313467573,
          1.4934893424212259,
          -4.634481237962758
        ],
        [
          -0.6283937182530057,
          -0.13019830127635426,
          2.582072951701285
        ],
        [
          4.604412630103436,
          1.5916739219915867,
          -0.14876338487479085
        ]
      ],
      [
        [
          1.5903522569681932,
          0.42420673522291535,
          1.5379483747621043
        ],
        [
          2.301138579544046,
          0.8989430724103842,
          1.8690774923272555
        ],
        [
          3.066594634608148,
          0.9360059916942589,
          -1.1486811166243325
        ],
        [
          2.3411550538310864,
          0.32513486414974374,
          1.862604516039219
        ],
        [
          -0.02234013037011683,
          -1.6378913369947903,
          -4.578986221858231
        ],
        [
          -1.7659643563745029,
          -0.09391988514972496,
          -1.2076512393970051
        ]
      ],
      [
        [
          1.344570736053374,
          0.7835458704900335,
          -0.4378095725865678
        ],
        [
          -2.1440159037154003,
          -1.7002475956574765,
          -1.7223458437948813
        ],
        [
          1.6772229444768125,
          -1.1645264349139477,
          1.4980945696066281
        ],
        [
          0.16293478440456388,
          0.8039684781752482,
          -0.2435279489825465
        ],
        [
          -0.6178981828813861,
          0.006950197874645637,
          0.5554725293674824
        ],
        [
          -1.4521430056823679,
          -0.38834562385139854,
          0.3084863207452317
        ]
      ],
      [
        [
          0.004871110792755518,
          -0.03333149894127706,
          5.672490663138883
        ],
        [
          0.0015008216097389406,
          1.2761243655327013,
          -0.018349341789732975
        ],
        [
          -0.00136297470561353,
          1.5920507764049938,
          -0.07132918695033778
        ],
        [
          0.0014362119084420496,
          0.009512555569854548,
          -4.435429625200484
        ],
        [
          -0.004213397123749047,
          1.611301722174329,
          0.16523039366855072
        ],
        [
          1.5720964424383173,
          1.5271360525587656,
          0.08102414063251226
        ]
      ],
      [
        [
          2.0305823540099746,
          -0.021497995513085597,
          1.0318496746632113
        ],
        [
          -3.1481444035828603,
          1.25810297755088,
          -0.3474110695023492
        ],
        [
          2.780232616251797,
          -0.010447232063735724,
          -1.0645495015173565
        ],
        [
          1.7140929142824726,
          0.012034592578382665,
          1.9092282566174583
        ],
        [
          -0.020695869788849408,
          -1.5552329518487318,
          0.22797559415629529
        ],
        [
          -1.6747545236208539,
          0.0468910101390239,
          -1.4405826996765547
        ]
      ],
      [
        [
          -0.1936606660146701,
          0.0074098443219238665,
          0.938935946968868
        ],
        [
          -1.6523591852506423,
          -0.0074118047268096725,
          -0.23950657742240272
        ],
        [
          0.5953456258644565,
          -0.010959364139435507,
          -0.01789020960056326
        ],
        [
          -0.3098650413404454,
          -0.038372934022541966,
          0.292554710742574
        ],
        [
          -0.3027206890126822,
          -0.02061642708151599,
          -0.26614205819689873
        ],
        [
          0.9422254121515862,
          -0.09862452755517952,
          -0.0742379523994158
        ]
      ]
    ]
  },
  "metrics": {
    "stage1_min_cost": 0.16567021035698942,
    "stage2_min_cost": 0.07244730439137984,
    "mse_train_noise": 0.04208329887417109,
    "mse_train_recovered": 0.04151767522208809,
    "delta_train_pct": 1.3440573035260694,
    "mse_test_noise": 0.03574197205136823,
    "mse_test_recovered": 0.03815212682140713,
    "delta_test_pct": -6.743205905300997,
    "mse_train_recovered_pure": 0.02725721672406555,
    "mse_test_recovered_pure": 0.021450180856131835
  },
  "artifacts": {
    "weights_s1_file": "weights_s1_inst05_L3.npy",
    "weights_s2_file": "weights_s2_inst05_L3.npy",
    "circuit_stage1": "circuit_stage1_6q_4l_2t_stacked_L03_inst05.eps",
    "circuit_stage2": "circuit_stage2_6q_4l_2t_stacked_L03_inst05.eps",
    "circuit_full": "circuit_full_6q_4l_2t_stacked_L3_inst05.eps",
    "training_cost_s1_plot": "training_cost_s1_dec500_enc300_inst05.eps",
    "training_cost_s2_plot": "training_cost_s2_dec500_enc300_inst05.eps",
    "reconstruction_pure_plot": "reconst_pure_dec500_enc300_inst05_L3.eps",
    "reconstruction_noisy_plot": "reconst_noisy_dec500_enc300_inst05_L3.eps"
  }
}