{
  "schema": {
    "name": "stacked_qae_bundle",
    "version": "1.0"
  },
  "timestamp": "2026-02-18 21:06:15",
  "dataset": {
    "id": "mackey_glass_tau30_n200",
    "scale_low": 0.0,
    "scale_high": 1.0,
    "window_size": 6,
    "window_step": 2,
    "split": 0.75
  },
  "run": {
    "instance_id": 1,
    "layer": 3,
    "dec_epochs": 100,
    "enc_epochs": 300,
    "sigma_eval": 0.2,
    "test_seed_fixed": 99123,
    "device_seed": 13045,
    "stage1_time_sec": 34,
    "stage2_time_sec": 268
  },
  "environment": {
    "device": "lightning.qubit",
    "diff_method": "adjoint",
    "interface": "autograd"
  },
  "architecture": {
    "type": "stacked",
    "n_qubits": 6,
    "n_latent": 4,
    "n_trash": 2,
    "rot": "Rxyz"
  },
  "parameters": {
    "weights_stage1": [
      [
        [
          -0.006502429622938814,
          1.3319110336138924,
          -0.017751713363460316
        ],
        [
          -0.002780154265550832,
          1.2616353854641225,
          1.1201627409370052
        ],
        [
          -0.010151546053827877,
          1.1885593573906588,
          0.9012072868859194
        ],
        [
          0.015127937382897538,
          1.2125579204745005,
          1.1855700978555719
        ],
        [
          -0.008583727886184053,
          1.376971070697518,
          -0.1785767458772519
        ],
        [
          -0.3272774242457398,
          1.7025227192104584,
          0.03847360137227367
        ]
      ],
      [
        [
          -1.0751027131566702,
          -0.3759454792260524,
          -0.10628011950432635
        ],
        [
          1.4440115529631192,
          0.1705733018586271,
          -0.6931187317518147
        ],
        [
          0.9823625445157151,
          0.199071436431814,
          0.12055118261926823
        ],
        [
          -0.9793328025358043,
          -0.23575453283082595,
          -0.11487767103528762
        ],
        [
          0.18362339254941634,
          -0.3968759930753556,
          -0.16721480856710638
        ],
        [
          0.18152090211841623,
          -0.1219395484045463,
          -0.054928350002201316
        ]
      ],
      [
        [
          0.13004702500741913,
          0.03052302142453787,
          0.21916500330998281
        ],
        [
          -0.14079749564690044,
          -0.019585651540794762,
          0.07624422006111606
        ],
        [
          -1.6846567107291468,
          0.02539303801483657,
          0.07273266104408042
        ],
        [
          0.09323059292982921,
          0.15361492164838247,
          0.05360220804658424
        ],
        [
          -0.05523160227158237,
          -0.03362608327535265,
          0.21817595205501947
        ],
        [
          -0.2533779602652605,
          -0.002455830594923663,
          0.18631616687782354
        ]
      ]
    ],
    "weights_stage2": [
      [
        [
          -0.9486282457852506,
          0.287677253379058,
          -0.28896850636362137
        ],
        [
          0.3064730216166491,
          1.4010684977637995,
          3.523071426009659
        ],
        [
          -0.3169912721470988,
          1.6433158320545198,
          -0.8831933829559315
        ],
        [
          0.34631158113052,
          1.4798870789043637,
          1.4651868764742786
        ],
        [
          -1.0268315811015396,
          1.8746060711009986,
          -0.10572708168027047
        ],
        [
          -1.3383720648503408,
          2.170759523433796,
          -0.42648914482432854
        ]
      ],
      [
        [
          -1.605792032980258,
          0.3977045131179649,
          1.4556970394644941
        ],
        [
          4.679106779132286,
          0.5814905984529972,
          4.394284037800065
        ],
        [
          1.5485002494914266,
          0.9210383577691678,
          1.309705888955996
        ],
        [
          -2.888612787899098,
          -0.42246952202916604,
          1.4931155881142486
        ],
        [
          -0.011326479582655976,
          -1.6562671750922924,
          2.9336918227767614
        ],
        [
          1.524389004709606,
          -0.09310419329528627,
          -1.3935289518677219
        ]
      ],
      [
        [
          1.5516592141514494,
          -0.7417146580745008,
          -0.5814491597384658
        ],
        [
          -0.6465765588210823,
          0.4497261778113596,
          0.9734145395330405
        ],
        [
          -1.2516903330944864,
          -0.38426908996234665,
          -0.8881208824443897
        ],
        [
          0.4191086643090113,
          0.8623161766181067,
          0.5872362201366377
        ],
        [
          0.3105360868783037,
          -0.031555279429624605,
          0.12496819817693341
        ],
        [
          -1.5885482384391474,
          -0.22007171426626201,
          0.4441650875764983
        ]
      ],
      [
        [
          -0.006502429622938814,
          0.04431401324237424,
          -6.24574119131328
        ],
        [
          -0.0027801544459502016,
          -1.0385441257344794,
          -3.116236525091621
        ],
        [
          -0.010151545787091171,
          1.5697741828594418,
          0.10290856583545942
        ],
        [
          0.015127937075248827,
          0.06345400193290959,
          -1.86685878290392
        ],
        [
          -0.008583727578205571,
          1.5185178057342394,
          0.04904510188991978
        ],
        [
          -0.3272774249192002,
          1.6091374541320054,
          -0.0035702985226305963
        ]
      ],
      [
        [
          -1.3290161821007849,
          -0.009834143521394055,
          1.4161967502568702
        ],
        [
          3.1223808467341096,
          1.0305376465381515,
          -3.8795161546913373
        ],
        [
          0.7667953539645731,
          -0.03999474717562411,
          0.6282290952994535
        ],
        [
          -1.453879931455444,
          0.03329686796095968,
          1.1498849473491157
        ],
        [
          -0.011286195917995987,
          -1.5875146496952084,
          0.8599386239971386
        ],
        [
          0.18743217772345266,
          -0.01248055565316636,
          0.01074548679293907
        ]
      ],
      [
        [
          0.10886949189096737,
          -0.22176218817733223,
          1.019779166358426
        ],
        [
          -0.15015273377295604,
          0.002074851787802986,
          0.16945197393920253
        ],
        [
          -1.7590334953740745,
          0.015957049708435585,
          -0.18511625965459427
        ],
        [
          1.1706932400902892,
          -0.009111967674650976,
          -0.48003180404347096
        ],
        [
          0.34441628190656837,
          0.020835246477706026,
          0.3113837059331069
        ],
        [
          -1.750468591939327,
          0.12278653090185716,
          -0.0715327538208495
        ]
      ]
    ]
  },
  "metrics": {
    "stage1_min_cost": 0.1718033794754568,
    "stage2_min_cost": 0.0673872385306808,
    "mse_train_noise": 0.04208329887417109,
    "mse_train_recovered": 0.039693565130508306,
    "delta_train_pct": 5.678579882266543,
    "mse_test_noise": 0.03574197205136823,
    "mse_test_recovered": 0.032338712417880014,
    "delta_test_pct": 9.521745550573058,
    "mse_train_recovered_pure": 0.02401105831332335,
    "mse_test_recovered_pure": 0.01849458883182547
  },
  "artifacts": {
    "weights_s1_file": "weights_s1_inst01_L3.npy",
    "weights_s2_file": "weights_s2_inst01_L3.npy",
    "circuit_stage1": "circuit_stage1_6q_4l_2t_stacked_L03_inst01.eps",
    "circuit_stage2": "circuit_stage2_6q_4l_2t_stacked_L03_inst01.eps",
    "circuit_full": "circuit_full_6q_4l_2t_stacked_L3_inst01.eps",
    "training_cost_s1_plot": "training_cost_s1_dec100_enc300_inst01.eps",
    "training_cost_s2_plot": "training_cost_s2_dec100_enc300_inst01.eps",
    "reconstruction_pure_plot": "reconst_pure_dec100_enc300_inst01_L3.eps",
    "reconstruction_noisy_plot": "reconst_noisy_dec100_enc300_inst01_L3.eps"
  }
}