{
  "schema": {
    "name": "stacked_qae_bundle",
    "version": "1.0"
  },
  "timestamp": "2026-02-18 21:59:19",
  "dataset": {
    "id": "mackey_glass_tau30_n200",
    "scale_low": 0.0,
    "scale_high": 1.0,
    "window_size": 6,
    "window_step": 2,
    "split": 0.75
  },
  "run": {
    "instance_id": 4,
    "layer": 3,
    "dec_epochs": 200,
    "enc_epochs": 300,
    "sigma_eval": 0.2,
    "test_seed_fixed": 99123,
    "device_seed": 13048,
    "stage1_time_sec": 68,
    "stage2_time_sec": 269
  },
  "environment": {
    "device": "lightning.qubit",
    "diff_method": "adjoint",
    "interface": "autograd"
  },
  "architecture": {
    "type": "stacked",
    "n_qubits": 6,
    "n_latent": 4,
    "n_trash": 2,
    "rot": "Rxyz"
  },
  "parameters": {
    "weights_stage1": [
      [
        [
          -0.0008403406817275033,
          1.432890739323595,
          -0.004912661042551218
        ],
        [
          -0.000469665646660391,
          1.3689320785758339,
          1.5579425755408873
        ],
        [
          0.0008008592793079381,
          1.232353321922793,
          -0.041716634458623274
        ],
        [
          0.0004806940960576883,
          1.2589559421462244,
          1.5937944591411355
        ],
        [
          -0.0014844850738629073,
          1.3537294632793224,
          -0.03899490137344042
        ],
        [
          -1.6539153959026198,
          1.5562759875064183,
          0.19623600846753306
        ]
      ],
      [
        [
          -1.7708894283039678,
          -0.5197224576368665,
          1.499743128196528
        ],
        [
          1.5638618953623407,
          0.1847604768528414,
          0.16145974598702234
        ],
        [
          1.5861023393636644,
          0.22185035988642096,
          -1.281757892520134
        ],
        [
          -1.5640834443038507,
          -0.24656596696673788,
          1.2801107616336882
        ],
        [
          0.03921782936684989,
          -0.37639344475590397,
          -0.045858036411223865
        ],
        [
          0.646581711573911,
          -0.31891074291160865,
          0.20280100497239872
        ]
      ],
      [
        [
          0.14891701556602965,
          0.13861431508984215,
          0.2605475169298459
        ],
        [
          0.5674330890670137,
          0.0017873250343832866,
          0.277193271991926
        ],
        [
          -1.1832668764172662,
          -0.04705321074085819,
          0.17416317204417747
        ],
        [
          0.04006980347242809,
          0.3016307763119521,
          0.02753843003720375
        ],
        [
          0.47840796216912274,
          0.0016532828635300594,
          0.1743046985504119
        ],
        [
          0.4592845686639305,
          0.0012216490682666339,
          0.028030159705298145
        ]
      ]
    ],
    "weights_stage2": [
      [
        [
          1.7431430854203058,
          0.7360342188674442,
          -3.1693245155520553
        ],
        [
          -1.2240095779949154,
          0.3148750196612037,
          3.432184659722253
        ],
        [
          -1.5332990295632971,
          1.6765053679271087,
          -0.2909702252644921
        ],
        [
          -0.014540904046527067,
          1.4917372393204567,
          1.478233474708672
        ],
        [
          -1.3466464831934348,
          1.551191140655481,
          -0.0629436778161
        ],
        [
          -4.753076208950958,
          1.7752429620703913,
          0.06111965038551737
        ]
      ],
      [
        [
          -1.3125220073614043,
          -0.5699196684817383,
          1.8369038819157626
        ],
        [
          0.781171716582944,
          1.3622751170362557,
          -0.48980508723712085
        ],
        [
          3.6080113351734853,
          1.2496576407823459,
          -2.146098585161428
        ],
        [
          -0.578571221795699,
          -0.0983608374230954,
          -1.5570063177706108
        ],
        [
          -0.01219799616016571,
          -1.5136341729824163,
          -4.0653002695863965
        ],
        [
          1.7264333509695742,
          -0.07793262596936033,
          -1.7274987855125041
        ]
      ],
      [
        [
          -0.7180738522445449,
          0.032114323289678434,
          -0.12175429840658564
        ],
        [
          0.4254048759562369,
          0.2191019641404375,
          -0.3407250519747639
        ],
        [
          -2.2068139080855493,
          -0.9988181106423342,
          1.323067288279699
        ],
        [
          -1.0439575288628709,
          0.7667595120923635,
          1.070526770878902
        ],
        [
          -0.3356396882970726,
          -0.0495245692163789,
          0.5150642151934741
        ],
        [
          1.7370091396862508,
          0.621287610445563,
          -0.16684765412091046
        ]
      ],
      [
        [
          -0.0008403406817275033,
          -0.013455871949472219,
          1.8559588204636432
        ],
        [
          -0.00046966550771858215,
          0.038204187590404594,
          0.2328708839263313
        ],
        [
          0.0008008595128923049,
          1.6886286460212745,
          -0.15693042281751163
        ],
        [
          0.0004806944024988506,
          -1.5449617759745273,
          -1.7693529858837898
        ],
        [
          -0.0014844839558436085,
          1.5946407445075674,
          -0.011714169621970489
        ],
        [
          -1.6539153959358628,
          1.47135421045759,
          0.09945494834753088
        ]
      ],
      [
        [
          -1.2177932431985032,
          -0.08661070148295617,
          1.6020858995312255
        ],
        [
          2.632751419959387,
          0.00958373473491868,
          -1.3886308985038112
        ],
        [
          0.14536004160359933,
          -0.7882583395903356,
          -1.7542114510310076
        ],
        [
          -3.8758315701825556,
          1.0095547581311004,
          1.4901334349992015
        ],
        [
          -0.010020530925159402,
          -1.5828482698312492,
          -0.44111423056445764
        ],
        [
          0.8609817033273913,
          0.022433129726642468,
          -0.7940676736069063
        ]
      ],
      [
        [
          1.5295233356657192,
          0.24862071604555946,
          0.6428493322662792
        ],
        [
          0.2193532753034528,
          0.015217919102950637,
          -0.06356624465113798
        ],
        [
          -1.2103814018217225,
          -0.012271161818450938,
          0.3690409858703882
        ],
        [
          0.8839384686656864,
          0.3178427993756848,
          -1.0154499108044925
        ],
        [
          0.16266040975583954,
          -0.04045095924486931,
          -0.16645481809265114
        ],
        [
          1.447965883390081,
          0.012659306577029511,
          0.22290797353150782
        ]
      ]
    ]
  },
  "metrics": {
    "stage1_min_cost": 0.16579859831147925,
    "stage2_min_cost": 0.06609863308431903,
    "mse_train_noise": 0.04208329887417109,
    "mse_train_recovered": 0.04142907311228545,
    "delta_train_pct": 1.5545971427804894,
    "mse_test_noise": 0.03574197205136823,
    "mse_test_recovered": 0.03624681919414398,
    "delta_test_pct": -1.412477022952685,
    "mse_train_recovered_pure": 0.026088841715482543,
    "mse_test_recovered_pure": 0.020623574143691745
  },
  "artifacts": {
    "weights_s1_file": "weights_s1_inst04_L3.npy",
    "weights_s2_file": "weights_s2_inst04_L3.npy",
    "circuit_stage1": "circuit_stage1_6q_4l_2t_stacked_L03_inst04.eps",
    "circuit_stage2": "circuit_stage2_6q_4l_2t_stacked_L03_inst04.eps",
    "circuit_full": "circuit_full_6q_4l_2t_stacked_L3_inst04.eps",
    "training_cost_s1_plot": "training_cost_s1_dec200_enc300_inst04.eps",
    "training_cost_s2_plot": "training_cost_s2_dec200_enc300_inst04.eps",
    "reconstruction_pure_plot": "reconst_pure_dec200_enc300_inst04_L3.eps",
    "reconstruction_noisy_plot": "reconst_noisy_dec200_enc300_inst04_L3.eps"
  }
}