{
  "schema": {
    "name": "stacked_qae_bundle",
    "version": "1.0"
  },
  "timestamp": "2026-02-18 23:27:52",
  "dataset": {
    "id": "mackey_glass_tau30_n200",
    "scale_low": 0.0,
    "scale_high": 1.0,
    "window_size": 6,
    "window_step": 2,
    "split": 0.75
  },
  "run": {
    "instance_id": 4,
    "layer": 3,
    "dec_epochs": 400,
    "enc_epochs": 300,
    "sigma_eval": 0.2,
    "test_seed_fixed": 99123,
    "device_seed": 13048,
    "stage1_time_sec": 140,
    "stage2_time_sec": 273
  },
  "environment": {
    "device": "lightning.qubit",
    "diff_method": "adjoint",
    "interface": "autograd"
  },
  "architecture": {
    "type": "stacked",
    "n_qubits": 6,
    "n_latent": 4,
    "n_trash": 2,
    "rot": "Rxyz"
  },
  "parameters": {
    "weights_stage1": [
      [
        [
          -0.002048371116883469,
          1.4292218169653936,
          0.0003987490912377307
        ],
        [
          -0.00037878027218039156,
          1.360233947127599,
          1.57046014596605
        ],
        [
          -0.0002757276869767883,
          1.2201461000295204,
          4.194246646638359e-05
        ],
        [
          9.977499178844721e-05,
          1.2500355438040618,
          1.569378963038339
        ],
        [
          -0.0007093619698475964,
          1.3382267535432315,
          -0.01112705356293499
        ],
        [
          -1.571316514820916,
          1.5703195969545551,
          0.215287305250174
        ]
      ],
      [
        [
          -1.7709140623063768,
          -0.5234513555098638,
          1.5464397841450395
        ],
        [
          1.5732246287174687,
          0.18251720059021695,
          0.5554380222240551
        ],
        [
          1.572373985251139,
          0.22025988310777753,
          -1.5204359798259375
        ],
        [
          -1.5604300805750613,
          -0.24499373284500683,
          1.6044492757783482
        ],
        [
          0.010675256598683345,
          -0.369992773500132,
          0.05097660318672514
        ],
        [
          0.6342830838700679,
          -0.3234276644628567,
          0.41124410828274444
        ]
      ],
      [
        [
          0.14891701555145442,
          0.13861431510167393,
          0.26054751690406397
        ],
        [
          -0.3291476331050242,
          0.01140982282725994,
          0.27719327179961345
        ],
        [
          -1.3708239315973854,
          -0.049880502700040935,
          0.17416317190332822
        ],
        [
          0.040069803525597435,
          0.3016307762706629,
          0.02753843003324765
        ],
        [
          0.6159308375623849,
          0.0031308155187207533,
          0.17430469847478947
        ],
        [
          0.4415441510311049,
          0.010369401180847575,
          0.02803015970933255
        ]
      ]
    ],
    "weights_stage2": [
      [
        [
          -2.3596854598789614,
          -0.07173124963417002,
          0.3470196457100705
        ],
        [
          -0.3468582392546146,
          1.5567014207165566,
          1.4595692866363632
        ],
        [
          -0.4027969278921196,
          1.751041749706202,
          -0.07066314378020488
        ],
        [
          2.083699735638252,
          1.527318286091648,
          1.5500972642198636
        ],
        [
          -1.2251698800007533,
          -0.06720805091992604,
          2.1333798912973116
        ],
        [
          4.450390998529471,
          1.532282777765418,
          -0.028413702106031093
        ]
      ],
      [
        [
          -1.7787453346557658,
          -0.06999371066879162,
          1.8580346238569732
        ],
        [
          1.0525250620060622,
          1.1737476939557867,
          2.293576344989148
        ],
        [
          0.33066818866695835,
          0.6204881523424691,
          -1.9144273995899346
        ],
        [
          -2.256533847905641,
          0.2971233963684643,
          1.5624026414578596
        ],
        [
          0.08043806245964713,
          -1.6205561826370345,
          -0.47584709966329436
        ],
        [
          1.6175001601430412,
          0.10555407457116561,
          -0.38071676134920135
        ]
      ],
      [
        [
          0.5922457206934604,
          -0.21172160832604725,
          -0.14175457492697818
        ],
        [
          -0.521294240977409,
          0.7652094134993207,
          0.1708436777473531
        ],
        [
          -1.5817745764970224,
          1.2402801848699956,
          1.7511560620285942
        ],
        [
          -0.060410319475035584,
          0.2587493077842618,
          -0.06680514415332799
        ],
        [
          1.071099571793052,
          -0.6825492036613345,
          0.14054270015568754
        ],
        [
          -0.4382576356205027,
          -0.05021591279509753,
          -0.5124317535717962
        ]
      ],
      [
        [
          -0.002048371116883469,
          0.29611893277179,
          1.8096279410371194
        ],
        [
          -0.0003787805991470121,
          1.4326076219112052,
          1.4175530724585286
        ],
        [
          -0.0002757274731838459,
          1.576925984834188,
          0.01696798859683193
        ],
        [
          9.977512337341424e-05,
          1.4872003987553049,
          1.517385197763977
        ],
        [
          -0.0007093619993896815,
          0.04036554467357466,
          2.0992363153660207
        ],
        [
          -1.5713165147673558,
          1.6282739669100443,
          0.1291249235530389
        ]
      ],
      [
        [
          -1.696968019836306,
          -0.17505510759168194,
          1.8045048123505343
        ],
        [
          1.8559041170216528,
          1.3739320882928954,
          1.0777969945518278
        ],
        [
          0.939335576344855,
          0.8003429751963032,
          -2.020063685420636
        ],
        [
          -1.6864751182355782,
          0.2851197848323359,
          0.9313701981596461
        ],
        [
          0.12009457093590926,
          -1.6813415062222692,
          -0.17434694518789706
        ],
        [
          1.4704376377303898,
          0.0937695490551289,
          -0.20844615989257181
        ]
      ],
      [
        [
          -0.24049516923219108,
          -0.02132050159178315,
          0.6628496087351029
        ],
        [
          -2.1307125051680007,
          1.7605561723204828,
          0.310955270118713
        ],
        [
          -2.3944871954228115,
          0.14494411404080898,
          0.7146250851844554
        ],
        [
          -0.19106380505351975,
          0.2885219574937291,
          0.12188200421982058
        ],
        [
          1.6639668198457744,
          -0.7397180585305655,
          0.20806669679388803
        ],
        [
          0.004708357180896376,
          -0.18528329050483505,
          0.5684920729904627
        ]
      ]
    ]
  },
  "metrics": {
    "stage1_min_cost": 0.16569661442999123,
    "stage2_min_cost": 0.06641115022269055,
    "mse_train_noise": 0.04208329887417109,
    "mse_train_recovered": 0.03964380811911148,
    "delta_train_pct": 5.796814461607857,
    "mse_test_noise": 0.03574197205136823,
    "mse_test_recovered": 0.03334675317917229,
    "delta_test_pct": 6.701417786219366,
    "mse_train_recovered_pure": 0.02404542340348164,
    "mse_test_recovered_pure": 0.018820890267810184
  },
  "artifacts": {
    "weights_s1_file": "weights_s1_inst04_L3.npy",
    "weights_s2_file": "weights_s2_inst04_L3.npy",
    "circuit_stage1": "circuit_stage1_6q_4l_2t_stacked_L03_inst04.eps",
    "circuit_stage2": "circuit_stage2_6q_4l_2t_stacked_L03_inst04.eps",
    "circuit_full": "circuit_full_6q_4l_2t_stacked_L3_inst04.eps",
    "training_cost_s1_plot": "training_cost_s1_dec400_enc300_inst04.eps",
    "training_cost_s2_plot": "training_cost_s2_dec400_enc300_inst04.eps",
    "reconstruction_pure_plot": "reconst_pure_dec400_enc300_inst04_L3.eps",
    "reconstruction_noisy_plot": "reconst_noisy_dec400_enc300_inst04_L3.eps"
  }
}