{
  "schema": {
    "name": "stacked_qae_bundle",
    "version": "1.0"
  },
  "timestamp": "2026-02-18 23:48:28",
  "dataset": {
    "id": "mackey_glass_tau30_n200",
    "scale_low": 0.0,
    "scale_high": 1.0,
    "window_size": 6,
    "window_step": 2,
    "split": 0.75
  },
  "run": {
    "instance_id": 7,
    "layer": 3,
    "dec_epochs": 400,
    "enc_epochs": 300,
    "sigma_eval": 0.2,
    "test_seed_fixed": 99123,
    "device_seed": 13051,
    "stage1_time_sec": 139,
    "stage2_time_sec": 271
  },
  "environment": {
    "device": "lightning.qubit",
    "diff_method": "adjoint",
    "interface": "autograd"
  },
  "architecture": {
    "type": "stacked",
    "n_qubits": 6,
    "n_latent": 4,
    "n_trash": 2,
    "rot": "Rxyz"
  },
  "parameters": {
    "weights_stage1": [
      [
        [
          -1.1196908228777872e-06,
          1.3458706971706438,
          1.5708042420823694
        ],
        [
          -4.706061206216588e-07,
          1.2566046388583845,
          1.8551665623339594e-05
        ],
        [
          1.1276866643504024e-06,
          1.1855346570975362,
          1.570714747076719
        ],
        [
          1.8576143978347074e-06,
          1.204366863055986,
          1.5707819622345094
        ],
        [
          -1.4843884018693367e-06,
          1.3191906254376327,
          -5.7614265554618355e-05
        ],
        [
          1.570798743039835,
          -1.5707946648764652,
          0.02140593592938431
        ]
      ],
      [
        [
          2.521037154555474,
          -0.33294430932627045,
          -0.12336013298188675
        ],
        [
          1.5708470472600653,
          0.1943656286906974,
          -0.00021495225446005532
        ],
        [
          0.00011917629837918478,
          0.17477326784688824,
          -5.498394210086196e-05
        ],
        [
          1.5708531107939339,
          0.2390456156139861,
          0.00016072039915148437
        ],
        [
          5.891862010454693e-05,
          0.3454992181007408,
          1.5706819503921858
        ],
        [
          -0.34804828366719404,
          -0.5061509175982125,
          0.6696202183277905
        ]
      ],
      [
        [
          0.09092698812696832,
          0.006128600717595348,
          0.2435354688913884
        ],
        [
          0.029476699936313674,
          5.042689264914982e-07,
          0.21347307292540452
        ],
        [
          1.0373370203986525,
          -0.07732697946153205,
          0.18698169083067304
        ],
        [
          0.008810459872560347,
          0.2686045421519689,
          0.025671440567157554
        ],
        [
          -0.31018571298709585,
          2.374884597637824e-06,
          0.1803866728297593
        ],
        [
          1.8736080154374324,
          -0.025934466568587215,
          0.0019613494596880062
        ]
      ]
    ],
    "weights_stage2": [
      [
        [
          -0.006876795707228228,
          0.17579642606384047,
          1.0512902199297482
        ],
        [
          1.0441432809206668,
          1.6623322346148213,
          0.13701061272002757
        ],
        [
          -1.33153532073382,
          1.416651865262658,
          3.13915105619386
        ],
        [
          -1.3379615348292626,
          0.8176343140242033,
          2.9368884523157974
        ],
        [
          -0.06937135872599434,
          1.5496093493604033,
          1.5228003384003574
        ],
        [
          2.6590784919700594,
          1.341891531992421,
          -2.79589184898471
        ]
      ],
      [
        [
          1.6754496880844978,
          -0.5156060255850651,
          1.568003011084396
        ],
        [
          2.4654626869416862,
          -0.8773880923554098,
          1.1257676391510043
        ],
        [
          -0.9136344073870591,
          -0.07402929193019532,
          -0.6154605338552515
        ],
        [
          3.3983684329117865,
          -0.24329069751017027,
          0.12475863750997601
        ],
        [
          -0.8972325089900927,
          1.3330526208484497,
          3.2935792066499245
        ],
        [
          -1.7512256606342824,
          -0.2514982452672161,
          0.0351757986691576
        ]
      ],
      [
        [
          3.527704173644245,
          -0.04508344786816362,
          -0.03390989891618224
        ],
        [
          -0.01145011694850969,
          -0.49234607067579017,
          1.6439026018784417
        ],
        [
          0.05651923153000363,
          -0.48156960466026616,
          1.4319742424949613
        ],
        [
          -0.0396715137012195,
          0.530357273653537,
          -0.049121392537626846
        ],
        [
          -0.23255791033346845,
          0.04896602957253675,
          0.20051349643604657
        ],
        [
          1.768001364474013,
          -0.2897239691539856,
          -0.5419915849003
        ]
      ],
      [
        [
          -1.1196908228777872e-06,
          -0.06668406617795336,
          -1.08370238779716
        ],
        [
          -4.7056711225816957e-07,
          0.16043039474403034,
          -5.6951682272731095
        ],
        [
          1.1275177933303397e-06,
          1.4261724887475786,
          3.1038771564987075
        ],
        [
          1.8572802607191038e-06,
          1.5199245891826776,
          1.741589613656767
        ],
        [
          -1.4849609906180655e-06,
          1.5564303623661795,
          0.007244588173727985
        ],
        [
          1.5707987429291441,
          1.5722989786425359,
          -3.158734576836871
        ]
      ],
      [
        [
          1.9742919820095566,
          0.012396861112770847,
          1.3012425340614764
        ],
        [
          2.635523496088262,
          -1.0972518588197724,
          -0.011247483569887034
        ],
        [
          -0.03404296279790659,
          0.6552014497523684,
          0.05744466958920854
        ],
        [
          2.237055134217656,
          1.438395269078958,
          -0.07617081301062431
        ],
        [
          -0.03202403391192136,
          1.5834283017931776,
          0.2592303067022054
        ],
        [
          -1.2031830193184263,
          -0.015456015469662434,
          0.42727829474430584
        ]
      ],
      [
        [
          1.2952575651272946,
          -0.15107465664498143,
          0.5209808366992429
        ],
        [
          -0.07046705755826208,
          -0.007636768432149042,
          0.1933462493191155
        ],
        [
          0.6367233655181572,
          -0.01721652246875954,
          0.7309346251906602
        ],
        [
          1.8108303852580498,
          -0.19496891294732274,
          0.10046427367194335
        ],
        [
          -0.9579276832916026,
          0.011081575087938202,
          0.16025984922347086
        ],
        [
          1.5907285561149642,
          -0.6772405913002617,
          0.545914283819673
        ]
      ]
    ]
  },
  "metrics": {
    "stage1_min_cost": 0.1705922705693748,
    "stage2_min_cost": 0.0815516881844524,
    "mse_train_noise": 0.04208329887417109,
    "mse_train_recovered": 0.03660198875409706,
    "delta_train_pct": 13.02490600003371,
    "mse_test_noise": 0.03574197205136823,
    "mse_test_recovered": 0.028886358525035037,
    "delta_test_pct": 19.180848545458918,
    "mse_train_recovered_pure": 0.022218011409711615,
    "mse_test_recovered_pure": 0.017616406656808973
  },
  "artifacts": {
    "weights_s1_file": "weights_s1_inst07_L3.npy",
    "weights_s2_file": "weights_s2_inst07_L3.npy",
    "circuit_stage1": "circuit_stage1_6q_4l_2t_stacked_L03_inst07.eps",
    "circuit_stage2": "circuit_stage2_6q_4l_2t_stacked_L03_inst07.eps",
    "circuit_full": "circuit_full_6q_4l_2t_stacked_L3_inst07.eps",
    "training_cost_s1_plot": "training_cost_s1_dec400_enc300_inst07.eps",
    "training_cost_s2_plot": "training_cost_s2_dec400_enc300_inst07.eps",
    "reconstruction_pure_plot": "reconst_pure_dec400_enc300_inst07_L3.eps",
    "reconstruction_noisy_plot": "reconst_noisy_dec400_enc300_inst07_L3.eps"
  }
}