{
  "schema": {
    "name": "stacked_qae_bundle",
    "version": "1.0"
  },
  "timestamp": "2026-02-18 22:16:17",
  "dataset": {
    "id": "mackey_glass_tau30_n200",
    "scale_low": 0.0,
    "scale_high": 1.0,
    "window_size": 6,
    "window_step": 2,
    "split": 0.75
  },
  "run": {
    "instance_id": 7,
    "layer": 3,
    "dec_epochs": 200,
    "enc_epochs": 300,
    "sigma_eval": 0.2,
    "test_seed_fixed": 99123,
    "device_seed": 13051,
    "stage1_time_sec": 68,
    "stage2_time_sec": 270
  },
  "environment": {
    "device": "lightning.qubit",
    "diff_method": "adjoint",
    "interface": "autograd"
  },
  "architecture": {
    "type": "stacked",
    "n_qubits": 6,
    "n_latent": 4,
    "n_trash": 2,
    "rot": "Rxyz"
  },
  "parameters": {
    "weights_stage1": [
      [
        [
          1.9053274191253715e-05,
          1.3533888766711815,
          1.5640716223502507
        ],
        [
          -0.00034504963583541903,
          1.2630324315972887,
          0.003021274592115931
        ],
        [
          0.0006936984700997101,
          1.1899707588515518,
          1.548834904115469
        ],
        [
          0.001614801243123442,
          1.2046180076615933,
          1.5784905246004737
        ],
        [
          -0.0005984677700966671,
          1.3215217600893514,
          -0.06738784603959083
        ],
        [
          1.5692862010799091,
          -1.5663132603881622,
          0.014048453933935716
        ]
      ],
      [
        [
          2.5467486041681933,
          -0.3378185669641053,
          -0.1254780255039811
        ],
        [
          1.5731734659384324,
          0.1959225971649379,
          0.36790747744212243
        ],
        [
          0.023188619694032776,
          0.17330875262208864,
          0.057403752399355384
        ],
        [
          1.6143628558726444,
          0.2364273872579559,
          0.2883773843487112
        ],
        [
          0.07135927837644017,
          0.34423667311531164,
          1.5072220586433982
        ],
        [
          -0.35987403257928724,
          -0.5101637561485968,
          0.35856306242065455
        ]
      ],
      [
        [
          0.09092698811747074,
          0.0061286007213087156,
          0.24353546889628383
        ],
        [
          0.0322559830900698,
          7.46211163571256e-06,
          0.21347307286499725
        ],
        [
          1.0279627732313672,
          -0.07793642332474272,
          0.18698169079141486
        ],
        [
          0.008810459864346327,
          0.26860454220143126,
          0.025671440543513155
        ],
        [
          -0.3153914830889022,
          0.000856896951083133,
          0.18038667279713314
        ],
        [
          0.71527815473079,
          -0.009158554333289668,
          0.00196134939506988
        ]
      ]
    ],
    "weights_stage2": [
      [
        [
          -2.957008246100053,
          -0.24837574729630255,
          5.153666502780431
        ],
        [
          1.1055185212921652,
          1.5404969507981752,
          -0.3532067757184176
        ],
        [
          0.027711188867618995,
          1.5088765887313684,
          1.2066926331071182
        ],
        [
          -0.8874114226373058,
          1.5349650925335157,
          1.6221866345709595
        ],
        [
          1.7875719784072002,
          0.39142968013378093,
          0.0722679599292575
        ],
        [
          1.4128846026065092,
          -1.4449079428859286,
          -0.07717356999539954
        ]
      ],
      [
        [
          1.5946229598213235,
          -0.39891330915711865,
          1.6500628566636468
        ],
        [
          1.0683646227295163,
          -0.3674486342826896,
          2.791013055855014
        ],
        [
          -1.2022136312688254,
          -0.746731714279135,
          1.5193943376829586
        ],
        [
          2.3850347325329926,
          0.2661075719775961,
          -0.8145653829741355
        ],
        [
          0.06426780059545652,
          1.5328336791599904,
          0.4277843500166903
        ],
        [
          1.5707380653702407,
          0.13089439573074696,
          -1.6289332958972351
        ]
      ],
      [
        [
          1.1120767086731653,
          -0.8303447840774257,
          -0.49186693825245664
        ],
        [
          -0.4642865114104611,
          -0.08546491240321846,
          -0.11305685318477648
        ],
        [
          1.1880249532000504,
          -0.4081266561911452,
          -1.2827430605673507
        ],
        [
          -0.5663747228905824,
          0.6574226320040705,
          0.0062433873083093195
        ],
        [
          0.5218579085278559,
          0.03681861959524922,
          0.052627926964371
        ],
        [
          1.612968520180599,
          0.18286969982155624,
          0.39967333125707616
        ]
      ],
      [
        [
          1.9053274191253715e-05,
          0.01259249704336093,
          3.6023075340008006
        ],
        [
          -0.00034504980228561473,
          -0.9562407747332917,
          3.237840944526907
        ],
        [
          0.0006936984303462625,
          1.3833502696255424,
          2.9229526154518473
        ],
        [
          0.0016148001740053206,
          -0.005091450756667514,
          5.459515334622846
        ],
        [
          -0.0005984668753671978,
          1.5387862505050927,
          0.008850960475412438
        ],
        [
          1.5692862012956015,
          -1.5950873355516173,
          0.010565634963195627
        ]
      ],
      [
        [
          2.726175914415621,
          -0.0035892559706358507,
          0.48797588065929015
        ],
        [
          3.1163524218561593,
          -0.9370313667597446,
          0.7168898765444662
        ],
        [
          -1.0635788498178387,
          0.002867592143648767,
          -0.35676093981626716
        ],
        [
          1.3769668679723235,
          0.013910497087839768,
          -1.1544814995617776
        ],
        [
          -0.0008945778250915124,
          1.568815867165247,
          3.3662358351155457
        ],
        [
          -1.2511525702445052,
          0.0012275516354762256,
          1.3591279331049873
        ]
      ],
      [
        [
          -0.3439295076741531,
          -0.02929245603022003,
          0.9789378760450196
        ],
        [
          0.342700937752872,
          -0.00020564994495044647,
          0.34123181869776026
        ],
        [
          0.5839546210182841,
          -0.05182892011622611,
          -0.2107302910705906
        ],
        [
          -0.01838387350831255,
          -0.16304587046716798,
          0.04509949377871994
        ],
        [
          0.15962274507707994,
          -0.0054616630025140864,
          0.3081454186298947
        ],
        [
          1.3219739326310107,
          0.16802725834578416,
          -0.39575063246693365
        ]
      ]
    ]
  },
  "metrics": {
    "stage1_min_cost": 0.17064168657512424,
    "stage2_min_cost": 0.07230581185204508,
    "mse_train_noise": 0.04208329887417109,
    "mse_train_recovered": 0.03722989614033072,
    "delta_train_pct": 11.53284762288248,
    "mse_test_noise": 0.03574197205136823,
    "mse_test_recovered": 0.0301951480994697,
    "delta_test_pct": 15.519076406658971,
    "mse_train_recovered_pure": 0.02390847380139081,
    "mse_test_recovered_pure": 0.01879838297676111
  },
  "artifacts": {
    "weights_s1_file": "weights_s1_inst07_L3.npy",
    "weights_s2_file": "weights_s2_inst07_L3.npy",
    "circuit_stage1": "circuit_stage1_6q_4l_2t_stacked_L03_inst07.eps",
    "circuit_stage2": "circuit_stage2_6q_4l_2t_stacked_L03_inst07.eps",
    "circuit_full": "circuit_full_6q_4l_2t_stacked_L3_inst07.eps",
    "training_cost_s1_plot": "training_cost_s1_dec200_enc300_inst07.eps",
    "training_cost_s2_plot": "training_cost_s2_dec200_enc300_inst07.eps",
    "reconstruction_pure_plot": "reconst_pure_dec200_enc300_inst07_L3.eps",
    "reconstruction_noisy_plot": "reconst_noisy_dec200_enc300_inst07_L3.eps"
  }
}