{
  "schema": {
    "name": "stacked_qae_bundle",
    "version": "1.0"
  },
  "timestamp": "2026-02-18 21:16:23",
  "dataset": {
    "id": "mackey_glass_tau30_n200",
    "scale_low": 0.0,
    "scale_high": 1.0,
    "window_size": 6,
    "window_step": 2,
    "split": 0.75
  },
  "run": {
    "instance_id": 3,
    "layer": 3,
    "dec_epochs": 100,
    "enc_epochs": 300,
    "sigma_eval": 0.2,
    "test_seed_fixed": 99123,
    "device_seed": 13047,
    "stage1_time_sec": 34,
    "stage2_time_sec": 268
  },
  "environment": {
    "device": "lightning.qubit",
    "diff_method": "adjoint",
    "interface": "autograd"
  },
  "architecture": {
    "type": "stacked",
    "n_qubits": 6,
    "n_latent": 4,
    "n_trash": 2,
    "rot": "Rxyz"
  },
  "parameters": {
    "weights_stage1": [
      [
        [
          0.01595672346537978,
          -0.19903124860577967,
          -0.017040373279328766
        ],
        [
          -0.016800173701250462,
          1.0831566465592721,
          -0.018175641692592344
        ],
        [
          -0.03164338682749817,
          0.9762161733239625,
          0.16386014648538513
        ],
        [
          0.04440843480736825,
          1.1534200604238158,
          0.8054636914382701
        ],
        [
          -0.0017165090079257358,
          1.0976171811610793,
          1.5002828459391602
        ],
        [
          0.3914483499919579,
          -0.34070573351498695,
          -0.40099362975634206
        ]
      ],
      [
        [
          -0.0550796536345466,
          -0.006782243741815762,
          0.05719918916420008
        ],
        [
          0.6167036889264849,
          0.0005235748844547083,
          -0.6118971070809958
        ],
        [
          0.03527869211756673,
          0.0005429051959080732,
          -0.030547141763437802
        ],
        [
          -0.14718991160539302,
          -0.00032308596141381106,
          0.13885814691261134
        ],
        [
          -0.9676001731496684,
          0.03195741369986232,
          0.9693464495071221
        ],
        [
          0.053114464886374946,
          -0.0022322292725398428,
          -0.051860691062025226
        ]
      ],
      [
        [
          0.2593092277734444,
          0.24191232062494275,
          0.28930046302102463
        ],
        [
          0.03834501291468773,
          1.570590038932521,
          0.017625580078515616
        ],
        [
          -0.007067144285336161,
          -1.5506820792962643,
          0.005334225449354161
        ],
        [
          0.12981642431108362,
          0.24602091140203206,
          0.25504328895535516
        ],
        [
          0.006325536627346477,
          1.571037623734308,
          0.14174489980451016
        ],
        [
          -0.0007075355659872491,
          1.5618528675240375,
          0.13898459583453068
        ]
      ]
    ],
    "weights_stage2": [
      [
        [
          3.0087185311523323,
          -1.5424260945689792,
          -1.2130445410718305
        ],
        [
          1.5494179878657228,
          0.08320098930374682,
          -0.03180478369592671
        ],
        [
          1.2818170569739136,
          0.11099707532067832,
          1.7234549679897753
        ],
        [
          -1.7532577632225792,
          -0.27944405040071646,
          1.0849710688507186
        ],
        [
          -1.4153421852402523,
          -0.5539500203623826,
          3.222742050556845
        ],
        [
          0.035308605302203755,
          -1.4941675930105036,
          -0.08713033418711268
        ]
      ],
      [
        [
          -1.6958704033935754,
          -0.5979681457147379,
          1.4531701450092023
        ],
        [
          -0.009798811801875038,
          -0.33774152074514596,
          -2.7620600952041237
        ],
        [
          0.3973395227050827,
          0.244084134633819,
          -0.6269449733051831
        ],
        [
          0.4906011729605747,
          0.4066130745201976,
          0.8300008768096262
        ],
        [
          -1.863393455797558,
          -1.5314605931345682,
          1.6011438932870776
        ],
        [
          0.2345196355599733,
          -0.04929207188679783,
          -0.43633414927719155
        ]
      ],
      [
        [
          -0.4388858448018241,
          0.44338281585697553,
          -0.6404512577767953
        ],
        [
          1.4214886688955493,
          1.494441882133568,
          -0.07045528195442567
        ],
        [
          -0.6153420773536937,
          -1.7352316942615509,
          -0.12147508076607866
        ],
        [
          1.7148816160946985,
          -0.19264572926451162,
          0.3717214283401433
        ],
        [
          -0.01181826047366574,
          1.8626734509656453,
          0.20225794666063865
        ],
        [
          -2.895976159733199,
          1.742266574802398,
          0.27349729916874777
        ]
      ],
      [
        [
          0.01595672346537978,
          -0.8307630376727102,
          -1.3708948444518854
        ],
        [
          -0.01680017346973808,
          0.1990946717018674,
          0.3659224126086144
        ],
        [
          -0.03164338615222368,
          0.4303299330440038,
          3.5193660560822053
        ],
        [
          0.04440843526050267,
          0.047471867067559646,
          5.879316668505542
        ],
        [
          -0.0017165096812179097,
          -0.5952943555537291,
          1.3446671476594811
        ],
        [
          0.391448349908087,
          -1.434602838246111,
          -1.2260801493730271
        ]
      ],
      [
        [
          0.18953613132448366,
          -0.20719734989246785,
          0.28406836492420035
        ],
        [
          1.5588377049609066,
          -0.1780824703094402,
          -0.16749368701301068
        ],
        [
          1.5249086372273917,
          -0.5454605264735645,
          -1.5421477796095413
        ],
        [
          -0.5369741367399304,
          -0.15799796277112085,
          0.20709694927757655
        ],
        [
          -1.7304429329109996,
          0.8734321926961993,
          1.34792000025906
        ],
        [
          0.0821948842518432,
          0.6820912683755856,
          -0.017536352958565458
        ]
      ],
      [
        [
          0.044533946693861313,
          -0.6388976126001272,
          1.2190521838188413
        ],
        [
          1.318739938869901,
          1.6493637698069825,
          -0.042887466777614576
        ],
        [
          0.23640340221390221,
          -1.5187847992498833,
          -0.12917847788486397
        ],
        [
          -0.8529516468845453,
          0.021116135589479928,
          0.1383651495705605
        ],
        [
          0.2224714806696714,
          1.7570181331000352,
          0.08123185294838395
        ],
        [
          0.18167942500473774,
          1.5609446471696327,
          0.0044718925003092245
        ]
      ]
    ]
  },
  "metrics": {
    "stage1_min_cost": 0.1267277188949175,
    "stage2_min_cost": 0.05582409751904057,
    "mse_train_noise": 0.04208329887417109,
    "mse_train_recovered": 0.03109166688560577,
    "delta_train_pct": 26.118750864636965,
    "mse_test_noise": 0.03574197205136823,
    "mse_test_recovered": 0.02691358957911265,
    "delta_test_pct": 24.70032280134813,
    "mse_train_recovered_pure": 0.008352397035238704,
    "mse_test_recovered_pure": 0.009350817979433119
  },
  "artifacts": {
    "weights_s1_file": "weights_s1_inst03_L3.npy",
    "weights_s2_file": "weights_s2_inst03_L3.npy",
    "circuit_stage1": "circuit_stage1_6q_4l_2t_stacked_L03_inst03.eps",
    "circuit_stage2": "circuit_stage2_6q_4l_2t_stacked_L03_inst03.eps",
    "circuit_full": "circuit_full_6q_4l_2t_stacked_L3_inst03.eps",
    "training_cost_s1_plot": "training_cost_s1_dec100_enc300_inst03.eps",
    "training_cost_s2_plot": "training_cost_s2_dec100_enc300_inst03.eps",
    "reconstruction_pure_plot": "reconst_pure_dec100_enc300_inst03_L3.eps",
    "reconstruction_noisy_plot": "reconst_noisy_dec100_enc300_inst03_L3.eps"
  }
}