{
  "schema": {
    "name": "stacked_qae_bundle",
    "version": "1.0"
  },
  "timestamp": "2026-02-18 21:42:21",
  "dataset": {
    "id": "mackey_glass_tau30_n200",
    "scale_low": 0.0,
    "scale_high": 1.0,
    "window_size": 6,
    "window_step": 2,
    "split": 0.75
  },
  "run": {
    "instance_id": 1,
    "layer": 3,
    "dec_epochs": 200,
    "enc_epochs": 300,
    "sigma_eval": 0.2,
    "test_seed_fixed": 99123,
    "device_seed": 13045,
    "stage1_time_sec": 68,
    "stage2_time_sec": 271
  },
  "environment": {
    "device": "lightning.qubit",
    "diff_method": "adjoint",
    "interface": "autograd"
  },
  "architecture": {
    "type": "stacked",
    "n_qubits": 6,
    "n_latent": 4,
    "n_trash": 2,
    "rot": "Rxyz"
  },
  "parameters": {
    "weights_stage1": [
      [
        [
          2.7875598890820802e-05,
          1.4324362832931181,
          -0.0006948833002862171
        ],
        [
          0.0003810706955922851,
          1.3613338018108812,
          1.56885112800679
        ],
        [
          0.0010661294728129959,
          1.2181027940434301,
          -0.01571347379087206
        ],
        [
          -0.0005727765233442425,
          1.247165594944341,
          1.5691684964225587
        ],
        [
          0.002516391860489241,
          1.3351156736483278,
          0.024591355186230953
        ],
        [
          -1.5778548404005175,
          1.5675550820141497,
          0.21699226757850493
        ]
      ],
      [
        [
          -1.7792570738391018,
          -0.5287487578269764,
          0.10288535822214201
        ],
        [
          1.5772372251808051,
          0.18060364826105738,
          -0.7065952228744077
        ],
        [
          1.5930882095401346,
          0.2207006828602301,
          0.6806699779626952
        ],
        [
          -1.581697345192075,
          -0.2432519957762316,
          -0.12471290807242129
        ],
        [
          -0.025628590103865548,
          -0.36642024982420873,
          -0.549662884715048
        ],
        [
          0.6458062249455361,
          -0.32909476932243187,
          -0.073685018958454
        ]
      ],
      [
        [
          0.1300470249873706,
          0.03052302142819444,
          0.21916500333256697
        ],
        [
          0.23090046730896288,
          -0.009070275314785558,
          0.07624422003234159
        ],
        [
          -1.781191231113137,
          0.04093177410957796,
          0.07273266100954327
        ],
        [
          0.09323059293389158,
          0.15361492164720283,
          0.05360220809045604
        ],
        [
          0.060649000902996006,
          -0.03163644347744132,
          0.2181759520786595
        ],
        [
          -0.34856440825116863,
          0.004843660022999055,
          0.18631616686763836
        ]
      ]
    ],
    "weights_stage2": [
      [
        [
          0.8617674850609746,
          1.616915654473304,
          0.1193631453400068
        ],
        [
          1.457017095763877,
          0.315838573880908,
          -0.1959524595944227
        ],
        [
          -1.697089757290405,
          0.7727514066110469,
          0.03648873251878787
        ],
        [
          -2.547922910989053,
          -0.10929885941336143,
          -1.5963322684856924
        ],
        [
          -1.6237504818723036,
          -0.02899732073272534,
          -0.40379437537326207
        ],
        [
          -5.555490051217341,
          1.6241089021050996,
          0.35527478334745904
        ]
      ],
      [
        [
          -1.6324268674609386,
          0.31666351400560144,
          1.302551341705183
        ],
        [
          1.911543062353249,
          -0.9154076201651918,
          -2.676783223742166
        ],
        [
          1.2106260103101631,
          1.9165152875564042,
          -0.35000312298781355
        ],
        [
          0.02374468175792925,
          -0.2593220036990396,
          -0.06643392476298764
        ],
        [
          0.1696954841078633,
          -1.611289088486723,
          0.46086485847033914
        ],
        [
          0.8215653653685709,
          -0.05120660076362616,
          -0.847339885666662
        ]
      ],
      [
        [
          0.20928525634727957,
          -0.14484322067863092,
          0.3106221712412473
        ],
        [
          -0.524185133461726,
          -1.064656449526229,
          0.42508052266004637
        ],
        [
          -1.5822916732567478,
          -0.12059251569449837,
          -1.5313059518911496
        ],
        [
          -0.2780443918648309,
          -0.6552474276248975,
          0.27223506850389556
        ],
        [
          -1.2296673477117668,
          -0.9934926545927641,
          0.4290947905159331
        ],
        [
          -0.7882020917832601,
          0.019417600945349323,
          0.843536833713303
        ]
      ],
      [
        [
          2.7875598890820802e-05,
          1.597258278428428,
          -0.08021590969184152
        ],
        [
          0.0003810705406234335,
          0.0674669425643143,
          5.055471755065197
        ],
        [
          0.0010661294380543067,
          1.2448092567505296,
          0.1781410338326845
        ],
        [
          -0.0005727764654498304,
          -1.169704945332893,
          0.057762672697017334
        ],
        [
          0.0025163910788419063,
          0.11120162631601482,
          -5.006594467336799
        ],
        [
          -1.5778548407203863,
          1.6130296551267898,
          -0.1595963378938435
        ]
      ],
      [
        [
          -0.1973212274052402,
          -0.010043738316308257,
          0.24895173000299234
        ],
        [
          -0.30336177524534363,
          0.09801693845579731,
          -1.2949089443726667
        ],
        [
          1.6711235785440868,
          -0.037967493043265965,
          -0.010763536253394216
        ],
        [
          -1.4595183597533832,
          0.029340392744501224,
          1.5100894096955637
        ],
        [
          -0.11665936013905977,
          -1.487225777766431,
          0.24437316778537183
        ],
        [
          0.871820099095425,
          0.03755459894456668,
          -0.8119080968380766
        ]
      ],
      [
        [
          0.3027273223284049,
          0.015522845372675358,
          0.1277078354238849
        ],
        [
          1.2506398974186261,
          -1.3468980833214284,
          -0.13467461840492967
        ],
        [
          -1.56771980944066,
          -1.0346970762920338,
          -0.584488005836122
        ],
        [
          0.34417295059302694,
          -0.7048932561242153,
          -0.16503065232298214
        ],
        [
          -1.606589115312061,
          -1.6169118167590737,
          0.007257113641385274
        ],
        [
          -0.6136942329125139,
          0.12508238979727387,
          -0.4709044999780281
        ]
      ]
    ]
  },
  "metrics": {
    "stage1_min_cost": 0.16569817582683638,
    "stage2_min_cost": 0.06634701629083165,
    "mse_train_noise": 0.04208329887417109,
    "mse_train_recovered": 0.039574767725738313,
    "delta_train_pct": 5.960870976235189,
    "mse_test_noise": 0.03574197205136823,
    "mse_test_recovered": 0.03254948136285678,
    "delta_test_pct": 8.932049647185725,
    "mse_train_recovered_pure": 0.023739596039164267,
    "mse_test_recovered_pure": 0.018923104495357022
  },
  "artifacts": {
    "weights_s1_file": "weights_s1_inst01_L3.npy",
    "weights_s2_file": "weights_s2_inst01_L3.npy",
    "circuit_stage1": "circuit_stage1_6q_4l_2t_stacked_L03_inst01.eps",
    "circuit_stage2": "circuit_stage2_6q_4l_2t_stacked_L03_inst01.eps",
    "circuit_full": "circuit_full_6q_4l_2t_stacked_L3_inst01.eps",
    "training_cost_s1_plot": "training_cost_s1_dec200_enc300_inst01.eps",
    "training_cost_s2_plot": "training_cost_s2_dec200_enc300_inst01.eps",
    "reconstruction_pure_plot": "reconst_pure_dec200_enc300_inst01_L3.eps",
    "reconstruction_noisy_plot": "reconst_noisy_dec200_enc300_inst01_L3.eps"
  }
}