{
  "schema": {
    "name": "stacked_qae_bundle",
    "version": "1.0"
  },
  "timestamp": "2026-02-18 23:00:15",
  "dataset": {
    "id": "mackey_glass_tau30_n200",
    "scale_low": 0.0,
    "scale_high": 1.0,
    "window_size": 6,
    "window_step": 2,
    "split": 0.75
  },
  "run": {
    "instance_id": 7,
    "layer": 3,
    "dec_epochs": 300,
    "enc_epochs": 300,
    "sigma_eval": 0.2,
    "test_seed_fixed": 99123,
    "device_seed": 13051,
    "stage1_time_sec": 105,
    "stage2_time_sec": 271
  },
  "environment": {
    "device": "lightning.qubit",
    "diff_method": "adjoint",
    "interface": "autograd"
  },
  "architecture": {
    "type": "stacked",
    "n_qubits": 6,
    "n_latent": 4,
    "n_trash": 2,
    "rot": "Rxyz"
  },
  "parameters": {
    "weights_stage1": [
      [
        [
          2.2297780609151005e-05,
          1.3469895057853154,
          1.5690674176987307
        ],
        [
          -3.8404321986365915e-05,
          1.2569338565048696,
          -0.0024338366277248916
        ],
        [
          -0.00020487911402214474,
          1.18560612166033,
          1.5804129747416957
        ],
        [
          0.0002858199143159857,
          1.2041749321415052,
          1.5746724003323644
        ],
        [
          -0.00027338810131484205,
          1.3189198395638202,
          -0.01293570941739448
        ],
        [
          1.5701452203914206,
          -1.5701187578112,
          0.021418486253357953
        ]
      ],
      [
        [
          2.5215005747557893,
          -0.33367536736495196,
          -0.12337119884907835
        ],
        [
          1.5622085909389074,
          0.19496087246781282,
          0.13454237398092528
        ],
        [
          -0.018011911418409705,
          0.1746534278372665,
          0.02400530356575598
        ],
        [
          1.5766212700356832,
          0.2381817789590801,
          0.13785014322896103
        ],
        [
          0.012918867135144237,
          0.3449727814380043,
          1.5582426740200295
        ],
        [
          -0.3481339765824653,
          -0.506935485292671,
          0.5517556038538745
        ]
      ],
      [
        [
          0.09092698813893398,
          0.0061286007156638456,
          0.24353546889880925
        ],
        [
          0.02957183241770275,
          -0.00023711706924823035,
          0.21347307290700132
        ],
        [
          1.0282834875878584,
          -0.07750928380225003,
          0.18698169081111776
        ],
        [
          0.008810459905715894,
          0.268604542158244,
          0.025671440594390426
        ],
        [
          -0.3101819312145643,
          -5.133378589059118e-05,
          0.18038667277641954
        ],
        [
          1.6312864015429553,
          -0.02451527993365352,
          0.001961349416146967
        ]
      ]
    ],
    "weights_stage2": [
      [
        [
          -2.5773174162046626,
          -0.04390155580166949,
          3.959048660480604
        ],
        [
          2.0874390805074317,
          1.0881112210180388,
          0.006916079311133013
        ],
        [
          -1.5291899599554057,
          1.491878731321054,
          1.634139959800803
        ],
        [
          -0.1386544384733223,
          -1.6579345415430276,
          1.5566655971688637
        ],
        [
          -1.6967144635498361,
          1.4980700304876167,
          -0.06838630712830575
        ],
        [
          1.6399551383259565,
          -1.650599264751721,
          -1.5532985394161227
        ]
      ],
      [
        [
          1.4934307329285388,
          -0.524801489299868,
          1.6071075318156716
        ],
        [
          -0.16200756031254981,
          0.33251367462738946,
          2.5014447389308443
        ],
        [
          -1.8706434077869136,
          -1.6378567138062934,
          1.1263033477922468
        ],
        [
          -0.3689029490507907,
          -1.5683074950869944,
          1.1468925793980829
        ],
        [
          -0.029803942933742285,
          0.9051093880674234,
          2.995820500776445
        ],
        [
          -0.9224723697738808,
          0.062341540110137886,
          1.5074487528785985
        ]
      ],
      [
        [
          -1.161584225024727,
          0.7458629741354412,
          -0.009746170675791333
        ],
        [
          -0.19292955793443206,
          0.04524463879361494,
          0.2573156051290462
        ],
        [
          0.0946883087096474,
          1.0525668451810268,
          1.4042850968177287
        ],
        [
          0.5166069751312712,
          -0.6622248708563577,
          -0.004237598280459847
        ],
        [
          0.011073770010242822,
          -0.002520527570299104,
          0.27288624982743637
        ],
        [
          1.4890542171853425,
          -0.09433061908141545,
          -0.3850456346637315
        ]
      ],
      [
        [
          2.2297780609151005e-05,
          -0.18199158835609514,
          -0.4376859977806859
        ],
        [
          -3.8404019210798805e-05,
          0.8643262322227718,
          3.1687147216912637
        ],
        [
          -0.00020487882040947796,
          1.5576379020161333,
          0.10920545438552332
        ],
        [
          0.00028582018542924086,
          -0.013814730054101639,
          -0.4976504871205201
        ],
        [
          -0.0002733881397418068,
          1.676563812130195,
          0.07929992891527032
        ],
        [
          1.570145220369167,
          -1.6064733940974447,
          -1.416451930696655
        ]
      ],
      [
        [
          2.320415031789302,
          -0.024432762146847226,
          0.7431177565337759
        ],
        [
          -0.045129553579701234,
          1.0086052452504992,
          0.03563636691667673
        ],
        [
          -0.5361104091085052,
          0.08884616343291449,
          0.2801203411426091
        ],
        [
          0.8180023653103876,
          0.0038249721360359523,
          0.5804892441360441
        ],
        [
          -0.011617291612860957,
          0.9171826844910427,
          -2.0825391695126307
        ],
        [
          -0.7396177072167877,
          -0.08542762558622594,
          1.231562946532144
        ]
      ],
      [
        [
          -0.15924095038006733,
          -0.03978872810519813,
          0.49681710847340366
        ],
        [
          0.2533161253956131,
          0.060809459288929925,
          0.12097349585598408
        ],
        [
          0.06892775609609274,
          0.11648832529063785,
          0.5739886748909966
        ],
        [
          1.8539155784296888,
          0.26756530614767143,
          0.0555804794692431
        ],
        [
          0.0663122619541313,
          0.002489426310330996,
          0.08788709572540239
        ],
        [
          1.5871567792455115,
          -0.32323641720921303,
          0.38896833349602317
        ]
      ]
    ]
  },
  "metrics": {
    "stage1_min_cost": 0.1705977401565494,
    "stage2_min_cost": 0.07365247005146681,
    "mse_train_noise": 0.04208329887417109,
    "mse_train_recovered": 0.03668610325564753,
    "delta_train_pct": 12.82502979308051,
    "mse_test_noise": 0.03574197205136823,
    "mse_test_recovered": 0.029052538323080482,
    "delta_test_pct": 18.715905542855104,
    "mse_train_recovered_pure": 0.022474127807067503,
    "mse_test_recovered_pure": 0.017781131391736545
  },
  "artifacts": {
    "weights_s1_file": "weights_s1_inst07_L3.npy",
    "weights_s2_file": "weights_s2_inst07_L3.npy",
    "circuit_stage1": "circuit_stage1_6q_4l_2t_stacked_L03_inst07.eps",
    "circuit_stage2": "circuit_stage2_6q_4l_2t_stacked_L03_inst07.eps",
    "circuit_full": "circuit_full_6q_4l_2t_stacked_L3_inst07.eps",
    "training_cost_s1_plot": "training_cost_s1_dec300_enc300_inst07.eps",
    "training_cost_s2_plot": "training_cost_s2_dec300_enc300_inst07.eps",
    "reconstruction_pure_plot": "reconst_pure_dec300_enc300_inst07_L3.eps",
    "reconstruction_noisy_plot": "reconst_noisy_dec300_enc300_inst07_L3.eps"
  }
}