{
  "schema": {
    "name": "stacked_qae_bundle",
    "version": "1.0"
  },
  "timestamp": "2026-02-18 22:10:36",
  "dataset": {
    "id": "mackey_glass_tau30_n200",
    "scale_low": 0.0,
    "scale_high": 1.0,
    "window_size": 6,
    "window_step": 2,
    "split": 0.75
  },
  "run": {
    "instance_id": 6,
    "layer": 3,
    "dec_epochs": 200,
    "enc_epochs": 300,
    "sigma_eval": 0.2,
    "test_seed_fixed": 99123,
    "device_seed": 13050,
    "stage1_time_sec": 68,
    "stage2_time_sec": 269
  },
  "environment": {
    "device": "lightning.qubit",
    "diff_method": "adjoint",
    "interface": "autograd"
  },
  "architecture": {
    "type": "stacked",
    "n_qubits": 6,
    "n_latent": 4,
    "n_trash": 2,
    "rot": "Rxyz"
  },
  "parameters": {
    "weights_stage1": [
      [
        [
          -0.0013994263288924843,
          1.4330952027786517,
          -0.000935431571936276
        ],
        [
          -0.0001913185026192642,
          1.361964566887856,
          -1.5710445019272614
        ],
        [
          0.0017760954324527781,
          1.218478135628025,
          3.148407870073846
        ],
        [
          -0.0009063006250816866,
          1.2472534720299575,
          1.5575525160948438
        ],
        [
          0.0023814139822375398,
          1.3368982384993848,
          0.014862756105407111
        ],
        [
          -1.5708077176938398,
          1.5721997842306283,
          0.2112246342098139
        ]
      ],
      [
        [
          1.361566772711273,
          -0.5298277410863023,
          0.04406530868307076
        ],
        [
          1.5550624279036318,
          0.18015318013889497,
          0.9756763914227851
        ],
        [
          -1.5568569895323403,
          0.2220829146233439,
          0.3456777861046538
        ],
        [
          -1.5644779046234965,
          -0.24276638724986196,
          0.3153924444114003
        ],
        [
          -0.017327478063849322,
          -0.366641277976449,
          -0.7614603162110883
        ],
        [
          0.6509471451480511,
          0.3296300467803733,
          0.5665524287146355
        ]
      ],
      [
        [
          0.10177923117164901,
          0.11127701159887607,
          0.21259338008224274
        ],
        [
          0.1461000616514512,
          0.008362334271335752,
          0.22640432729243326
        ],
        [
          0.9466025113333546,
          -0.039397038136095665,
          0.16765587690659595
        ],
        [
          0.22838132245680312,
          0.21203543336217823,
          0.28353311841842954
        ],
        [
          0.08732139936515365,
          -0.032198815950122875,
          0.012024009676491016
        ],
        [
          0.49782691390534956,
          0.0022996737714857636,
          0.10096771593036977
        ]
      ]
    ],
    "weights_stage2": [
      [
        [
          -1.142516209787979,
          0.07281803928565422,
          -1.3493722883549597
        ],
        [
          0.19970845451186078,
          1.7569087102721663,
          -1.5768491506546078
        ],
        [
          -0.22792406906218599,
          1.6774336562430607,
          3.207241362748359
        ],
        [
          0.20605826184056836,
          1.5043476995480147,
          -1.5813001774702045
        ],
        [
          -1.6292473962851048,
          1.5485340199062991,
          -0.2708349295407342
        ],
        [
          -4.1427718829504,
          0.7616852552374317,
          -0.10294223741154296
        ]
      ],
      [
        [
          1.3884362476904206,
          -0.13637187955639202,
          -1.305386683025327
        ],
        [
          2.474313038428774,
          1.2497212056751155,
          -5.754669357705079
        ],
        [
          -0.7217212859022981,
          -0.6023997136367759,
          -1.065375508753004
        ],
        [
          -1.0087245943992884,
          -0.10519408458538956,
          -1.3052554269715773
        ],
        [
          0.05599209249351362,
          -1.5515215497652197,
          1.6281883387088008
        ],
        [
          1.6781128441132562,
          -0.0928449070343935,
          1.467703618789052
        ]
      ],
      [
        [
          0.7782552832890622,
          0.9325666843295484,
          0.8796135159713924
        ],
        [
          -0.2814832238886619,
          0.17087973082993257,
          -0.047227172534741
        ],
        [
          1.3404673621440022,
          -0.2137028336982416,
          -0.11667970667875864
        ],
        [
          0.1388466336984577,
          -0.7635035787393235,
          0.5422808021199295
        ],
        [
          -0.49270686796466706,
          -0.04180860176953153,
          -0.35182887410114727
        ],
        [
          -0.12381567647079689,
          -0.006695942921789779,
          0.4505107360603797
        ]
      ],
      [
        [
          -0.0013994263288924843,
          0.00041488244220188404,
          -3.8138907107587396
        ],
        [
          -0.00019131853936174198,
          -0.9251484425496812,
          -3.136452150770384
        ],
        [
          0.0017760959220572998,
          1.5139246247747191,
          4.901573757508042
        ],
        [
          -0.0009063008793005296,
          0.008340938296160921,
          1.3715040529305826
        ],
        [
          0.0023814141464573767,
          1.5537171463707395,
          0.12827664284796111
        ],
        [
          -1.5708077172391075,
          1.5691117851649063,
          0.004760570670518645
        ]
      ],
      [
        [
          1.6026656829013732,
          0.005819081147904334,
          -1.6124748716157549
        ],
        [
          -0.0076032607597123205,
          -0.6101412718986498,
          -1.91414856306662
        ],
        [
          -0.8536537674696787,
          -0.014742121970780992,
          -0.5466903864380003
        ],
        [
          -1.5038529199860926,
          -0.007731145190624379,
          -1.6182714520322168
        ],
        [
          -0.004944351339037199,
          -1.5783609410440655,
          1.8023110879748874
        ],
        [
          1.6611550888772753,
          0.0001929659565156151,
          1.6754209443739445
        ]
      ],
      [
        [
          0.13701754315900005,
          -0.07487154134803567,
          -0.4544267558069072
        ],
        [
          -0.8045675668876042,
          0.006589277014224968,
          0.5902572110700747
        ],
        [
          0.706176835269877,
          0.11935940099709058,
          -0.18188714322341223
        ],
        [
          0.5542942496679092,
          0.03745076767626261,
          0.02478543471692751
        ],
        [
          -0.5189140141307054,
          -8.066863567346319e-05,
          0.37587689345412956
        ],
        [
          0.6277214674320112,
          0.013359688373085325,
          -0.24857530419963939
        ]
      ]
    ]
  },
  "metrics": {
    "stage1_min_cost": 0.16570804257333685,
    "stage2_min_cost": 0.06329060883691302,
    "mse_train_noise": 0.04208329887417109,
    "mse_train_recovered": 0.038762230247388486,
    "delta_train_pct": 7.891654683993721,
    "mse_test_noise": 0.03574197205136823,
    "mse_test_recovered": 0.03255734959886202,
    "delta_test_pct": 8.91003565200399,
    "mse_train_recovered_pure": 0.024127545665801067,
    "mse_test_recovered_pure": 0.018931373326805275
  },
  "artifacts": {
    "weights_s1_file": "weights_s1_inst06_L3.npy",
    "weights_s2_file": "weights_s2_inst06_L3.npy",
    "circuit_stage1": "circuit_stage1_6q_4l_2t_stacked_L03_inst06.eps",
    "circuit_stage2": "circuit_stage2_6q_4l_2t_stacked_L03_inst06.eps",
    "circuit_full": "circuit_full_6q_4l_2t_stacked_L3_inst06.eps",
    "training_cost_s1_plot": "training_cost_s1_dec200_enc300_inst06.eps",
    "training_cost_s2_plot": "training_cost_s2_dec200_enc300_inst06.eps",
    "reconstruction_pure_plot": "reconst_pure_dec200_enc300_inst06_L3.eps",
    "reconstruction_noisy_plot": "reconst_noisy_dec200_enc300_inst06_L3.eps"
  }
}