{
  "schema": {
    "name": "stacked_qae_bundle",
    "version": "1.0"
  },
  "timestamp": "2026-02-18 23:55:55",
  "dataset": {
    "id": "mackey_glass_tau30_n200",
    "scale_low": 0.0,
    "scale_high": 1.0,
    "window_size": 6,
    "window_step": 2,
    "split": 0.75
  },
  "run": {
    "instance_id": 1,
    "layer": 3,
    "dec_epochs": 500,
    "enc_epochs": 300,
    "sigma_eval": 0.2,
    "test_seed_fixed": 99123,
    "device_seed": 13045,
    "stage1_time_sec": 174,
    "stage2_time_sec": 271
  },
  "environment": {
    "device": "lightning.qubit",
    "diff_method": "adjoint",
    "interface": "autograd"
  },
  "architecture": {
    "type": "stacked",
    "n_qubits": 6,
    "n_latent": 4,
    "n_trash": 2,
    "rot": "Rxyz"
  },
  "parameters": {
    "weights_stage1": [
      [
        [
          -0.004348601436395803,
          1.432810375222171,
          -0.003633778030041261
        ],
        [
          -0.0013414334593736883,
          1.3617605958898364,
          1.5648463435712865
        ],
        [
          0.0003974734275563818,
          1.2199161615097476,
          0.0019777539646897795
        ],
        [
          -0.000899233601078328,
          1.249571902364034,
          1.5646530451953924
        ],
        [
          0.0033816819422708387,
          1.3372486963445973,
          0.042722436381330664
        ],
        [
          -1.5727441951917454,
          1.571806617154168,
          0.21654663210187974
        ]
      ],
      [
        [
          -1.775816910040118,
          -0.5272278333438902,
          0.026545966972517963
        ],
        [
          1.569780581517454,
          0.1811755926250318,
          -0.48963201660948535
        ],
        [
          1.5748233730887315,
          0.22051953813042255,
          0.9246910313339975
        ],
        [
          -1.5907679103083248,
          -0.24434305924149502,
          0.7958796851241497
        ],
        [
          -0.04380898442500907,
          -0.3681415823431136,
          -0.2618182184437861
        ],
        [
          0.6410217477089174,
          -0.3271139016005867,
          -0.3277103358281859
        ]
      ],
      [
        [
          0.13004702486904154,
          0.030523021434956634,
          0.219165003233265
        ],
        [
          1.7052179213232037,
          -0.021381169889584634,
          0.07624422006609981
        ],
        [
          -1.5297004894479491,
          0.04449053557743863,
          0.07273266105106228
        ],
        [
          0.09323059294657877,
          0.15361492160822682,
          0.053602208093558604
        ],
        [
          0.17069312053042238,
          -0.031383065971319374,
          0.2181759521199555
        ],
        [
          -1.4881885762922844,
          0.014748096937317628,
          0.1863161669382263
        ]
      ]
    ],
    "weights_stage2": [
      [
        [
          -2.010443403051739,
          -0.579899820263056,
          0.16236247976136733
        ],
        [
          -0.32842125016908913,
          1.1654145008335597,
          0.192607097384762
        ],
        [
          0.22270480105172136,
          1.8316624897630749,
          0.02416377856611327
        ],
        [
          0.3417221002742596,
          1.6298011104465948,
          1.6159553769619732
        ],
        [
          1.359778847963847,
          2.044934794614285,
          -0.1451779606592322
        ],
        [
          3.5672547085861828,
          1.4281090114516235,
          -0.1282078194973264
        ]
      ],
      [
        [
          -1.4776790668871789,
          -0.28519554764732485,
          0.6948266836259199
        ],
        [
          3.496969392824761,
          0.9041542763297757,
          -2.0134634653052017
        ],
        [
          -0.17870771300450952,
          1.0057104515038426,
          1.9787856925174208
        ],
        [
          -2.5444448949825067,
          -0.5847376021229227,
          1.5447281172853284
        ],
        [
          0.09298441771260468,
          -1.5248509021632533,
          4.7588778195696575
        ],
        [
          1.645254445824553,
          0.2727645469520631,
          -1.4878463602983645
        ]
      ],
      [
        [
          1.0407334267504638,
          0.3298441841478666,
          0.05506792177255585
        ],
        [
          1.54402110168432,
          -3.8279849428189134,
          1.487563127773024
        ],
        [
          -2.2222599763700046,
          -1.6855159365771037,
          1.1903582535755513
        ],
        [
          0.8078102337780779,
          0.5358716409037422,
          0.3889994407379071
        ],
        [
          0.3421899079158998,
          0.03174919760490714,
          0.2824874758408896
        ],
        [
          -1.507088857042521,
          0.3989339607941256,
          -0.160316048545117
        ]
      ],
      [
        [
          -0.004348601436395803,
          0.2403344234497231,
          -1.5081624619418357
        ],
        [
          -0.001341433254256492,
          0.6588534979766787,
          1.634665923247786
        ],
        [
          0.0003974732693753014,
          1.6446636394151453,
          1.5721794296859457
        ],
        [
          -0.0008992337404593708,
          1.6443312992518662,
          1.5556644326156035
        ],
        [
          0.0033816813919844715,
          1.4462965981823772,
          0.10558574113025851
        ],
        [
          -1.5727441950569467,
          1.612416403720184,
          -0.0053045318605389555
        ]
      ],
      [
        [
          -1.0429352683163213,
          -0.03679821451514162,
          0.3073172671106957
        ],
        [
          1.5050034157370993,
          0.6070623248951234,
          0.005269163200663521
        ],
        [
          1.0190451731384287,
          0.865168196947237,
          1.9332773060440536
        ],
        [
          -0.9742266361140037,
          -0.5836514871983918,
          -0.4807651447686545
        ],
        [
          -0.0013677831529172787,
          -1.4827624845427745,
          -3.2779551472837736
        ],
        [
          1.201165636708206,
          0.007113758655913901,
          -1.237572792106414
        ]
      ],
      [
        [
          0.7871088731031397,
          0.17302862546091746,
          0.383262084693972
        ],
        [
          3.6146285510836553,
          0.2955729978613512,
          0.011932696345164182
        ],
        [
          -1.8507475883334361,
          -0.14158037739159451,
          0.4193648765344081
        ],
        [
          0.4961597465053529,
          1.2383843312715817,
          -0.2817950245507936
        ],
        [
          0.008004578466517592,
          0.007538534181690359,
          0.15386442839902303
        ],
        [
          -1.5817554169462165,
          0.5147995035856585,
          0.5329483824215691
        ]
      ]
    ]
  },
  "metrics": {
    "stage1_min_cost": 0.16566124055764933,
    "stage2_min_cost": 0.06870729785759037,
    "mse_train_noise": 0.04208329887417109,
    "mse_train_recovered": 0.04330534259937966,
    "delta_train_pct": -2.903868655502695,
    "mse_test_noise": 0.03574197205136823,
    "mse_test_recovered": 0.03925360994037751,
    "delta_test_pct": -9.824969601460044,
    "mse_train_recovered_pure": 0.027838068219880482,
    "mse_test_recovered_pure": 0.021833972644964596
  },
  "artifacts": {
    "weights_s1_file": "weights_s1_inst01_L3.npy",
    "weights_s2_file": "weights_s2_inst01_L3.npy",
    "circuit_stage1": "circuit_stage1_6q_4l_2t_stacked_L03_inst01.eps",
    "circuit_stage2": "circuit_stage2_6q_4l_2t_stacked_L03_inst01.eps",
    "circuit_full": "circuit_full_6q_4l_2t_stacked_L3_inst01.eps",
    "training_cost_s1_plot": "training_cost_s1_dec500_enc300_inst01.eps",
    "training_cost_s2_plot": "training_cost_s2_dec500_enc300_inst01.eps",
    "reconstruction_pure_plot": "reconst_pure_dec500_enc300_inst01_L3.eps",
    "reconstruction_noisy_plot": "reconst_noisy_dec500_enc300_inst01_L3.eps"
  }
}