{
  "schema": {
    "name": "stacked_qae_bundle",
    "version": "1.0"
  },
  "timestamp": "2026-02-19 00:33:31",
  "dataset": {
    "id": "mackey_glass_tau30_n200",
    "scale_low": 0.0,
    "scale_high": 1.0,
    "window_size": 6,
    "window_step": 2,
    "split": 0.75
  },
  "run": {
    "instance_id": 6,
    "layer": 3,
    "dec_epochs": 500,
    "enc_epochs": 300,
    "sigma_eval": 0.2,
    "test_seed_fixed": 99123,
    "device_seed": 13050,
    "stage1_time_sec": 175,
    "stage2_time_sec": 272
  },
  "environment": {
    "device": "lightning.qubit",
    "diff_method": "adjoint",
    "interface": "autograd"
  },
  "architecture": {
    "type": "stacked",
    "n_qubits": 6,
    "n_latent": 4,
    "n_trash": 2,
    "rot": "Rxyz"
  },
  "parameters": {
    "weights_stage1": [
      [
        [
          -0.003158579868623069,
          1.4342597578859828,
          -0.002233324572736055
        ],
        [
          -0.001027563378390796,
          1.3626185121471122,
          -1.5741266440793453
        ],
        [
          0.001650317435207153,
          1.2198828004764777,
          3.1494935555826595
        ],
        [
          -0.0013877608625512065,
          1.2492974333657842,
          1.5612190782596602
        ],
        [
          0.0038307582473291004,
          1.3377095731605952,
          0.05380217092881811
        ],
        [
          -1.5718380033561399,
          1.572538700550327,
          0.21432085774436405
        ]
      ],
      [
        [
          1.364009055571743,
          -0.5283493465922781,
          -0.03845287252944249
        ],
        [
          1.569873411162742,
          0.1804755797000523,
          1.3686633442216554
        ],
        [
          -1.5644358483429732,
          0.22103647112201635,
          0.7656622248986513
        ],
        [
          -1.5958202478147618,
          -0.24401057800916784,
          -0.47812352206624714
        ],
        [
          -0.054330348512430876,
          -0.367972295658384,
          -0.41491276541189687
        ],
        [
          0.645358893396474,
          0.3281415829022537,
          0.670616722210442
        ]
      ],
      [
        [
          0.10177923117588054,
          0.11127701160104453,
          0.21259338003818232
        ],
        [
          1.2938034282705533,
          0.018683973211752955,
          0.22640432718411874
        ],
        [
          1.4573212580049009,
          -0.04299712700734466,
          0.1676558767393556
        ],
        [
          0.2283813225824584,
          0.21203543330842356,
          0.28353311851365437
        ],
        [
          0.1638545502054968,
          -0.028019992124392035,
          0.012024009600910752
        ],
        [
          0.628058095809709,
          0.011512882252121525,
          0.10096771590188777
        ]
      ]
    ],
    "weights_stage2": [
      [
        [
          -4.752673864341488,
          -0.6919729720591747,
          0.2452797075436551
        ],
        [
          -1.1598336261796691,
          2.7785921085957157,
          -3.0659119621394497
        ],
        [
          -1.0656720857014987,
          1.0894996674453339,
          3.174961698152427
        ],
        [
          0.45795529275929064,
          0.03450282271652306,
          1.0255808300456895
        ],
        [
          -0.06914831876865601,
          0.8795854221275254,
          2.191215267682558
        ],
        [
          1.468669945568688,
          1.742804272378951,
          -0.13682890634436054
        ]
      ],
      [
        [
          1.484349876106914,
          0.5229708884585612,
          1.4161028943935692
        ],
        [
          1.0823624641915226,
          0.8199426065425827,
          0.8228769875852072
        ],
        [
          -1.3987993442355475,
          0.7121862923754347,
          -0.04288467469754356
        ],
        [
          -1.531621653318062,
          0.04066851917833543,
          -1.4716985673826686
        ],
        [
          -0.5273802433434176,
          -0.8622795180760024,
          -0.5514497798766298
        ],
        [
          1.6952737815451262,
          0.20480858789425596,
          -0.24373373924281175
        ]
      ],
      [
        [
          0.6804938411258633,
          -0.5894837825340342,
          -0.5641253302664443
        ],
        [
          2.183911286015758,
          1.8090243201675655,
          2.0187293668844815
        ],
        [
          1.8439811507542798,
          -1.388228454638013,
          1.470183250515965
        ],
        [
          -0.10252103345982683,
          0.13274490039951933,
          0.2130412381193973
        ],
        [
          -1.0692144655125715,
          0.4907854101339081,
          -0.20888542704729837
        ],
        [
          0.35640078378626383,
          -0.4702843220655804,
          -0.16975663611508376
        ]
      ],
      [
        [
          -0.003158579868623069,
          0.07963173979913364,
          -0.5811147595207595
        ],
        [
          -0.0010275633247396594,
          -0.01741128937943895,
          0.7208018288317285
        ],
        [
          0.0016503171472960422,
          1.2168581562108747,
          3.0475363668447932
        ],
        [
          -0.0013877610173530827,
          -0.20394084300870957,
          1.5769637424606717
        ],
        [
          0.0038307579087911723,
          1.4636481244705621,
          -0.011263584466374647
        ],
        [
          -1.5718380034229278,
          1.4980144522723853,
          0.023993091179890937
        ]
      ],
      [
        [
          2.2782408686798146,
          0.014492147319648112,
          0.3999917655354284
        ],
        [
          -2.3569996558272623,
          0.03894678183329072,
          1.3826698561734618
        ],
        [
          -1.7205066058553995,
          0.011469201083285165,
          0.11313655660464073
        ],
        [
          -1.3556214010476828,
          0.23926800378316365,
          -1.4805647055890876
        ],
        [
          -0.007361038107670699,
          -1.5003750735155512,
          1.8767126107439525
        ],
        [
          1.0399633665788557,
          0.003546666526837045,
          0.45476940465162347
        ]
      ],
      [
        [
          -0.6398055705781431,
          0.4052256300112869,
          0.9893120903428142
        ],
        [
          1.465640746953216,
          0.047380880594248324,
          0.4473137638323254
        ],
        [
          1.0834448247703516,
          0.05443667457805781,
          0.43838022875632515
        ],
        [
          0.07166187075271449,
          0.11183836102092212,
          0.35402499890790806
        ],
        [
          0.18740301281170105,
          -0.0034911097003561386,
          0.23293344624911907
        ],
        [
          0.5360294837729078,
          0.04069066754744706,
          0.37169206791885895
        ]
      ]
    ]
  },
  "metrics": {
    "stage1_min_cost": 0.16567267148491627,
    "stage2_min_cost": 0.08493318147299789,
    "mse_train_noise": 0.04208329887417109,
    "mse_train_recovered": 0.04369923164354552,
    "delta_train_pct": -3.8398433882430805,
    "mse_test_noise": 0.03574197205136823,
    "mse_test_recovered": 0.0401944346446689,
    "delta_test_pct": -12.457238192961494,
    "mse_train_recovered_pure": 0.028641185546720092,
    "mse_test_recovered_pure": 0.022551039003338793
  },
  "artifacts": {
    "weights_s1_file": "weights_s1_inst06_L3.npy",
    "weights_s2_file": "weights_s2_inst06_L3.npy",
    "circuit_stage1": "circuit_stage1_6q_4l_2t_stacked_L03_inst06.eps",
    "circuit_stage2": "circuit_stage2_6q_4l_2t_stacked_L03_inst06.eps",
    "circuit_full": "circuit_full_6q_4l_2t_stacked_L3_inst06.eps",
    "training_cost_s1_plot": "training_cost_s1_dec500_enc300_inst06.eps",
    "training_cost_s2_plot": "training_cost_s2_dec500_enc300_inst06.eps",
    "reconstruction_pure_plot": "reconst_pure_dec500_enc300_inst06_L3.eps",
    "reconstruction_noisy_plot": "reconst_noisy_dec500_enc300_inst06_L3.eps"
  }
}