{
  "schema": {
    "name": "stacked_qae_bundle",
    "version": "1.0"
  },
  "timestamp": "2026-02-18 21:53:39",
  "dataset": {
    "id": "mackey_glass_tau30_n200",
    "scale_low": 0.0,
    "scale_high": 1.0,
    "window_size": 6,
    "window_step": 2,
    "split": 0.75
  },
  "run": {
    "instance_id": 3,
    "layer": 3,
    "dec_epochs": 200,
    "enc_epochs": 300,
    "sigma_eval": 0.2,
    "test_seed_fixed": 99123,
    "device_seed": 13047,
    "stage1_time_sec": 68,
    "stage2_time_sec": 269
  },
  "environment": {
    "device": "lightning.qubit",
    "diff_method": "adjoint",
    "interface": "autograd"
  },
  "architecture": {
    "type": "stacked",
    "n_qubits": 6,
    "n_latent": 4,
    "n_trash": 2,
    "rot": "Rxyz"
  },
  "parameters": {
    "weights_stage1": [
      [
        [
          0.0729244025223624,
          -0.22436055919530828,
          -0.07650471416445455
        ],
        [
          -0.01957756031167888,
          1.0999986370981976,
          -0.09572405103119462
        ],
        [
          -0.027999829982649806,
          0.9911690689800321,
          0.11512736615452265
        ],
        [
          0.06722619125778939,
          1.123200686938127,
          0.9659959090552857
        ],
        [
          0.003353619587693798,
          0.3646091141406553,
          1.539861954749293
        ],
        [
          1.5893891444074228,
          -1.6265934213279238,
          -1.4698780949505212
        ]
      ],
      [
        [
          -0.0404174206623441,
          0.0001223163213523534,
          0.08096333895229321
        ],
        [
          0.6213190125938864,
          -0.000202658688113367,
          -0.6146932582135272
        ],
        [
          0.03385083053867197,
          0.0011405502664329815,
          -0.03310048462679012
        ],
        [
          -0.14115399209459245,
          -0.01009423182692169,
          0.13579559773257824
        ],
        [
          -0.9856614278950188,
          0.014796407318676664,
          0.9872280233149933
        ],
        [
          0.06451829685313056,
          -0.00413848600212797,
          -0.05585802880714803
        ]
      ],
      [
        [
          0.259309227805627,
          0.24191232059444953,
          0.2893004630297951
        ],
        [
          0.44650307173388176,
          1.574900071132099,
          0.017625580064566396
        ],
        [
          -0.015620898909647624,
          -1.5801430309803908,
          0.005334225461822772
        ],
        [
          0.1298164243213554,
          0.24602091141682556,
          0.2550432889724081
        ],
        [
          0.016689444098712276,
          1.5727701683706958,
          0.14174489982126115
        ],
        [
          -0.0026176667131593816,
          1.5833546438119277,
          0.1389845958354442
        ]
      ]
    ],
    "weights_stage2": [
      [
        [
          -2.6672168099582048,
          -1.3822308898982816,
          0.16565977100939233
        ],
        [
          1.5263223858039991,
          0.6472725034221058,
          -0.01972704716349821
        ],
        [
          1.5792284961330447,
          -0.05572005290849787,
          0.18949818816739292
        ],
        [
          2.8465222538606243,
          -0.13101667247291546,
          1.2573013485687283
        ],
        [
          -1.7000700565121203,
          -0.5188519856882678,
          3.471536875581467
        ],
        [
          -0.31121711093588095,
          -1.4929407355918827,
          -0.07493305681418057
        ]
      ],
      [
        [
          1.5470063730659749,
          0.6534414377580776,
          -1.5923650014888662
        ],
        [
          3.60608862714329,
          0.02993308510181763,
          1.28725157895484
        ],
        [
          0.3424710460692293,
          -0.15614005505890438,
          1.66777180001896
        ],
        [
          0.7272924438701098,
          0.11086492450093069,
          -0.8076888122953197
        ],
        [
          -1.2725260104452731,
          -1.073841572368091,
          -1.5349334496957099
        ],
        [
          -1.002573745765942,
          -0.018748906088742502,
          0.8533903878455678
        ]
      ],
      [
        [
          4.226488099514329,
          0.3541331916191036,
          1.3157481777384856
        ],
        [
          1.2097622333560554,
          1.7366299466206978,
          0.4071893078971311
        ],
        [
          -1.0401332811294506,
          -1.2478528246042906,
          0.16375299340785018
        ],
        [
          -1.7382321038329454,
          -0.0053349291758987265,
          -2.558588733603064
        ],
        [
          -3.484117425188201,
          2.125768645789795,
          -0.003458038173147237
        ],
        [
          0.5127253110489697,
          2.012676361079746,
          0.29574241553919406
        ]
      ],
      [
        [
          0.0729244025223624,
          -1.477794519499084,
          1.5135476513523098
        ],
        [
          -0.019577559814464105,
          0.728001068414834,
          -3.052496212917954
        ],
        [
          -0.027999829848803767,
          -0.4367022727116148,
          -3.322574475311478
        ],
        [
          0.067226192772515,
          -0.08336986660860289,
          4.636259981630023
        ],
        [
          0.0033536200946465543,
          0.42208155104072764,
          1.9195709921924926
        ],
        [
          1.5893891446976205,
          -1.5828295213353316,
          -1.549608493379899
        ]
      ],
      [
        [
          0.7161223442179622,
          0.1995413330814954,
          -0.9463534001942315
        ],
        [
          -0.840938948743036,
          0.021870820963204293,
          -0.5818206934685513
        ],
        [
          1.0423700857394846,
          0.7459214879542567,
          -1.5271656495740322
        ],
        [
          -0.27949963179911136,
          -0.026883899944635234,
          0.26116634124782123
        ],
        [
          -1.8255156807796347,
          -0.586989313166369,
          1.7259709808049635
        ],
        [
          -0.04647730294832351,
          0.11413368465119608,
          0.03047534669610121
        ]
      ],
      [
        [
          -0.7740715872149391,
          -0.4341747402436031,
          -0.7371472516788946
        ],
        [
          1.1256219243607495,
          1.5396236644501093,
          0.16282851805897386
        ],
        [
          -0.09056496291397552,
          -1.555346416725239,
          -0.15142359424192767
        ],
        [
          0.381287858705374,
          -0.13094080949775855,
          3.0686753115478806
        ],
        [
          -0.06731473393357792,
          1.54482669733893,
          0.2869478378156698
        ],
        [
          -0.04960240178110008,
          1.536137022385983,
          -0.017773223868305186
        ]
      ]
    ]
  },
  "metrics": {
    "stage1_min_cost": 0.11241966150156646,
    "stage2_min_cost": 0.0548733906446148,
    "mse_train_noise": 0.04208329887417109,
    "mse_train_recovered": 0.02948618361554209,
    "delta_train_pct": 29.933763739136342,
    "mse_test_noise": 0.03574197205136823,
    "mse_test_recovered": 0.02380309558626367,
    "delta_test_pct": 33.40295954556187,
    "mse_train_recovered_pure": 0.004641509245195343,
    "mse_test_recovered_pure": 0.005923512594512166
  },
  "artifacts": {
    "weights_s1_file": "weights_s1_inst03_L3.npy",
    "weights_s2_file": "weights_s2_inst03_L3.npy",
    "circuit_stage1": "circuit_stage1_6q_4l_2t_stacked_L03_inst03.eps",
    "circuit_stage2": "circuit_stage2_6q_4l_2t_stacked_L03_inst03.eps",
    "circuit_full": "circuit_full_6q_4l_2t_stacked_L3_inst03.eps",
    "training_cost_s1_plot": "training_cost_s1_dec200_enc300_inst03.eps",
    "training_cost_s2_plot": "training_cost_s2_dec200_enc300_inst03.eps",
    "reconstruction_pure_plot": "reconst_pure_dec200_enc300_inst03_L3.eps",
    "reconstruction_noisy_plot": "reconst_noisy_dec200_enc300_inst03_L3.eps"
  }
}