{
  "schema": {
    "name": "stacked_qae_bundle",
    "version": "1.0"
  },
  "timestamp": "2026-02-18 21:21:27",
  "dataset": {
    "id": "mackey_glass_tau30_n200",
    "scale_low": 0.0,
    "scale_high": 1.0,
    "window_size": 6,
    "window_step": 2,
    "split": 0.75
  },
  "run": {
    "instance_id": 4,
    "layer": 3,
    "dec_epochs": 100,
    "enc_epochs": 300,
    "sigma_eval": 0.2,
    "test_seed_fixed": 99123,
    "device_seed": 13048,
    "stage1_time_sec": 34,
    "stage2_time_sec": 268
  },
  "environment": {
    "device": "lightning.qubit",
    "diff_method": "adjoint",
    "interface": "autograd"
  },
  "architecture": {
    "type": "stacked",
    "n_qubits": 6,
    "n_latent": 4,
    "n_trash": 2,
    "rot": "Rxyz"
  },
  "parameters": {
    "weights_stage1": [
      [
        [
          -0.007500392513327945,
          1.3026654306354735,
          0.0040837868550911765
        ],
        [
          0.001920351036162795,
          1.2623447686826978,
          0.3454554150109839
        ],
        [
          -0.005130434240869769,
          1.1991797115205731,
          1.3080366425517072
        ],
        [
          0.010756585806472948,
          1.2319911373094006,
          1.1915969393960681
        ],
        [
          -0.01606328531262857,
          1.4116585295645545,
          -0.17257566043805453
        ],
        [
          -0.05222476356798107,
          1.7260357666826238,
          0.014440290995298213
        ]
      ],
      [
        [
          -0.29749168104651685,
          -0.33239115688913995,
          1.560676347972894
        ],
        [
          1.5953021313020233,
          0.16649162485852342,
          0.21095229523730383
        ],
        [
          0.5849616599902688,
          0.19119635081744613,
          -0.21899259942677227
        ],
        [
          -0.9501648093301454,
          -0.2472933990765495,
          0.7240446705851279
        ],
        [
          0.1418102121119755,
          -0.42414728260207146,
          0.07024270750958544
        ],
        [
          0.016119610954738604,
          -0.11878922512328514,
          0.22211417026592462
        ]
      ],
      [
        [
          0.14891701568687235,
          0.13861431507881525,
          0.26054751703432
        ],
        [
          -0.3349029030260194,
          -0.01667208006480273,
          0.2771932721171945
        ],
        [
          0.4766070952869896,
          -0.04805569568169191,
          0.17416317211394075
        ],
        [
          0.040069803539372666,
          0.3016307763507626,
          0.02753843005731681
        ],
        [
          -0.0840620214722991,
          0.020278750959266012,
          0.1743046985282836
        ],
        [
          0.441165649309141,
          -0.0011951044453800993,
          0.028030159682519127
        ]
      ]
    ],
    "weights_stage2": [
      [
        [
          -1.5782285656014197,
          0.22974546601832624,
          0.164122985675874
        ],
        [
          -1.4734517234884295,
          2.465443066269784,
          -0.10273700613572885
        ],
        [
          -2.80527055021465,
          1.6314184233707278,
          1.140300723196536
        ],
        [
          -0.02134974946888485,
          1.5697568800730883,
          1.5677297986969354
        ],
        [
          -1.8446959291632448,
          1.5252058756337215,
          -0.08557405330667317
        ],
        [
          -1.6731226494327855,
          1.5871302776917167,
          -1.570492633724173
        ]
      ],
      [
        [
          -1.5627065590051712,
          -0.3520758492514504,
          1.676939116202893
        ],
        [
          5.059500305216819,
          -0.5548961703095722,
          6.189256856786418
        ],
        [
          1.4478204210347938,
          1.7093761442249185,
          -0.9651777635181104
        ],
        [
          -0.43053605027648967,
          -1.4330758021822163,
          -2.038731165595294
        ],
        [
          0.03998428594098486,
          -0.9269992591706857,
          -1.4607107721951889
        ],
        [
          -1.3314687896522681,
          0.02303294752036352,
          -1.2001200106302627
        ]
      ],
      [
        [
          0.6410501747260273,
          -0.5630498873332861,
          0.9223346871692759
        ],
        [
          -1.0492856838881457,
          0.6138064265083163,
          0.982183914872344
        ],
        [
          -0.1629785831809207,
          -1.2093984731018144,
          1.7063033483132957
        ],
        [
          0.7430989502892783,
          0.6107695451368654,
          0.6777059553726619
        ],
        [
          0.468523763557368,
          -0.23014791804648455,
          -0.37219055711856774
        ],
        [
          -1.3591322437856828,
          0.30035111410100374,
          0.41780152922344554
        ]
      ],
      [
        [
          -0.007500392513327945,
          0.050220382456725124,
          1.8805586360763475
        ],
        [
          0.0019203511410886673,
          1.01951020503195,
          6.279080859659714
        ],
        [
          -0.0051304340503520235,
          1.5459516942914346,
          3.162902941160788
        ],
        [
          0.010756586008623503,
          -0.14475643824608878,
          1.2413257740324692
        ],
        [
          -0.016063285422577782,
          1.5882634847411752,
          0.01990316195684218
        ],
        [
          -0.05222476253942848,
          1.4793602165914888,
          0.029122678430231926
        ]
      ],
      [
        [
          -1.351251595049494,
          -0.0625406922404864,
          1.4479759116117092
        ],
        [
          -3.124186975545952,
          -1.0371783204647305,
          -3.2059469479443523
        ],
        [
          1.6036643462441027,
          -0.34857718409859123,
          -1.587460571946989
        ],
        [
          -1.6951663510528294,
          0.3296692185346797,
          0.6344791279757656
        ],
        [
          0.012566857816433599,
          -1.5615931082852814,
          -1.4591184376018527
        ],
        [
          -1.7900480198488227,
          -0.00607158637571343,
          -1.4019513946731983
        ]
      ],
      [
        [
          0.6111012436091314,
          0.5845961712216278,
          -0.40123965310063714
        ],
        [
          -1.049394941927345,
          0.0392095175615875,
          0.8236885277640456
        ],
        [
          -0.10778590006555748,
          -0.0543801787394296,
          -0.2156081974269866
        ],
        [
          0.478033287949903,
          0.8703003659113655,
          -0.622629095258029
        ],
        [
          0.5330233203684094,
          -0.002811545701293619,
          0.7207999541751334
        ],
        [
          0.4406936612991107,
          -0.0932609826256816,
          -0.3617412098584093
        ]
      ]
    ]
  },
  "metrics": {
    "stage1_min_cost": 0.1736972415365392,
    "stage2_min_cost": 0.06223592931633894,
    "mse_train_noise": 0.04208329887417109,
    "mse_train_recovered": 0.03858585976129682,
    "delta_train_pct": 8.310753211937117,
    "mse_test_noise": 0.03574197205136823,
    "mse_test_recovered": 0.03326294946370528,
    "delta_test_pct": 6.935886425349191,
    "mse_train_recovered_pure": 0.026448883846135647,
    "mse_test_recovered_pure": 0.019318539461795955
  },
  "artifacts": {
    "weights_s1_file": "weights_s1_inst04_L3.npy",
    "weights_s2_file": "weights_s2_inst04_L3.npy",
    "circuit_stage1": "circuit_stage1_6q_4l_2t_stacked_L03_inst04.eps",
    "circuit_stage2": "circuit_stage2_6q_4l_2t_stacked_L03_inst04.eps",
    "circuit_full": "circuit_full_6q_4l_2t_stacked_L3_inst04.eps",
    "training_cost_s1_plot": "training_cost_s1_dec100_enc300_inst04.eps",
    "training_cost_s2_plot": "training_cost_s2_dec100_enc300_inst04.eps",
    "reconstruction_pure_plot": "reconst_pure_dec100_enc300_inst04_L3.eps",
    "reconstruction_noisy_plot": "reconst_noisy_dec100_enc300_inst04_L3.eps"
  }
}