{
  "schema": {
    "name": "stacked_qae_bundle",
    "version": "1.0"
  },
  "timestamp": "2026-02-18 23:34:45",
  "dataset": {
    "id": "mackey_glass_tau30_n200",
    "scale_low": 0.0,
    "scale_high": 1.0,
    "window_size": 6,
    "window_step": 2,
    "split": 0.75
  },
  "run": {
    "instance_id": 5,
    "layer": 3,
    "dec_epochs": 400,
    "enc_epochs": 300,
    "sigma_eval": 0.2,
    "test_seed_fixed": 99123,
    "device_seed": 13049,
    "stage1_time_sec": 139,
    "stage2_time_sec": 271
  },
  "environment": {
    "device": "lightning.qubit",
    "diff_method": "adjoint",
    "interface": "autograd"
  },
  "architecture": {
    "type": "stacked",
    "n_qubits": 6,
    "n_latent": 4,
    "n_trash": 2,
    "rot": "Rxyz"
  },
  "parameters": {
    "weights_stage1": [
      [
        [
          0.004799464018812529,
          1.4341979203199533,
          0.002439308044461946
        ],
        [
          0.0015044669897294877,
          1.36247803974348,
          -1.5669950086546964
        ],
        [
          -0.0012517946533194939,
          1.2199476990335933,
          -0.009548785540886454
        ],
        [
          0.0014909983848530935,
          1.2495259864453327,
          -1.5613093281684738
        ],
        [
          -0.004095943610439729,
          1.3377212630107378,
          -0.06248909389097881
        ],
        [
          1.572105524457158,
          1.572634502896108,
          -0.21482220151809683
        ]
      ],
      [
        [
          1.7757609714088727,
          -0.5275982176645564,
          0.05250518128268301
        ],
        [
          1.5713039404200193,
          -0.1809097661776207,
          1.836575730736148
        ],
        [
          1.5665234794213185,
          -0.22100474516515983,
          -0.8761759891094031
        ],
        [
          1.6025006103112722,
          -0.24411759557724202,
          0.6683349487220267
        ],
        [
          0.06223705612906212,
          -0.3682147335767545,
          0.3211101930372323
        ],
        [
          -0.6423827766217071,
          -0.3272591815483151,
          -1.0387667571742951
        ]
      ],
      [
        [
          0.3087063780610484,
          0.0480574532219061,
          0.2505631871934622
        ],
        [
          -1.4013440091835105,
          0.018029191571034667,
          0.1713007163792189
        ],
        [
          1.5913570023185877,
          -0.044782342186927615,
          0.17347192693949331
        ],
        [
          0.024080317874146665,
          0.02665180992571671,
          0.02451338086629354
        ],
        [
          -0.18623449517247145,
          0.025637150951728298,
          0.14466523559067931
        ],
        [
          -0.25693155815101404,
          -0.014633316277586612,
          0.11712418414216559
        ]
      ]
    ],
    "weights_stage2": [
      [
        [
          -2.721004529896813,
          -0.12156144089584374,
          1.6596506059742142
        ],
        [
          1.0735809057247496,
          1.3384319403238782,
          0.34299967732940456
        ],
        [
          -0.8103262629622768,
          1.8396676021383263,
          -0.07510841350879657
        ],
        [
          -3.187963294341269,
          -1.3810264075333714,
          -4.813105831579775
        ],
        [
          1.391537175901404,
          0.37661544269925373,
          0.2745373837181237
        ],
        [
          4.63547197758409,
          1.4831919766268944,
          -0.04355368854859905
        ]
      ],
      [
        [
          1.5736491150758591,
          0.45075506861090386,
          1.64985784069732
        ],
        [
          3.244908367589863,
          0.5406753801618671,
          11.075203716546376
        ],
        [
          2.5468548514653033,
          -0.6936430325303781,
          -1.3711816792799805
        ],
        [
          2.5643849908950873,
          -0.2627160760016054,
          1.529576478326512
        ],
        [
          -0.15164267397561465,
          -1.562266551571209,
          0.4346787251865279
        ],
        [
          -1.257741549909279,
          -0.15962173005560706,
          -1.9006723141143997
        ]
      ],
      [
        [
          -0.03945058127652153,
          -0.6959067411252561,
          -0.48385064170221354
        ],
        [
          -2.1218767008360486,
          1.5775676071846312,
          -1.7377424290552614
        ],
        [
          1.5134289224142605,
          -1.8264980283844048,
          1.5579349857213944
        ],
        [
          -1.3918868702019433,
          0.5881307797931994,
          0.5569167351107172
        ],
        [
          0.654431519151954,
          0.002312114148516892,
          0.34985963565340233
        ],
        [
          -0.40908530280625155,
          -0.02662286355650203,
          -0.06941308307124243
        ]
      ],
      [
        [
          0.004799464018812529,
          0.03663375682748726,
          3.2298522966367247
        ],
        [
          0.0015044669002642636,
          -0.88242561411803,
          -9.403160069582086
        ],
        [
          -0.0012517945812870004,
          1.6271810497058767,
          -1.027036541870749
        ],
        [
          0.0014909979348031396,
          0.10996270018085692,
          -5.1135859110840505
        ],
        [
          -0.00409594440914251,
          1.5760589605037734,
          0.010039844233892474
        ],
        [
          1.5721055240153066,
          1.5326738216770006,
          -0.004104940211229508
        ]
      ],
      [
        [
          2.0996725987400064,
          -0.0060634658980094815,
          0.9540619916505096
        ],
        [
          0.004879168366843304,
          -0.6326403546808481,
          -1.4060343140939078
        ],
        [
          2.348208615484374,
          0.07051696662535054,
          -0.5257276597797682
        ],
        [
          0.2666527346335416,
          -0.027666387933037773,
          2.977739684554532
        ],
        [
          -0.007106253907786212,
          -1.5695328248944793,
          -2.2668647028839617
        ],
        [
          -1.5346217263474484,
          0.0030503548790038267,
          -1.3085247276537015
        ]
      ],
      [
        [
          -0.8007608008685244,
          -0.7828437982368576,
          0.9849770160891371
        ],
        [
          -1.3914234356990378,
          0.00929705341538901,
          -0.03389368368350079
        ],
        [
          1.725524450900844,
          0.004734933118660984,
          0.36000919415290517
        ],
        [
          -0.602434130776777,
          1.0467631918092095,
          -0.5078899733781298
        ],
        [
          -0.0145006331487143,
          0.009018044494371276,
          -0.0605291644720425
        ],
        [
          -0.4324157894199063,
          0.09315532304354128,
          0.3036614513555738
        ]
      ]
    ]
  },
  "metrics": {
    "stage1_min_cost": 0.16567052564276852,
    "stage2_min_cost": 0.07207950735571592,
    "mse_train_noise": 0.04208329887417109,
    "mse_train_recovered": 0.04144814819256439,
    "delta_train_pct": 1.509270182230238,
    "mse_test_noise": 0.03574197205136823,
    "mse_test_recovered": 0.03804071503405093,
    "delta_test_pct": -6.431494544786043,
    "mse_train_recovered_pure": 0.02721084496891241,
    "mse_test_recovered_pure": 0.02141637641827773
  },
  "artifacts": {
    "weights_s1_file": "weights_s1_inst05_L3.npy",
    "weights_s2_file": "weights_s2_inst05_L3.npy",
    "circuit_stage1": "circuit_stage1_6q_4l_2t_stacked_L03_inst05.eps",
    "circuit_stage2": "circuit_stage2_6q_4l_2t_stacked_L03_inst05.eps",
    "circuit_full": "circuit_full_6q_4l_2t_stacked_L3_inst05.eps",
    "training_cost_s1_plot": "training_cost_s1_dec400_enc300_inst05.eps",
    "training_cost_s2_plot": "training_cost_s2_dec400_enc300_inst05.eps",
    "reconstruction_pure_plot": "reconst_pure_dec400_enc300_inst05_L3.eps",
    "reconstruction_noisy_plot": "reconst_noisy_dec400_enc300_inst05_L3.eps"
  }
}