{
  "schema": {
    "name": "full_qae_bundle",
    "version": "1.0"
  },
  "timestamp": "2025-09-16 14:31:12",
  "dataset": {
    "id": "mackey_glass_tau30_n200",
    "scale_low": 0.2,
    "scale_high": 0.8,
    "window_size": 4,
    "window_step": 2,
    "split": 0.75
  },
  "run": {
    "instance_id": 1,
    "layer": 3,
    "sigma_eval": 0.2,
    "test_seed_fixed": 99123
  },
  "environment": {
    "device": "default.qubit",
    "diff_method": "best",
    "reset_mode": "swap"
  },
  "architecture": {
    "n_qubits": 4,
    "n_latent": 2,
    "n_trash": 2,
    "n_extra": 0,
    "rot": "Rxyz"
  },
  "parameters": {
    "weights": [
      [
        [
          0.1530106174217049,
          1.547049846701145,
          -0.06669549374974454
        ],
        [
          0.9252345587019759,
          -0.18190406652380206,
          1.1922486750155787
        ],
        [
          -0.21897169763286808,
          -0.4568648498692531,
          0.19703490813191907
        ],
        [
          -0.5329256210636593,
          0.17722350160919204,
          -0.0025877037024434916
        ]
      ],
      [
        [
          -0.01771408630535338,
          -0.122149676779819,
          -0.16287348264998713
        ],
        [
          0.5735609802888402,
          1.053492020154061,
          0.6990649963925806
        ],
        [
          0.44506125744342856,
          -0.7096571379704821,
          0.3315806826681655
        ],
        [
          -0.41895181002902293,
          0.5084741536063899,
          0.4859076058948884
        ]
      ],
      [
        [
          0.4030330707542225,
          0.07800177036072585,
          0.5121714158453157
        ],
        [
          0.7274884571248428,
          1.0960002223579275,
          0.17575700251757925
        ],
        [
          -0.4648114253332699,
          0.07653360031683563,
          0.21088146913977726
        ],
        [
          1.1031541741154793,
          1.487867838260719,
          0.8801027242772641
        ]
      ],
      [
        [
          0.05016663778293308,
          -0.5344779293479818,
          0.048039019641282536
        ],
        [
          0.11238554446784693,
          1.050177648882665,
          1.444156292760173
        ],
        [
          0.08785492557713391,
          1.4647475617122563,
          0.6465804028608867
        ],
        [
          0.2931770439368926,
          1.7164767526056033,
          1.5824999029685782
        ]
      ],
      [
        [
          0.26444167071204894,
          -0.17295488815365126,
          0.33362342088806285
        ],
        [
          1.5293641287249529,
          0.6966355924644935,
          -0.4734747785730666
        ],
        [
          0.8920718196842132,
          1.1775604281768959,
          0.2833930239315187
        ],
        [
          0.8214943810983508,
          -0.32225058391899397,
          0.508079662133525
        ]
      ],
      [
        [
          0.14531951056559528,
          0.39188319034139907,
          -0.31437471408538753
        ],
        [
          0.7584726448269294,
          -0.8077456499926269,
          0.2507163549466603
        ],
        [
          1.5837291494359131,
          -0.21913050483309465,
          0.2623232119309106
        ],
        [
          1.4458431462746515,
          0.12279292660610051,
          -0.21545757497938098
        ]
      ]
    ]
  },
  "metrics_series": {
    "mse_train_noise": 0.019268069867485593,
    "mse_train_recovered": 0.006400791909186614,
    "delta_train_pct": 66.78031607105703,
    "mse_test_noise": 0.018957942152927745,
    "mse_test_recovered": 0.005635323593539036,
    "delta_test_pct": 70.27460286522316
  }
}