{
  "schema": {
    "name": "full_qae_bundle",
    "version": "1.0"
  },
  "timestamp": "2025-09-16 15:50:01",
  "dataset": {
    "id": "mackey_glass_tau30_n200",
    "scale_low": 0.2,
    "scale_high": 0.8,
    "window_size": 4,
    "window_step": 2,
    "split": 0.75
  },
  "run": {
    "instance_id": 5,
    "layer": 3,
    "sigma_eval": 0.2,
    "test_seed_fixed": 99123
  },
  "environment": {
    "device": "default.qubit",
    "diff_method": "best",
    "reset_mode": "swap"
  },
  "architecture": {
    "n_qubits": 4,
    "n_latent": 2,
    "n_trash": 2,
    "n_extra": 0,
    "rot": "Rxyz"
  },
  "parameters": {
    "weights": [
      [
        [
          0.3233612680254551,
          1.0683867797002062,
          1.0456756686029403
        ],
        [
          0.4608022377717889,
          -0.85837601746166,
          1.3771363453735324
        ],
        [
          0.4454021397689628,
          0.30901340351215034,
          1.0743864869306345
        ],
        [
          -0.9270497534687968,
          -0.18662837025012377,
          1.1986562345083507
        ]
      ],
      [
        [
          0.43462434194975147,
          -0.038189939538035414,
          0.5421809915196519
        ],
        [
          0.21689315950768165,
          0.042269558032934605,
          0.4483493159416379
        ],
        [
          -0.6439563618048668,
          -0.39854069486233656,
          0.1044011340777541
        ],
        [
          -0.24072065945871685,
          0.36239387534928236,
          0.029485595865788413
        ]
      ],
      [
        [
          -0.032461479426305236,
          -0.5308745412507387,
          0.5435316869675155
        ],
        [
          0.017732892096727362,
          1.104238186925094,
          0.1410944594785917
        ],
        [
          2.210624740938331,
          0.3298778135227199,
          0.3089819454743286
        ],
        [
          -0.07676326902904267,
          0.4207789173250659,
          0.03542829113912442
        ]
      ],
      [
        [
          0.12992619069828903,
          -1.559040035001829,
          -0.006401230143121816
        ],
        [
          0.29870027414544775,
          1.0842825389966635,
          0.009306347060788624
        ],
        [
          0.0017558068912039862,
          1.7107883761834335,
          -0.19693341923606508
        ],
        [
          0.24261250948981847,
          -0.302887839268807,
          -1.269340448172923
        ]
      ],
      [
        [
          0.034107706183323275,
          0.09087603151340798,
          0.05508823679716013
        ],
        [
          -2.9925957334975752,
          0.7401591829818238,
          0.270709239626048
        ],
        [
          -0.441501029034149,
          -0.5177530691845001,
          0.41615819432082557
        ],
        [
          -0.5161113614799009,
          0.8823422592079974,
          1.1301589636444744
        ]
      ],
      [
        [
          0.4180505206467858,
          0.6802295031707537,
          -0.05271568152522804
        ],
        [
          1.1746273901295954,
          0.15118202462966976,
          0.987283687708242
        ],
        [
          0.014687051991046241,
          1.2320663782381833,
          0.21206880883334694
        ],
        [
          -0.6505346185244212,
          0.41555871520924115,
          0.015958990920215806
        ]
      ]
    ]
  },
  "metrics_series": {
    "mse_train_noise": 0.019268069867485593,
    "mse_train_recovered": 0.0072260915423232675,
    "delta_train_pct": 62.49706591256904,
    "mse_test_noise": 0.018957942152927745,
    "mse_test_recovered": 0.005477342708803221,
    "delta_test_pct": 71.10792582539169
  }
}