{
  "schema": {
    "name": "full_qae_bundle",
    "version": "1.0"
  },
  "timestamp": "2025-09-16 15:10:29",
  "dataset": {
    "id": "mackey_glass_tau30_n200",
    "scale_low": 0.2,
    "scale_high": 0.8,
    "window_size": 4,
    "window_step": 2,
    "split": 0.75
  },
  "run": {
    "instance_id": 3,
    "layer": 3,
    "sigma_eval": 0.2,
    "test_seed_fixed": 99123
  },
  "environment": {
    "device": "default.qubit",
    "diff_method": "best",
    "reset_mode": "swap"
  },
  "architecture": {
    "n_qubits": 4,
    "n_latent": 2,
    "n_trash": 2,
    "n_extra": 0,
    "rot": "Rxyz"
  },
  "parameters": {
    "weights": [
      [
        [
          0.5598875759419681,
          1.0107158504605693,
          0.1812796418590676
        ],
        [
          1.367100068593508,
          -0.42745821365754455,
          1.2229418334645856
        ],
        [
          0.030762442850116044,
          -0.3076914000544277,
          0.44615440643095966
        ],
        [
          -0.5343893925014025,
          0.18988321159134838,
          -0.3357104117228115
        ]
      ],
      [
        [
          0.10984163141446043,
          -0.07129925939648224,
          -0.05728380610846608
        ],
        [
          0.3709559245358667,
          0.5847878501099564,
          0.4875911938472109
        ],
        [
          0.9483490053370632,
          -0.9621327950574364,
          0.9084467389947246
        ],
        [
          0.29041425511332347,
          0.20359743022641388,
          0.4264644720294541
        ]
      ],
      [
        [
          0.8184255250491178,
          0.3564599985401144,
          -0.15001650895356855
        ],
        [
          0.15350760544501504,
          0.9500948649757766,
          -0.10628412087706078
        ],
        [
          -0.4091450204587674,
          -0.21968638689603828,
          0.26003414373924266
        ],
        [
          -0.3191030062526573,
          -0.5069338063667715,
          -0.3554511705550514
        ]
      ],
      [
        [
          0.1345324852782629,
          -0.4373233372530502,
          0.20565297206182798
        ],
        [
          0.1987468371156865,
          0.9992679131180245,
          1.465175503103999
        ],
        [
          0.2792117255141627,
          1.6134782389668438,
          0.7006406087332175
        ],
        [
          0.10491072154064716,
          1.6714958794338,
          1.579563105862144
        ]
      ],
      [
        [
          -0.025410504883244228,
          0.1267960701556196,
          -0.4785380890906265
        ],
        [
          -0.24507077773770872,
          0.06300407245839278,
          0.6394761382199744
        ],
        [
          0.9039596553427862,
          1.0892193376723034,
          -0.704269431610921
        ],
        [
          0.594296140862404,
          -0.339003243324421,
          0.6339727268865468
        ]
      ],
      [
        [
          -0.6940742209888742,
          -0.3342147491262138,
          -0.31157398194166164
        ],
        [
          0.6533782556963323,
          -0.478823883713223,
          0.8813635488388425
        ],
        [
          -1.4850508984139406,
          0.3464390132098328,
          0.09696778606966767
        ],
        [
          1.3117656875124508,
          0.7970305656191272,
          -0.44160500814101605
        ]
      ]
    ]
  },
  "metrics_series": {
    "mse_train_noise": 0.019268069867485593,
    "mse_train_recovered": 0.006522159283449206,
    "delta_train_pct": 66.15042747766245,
    "mse_test_noise": 0.018957942152927745,
    "mse_test_recovered": 0.005936266647181648,
    "delta_test_pct": 68.68717817948986
  }
}