{
  "schema": {
    "name": "stacked_qae_bundle",
    "version": "1.0"
  },
  "timestamp": "2025-12-03 15:16:22",
  "dataset": {
    "id": "mackey_glass_tau17_n200",
    "scale_low": 0.0,
    "scale_high": 1.0,
    "window_size": 6,
    "window_step": 2,
    "split": 0.75
  },
  "run": {
    "instance_id": 2,
    "layer": 3,
    "sigma_eval": 0.2,
    "test_seed_fixed": 99123,
    "device_seed": 13046,
    "stage1_time_sec": 211,
    "stage2_time_sec": 235
  },
  "environment": {
    "device": "lightning.qubit",
    "diff_method": "adjoint",
    "interface": "autograd"
  },
  "architecture": {
    "type": "stacked",
    "n_qubits": 6,
    "n_latent": 2,
    "n_trash": 4,
    "rot": "Rxyz"
  },
  "parameters": {
    "weights_stage1": [
      [
        [
          0.0004809185941771647,
          1.5173204670259255,
          -0.015080303849121282
        ],
        [
          5.293087596736452e-05,
          1.379908099610839,
          1.5714107505464776
        ],
        [
          -0.00048503176999171565,
          1.345219688205164,
          -0.005618375126968397
        ],
        [
          -0.001387014350438755,
          1.1883237978642847,
          1.4527108450973498
        ],
        [
          0.00016463865040413695,
          1.1672957494732383,
          1.5656890180719962
        ],
        [
          0.00013012332733698006,
          1.169825960002369,
          1.5740920274950438
        ]
      ],
      [
        [
          1.58565709023824,
          0.24715072502402546,
          0.0015952181838398824
        ],
        [
          1.5748071631359153,
          0.19566817197731148,
          0.16962621449191337
        ],
        [
          1.6938581002797137,
          0.2274641255436643,
          -0.1323317677382885
        ],
        [
          0.12666048676932562,
          0.1404913628299125,
          -1.5188827206043294
        ],
        [
          -0.0023968568560072405,
          0.26714786971301124,
          0.14420530213258229
        ],
        [
          -0.36554465492945465,
          0.002902544337871408,
          -1.007152971414299
        ]
      ],
      [
        [
          0.06437086520202515,
          0.02024625824882493,
          0.30819849615476924
        ],
        [
          -2.0530353778456765,
          0.01097702140511182,
          0.2926520832925581
        ],
        [
          -0.0695366249717586,
          0.06981417449883592,
          0.18030828215774178
        ],
        [
          -0.1427502558329488,
          -0.013604671359971152,
          0.27547842967507846
        ],
        [
          -0.6670296782237072,
          5.294023527745854e-05,
          0.06825199226353083
        ],
        [
          0.18787296129278852,
          0.016992688079505998,
          0.16200099256048722
        ]
      ]
    ],
    "weights_stage2": [
      [
        [
          0.040286184496445276,
          1.2977299058557366,
          -3.1955810277303156
        ],
        [
          0.007281318387812212,
          1.4242496092857981,
          4.801342154831611
        ],
        [
          0.05040514264116074,
          1.369650114223568,
          0.11411608676308088
        ],
        [
          1.014687659898297,
          0.09355525793244569,
          0.5498953150812144
        ],
        [
          1.6516239322780577,
          1.5923912982761554,
          3.1440360109827963
        ],
        [
          -3.017320143929349,
          -1.6737620616488187,
          -1.565187249647717
        ]
      ],
      [
        [
          1.56832967659501,
          0.4339658267358046,
          -1.5889812031473867
        ],
        [
          1.207290683156241,
          -0.21557098080642467,
          -0.15115243300061598
        ],
        [
          1.5867668540258084,
          0.259398943969655,
          0.002493565316571625
        ],
        [
          -1.5386245080969243,
          -0.7954836184312339,
          -1.6708012498578322
        ],
        [
          -0.7694065029985455,
          1.4731435009898763,
          -1.6110208084985238
        ],
        [
          2.1453272632027605,
          1.0434838731312817,
          -1.576200387855107
        ]
      ],
      [
        [
          0.0039111635998281755,
          -0.0009858393805147708,
          1.6053724761413497
        ],
        [
          -0.7553114994080168,
          0.3744545486185209,
          -1.223430956678781
        ],
        [
          -0.06953662527895425,
          0.06981417505905935,
          0.18030828185393832
        ],
        [
          0.2073787482343774,
          -0.006073019985470738,
          0.4684600702954334
        ],
        [
          -1.8152807360115448,
          0.04743751744098169,
          6.102660337933133
        ],
        [
          0.18787296039929377,
          0.016992687752186725,
          0.162000991965175
        ]
      ]
    ]
  },
  "metrics": {
    "stage1_min_cost": 0.2651455839853998,
    "stage2_min_cost": 0.20292684266135014,
    "mse_train_noise": 0.0400301695648753,
    "mse_train_recovered": 0.05023241794931029,
    "delta_train_pct": -25.486398122547584,
    "mse_test_noise": 0.04102832521598486,
    "mse_test_recovered": 0.049148440891695566,
    "delta_test_pct": -19.791487059157518,
    "mse_train_recovered_pure": 0.04470909849737044,
    "mse_test_recovered_pure": 0.041170758540526584
  },
  "artifacts": {
    "weights_s1_file": "weights_s1_inst02_L3.npy",
    "weights_s2_file": "weights_s2_inst02_L3.npy",
    "circuit_stage1": "circuit_stage1_6q_2l_4t_stacked_L3_inst02.eps",
    "circuit_stage2": "circuit_stage2_6q_2l_4t_stacked_L3_inst02.eps",
    "circuit_full": "circuit_full_6q_2l_4t_stacked_L3_inst02.eps",
    "training_cost_s1_plot": "training_cost_s1_inst02_L3.eps",
    "training_cost_s2_plot": "training_cost_s2_inst02_L3.eps",
    "reconstruction_pure_plot": "reconstruction_pure_inst02_L3.eps",
    "reconstruction_noisy_plot": "reconstruction_noisy_inst02_L3.eps"
  }
}