{
  "schema": {
    "name": "stacked_qae_bundle",
    "version": "1.0"
  },
  "timestamp": "2025-12-03 15:31:32",
  "dataset": {
    "id": "mackey_glass_tau17_n200",
    "scale_low": 0.0,
    "scale_high": 1.0,
    "window_size": 6,
    "window_step": 2,
    "split": 0.75
  },
  "run": {
    "instance_id": 4,
    "layer": 3,
    "sigma_eval": 0.2,
    "test_seed_fixed": 99123,
    "device_seed": 13048,
    "stage1_time_sec": 210,
    "stage2_time_sec": 240
  },
  "environment": {
    "device": "lightning.qubit",
    "diff_method": "adjoint",
    "interface": "autograd"
  },
  "architecture": {
    "type": "stacked",
    "n_qubits": 6,
    "n_latent": 2,
    "n_trash": 4,
    "rot": "Rxyz"
  },
  "parameters": {
    "weights_stage1": [
      [
        [
          0.0003885916215003641,
          1.5290244057690459,
          -0.01715859010412771
        ],
        [
          -4.5737876005407576e-05,
          1.385093733852301,
          1.5701635063904835
        ],
        [
          3.6893563878223446e-05,
          1.3489340460796928,
          -0.0068279848622445636
        ],
        [
          -0.0003687273781241589,
          1.1768032624070306,
          0.0422073146180411
        ],
        [
          3.753290515143903e-05,
          1.1579009092346864,
          1.574665038335494
        ],
        [
          -0.0002674739248887037,
          1.1590812048008086,
          -1.575209917354585
        ]
      ],
      [
        [
          -1.5536039086896194,
          -0.2487819215085114,
          -1.4695264031246045
        ],
        [
          1.5773430030420803,
          0.1969463725735052,
          0.0501238391636782
        ],
        [
          3.1075676963873127,
          0.23149114021950332,
          1.5549027058371208
        ],
        [
          1.522733553632445,
          0.14963507890544475,
          0.17045389766461377
        ],
        [
          0.001253682163200506,
          -0.2542296861081062,
          -1.4626110835992512
        ],
        [
          -0.4115834584291924,
          -0.0048353868766415845,
          0.17399128710516867
        ]
      ],
      [
        [
          -0.05140902492766457,
          -0.02315226916676102,
          0.260547517489615
        ],
        [
          -0.1958992450850541,
          0.01845913895617028,
          0.2771932724170216
        ],
        [
          -0.19673234498335537,
          -0.05084583050732041,
          0.1741631724699502
        ],
        [
          0.1576926080497341,
          -0.010842971909973869,
          0.02753843013746777
        ],
        [
          -0.8060985405195399,
          -0.0034788571618522496,
          0.17430469850888394
        ],
        [
          0.11673627613870141,
          0.0130648212020771,
          0.028030159691330814
        ]
      ]
    ],
    "weights_stage2": [
      [
        [
          -0.01329427687289736,
          1.379309431687139,
          -0.01733530326782732
        ],
        [
          -0.012500013523999848,
          1.4517013144914603,
          4.717541747432406
        ],
        [
          0.010817683400006458,
          1.417087582152752,
          0.0330097097684137
        ],
        [
          -1.344539198029648,
          0.026346914580418827,
          3.0256683609065806
        ],
        [
          1.6816397292847127,
          4.6805252609030426,
          3.1092068691965413
        ],
        [
          3.288873867115472,
          -1.7234545707174629,
          1.6565654004396513
        ]
      ],
      [
        [
          -1.5592140356460238,
          0.4168258421225583,
          0.004552164413281095
        ],
        [
          -1.5503026423996489,
          0.24117485573526337,
          -0.10809443155927938
        ],
        [
          4.519224932725126,
          -0.2023921616354016,
          0.2528046464614453
        ],
        [
          1.541633957105486,
          -0.8664640029648538,
          -1.5601765639832192
        ],
        [
          0.8330091509410756,
          -1.504986357430515,
          -2.160977921559995
        ],
        [
          -1.3161225935239707,
          0.047370862450210174,
          0.6837617930037212
        ]
      ],
      [
        [
          -0.5188820025764502,
          0.018929614990367168,
          0.42959813757366144
        ],
        [
          -0.03437916142547393,
          3.8477490003214703,
          -1.4595688824931978
        ],
        [
          -0.1967323450189081,
          -0.050845829947798314,
          0.17416317250930796
        ],
        [
          -0.10670501563401485,
          -0.01482634710894695,
          0.24651220000842428
        ],
        [
          0.4317227232059929,
          -0.02259199068458638,
          0.5193064261058472
        ],
        [
          0.11673627658064122,
          0.013064821181101211,
          0.02803016029944221
        ]
      ]
    ]
  },
  "metrics": {
    "stage1_min_cost": 0.26483797080317195,
    "stage2_min_cost": 0.20571893058782945,
    "mse_train_noise": 0.0400301695648753,
    "mse_train_recovered": 0.051025080521424515,
    "delta_train_pct": -27.46656103649574,
    "mse_test_noise": 0.04102832521598486,
    "mse_test_recovered": 0.04967384082400715,
    "delta_test_pct": -21.072065609575397,
    "mse_train_recovered_pure": 0.04544487144949995,
    "mse_test_recovered_pure": 0.04175448997387037
  },
  "artifacts": {
    "weights_s1_file": "weights_s1_inst04_L3.npy",
    "weights_s2_file": "weights_s2_inst04_L3.npy",
    "circuit_stage1": "circuit_stage1_6q_2l_4t_stacked_L3_inst04.eps",
    "circuit_stage2": "circuit_stage2_6q_2l_4t_stacked_L3_inst04.eps",
    "circuit_full": "circuit_full_6q_2l_4t_stacked_L3_inst04.eps",
    "training_cost_s1_plot": "training_cost_s1_inst04_L3.eps",
    "training_cost_s2_plot": "training_cost_s2_inst04_L3.eps",
    "reconstruction_pure_plot": "reconstruction_pure_inst04_L3.eps",
    "reconstruction_noisy_plot": "reconstruction_noisy_inst04_L3.eps"
  }
}