{
  "schema": {
    "name": "monolith_qae_bundle",
    "version": "1.0"
  },
  "timestamp": "2025-11-30 20:03:44",
  "dataset": {
    "id": "mackey_glass_tau17_n200",
    "scale_low": 0.0,
    "scale_high": 1.0,
    "window_size": 4,
    "window_step": 2,
    "split": 0.75
  },
  "run": {
    "instance_id": 6,
    "layer": 4,
    "sigma_eval": 0.2,
    "test_seed_fixed": 99123,
    "device_seed": 14050,
    "training_time_sec": 219
  },
  "environment": {
    "device": "lightning.qubit",
    "diff_method": "adjoint",
    "interface": "autograd"
  },
  "architecture": {
    "type": "monolith",
    "n_qubits": 4,
    "n_latent": 2,
    "n_trash": 2,
    "n_extra": 0,
    "rot": "Rxyz"
  },
  "parameters": {
    "weights": [
      [
        [
          -0.11580361633292902,
          -1.4891655619237947,
          1.3669483685887787
        ],
        [
          1.5881703971728864,
          0.10256018498651114,
          -1.5098695032179092
        ],
        [
          3.2155458855868946,
          -2.2974883019170718,
          -0.1714721551233511
        ],
        [
          0.7443050105157154,
          -2.764826758072959,
          0.5400858263703696
        ]
      ],
      [
        [
          0.9577740022626722,
          -0.4477391990612699,
          0.3519495358513491
        ],
        [
          0.28013511600709,
          -0.41984742132813624,
          -0.8501410055097146
        ],
        [
          0.561887681348045,
          0.9979648065758838,
          0.8178603756210134
        ],
        [
          0.818259636974172,
          0.33078359307254157,
          0.35294204905210375
        ]
      ],
      [
        [
          0.976279654435699,
          0.015699458980168488,
          -0.5437931638378599
        ],
        [
          0.36754841503541846,
          0.31595027101016515,
          0.02499308287308285
        ],
        [
          0.8862110771290101,
          -0.11511592225660824,
          -0.3071608221952523
        ],
        [
          0.09585517634206545,
          -0.6772249115945718,
          -1.6210837439622998
        ]
      ],
      [
        [
          0.18171561332628533,
          -0.017143761952404014,
          0.7978585629095551
        ],
        [
          0.14552515601103208,
          1.5727289953597499,
          1.165846486661195
        ],
        [
          -0.07860805215412703,
          0.15675150208767083,
          0.2689162641989139
        ],
        [
          1.2217003114092044,
          -0.2915593676148766,
          0.3296808649827445
        ]
      ],
      [
        [
          0.46374361833761296,
          -0.28684519446919865,
          6.087661657757544
        ],
        [
          0.06470723152989433,
          0.7302163685821516,
          -0.251644337716338
        ],
        [
          0.43523434257287164,
          -0.7595067541802595,
          -0.06011390693748711
        ],
        [
          0.033996825178389374,
          0.47089804941159913,
          -3.5527517222028524
        ]
      ],
      [
        [
          2.096376803188212,
          -0.38961459239921725,
          0.718839667120129
        ],
        [
          1.1583172512498099,
          1.095400403608542,
          -0.7288351621501152
        ],
        [
          0.3346686964718527,
          -0.21304200138235982,
          0.2757176636941318
        ],
        [
          0.5245829295017488,
          0.3273453207289083,
          -0.5185189602002037
        ]
      ],
      [
        [
          0.29734059599929247,
          0.19318479052675966,
          0.6061757839157551
        ],
        [
          -0.2748048382578112,
          -0.09143182637874323,
          -0.9823180869809569
        ],
        [
          -0.9460060062661754,
          0.21305206783526828,
          0.7387015740251912
        ],
        [
          1.0031191676816826,
          -0.8464901394085261,
          1.81859291683894
        ]
      ],
      [
        [
          0.6240125381087039,
          0.1628719782625655,
          -1.368937841520912
        ],
        [
          0.3552638115688892,
          0.9817415208852109,
          0.12818438067570118
        ],
        [
          0.983907172542496,
          -0.15268947467368718,
          -0.8923690790195485
        ],
        [
          0.7739142499235478,
          -0.32885008813038086,
          0.22046520601755096
        ]
      ]
    ]
  },
  "metrics": {
    "mse_train_noise": 0.0404157849091556,
    "mse_train_recovered": 0.018365104336288542,
    "delta_train_pct": 54.55957523138887,
    "mse_test_noise": 0.041028325215984866,
    "mse_test_recovered": 0.020914119846600028,
    "delta_test_pct": 49.02516801136263,
    "mse_train_recovered_pure": 0.004741279987952577,
    "mse_test_recovered_pure": 0.007425567431496583,
    "min_train_cost": 0.007998260922320241
  },
  "artifacts": {
    "weights_file": "weights_inst06_L4.npy",
    "circuit_diagram": "circuit_4q_2l_2t_L4_inst06.eps",
    "training_cost_plot": "training_cost_inst06_L4.eps",
    "cost_history": "cost_inst06_L4.json",
    "reconstruction_pure_plot": "reconstruction_pure_inst06_L4.eps",
    "reconstruction_noisy_plot": "reconstruction_noisy_inst06_L4.eps"
  }
}