{
  "schema": {
    "name": "monolith_qae_bundle",
    "version": "1.0"
  },
  "timestamp": "2025-11-30 20:07:26",
  "dataset": {
    "id": "mackey_glass_tau17_n200",
    "scale_low": 0.0,
    "scale_high": 1.0,
    "window_size": 4,
    "window_step": 2,
    "split": 0.75
  },
  "run": {
    "instance_id": 7,
    "layer": 4,
    "sigma_eval": 0.2,
    "test_seed_fixed": 99123,
    "device_seed": 14051,
    "training_time_sec": 219
  },
  "environment": {
    "device": "lightning.qubit",
    "diff_method": "adjoint",
    "interface": "autograd"
  },
  "architecture": {
    "type": "monolith",
    "n_qubits": 4,
    "n_latent": 2,
    "n_trash": 2,
    "n_extra": 0,
    "rot": "Rxyz"
  },
  "parameters": {
    "weights": [
      [
        [
          2.8593921406070235,
          -1.1048206465321218,
          0.9400604179104329
        ],
        [
          1.5630357296070951,
          -1.0011747951538945,
          1.9358481071907576
        ],
        [
          -0.2659273177383454,
          -1.2971053290726875,
          0.4352958962996493
        ],
        [
          0.7374146275450971,
          -0.19248562766362096,
          -0.6283124846441318
        ]
      ],
      [
        [
          -0.6781437202726592,
          -1.3211661810772777,
          0.8724681295808031
        ],
        [
          0.7133316637582854,
          1.3559843680596904,
          3.7749372311179634
        ],
        [
          -1.1419542197954111,
          -1.4478399076484056,
          0.5653716128742605
        ],
        [
          0.49689075862486043,
          -0.39759067261778286,
          -0.4266114420542851
        ]
      ],
      [
        [
          1.1314976127650687,
          -0.8172812141288999,
          -0.15176235107543815
        ],
        [
          -0.47151814532878067,
          -1.3740108155828008,
          -0.008603476919326981
        ],
        [
          -0.29483957747601963,
          0.10627748631857861,
          -1.9092273816166312
        ],
        [
          0.6263735517550755,
          -3.0228556138910276,
          0.6012172341361371
        ]
      ],
      [
        [
          -1.1582226136514242,
          -0.14143621524772282,
          -1.3926554751525362
        ],
        [
          -0.4165135900449344,
          -0.3412583790396102,
          -3.2209103804242054
        ],
        [
          -0.9063973029156273,
          -0.0770212974118531,
          0.6040837023874178
        ],
        [
          -0.8287800028278643,
          0.618344818986698,
          0.6145272011771303
        ]
      ],
      [
        [
          0.062465002377124025,
          1.4043490220857704,
          -2.3842930987245285
        ],
        [
          0.5702957624234312,
          0.41682495493752586,
          -0.8495187358938889
        ],
        [
          0.35176319977435067,
          0.8014146380399052,
          0.3086534597659639
        ],
        [
          0.20217564464881158,
          -0.1456198930795356,
          2.3673435232626847
        ]
      ],
      [
        [
          -0.019287481268157533,
          -0.13784196005358904,
          -0.0881925929162537
        ],
        [
          -3.563610752576905,
          -0.08576452554890814,
          -1.980372438625462
        ],
        [
          0.5649800328524377,
          0.29609583726944033,
          -1.4981373224953531
        ],
        [
          -0.19065319673891717,
          -0.1444582573611421,
          0.581003008341433
        ]
      ],
      [
        [
          -1.715415325382673,
          0.015414815172405125,
          1.243012102915928
        ],
        [
          0.4365043216937847,
          0.20648782926344197,
          -2.1644175793403084
        ],
        [
          0.43407643395487894,
          0.43423692725216223,
          0.22404602879115296
        ],
        [
          0.22162405347532366,
          0.21229435524139031,
          0.040064399374822715
        ]
      ],
      [
        [
          1.9531960198657727,
          -0.07058828006428691,
          -0.13108417378418102
        ],
        [
          2.6127318541899767,
          -0.8391506115553099,
          2.873223634958614
        ],
        [
          -0.17511336947638134,
          0.4134536996879911,
          -1.4738026676852085
        ],
        [
          3.679445420620003,
          -1.292297872832274,
          0.0746837345146974
        ]
      ]
    ]
  },
  "metrics": {
    "mse_train_noise": 0.0404157849091556,
    "mse_train_recovered": 0.018962999079512488,
    "delta_train_pct": 53.08021575694624,
    "mse_test_noise": 0.041028325215984866,
    "mse_test_recovered": 0.020882296036522488,
    "delta_test_pct": 49.102733473540304,
    "mse_train_recovered_pure": 0.005463751788975345,
    "mse_test_recovered_pure": 0.009046193877151385,
    "min_train_cost": 0.007813728886202794
  },
  "artifacts": {
    "weights_file": "weights_inst07_L4.npy",
    "circuit_diagram": "circuit_4q_2l_2t_L4_inst07.eps",
    "training_cost_plot": "training_cost_inst07_L4.eps",
    "cost_history": "cost_inst07_L4.json",
    "reconstruction_pure_plot": "reconstruction_pure_inst07_L4.eps",
    "reconstruction_noisy_plot": "reconstruction_noisy_inst07_L4.eps"
  }
}