{
  "schema": {
    "name": "sidekick_qae_bundle",
    "version": "1.0"
  },
  "timestamp": "2025-12-02 06:32:39",
  "dataset": {
    "id": "mackey_glass_tau17_n200",
    "scale_low": 0.0,
    "scale_high": 1.0,
    "window_size": 6,
    "window_step": 2,
    "split": 0.75
  },
  "run": {
    "instance_id": 2,
    "layer": 5,
    "sigma_eval": 0.2,
    "test_seed_fixed": 99123,
    "device_seed": 15046,
    "stage1_time_sec": 312,
    "stage2_time_sec": 544
  },
  "environment": {
    "device": "lightning.qubit",
    "diff_method": "adjoint",
    "interface": "autograd"
  },
  "architecture": {
    "type": "sidekick",
    "n_qubits": 6,
    "n_latent": 2,
    "n_trash": 4,
    "rot": "Rxyz"
  },
  "parameters": {
    "weights_stage1": [
      [
        [
          -1.6068960066878457,
          -1.6570672712321002,
          1.550111922065257
        ],
        [
          0.08279687677138009,
          0.6142877719637024,
          1.47306076295384
        ],
        [
          1.5529941097895723,
          1.507899341062973,
          1.2425227100717546
        ],
        [
          -0.8568842914054172,
          0.15904874901842886,
          -0.6859858528473969
        ],
        [
          1.57090748797752,
          -1.55958852561191,
          -1.4699083896248657
        ],
        [
          -0.00219847252946755,
          1.201903915365882,
          1.5150935770442948
        ]
      ],
      [
        [
          -1.5634209883755208,
          -0.8256101440382471,
          -0.009519981429438898
        ],
        [
          0.8559437695411524,
          -0.07542387450188598,
          1.0513133375009012
        ],
        [
          1.5659239857666865,
          0.350888066238845,
          -1.5619326963690092
        ],
        [
          -1.5676217520809261,
          0.29828273151003354,
          -0.007467297373287082
        ],
        [
          0.3848823072334061,
          -0.019265634364712285,
          -0.3739498495641163
        ],
        [
          1.651503174897443,
          0.029683297764810934,
          -0.06863828616067359
        ]
      ],
      [
        [
          1.7323690822291289,
          0.042387182296063274,
          -0.4353785785285994
        ],
        [
          -0.23076858513297435,
          1.5652507033326764,
          -0.022098417984273495
        ],
        [
          0.12773936563663138,
          0.02667946571902834,
          -0.1277980811976284
        ],
        [
          -0.7807647745102311,
          1.5708833624122236,
          -0.06271252155399504
        ],
        [
          -2.003429705127858,
          0.004437430926531576,
          -0.6468255000513881
        ],
        [
          -0.004926836282269276,
          -1.525801133172518,
          0.7455827258736237
        ]
      ],
      [
        [
          0.062140796166096975,
          1.553205028563715,
          0.37120652001462673
        ],
        [
          -0.7150276110487895,
          -1.1037069209982575,
          1.5764678609969527
        ],
        [
          0.8135071102541908,
          1.5716205135247192,
          -0.7060364043045888
        ],
        [
          -0.3595410900498578,
          -0.2455293486979494,
          0.47139291928564797
        ],
        [
          1.0861630450241297,
          0.014069697336025122,
          -0.005138982874635267
        ],
        [
          1.0108293101015335,
          1.536345060727031,
          0.04343832329406596
        ]
      ],
      [
        [
          0.4224527500835436,
          0.004219739107780448,
          0.2979100116047596
        ],
        [
          0.007031572379894867,
          0.1699968732181309,
          0.2616660505606464
        ],
        [
          2.1967428121477415,
          0.03125598025109433,
          0.31095492276073533
        ],
        [
          -1.5007043225452283,
          2.4568224961067293,
          0.1904376757048957
        ],
        [
          -1.2393517379408816,
          0.1207759832803384,
          0.0030834275074543786
        ],
        [
          -1.3831687217832347,
          1.569389218250127,
          0.28042210570546344
        ]
      ]
    ],
    "weights_stage2": [
      [
        [
          -1.0587598521203678,
          -3.9741021492953847,
          2.4135889201377956
        ],
        [
          3.3992332149381967,
          0.3536196400623064,
          -1.869583966366208
        ],
        [
          1.7217730119394865,
          4.503686720844292,
          0.5151928833393705
        ],
        [
          -1.5236680381752092,
          1.5717925667755603,
          -2.5481635755565613
        ],
        [
          -0.4429665161558738,
          -0.3591652190269706,
          0.4025941919041823
        ],
        [
          0.002383218964045989,
          1.1452332932743856,
          0.13490121001943067
        ]
      ],
      [
        [
          -1.5739775001287575,
          0.17978142805251734,
          -0.00760167824082348
        ],
        [
          1.3991887819475186,
          -0.1045674999719855,
          0.12318730997511186
        ],
        [
          1.5618308233158495,
          1.53492870771447,
          -1.6126474096325207
        ],
        [
          -1.5857317291429334,
          1.5311778296674337,
          0.005898509307017193
        ],
        [
          1.524200280889894,
          0.005810576629621821,
          -1.512456867850196
        ],
        [
          1.5662512148372956,
          1.3029868314633373,
          0.019607781430439217
        ]
      ],
      [
        [
          2.851391845154593,
          0.021394030167300605,
          -1.2717251213919076
        ],
        [
          -0.0031521210941286475,
          1.573562600170912,
          0.051775167470330924
        ],
        [
          1.3458028052168023,
          0.006230171953591597,
          -1.3306798260408161
        ],
        [
          -1.5257117466144523,
          1.5861656267614699,
          -0.07763369334520848
        ],
        [
          -2.123394878114758,
          0.0010608093588771537,
          -0.646367639074377
        ],
        [
          -0.014644717653911224,
          -1.6052622216632644,
          0.7385978312569123
        ]
      ],
      [
        [
          0.047219624374891925,
          1.5974269434706603,
          1.5743603553782515
        ],
        [
          -0.7145697500717787,
          -0.030728262459501648,
          1.7994395257222977
        ],
        [
          0.8065222156374804,
          1.5606482276596543,
          2.848156627085768
        ],
        [
          -0.4799380229935209,
          0.04281407931320061,
          1.3702349468112238
        ],
        [
          1.7484482167544018,
          -0.04987886430841616,
          0.9003568119130848
        ],
        [
          -0.06722924953067601,
          1.5458909096987705,
          -0.0012370418156975684
        ]
      ],
      [
        [
          -0.07683827168642107,
          0.007977241956076037,
          0.04037309711658824
        ],
        [
          -0.9869532123484825,
          0.39637379370675624,
          1.1577821233279444
        ],
        [
          5.965536964571587,
          -0.004272426196984489,
          0.3109549241169197
        ],
        [
          -1.5007043223828884,
          2.4568224938746077,
          0.19043767512554244
        ],
        [
          -1.2393517366912985,
          0.12077598541579421,
          0.003083426393103789
        ],
        [
          -3.9985941041745443,
          1.5970592061401034,
          -0.01920704282134607
        ]
      ]
    ]
  },
  "metrics": {
    "stage1_min_cost": 0.13816481453720356,
    "stage2_min_cost": 0.16474810667221815,
    "mse_train_noise": 0.0400301695648753,
    "mse_train_recovered": 0.029743502690839165,
    "delta_train_pct": 25.697285287200543,
    "mse_test_noise": 0.04102832521598486,
    "mse_test_recovered": 0.03228678961959355,
    "delta_test_pct": 21.306099019088297,
    "mse_train_recovered_pure": 0.014428327679633385,
    "mse_test_recovered_pure": 0.021205104451528903
  },
  "artifacts": {
    "weights_s1_file": "weights_s1_inst02_L5.npy",
    "weights_s2_file": "weights_s2_inst02_L5.npy",
    "circuit_stage1": "circuit_stage1_6q_2l_4t_sidekick_L5_inst02.eps",
    "circuit_stage2": "circuit_stage2_6q_2l_4t_sidekick_L5_inst02.eps",
    "circuit_full": "circuit_full_6q_2l_4t_sidekick_L5_inst02.eps",
    "training_cost_s1_plot": "training_cost_s1_inst02_L5.eps",
    "training_cost_s2_plot": "training_cost_s2_inst02_L5.eps",
    "reconstruction_pure_plot": "reconstruction_pure_inst02_L5.eps",
    "reconstruction_noisy_plot": "reconstruction_noisy_inst02_L5.eps"
  }
}