{
  "schema": {
    "name": "stacked_qae_bundle",
    "version": "1.0"
  },
  "timestamp": "2025-12-04 00:51:45",
  "dataset": {
    "id": "mackey_glass_tau17_n200",
    "scale_low": 0.0,
    "scale_high": 1.0,
    "window_size": 4,
    "window_step": 2,
    "split": 0.75
  },
  "run": {
    "instance_id": 5,
    "layer": 5,
    "sigma_eval": 0.2,
    "test_seed_fixed": 99123,
    "device_seed": 15049,
    "stage1_time_sec": 205,
    "stage2_time_sec": 232
  },
  "environment": {
    "device": "lightning.qubit",
    "diff_method": "adjoint",
    "interface": "autograd"
  },
  "architecture": {
    "type": "stacked",
    "n_qubits": 4,
    "n_latent": 2,
    "n_trash": 2,
    "rot": "Rxyz"
  },
  "parameters": {
    "weights_stage1": [
      [
        [
          -1.5699917197960631,
          1.573630794540907,
          0.4393570898430098
        ],
        [
          0.06392979018097529,
          -0.151444902643936,
          -0.05967518954212275
        ],
        [
          -0.00920384584114844,
          0.48748556422698575,
          0.011904383965675383
        ],
        [
          -0.0014259376282805063,
          0.9575010421733522,
          1.5723787395812685
        ]
      ],
      [
        [
          0.0013255390239588992,
          1.2564017194712347,
          1.5712997202547718
        ],
        [
          -0.0967954654369257,
          -0.0016682788863213716,
          0.34836014714541386
        ],
        [
          1.7942169067348137,
          -0.7201859836989645,
          -1.0534803440951812
        ],
        [
          -0.29283447614593405,
          -0.2570762585209736,
          -0.5450959287402908
        ]
      ],
      [
        [
          -0.8743422292313563,
          1.570075071792082,
          -0.000523655832300364
        ],
        [
          -0.8133971495046544,
          0.5328431719202138,
          2.2863641436183064
        ],
        [
          0.29978517826870094,
          0.47415874714000394,
          0.3911551324140985
        ],
        [
          -0.015795632602535036,
          0.30102747789849066,
          0.01692704845056313
        ]
      ],
      [
        [
          -3.63804731543784,
          0.07402433894550454,
          0.8722150769747373
        ],
        [
          0.0013856417214456252,
          1.2331507304147111,
          0.002258701666639917
        ],
        [
          -0.5106607195285844,
          0.6153859540843779,
          2.513368002107434
        ],
        [
          0.0004512087301433227,
          1.5706269888349544,
          1.2822406524404055
        ]
      ],
      [
        [
          1.5702585930452588,
          0.16284468022907503,
          0.09404860502604975
        ],
        [
          1.0810301283718788,
          1.358193379101795,
          0.2990886344514796
        ],
        [
          1.5675823275538439,
          -0.3000824240010306,
          0.06777050799275819
        ],
        [
          -1.9578686925269138,
          0.5814480552001002,
          0.11533432194313736
        ]
      ]
    ],
    "weights_stage2": [
      [
        [
          -2.140393844712365,
          2.1760114647969613,
          -0.6555021405614508
        ],
        [
          -1.9440417019054774,
          0.02481705702168417,
          1.573846558871468
        ],
        [
          1.7102293264369595,
          0.23870977136754226,
          -0.15048038477182943
        ],
        [
          -0.632166568882345,
          0.5672644047020816,
          1.357640307590166
        ]
      ],
      [
        [
          0.14702912298231824,
          1.5959906366944228,
          1.329376069127294
        ],
        [
          -0.6556500844412503,
          -0.24144693402777223,
          -0.6635887831702055
        ],
        [
          3.189378817776741,
          -1.5633950321705936,
          -1.8324789967855406
        ],
        [
          0.6238984440704295,
          -0.1810962077390117,
          -0.9974227512335364
        ]
      ],
      [
        [
          -1.6533408819217181,
          1.4078258749469719,
          0.20197643423091957
        ],
        [
          -1.2657239719979039,
          1.8678430916575137,
          2.7778836180717943
        ],
        [
          0.2859645124205244,
          -0.053134994143527424,
          -0.08435283043127603
        ],
        [
          0.3239097743435197,
          0.08787505745679544,
          -0.677220354970456
        ]
      ],
      [
        [
          -3.819665611229648,
          0.40231651192435325,
          0.9004789112910466
        ],
        [
          -0.2676709228798207,
          1.2572618671526987,
          0.03293024977694051
        ],
        [
          0.5158695642231274,
          0.14824170110903448,
          1.9304554589140317
        ],
        [
          0.5440659995480575,
          1.358480774045718,
          1.7280332830116016
        ]
      ],
      [
        [
          3.096871416923683,
          1.713092388237263,
          1.2255793988436157
        ],
        [
          1.457611213637122,
          1.952294693155228,
          -0.34744725274306903
        ],
        [
          0.273816303990235,
          0.10358907530674842,
          -1.7168669081541197
        ],
        [
          -1.5518995529868618,
          0.12625200605463344,
          0.5172250647175028
        ]
      ]
    ]
  },
  "metrics": {
    "stage1_min_cost": 0.030934071988449195,
    "stage2_min_cost": 0.046426149665924926,
    "mse_train_noise": 0.0404157849091556,
    "mse_train_recovered": 0.0201007891080349,
    "delta_train_pct": 50.26500375233004,
    "mse_test_noise": 0.041028325215984866,
    "mse_test_recovered": 0.024745607468393185,
    "delta_test_pct": 39.68652793375013,
    "mse_train_recovered_pure": 0.004685702956034066,
    "mse_test_recovered_pure": 0.008846616848576813
  },
  "artifacts": {
    "weights_s1_file": "weights_s1_inst05_L5.npy",
    "weights_s2_file": "weights_s2_inst05_L5.npy",
    "circuit_stage1": "circuit_stage1_4q_2l_2t_stacked_L5_inst05.eps",
    "circuit_stage2": "circuit_stage2_4q_2l_2t_stacked_L5_inst05.eps",
    "circuit_full": "circuit_full_4q_2l_2t_stacked_L5_inst05.eps",
    "training_cost_s1_plot": "training_cost_s1_inst05_L5.eps",
    "training_cost_s2_plot": "training_cost_s2_inst05_L5.eps",
    "reconstruction_pure_plot": "reconstruction_pure_inst05_L5.eps",
    "reconstruction_noisy_plot": "reconstruction_noisy_inst05_L5.eps"
  }
}