{
  "schema": {
    "name": "stacked_qae_bundle",
    "version": "1.0"
  },
  "timestamp": "2025-12-04 01:06:36",
  "dataset": {
    "id": "mackey_glass_tau17_n200",
    "scale_low": 0.0,
    "scale_high": 1.0,
    "window_size": 4,
    "window_step": 2,
    "split": 0.75
  },
  "run": {
    "instance_id": 7,
    "layer": 5,
    "sigma_eval": 0.2,
    "test_seed_fixed": 99123,
    "device_seed": 15051,
    "stage1_time_sec": 205,
    "stage2_time_sec": 232
  },
  "environment": {
    "device": "lightning.qubit",
    "diff_method": "adjoint",
    "interface": "autograd"
  },
  "architecture": {
    "type": "stacked",
    "n_qubits": 4,
    "n_latent": 2,
    "n_trash": 2,
    "rot": "Rxyz"
  },
  "parameters": {
    "weights_stage1": [
      [
        [
          0.05839816547656239,
          0.87458573737456,
          0.9297687501457618
        ],
        [
          -0.3942966729682404,
          1.088126971247825,
          1.8323050305363426
        ],
        [
          1.053681239055111,
          -1.1477611634997966,
          -0.799738198639919
        ],
        [
          0.40103203942197896,
          -1.0612253592805017,
          1.319473291031009
        ]
      ],
      [
        [
          0.49739259675493347,
          1.7255702532651236,
          1.0830785761421604
        ],
        [
          1.407121915684349,
          -0.5892434107166017,
          -0.9749027753745088
        ],
        [
          1.0584470466077058,
          0.7529176070754916,
          0.04327758160552141
        ],
        [
          -0.024870266491870525,
          0.5951747421242832,
          0.615228112684067
        ]
      ],
      [
        [
          0.24621113663319397,
          0.5128048776447767,
          -0.009767540332283577
        ],
        [
          0.41119410804612094,
          0.03247582581071822,
          0.3337342099796918
        ],
        [
          0.222072922861573,
          0.09008860912102512,
          0.321268080418631
        ],
        [
          0.6167931609016978,
          -0.270636087936662,
          -0.23238296153235288
        ]
      ],
      [
        [
          0.6685942185981072,
          -0.15777422237324118,
          -1.6839036648644163
        ],
        [
          1.3034589124059714,
          -1.1058922915578324,
          0.25439252971566556
        ],
        [
          0.09527700754560699,
          2.019459885864646,
          -0.11767954464266257
        ],
        [
          -0.8202789539877439,
          0.12358725675134799,
          -0.13130478288158917
        ]
      ],
      [
        [
          -0.8185925703465683,
          -0.6709165010582041,
          0.27625544043692224
        ],
        [
          0.7782290139328109,
          1.594538556002228,
          0.1477623522903655
        ],
        [
          0.44071253242713687,
          0.9728172519723076,
          0.0203924469520683
        ],
        [
          -2.149423752179637,
          0.16655233754903015,
          0.1180312514011101
        ]
      ]
    ],
    "weights_stage2": [
      [
        [
          0.2613101987065576,
          1.4530354291567293,
          0.17620594782870588
        ],
        [
          2.3800735771877473,
          0.6118916850628824,
          -0.2130045271384713
        ],
        [
          0.2611586881940959,
          -0.6381200701046296,
          -0.5910917575009931
        ],
        [
          2.3868364895294674,
          0.3664335434067522,
          0.0801150626020007
        ]
      ],
      [
        [
          1.3363897663880846,
          2.381695826741708,
          1.9389360750861515
        ],
        [
          2.5598973092691044,
          -0.4917506262974412,
          -2.5978308194226036
        ],
        [
          0.4018621458531967,
          0.9489190387921346,
          0.4473822885677237
        ],
        [
          -0.3256465885777469,
          1.0205356492270663,
          0.3056261981901692
        ]
      ],
      [
        [
          0.6503158435953974,
          0.6571738530233985,
          0.22240411380428465
        ],
        [
          0.10159219355222171,
          -0.9046709474292596,
          -0.3735139053599842
        ],
        [
          0.02258617553616729,
          1.7066589988573888,
          0.1896599669168553
        ],
        [
          0.6644538052367198,
          -0.9709539199304854,
          0.871220867778104
        ]
      ],
      [
        [
          -0.40807833153357836,
          -0.47479648709811195,
          -1.0043430513728508
        ],
        [
          0.9484109767957322,
          -1.5672258718911645,
          1.0933291778079597
        ],
        [
          0.871209391007468,
          2.346818992598238,
          0.011651928726522636
        ],
        [
          -1.000132967553484,
          0.5543229009633683,
          -0.47881571759788133
        ]
      ],
      [
        [
          -1.0000625296751633,
          -0.9856096885223797,
          1.379327369406712
        ],
        [
          1.0067916379044288,
          0.3525380186290845,
          -1.729404787569825
        ],
        [
          0.6156474613780555,
          0.8959736777975286,
          -1.4351689212044856
        ],
        [
          -1.2366380250605842,
          -1.0310914704982659,
          0.6553563860465601
        ]
      ]
    ]
  },
  "metrics": {
    "stage1_min_cost": 0.038749189939682634,
    "stage2_min_cost": 0.05301665375402752,
    "mse_train_noise": 0.0404157849091556,
    "mse_train_recovered": 0.020248797685168324,
    "delta_train_pct": 49.89878897395543,
    "mse_test_noise": 0.041028325215984866,
    "mse_test_recovered": 0.023162737525701412,
    "delta_test_pct": 43.54452100161018,
    "mse_train_recovered_pure": 0.004831943835775623,
    "mse_test_recovered_pure": 0.007722088037937691
  },
  "artifacts": {
    "weights_s1_file": "weights_s1_inst07_L5.npy",
    "weights_s2_file": "weights_s2_inst07_L5.npy",
    "circuit_stage1": "circuit_stage1_4q_2l_2t_stacked_L5_inst07.eps",
    "circuit_stage2": "circuit_stage2_4q_2l_2t_stacked_L5_inst07.eps",
    "circuit_full": "circuit_full_4q_2l_2t_stacked_L5_inst07.eps",
    "training_cost_s1_plot": "training_cost_s1_inst07_L5.eps",
    "training_cost_s2_plot": "training_cost_s2_inst07_L5.eps",
    "reconstruction_pure_plot": "reconstruction_pure_inst07_L5.eps",
    "reconstruction_noisy_plot": "reconstruction_noisy_inst07_L5.eps"
  }
}