{
  "schema": {
    "name": "sidekick_qae_bundle",
    "version": "1.0"
  },
  "timestamp": "2025-12-02 10:51:53",
  "dataset": {
    "id": "mackey_glass_tau17_n200",
    "scale_low": 0.0,
    "scale_high": 1.0,
    "window_size": 4,
    "window_step": 2,
    "split": 0.75
  },
  "run": {
    "instance_id": 4,
    "layer": 5,
    "sigma_eval": 0.2,
    "test_seed_fixed": 99123,
    "device_seed": 15048,
    "stage1_time_sec": 195,
    "stage2_time_sec": 328
  },
  "environment": {
    "device": "lightning.qubit",
    "diff_method": "adjoint",
    "interface": "autograd"
  },
  "architecture": {
    "type": "sidekick",
    "n_qubits": 4,
    "n_latent": 3,
    "n_trash": 1,
    "rot": "Rxyz"
  },
  "parameters": {
    "weights_stage1": [
      [
        [
          1.2530360482457954,
          1.0928784018153324,
          -0.11422553570012983
        ],
        [
          -0.6162978913573528,
          -0.03381282928599868,
          0.34889950583682605
        ],
        [
          0.5995992248974036,
          -0.2959847418743616,
          0.8623522108622226
        ],
        [
          0.3995181553650048,
          0.10511699795156604,
          -0.5129162473173358
        ]
      ],
      [
        [
          -0.14675861788854236,
          0.6821092646853074,
          0.5872657046132836
        ],
        [
          -1.1589210269853971,
          1.4031956499708431,
          0.11955060385859737
        ],
        [
          -1.078120153470421,
          0.07524287010981433,
          -0.6151762833107265
        ],
        [
          0.10533636824977227,
          0.7367654124419594,
          0.4475019498088967
        ]
      ],
      [
        [
          -0.5699136430848528,
          0.014266252596295504,
          0.7742347413680446
        ],
        [
          0.3686845988816861,
          -0.05097549198185266,
          0.7930321991832713
        ],
        [
          0.2486386559353065,
          -0.3976212218320987,
          -0.25898604855342633
        ],
        [
          0.4699179855619545,
          0.002946623735442823,
          0.16595237810808453
        ]
      ],
      [
        [
          1.8791817840881353,
          -2.2020370835927654,
          0.0571212011987887
        ],
        [
          0.9354088599715047,
          0.03365142857327994,
          0.5786221468234265
        ],
        [
          0.02690053432204589,
          1.808316999993071,
          -0.01506772610444207
        ],
        [
          -0.6250756274740037,
          1.0354599360251417,
          -2.215457809188227
        ]
      ],
      [
        [
          0.09018905107835742,
          0.21069209356085147,
          0.2898706971512469
        ],
        [
          -0.9024864838445228,
          1.4620673634057295,
          0.12335233602167485
        ],
        [
          0.2555922749151243,
          0.07391779078769131,
          0.0304660020342707
        ],
        [
          -0.14217750504102472,
          0.4218852422324882,
          0.024883316742244536
        ]
      ]
    ],
    "weights_stage2": [
      [
        [
          1.346666208954699,
          1.0352897344434515,
          -0.06448830736422378
        ],
        [
          -0.5483265671438436,
          0.1213679827362854,
          0.40544781980956807
        ],
        [
          0.5633641979828824,
          -0.2720913319142107,
          0.8215352632388776
        ],
        [
          -0.0023876752541662754,
          0.15312227996656722,
          -0.36315108517180233
        ]
      ],
      [
        [
          -0.02364474073434692,
          0.8096601644739331,
          0.5665419026558163
        ],
        [
          -1.189102233391575,
          1.4194298133281344,
          0.0943274073883993
        ],
        [
          -1.1125323907866431,
          0.07206333908646081,
          -0.631809870644946
        ],
        [
          0.07816750288327386,
          0.8163265097745577,
          0.4389192932065127
        ]
      ],
      [
        [
          -0.5865472304190708,
          0.013504453394472484,
          0.8400317033586341
        ],
        [
          0.36010194227930437,
          -0.03988983742853154,
          0.7453954855914414
        ],
        [
          0.564417015003201,
          -0.4007466640090908,
          -0.48971940058453195
        ],
        [
          0.32628825783002113,
          -0.0092873761742113,
          0.46058999568763054
        ]
      ],
      [
        [
          1.964029788097588,
          -2.392871495212193,
          -0.0208185095668941
        ],
        [
          0.31304468704739163,
          0.13044148995326668,
          1.188974056317162
        ],
        [
          0.014443420409248066,
          1.7981359981045295,
          0.04440300856667807
        ],
        [
          -0.4130364316735738,
          1.060198810768229,
          -2.334390699275986
        ]
      ],
      [
        [
          -0.02406359894863928,
          0.39221435311453157,
          0.2835713268575615
        ],
        [
          -0.7001041617209641,
          1.4295937406463923,
          0.23584445364974052
        ],
        [
          -0.009850616833579223,
          0.10903294825037431,
          0.3255818136043537
        ],
        [
          -0.1268402645767488,
          0.33883458071812417,
          -0.0636915713987569
        ]
      ]
    ]
  },
  "metrics": {
    "stage1_min_cost": 0.011775737904030619,
    "stage2_min_cost": 0.10716174459783986,
    "mse_train_noise": 0.0404157849091556,
    "mse_train_recovered": 0.02912515731795421,
    "delta_train_pct": 27.936182896311056,
    "mse_test_noise": 0.041028325215984866,
    "mse_test_recovered": 0.030111870597041072,
    "delta_test_pct": 26.607117306096328,
    "mse_train_recovered_pure": 0.0042897590997352485,
    "mse_test_recovered_pure": 0.003701672673909618
  },
  "artifacts": {
    "weights_s1_file": "weights_s1_inst04_L5.npy",
    "weights_s2_file": "weights_s2_inst04_L5.npy",
    "circuit_stage1": "circuit_stage1_4q_3l_1t_sidekick_L5_inst04.eps",
    "circuit_stage2": "circuit_stage2_4q_3l_1t_sidekick_L5_inst04.eps",
    "circuit_full": "circuit_full_4q_3l_1t_sidekick_L5_inst04.eps",
    "training_cost_s1_plot": "training_cost_s1_inst04_L5.eps",
    "training_cost_s2_plot": "training_cost_s2_inst04_L5.eps",
    "reconstruction_pure_plot": "reconstruction_pure_inst04_L5.eps",
    "reconstruction_noisy_plot": "reconstruction_noisy_inst04_L5.eps"
  }
}