{
  "schema": {
    "name": "sidekick_qae_bundle",
    "version": "1.0"
  },
  "timestamp": "2025-12-06 08:55:19",
  "dataset": {
    "id": "mackey_glass_tau30_n200",
    "scale_low": 0.0,
    "scale_high": 1.0,
    "window_size": 4,
    "window_step": 2,
    "split": 0.75
  },
  "run": {
    "instance_id": 3,
    "layer": 5,
    "sigma_eval": 0.2,
    "test_seed_fixed": 99123,
    "device_seed": 15047,
    "stage1_time_sec": 182,
    "stage2_time_sec": 294
  },
  "environment": {
    "device": "lightning.qubit",
    "diff_method": "adjoint",
    "interface": "autograd"
  },
  "architecture": {
    "type": "sidekick",
    "n_qubits": 4,
    "n_latent": 3,
    "n_trash": 1,
    "rot": "Rxyz"
  },
  "parameters": {
    "weights_stage1": [
      [
        [
          -0.9314551208397414,
          0.0026163009471121073,
          -0.11173248351106718
        ],
        [
          -0.27464597622705605,
          0.45939688662186484,
          -1.3975438151405961
        ],
        [
          -0.22660249834256024,
          0.21613791657917025,
          -1.3385044393153385
        ],
        [
          -2.5917953620151657,
          -0.24283256807684692,
          1.4037330400719161
        ]
      ],
      [
        [
          0.4205563217234817,
          0.2515420179642141,
          1.1382350390246831
        ],
        [
          0.15596541580486362,
          0.4436223201420213,
          1.4504918791059165
        ],
        [
          -0.2921869274041254,
          -0.17647880961625748,
          0.9078736252146208
        ],
        [
          -0.06519611549417093,
          1.4478697126739308,
          0.3645967592698287
        ]
      ],
      [
        [
          0.7591485971558444,
          1.2961016265618712,
          0.044919975951953045
        ],
        [
          0.06389205077952588,
          0.20391433959225447,
          -0.9716041160979002
        ],
        [
          0.9675328725819693,
          -0.35987199570847817,
          0.6214080835875819
        ],
        [
          0.20951865051388766,
          -0.05432753637491419,
          -0.34249766573263857
        ]
      ],
      [
        [
          -1.3035111755351005,
          0.369295781772926,
          0.7396224297856684
        ],
        [
          0.4892162474237923,
          1.7353548659694398,
          0.443809614180913
        ],
        [
          1.8272894348255573,
          0.40278534254117737,
          -0.2561946666082725
        ],
        [
          -1.0243612693139157,
          0.41937826678684303,
          1.4501021334872328
        ]
      ],
      [
        [
          0.18101669110463417,
          0.19093291199323442,
          0.2096255354759753
        ],
        [
          0.9434514423986988,
          1.0776202488211322,
          0.28463489788292845
        ],
        [
          0.2694666808024297,
          0.007034202750565169,
          0.04297163498512642
        ],
        [
          0.6952689140935092,
          1.4383868286937114,
          0.2658245478197944
        ]
      ]
    ],
    "weights_stage2": [
      [
        [
          -1.973714227535996,
          -0.042910465642075235,
          0.9423510032890563
        ],
        [
          -0.17578835502985973,
          0.49416998097380466,
          -1.4955791109739105
        ],
        [
          -0.09046926649699823,
          0.2474315627627356,
          -1.4347503758809632
        ],
        [
          -2.625839820688252,
          -0.2379676305726421,
          1.4245312365319844
        ]
      ],
      [
        [
          0.31306641379530087,
          0.3323477770389709,
          1.227649449954047
        ],
        [
          0.15906235783802256,
          0.38632398233099297,
          1.4551017164521132
        ],
        [
          -0.18231503325806206,
          -0.19184982081138002,
          0.8776882563213343
        ],
        [
          -0.042671921443598736,
          1.4522714822446114,
          0.14708739724203998
        ]
      ],
      [
        [
          0.7289632282625583,
          1.2866545955904858,
          0.10154352215943807
        ],
        [
          -0.15361731124825928,
          0.2745578041091814,
          -0.47916858729341505
        ],
        [
          0.946573470730008,
          -0.2679331942256167,
          0.6766353068549923
        ],
        [
          0.7373992656151461,
          0.015307006787476905,
          -0.8795835933738969
        ]
      ],
      [
        [
          -1.3314090011000903,
          0.3414226781488681,
          0.7490788807996543
        ],
        [
          0.44754757964445435,
          1.7522103354893301,
          0.4244049101040925
        ],
        [
          1.8493191443122883,
          0.3562327540169064,
          -0.2190317954340062
        ],
        [
          -0.9511828434742953,
          0.3940148317666115,
          1.3396850843690546
        ]
      ],
      [
        [
          -0.032892424372763,
          0.12985359028604435,
          0.46796493752857565
        ],
        [
          0.5827259880969768,
          1.265489101245341,
          0.6882350758308032
        ],
        [
          -0.27905473141767306,
          -0.018574388045725393,
          0.5918709779971671
        ],
        [
          0.7243698833936117,
          1.3980694698377136,
          -0.1283060571458171
        ]
      ]
    ]
  },
  "metrics": {
    "stage1_min_cost": 0.013785699914755183,
    "stage2_min_cost": 0.11026446112184957,
    "mse_train_noise": 0.04249628927590868,
    "mse_train_recovered": 0.025527658104653288,
    "delta_train_pct": 39.92967729743636,
    "mse_test_noise": 0.03574197205136823,
    "mse_test_recovered": 0.017725325844304064,
    "delta_test_pct": 50.40753258150028,
    "mse_train_recovered_pure": 0.004781590662245764,
    "mse_test_recovered_pure": 0.005870102807770897
  },
  "artifacts": {
    "weights_s1_file": "weights_s1_inst03_L5.npy",
    "weights_s2_file": "weights_s2_inst03_L5.npy",
    "circuit_stage1": "circuit_stage1_4q_3l_1t_sidekick_L5_inst03.eps",
    "circuit_stage2": "circuit_stage2_4q_3l_1t_sidekick_L5_inst03.eps",
    "circuit_full": "circuit_full_4q_3l_1t_sidekick_L5_inst03.eps",
    "training_cost_s1_plot": "training_cost_s1_inst03_L5.eps",
    "training_cost_s2_plot": "training_cost_s2_inst03_L5.eps",
    "reconstruction_pure_plot": "reconstruction_pure_inst03_L5.eps",
    "reconstruction_noisy_plot": "reconstruction_noisy_inst03_L5.eps"
  }
}