{
  "schema": {
    "name": "monolith_qae_bundle",
    "version": "1.0"
  },
  "timestamp": "2025-12-02 19:41:34",
  "dataset": {
    "id": "mackey_glass_tau17_n200",
    "scale_low": 0.0,
    "scale_high": 1.0,
    "window_size": 4,
    "window_step": 2,
    "split": 0.75
  },
  "run": {
    "instance_id": 2,
    "layer": 5,
    "sigma_eval": 0.2,
    "test_seed_fixed": 99123,
    "device_seed": 15046,
    "training_time_sec": 283
  },
  "environment": {
    "device": "lightning.qubit",
    "diff_method": "adjoint",
    "interface": "autograd"
  },
  "architecture": {
    "type": "monolith",
    "n_qubits": 4,
    "n_latent": 2,
    "n_trash": 2,
    "n_extra": 0,
    "rot": "Rxyz"
  },
  "parameters": {
    "weights": [
      [
        [
          2.1122373686874596,
          0.19154543137564706,
          -0.9485291358456832
        ],
        [
          0.5958633470864486,
          0.33873981967969097,
          -0.0023030645507842126
        ],
        [
          1.2295369531271694,
          1.162117633133262,
          1.7404204522047555
        ],
        [
          0.14123205524511498,
          -1.2712572802620172,
          0.4593136742594861
        ]
      ],
      [
        [
          0.9399460923749727,
          1.924948351715483,
          0.1090227126160368
        ],
        [
          0.3201078377971961,
          0.4620696658357214,
          -1.0053082770558894
        ],
        [
          0.13423192312726195,
          -1.8292648685100807,
          0.2691976308197755
        ],
        [
          0.8138732295229922,
          -0.971291303935218,
          -0.2428273457116332
        ]
      ],
      [
        [
          0.34430732864697766,
          0.7218270014817987,
          1.4502711614355177
        ],
        [
          -0.7848949779827556,
          0.7252962201490363,
          1.0022138064132733
        ],
        [
          1.312124674166007,
          -0.48637445301459364,
          1.047330974445901
        ],
        [
          -0.7115327010739655,
          0.8138924884404468,
          -0.22511775837606765
        ]
      ],
      [
        [
          1.346176083686519,
          0.7981823567612396,
          1.6560133561676387
        ],
        [
          0.6543414159419682,
          0.9373392636154074,
          -0.29540939532528104
        ],
        [
          0.48394638194409145,
          -0.4593524036455651,
          -0.32999597737767733
        ],
        [
          -0.5641560729362451,
          0.8449104312814643,
          -0.8842475990133003
        ]
      ],
      [
        [
          -0.4575248442243187,
          -0.045521274047471125,
          1.5614618620644007
        ],
        [
          -0.2668555392596976,
          1.0392557669294407,
          1.7732563705762407
        ],
        [
          2.8539243470859432,
          1.347490412018647,
          1.4998106966606428
        ],
        [
          0.10781328373472271,
          -0.31149955628632253,
          -0.8326825138020427
        ]
      ],
      [
        [
          0.572345059749197,
          0.21786355373840416,
          -0.46398034248545234
        ],
        [
          0.08238477939572894,
          -0.16132452402557826,
          -0.40226426799447534
        ],
        [
          0.6134773859251846,
          0.586971418723396,
          -0.1461261627631067
        ],
        [
          0.6261781491157282,
          1.0245757508971043,
          -1.2488221646477808
        ]
      ],
      [
        [
          1.2628971223693435,
          0.33216424820076945,
          1.3537113484426144
        ],
        [
          -1.798567341994238,
          -0.13228849171095525,
          0.8173081353202809
        ],
        [
          0.5964814025362092,
          1.1007516991988309,
          0.350602846237904
        ],
        [
          1.8661407159373102,
          0.5815738544493193,
          -0.5933720079510547
        ]
      ],
      [
        [
          0.22041693649295482,
          0.801351680365076,
          0.31358533772253
        ],
        [
          -0.5546907161407983,
          1.8184886107673117,
          -0.018907648290560852
        ],
        [
          0.3899929425884202,
          0.5766417438903464,
          0.626663037658298
        ],
        [
          1.6002914246380184,
          -0.26605185634810913,
          -0.21756472889321665
        ]
      ],
      [
        [
          -0.7080424097914144,
          -0.9797414901799193,
          1.1670008439271926
        ],
        [
          0.2879036354389871,
          -0.7099466406981876,
          0.12903968625759676
        ],
        [
          -0.3156044179907507,
          -0.05528475032817308,
          1.4407784191248023
        ],
        [
          1.3978669680696003,
          1.6101161433981481,
          0.17862468055354183
        ]
      ],
      [
        [
          -0.6603146115356946,
          -1.3103033215488469,
          -0.9698707993593002
        ],
        [
          -0.15013608784198143,
          -0.5568109624207345,
          1.018998917374942
        ],
        [
          -0.20196334119997705,
          -0.5269604808535915,
          -0.6607799513807919
        ],
        [
          0.1117876251267479,
          -0.0021504629885901474,
          1.3186807097050905
        ]
      ]
    ]
  },
  "metrics": {
    "mse_train_noise": 0.0404157849091556,
    "mse_train_recovered": 0.01814251653775311,
    "delta_train_pct": 55.110319944217665,
    "mse_test_noise": 0.041028325215984866,
    "mse_test_recovered": 0.020137935580875177,
    "delta_test_pct": 50.916993382344245,
    "mse_train_recovered_pure": 0.0044230102530366695,
    "mse_test_recovered_pure": 0.007876918820451974,
    "min_train_cost": 0.008268166827215812
  },
  "artifacts": {
    "weights_file": "weights_inst02_L5.npy",
    "circuit_diagram": "circuit_4q_2l_2t_L5_inst02.eps",
    "training_cost_plot": "training_cost_inst02_L5.eps",
    "cost_history": "cost_inst02_L5.json",
    "reconstruction_pure_plot": "reconstruction_pure_inst02_L5.eps",
    "reconstruction_noisy_plot": "reconstruction_noisy_inst02_L5.eps"
  }
}