{
  "schema": {
    "name": "sidekick_qae_bundle",
    "version": "1.0"
  },
  "timestamp": "2025-12-01 23:13:41",
  "dataset": {
    "id": "mackey_glass_tau17_n200",
    "scale_low": 0.0,
    "scale_high": 1.0,
    "window_size": 6,
    "window_step": 2,
    "split": 0.75
  },
  "run": {
    "instance_id": 7,
    "layer": 3,
    "sigma_eval": 0.2,
    "test_seed_fixed": 99123,
    "device_seed": 13051,
    "stage1_time_sec": 184,
    "stage2_time_sec": 359
  },
  "environment": {
    "device": "lightning.qubit",
    "diff_method": "adjoint",
    "interface": "autograd"
  },
  "architecture": {
    "type": "sidekick",
    "n_qubits": 6,
    "n_latent": 4,
    "n_trash": 2,
    "rot": "Rxyz"
  },
  "parameters": {
    "weights_stage1": [
      [
        [
          1.5711225801894075,
          -1.5714093042118207,
          -1.548306690551002
        ],
        [
          0.0010897531691874897,
          0.20396540495694665,
          1.5519961013268275
        ],
        [
          0.0006281208947869548,
          -2.3301647667079886,
          0.011930519494363592
        ],
        [
          3.148784666683453,
          1.2077589966415618,
          -1.7271270669886993
        ],
        [
          0.18751622524017778,
          0.20179048427810123,
          1.3431597642538033
        ],
        [
          1.5596084430337478,
          -1.5345433133934763,
          -1.28421269616435
        ]
      ],
      [
        [
          0.5183090438202123,
          -0.03252046606160032,
          -0.4077365677523808
        ],
        [
          0.014135835003465193,
          -0.07793222654457146,
          -0.3444081455427265
        ],
        [
          0.02123379950962029,
          0.004347731825540327,
          -0.056890797332998524
        ],
        [
          -0.08627935298408937,
          -0.002479249658224073,
          -0.1762741608129002
        ],
        [
          -0.6153156904098944,
          0.12631653747937327,
          0.4451050451383205
        ],
        [
          -0.05710915864106473,
          0.0020647495751127763,
          0.0561776275503941
        ]
      ],
      [
        [
          0.0909269880264303,
          0.006128600762806884,
          0.24353546885561556
        ],
        [
          -0.31271561383849444,
          1.5716930383767878,
          0.21347307300657484
        ],
        [
          -1.9092549305678485e-05,
          1.580670633215647,
          0.186981690910007
        ],
        [
          0.008810459815969767,
          0.26860454221697694,
          0.025671440460243933
        ],
        [
          0.390214549370124,
          1.5678118126995773,
          0.1803866728579559
        ],
        [
          -0.0007890062107866767,
          1.5709505862689985,
          0.001961349408863427
        ]
      ]
    ],
    "weights_stage2": [
      [
        [
          1.5707733410012379,
          -1.5759567255111455,
          -1.6020353519406736
        ],
        [
          0.0017532183100845162,
          0.2881167840068234,
          1.5544901083293994
        ],
        [
          -0.008752367618752054,
          -2.3289561027647188,
          0.006308340950072294
        ],
        [
          3.146686783628174,
          1.19847127283235,
          -1.725076825762791
        ],
        [
          0.0024228227320722997,
          0.7879255196318051,
          1.524573087910448
        ],
        [
          1.5682870193418599,
          -1.5845317644474488,
          -1.7711981564394126
        ]
      ],
      [
        [
          1.6281721436505776,
          0.0076738177892072545,
          -1.5951128884263928
        ],
        [
          0.2529891639264553,
          -0.042295448450527844,
          -0.36193664797044
        ],
        [
          0.1247203814434381,
          0.011736861246827582,
          -0.1768951155873801
        ],
        [
          0.04557952861696058,
          -0.0077370522005095,
          0.0018236160256271425
        ],
        [
          -1.5919478530861384,
          -0.5683888888597963,
          1.5829301784714909
        ],
        [
          1.5771261945185004,
          -0.07166384213468992,
          -1.5771605171849477
        ]
      ],
      [
        [
          -0.06643395819054711,
          0.025911921449333814,
          0.4015263031475377
        ],
        [
          -0.4457445669012631,
          1.566750213813624,
          0.00824613520445995
        ],
        [
          3.052849820081961,
          1.5617033563799194,
          -0.022815594980134992
        ],
        [
          0.023321339568194332,
          0.2650488474974952,
          0.015440676529550003
        ],
        [
          0.08547887680400897,
          1.572424312409693,
          0.3531180837407693
        ],
        [
          -0.00039446707675119607,
          1.5567341001832975,
          0.15804070496549438
        ]
      ]
    ]
  },
  "metrics": {
    "stage1_min_cost": 0.0868277446502433,
    "stage2_min_cost": 0.18192601879881354,
    "mse_train_noise": 0.0400301695648753,
    "mse_train_recovered": 0.025499376252341156,
    "delta_train_pct": 36.299604699362234,
    "mse_test_noise": 0.04102832521598486,
    "mse_test_recovered": 0.03272513927814159,
    "delta_test_pct": 20.237691629216926,
    "mse_train_recovered_pure": 0.0041895418166884415,
    "mse_test_recovered_pure": 0.008584172550299458
  },
  "artifacts": {
    "weights_s1_file": "weights_s1_inst07_L3.npy",
    "weights_s2_file": "weights_s2_inst07_L3.npy",
    "circuit_stage1": "circuit_stage1_6q_4l_2t_sidekick_L3_inst07.eps",
    "circuit_stage2": "circuit_stage2_6q_4l_2t_sidekick_L3_inst07.eps",
    "circuit_full": "circuit_full_6q_4l_2t_sidekick_L3_inst07.eps",
    "training_cost_s1_plot": "training_cost_s1_inst07_L3.eps",
    "training_cost_s2_plot": "training_cost_s2_inst07_L3.eps",
    "reconstruction_pure_plot": "reconstruction_pure_inst07_L3.eps",
    "reconstruction_noisy_plot": "reconstruction_noisy_inst07_L3.eps"
  }
}