{
  "schema": {
    "name": "sidekick_qae_bundle",
    "version": "1.0"
  },
  "timestamp": "2025-12-02 04:41:42",
  "dataset": {
    "id": "mackey_glass_tau17_n200",
    "scale_low": 0.0,
    "scale_high": 1.0,
    "window_size": 6,
    "window_step": 2,
    "split": 0.75
  },
  "run": {
    "instance_id": 7,
    "layer": 3,
    "sigma_eval": 0.2,
    "test_seed_fixed": 99123,
    "device_seed": 13051,
    "stage1_time_sec": 191,
    "stage2_time_sec": 357
  },
  "environment": {
    "device": "lightning.qubit",
    "diff_method": "adjoint",
    "interface": "autograd"
  },
  "architecture": {
    "type": "sidekick",
    "n_qubits": 6,
    "n_latent": 2,
    "n_trash": 4,
    "rot": "Rxyz"
  },
  "parameters": {
    "weights_stage1": [
      [
        [
          5.775369322406667e-05,
          1.462654838628965,
          -0.004720381260492909
        ],
        [
          -5.26009344023268e-05,
          -1.6777888506132057,
          1.5671753389666758
        ],
        [
          1.5698381179109402,
          -1.5707942749104296,
          -0.06925960450658016
        ],
        [
          7.875020116160279e-05,
          1.4539800389837652,
          1.5711470246325658
        ],
        [
          -6.356517730683567e-05,
          1.1567025909216844,
          -0.0050654480227795146
        ],
        [
          4.596499076406261e-05,
          1.2432407573917648,
          1.5756153863751683
        ]
      ],
      [
        [
          1.649457452734724,
          -0.2049694705536903,
          -0.7702350798298916
        ],
        [
          0.25160589833527763,
          -1.4727578288063983,
          0.35905317286137667
        ],
        [
          1.837244476005873,
          0.5337017384603077,
          0.0285691710221155
        ],
        [
          0.9287190811361851,
          1.4431946906554731,
          0.09669423127797437
        ],
        [
          -1.597395753888815,
          0.17500313694626976,
          -0.0017237292775094545
        ],
        [
          -0.4450333953329804,
          -1.5709164505807087,
          0.0002735633775721767
        ]
      ],
      [
        [
          0.02175546119086228,
          -0.018621339090793318,
          0.24353546886046168
        ],
        [
          -0.011897202228607748,
          1.5724012005161674,
          0.21347307303284127
        ],
        [
          -0.06501453431550434,
          0.01336684651520378,
          0.18698169089785108
        ],
        [
          0.0017057651166351862,
          1.577730801996699,
          0.025671440437049248
        ],
        [
          -0.2519334274282328,
          0.009542641138099474,
          0.18038667281767173
        ],
        [
          0.000454322020023038,
          1.592716310315614,
          0.0019613493907293627
        ]
      ]
    ],
    "weights_stage2": [
      [
        [
          -0.49161980987473475,
          1.736548751360952,
          1.227995108972878
        ],
        [
          -0.03227182337867949,
          -1.4309367542991822,
          2.053410112108189
        ],
        [
          1.5702787003040555,
          -1.5695625811656595,
          -0.30144499263071056
        ],
        [
          -2.9809385661682146,
          2.6799533581383277,
          3.1524600023175866
        ],
        [
          0.04227803750914251,
          1.0247610558272489,
          -1.6078220648152186
        ],
        [
          -0.012014055175384397,
          1.0331716933273036,
          0.1234903073125403
        ]
      ],
      [
        [
          1.8409206973168988,
          -0.007004396094457593,
          -0.039188253474980145
        ],
        [
          0.20553575448497743,
          -1.663451870587027,
          0.08987544512561602
        ],
        [
          1.2088095158611347,
          0.1197200407796309,
          0.37492476887523574
        ],
        [
          -0.06011112677163223,
          1.5733500574233577,
          0.109501761562069
        ],
        [
          -1.531257625933876,
          -0.05147914792083267,
          0.18369869791007465
        ],
        [
          0.28299940949562424,
          -1.5798623346847493,
          -0.010451151379547018
        ]
      ],
      [
        [
          -0.600410298295168,
          -0.047618410138886194,
          -1.1425936763357667
        ],
        [
          0.282372562050375,
          1.740566991868388,
          -0.32931052658200577
        ],
        [
          -0.06501453252012163,
          0.013366847757881198,
          0.18698169075081938
        ],
        [
          -0.013308658358089254,
          1.5459716198840325,
          -0.7944864118485273
        ],
        [
          -0.5851614514731531,
          0.11630073991098173,
          -0.34782554919088066
        ],
        [
          0.0004543220743357061,
          1.5927163097298311,
          0.00196135235856767
        ]
      ]
    ]
  },
  "metrics": {
    "stage1_min_cost": 0.21986389565132333,
    "stage2_min_cost": 0.22586323183706727,
    "mse_train_noise": 0.0400301695648753,
    "mse_train_recovered": 0.05018614941596295,
    "delta_train_pct": -25.370813967271012,
    "mse_test_noise": 0.04102832521598486,
    "mse_test_recovered": 0.04645944931840163,
    "delta_test_pct": -13.237498907951473,
    "mse_train_recovered_pure": 0.04079599889170096,
    "mse_test_recovered_pure": 0.040539605194569374
  },
  "artifacts": {
    "weights_s1_file": "weights_s1_inst07_L3.npy",
    "weights_s2_file": "weights_s2_inst07_L3.npy",
    "circuit_stage1": "circuit_stage1_6q_2l_4t_sidekick_L3_inst07.eps",
    "circuit_stage2": "circuit_stage2_6q_2l_4t_sidekick_L3_inst07.eps",
    "circuit_full": "circuit_full_6q_2l_4t_sidekick_L3_inst07.eps",
    "training_cost_s1_plot": "training_cost_s1_inst07_L3.eps",
    "training_cost_s2_plot": "training_cost_s2_inst07_L3.eps",
    "reconstruction_pure_plot": "reconstruction_pure_inst07_L3.eps",
    "reconstruction_noisy_plot": "reconstruction_noisy_inst07_L3.eps"
  }
}