{
  "schema": {
    "name": "sidekick_qae_bundle",
    "version": "1.0"
  },
  "timestamp": "2025-12-02 04:14:03",
  "dataset": {
    "id": "mackey_glass_tau17_n200",
    "scale_low": 0.0,
    "scale_high": 1.0,
    "window_size": 6,
    "window_step": 2,
    "split": 0.75
  },
  "run": {
    "instance_id": 4,
    "layer": 3,
    "sigma_eval": 0.2,
    "test_seed_fixed": 99123,
    "device_seed": 13048,
    "stage1_time_sec": 190,
    "stage2_time_sec": 354
  },
  "environment": {
    "device": "lightning.qubit",
    "diff_method": "adjoint",
    "interface": "autograd"
  },
  "architecture": {
    "type": "sidekick",
    "n_qubits": 6,
    "n_latent": 2,
    "n_trash": 4,
    "rot": "Rxyz"
  },
  "parameters": {
    "weights_stage1": [
      [
        [
          -0.6326622566610989,
          -0.08032287542375607,
          0.6330150100555962
        ],
        [
          -0.27718834074306303,
          -0.2044807555446048,
          0.2712510390356705
        ],
        [
          0.12165546179825118,
          -0.2590048626590751,
          -0.11991156685290967
        ],
        [
          -1.5612888540332115,
          -1.5482663767017861,
          1.19369081592403
        ],
        [
          0.08745212970132928,
          -0.28549067404308587,
          1.4928059085006498
        ],
        [
          -0.9914644294998503,
          -0.8339403994005639,
          -0.7602697104932529
        ]
      ],
      [
        [
          0.011347886626024973,
          1.5698908765604986,
          0.10233246777735293
        ],
        [
          0.3707753299146528,
          0.20690191028142754,
          1.227654564868043
        ],
        [
          -0.0025731027418945877,
          1.5776158711377257,
          1.526936150843286
        ],
        [
          1.389537075312223,
          0.24402192348980556,
          -1.3697023105107944
        ],
        [
          -0.05853048538366231,
          -1.5795152074462921,
          0.08187268765797781
        ],
        [
          -0.8057010390275138,
          -0.018261497122740177,
          0.8038469004340888
        ]
      ],
      [
        [
          0.01822105623093644,
          -0.1643680227724149,
          0.26054751695323397
        ],
        [
          -0.5328953347556018,
          0.012821128353890486,
          0.2771932722598883
        ],
        [
          -0.011149984186603843,
          0.1954582423860977,
          0.17416317207539603
        ],
        [
          0.23286762052912158,
          1.565444606484913,
          0.027538430047257624
        ],
        [
          1.5442698489436784,
          0.04407575786787699,
          0.17430469851286504
        ],
        [
          1.576375142789815,
          1.533839293201756,
          0.02803015960509303
        ]
      ]
    ],
    "weights_stage2": [
      [
        [
          -1.570630303183649,
          -1.5453241415647707,
          1.451601998809128
        ],
        [
          -1.5669141903243557,
          -1.5514007524238762,
          0.8590287860220991
        ],
        [
          0.4448756595277524,
          -0.4075498589374542,
          -0.4209174719116463
        ],
        [
          -0.09089410232307442,
          0.276388212049705,
          0.08349206000691534
        ],
        [
          -0.012114105426579364,
          -0.6260575040932419,
          1.586999227229537
        ],
        [
          -1.5615079436199935,
          -1.5891788911571791,
          -0.48886873646745826
        ]
      ],
      [
        [
          0.000486057724114004,
          1.5736666299852018,
          3.0843225701939203
        ],
        [
          1.5330814468898306,
          -1.3522794567317737,
          0.19770864684050832
        ],
        [
          -0.001940505501631572,
          1.5642535307630756,
          1.418656367059184
        ],
        [
          1.565096919910972,
          -0.03639369079585872,
          -1.5644296079697197
        ],
        [
          -0.0023538201519086098,
          -1.5706662485065799,
          -1.1930831426067083
        ],
        [
          -1.5752412746882185,
          0.0023830279550269666,
          1.5723756093369345
        ]
      ],
      [
        [
          -0.4109820281447672,
          0.05883828898515819,
          0.36022140132420316
        ],
        [
          -0.6602383718995481,
          -0.002571869020286921,
          0.3377670204772179
        ],
        [
          -0.011149984125343744,
          0.19545824286424648,
          0.17416317097013836
        ],
        [
          -0.14043577005374971,
          1.5672164563255218,
          -1.2602586645482645
        ],
        [
          1.4061357429503378,
          -0.0006353414340824548,
          0.0056940622023269934
        ],
        [
          1.5763751429742847,
          1.5338392958572618,
          0.02803015748221134
        ]
      ]
    ]
  },
  "metrics": {
    "stage1_min_cost": 0.2636603702181893,
    "stage2_min_cost": 0.2291651859957638,
    "mse_train_noise": 0.0400301695648753,
    "mse_train_recovered": 0.0575373287596983,
    "delta_train_pct": -43.734911405883146,
    "mse_test_noise": 0.04102832521598486,
    "mse_test_recovered": 0.05270304339116086,
    "delta_test_pct": -28.45526380547325,
    "mse_train_recovered_pure": 0.05544220265509741,
    "mse_test_recovered_pure": 0.05142081526435215
  },
  "artifacts": {
    "weights_s1_file": "weights_s1_inst04_L3.npy",
    "weights_s2_file": "weights_s2_inst04_L3.npy",
    "circuit_stage1": "circuit_stage1_6q_2l_4t_sidekick_L3_inst04.eps",
    "circuit_stage2": "circuit_stage2_6q_2l_4t_sidekick_L3_inst04.eps",
    "circuit_full": "circuit_full_6q_2l_4t_sidekick_L3_inst04.eps",
    "training_cost_s1_plot": "training_cost_s1_inst04_L3.eps",
    "training_cost_s2_plot": "training_cost_s2_inst04_L3.eps",
    "reconstruction_pure_plot": "reconstruction_pure_inst04_L3.eps",
    "reconstruction_noisy_plot": "reconstruction_noisy_inst04_L3.eps"
  }
}