{
  "schema": {
    "name": "sidekick_qae_bundle",
    "version": "1.0"
  },
  "timestamp": "2025-12-02 03:46:24",
  "dataset": {
    "id": "mackey_glass_tau17_n200",
    "scale_low": 0.0,
    "scale_high": 1.0,
    "window_size": 6,
    "window_step": 2,
    "split": 0.75
  },
  "run": {
    "instance_id": 1,
    "layer": 3,
    "sigma_eval": 0.2,
    "test_seed_fixed": 99123,
    "device_seed": 13045,
    "stage1_time_sec": 191,
    "stage2_time_sec": 356
  },
  "environment": {
    "device": "lightning.qubit",
    "diff_method": "adjoint",
    "interface": "autograd"
  },
  "architecture": {
    "type": "sidekick",
    "n_qubits": 6,
    "n_latent": 2,
    "n_trash": 4,
    "rot": "Rxyz"
  },
  "parameters": {
    "weights_stage1": [
      [
        [
          -0.04801699879307308,
          0.10126299274015238,
          0.048761955221652796
        ],
        [
          -0.9272842198420229,
          -0.13938430539176458,
          0.9230785430079532
        ],
        [
          0.510837555141213,
          -0.25545668306535957,
          -0.49686421446873813
        ],
        [
          0.5375681625596967,
          -0.5635604321683068,
          -0.46591723150434206
        ],
        [
          0.6124850691741679,
          -0.5245886202036494,
          -0.5457904719209851
        ],
        [
          1.3370522584594864,
          -1.1462608594712218,
          -1.0408380179332757
        ]
      ],
      [
        [
          0.005897109185702013,
          1.5645824631020284,
          -1.4041738781946311
        ],
        [
          0.022644308302389726,
          1.742363307360192,
          -0.8359826154007841
        ],
        [
          0.0027102422051630158,
          1.551527092757661,
          -0.2841659594390611
        ],
        [
          -0.005189444190901038,
          1.581150270084822,
          -0.3150739338211809
        ],
        [
          0.0041451774984439735,
          1.5807792712795332,
          -0.01083950733884622
        ],
        [
          -0.005132691136889263,
          -1.5810006082821282,
          0.11316343800466197
        ]
      ],
      [
        [
          -0.1044944226470138,
          0.05550551556907524,
          0.21916500322421978
        ],
        [
          0.7487563717953435,
          0.24249092107689285,
          0.07624422011326298
        ],
        [
          0.2650298572349916,
          -0.20288739397682407,
          0.07273266095797913
        ],
        [
          0.9208087736251862,
          0.13769581635619102,
          0.05360220806701252
        ],
        [
          0.5730300175611878,
          0.05081430265351126,
          0.2181759519782062
        ],
        [
          0.022507783286085846,
          0.07062328740446357,
          0.18631616687088196
        ]
      ]
    ],
    "weights_stage2": [
      [
        [
          -0.31192677567779303,
          0.06895441082927505,
          0.3018066595915343
        ],
        [
          -1.5850280915930057,
          -0.07442061707996837,
          1.560503452755408
        ],
        [
          1.006171537848395,
          -0.7246991040324045,
          -0.830484881050214
        ],
        [
          0.024431457561998892,
          -0.5470095542982134,
          -0.055677048051396234
        ],
        [
          -0.0627724415832689,
          -0.8229778417899467,
          0.040228791245300356
        ],
        [
          1.5491621787720196,
          -1.5875682757841119,
          -1.14936383881676
        ]
      ],
      [
        [
          0.02162829110078503,
          1.5480283371770507,
          -1.5417943523351947
        ],
        [
          0.02231651797219357,
          1.6227854176832957,
          -1.574170091817408
        ],
        [
          -0.023790093912653146,
          1.5596492114842948,
          0.03839143430304751
        ],
        [
          -0.006175026699925002,
          1.5509420898873745,
          0.005579474661083618
        ],
        [
          -0.0069378503790695194,
          1.5813965841606699,
          -0.05463412931583876
        ],
        [
          0.1228675770803995,
          -1.5094518751569377,
          -0.008437557090873295
        ]
      ],
      [
        [
          -0.07550984048032833,
          0.05398419132501042,
          1.5236786765913775
        ],
        [
          0.7607763101929488,
          -0.014170933528423958,
          0.8390069285426094
        ],
        [
          0.26502985816403263,
          -0.20288739412663565,
          0.07273266210258944
        ],
        [
          0.8533000974647776,
          -0.009517577471155742,
          -0.9219956710574946
        ],
        [
          0.05096919139367996,
          -0.004256380992301599,
          -0.1387072775013647
        ],
        [
          0.022507783960519927,
          0.0706232879755711,
          0.18631616720240474
        ]
      ]
    ]
  },
  "metrics": {
    "stage1_min_cost": 0.26717006036123203,
    "stage2_min_cost": 0.2920097386967436,
    "mse_train_noise": 0.0400301695648753,
    "mse_train_recovered": 0.060791235339541415,
    "delta_train_pct": -51.863546920578216,
    "mse_test_noise": 0.04102832521598486,
    "mse_test_recovered": 0.05440721133544679,
    "delta_test_pct": -32.60890140904276,
    "mse_train_recovered_pure": 0.05803086930487736,
    "mse_test_recovered_pure": 0.04973291903346397
  },
  "artifacts": {
    "weights_s1_file": "weights_s1_inst01_L3.npy",
    "weights_s2_file": "weights_s2_inst01_L3.npy",
    "circuit_stage1": "circuit_stage1_6q_2l_4t_sidekick_L3_inst01.eps",
    "circuit_stage2": "circuit_stage2_6q_2l_4t_sidekick_L3_inst01.eps",
    "circuit_full": "circuit_full_6q_2l_4t_sidekick_L3_inst01.eps",
    "training_cost_s1_plot": "training_cost_s1_inst01_L3.eps",
    "training_cost_s2_plot": "training_cost_s2_inst01_L3.eps",
    "reconstruction_pure_plot": "reconstruction_pure_inst01_L3.eps",
    "reconstruction_noisy_plot": "reconstruction_noisy_inst01_L3.eps"
  }
}