{
  "schema": {
    "name": "sidekick_qae_bundle",
    "version": "1.0"
  },
  "timestamp": "2025-12-05 10:01:52",
  "dataset": {
    "id": "mackey_glass_tau30_n200",
    "scale_low": 0.0,
    "scale_high": 1.0,
    "window_size": 6,
    "window_step": 2,
    "split": 0.75
  },
  "run": {
    "instance_id": 1,
    "layer": 3,
    "sigma_eval": 0.2,
    "test_seed_fixed": 99123,
    "device_seed": 13045,
    "stage1_time_sec": 193,
    "stage2_time_sec": 345
  },
  "environment": {
    "device": "lightning.qubit",
    "diff_method": "adjoint",
    "interface": "autograd"
  },
  "architecture": {
    "type": "sidekick",
    "n_qubits": 6,
    "n_latent": 2,
    "n_trash": 4,
    "rot": "Rxyz"
  },
  "parameters": {
    "weights_stage1": [
      [
        [
          0.31371359931186654,
          -0.19942934994536668,
          -0.3072045879533025
        ],
        [
          -0.8922501339392412,
          -0.45382311735625014,
          0.8397088892369016
        ],
        [
          1.6221351525290386,
          -1.7061981349660513,
          -1.2017783558919686
        ],
        [
          0.3931846306885048,
          -0.45286752859002793,
          -0.35802913220463634
        ],
        [
          0.6882136927128027,
          -0.5372146843812416,
          -0.6141414086220546
        ],
        [
          1.178539940170159,
          -0.9069954091172757,
          -0.981780174065758
        ]
      ],
      [
        [
          -0.009092627123096369,
          1.5647069952114532,
          -0.9714744267700561
        ],
        [
          0.06699284975325087,
          1.7994288797127296,
          -0.8079445320241078
        ],
        [
          -0.017004681481356875,
          1.571142615912924,
          -0.17356896387641937
        ],
        [
          -0.08040937727208647,
          1.5416007685704378,
          -0.17792975382483917
        ],
        [
          0.002711703084713884,
          1.5680011551632898,
          0.07008073724332951
        ],
        [
          0.013447367090619663,
          -1.5642570961038267,
          0.19680957413550149
        ]
      ],
      [
        [
          0.4745547059238135,
          0.04309272385102964,
          0.219165003418962
        ],
        [
          -0.8997434498199443,
          0.20453750695040637,
          0.0762442198545476
        ],
        [
          0.35581306904204363,
          -0.2245650418802488,
          0.07273266126233204
        ],
        [
          0.7546753960181174,
          0.19345715978097167,
          0.05360220823602558
        ],
        [
          -0.2391651183256142,
          0.0073234431591329965,
          0.21817595184283825
        ],
        [
          -0.4204913803907053,
          -0.01650476971321376,
          0.18631616696337697
        ]
      ]
    ],
    "weights_stage2": [
      [
        [
          0.730351195866825,
          -0.20689389936967847,
          -0.7140963814503138
        ],
        [
          0.05312243638313798,
          -0.2652321488112184,
          -0.03650811592681951
        ],
        [
          2.3579942835814087,
          -2.539912379858959,
          -0.688508758538991
        ],
        [
          -0.0026510304986208043,
          -0.5055371324830333,
          0.0011362127009626002
        ],
        [
          0.3714525597299664,
          -0.5116581772089818,
          -0.3161718740407674
        ],
        [
          1.3755743369434168,
          -1.3115016561315447,
          -0.915660602600499
        ]
      ],
      [
        [
          0.022762581796659697,
          1.5942921248516917,
          -1.59579945628875
        ],
        [
          -0.023943620154220253,
          1.6849282861717263,
          -1.511322208892937
        ],
        [
          0.0176778570939578,
          1.569483324041535,
          0.022939195795952577
        ],
        [
          -0.017813635546395725,
          1.6088291719005126,
          -0.016619700868495277
        ],
        [
          0.0074809896629647096,
          1.5764305295931094,
          0.12873860474823193
        ],
        [
          0.011409251923568575,
          -1.5663868119161894,
          -0.0736357762197231
        ]
      ],
      [
        [
          -0.2791815946006056,
          -0.5919387387160906,
          1.7423029409466984
        ],
        [
          -0.08017073987059944,
          -0.09869758528106029,
          -1.3952527469429319
        ],
        [
          0.3558130671509668,
          -0.22456504005476224,
          0.07273265935565013
        ],
        [
          1.2065068926892837,
          0.123252528535461,
          -0.6221745685002144
        ],
        [
          -0.03411488400597828,
          -0.0025149639159654505,
          0.2470187035163081
        ],
        [
          -0.42049138147728626,
          -0.01650476986048321,
          0.1863161663445579
        ]
      ]
    ]
  },
  "metrics": {
    "stage1_min_cost": 0.2634213325249581,
    "stage2_min_cost": 0.2870484147823114,
    "mse_train_noise": 0.04208329887417109,
    "mse_train_recovered": 0.06344781451885978,
    "delta_train_pct": -50.767207458161764,
    "mse_test_noise": 0.03574197205136823,
    "mse_test_recovered": 0.0532384247268587,
    "delta_test_pct": -48.952118955117044,
    "mse_train_recovered_pure": 0.061144479883415294,
    "mse_test_recovered_pure": 0.049120306645717676
  },
  "artifacts": {
    "weights_s1_file": "weights_s1_inst01_L3.npy",
    "weights_s2_file": "weights_s2_inst01_L3.npy",
    "circuit_stage1": "circuit_stage1_6q_2l_4t_sidekick_L3_inst01.eps",
    "circuit_stage2": "circuit_stage2_6q_2l_4t_sidekick_L3_inst01.eps",
    "circuit_full": "circuit_full_6q_2l_4t_sidekick_L3_inst01.eps",
    "training_cost_s1_plot": "training_cost_s1_inst01_L3.eps",
    "training_cost_s2_plot": "training_cost_s2_inst01_L3.eps",
    "reconstruction_pure_plot": "reconstruction_pure_inst01_L3.eps",
    "reconstruction_noisy_plot": "reconstruction_noisy_inst01_L3.eps"
  }
}