{
  "schema": {
    "name": "monolith_qae_bundle",
    "version": "1.0"
  },
  "timestamp": "2025-12-02 21:32:53",
  "dataset": {
    "id": "mackey_glass_tau17_n200",
    "scale_low": 0.0,
    "scale_high": 1.0,
    "window_size": 4,
    "window_step": 2,
    "split": 0.75
  },
  "run": {
    "instance_id": 3,
    "layer": 5,
    "sigma_eval": 0.2,
    "test_seed_fixed": 99123,
    "device_seed": 15047,
    "training_time_sec": 271
  },
  "environment": {
    "device": "lightning.qubit",
    "diff_method": "adjoint",
    "interface": "autograd"
  },
  "architecture": {
    "type": "monolith",
    "n_qubits": 4,
    "n_latent": 3,
    "n_trash": 1,
    "n_extra": 0,
    "rot": "Rxyz"
  },
  "parameters": {
    "weights": [
      [
        [
          0.5819082749146376,
          -1.9457332698400864,
          0.2051977515842716
        ],
        [
          -0.1256213993551754,
          -1.1220759470988684,
          2.0677049105558902
        ],
        [
          0.5052076982267987,
          -0.5791407675415287,
          0.9561660811667672
        ],
        [
          -0.5644154557338331,
          -0.5009798898655643,
          -0.930641595575429
        ]
      ],
      [
        [
          -0.9032002762051574,
          0.7620478045010799,
          -1.083474900677163
        ],
        [
          0.8195547145910869,
          0.2071328994173312,
          0.0004827553552843424
        ],
        [
          -0.0346913683200645,
          0.8276243927083198,
          0.8550288977737389
        ],
        [
          1.5844682024339347,
          0.7933773086556737,
          0.3279070553272444
        ]
      ],
      [
        [
          0.5575788416561833,
          0.09029023669029415,
          0.5609524484372267
        ],
        [
          -0.27350236165335484,
          -0.42378087684952614,
          -0.5422199959379795
        ],
        [
          -0.3268392950495728,
          1.3593925820929724,
          0.3817895001915584
        ],
        [
          -0.5557888613347234,
          1.2080443284887152,
          -1.85667880246318
        ]
      ],
      [
        [
          1.183943388935626,
          -1.0546862820550176,
          1.335628410653016
        ],
        [
          -0.774965888590176,
          1.5200434172572423,
          0.4170165513300795
        ],
        [
          1.0464606191176962,
          -0.48497119810478195,
          1.4011791943920966
        ],
        [
          0.8999235359731665,
          -1.529857419716126,
          1.1678108335704809
        ]
      ],
      [
        [
          1.3015812517876666,
          -1.5299921624270842,
          0.8033415378787604
        ],
        [
          0.2049011084106499,
          1.499141991885398,
          1.08692381093253
        ],
        [
          1.6330656420640903,
          -0.46495858212048136,
          -0.36923409285528824
        ],
        [
          0.593076554424326,
          1.952794309834653,
          1.1919515845631696
        ]
      ],
      [
        [
          0.05257445334300073,
          -0.041077112422874665,
          -4.010060524912399
        ],
        [
          0.01224360737861226,
          -1.641232478383836,
          1.0310683932891735
        ],
        [
          0.2187151939319503,
          0.3156576358640267,
          -2.813844439549342
        ],
        [
          0.3253250783445652,
          -0.6087435576504334,
          -1.3076614775549773
        ]
      ],
      [
        [
          0.3330378031233105,
          -1.8938712412102785,
          0.05324122318700973
        ],
        [
          0.022659767845457503,
          0.24448435068732746,
          1.2982667778184593
        ],
        [
          3.0052343684002896,
          0.08418450340867789,
          -0.39733169378809297
        ],
        [
          2.250761088458679,
          0.292734654751298,
          1.9271555959068636
        ]
      ],
      [
        [
          -0.10975243242220745,
          -1.9990386541037093,
          -0.3026517427761145
        ],
        [
          1.5087885677906168,
          -0.010094622040921312,
          1.363779127219821
        ],
        [
          -0.300794820379023,
          1.611599937101853,
          -2.846239692393726
        ],
        [
          1.064829746490985,
          0.475142885422497,
          0.35676930930213313
        ]
      ],
      [
        [
          -0.9804757187093793,
          -0.01957230118223166,
          -1.2776513595430818
        ],
        [
          -0.86092857717092,
          1.2205194990860573,
          0.9892743587504972
        ],
        [
          1.9036398873519198,
          -0.096618197587489,
          2.300840105261948
        ],
        [
          0.2258697536451208,
          -1.7024142417031052,
          0.04957712736320314
        ]
      ],
      [
        [
          0.20207645029246882,
          0.5712059172219404,
          -0.38102545812430744
        ],
        [
          -0.3924632606357006,
          0.1564929712598025,
          -0.5101974410181664
        ],
        [
          1.1026154605829206,
          -0.34539516523995734,
          0.5558734327117169
        ],
        [
          -0.3325564553265707,
          0.21165109129664722,
          -0.1015745160704515
        ]
      ]
    ]
  },
  "metrics": {
    "mse_train_noise": 0.0404157849091556,
    "mse_train_recovered": 0.018646459641734343,
    "delta_train_pct": 53.86342320544599,
    "mse_test_noise": 0.041028325215984866,
    "mse_test_recovered": 0.020440895873762452,
    "delta_test_pct": 50.17857598096993,
    "mse_train_recovered_pure": 0.0055682962377101766,
    "mse_test_recovered_pure": 0.007333367678606951,
    "min_train_cost": 0.007970709200817123
  },
  "artifacts": {
    "weights_file": "weights_inst03_L5.npy",
    "circuit_diagram": "circuit_4q_3l_1t_L5_inst03.eps",
    "training_cost_plot": "training_cost_inst03_L5.eps",
    "cost_history": "cost_inst03_L5.json",
    "reconstruction_pure_plot": "reconstruction_pure_inst03_L5.eps",
    "reconstruction_noisy_plot": "reconstruction_noisy_inst03_L5.eps"
  }
}