{
  "schema": {
    "name": "stacked_qae_bundle",
    "version": "1.0"
  },
  "timestamp": "2025-12-03 23:42:14",
  "dataset": {
    "id": "mackey_glass_tau17_n200",
    "scale_low": 0.0,
    "scale_high": 1.0,
    "window_size": 4,
    "window_step": 2,
    "split": 0.75
  },
  "run": {
    "instance_id": 2,
    "layer": 4,
    "sigma_eval": 0.2,
    "test_seed_fixed": 99123,
    "device_seed": 14046,
    "stage1_time_sec": 173,
    "stage2_time_sec": 201
  },
  "environment": {
    "device": "lightning.qubit",
    "diff_method": "adjoint",
    "interface": "autograd"
  },
  "architecture": {
    "type": "stacked",
    "n_qubits": 4,
    "n_latent": 2,
    "n_trash": 2,
    "rot": "Rxyz"
  },
  "parameters": {
    "weights_stage1": [
      [
        [
          -2.408390868908447,
          0.10204980608296854,
          0.9352449383404329
        ],
        [
          1.8241391430032148,
          1.5317896377206965,
          -0.05998732105592495
        ],
        [
          1.3181033657492454,
          0.050830326628316776,
          -1.4064296949657689
        ],
        [
          -0.06020507693511617,
          -0.0503481075470138,
          0.7855033312010293
        ]
      ],
      [
        [
          -0.14464877627873385,
          1.4018871069905483,
          -0.8086867505329717
        ],
        [
          -0.5289595428880722,
          0.21743164330312925,
          -0.4939580638840779
        ],
        [
          1.0247790298599029,
          -0.022775307794433645,
          -0.4674858080650454
        ],
        [
          0.5027575168276008,
          0.042498318183081724,
          -0.096443166840448
        ]
      ],
      [
        [
          -0.6021291222840616,
          -0.6851488516482802,
          0.016484007094682996
        ],
        [
          -0.14977574724213258,
          0.004399775729276983,
          -0.23668927706687026
        ],
        [
          -0.15635148429949985,
          -1.5790033726922261,
          0.22521932735509675
        ],
        [
          1.1969160292040466,
          -0.016998570170782292,
          -1.1971966217794445
        ]
      ],
      [
        [
          0.8332066986130306,
          0.6474884613371589,
          0.060819437230806045
        ],
        [
          0.4607314471068155,
          -0.15759162649529826,
          0.04192242119650383
        ],
        [
          0.014745435008595787,
          -0.852462798375206,
          0.25043021857734316
        ],
        [
          1.547350713484701,
          1.5194360700740857,
          0.02925812013411728
        ]
      ]
    ],
    "weights_stage2": [
      [
        [
          -1.3315943809705875,
          0.44024635157692366,
          -0.10407740685583607
        ],
        [
          1.5005940585434618,
          1.2051179233468314,
          0.16713586981797746
        ],
        [
          2.8012265815712527,
          0.9210282019916055,
          -1.9171411428117422
        ],
        [
          -1.4810976939127216,
          0.035555918398218804,
          1.1091527594202173
        ]
      ],
      [
        [
          -0.34794347888783755,
          -0.4744706068788929,
          -1.2126244383548177
        ],
        [
          -1.0159294248168371,
          -0.687661153712474,
          0.13910360385730225
        ],
        [
          0.3666478785660333,
          0.9847437376574236,
          -0.57187839317892
        ],
        [
          1.122072303814453,
          0.8649717009829588,
          -0.5186096140620571
        ]
      ],
      [
        [
          -0.7065217073979346,
          -0.4580555616839994,
          -0.015581143915457498
        ],
        [
          -0.5719421944637422,
          0.0584100502302265,
          -0.5657255452983851
        ],
        [
          -0.6748086076037234,
          -1.7779427601115851,
          1.746884650290267
        ],
        [
          0.7849445993024889,
          -0.3342140827621533,
          -0.660194929097802
        ]
      ],
      [
        [
          1.2906894618854374,
          1.1945486562412615,
          -0.5144892406797525
        ],
        [
          -0.31401373205261335,
          -0.8712013784769399,
          0.8098151246427612
        ],
        [
          0.17730041415258493,
          -0.670827351957302,
          0.2069912407925282
        ],
        [
          1.932834318314642,
          1.0053963167826605,
          0.029258121218360834
        ]
      ]
    ]
  },
  "metrics": {
    "stage1_min_cost": 0.04914630607544341,
    "stage2_min_cost": 0.06205076545959959,
    "mse_train_noise": 0.0404157849091556,
    "mse_train_recovered": 0.02342817860270351,
    "delta_train_pct": 42.03210786240056,
    "mse_test_noise": 0.041028325215984866,
    "mse_test_recovered": 0.02833509915153443,
    "delta_test_pct": 30.93771436594025,
    "mse_train_recovered_pure": 0.008458480752222698,
    "mse_test_recovered_pure": 0.013893674719708732
  },
  "artifacts": {
    "weights_s1_file": "weights_s1_inst02_L4.npy",
    "weights_s2_file": "weights_s2_inst02_L4.npy",
    "circuit_stage1": "circuit_stage1_4q_2l_2t_stacked_L4_inst02.eps",
    "circuit_stage2": "circuit_stage2_4q_2l_2t_stacked_L4_inst02.eps",
    "circuit_full": "circuit_full_4q_2l_2t_stacked_L4_inst02.eps",
    "training_cost_s1_plot": "training_cost_s1_inst02_L4.eps",
    "training_cost_s2_plot": "training_cost_s2_inst02_L4.eps",
    "reconstruction_pure_plot": "reconstruction_pure_inst02_L4.eps",
    "reconstruction_noisy_plot": "reconstruction_noisy_inst02_L4.eps"
  }
}