{
  "schema": {
    "name": "sidekick_qae_bundle",
    "version": "1.0"
  },
  "timestamp": "2025-12-02 06:03:44",
  "dataset": {
    "id": "mackey_glass_tau17_n200",
    "scale_low": 0.0,
    "scale_high": 1.0,
    "window_size": 6,
    "window_step": 2,
    "split": 0.75
  },
  "run": {
    "instance_id": 7,
    "layer": 4,
    "sigma_eval": 0.2,
    "test_seed_fixed": 99123,
    "device_seed": 14051,
    "stage1_time_sec": 246,
    "stage2_time_sec": 449
  },
  "environment": {
    "device": "lightning.qubit",
    "diff_method": "adjoint",
    "interface": "autograd"
  },
  "architecture": {
    "type": "sidekick",
    "n_qubits": 6,
    "n_latent": 2,
    "n_trash": 4,
    "rot": "Rxyz"
  },
  "parameters": {
    "weights_stage1": [
      [
        [
          1.5701637486863345,
          -1.5735266392054175,
          -1.42796427048208
        ],
        [
          -0.9555803846724324,
          -0.02720741502542412,
          -0.5953305227217824
        ],
        [
          -4.722913388630312e-05,
          1.4445357640030656,
          1.5680386547960605
        ],
        [
          -0.443658453443355,
          1.6315566115262212,
          3.118454523918674
        ],
        [
          -0.001082755198522023,
          1.5327720467383301,
          1.5719811176627063
        ],
        [
          1.5452375818158803,
          1.5748381493573314,
          0.20431076836717307
        ]
      ],
      [
        [
          1.6381909719731518,
          -0.3808752744433849,
          -1.6084097764787852
        ],
        [
          -1.4401627404417765,
          -0.0007981925413268342,
          -0.5236976607948713
        ],
        [
          -1.4622124605642859,
          -0.40085925804552,
          1.3574444271831112
        ],
        [
          1.5361054889005228,
          0.3246001119773434,
          -0.08032924268273955
        ],
        [
          1.5400902502821479,
          -0.3604024347975511,
          -1.5785655695541
        ],
        [
          -1.564732715186675,
          -0.7174701600900526,
          -0.0029003432979216176
        ]
      ],
      [
        [
          0.6817247134198031,
          0.7202844314796001,
          1.5523633934820964
        ],
        [
          1.8821749317650203,
          1.5691660140611294,
          -1.5561262773619213
        ],
        [
          0.02173219554604289,
          -0.004709526443462617,
          -0.021935085520838952
        ],
        [
          -0.8849397335848157,
          0.06617591049468352,
          0.23497586330476006
        ],
        [
          0.9232684732418327,
          1.5458519709400118,
          0.8114757703148467
        ],
        [
          -0.15087894498169024,
          -0.0024901339569615454,
          0.7882059307651991
        ]
      ],
      [
        [
          0.10359386268966343,
          -0.026141415278541504,
          0.19122617938859807
        ],
        [
          0.7211696204767678,
          -1.576326980057185,
          0.11302599301731642
        ],
        [
          0.9293843145210959,
          -1.5152155423552611,
          0.08342082045186701
        ],
        [
          -1.5557538560428867,
          -0.7257976849176186,
          0.0658341797610598
        ],
        [
          -0.7548745427162618,
          0.002197944793201224,
          0.2682615612812012
        ],
        [
          0.6540880101037568,
          3.135319743290731,
          0.2036565636780842
        ]
      ]
    ],
    "weights_stage2": [
      [
        [
          1.5712928147736094,
          -1.6203084376860697,
          -1.2840671166370061
        ],
        [
          0.05654470924263526,
          -0.39770054993932114,
          -1.677749866538864
        ],
        [
          0.026374305338677597,
          0.8025235336191272,
          3.3364434940838503
        ],
        [
          -0.5175701890463892,
          1.5746310392060923,
          3.255418391208622
        ],
        [
          3.13759412467113,
          -1.3994283712247833,
          5.395441317828491
        ],
        [
          1.390911886360139,
          1.6091619787421734,
          3.9190710361685785
        ]
      ],
      [
        [
          1.5950647780036327,
          1.339768391973767,
          -1.5760076432734125
        ],
        [
          -0.11930394500743396,
          0.02718213096616789,
          -0.27721580697588866
        ],
        [
          0.16458994230340313,
          0.13989758776470418,
          1.5246927554275724
        ],
        [
          1.8172894710491867,
          0.07005716562050804,
          -0.13247114119045478
        ],
        [
          1.5197515687475105,
          0.11629085413900861,
          -1.5246824926149185
        ],
        [
          -1.5385256330345451,
          -1.4049042107025844,
          -0.02895656142883784
        ]
      ],
      [
        [
          1.860115308814935,
          0.06358669957141853,
          1.2754729169808428
        ],
        [
          3.1833634499526644,
          2.9701106121356804,
          -1.601659275908105
        ],
        [
          0.050004044018519316,
          0.014763977459672813,
          -0.04694911324055984
        ],
        [
          -1.1672263308575392,
          -0.008180483540360581,
          0.46469998570483617
        ],
        [
          -0.0145483751901874,
          1.5650212667959211,
          0.8395791299798675
        ],
        [
          -0.002848144478478285,
          -0.09167851639463345,
          0.7216348032026578
        ]
      ],
      [
        [
          0.33331798508973104,
          0.006676648215608965,
          0.5456038251045487
        ],
        [
          0.7492729801417962,
          -1.562969136468559,
          -0.16196965401682675
        ],
        [
          0.8628131869585715,
          -1.6037070480920324,
          0.0834208174602927
        ],
        [
          1.6370004641821978,
          0.030968231321076962,
          0.065834178867081
        ],
        [
          -1.325494668198071,
          1.357468911592983,
          0.1489267818400907
        ],
        [
          1.4293587758516197,
          6.81585679333117,
          1.589020060476419
        ]
      ]
    ]
  },
  "metrics": {
    "stage1_min_cost": 0.1429197999394879,
    "stage2_min_cost": 0.17747162760931007,
    "mse_train_noise": 0.0400301695648753,
    "mse_train_recovered": 0.03187403084058715,
    "delta_train_pct": 20.374979204296938,
    "mse_test_noise": 0.04102832521598486,
    "mse_test_recovered": 0.03261744021559862,
    "delta_test_pct": 20.500190919587702,
    "mse_train_recovered_pure": 0.016460739921559057,
    "mse_test_recovered_pure": 0.022360277675896593
  },
  "artifacts": {
    "weights_s1_file": "weights_s1_inst07_L4.npy",
    "weights_s2_file": "weights_s2_inst07_L4.npy",
    "circuit_stage1": "circuit_stage1_6q_2l_4t_sidekick_L4_inst07.eps",
    "circuit_stage2": "circuit_stage2_6q_2l_4t_sidekick_L4_inst07.eps",
    "circuit_full": "circuit_full_6q_2l_4t_sidekick_L4_inst07.eps",
    "training_cost_s1_plot": "training_cost_s1_inst07_L4.eps",
    "training_cost_s2_plot": "training_cost_s2_inst07_L4.eps",
    "reconstruction_pure_plot": "reconstruction_pure_inst07_L4.eps",
    "reconstruction_noisy_plot": "reconstruction_noisy_inst07_L4.eps"
  }
}