{
  "schema": {
    "name": "sidekick_qae_bundle",
    "version": "1.0"
  },
  "timestamp": "2025-12-05 11:08:07",
  "dataset": {
    "id": "mackey_glass_tau30_n200",
    "scale_low": 0.0,
    "scale_high": 1.0,
    "window_size": 6,
    "window_step": 2,
    "split": 0.75
  },
  "run": {
    "instance_id": 1,
    "layer": 4,
    "sigma_eval": 0.2,
    "test_seed_fixed": 99123,
    "device_seed": 14045,
    "stage1_time_sec": 247,
    "stage2_time_sec": 450
  },
  "environment": {
    "device": "lightning.qubit",
    "diff_method": "adjoint",
    "interface": "autograd"
  },
  "architecture": {
    "type": "sidekick",
    "n_qubits": 6,
    "n_latent": 2,
    "n_trash": 4,
    "rot": "Rxyz"
  },
  "parameters": {
    "weights_stage1": [
      [
        [
          -0.2788238863022434,
          -0.30780230748116866,
          0.2674615097896038
        ],
        [
          -1.5509539930298106,
          -1.508599603100418,
          1.287296235139247
        ],
        [
          -1.5104707055860838,
          -1.2861016257531577,
          1.3505791446539233
        ],
        [
          -1.368576481727549,
          -0.5214073393941074,
          1.3403410603643884
        ],
        [
          0.9540574354510003,
          -0.13948916255638003,
          -0.9482244951472476
        ],
        [
          -0.005488315962274998,
          -0.22828243664467227,
          0.0002346153000432739
        ]
      ],
      [
        [
          0.47258078262390457,
          0.003864223929428164,
          -0.47147972724992865
        ],
        [
          0.16855875901008674,
          -0.006557437583031466,
          0.0247382373186555
        ],
        [
          -0.3791403653460443,
          -0.010728070311387176,
          0.3821209610514582
        ],
        [
          -0.32475950210098153,
          -0.019594132163341913,
          0.3187358661141792
        ],
        [
          -0.24140762361676377,
          0.00584234862954606,
          0.2380772403315847
        ],
        [
          -0.09604463337848423,
          0.004916739447595328,
          0.0914425252216288
        ]
      ],
      [
        [
          -0.16701765987755074,
          0.7711261916347425,
          0.4797898246095167
        ],
        [
          -0.11161141011714348,
          -0.3673805631236734,
          0.11565517930329809
        ],
        [
          0.6099439908157351,
          0.010983262940456703,
          -0.6103984395210883
        ],
        [
          0.33193844754301877,
          1.1805398576071897,
          -0.04440110331969757
        ],
        [
          -0.0010601398448029458,
          1.5828186668361437,
          0.301085577322334
        ],
        [
          0.017052490925909145,
          2.6732505726641345e-05,
          -0.06950425929470269
        ]
      ],
      [
        [
          -0.03206253327844976,
          0.3541114341506735,
          0.22824977788017192
        ],
        [
          0.03140092443457354,
          -0.013878732891173412,
          0.14267084406614378
        ],
        [
          0.027197425237718512,
          -1.568745016142196,
          0.10929999202862566
        ],
        [
          0.2325949665927616,
          -1.0590293452562567,
          0.26114252490344037
        ],
        [
          0.01321438617907669,
          0.9779442187001723,
          0.2310053654009077
        ],
        [
          0.14769590846504574,
          1.5500463899419434,
          0.12060189152037742
        ]
      ]
    ],
    "weights_stage2": [
      [
        [
          -3.15413064606242,
          -0.9225797505304527,
          -1.9429802205353592
        ],
        [
          -0.7007717509419972,
          -3.510700024969165,
          2.4562762589662936
        ],
        [
          -1.6382708740363365,
          1.3984077384157023,
          1.7006021913518352
        ],
        [
          -3.078985359862607,
          -0.40816783593887573,
          1.7007007925217206
        ],
        [
          1.3965460728480918,
          -0.028159815227630818,
          -1.370076448044823
        ],
        [
          -1.552678982938092,
          -1.427814705468705,
          1.355511096961254
        ]
      ],
      [
        [
          1.5374949047549007,
          -0.16045466867345667,
          -1.546459850800562
        ],
        [
          -0.022087603295230733,
          -1.3502444607321595,
          1.2216847231511228
        ],
        [
          -1.4392113232006942,
          1.0945488363803286,
          1.3461393157372628
        ],
        [
          -1.1547417168296799,
          -0.030872327443555975,
          1.9945992858980326
        ],
        [
          -1.5331846586990003,
          -0.4764139256000143,
          1.5790787540152862
        ],
        [
          1.6194388984692674,
          -3.093141478852628,
          -3.1101818423646006
        ]
      ],
      [
        [
          -1.6706154690860502,
          0.5250322767490662,
          1.5986312603244939
        ],
        [
          2.308460774780146,
          -0.01570438317306612,
          -4.162083867342594
        ],
        [
          1.9393844303189856,
          0.2776435461004351,
          -1.9980809290799553
        ],
        [
          -0.7482484668832415,
          1.521706293843786,
          -0.7972674205029786
        ],
        [
          0.05292362874201092,
          1.5474109903939843,
          0.2445688699541393
        ],
        [
          -1.1924200489625845,
          -0.005849289175531664,
          -0.8610850829328054
        ]
      ],
      [
        [
          -0.784928850461738,
          1.5110884774300641,
          1.8416717609236042
        ],
        [
          -0.025115782933624785,
          0.035135852764452837,
          -0.1950587090507982
        ],
        [
          -0.7643833984003093,
          -3.0979535186134366,
          0.10929999333497925
        ],
        [
          0.02234214901063271,
          -1.60051858225531,
          0.26114252236967994
        ],
        [
          0.03039118396550072,
          -0.7367109253133208,
          1.5454664513197884
        ],
        [
          0.35581305621708736,
          1.4695739114355892,
          0.25090935621422594
        ]
      ]
    ]
  },
  "metrics": {
    "stage1_min_cost": 0.1993690623292615,
    "stage2_min_cost": 0.2056092472579734,
    "mse_train_noise": 0.04208329887417109,
    "mse_train_recovered": 0.038607502642092506,
    "delta_train_pct": 8.259324542192381,
    "mse_test_noise": 0.03574197205136823,
    "mse_test_recovered": 0.02416340665855731,
    "delta_test_pct": 32.3948700317102,
    "mse_train_recovered_pure": 0.029476381343251017,
    "mse_test_recovered_pure": 0.020638680731441723
  },
  "artifacts": {
    "weights_s1_file": "weights_s1_inst01_L4.npy",
    "weights_s2_file": "weights_s2_inst01_L4.npy",
    "circuit_stage1": "circuit_stage1_6q_2l_4t_sidekick_L4_inst01.eps",
    "circuit_stage2": "circuit_stage2_6q_2l_4t_sidekick_L4_inst01.eps",
    "circuit_full": "circuit_full_6q_2l_4t_sidekick_L4_inst01.eps",
    "training_cost_s1_plot": "training_cost_s1_inst01_L4.eps",
    "training_cost_s2_plot": "training_cost_s2_inst01_L4.eps",
    "reconstruction_pure_plot": "reconstruction_pure_inst01_L4.eps",
    "reconstruction_noisy_plot": "reconstruction_noisy_inst01_L4.eps"
  }
}