{
  "schema": {
    "name": "sidekick_qae_bundle",
    "version": "1.0"
  },
  "timestamp": "2025-12-05 11:19:35",
  "dataset": {
    "id": "mackey_glass_tau30_n200",
    "scale_low": 0.0,
    "scale_high": 1.0,
    "window_size": 6,
    "window_step": 2,
    "split": 0.75
  },
  "run": {
    "instance_id": 2,
    "layer": 4,
    "sigma_eval": 0.2,
    "test_seed_fixed": 99123,
    "device_seed": 14046,
    "stage1_time_sec": 239,
    "stage2_time_sec": 442
  },
  "environment": {
    "device": "lightning.qubit",
    "diff_method": "adjoint",
    "interface": "autograd"
  },
  "architecture": {
    "type": "sidekick",
    "n_qubits": 6,
    "n_latent": 2,
    "n_trash": 4,
    "rot": "Rxyz"
  },
  "parameters": {
    "weights_stage1": [
      [
        [
          0.4882285402912972,
          -0.3224903833351445,
          -0.4638159112333692
        ],
        [
          1.5339192422152736,
          -1.4523005736218286,
          -1.3250050665883226
        ],
        [
          1.1713750069186826,
          -0.2474905953075605,
          0.42524704574843336
        ],
        [
          1.5781285844516157,
          -1.4997030935591489,
          0.03628229836345734
        ],
        [
          1.7308827727011045,
          0.03267425233518744,
          -0.14706581199855215
        ],
        [
          -0.0017739313770641538,
          1.3516718408956776,
          -0.0030786495899257998
        ]
      ],
      [
        [
          0.09497562588708683,
          0.010603352895673936,
          -0.12324175136344524
        ],
        [
          0.4312888446116227,
          0.11542253124562069,
          -0.6092445430045785
        ],
        [
          -1.6887761208754577,
          0.48906892144458064,
          1.5829054682468229
        ],
        [
          -1.5668964840103716,
          0.5456967832185199,
          1.5720886850993523
        ],
        [
          -1.5839030875058555,
          -0.13638746650137687,
          1.5823044964851687
        ],
        [
          0.12571240304631137,
          0.0008431804836839767,
          -0.1272521192134263
        ]
      ],
      [
        [
          0.50098782814249,
          0.664733345945579,
          -0.15869038240185024
        ],
        [
          0.40911112123229026,
          0.09693046654761353,
          -0.4159326906979982
        ],
        [
          0.1041559794259588,
          0.00265284117891805,
          -0.09722385082365775
        ],
        [
          -1.7933661537538872,
          0.05093447771928346,
          1.0608340937860414
        ],
        [
          0.24154372979384062,
          1.5646635898597865,
          0.9527321281889813
        ],
        [
          -0.20412553351894427,
          0.0025064525348775686,
          0.07371853888202862
        ]
      ],
      [
        [
          1.0340145222399038,
          1.5606093851499534,
          0.25221721483732545
        ],
        [
          1.0912129430945008,
          -0.00214315506713188,
          0.2929421794598033
        ],
        [
          0.09238656211636098,
          -1.577798471804408,
          0.19187739946864765
        ],
        [
          1.4363194751785566,
          -0.7605323252083517,
          0.06846362855629094
        ],
        [
          0.06568642201718694,
          -0.46365948081713027,
          0.11601012804286344
        ],
        [
          -0.03899271132346466,
          1.5875357167546678,
          0.24438457939721273
        ]
      ]
    ],
    "weights_stage2": [
      [
        [
          0.9713029615283257,
          -0.5870252857507814,
          -0.934142600446194
        ],
        [
          1.4622194258156775,
          -1.2737551923581734,
          -1.2438620279875157
        ],
        [
          0.04024072636017303,
          -0.12724331062310096,
          1.5058329790998741
        ],
        [
          1.5660901088330128,
          -1.5455650606074334,
          -0.06471120669938536
        ],
        [
          0.35272483762240636,
          -0.26112076047868477,
          1.3088627448649983
        ],
        [
          -0.043086562976679864,
          1.0621084449372138,
          -1.8194489032754473
        ]
      ],
      [
        [
          1.628514523271858,
          -0.49837278578887506,
          -0.08904665307173376
        ],
        [
          -0.27915985790861614,
          -0.4627210149979847,
          0.2713371317681001
        ],
        [
          -0.6258729638788451,
          0.4718503232530361,
          0.9843792299853278
        ],
        [
          -1.5585570714748964,
          1.250017789825139,
          1.6004309332619007
        ],
        [
          -1.5791011783174127,
          0.024861036900342276,
          2.7870049242099726
        ],
        [
          1.3861484793625913,
          -0.10271282287163395,
          -0.176066211114953
        ]
      ],
      [
        [
          -0.45660616769960255,
          -0.10961032961365566,
          -0.7493691623671478
        ],
        [
          1.6125403649977639,
          3.314522211019905,
          -1.5216682890180095
        ],
        [
          0.7024017400358028,
          -0.015842091186572184,
          -0.6894349826959261
        ],
        [
          -1.4951284172858168,
          0.03174453251243208,
          1.4884108375103327
        ],
        [
          0.15903259957142776,
          1.5573380621503732,
          1.0972034115535485
        ],
        [
          -0.5758555973598777,
          0.041829455178774656,
          0.2288162041452014
        ]
      ],
      [
        [
          1.4615912659641803,
          1.5633722358541833,
          0.31868484020278176
        ],
        [
          1.235684226459063,
          -0.002105226947007302,
          0.7563605855031375
        ],
        [
          0.2474842273795267,
          -1.5723272466449214,
          0.1918774036828422
        ],
        [
          1.2704645751394068,
          0.09067659317325051,
          0.06846362766209536
        ],
        [
          -0.48650603873516696,
          -0.00394524290077599,
          0.43736074349311704
        ],
        [
          -1.392445544331698,
          1.4645932346589428,
          0.3985910506296008
        ]
      ]
    ]
  },
  "metrics": {
    "stage1_min_cost": 0.20045021592206422,
    "stage2_min_cost": 0.2189445562747354,
    "mse_train_noise": 0.04208329887417109,
    "mse_train_recovered": 0.0419283518078966,
    "delta_train_pct": 0.36819135005974335,
    "mse_test_noise": 0.03574197205136823,
    "mse_test_recovered": 0.03374017349558791,
    "delta_test_pct": 5.600694200374134,
    "mse_train_recovered_pure": 0.029573754020193594,
    "mse_test_recovered_pure": 0.022290265670794167
  },
  "artifacts": {
    "weights_s1_file": "weights_s1_inst02_L4.npy",
    "weights_s2_file": "weights_s2_inst02_L4.npy",
    "circuit_stage1": "circuit_stage1_6q_2l_4t_sidekick_L4_inst02.eps",
    "circuit_stage2": "circuit_stage2_6q_2l_4t_sidekick_L4_inst02.eps",
    "circuit_full": "circuit_full_6q_2l_4t_sidekick_L4_inst02.eps",
    "training_cost_s1_plot": "training_cost_s1_inst02_L4.eps",
    "training_cost_s2_plot": "training_cost_s2_inst02_L4.eps",
    "reconstruction_pure_plot": "reconstruction_pure_inst02_L4.eps",
    "reconstruction_noisy_plot": "reconstruction_noisy_inst02_L4.eps"
  }
}