{
  "schema": {
    "name": "sidekick_qae_bundle",
    "version": "1.0"
  },
  "timestamp": "2025-12-05 11:31:10",
  "dataset": {
    "id": "mackey_glass_tau30_n200",
    "scale_low": 0.0,
    "scale_high": 1.0,
    "window_size": 6,
    "window_step": 2,
    "split": 0.75
  },
  "run": {
    "instance_id": 3,
    "layer": 4,
    "sigma_eval": 0.2,
    "test_seed_fixed": 99123,
    "device_seed": 14047,
    "stage1_time_sec": 248,
    "stage2_time_sec": 441
  },
  "environment": {
    "device": "lightning.qubit",
    "diff_method": "adjoint",
    "interface": "autograd"
  },
  "architecture": {
    "type": "sidekick",
    "n_qubits": 6,
    "n_latent": 2,
    "n_trash": 4,
    "rot": "Rxyz"
  },
  "parameters": {
    "weights_stage1": [
      [
        [
          0.04056235940029779,
          -0.3410663324741873,
          -0.036459339819024945
        ],
        [
          1.3403049433481473,
          -1.0051585171553794,
          -1.163870573297101
        ],
        [
          1.298861378777256,
          -0.7826710244671226,
          -1.1945752936432086
        ],
        [
          0.09744415642869532,
          -0.10120068488330022,
          -0.0944120173806251
        ],
        [
          -0.0009245019884966644,
          0.12772458678025383,
          -0.009800360404649463
        ],
        [
          -0.004380312717548302,
          1.3714246002714119,
          1.5255563358429347
        ]
      ],
      [
        [
          0.6634025221708295,
          -0.01594639535119981,
          -0.6549143810615643
        ],
        [
          -1.62261986853737,
          -2.3060699678072663,
          0.1395328025714526
        ],
        [
          -0.1259360865681687,
          -0.009772804680906386,
          0.11723190998319842
        ],
        [
          0.1351116659145613,
          -0.002277295148252966,
          1.415530894584388
        ],
        [
          -0.11301771655842983,
          -0.004380580812515132,
          0.12418623013669437
        ],
        [
          1.6090250334923215,
          -0.5496291920018052,
          -0.03809223081347734
        ]
      ],
      [
        [
          -0.038818841115874365,
          0.5542775033070817,
          0.028959522972115813
        ],
        [
          -1.0010346085100246,
          0.0053070504339731,
          0.9825324478012892
        ],
        [
          0.5232225162569049,
          0.00037194131281262144,
          -0.5229074274736049
        ],
        [
          -0.6661275683386465,
          -0.5800247818886248,
          0.5211253055067891
        ],
        [
          0.1471208652435537,
          1.5712279156505553,
          0.32836277049560486
        ],
        [
          0.5670607977904403,
          -0.003401842699715535,
          0.4887200193267975
        ]
      ],
      [
        [
          0.647498057411773,
          -1.2935300378239853,
          0.2283045252480036
        ],
        [
          0.059760558148592755,
          0.07551473798567053,
          0.3139516899878424
        ],
        [
          0.5529451995499716,
          1.5655737433225758,
          0.019417508236814793
        ],
        [
          0.19273167680708547,
          -1.5720291362911307,
          0.09733457797132306
        ],
        [
          -0.9419828723094883,
          0.17687370826821544,
          0.08400152340415067
        ],
        [
          0.13796946728656634,
          1.5725536966027271,
          0.09373166424735543
        ]
      ]
    ],
    "weights_stage2": [
      [
        [
          1.5814272335892203,
          -1.5921802834496395,
          -1.154547168921644
        ],
        [
          0.14645607737953698,
          -0.14533714340876583,
          -0.16249204312545185
        ],
        [
          1.5833367165544807,
          -1.5958967778167779,
          -1.361283406025332
        ],
        [
          0.30767330699199597,
          0.11699254945526029,
          -0.2952654979447114
        ],
        [
          0.0016062615760651967,
          0.23560491283811621,
          -0.007023921339307941
        ],
        [
          -0.04576494129919106,
          2.0282793842566433,
          1.5302754706567496
        ]
      ],
      [
        [
          1.644894764707234,
          0.06390724417263179,
          -1.6085578529267202
        ],
        [
          -1.5727856482904774,
          -3.168183620187841,
          0.16531113501404268
        ],
        [
          -0.8634843621030889,
          -0.1331965112788024,
          0.8252190943326881
        ],
        [
          0.05406372974347767,
          -0.0018887316430530048,
          1.484589498239393
        ],
        [
          -1.590339791111469,
          -0.7866615266232508,
          1.574743123492666
        ],
        [
          1.772103567018293,
          0.1276171974121254,
          -0.19809727041648087
        ]
      ],
      [
        [
          1.469637022476512,
          0.30300670869127067,
          -1.4752026272219003
        ],
        [
          -1.5796573067190356,
          -1.5147162829911809,
          1.5681024030220159
        ],
        [
          0.2964564810430998,
          -0.04789159158616436,
          -0.2886967009495558
        ],
        [
          0.021185211667361585,
          0.03235646164018004,
          0.05952739193910684
        ],
        [
          0.050623117831744856,
          1.5846529998447971,
          0.7034124815947396
        ],
        [
          -0.02888310669637038,
          1.7076841746831448,
          0.7625623456730785
        ]
      ],
      [
        [
          0.18590014384406686,
          -1.6764856269662314,
          1.3754187310514412
        ],
        [
          0.4348102692477212,
          0.0067498246276012025,
          0.5132169891475986
        ],
        [
          0.82678752589626,
          1.5800379147978871,
          0.019417513080778267
        ],
        [
          0.053738504310810786,
          -1.599045505097721,
          0.09733457756371569
        ],
        [
          -1.3123638705866227,
          1.5377769813601112,
          0.0811041305505905
        ],
        [
          0.13499614388733633,
          -3.477918636381639,
          1.7119415557965358
        ]
      ]
    ]
  },
  "metrics": {
    "stage1_min_cost": 0.1851052845890144,
    "stage2_min_cost": 0.21368451277521955,
    "mse_train_noise": 0.04208329887417109,
    "mse_train_recovered": 0.03774523993004071,
    "delta_train_pct": 10.308267317876286,
    "mse_test_noise": 0.03574197205136823,
    "mse_test_recovered": 0.01905094159656068,
    "delta_test_pct": 46.698683639557615,
    "mse_train_recovered_pure": 0.026253819076929474,
    "mse_test_recovered_pure": 0.01594219888723362
  },
  "artifacts": {
    "weights_s1_file": "weights_s1_inst03_L4.npy",
    "weights_s2_file": "weights_s2_inst03_L4.npy",
    "circuit_stage1": "circuit_stage1_6q_2l_4t_sidekick_L4_inst03.eps",
    "circuit_stage2": "circuit_stage2_6q_2l_4t_sidekick_L4_inst03.eps",
    "circuit_full": "circuit_full_6q_2l_4t_sidekick_L4_inst03.eps",
    "training_cost_s1_plot": "training_cost_s1_inst03_L4.eps",
    "training_cost_s2_plot": "training_cost_s2_inst03_L4.eps",
    "reconstruction_pure_plot": "reconstruction_pure_inst03_L4.eps",
    "reconstruction_noisy_plot": "reconstruction_noisy_inst03_L4.eps"
  }
}