{
  "schema": {
    "name": "sidekick_qae_bundle",
    "version": "1.0"
  },
  "timestamp": "2025-12-05 12:05:40",
  "dataset": {
    "id": "mackey_glass_tau30_n200",
    "scale_low": 0.0,
    "scale_high": 1.0,
    "window_size": 6,
    "window_step": 2,
    "split": 0.75
  },
  "run": {
    "instance_id": 6,
    "layer": 4,
    "sigma_eval": 0.2,
    "test_seed_fixed": 99123,
    "device_seed": 14050,
    "stage1_time_sec": 242,
    "stage2_time_sec": 442
  },
  "environment": {
    "device": "lightning.qubit",
    "diff_method": "adjoint",
    "interface": "autograd"
  },
  "architecture": {
    "type": "sidekick",
    "n_qubits": 6,
    "n_latent": 2,
    "n_trash": 4,
    "rot": "Rxyz"
  },
  "parameters": {
    "weights_stage1": [
      [
        [
          -0.5973073658754335,
          -0.3721938789118909,
          0.5646706126565453
        ],
        [
          -1.5066382482498386,
          -1.3726962575739932,
          1.2558219620185094
        ],
        [
          1.0521552316528011,
          0.0003872524025310863,
          0.5189739581023729
        ],
        [
          0.00043987573509869784,
          -1.4751235842846906,
          -0.004706483015919326
        ],
        [
          0.034245502194232225,
          -0.0572182403977697,
          1.5370892701486154
        ],
        [
          -1.5560240557383889,
          1.570189024241365,
          0.0656203010471352
        ]
      ],
      [
        [
          1.2734504288411457,
          -0.046900315605837684,
          -1.2705517643244466
        ],
        [
          0.20854796130395328,
          -1.608504649640892,
          0.1314675382819738
        ],
        [
          -0.8346596255810447,
          1.127576177957938,
          -0.34286410013889473
        ],
        [
          1.566662508176455,
          -1.1495039817399146,
          -1.573474411428738
        ],
        [
          1.50001973603535,
          -0.3496934802002809,
          0.054294624093901594
        ],
        [
          1.1567601477296883,
          -0.015949539448156386,
          0.4124896824539078
        ]
      ],
      [
        [
          1.204804145737179,
          0.937610641458553,
          0.004006623192839733
        ],
        [
          1.0407020890457395,
          0.0006366389238260952,
          0.10751497153193404
        ],
        [
          0.29873197348212865,
          -0.0012687233894911557,
          -0.2939039845844644
        ],
        [
          -0.49827036141858516,
          -0.0132795485615957,
          -0.4564955715513022
        ],
        [
          -0.0004888280706549981,
          1.547495630181004,
          0.17918366063719873
        ],
        [
          -0.937524438852883,
          0.32647095769861,
          -0.393511512872328
        ]
      ],
      [
        [
          -0.4037188317401866,
          1.5711990416711683,
          0.19074711766447075
        ],
        [
          -0.10101874244669379,
          -0.028152251676307926,
          0.05036170594576844
        ],
        [
          -0.21354347393844483,
          -1.599846676171653,
          0.08849994795040152
        ],
        [
          -1.6322871864279829,
          -0.2994148510899331,
          0.08964226151979976
        ],
        [
          -0.04013639283957241,
          -0.00022819203787549967,
          0.12562975935429022
        ],
        [
          -0.038908160628431575,
          1.5756386764468764,
          0.014709003676380911
        ]
      ]
    ],
    "weights_stage2": [
      [
        [
          -0.04590139791739173,
          0.3398738325365871,
          -0.05545548142294987
        ],
        [
          -1.5633107652221692,
          -1.5009514800029287,
          1.3531724218430743
        ],
        [
          1.4256699297710433,
          -0.13120770810456278,
          0.17296328369696554
        ],
        [
          -0.0038759927932741,
          -1.3333828699023853,
          -0.011861192351977023
        ],
        [
          2.3482436751975384,
          0.12368229596901745,
          -0.794282941397067
        ],
        [
          -1.5447776852338266,
          1.5857301834319728,
          0.055416003630389336
        ]
      ],
      [
        [
          1.571920526436681,
          1.5255327924443705,
          -1.5714361645210315
        ],
        [
          0.5595922882852171,
          -2.4005734102762197,
          0.46034868851954697
        ],
        [
          -0.778057958327405,
          1.4064619140729175,
          -0.11106453354972057
        ],
        [
          1.5351570182835075,
          -1.3460518281553218,
          -1.5347429545713596
        ],
        [
          1.5823685879676788,
          -0.6156227506160097,
          0.01670219031526959
        ],
        [
          3.0223182928217853,
          0.011817030001130099,
          1.6904972899180966
        ]
      ],
      [
        [
          1.533255138225477,
          1.6892969561429894,
          -0.007852170237999265
        ],
        [
          1.0031079426581517,
          -0.0016251931217588678,
          0.13116158496228758
        ],
        [
          1.275064972093577,
          0.07646268524342756,
          -1.2744736280240738
        ],
        [
          0.13961282185730386,
          -0.0030177811881412974,
          -0.8716583132122544
        ],
        [
          -0.04762198968151058,
          1.559540161507198,
          0.9267776721966675
        ],
        [
          -0.004566773710939022,
          -1.5734885500598659,
          -0.8559747187866358
        ]
      ],
      [
        [
          -0.8188815734011335,
          1.5564080338688318,
          -0.08408000501142296
        ],
        [
          0.6465752691127843,
          -0.0017079327339933428,
          0.010450392205731546
        ],
        [
          -0.6760066798527566,
          -1.5763344061146352,
          0.08849995015365468
        ],
        [
          -1.706177097855735,
          -0.028265043409118822,
          0.0896422643988592
        ],
        [
          -0.13471495541617245,
          -9.271001187186653e-05,
          0.12797936066418827
        ],
        [
          0.16477574072177054,
          1.5565681566085046,
          0.019972656538145946
        ]
      ]
    ]
  },
  "metrics": {
    "stage1_min_cost": 0.17742613954410927,
    "stage2_min_cost": 0.20791238934058592,
    "mse_train_noise": 0.04208329887417109,
    "mse_train_recovered": 0.036245869097037954,
    "delta_train_pct": 13.871131620615174,
    "mse_test_noise": 0.03574197205136823,
    "mse_test_recovered": 0.025484137124197406,
    "delta_test_pct": 28.699689296461607,
    "mse_train_recovered_pure": 0.02073568035548341,
    "mse_test_recovered_pure": 0.013638405127264493
  },
  "artifacts": {
    "weights_s1_file": "weights_s1_inst06_L4.npy",
    "weights_s2_file": "weights_s2_inst06_L4.npy",
    "circuit_stage1": "circuit_stage1_6q_2l_4t_sidekick_L4_inst06.eps",
    "circuit_stage2": "circuit_stage2_6q_2l_4t_sidekick_L4_inst06.eps",
    "circuit_full": "circuit_full_6q_2l_4t_sidekick_L4_inst06.eps",
    "training_cost_s1_plot": "training_cost_s1_inst06_L4.eps",
    "training_cost_s2_plot": "training_cost_s2_inst06_L4.eps",
    "reconstruction_pure_plot": "reconstruction_pure_inst06_L4.eps",
    "reconstruction_noisy_plot": "reconstruction_noisy_inst06_L4.eps"
  }
}