{
  "schema": {
    "name": "monolith_qae_bundle",
    "version": "1.0"
  },
  "timestamp": "2025-12-03 01:00:04",
  "dataset": {
    "id": "mackey_glass_tau30_n200",
    "scale_low": 0.0,
    "scale_high": 1.0,
    "window_size": 4,
    "window_step": 2,
    "split": 0.75
  },
  "run": {
    "instance_id": 4,
    "layer": 5,
    "sigma_eval": 0.2,
    "test_seed_fixed": 99123,
    "device_seed": 15048,
    "training_time_sec": 272
  },
  "environment": {
    "device": "lightning.qubit",
    "diff_method": "adjoint",
    "interface": "autograd"
  },
  "architecture": {
    "type": "monolith",
    "n_qubits": 4,
    "n_latent": 2,
    "n_trash": 2,
    "n_extra": 0,
    "rot": "Rxyz"
  },
  "parameters": {
    "weights": [
      [
        [
          0.1246686749302473,
          -1.2339304168054455,
          -0.30034444445422914
        ],
        [
          -0.06515572665101434,
          -0.9227418805685194,
          1.475902993715546
        ],
        [
          0.9847530779630924,
          -0.32593821443458293,
          -0.25831699650632484
        ],
        [
          1.2707035250366612,
          0.16065189731290608,
          -0.5985671005401006
        ]
      ],
      [
        [
          0.46201901708811705,
          0.211738101280439,
          -0.7832317269310954
        ],
        [
          0.5602761696695944,
          -1.5215588118104297,
          0.20225026545777944
        ],
        [
          -1.808557695639781,
          -1.2552365495945614,
          -0.6894890563544108
        ],
        [
          -0.28004987200808124,
          1.3348922742688771,
          0.7034330115273246
        ]
      ],
      [
        [
          -0.5989637759026606,
          -0.7136925323940774,
          0.5704342270390959
        ],
        [
          0.545798309672901,
          0.4635199416954522,
          0.1978658310282241
        ],
        [
          -0.7367398530960638,
          1.2078502802355775,
          -0.0891736535688337
        ],
        [
          0.03539307414987628,
          1.1837190353328786,
          0.419870401212738
        ]
      ],
      [
        [
          -0.4999599272000829,
          -0.0631351695629332,
          0.36807296531403716
        ],
        [
          2.3120759661690484,
          0.1266753085382842,
          2.3374631453328156
        ],
        [
          0.6498430302114898,
          0.10418330377838539,
          1.1018527635134179
        ],
        [
          1.5979159590445338,
          1.0684855085769467,
          0.37420456151132026
        ]
      ],
      [
        [
          0.5011927341235235,
          1.2033058554358163,
          1.1404489973917613
        ],
        [
          0.17323104019412394,
          -0.978985165392242,
          1.4636109516130575
        ],
        [
          -0.4309688928344313,
          0.4549241837919598,
          -0.14517706635372882
        ],
        [
          -0.9761591875964257,
          0.11227494191477551,
          0.9210610632834522
        ]
      ],
      [
        [
          0.18953508095804755,
          -0.3072438300644367,
          -1.6404487565182229
        ],
        [
          0.4974842035153257,
          -0.49138405402974,
          0.5488134720651973
        ],
        [
          0.3834256218231305,
          0.3532135802103304,
          2.7168181188653833
        ],
        [
          0.6166466304623772,
          0.03670645859510074,
          -2.4142615252349073
        ]
      ],
      [
        [
          0.4031593253904784,
          -1.9434606606284486,
          1.5268737702706263
        ],
        [
          -1.9185423174976381,
          -0.29877237780107335,
          1.5693644042671357
        ],
        [
          1.2397182815778516,
          0.02269221749278414,
          -0.5821334672823838
        ],
        [
          -0.3420263973077286,
          0.03017593423169896,
          -0.11052794088023671
        ]
      ],
      [
        [
          -0.5126727635294244,
          -0.03904833268191587,
          0.3419170462417324
        ],
        [
          -0.16060886986465966,
          0.15328772837583843,
          -0.0809183070664815
        ],
        [
          3.085005784856414,
          -1.2320190146485217,
          1.7238353623670029
        ],
        [
          0.6473856089099397,
          -0.758329108003899,
          1.6289264048619192
        ]
      ],
      [
        [
          -0.9015475980861033,
          -0.11804424650227967,
          -1.1900923662701233
        ],
        [
          -0.19364711035024107,
          -0.9121078638708673,
          0.27692863765739123
        ],
        [
          0.016918415417711472,
          1.1018067735066392,
          -0.0723119021537175
        ],
        [
          1.3876014003133221,
          0.5585589022829144,
          0.20861916632043845
        ]
      ],
      [
        [
          0.8125646308458839,
          0.15994040969051398,
          0.647972156666091
        ],
        [
          -0.05885893422021791,
          1.2398135585137653,
          -0.33050118533032896
        ],
        [
          2.0450940395213695,
          0.5990968917625785,
          0.27783376067773957
        ],
        [
          0.5375358003332302,
          -0.23742018874767332,
          -0.24327801357780646
        ]
      ]
    ]
  },
  "metrics": {
    "mse_train_noise": 0.04249628927590868,
    "mse_train_recovered": 0.01924449728127776,
    "delta_train_pct": 54.71487602992304,
    "mse_test_noise": 0.03574197205136823,
    "mse_test_recovered": 0.011112124906153247,
    "delta_test_pct": 68.9101516553621,
    "mse_train_recovered_pure": 0.004510447639928212,
    "mse_test_recovered_pure": 0.003980182473031636,
    "min_train_cost": 0.00747859539938135
  },
  "artifacts": {
    "weights_file": "weights_inst04_L5.npy",
    "circuit_diagram": "circuit_4q_2l_2t_L5_inst04.eps",
    "training_cost_plot": "training_cost_inst04_L5.eps",
    "cost_history": "cost_inst04_L5.json",
    "reconstruction_pure_plot": "reconstruction_pure_inst04_L5.eps",
    "reconstruction_noisy_plot": "reconstruction_noisy_inst04_L5.eps"
  }
}