{
  "schema": {
    "name": "monolith_qae_bundle",
    "version": "1.0"
  },
  "timestamp": "2025-12-02 22:38:48",
  "dataset": {
    "id": "mackey_glass_tau17_n200",
    "scale_low": 0.0,
    "scale_high": 1.0,
    "window_size": 6,
    "window_step": 2,
    "split": 0.75
  },
  "run": {
    "instance_id": 4,
    "layer": 5,
    "sigma_eval": 0.2,
    "test_seed_fixed": 99123,
    "device_seed": 15048,
    "training_time_sec": 422
  },
  "environment": {
    "device": "lightning.qubit",
    "diff_method": "adjoint",
    "interface": "autograd"
  },
  "architecture": {
    "type": "monolith",
    "n_qubits": 6,
    "n_latent": 2,
    "n_trash": 4,
    "n_extra": 0,
    "rot": "Rxyz"
  },
  "parameters": {
    "weights": [
      [
        [
          0.23884462947318774,
          -2.2187916687407157,
          -1.4133929039285535
        ],
        [
          0.030812719889461024,
          -0.6531460352857174,
          2.9619643277852483
        ],
        [
          1.5629823779036864,
          -1.7152864205706169,
          5.260571117023446
        ],
        [
          0.16374132377543474,
          -2.0090861946127716,
          0.28483482120509673
        ],
        [
          -0.042766910875345426,
          -0.4977347318034711,
          -0.8589091631012683
        ],
        [
          -3.367350618968155,
          -1.0798303230454238,
          1.3632486845542984
        ]
      ],
      [
        [
          1.5558805199257055,
          -0.5596936928467298,
          0.06609218395691861
        ],
        [
          -0.5992784307656737,
          -1.6932688598097205,
          -0.008790163200904288
        ],
        [
          1.5522161367545726,
          -1.7650179515418305,
          0.7358537014276011
        ],
        [
          1.9407465620497364,
          0.10543806940823297,
          1.2088869719437505
        ],
        [
          -0.05438897442522138,
          0.02845124067797213,
          0.14793519997197016
        ],
        [
          -0.7789675725487275,
          -0.039124057111466756,
          -0.8924015512207046
        ]
      ],
      [
        [
          0.8844590932804792,
          0.5180998360906823,
          1.4425062854231017
        ],
        [
          3.915300940881385,
          0.07674287312138703,
          2.287348196875565
        ],
        [
          0.04761174549561683,
          1.8920881914983734,
          -1.5095261670780324
        ],
        [
          -1.1681053581227605,
          1.575105554249404,
          0.558348609204664
        ],
        [
          -0.11656715621849469,
          -0.0023411828561361544,
          -0.6859128167438665
        ],
        [
          1.8409355306008077,
          0.0012089331180397383,
          0.741594449390976
        ]
      ],
      [
        [
          0.9996772333224403,
          1.4657198202943642,
          1.5477698989341964
        ],
        [
          -1.1169303593903546,
          -0.05972742241908622,
          -0.922458465519215
        ],
        [
          0.6844248584978659,
          -0.5536532169168185,
          -1.7655225311599168
        ],
        [
          1.4993382705078153,
          -1.1048293926539066,
          -1.2050611720397248
        ],
        [
          0.7413345797106806,
          -0.34961737651817154,
          -0.38222470644885775
        ],
        [
          -3.2434348187661057,
          1.8177649512397998,
          -1.8809628823461568
        ]
      ],
      [
        [
          -2.311003058187021,
          0.22927715505335858,
          -0.7137285083722259
        ],
        [
          -1.063924693678888,
          0.019015119691325726,
          1.0784741110405651
        ],
        [
          0.2032063267817999,
          0.38500752727633514,
          0.10009317417071492
        ],
        [
          0.4654028570305115,
          0.571200425836141,
          0.30563408527194874
        ],
        [
          0.1695538772278937,
          0.032649668994663844,
          0.025355542853550673
        ],
        [
          4.101430290282238,
          4.7595987712816274,
          0.2481036196839221
        ]
      ],
      [
        [
          0.4703996000732913,
          0.06552993196042951,
          -0.8378590987016787
        ],
        [
          0.4735696608033248,
          0.06105916480774038,
          13.124939292918507
        ],
        [
          0.014263346198204834,
          -0.9627108835638151,
          1.277777969633662
        ],
        [
          0.23590497691000598,
          -0.7489447732326036,
          1.7181384962383908
        ],
        [
          0.20538626989990746,
          -0.006499960007686496,
          6.729976285187544
        ],
        [
          0.024781954452104533,
          0.014815830631267903,
          0.22984901537391336
        ]
      ],
      [
        [
          2.711230104798234,
          -1.030164036445347,
          -1.7219693664810862
        ],
        [
          10.19436670715289,
          0.053897449741344125,
          4.5486363911282375
        ],
        [
          -0.1442286253029483,
          1.2096533874121866,
          -0.39984743454955624
        ],
        [
          0.45586592846409113,
          0.05964461729582252,
          0.3626350842687647
        ],
        [
          -1.8193622834326573,
          -0.9313855607552303,
          0.41204327063217594
        ],
        [
          0.23816867249980855,
          0.01723749135956337,
          1.0382694504362313
        ]
      ],
      [
        [
          -1.0048023752084596,
          0.03865421641897521,
          0.3590785530960056
        ],
        [
          -0.22875688140006753,
          1.3341425062674293,
          -0.025862552472991254
        ],
        [
          3.4202624593065556,
          0.3861552784675231,
          0.0821736493680148
        ],
        [
          -2.3127748893088076,
          -0.029299821224419525,
          -1.4552387200411314
        ],
        [
          0.6689324327974208,
          0.4649100251780689,
          2.056383226464453
        ],
        [
          -4.6452598017701305,
          0.001568597077454681,
          -1.7494896787833423
        ]
      ],
      [
        [
          -1.2057280122701595,
          0.5523405457476848,
          -1.3891415445162971
        ],
        [
          1.956926577563647,
          -0.4472236794271289,
          0.08799615326411164
        ],
        [
          -1.3412205186399113,
          -0.0007182520289086302,
          -1.1563938405918797
        ],
        [
          1.4130647721923906,
          0.4289607291220563,
          0.8033371946629146
        ],
        [
          -0.6183483711777199,
          -1.540459014145034,
          -0.8087801251288959
        ],
        [
          0.296264426813156,
          0.3749851664259849,
          3.2118738831643654
        ]
      ],
      [
        [
          0.964497385751162,
          0.33155144200039366,
          0.8907950363952138
        ],
        [
          0.9450203274744141,
          -0.23508504159959173,
          1.1641408638584922
        ],
        [
          -1.9346866979472281,
          0.004945247360051424,
          0.33058447295476306
        ],
        [
          2.046885849122681,
          0.7773747172067218,
          0.1315886711757948
        ],
        [
          0.33368974987192696,
          -0.02265615325187771,
          0.015124922948495876
        ],
        [
          -3.1367028330566313,
          0.9128272122197998,
          1.198689556865194
        ]
      ]
    ]
  },
  "metrics": {
    "mse_train_noise": 0.0400301695648753,
    "mse_train_recovered": 0.020513276381342423,
    "delta_train_pct": 48.75545968373335,
    "mse_test_noise": 0.04102832521598486,
    "mse_test_recovered": 0.021308736769186883,
    "delta_test_pct": 48.063352191415106,
    "mse_train_recovered_pure": 0.012916208166519633,
    "mse_test_recovered_pure": 0.013985408940400164,
    "min_train_cost": 0.010873461879210539
  },
  "artifacts": {
    "weights_file": "weights_inst04_L5.npy",
    "circuit_diagram": "circuit_6q_2l_4t_L5_inst04.eps",
    "training_cost_plot": "training_cost_inst04_L5.eps",
    "cost_history": "cost_inst04_L5.json",
    "reconstruction_pure_plot": "reconstruction_pure_inst04_L5.eps",
    "reconstruction_noisy_plot": "reconstruction_noisy_inst04_L5.eps"
  }
}