{
  "schema": {
    "name": "monolith_qae_bundle",
    "version": "1.0"
  },
  "timestamp": "2025-12-02 22:53:31",
  "dataset": {
    "id": "mackey_glass_tau17_n200",
    "scale_low": 0.0,
    "scale_high": 1.0,
    "window_size": 6,
    "window_step": 2,
    "split": 0.75
  },
  "run": {
    "instance_id": 6,
    "layer": 5,
    "sigma_eval": 0.2,
    "test_seed_fixed": 99123,
    "device_seed": 15050,
    "training_time_sec": 441
  },
  "environment": {
    "device": "lightning.qubit",
    "diff_method": "adjoint",
    "interface": "autograd"
  },
  "architecture": {
    "type": "monolith",
    "n_qubits": 6,
    "n_latent": 2,
    "n_trash": 4,
    "n_extra": 0,
    "rot": "Rxyz"
  },
  "parameters": {
    "weights": [
      [
        [
          0.2670936980507967,
          -1.0401651397371503,
          2.312721653517191
        ],
        [
          -0.36047720163035946,
          -0.7457739324431751,
          0.7109893271688296
        ],
        [
          0.22465532814796257,
          -0.648148022639131,
          -1.7498427318060021
        ],
        [
          -1.267793187585054,
          -0.3108779319231001,
          1.1779885683318436
        ],
        [
          0.3145128112375355,
          -1.3789905176377002,
          1.9836234925216056
        ],
        [
          -0.46542654272414063,
          1.2700375639960908,
          0.008862656315458002
        ]
      ],
      [
        [
          1.28440546808634,
          -0.4133408516276966,
          1.3801245753463
        ],
        [
          0.7600537419945949,
          0.23557187501855711,
          -0.36352517167820964
        ],
        [
          2.14379552788164,
          0.017137344387266894,
          -1.0049643376376904
        ],
        [
          -1.526743488206212,
          0.529678347516562,
          3.6544708140281905
        ],
        [
          -0.6731565692723757,
          -0.021591382112957427,
          -2.1000650032260157
        ],
        [
          -2.3411646711999463,
          0.40216498281857344,
          -0.14777094503281085
        ]
      ],
      [
        [
          2.3287103020345126,
          -0.2861155531253859,
          0.26684995663055305
        ],
        [
          0.21154818888824584,
          -0.28648136799369095,
          -1.0216051735653435
        ],
        [
          -0.5264241088540091,
          -0.17602036956839442,
          -0.10892767861516374
        ],
        [
          -0.8173223831923544,
          2.950362680722655,
          0.5486348438519126
        ],
        [
          -1.329555466508615,
          -0.08151469468963318,
          -0.41564336442599215
        ],
        [
          -0.6016185694975306,
          0.19574599186871322,
          -1.9182248671733801
        ]
      ],
      [
        [
          0.16023976411358,
          -0.021374461259373867,
          0.46689368341775855
        ],
        [
          0.06091866523402649,
          0.7313968580465053,
          1.5539945668529154
        ],
        [
          -1.5679986382511495,
          -0.5493908633395685,
          2.0509570981975234
        ],
        [
          3.386761173942708,
          0.3298927701922581,
          -0.4949327038877343
        ],
        [
          -1.3828457816158053,
          -0.24028684113398066,
          3.8868232889534053
        ],
        [
          -3.5214298110970854,
          1.6222022369402664,
          -0.046287527165242315
        ]
      ],
      [
        [
          -3.117412170341535,
          -0.17167125436471936,
          -2.987801131122314
        ],
        [
          -1.5466620295396318,
          -1.5946837051843132,
          -0.4449454203897614
        ],
        [
          -5.6092357619497495,
          0.513382382551004,
          0.0708508191041266
        ],
        [
          0.18361763447351925,
          0.41380396994034224,
          0.26399092872801955
        ],
        [
          0.2110389643399198,
          0.38460656222811535,
          0.10981402099107733
        ],
        [
          -1.65441179153251,
          -1.9503559888581916,
          -1.8894254990964572
        ]
      ],
      [
        [
          0.22952145614215588,
          1.509667256111794,
          -1.452109562895858
        ],
        [
          0.6176378312622175,
          0.1338751983874124,
          2.3191248664200073
        ],
        [
          0.26898046771566103,
          0.9446163425890661,
          1.6343695264464781
        ],
        [
          0.3425018558297282,
          -0.0019548229746405212,
          -10.649109474927522
        ],
        [
          0.18864585341231396,
          0.05108903831301302,
          14.978293843463037
        ],
        [
          0.19019008085585276,
          1.1828476796636207,
          1.569964753067832
        ]
      ],
      [
        [
          1.4756673538473537,
          0.18273968625110568,
          -0.24635712326040102
        ],
        [
          -2.852796796713502,
          -0.17429437988895416,
          -0.7550180253781462
        ],
        [
          0.7148055543735168,
          0.020494566070000688,
          0.1402663678151464
        ],
        [
          1.2303273099225005,
          -0.10108399392229507,
          0.306904457266983
        ],
        [
          1.6125956364403506,
          -0.014458428056173473,
          1.6181215813847007
        ],
        [
          1.645114332323121,
          0.6161047178855558,
          -0.725510697764137
        ]
      ],
      [
        [
          -0.9845237040742678,
          0.01339614345153748,
          6.506472907255875
        ],
        [
          3.3867613836906143,
          -1.2659309193497572,
          0.056493359347455085
        ],
        [
          2.2579150880779024,
          0.031603029302639515,
          0.7570513211482981
        ],
        [
          0.5346813593153144,
          -0.0578858122052579,
          -0.554232897748831
        ],
        [
          0.5515472076843028,
          0.23388461628227059,
          -0.008167099720995236
        ],
        [
          -4.3127810047811685,
          0.08790719881938538,
          -0.2880076198552668
        ]
      ],
      [
        [
          -1.1122927218943626,
          0.08773648594469499,
          0.4991658210395742
        ],
        [
          -0.25665149057066267,
          0.16437118967807068,
          1.3500835787532763
        ],
        [
          -0.15042720157188536,
          -1.631802706698731,
          11.392507108221134
        ],
        [
          -0.07191687196773888,
          -0.0082687227137241,
          -1.703955675145661
        ],
        [
          0.02305891309504673,
          1.0961106565648877,
          0.14676527936041373
        ],
        [
          -0.5980596792102878,
          0.09527674710578103,
          1.1096936243594067
        ]
      ],
      [
        [
          -1.776925913447406,
          -0.008331692863462265,
          -0.9851486330573993
        ],
        [
          -1.7529295399858842,
          0.41424677222462114,
          1.3600688212710177
        ],
        [
          5.28001489430179,
          0.023226769845374036,
          0.181331386813858
        ],
        [
          0.1350037412243211,
          -0.040332446939642344,
          0.31156043209027645
        ],
        [
          13.686212942295102,
          -0.07434588262406651,
          0.2918433854118923
        ],
        [
          -2.064720527001964,
          0.1261744412228247,
          -1.0055456631196595
        ]
      ]
    ]
  },
  "metrics": {
    "mse_train_noise": 0.0400301695648753,
    "mse_train_recovered": 0.020483499655567828,
    "delta_train_pct": 48.82984539355738,
    "mse_test_noise": 0.04102832521598486,
    "mse_test_recovered": 0.021216600163875277,
    "delta_test_pct": 48.287920474001766,
    "mse_train_recovered_pure": 0.012611295234220977,
    "mse_test_recovered_pure": 0.01344239238356552,
    "min_train_cost": 0.012640178082842155
  },
  "artifacts": {
    "weights_file": "weights_inst06_L5.npy",
    "circuit_diagram": "circuit_6q_2l_4t_L5_inst06.eps",
    "training_cost_plot": "training_cost_inst06_L5.eps",
    "cost_history": "cost_inst06_L5.json",
    "reconstruction_pure_plot": "reconstruction_pure_inst06_L5.eps",
    "reconstruction_noisy_plot": "reconstruction_noisy_inst06_L5.eps"
  }
}