{
  "schema": {
    "name": "full_qae_bundle",
    "version": "1.0"
  },
  "timestamp": "2025-09-16 04:04:52",
  "dataset": {
    "id": "mackey_glass_tau17_n200",
    "scale_low": 0.2,
    "scale_high": 0.8,
    "window_size": 6,
    "window_step": 2,
    "split": 0.75
  },
  "run": {
    "instance_id": 1,
    "layer": 3,
    "sigma_eval": 0.2,
    "test_seed_fixed": 99123
  },
  "environment": {
    "device": "default.qubit",
    "diff_method": "best",
    "reset_mode": "swap"
  },
  "architecture": {
    "n_qubits": 6,
    "n_latent": 2,
    "n_trash": 4,
    "n_extra": 0,
    "rot": "Rxyz"
  },
  "parameters": {
    "weights": [
      [
        [
          -0.6292522099611687,
          -0.27441680389062495,
          0.6535914919468504
        ],
        [
          0.6093817922165606,
          -1.0986760890036316,
          -1.1058812546336805
        ],
        [
          -0.2662964210752439,
          -1.173979383133853,
          0.723226059663721
        ],
        [
          -1.3092116919678234,
          -2.085996790751505,
          0.264702252887355
        ],
        [
          2.6612558926983954,
          2.1627175297596057,
          1.9660329701563541
        ],
        [
          -0.22080496500018715,
          -0.4211627243437816,
          2.1959808956408247
        ]
      ],
      [
        [
          -1.549737456963975,
          -0.3897769513805187,
          1.361407835997823
        ],
        [
          0.9733770783896596,
          -0.4039524968517007,
          0.26837056596720565
        ],
        [
          2.097943189130798,
          0.8280232604933097,
          -0.42258755251869135
        ],
        [
          -0.7999996907248077,
          -1.3678500222210541,
          0.1669854423276398
        ],
        [
          -1.2971287135525016,
          0.29019787994637514,
          -0.7624354953787067
        ],
        [
          2.29167985418154,
          -1.5684135259009313,
          0.0022916360974946067
        ]
      ],
      [
        [
          -1.1059799764486864,
          -1.4526219992775022,
          -0.05237043988668333
        ],
        [
          -0.8723995394378798,
          -0.7883804650198526,
          -0.6745014286994604
        ],
        [
          0.08785492556520728,
          0.2997118925132802,
          0.14097918575623633
        ],
        [
          1.674124451531065,
          0.7780757186705972,
          1.1549010605276535
        ],
        [
          0.19618529740288596,
          -0.009138461188916189,
          -0.062343219543926916
        ],
        [
          0.2555168912824339,
          0.17165620958646588,
          0.304574115938222
        ]
      ],
      [
        [
          0.30127410505698093,
          -9.02935616292053e-05,
          -0.8401340279370292
        ],
        [
          0.10890521775399116,
          0.9883699644257062,
          0.007419699594398201
        ],
        [
          0.17450563830113525,
          0.0868250844261953,
          1.679302777697437
        ],
        [
          0.306323666780205,
          0.9151445733513164,
          -0.06862797747886756
        ],
        [
          0.3028043237899874,
          -1.6869126053051326e-06,
          -0.08901896413471892
        ],
        [
          0.11735039251894838,
          3.471193366189602e-08,
          -0.025329777933310725
        ]
      ],
      [
        [
          1.122208068241189,
          4.1834182113725763e-07,
          0.8320112338650671
        ],
        [
          1.4745563841422915,
          0.05642575421958857,
          0.533379054452845
        ],
        [
          0.5201040811641039,
          0.0006058065109617923,
          -0.28601618338720086
        ],
        [
          2.3677074295378566,
          -4.2901116034323684e-07,
          0.49427793626008154
        ],
        [
          0.2159017993933588,
          0.009968122082675215,
          -0.22621210857798096
        ],
        [
          0.002393803528513077,
          0.4467227720066254,
          1.5174090877690176
        ]
      ],
      [
        [
          -0.07305951024956982,
          -4.4538402740682524e-07,
          -0.9230021561346827
        ],
        [
          0.9986975588461386,
          2.4482767548818283e-06,
          0.5763818681039898
        ],
        [
          0.08131338164428258,
          -0.46502221784216324,
          0.22940896693927398
        ],
        [
          -0.04602733478554197,
          1.0971688507711268e-07,
          -0.7873939217286731
        ],
        [
          -0.16226081270146236,
          -7.637753279979526e-07,
          0.375257420422182
        ],
        [
          0.2422528658430159,
          -7.289074553445662e-06,
          0.22150725739144478
        ]
      ]
    ]
  },
  "metrics_series": {
    "mse_train_noise": 0.019067164300121137,
    "mse_train_recovered": 0.010893267621776651,
    "delta_train_pct": 42.86896860847082,
    "mse_test_noise": 0.018957942152927745,
    "mse_test_recovered": 0.011546209275530695,
    "delta_test_pct": 39.09566142574409
  }
}