{
  "schema": {
    "name": "stacked_qae_bundle",
    "version": "1.0"
  },
  "timestamp": "2026-02-28 12:36:30",
  "dataset": {
    "id": "mackey_glass_tau30_n200",
    "scale_low": 0.0,
    "scale_high": 1.0,
    "window_size": 6,
    "window_step": 2,
    "split": 0.75
  },
  "run": {
    "instance_id": 5,
    "layer": 3,
    "dec_epochs": 200,
    "enc_epochs": 100,
    "sigma_eval": 0.2,
    "test_seed_fixed": 99123,
    "device_seed": 13049,
    "stage1_time_sec": 68,
    "stage2_time_sec": 61
  },
  "environment": {
    "device": "lightning.qubit",
    "diff_method": "adjoint",
    "interface": "autograd"
  },
  "architecture": {
    "type": "stacked",
    "n_qubits": 6,
    "n_latent": 4,
    "n_trash": 2,
    "rot": "Rxyz"
  },
  "parameters": {
    "weights_stage1": [
      [
        [
          0.001098780179215595,
          1.4334829170044752,
          0.0026119520392313854
        ],
        [
          0.0006439113819850078,
          1.3625279134602792,
          -1.5674104442913703
        ],
        [
          -0.0009018675072826946,
          1.2204383002286807,
          -0.007987156270749841
        ],
        [
          0.0013115932326397146,
          1.2501113924909268,
          -1.5609191348670273
        ],
        [
          -0.004076791337720845,
          1.3381819170716787,
          -0.06413923972859747
        ],
        [
          1.5703356114172013,
          1.5732577828728047,
          -0.2148822133561078
        ]
      ],
      [
        [
          1.775653584304362,
          -0.5266276456245226,
          0.10262824750667338
        ],
        [
          1.572386156786033,
          -0.18108324492585728,
          1.571298935004426
        ],
        [
          1.5664277854401436,
          -0.22050807145324672,
          -0.9707352287904203
        ],
        [
          1.6029852174099717,
          -0.24436729164010879,
          0.5670886430256431
        ],
        [
          0.0636736308240746,
          -0.36882000202130233,
          0.24616716699276414
        ],
        [
          -0.6425702767569307,
          -0.32650836000372513,
          -0.23127733659577762
        ]
      ],
      [
        [
          0.30870637784598604,
          0.048057453226623706,
          0.25056318695231194
        ],
        [
          -1.1779282364839985,
          0.018849844842366528,
          0.1713007162997825
        ],
        [
          1.4947757063507354,
          -0.04559063781404978,
          0.17347192684031817
        ],
        [
          0.024080317673087215,
          0.026651809927174256,
          0.02451338064797887
        ],
        [
          -0.17765693074487093,
          0.023137483925195077,
          0.14466523555215308
        ],
        [
          -0.3080341778494778,
          -0.009497824474484697,
          0.11712418407772886
        ]
      ]
    ],
    "weights_stage2": [
      [
        [
          0.001098780179215595,
          1.4334829170044752,
          0.0026119520392313854
        ],
        [
          0.0006439113819850078,
          1.3625279134602792,
          -1.5674104442913703
        ],
        [
          -0.0009018675072826946,
          1.2204383002286807,
          -0.007987156270749841
        ],
        [
          0.0013115932326397146,
          1.2501113924909268,
          -1.5609191348670273
        ],
        [
          -0.004076791337720845,
          1.3381819170716787,
          -0.06413923972859747
        ],
        [
          1.5703356114172013,
          1.5732577828728047,
          -0.2148822133561078
        ]
      ],
      [
        [
          1.775653584304362,
          -0.5266276456245226,
          0.10262824750667338
        ],
        [
          1.572386156786033,
          -0.18108324492585728,
          1.571298935004426
        ],
        [
          1.5664277854401436,
          -0.22050807145324672,
          -0.9707352287904203
        ],
        [
          1.6029852174099717,
          -0.24436729164010879,
          0.5670886430256431
        ],
        [
          0.0636736308240746,
          -0.36882000202130233,
          0.24616716699276414
        ],
        [
          -0.6425702767569307,
          -0.32650836000372513,
          -0.23127733659577762
        ]
      ],
      [
        [
          0.30870637784598604,
          0.048057453226623706,
          0.25056318695231194
        ],
        [
          -1.1779282364839985,
          0.018849844842366528,
          0.1713007162997825
        ],
        [
          1.4947757063507354,
          -0.04559063781404978,
          0.17347192684031817
        ],
        [
          0.024080317673087215,
          0.026651809927174256,
          0.02451338064797887
        ],
        [
          -0.17765693074487093,
          0.023137483925195077,
          0.14466523555215308
        ],
        [
          -0.3080341778494778,
          -0.009497824474484697,
          0.11712418407772886
        ]
      ],
      [
        [
          0.001098780179215595,
          1.4334829170044752,
          0.0026119520392313854
        ],
        [
          0.0006439113819850078,
          1.3625279134602792,
          -1.5674104442913703
        ],
        [
          -0.0009018675072826946,
          1.2204383002286807,
          -0.007987156270749841
        ],
        [
          0.0013115932326397146,
          1.2501113924909268,
          -1.5609191348670273
        ],
        [
          -0.004076791337720845,
          1.3381819170716787,
          -0.06413923972859747
        ],
        [
          1.5703356114172013,
          1.5732577828728047,
          -0.2148822133561078
        ]
      ],
      [
        [
          1.775653584304362,
          -0.5266276456245226,
          0.10262824750667338
        ],
        [
          1.572386156786033,
          -0.18108324492585728,
          1.571298935004426
        ],
        [
          1.5664277854401436,
          -0.22050807145324672,
          -0.9707352287904203
        ],
        [
          1.6029852174099717,
          -0.24436729164010879,
          0.5670886430256431
        ],
        [
          0.0636736308240746,
          -0.36882000202130233,
          0.24616716699276414
        ],
        [
          -0.6425702767569307,
          -0.32650836000372513,
          -0.23127733659577762
        ]
      ],
      [
        [
          0.30870637784598604,
          0.048057453226623706,
          0.25056318695231194
        ],
        [
          -1.1779282364839985,
          0.018849844842366528,
          0.1713007162997825
        ],
        [
          1.4947757063507354,
          -0.04559063781404978,
          0.17347192684031817
        ],
        [
          0.024080317673087215,
          0.026651809927174256,
          0.02451338064797887
        ],
        [
          -0.17765693074487093,
          0.023137483925195077,
          0.14466523555215308
        ],
        [
          -0.3080341778494778,
          -0.009497824474484697,
          0.11712418407772886
        ]
      ]
    ]
  },
  "metrics": {
    "stage1_min_cost": 0.16567962611907303,
    "stage2_min_cost": 0.16592872516747964,
    "mse_train_noise": 0.04208329887417109,
    "mse_train_recovered": 0.04191457349888114,
    "delta_train_pct": 0.40093191314310994,
    "mse_test_noise": 0.03574197205136823,
    "mse_test_recovered": 0.03795173189349879,
    "delta_test_pct": -6.182534749215018,
    "mse_train_recovered_pure": 0.02720430461406268,
    "mse_test_recovered_pure": 0.021482501150315057
  },
  "artifacts": {
    "weights_s1_file": "weights_s1_inst05_L3.npy",
    "weights_s2_file": "weights_s2_inst05_L3.npy",
    "circuit_stage1": "circuit_stage1_6q_4l_2t_stacked_L03_inst05.eps",
    "circuit_stage2": "circuit_stage2_6q_4l_2t_stacked_L03_inst05.eps",
    "circuit_full": "circuit_full_6q_4l_2t_stacked_L3_inst05.eps",
    "training_cost_s1_plot": "training_cost_s1_dec200_enc100_inst05.eps",
    "training_cost_s2_plot": "training_cost_s2_dec200_enc100_inst05.eps",
    "reconstruction_pure_plot": "reconst_pure_dec200_enc100_inst05_L3.eps",
    "reconstruction_noisy_plot": "reconst_noisy_dec200_enc100_inst05_L3.eps"
  }
}