{
  "schema": {
    "name": "stacked_qae_bundle",
    "version": "1.0"
  },
  "timestamp": "2026-02-25 13:21:03",
  "dataset": {
    "id": "mackey_glass_tau30_n200",
    "scale_low": 0.0,
    "scale_high": 1.0,
    "window_size": 6,
    "window_step": 2,
    "split": 0.75
  },
  "run": {
    "instance_id": 3,
    "layer": 3,
    "dec_epochs": 400,
    "enc_epochs": 1,
    "sigma_eval": 0.2,
    "test_seed_fixed": 99123,
    "device_seed": 13047,
    "stage1_time_sec": 138,
    "stage2_time_sec": 0
  },
  "environment": {
    "device": "lightning.qubit",
    "diff_method": "adjoint",
    "interface": "autograd"
  },
  "architecture": {
    "type": "stacked",
    "n_qubits": 6,
    "n_latent": 4,
    "n_trash": 2,
    "rot": "Rxyz"
  },
  "parameters": {
    "weights_stage1": [
      [
        [
          0.2609206393085614,
          -0.2467776508648227,
          -0.26673259324834325
        ],
        [
          0.005856284787684811,
          1.2947175199033232,
          -1.5797215925085295
        ],
        [
          -0.0007864655780662077,
          1.302427036186834,
          0.012856756011142405
        ],
        [
          0.003441227496258466,
          1.3171789536020515,
          0.8135159762444963
        ],
        [
          -0.005700538908044817,
          0.01666646763371331,
          1.5769259009535879
        ],
        [
          1.5708096317336981,
          -1.5699324388978313,
          -1.3953876786082748
        ]
      ],
      [
        [
          0.024671055926009378,
          0.0277714635615055,
          0.15676688656360901
        ],
        [
          0.628217665628077,
          -0.0042958404564936705,
          -0.6077251887694595
        ],
        [
          0.035788787156624355,
          0.0013332661686721614,
          -0.03373778390409954
        ],
        [
          -0.09387944192506831,
          0.0022620386089826513,
          0.09815945298578792
        ],
        [
          -1.579379289805076,
          1.6336093966255605,
          1.576399303545166
        ],
        [
          0.07981316807197604,
          -0.0676831582338471,
          -0.07536708497358945
        ]
      ],
      [
        [
          0.2593092277251694,
          0.2419123207041613,
          0.28930046295022976
        ],
        [
          0.50871522706563,
          1.570275987897564,
          0.017625579974687028
        ],
        [
          0.013596269236884685,
          -1.5759144579424558,
          0.0053342254514279356
        ],
        [
          0.12981642434969706,
          0.24602091137201396,
          0.25504328902447093
        ],
        [
          0.3400434503626042,
          1.5713099376109867,
          0.14174489973061277
        ],
        [
          0.00893310342073212,
          1.5793576897501174,
          0.13898459583948108
        ]
      ]
    ],
    "weights_stage2": [
      [
        [
          0.5611881636057476,
          -0.08453163310043892,
          -0.30122860467070833
        ],
        [
          0.47025541839614526,
          1.1423812005763516,
          -1.6910602027510309
        ],
        [
          0.0314883892419588,
          1.4731902180695684,
          0.1400502416155982
        ],
        [
          -0.116161253339913,
          1.394114616476542,
          0.3749224003666764
        ],
        [
          -0.10229924764654891,
          0.26937796935746217,
          1.5891848962477866
        ],
        [
          1.438552164266744,
          -1.1019242683204569,
          -1.3597660745637266
        ]
      ],
      [
        [
          -0.10115220644920753,
          -0.07578492587053928,
          0.03208015291838773
        ],
        [
          0.7741167917919475,
          0.46769524238928323,
          -0.51323551828114
        ],
        [
          -0.09914783897329209,
          -0.23376131893807714,
          -0.24214624262267126
        ],
        [
          -0.04223475122588412,
          0.05674014614779728,
          0.1680602811163032
        ],
        [
          -1.6050904904534133,
          1.5355586486793897,
          1.8561152498386244
        ],
        [
          0.19878131221650103,
          -0.03678590346374888,
          0.06331423171277728
        ]
      ],
      [
        [
          0.042415157960519936,
          0.31090367916640815,
          0.304696295813986
        ],
        [
          0.16396026560019666,
          1.4229586140093624,
          0.13574720932364176
        ],
        [
          -0.3297194059570785,
          -1.6539944719896118,
          -0.2694981712929821
        ],
        [
          0.25714195592555766,
          0.36993869361679316,
          0.3236556566652745
        ],
        [
          0.6448198603327409,
          1.4232947337533102,
          0.04063114967995851
        ],
        [
          0.17268937146649657,
          1.6572641206321732,
          -0.13468574712097597
        ]
      ],
      [
        [
          0.2609206393085614,
          -0.1331536946960119,
          -0.16470889984236725
        ],
        [
          0.00585628478833193,
          1.160547118669531,
          -1.4856312912143397
        ],
        [
          -0.0007864655557573409,
          1.1818206575565195,
          -0.07963444267464062
        ],
        [
          0.003441227508855649,
          1.1906965411735302,
          1.2621982263569809
        ],
        [
          -0.005700538897002408,
          -0.12175690519834648,
          2.043816480090386
        ],
        [
          1.5708096317308844,
          -1.7139410024949908,
          -1.6299863768724736
        ]
      ],
      [
        [
          0.1770963622554556,
          0.21420715581627223,
          0.3210408048817583
        ],
        [
          0.8265929480516286,
          -0.44849775573709216,
          -0.4517631872958565
        ],
        [
          0.21555768150438687,
          0.12373698475792837,
          0.10198079748971733
        ],
        [
          -0.06445296591315669,
          0.13615894590707978,
          0.1579248070714172
        ],
        [
          -1.3313220628148799,
          1.771353198382472,
          1.581937961298867
        ],
        [
          0.051564551249774715,
          -0.44687934279944175,
          -0.11891751273665954
        ]
      ],
      [
        [
          0.482023373127247,
          0.16008592477033323,
          0.2739046300864734
        ],
        [
          1.1046479807306941,
          1.7634755038724859,
          0.11873933002534122
        ],
        [
          0.03275695585798693,
          -1.8896624368753001,
          0.27900456841188503
        ],
        [
          0.021301947495797353,
          0.08076006099141383,
          0.18643092138366743
        ],
        [
          0.576851755062282,
          1.531084661278948,
          0.24285864978126728
        ],
        [
          -0.16589957292293614,
          1.410048544406592,
          0.41265493879993825
        ]
      ]
    ]
  },
  "metrics": {
    "stage1_min_cost": 0.1053206416840428,
    "stage2_min_cost": 0.1429102123948815,
    "mse_train_noise": 0.04208329887417109,
    "mse_train_recovered": 0.027594668528619436,
    "delta_train_pct": 34.42845673499267,
    "mse_test_noise": 0.03574197205136823,
    "mse_test_recovered": 0.020477750276610026,
    "delta_test_pct": 42.70671397991281,
    "mse_train_recovered_pure": 0.004102475097922035,
    "mse_test_recovered_pure": 0.004172073832637938
  },
  "artifacts": {
    "weights_s1_file": "weights_s1_inst03_L3.npy",
    "weights_s2_file": "weights_s2_inst03_L3.npy",
    "circuit_stage1": "circuit_stage1_6q_4l_2t_stacked_L03_inst03.eps",
    "circuit_stage2": "circuit_stage2_6q_4l_2t_stacked_L03_inst03.eps",
    "circuit_full": "circuit_full_6q_4l_2t_stacked_L3_inst03.eps",
    "training_cost_s1_plot": "training_cost_s1_dec400_enc001_inst03.eps",
    "training_cost_s2_plot": "training_cost_s2_dec400_enc001_inst03.eps",
    "reconstruction_pure_plot": "reconst_pure_dec400_enc001_inst03_L3.eps",
    "reconstruction_noisy_plot": "reconst_noisy_dec400_enc001_inst03_L3.eps"
  }
}