{
  "schema": {
    "name": "stacked_qae_bundle",
    "version": "1.0"
  },
  "timestamp": "2026-02-25 13:18:42",
  "dataset": {
    "id": "mackey_glass_tau30_n200",
    "scale_low": 0.0,
    "scale_high": 1.0,
    "window_size": 6,
    "window_step": 2,
    "split": 0.75
  },
  "run": {
    "instance_id": 2,
    "layer": 3,
    "dec_epochs": 400,
    "enc_epochs": 1,
    "sigma_eval": 0.2,
    "test_seed_fixed": 99123,
    "device_seed": 13046,
    "stage1_time_sec": 138,
    "stage2_time_sec": 0
  },
  "environment": {
    "device": "lightning.qubit",
    "diff_method": "adjoint",
    "interface": "autograd"
  },
  "architecture": {
    "type": "stacked",
    "n_qubits": 6,
    "n_latent": 4,
    "n_trash": 2,
    "rot": "Rxyz"
  },
  "parameters": {
    "weights_stage1": [
      [
        [
          -0.0012223409404901245,
          1.4318790397683554,
          -0.0006539161868945613
        ],
        [
          -4.584835468572126e-05,
          1.3612650449015131,
          1.5697880780064115
        ],
        [
          0.0015105906104019274,
          1.2197116727846309,
          0.0003643117066947015
        ],
        [
          -0.0011656013353713952,
          1.2486792390236396,
          -1.5831656781017525
        ],
        [
          0.003690286111003367,
          1.3377658615757713,
          0.04919020303885716
        ],
        [
          -1.5715451670761578,
          1.5718150191232996,
          0.21310955322022151
        ]
      ],
      [
        [
          -1.779030113904342,
          -0.5288612295374182,
          0.04712646746684197
        ],
        [
          1.574769784463166,
          0.18009139379608044,
          -2.5223685539539042
        ],
        [
          1.5885681000057958,
          -0.2211808105133248,
          0.5056337365449433
        ],
        [
          1.5513154438085361,
          -0.24351126906421505,
          -1.0642479448250965
        ],
        [
          -0.050282575407468416,
          -0.36764153933974425,
          -0.5638918429243086
        ],
        [
          0.6484392883652993,
          -0.32877697059154043,
          0.4455603729988119
        ]
      ],
      [
        [
          0.16757622802078212,
          0.19423719073569684,
          0.30819849622647183
        ],
        [
          -1.2770983374550269,
          0.020372202327706607,
          0.2926520833241073
        ],
        [
          1.2444772076812094,
          0.03946716326882123,
          0.18030828210764954
        ],
        [
          0.2807465827308855,
          0.047785078034219476,
          0.27547842956498253
        ],
        [
          0.1469745509491399,
          0.035528510299487955,
          0.06825199209509929
        ],
        [
          0.776236733782826,
          0.007002132670149966,
          0.16200099244332136
        ]
      ]
    ],
    "weights_stage2": [
      [
        [
          0.23787905729170078,
          1.2642425341606158,
          0.056857243839789906
        ],
        [
          0.1731705076712734,
          1.217058486523488,
          1.6805879376999309
        ],
        [
          -0.3046282277545628,
          1.2436318427591455,
          -0.19260847861062372
        ],
        [
          0.09881269545949412,
          0.7862425472793058,
          -1.3078328612036425
        ],
        [
          -0.19064307689358456,
          0.8167602703365817,
          -0.24655166815305618
        ],
        [
          -1.5701165847267122,
          1.05544294519938,
          -0.08160969200798167
        ]
      ],
      [
        [
          -1.5451146639062623,
          0.03777022716074592,
          0.224970424869915
        ],
        [
          1.8697411142181901,
          0.36296357805626533,
          -2.1977032476282985
        ],
        [
          1.4192384590804876,
          0.08119594332103577,
          0.13233963530283152
        ],
        [
          1.7141735220753993,
          -0.4734386819551801,
          -0.9307852418757685
        ],
        [
          0.11961768876018318,
          -0.94296952334387,
          -0.1728270130608177
        ],
        [
          0.8911758027502237,
          -0.03983455545495587,
          0.47360787775944185
        ]
      ],
      [
        [
          0.29421815370086096,
          0.18751559555413475,
          0.3680875254097517
        ],
        [
          -1.2787307684441893,
          0.03036959057594747,
          0.2922220277330073
        ],
        [
          1.0935317176294004,
          0.0569244530619404,
          0.029346949487023138
        ],
        [
          0.32421917380123283,
          -0.11393172321662583,
          0.29298863112814416
        ],
        [
          0.07567995919095735,
          0.23301696546054282,
          -0.010785310043168555
        ],
        [
          0.8705003310453912,
          -0.3128238075261512,
          0.26460335364423526
        ]
      ],
      [
        [
          -0.0012223409404901245,
          1.0790490839814841,
          -0.5173554794967746
        ],
        [
          -4.584835451256292e-05,
          0.9724523823705562,
          1.5366530286735856
        ],
        [
          0.0015105906059954854,
          1.2867696822156653,
          0.1202645524878591
        ],
        [
          -0.0011656013536678377,
          0.6067112987922161,
          -1.5804573855786919
        ],
        [
          0.0036902861142161163,
          1.1011063229154412,
          -0.15044008427905464
        ],
        [
          -1.5715451670736769,
          1.0383499078399396,
          0.2471554234371341
        ]
      ],
      [
        [
          -1.9109477636121588,
          -0.8873077879122927,
          -0.1397108833841745
        ],
        [
          1.8332756059057085,
          0.136955720122811,
          -2.2406467173371936
        ],
        [
          1.4475169468445372,
          -0.35922139389781554,
          0.3471909145365164
        ],
        [
          1.359538465253969,
          -0.2963199829564036,
          -1.2463978222549033
        ],
        [
          0.23515968119835587,
          -0.8451564840407872,
          -0.3035072442560279
        ],
        [
          0.6112082369810916,
          0.10662943878293438,
          0.41021019142176246
        ]
      ],
      [
        [
          0.09185997972076689,
          0.18825334532408255,
          0.24830946704319176
        ],
        [
          -1.19592232578394,
          -0.262985646092668,
          0.37168938546237523
        ],
        [
          1.1464939074618226,
          0.24232318058916988,
          0.07770592090673567
        ],
        [
          0.2747879428937201,
          0.17037731239326975,
          0.2579682280018207
        ],
        [
          0.2258153833096653,
          0.23073124120923777,
          0.14728929423336715
        ],
        [
          0.6712268899400381,
          -0.3391050758756627,
          0.05939863124240758
        ]
      ]
    ]
  },
  "metrics": {
    "stage1_min_cost": 0.1656768061269996,
    "stage2_min_cost": 0.18135040808080619,
    "mse_train_noise": 0.04208329887417109,
    "mse_train_recovered": 0.04200365339868918,
    "delta_train_pct": 0.1892567303719339,
    "mse_test_noise": 0.03574197205136823,
    "mse_test_recovered": 0.036804398412876325,
    "delta_test_pct": -2.9724894865374996,
    "mse_train_recovered_pure": 0.026274351475950475,
    "mse_test_recovered_pure": 0.020413747324866907
  },
  "artifacts": {
    "weights_s1_file": "weights_s1_inst02_L3.npy",
    "weights_s2_file": "weights_s2_inst02_L3.npy",
    "circuit_stage1": "circuit_stage1_6q_4l_2t_stacked_L03_inst02.eps",
    "circuit_stage2": "circuit_stage2_6q_4l_2t_stacked_L03_inst02.eps",
    "circuit_full": "circuit_full_6q_4l_2t_stacked_L3_inst02.eps",
    "training_cost_s1_plot": "training_cost_s1_dec400_enc001_inst02.eps",
    "training_cost_s2_plot": "training_cost_s2_dec400_enc001_inst02.eps",
    "reconstruction_pure_plot": "reconst_pure_dec400_enc001_inst02_L3.eps",
    "reconstruction_noisy_plot": "reconst_noisy_dec400_enc001_inst02_L3.eps"
  }
}