{
  "schema": {
    "name": "stacked_qae_bundle",
    "version": "1.0"
  },
  "timestamp": "2026-02-25 12:57:00",
  "dataset": {
    "id": "mackey_glass_tau30_n200",
    "scale_low": 0.0,
    "scale_high": 1.0,
    "window_size": 6,
    "window_step": 2,
    "split": 0.75
  },
  "run": {
    "instance_id": 3,
    "layer": 3,
    "dec_epochs": 200,
    "enc_epochs": 1,
    "sigma_eval": 0.2,
    "test_seed_fixed": 99123,
    "device_seed": 13047,
    "stage1_time_sec": 68,
    "stage2_time_sec": 0
  },
  "environment": {
    "device": "lightning.qubit",
    "diff_method": "adjoint",
    "interface": "autograd"
  },
  "architecture": {
    "type": "stacked",
    "n_qubits": 6,
    "n_latent": 4,
    "n_trash": 2,
    "rot": "Rxyz"
  },
  "parameters": {
    "weights_stage1": [
      [
        [
          0.0729244025223624,
          -0.22436055919530828,
          -0.07650471416445455
        ],
        [
          -0.01957756031167888,
          1.0999986370981976,
          -0.09572405103119462
        ],
        [
          -0.027999829982649806,
          0.9911690689800321,
          0.11512736615452265
        ],
        [
          0.06722619125778939,
          1.123200686938127,
          0.9659959090552857
        ],
        [
          0.003353619587693798,
          0.3646091141406553,
          1.539861954749293
        ],
        [
          1.5893891444074228,
          -1.6265934213279238,
          -1.4698780949505212
        ]
      ],
      [
        [
          -0.0404174206623441,
          0.0001223163213523534,
          0.08096333895229321
        ],
        [
          0.6213190125938864,
          -0.000202658688113367,
          -0.6146932582135272
        ],
        [
          0.03385083053867197,
          0.0011405502664329815,
          -0.03310048462679012
        ],
        [
          -0.14115399209459245,
          -0.01009423182692169,
          0.13579559773257824
        ],
        [
          -0.9856614278950188,
          0.014796407318676664,
          0.9872280233149933
        ],
        [
          0.06451829685313056,
          -0.00413848600212797,
          -0.05585802880714803
        ]
      ],
      [
        [
          0.259309227805627,
          0.24191232059444953,
          0.2893004630297951
        ],
        [
          0.44650307173388176,
          1.574900071132099,
          0.017625580064566396
        ],
        [
          -0.015620898909647624,
          -1.5801430309803908,
          0.005334225461822772
        ],
        [
          0.1298164243213554,
          0.24602091141682556,
          0.2550432889724081
        ],
        [
          0.016689444098712276,
          1.5727701683706958,
          0.14174489982126115
        ],
        [
          -0.0026176667131593816,
          1.5833546438119277,
          0.1389845958354442
        ]
      ]
    ],
    "weights_stage2": [
      [
        [
          0.18816166479738958,
          -0.2898223292288449,
          0.1038318166939298
        ],
        [
          0.35386210055555156,
          0.7763725906234654,
          -0.1765526660395495
        ],
        [
          0.5676642929204094,
          1.287634112902245,
          -0.20602594258810072
        ],
        [
          0.7045220465851393,
          0.6302136353017225,
          1.1044189856467492
        ],
        [
          -0.22178166852416897,
          0.31233240132678103,
          1.8932102370297172
        ],
        [
          1.5600686871072884,
          -1.6105963558187002,
          -0.871482495365501
        ]
      ],
      [
        [
          0.12018264759179294,
          0.28345764357502784,
          0.25651694065581915
        ],
        [
          0.9742270669514188,
          -0.40734098736141944,
          -0.3036607025679262
        ],
        [
          -0.003848402041303609,
          -0.33524596729235506,
          -0.132300365780712
        ],
        [
          -0.07096997212321496,
          -0.11210357678814738,
          0.13445167748425135
        ],
        [
          -0.8418378352243816,
          -0.006841965275979696,
          1.08910560474039
        ],
        [
          0.19910681033452912,
          -0.21928543123479943,
          0.07263337600427579
        ]
      ],
      [
        [
          0.438143603619897,
          0.26364832847474645,
          0.5161778285137486
        ],
        [
          0.3923684786428094,
          1.5786218786681003,
          0.20986537032600533
        ],
        [
          0.19297186224473378,
          -1.5589393407884975,
          0.01293561571038724
        ],
        [
          0.16629807884291592,
          0.4855192955414023,
          0.28465091581225305
        ],
        [
          0.108764613260644,
          1.8606752467027161,
          -0.0001650596781262656
        ],
        [
          0.1869407782904919,
          1.8699427348078856,
          0.25007283177423445
        ]
      ],
      [
        [
          0.0729244025223624,
          -0.1408028553851492,
          0.3084813380649245
        ],
        [
          -0.019577560312079138,
          0.9292713198823309,
          -0.13386419809085648
        ],
        [
          -0.0279998299779096,
          0.7763429014583063,
          0.2663177898236421
        ],
        [
          0.06722619125913808,
          1.063109044379172,
          1.0479363718080181
        ],
        [
          0.003353619581903351,
          0.45129878840083837,
          1.212960592779822
        ],
        [
          1.5893891444037171,
          -1.3226771966393684,
          -1.943407572327906
        ]
      ],
      [
        [
          0.0718781749876443,
          0.3856291112977203,
          0.19124200035359404
        ],
        [
          0.6707793847564797,
          0.09416745177327815,
          -0.5646561367341993
        ],
        [
          0.10490093060073252,
          0.3809644740467857,
          -0.027647932882646786
        ],
        [
          -0.18645867115114298,
          -0.378991588724815,
          0.05707369824596189
        ],
        [
          -0.8962330476309566,
          0.041074553463683966,
          1.0340917950924533
        ],
        [
          -0.10557059013477989,
          -0.35207523441530497,
          -0.22233157950293997
        ]
      ],
      [
        [
          0.07238988752453471,
          0.15369418583848526,
          0.062423097545841244
        ],
        [
          0.9619614994070904,
          1.1831899471087934,
          0.1595355395639537
        ],
        [
          0.3026536752519598,
          -1.5305472425667144,
          -0.10575401047696747
        ],
        [
          0.11049992621856967,
          0.1383700099224946,
          0.22543566213256327
        ],
        [
          -0.2779721021011779,
          1.8801156335275868,
          0.28365485932064877
        ],
        [
          0.18452269475965782,
          2.117013770502119,
          0.027896359896653965
        ]
      ]
    ]
  },
  "metrics": {
    "stage1_min_cost": 0.11241966150156643,
    "stage2_min_cost": 0.1546340754511091,
    "mse_train_noise": 0.04208329887417109,
    "mse_train_recovered": 0.02948618361554209,
    "delta_train_pct": 29.933763739136342,
    "mse_test_noise": 0.03574197205136823,
    "mse_test_recovered": 0.02380309558626367,
    "delta_test_pct": 33.40295954556187,
    "mse_train_recovered_pure": 0.004641509245195343,
    "mse_test_recovered_pure": 0.005923512594512167
  },
  "artifacts": {
    "weights_s1_file": "weights_s1_inst03_L3.npy",
    "weights_s2_file": "weights_s2_inst03_L3.npy",
    "circuit_stage1": "circuit_stage1_6q_4l_2t_stacked_L03_inst03.eps",
    "circuit_stage2": "circuit_stage2_6q_4l_2t_stacked_L03_inst03.eps",
    "circuit_full": "circuit_full_6q_4l_2t_stacked_L3_inst03.eps",
    "training_cost_s1_plot": "training_cost_s1_dec200_enc001_inst03.eps",
    "training_cost_s2_plot": "training_cost_s2_dec200_enc001_inst03.eps",
    "reconstruction_pure_plot": "reconst_pure_dec200_enc001_inst03_L3.eps",
    "reconstruction_noisy_plot": "reconst_noisy_dec200_enc001_inst03_L3.eps"
  }
}