{
  "schema": {
    "name": "stacked_qae_bundle",
    "version": "1.0"
  },
  "timestamp": "2026-02-28 12:57:25",
  "dataset": {
    "id": "mackey_glass_tau30_n200",
    "scale_low": 0.0,
    "scale_high": 1.0,
    "window_size": 6,
    "window_step": 2,
    "split": 0.75
  },
  "run": {
    "instance_id": 6,
    "layer": 3,
    "dec_epochs": 300,
    "enc_epochs": 100,
    "sigma_eval": 0.2,
    "test_seed_fixed": 99123,
    "device_seed": 13050,
    "stage1_time_sec": 103,
    "stage2_time_sec": 60
  },
  "environment": {
    "device": "lightning.qubit",
    "diff_method": "adjoint",
    "interface": "autograd"
  },
  "architecture": {
    "type": "stacked",
    "n_qubits": 6,
    "n_latent": 4,
    "n_trash": 2,
    "rot": "Rxyz"
  },
  "parameters": {
    "weights_stage1": [
      [
        [
          -0.0008867307584798808,
          1.4330453559908962,
          -6.012843964436859e-05
        ],
        [
          -0.0002817213677156326,
          1.3622647398720318,
          -1.571602930257875
        ],
        [
          0.001674623431368537,
          1.2195394113130642,
          3.134096478393824
        ],
        [
          -0.0010181367127389603,
          1.248706081858747,
          1.5643663732135622
        ],
        [
          0.0026454410022541176,
          1.33814129280748,
          0.024718499709668336
        ],
        [
          -1.5699257695190338,
          1.5722286394245593,
          0.21178393033438145
        ]
      ],
      [
        [
          1.3628925261322566,
          -0.5289423816519365,
          0.0073689287614491245
        ],
        [
          1.5775879501568473,
          0.1804928141529942,
          1.0816303253609936
        ],
        [
          -1.5523745959450228,
          0.22137720896969157,
          0.5572699618519837
        ],
        [
          -1.5780426024914365,
          -0.24330441103674832,
          0.23213542788925395
        ],
        [
          -0.026509966025134536,
          -0.3677333372627942,
          -0.6274260562412829
        ],
        [
          0.6485701612054118,
          0.32876409694169484,
          0.567064239433996
        ]
      ],
      [
        [
          0.10177923112532913,
          0.11127701158828088,
          0.21259338002871206
        ],
        [
          0.4578307231028081,
          0.011985053800572742,
          0.22640432723185294
        ],
        [
          1.22345766858323,
          -0.040383402197619135,
          0.16765587680146143
        ],
        [
          0.2283813224763361,
          0.2120354333412835,
          0.2835331184651666
        ],
        [
          0.10944129494061683,
          -0.03220187547375451,
          0.012024009623639987
        ],
        [
          0.556926609769368,
          0.003821718823113576,
          0.1009677158827098
        ]
      ]
    ],
    "weights_stage2": [
      [
        [
          -0.0008867307584798808,
          1.4330453559908962,
          -6.012843964436859e-05
        ],
        [
          -0.0002817213677156326,
          1.3622647398720318,
          -1.571602930257875
        ],
        [
          0.001674623431368537,
          1.2195394113130642,
          3.134096478393824
        ],
        [
          -0.0010181367127389603,
          1.248706081858747,
          1.5643663732135622
        ],
        [
          0.0026454410022541176,
          1.33814129280748,
          0.024718499709668336
        ],
        [
          -1.5699257695190338,
          1.5722286394245593,
          0.21178393033438145
        ]
      ],
      [
        [
          1.3628925261322566,
          -0.5289423816519365,
          0.0073689287614491245
        ],
        [
          1.5775879501568473,
          0.1804928141529942,
          1.0816303253609936
        ],
        [
          -1.5523745959450228,
          0.22137720896969157,
          0.5572699618519837
        ],
        [
          -1.5780426024914365,
          -0.24330441103674832,
          0.23213542788925395
        ],
        [
          -0.026509966025134536,
          -0.3677333372627942,
          -0.6274260562412829
        ],
        [
          0.6485701612054118,
          0.32876409694169484,
          0.567064239433996
        ]
      ],
      [
        [
          0.10177923112532913,
          0.11127701158828088,
          0.21259338002871206
        ],
        [
          0.4578307231028081,
          0.011985053800572742,
          0.22640432723185294
        ],
        [
          1.22345766858323,
          -0.040383402197619135,
          0.16765587680146143
        ],
        [
          0.2283813224763361,
          0.2120354333412835,
          0.2835331184651666
        ],
        [
          0.10944129494061683,
          -0.03220187547375451,
          0.012024009623639987
        ],
        [
          0.556926609769368,
          0.003821718823113576,
          0.1009677158827098
        ]
      ],
      [
        [
          -0.0008867307584798808,
          1.4330453559908962,
          -6.012843964436859e-05
        ],
        [
          -0.0002817213677156326,
          1.3622647398720318,
          -1.571602930257875
        ],
        [
          0.001674623431368537,
          1.2195394113130642,
          3.134096478393824
        ],
        [
          -0.0010181367127389603,
          1.248706081858747,
          1.5643663732135622
        ],
        [
          0.0026454410022541176,
          1.33814129280748,
          0.024718499709668336
        ],
        [
          -1.5699257695190338,
          1.5722286394245593,
          0.21178393033438145
        ]
      ],
      [
        [
          1.3628925261322566,
          -0.5289423816519365,
          0.0073689287614491245
        ],
        [
          1.5775879501568473,
          0.1804928141529942,
          1.0816303253609936
        ],
        [
          -1.5523745959450228,
          0.22137720896969157,
          0.5572699618519837
        ],
        [
          -1.5780426024914365,
          -0.24330441103674832,
          0.23213542788925395
        ],
        [
          -0.026509966025134536,
          -0.3677333372627942,
          -0.6274260562412829
        ],
        [
          0.6485701612054118,
          0.32876409694169484,
          0.567064239433996
        ]
      ],
      [
        [
          0.10177923112532913,
          0.11127701158828088,
          0.21259338002871206
        ],
        [
          0.4578307231028081,
          0.011985053800572742,
          0.22640432723185294
        ],
        [
          1.22345766858323,
          -0.040383402197619135,
          0.16765587680146143
        ],
        [
          0.2283813224763361,
          0.2120354333412835,
          0.2835331184651666
        ],
        [
          0.10944129494061683,
          -0.03220187547375451,
          0.012024009623639987
        ],
        [
          0.556926609769368,
          0.003821718823113576,
          0.1009677158827098
        ]
      ]
    ]
  },
  "metrics": {
    "stage1_min_cost": 0.16569547759816372,
    "stage2_min_cost": 0.16487343111426175,
    "mse_train_noise": 0.04208329887417109,
    "mse_train_recovered": 0.04108395688867407,
    "delta_train_pct": 2.374675969403084,
    "mse_test_noise": 0.03574197205136823,
    "mse_test_recovered": 0.03578584468395947,
    "delta_test_pct": -0.12274821469890895,
    "mse_train_recovered_pure": 0.026247985173465247,
    "mse_test_recovered_pure": 0.02073611937036004
  },
  "artifacts": {
    "weights_s1_file": "weights_s1_inst06_L3.npy",
    "weights_s2_file": "weights_s2_inst06_L3.npy",
    "circuit_stage1": "circuit_stage1_6q_4l_2t_stacked_L03_inst06.eps",
    "circuit_stage2": "circuit_stage2_6q_4l_2t_stacked_L03_inst06.eps",
    "circuit_full": "circuit_full_6q_4l_2t_stacked_L3_inst06.eps",
    "training_cost_s1_plot": "training_cost_s1_dec300_enc100_inst06.eps",
    "training_cost_s2_plot": "training_cost_s2_dec300_enc100_inst06.eps",
    "reconstruction_pure_plot": "reconst_pure_dec300_enc100_inst06_L3.eps",
    "reconstruction_noisy_plot": "reconst_noisy_dec300_enc100_inst06_L3.eps"
  }
}