{
  "schema": {
    "name": "stacked_qae_bundle",
    "version": "1.0"
  },
  "timestamp": "2026-02-28 12:17:31",
  "dataset": {
    "id": "mackey_glass_tau30_n200",
    "scale_low": 0.0,
    "scale_high": 1.0,
    "window_size": 6,
    "window_step": 2,
    "split": 0.75
  },
  "run": {
    "instance_id": 2,
    "layer": 3,
    "dec_epochs": 100,
    "enc_epochs": 100,
    "sigma_eval": 0.2,
    "test_seed_fixed": 99123,
    "device_seed": 13046,
    "stage1_time_sec": 34,
    "stage2_time_sec": 61
  },
  "environment": {
    "device": "lightning.qubit",
    "diff_method": "adjoint",
    "interface": "autograd"
  },
  "architecture": {
    "type": "stacked",
    "n_qubits": 6,
    "n_latent": 4,
    "n_trash": 2,
    "rot": "Rxyz"
  },
  "parameters": {
    "weights_stage1": [
      [
        [
          0.0011660438379366943,
          1.084113788406774,
          0.055585615991026835
        ],
        [
          -0.037757284258313865,
          1.1134127763510457,
          0.10777732588487758
        ],
        [
          -0.0022345444392568824,
          1.1218888118167865,
          1.710631553301125
        ],
        [
          -0.0028077451867481035,
          1.1592749314048507,
          -1.1687726177557787
        ],
        [
          0.003303932885720518,
          1.2023682781925116,
          0.9398961220259902
        ],
        [
          0.5406451266977665,
          0.8193747241256318,
          0.5832773466170512
        ]
      ],
      [
        [
          -0.06253671610527475,
          -0.35465180210919917,
          0.10523300735700429
        ],
        [
          1.5424841873034885,
          0.19964789101668204,
          -0.717280442694118
        ],
        [
          -0.6907356603525006,
          -0.16297362356691242,
          -0.3868445275553848
        ],
        [
          0.20450877512918417,
          -0.2249562426083793,
          -0.453541633689458
        ],
        [
          0.14976000903764008,
          -0.068248281429121,
          0.2140918696969095
        ],
        [
          1.485527955634496,
          -0.19521529506691665,
          -0.3236985139964576
        ]
      ],
      [
        [
          0.16757622797912547,
          0.1942371907473695,
          0.3081984961860998
        ],
        [
          -0.41408320141744087,
          -0.006464148694326907,
          0.2926520832475773
        ],
        [
          -0.2025151240937206,
          0.04525595260584751,
          0.18030828211484212
        ],
        [
          0.2807465826712935,
          0.047785078037299415,
          0.2754784294745586
        ],
        [
          -0.4029056700113065,
          -0.0025675979270856925,
          0.06825199207761107
        ],
        [
          -0.14717823404884206,
          -0.013578272858646741,
          0.16200099242872157
        ]
      ]
    ],
    "weights_stage2": [
      [
        [
          0.0011660438379366943,
          1.084113788406774,
          0.055585615991026835
        ],
        [
          -0.037757284258313865,
          1.1134127763510457,
          0.10777732588487758
        ],
        [
          -0.0022345444392568824,
          1.1218888118167865,
          1.710631553301125
        ],
        [
          -0.0028077451867481035,
          1.1592749314048507,
          -1.1687726177557787
        ],
        [
          0.003303932885720518,
          1.2023682781925116,
          0.9398961220259902
        ],
        [
          0.5406451266977665,
          0.8193747241256318,
          0.5832773466170512
        ]
      ],
      [
        [
          -0.06253671610527475,
          -0.35465180210919917,
          0.10523300735700429
        ],
        [
          1.5424841873034885,
          0.19964789101668204,
          -0.717280442694118
        ],
        [
          -0.6907356603525006,
          -0.16297362356691242,
          -0.3868445275553848
        ],
        [
          0.20450877512918417,
          -0.2249562426083793,
          -0.453541633689458
        ],
        [
          0.14976000903764008,
          -0.068248281429121,
          0.2140918696969095
        ],
        [
          1.485527955634496,
          -0.19521529506691665,
          -0.3236985139964576
        ]
      ],
      [
        [
          0.16757622797912547,
          0.1942371907473695,
          0.3081984961860998
        ],
        [
          -0.41408320141744087,
          -0.006464148694326907,
          0.2926520832475773
        ],
        [
          -0.2025151240937206,
          0.04525595260584751,
          0.18030828211484212
        ],
        [
          0.2807465826712935,
          0.047785078037299415,
          0.2754784294745586
        ],
        [
          -0.4029056700113065,
          -0.0025675979270856925,
          0.06825199207761107
        ],
        [
          -0.14717823404884206,
          -0.013578272858646741,
          0.16200099242872157
        ]
      ],
      [
        [
          0.0011660438379366943,
          1.084113788406774,
          0.055585615991026835
        ],
        [
          -0.037757284258313865,
          1.1134127763510457,
          0.10777732588487758
        ],
        [
          -0.0022345444392568824,
          1.1218888118167865,
          1.710631553301125
        ],
        [
          -0.0028077451867481035,
          1.1592749314048507,
          -1.1687726177557787
        ],
        [
          0.003303932885720518,
          1.2023682781925116,
          0.9398961220259902
        ],
        [
          0.5406451266977665,
          0.8193747241256318,
          0.5832773466170512
        ]
      ],
      [
        [
          -0.06253671610527475,
          -0.35465180210919917,
          0.10523300735700429
        ],
        [
          1.5424841873034885,
          0.19964789101668204,
          -0.717280442694118
        ],
        [
          -0.6907356603525006,
          -0.16297362356691242,
          -0.3868445275553848
        ],
        [
          0.20450877512918417,
          -0.2249562426083793,
          -0.453541633689458
        ],
        [
          0.14976000903764008,
          -0.068248281429121,
          0.2140918696969095
        ],
        [
          1.485527955634496,
          -0.19521529506691665,
          -0.3236985139964576
        ]
      ],
      [
        [
          0.16757622797912547,
          0.1942371907473695,
          0.3081984961860998
        ],
        [
          -0.41408320141744087,
          -0.006464148694326907,
          0.2926520832475773
        ],
        [
          -0.2025151240937206,
          0.04525595260584751,
          0.18030828211484212
        ],
        [
          0.2807465826712935,
          0.047785078037299415,
          0.2754784294745586
        ],
        [
          -0.4029056700113065,
          -0.0025675979270856925,
          0.06825199207761107
        ],
        [
          -0.14717823404884206,
          -0.013578272858646741,
          0.16200099242872157
        ]
      ]
    ]
  },
  "metrics": {
    "stage1_min_cost": 0.1855999314662459,
    "stage2_min_cost": 0.1737487168316498,
    "mse_train_noise": 0.04208329887417109,
    "mse_train_recovered": 0.041181361094688014,
    "delta_train_pct": 2.143220240836785,
    "mse_test_noise": 0.03574197205136823,
    "mse_test_recovered": 0.03399582888907125,
    "delta_test_pct": 4.885413596618083,
    "mse_train_recovered_pure": 0.027152931142443864,
    "mse_test_recovered_pure": 0.021436169030770367
  },
  "artifacts": {
    "weights_s1_file": "weights_s1_inst02_L3.npy",
    "weights_s2_file": "weights_s2_inst02_L3.npy",
    "circuit_stage1": "circuit_stage1_6q_4l_2t_stacked_L03_inst02.eps",
    "circuit_stage2": "circuit_stage2_6q_4l_2t_stacked_L03_inst02.eps",
    "circuit_full": "circuit_full_6q_4l_2t_stacked_L3_inst02.eps",
    "training_cost_s1_plot": "training_cost_s1_dec100_enc100_inst02.eps",
    "training_cost_s2_plot": "training_cost_s2_dec100_enc100_inst02.eps",
    "reconstruction_pure_plot": "reconst_pure_dec100_enc100_inst02_L3.eps",
    "reconstruction_noisy_plot": "reconst_noisy_dec100_enc100_inst02_L3.eps"
  }
}