{
  "schema": {
    "name": "stacked_qae_bundle",
    "version": "1.0"
  },
  "timestamp": "2026-02-25 13:42:13",
  "dataset": {
    "id": "mackey_glass_tau30_n200",
    "scale_low": 0.0,
    "scale_high": 1.0,
    "window_size": 6,
    "window_step": 2,
    "split": 0.75
  },
  "run": {
    "instance_id": 4,
    "layer": 3,
    "dec_epochs": 500,
    "enc_epochs": 1,
    "sigma_eval": 0.2,
    "test_seed_fixed": 99123,
    "device_seed": 13048,
    "stage1_time_sec": 174,
    "stage2_time_sec": 0
  },
  "environment": {
    "device": "lightning.qubit",
    "diff_method": "adjoint",
    "interface": "autograd"
  },
  "architecture": {
    "type": "stacked",
    "n_qubits": 6,
    "n_latent": 4,
    "n_trash": 2,
    "rot": "Rxyz"
  },
  "parameters": {
    "weights_stage1": [
      [
        [
          -0.0016849326002608786,
          1.4310313385048743,
          -0.0014328325491201129
        ],
        [
          -0.0006998572912763097,
          1.3610953331109057,
          1.5682379050878623
        ],
        [
          -0.0012131897662834323,
          1.2203905806236326,
          0.024121965570960247
        ],
        [
          7.37680006104603e-05,
          1.2502267810680976,
          1.5623055191465627
        ],
        [
          -0.0018077090701464102,
          1.3384409637433934,
          -0.009006237678516306
        ],
        [
          -1.5781146470236596,
          1.5688023843571959,
          0.21436995940620382
        ]
      ],
      [
        [
          -1.772277033824781,
          -0.5254247439251449,
          1.750077245236452
        ],
        [
          1.5610924826071069,
          0.18171695476667565,
          0.8878495064852175
        ],
        [
          1.5489040827199547,
          0.22081764071599577,
          -1.3468295916802546
        ],
        [
          -1.561655904839892,
          -0.2450019762294606,
          2.199589358640158
        ],
        [
          0.010597831565062455,
          -0.3694440419982724,
          0.430221648464768
        ],
        [
          0.6365776672050443,
          -0.3251129926546387,
          0.8808080476744198
        ]
      ],
      [
        [
          0.1489170154347646,
          0.13861431507518815,
          0.26054751679510807
        ],
        [
          -1.3798726186039796,
          0.019032155400938323,
          0.27719327180132525
        ],
        [
          -1.4430233213684227,
          -0.047325085414956246,
          0.174163171974607
        ],
        [
          0.040069803507480836,
          0.3016307762228756,
          0.02753842999641483
        ],
        [
          1.5685259240758784,
          0.02169630200980698,
          0.17430469850016858
        ],
        [
          0.40898341500140073,
          0.015371610481586539,
          0.028030159722527377
        ]
      ]
    ],
    "weights_stage2": [
      [
        [
          -0.10076804756538194,
          1.1186617543640802,
          0.21857908716117533
        ],
        [
          0.14121613053686705,
          1.4083838680755947,
          1.577027625992567
        ],
        [
          0.06326333190122051,
          1.1464315014349695,
          -0.5325188220666022
        ],
        [
          0.2928709169638673,
          0.9779966316402646,
          1.2951538548644437
        ],
        [
          -0.5125939316026005,
          1.0250516328950063,
          -0.1890354360032209
        ],
        [
          -1.2508623160118237,
          1.4038006771806002,
          -0.20770192156775777
        ]
      ],
      [
        [
          -1.921582031551634,
          -0.40271235585031373,
          1.6546586200669737
        ],
        [
          1.660275253495159,
          0.28120948166425996,
          1.1166256070661125
        ],
        [
          1.4069410984221629,
          0.17815324525824452,
          -1.499721973226728
        ],
        [
          -1.30903217322475,
          -0.43083473313196163,
          2.475670237351267
        ],
        [
          0.15650563962310282,
          -0.8142021173919707,
          0.6159500500583655
        ],
        [
          0.7108673215028383,
          -0.05544069257069564,
          0.9423994710581021
        ]
      ],
      [
        [
          0.20389059013680733,
          0.1675920753110298,
          0.3488092677201617
        ],
        [
          -1.033783341447209,
          -0.2602256736684159,
          0.6214753829073281
        ],
        [
          -1.3194664356553591,
          0.10131618951242854,
          0.2990006200711988
        ],
        [
          0.07252902110033449,
          0.2657239448632383,
          0.006430538740569078
        ],
        [
          1.440187069331932,
          0.35195368461138105,
          0.054237170552939265
        ],
        [
          0.298900785384472,
          -0.06722700509551742,
          -0.08230826426037227
        ]
      ],
      [
        [
          -0.0016849326002608786,
          1.0540557178754306,
          -0.4328271682375164
        ],
        [
          -0.0006998572894811864,
          0.9902123514019546,
          1.7348133767390055
        ],
        [
          -0.001213189766884181,
          1.2814908293918172,
          -0.36688960933674447
        ],
        [
          7.376799472966337e-05,
          0.5770587705915111,
          1.4340952864665792
        ],
        [
          -0.0018077090705900863,
          1.1774249825944272,
          -0.25663602568285765
        ],
        [
          -1.578114647018513,
          1.9223828413050743,
          0.13384855834294723
        ]
      ],
      [
        [
          -1.6181397831124722,
          -0.951716887952236,
          1.8411173682599162
        ],
        [
          1.7391718381197605,
          0.4585898380792854,
          1.110405974051076
        ],
        [
          1.7835191112994222,
          0.47574471998951684,
          -1.1601451771548663
        ],
        [
          -1.5954793655948472,
          -0.6184719662591142,
          1.845973174064304
        ],
        [
          0.12455155459367225,
          -0.9400649787724065,
          0.632737770958719
        ],
        [
          0.7799686452220922,
          0.31165094381950487,
          0.8154594763013346
        ]
      ],
      [
        [
          0.06365179399458,
          0.11874800191500842,
          0.17228576587005429
        ],
        [
          -1.2618605302573764,
          -0.17292086853465888,
          0.3972607997485545
        ],
        [
          -1.3354493472193134,
          -0.040833288897717784,
          0.28450159595750685
        ],
        [
          0.014553925151137643,
          0.2798965959854438,
          0.04864632125226063
        ],
        [
          1.6968625624799865,
          0.39004192763360107,
          0.29437222644739774
        ],
        [
          0.5198615790596848,
          -0.09391202025964313,
          0.13836858370542696
        ]
      ]
    ]
  },
  "metrics": {
    "stage1_min_cost": 0.16566811382554647,
    "stage2_min_cost": 0.16566398317375988,
    "mse_train_noise": 0.04208329887417109,
    "mse_train_recovered": 0.043625596299229366,
    "delta_train_pct": -3.6648681693651097,
    "mse_test_noise": 0.03574197205136823,
    "mse_test_recovered": 0.03923837619903702,
    "delta_test_pct": -9.782348166586253,
    "mse_train_recovered_pure": 0.027565910867739518,
    "mse_test_recovered_pure": 0.02164085743008833
  },
  "artifacts": {
    "weights_s1_file": "weights_s1_inst04_L3.npy",
    "weights_s2_file": "weights_s2_inst04_L3.npy",
    "circuit_stage1": "circuit_stage1_6q_4l_2t_stacked_L03_inst04.eps",
    "circuit_stage2": "circuit_stage2_6q_4l_2t_stacked_L03_inst04.eps",
    "circuit_full": "circuit_full_6q_4l_2t_stacked_L3_inst04.eps",
    "training_cost_s1_plot": "training_cost_s1_dec500_enc001_inst04.eps",
    "training_cost_s2_plot": "training_cost_s2_dec500_enc001_inst04.eps",
    "reconstruction_pure_plot": "reconst_pure_dec500_enc001_inst04_L3.eps",
    "reconstruction_noisy_plot": "reconst_noisy_dec500_enc001_inst04_L3.eps"
  }
}