{
  "schema": {
    "name": "stacked_qae_bundle",
    "version": "1.0"
  },
  "timestamp": "2026-02-28 12:49:08",
  "dataset": {
    "id": "mackey_glass_tau30_n200",
    "scale_low": 0.0,
    "scale_high": 1.0,
    "window_size": 6,
    "window_step": 2,
    "split": 0.75
  },
  "run": {
    "instance_id": 3,
    "layer": 3,
    "dec_epochs": 300,
    "enc_epochs": 100,
    "sigma_eval": 0.2,
    "test_seed_fixed": 99123,
    "device_seed": 13047,
    "stage1_time_sec": 103,
    "stage2_time_sec": 60
  },
  "environment": {
    "device": "lightning.qubit",
    "diff_method": "adjoint",
    "interface": "autograd"
  },
  "architecture": {
    "type": "stacked",
    "n_qubits": 6,
    "n_latent": 4,
    "n_trash": 2,
    "rot": "Rxyz"
  },
  "parameters": {
    "weights_stage1": [
      [
        [
          0.1720850919246291,
          -0.22740509331632958,
          -0.18084005547154208
        ],
        [
          0.06551779185206474,
          1.183485023961444,
          -1.0973588135106607
        ],
        [
          -0.010729710907982765,
          1.1459489132427,
          0.08081292912270946
        ],
        [
          0.04465103891244091,
          1.0463310265919792,
          0.8729812097787822
        ],
        [
          0.007510507799677328,
          0.20832689407654903,
          1.5808730747383108
        ],
        [
          1.5706816976205389,
          -1.5709439400551408,
          -1.442489579929104
        ]
      ],
      [
        [
          -0.04845099834687601,
          0.013489249018801445,
          0.07554704895783203
        ],
        [
          0.6257043152833213,
          -4.9908640973081887e-05,
          -0.6103306640662471
        ],
        [
          0.032980138096004176,
          0.002484873965651901,
          -0.033930043708738075
        ],
        [
          -0.12420069001468972,
          -0.012105578432512183,
          0.10894090168125833
        ],
        [
          -1.0809136599274367,
          0.058465369249137374,
          1.0853985644217172
        ],
        [
          0.06975455392004494,
          -0.048746502819043844,
          -0.05977396939696645
        ]
      ],
      [
        [
          0.25930922770127307,
          0.2419123206658654,
          0.2893004629157475
        ],
        [
          0.4414763027411568,
          1.5748022193754994,
          0.017625579976475247
        ],
        [
          -0.014337090653383107,
          -1.5769596166516333,
          0.005334225455131877
        ],
        [
          0.12981642432233864,
          0.24602091135816648,
          0.2550432889877847
        ],
        [
          0.04533025321332569,
          1.5733434811734743,
          0.14174489974768295
        ],
        [
          0.008060906406586153,
          1.5797469590933662,
          0.1389845958452987
        ]
      ]
    ],
    "weights_stage2": [
      [
        [
          0.1720850919246291,
          -0.22740509331632958,
          -0.18084005547154208
        ],
        [
          0.06551779185206474,
          1.183485023961444,
          -1.0973588135106607
        ],
        [
          -0.010729710907982765,
          1.1459489132427,
          0.08081292912270946
        ],
        [
          0.04465103891244091,
          1.0463310265919792,
          0.8729812097787822
        ],
        [
          0.007510507799677328,
          0.20832689407654903,
          1.5808730747383108
        ],
        [
          1.5706816976205389,
          -1.5709439400551408,
          -1.442489579929104
        ]
      ],
      [
        [
          -0.04845099834687601,
          0.013489249018801445,
          0.07554704895783203
        ],
        [
          0.6257043152833213,
          -4.9908640973081887e-05,
          -0.6103306640662471
        ],
        [
          0.032980138096004176,
          0.002484873965651901,
          -0.033930043708738075
        ],
        [
          -0.12420069001468972,
          -0.012105578432512183,
          0.10894090168125833
        ],
        [
          -1.0809136599274367,
          0.058465369249137374,
          1.0853985644217172
        ],
        [
          0.06975455392004494,
          -0.048746502819043844,
          -0.05977396939696645
        ]
      ],
      [
        [
          0.25930922770127307,
          0.2419123206658654,
          0.2893004629157475
        ],
        [
          0.4414763027411568,
          1.5748022193754994,
          0.017625579976475247
        ],
        [
          -0.014337090653383107,
          -1.5769596166516333,
          0.005334225455131877
        ],
        [
          0.12981642432233864,
          0.24602091135816648,
          0.2550432889877847
        ],
        [
          0.04533025321332569,
          1.5733434811734743,
          0.14174489974768295
        ],
        [
          0.008060906406586153,
          1.5797469590933662,
          0.1389845958452987
        ]
      ],
      [
        [
          0.1720850919246291,
          -0.22740509331632958,
          -0.18084005547154208
        ],
        [
          0.06551779185206474,
          1.183485023961444,
          -1.0973588135106607
        ],
        [
          -0.010729710907982765,
          1.1459489132427,
          0.08081292912270946
        ],
        [
          0.04465103891244091,
          1.0463310265919792,
          0.8729812097787822
        ],
        [
          0.007510507799677328,
          0.20832689407654903,
          1.5808730747383108
        ],
        [
          1.5706816976205389,
          -1.5709439400551408,
          -1.442489579929104
        ]
      ],
      [
        [
          -0.04845099834687601,
          0.013489249018801445,
          0.07554704895783203
        ],
        [
          0.6257043152833213,
          -4.9908640973081887e-05,
          -0.6103306640662471
        ],
        [
          0.032980138096004176,
          0.002484873965651901,
          -0.033930043708738075
        ],
        [
          -0.12420069001468972,
          -0.012105578432512183,
          0.10894090168125833
        ],
        [
          -1.0809136599274367,
          0.058465369249137374,
          1.0853985644217172
        ],
        [
          0.06975455392004494,
          -0.048746502819043844,
          -0.05977396939696645
        ]
      ],
      [
        [
          0.25930922770127307,
          0.2419123206658654,
          0.2893004629157475
        ],
        [
          0.4414763027411568,
          1.5748022193754994,
          0.017625579976475247
        ],
        [
          -0.014337090653383107,
          -1.5769596166516333,
          0.005334225455131877
        ],
        [
          0.12981642432233864,
          0.24602091135816648,
          0.2550432889877847
        ],
        [
          0.04533025321332569,
          1.5733434811734743,
          0.14174489974768295
        ],
        [
          0.008060906406586153,
          1.5797469590933662,
          0.1389845958452987
        ]
      ]
    ]
  },
  "metrics": {
    "stage1_min_cost": 0.11182763363527218,
    "stage2_min_cost": 0.1566912660274341,
    "mse_train_noise": 0.04208329887417109,
    "mse_train_recovered": 0.02941929860536597,
    "delta_train_pct": 30.092698546923412,
    "mse_test_noise": 0.03574197205136823,
    "mse_test_recovered": 0.02312468482143796,
    "delta_test_pct": 35.301038263352545,
    "mse_train_recovered_pure": 0.004233451509768183,
    "mse_test_recovered_pure": 0.005439397325965835
  },
  "artifacts": {
    "weights_s1_file": "weights_s1_inst03_L3.npy",
    "weights_s2_file": "weights_s2_inst03_L3.npy",
    "circuit_stage1": "circuit_stage1_6q_4l_2t_stacked_L03_inst03.eps",
    "circuit_stage2": "circuit_stage2_6q_4l_2t_stacked_L03_inst03.eps",
    "circuit_full": "circuit_full_6q_4l_2t_stacked_L3_inst03.eps",
    "training_cost_s1_plot": "training_cost_s1_dec300_enc100_inst03.eps",
    "training_cost_s2_plot": "training_cost_s2_dec300_enc100_inst03.eps",
    "reconstruction_pure_plot": "reconst_pure_dec300_enc100_inst03_L3.eps",
    "reconstruction_noisy_plot": "reconst_noisy_dec300_enc100_inst03_L3.eps"
  }
}