{
  "schema": {
    "name": "stacked_qae_bundle",
    "version": "1.0"
  },
  "timestamp": "2026-02-25 13:14:02",
  "dataset": {
    "id": "mackey_glass_tau30_n200",
    "scale_low": 0.0,
    "scale_high": 1.0,
    "window_size": 6,
    "window_step": 2,
    "split": 0.75
  },
  "run": {
    "instance_id": 7,
    "layer": 3,
    "dec_epochs": 300,
    "enc_epochs": 1,
    "sigma_eval": 0.2,
    "test_seed_fixed": 99123,
    "device_seed": 13051,
    "stage1_time_sec": 103,
    "stage2_time_sec": 0
  },
  "environment": {
    "device": "lightning.qubit",
    "diff_method": "adjoint",
    "interface": "autograd"
  },
  "architecture": {
    "type": "stacked",
    "n_qubits": 6,
    "n_latent": 4,
    "n_trash": 2,
    "rot": "Rxyz"
  },
  "parameters": {
    "weights_stage1": [
      [
        [
          2.2297780609151005e-05,
          1.3469895057853154,
          1.5690674176987307
        ],
        [
          -3.8404321986365915e-05,
          1.2569338565048696,
          -0.0024338366277248916
        ],
        [
          -0.00020487911402214474,
          1.18560612166033,
          1.5804129747416957
        ],
        [
          0.0002858199143159857,
          1.2041749321415052,
          1.5746724003323644
        ],
        [
          -0.00027338810131484205,
          1.3189198395638202,
          -0.01293570941739448
        ],
        [
          1.5701452203914206,
          -1.5701187578112,
          0.021418486253357953
        ]
      ],
      [
        [
          2.5215005747557893,
          -0.33367536736495196,
          -0.12337119884907835
        ],
        [
          1.5622085909389074,
          0.19496087246781282,
          0.13454237398092528
        ],
        [
          -0.018011911418409705,
          0.1746534278372665,
          0.02400530356575598
        ],
        [
          1.5766212700356832,
          0.2381817789590801,
          0.13785014322896103
        ],
        [
          0.012918867135144237,
          0.3449727814380043,
          1.5582426740200295
        ],
        [
          -0.3481339765824653,
          -0.506935485292671,
          0.5517556038538745
        ]
      ],
      [
        [
          0.09092698813893398,
          0.0061286007156638456,
          0.24353546889880925
        ],
        [
          0.02957183241770275,
          -0.00023711706924823035,
          0.21347307290700132
        ],
        [
          1.0282834875878584,
          -0.07750928380225003,
          0.18698169081111776
        ],
        [
          0.008810459905715894,
          0.268604542158244,
          0.025671440594390426
        ],
        [
          -0.3101819312145643,
          -5.133378589059118e-05,
          0.18038667277641954
        ],
        [
          1.6312864015429553,
          -0.02451527993365352,
          0.001961349416146967
        ]
      ]
    ],
    "weights_stage2": [
      [
        [
          -0.16980649754043903,
          1.3699446126664319,
          1.7635686564113895
        ],
        [
          0.21253877493783035,
          1.046728870418907,
          -0.05149960063696839
        ],
        [
          -0.5441133333681212,
          0.9034028235731264,
          1.3671773419534736
        ],
        [
          -0.008584099324630536,
          0.7940265284682064,
          1.8129863463730143
        ],
        [
          -0.06618358726858574,
          1.1321570773566694,
          -0.21798910258988557
        ],
        [
          1.9019333244507302,
          -1.19572255386836,
          -0.21729998374049708
        ]
      ],
      [
        [
          2.628966882060405,
          -0.13722816983775896,
          -0.024792573169606584
        ],
        [
          1.266935895718721,
          0.08738914149865239,
          0.15464713197467914
        ],
        [
          0.047150377645471704,
          0.26394177330956,
          0.09233760629809856
        ],
        [
          1.4814144113675876,
          -0.0882848776453665,
          0.11752799577562606
        ],
        [
          -0.3166685106984845,
          0.7763130307575365,
          1.7427077365943735
        ],
        [
          -0.14476872709932798,
          0.06262552134889801,
          0.731296302947845
        ]
      ],
      [
        [
          0.07527553403097365,
          0.057156428482632755,
          0.19140214349234433
        ],
        [
          -0.3060239803901093,
          -0.24418050910976727,
          -0.11763832755426283
        ],
        [
          0.9328717543399283,
          -0.4390626215010363,
          0.09858378928159048
        ],
        [
          -0.19546978427585548,
          0.2511691711655629,
          -0.21420050150987252
        ],
        [
          -0.3084534145005263,
          -0.2539236363721626,
          0.1789599308983298
        ],
        [
          1.626816969503782,
          -0.5968820106997554,
          -0.007715434147036442
        ]
      ],
      [
        [
          2.2297780609151005e-05,
          1.2558380886970286,
          1.7798500429647055
        ],
        [
          -3.840432030706655e-05,
          0.9024410145177437,
          0.22359611752593664
        ],
        [
          -0.0002048791186416262,
          1.2256202239510459,
          1.795231488638683
        ],
        [
          0.00028581991120096997,
          0.8002244604142679,
          1.4343708798872024
        ],
        [
          -0.0002733880895900222,
          0.9580136113856613,
          -0.27993851878912096
        ],
        [
          1.5701452203843083,
          -1.0223887139628831,
          -0.20798842773253
        ]
      ],
      [
        [
          2.472622062523261,
          -0.557064318731798,
          -0.21654378055578863
        ],
        [
          1.3983883823531251,
          0.22619283948771318,
          -0.06242824342976678
        ],
        [
          -0.1521633098346531,
          0.5465272640180872,
          0.13882387516430966
        ],
        [
          1.5046048521489042,
          0.13462232156013174,
          0.055695373709070344
        ],
        [
          0.13224166771439774,
          0.8404673813205804,
          1.527641643029425
        ],
        [
          -0.5122348112982438,
          -0.561782116279658,
          0.38093587723854794
        ]
      ],
      [
        [
          0.14491211531425952,
          0.11392833904115067,
          0.2956687943052744
        ],
        [
          0.02947572682765851,
          0.06773534886946303,
          0.214899814785091
        ],
        [
          1.0094091628893456,
          -0.14731890935739908,
          0.1966584743743011
        ],
        [
          0.10397940422003751,
          0.293264128098225,
          0.26554338269865324
        ],
        [
          -0.30718685288722136,
          0.02564477349511425,
          0.1818134146545092
        ],
        [
          1.6360127204292885,
          -0.24919778925216296,
          0.011638132979330366
        ]
      ]
    ]
  },
  "metrics": {
    "stage1_min_cost": 0.1705977401565494,
    "stage2_min_cost": 0.1797802040035302,
    "mse_train_noise": 0.04208329887417109,
    "mse_train_recovered": 0.03668610325564753,
    "delta_train_pct": 12.82502979308051,
    "mse_test_noise": 0.03574197205136823,
    "mse_test_recovered": 0.029052538323080475,
    "delta_test_pct": 18.715905542855126,
    "mse_train_recovered_pure": 0.022474127807067503,
    "mse_test_recovered_pure": 0.01778113139173654
  },
  "artifacts": {
    "weights_s1_file": "weights_s1_inst07_L3.npy",
    "weights_s2_file": "weights_s2_inst07_L3.npy",
    "circuit_stage1": "circuit_stage1_6q_4l_2t_stacked_L03_inst07.eps",
    "circuit_stage2": "circuit_stage2_6q_4l_2t_stacked_L03_inst07.eps",
    "circuit_full": "circuit_full_6q_4l_2t_stacked_L3_inst07.eps",
    "training_cost_s1_plot": "training_cost_s1_dec300_enc001_inst07.eps",
    "training_cost_s2_plot": "training_cost_s2_dec300_enc001_inst07.eps",
    "reconstruction_pure_plot": "reconst_pure_dec300_enc001_inst07_L3.eps",
    "reconstruction_noisy_plot": "reconst_noisy_dec300_enc001_inst07_L3.eps"
  }
}