{
  "schema": {
    "name": "stacked_qae_bundle",
    "version": "1.0"
  },
  "timestamp": "2026-02-28 12:43:38",
  "dataset": {
    "id": "mackey_glass_tau30_n200",
    "scale_low": 0.0,
    "scale_high": 1.0,
    "window_size": 6,
    "window_step": 2,
    "split": 0.75
  },
  "run": {
    "instance_id": 1,
    "layer": 3,
    "dec_epochs": 300,
    "enc_epochs": 100,
    "sigma_eval": 0.2,
    "test_seed_fixed": 99123,
    "device_seed": 13045,
    "stage1_time_sec": 102,
    "stage2_time_sec": 61
  },
  "environment": {
    "device": "lightning.qubit",
    "diff_method": "adjoint",
    "interface": "autograd"
  },
  "architecture": {
    "type": "stacked",
    "n_qubits": 6,
    "n_latent": 4,
    "n_trash": 2,
    "rot": "Rxyz"
  },
  "parameters": {
    "weights_stage1": [
      [
        [
          0.000363521555189648,
          1.4332198160781793,
          -0.002171843547843961
        ],
        [
          3.62409221561173e-05,
          1.3624816719208879,
          1.5667752237981758
        ],
        [
          0.0007743271960186645,
          1.2195142301121487,
          -0.0008804671653163359
        ],
        [
          -0.0009298164527190607,
          1.249017070126321,
          1.56095287502487
        ],
        [
          0.004118115079365615,
          1.337043987027025,
          0.054137721817224274
        ],
        [
          -1.5729846397633465,
          1.5715434449820846,
          0.2156562720945099
        ]
      ],
      [
        [
          -1.7788203848073667,
          -0.52843917178974,
          0.009030188844490212
        ],
        [
          1.5706571548107922,
          0.18042640171456215,
          -0.9770282962476314
        ],
        [
          1.5852576545759063,
          0.2205033368831981,
          0.7444783462047196
        ],
        [
          -1.5947501163651792,
          -0.24386638149264386,
          0.05553098095928077
        ],
        [
          -0.05570581766712198,
          -0.3677666553599653,
          -0.405737004493609
        ],
        [
          0.64628372049732,
          -0.32853875232935636,
          -0.0985884263348559
        ]
      ],
      [
        [
          0.1300470249258138,
          0.030523021426359598,
          0.21916500327740662
        ],
        [
          0.9335749703831915,
          -0.01788469974387864,
          0.0762442201263288
        ],
        [
          -1.6752105662006886,
          0.041736111114568764,
          0.07273266109635401
        ],
        [
          0.0932305928710146,
          0.15361492163938528,
          0.05360220803771274
        ],
        [
          0.10444964334034776,
          -0.030785801879907516,
          0.21817595213702182
        ],
        [
          -0.5829825786398348,
          0.004141907312499767,
          0.18631616690631428
        ]
      ]
    ],
    "weights_stage2": [
      [
        [
          0.000363521555189648,
          1.4332198160781793,
          -0.002171843547843961
        ],
        [
          3.62409221561173e-05,
          1.3624816719208879,
          1.5667752237981758
        ],
        [
          0.0007743271960186645,
          1.2195142301121487,
          -0.0008804671653163359
        ],
        [
          -0.0009298164527190607,
          1.249017070126321,
          1.56095287502487
        ],
        [
          0.004118115079365615,
          1.337043987027025,
          0.054137721817224274
        ],
        [
          -1.5729846397633465,
          1.5715434449820846,
          0.2156562720945099
        ]
      ],
      [
        [
          -1.7788203848073667,
          -0.52843917178974,
          0.009030188844490212
        ],
        [
          1.5706571548107922,
          0.18042640171456215,
          -0.9770282962476314
        ],
        [
          1.5852576545759063,
          0.2205033368831981,
          0.7444783462047196
        ],
        [
          -1.5947501163651792,
          -0.24386638149264386,
          0.05553098095928077
        ],
        [
          -0.05570581766712198,
          -0.3677666553599653,
          -0.405737004493609
        ],
        [
          0.64628372049732,
          -0.32853875232935636,
          -0.0985884263348559
        ]
      ],
      [
        [
          0.1300470249258138,
          0.030523021426359598,
          0.21916500327740662
        ],
        [
          0.9335749703831915,
          -0.01788469974387864,
          0.0762442201263288
        ],
        [
          -1.6752105662006886,
          0.041736111114568764,
          0.07273266109635401
        ],
        [
          0.0932305928710146,
          0.15361492163938528,
          0.05360220803771274
        ],
        [
          0.10444964334034776,
          -0.030785801879907516,
          0.21817595213702182
        ],
        [
          -0.5829825786398348,
          0.004141907312499767,
          0.18631616690631428
        ]
      ],
      [
        [
          0.000363521555189648,
          1.4332198160781793,
          -0.002171843547843961
        ],
        [
          3.62409221561173e-05,
          1.3624816719208879,
          1.5667752237981758
        ],
        [
          0.0007743271960186645,
          1.2195142301121487,
          -0.0008804671653163359
        ],
        [
          -0.0009298164527190607,
          1.249017070126321,
          1.56095287502487
        ],
        [
          0.004118115079365615,
          1.337043987027025,
          0.054137721817224274
        ],
        [
          -1.5729846397633465,
          1.5715434449820846,
          0.2156562720945099
        ]
      ],
      [
        [
          -1.7788203848073667,
          -0.52843917178974,
          0.009030188844490212
        ],
        [
          1.5706571548107922,
          0.18042640171456215,
          -0.9770282962476314
        ],
        [
          1.5852576545759063,
          0.2205033368831981,
          0.7444783462047196
        ],
        [
          -1.5947501163651792,
          -0.24386638149264386,
          0.05553098095928077
        ],
        [
          -0.05570581766712198,
          -0.3677666553599653,
          -0.405737004493609
        ],
        [
          0.64628372049732,
          -0.32853875232935636,
          -0.0985884263348559
        ]
      ],
      [
        [
          0.1300470249258138,
          0.030523021426359598,
          0.21916500327740662
        ],
        [
          0.9335749703831915,
          -0.01788469974387864,
          0.0762442201263288
        ],
        [
          -1.6752105662006886,
          0.041736111114568764,
          0.07273266109635401
        ],
        [
          0.0932305928710146,
          0.15361492163938528,
          0.05360220803771274
        ],
        [
          0.10444964334034776,
          -0.030785801879907516,
          0.21817595213702182
        ],
        [
          -0.5829825786398348,
          0.004141907312499767,
          0.18631616690631428
        ]
      ]
    ]
  },
  "metrics": {
    "stage1_min_cost": 0.1656806504676081,
    "stage2_min_cost": 0.16559042175155736,
    "mse_train_noise": 0.04208329887417109,
    "mse_train_recovered": 0.041509034443010774,
    "delta_train_pct": 1.3645898646809096,
    "mse_test_noise": 0.03574197205136823,
    "mse_test_recovered": 0.0368470158784944,
    "delta_test_pct": -3.091725956077629,
    "mse_train_recovered_pure": 0.026809245696379536,
    "mse_test_recovered_pure": 0.02101026236914697
  },
  "artifacts": {
    "weights_s1_file": "weights_s1_inst01_L3.npy",
    "weights_s2_file": "weights_s2_inst01_L3.npy",
    "circuit_stage1": "circuit_stage1_6q_4l_2t_stacked_L03_inst01.eps",
    "circuit_stage2": "circuit_stage2_6q_4l_2t_stacked_L03_inst01.eps",
    "circuit_full": "circuit_full_6q_4l_2t_stacked_L3_inst01.eps",
    "training_cost_s1_plot": "training_cost_s1_dec300_enc100_inst01.eps",
    "training_cost_s2_plot": "training_cost_s2_dec300_enc100_inst01.eps",
    "reconstruction_pure_plot": "reconst_pure_dec300_enc100_inst01_L3.eps",
    "reconstruction_noisy_plot": "reconst_noisy_dec300_enc100_inst01_L3.eps"
  }
}