{
  "schema": {
    "name": "stacked_qae_bundle",
    "version": "1.0"
  },
  "timestamp": "2026-02-28 13:47:16",
  "dataset": {
    "id": "mackey_glass_tau30_n200",
    "scale_low": 0.0,
    "scale_high": 1.0,
    "window_size": 6,
    "window_step": 2,
    "split": 0.75
  },
  "run": {
    "instance_id": 6,
    "layer": 3,
    "dec_epochs": 500,
    "enc_epochs": 100,
    "sigma_eval": 0.2,
    "test_seed_fixed": 99123,
    "device_seed": 13050,
    "stage1_time_sec": 174,
    "stage2_time_sec": 61
  },
  "environment": {
    "device": "lightning.qubit",
    "diff_method": "adjoint",
    "interface": "autograd"
  },
  "architecture": {
    "type": "stacked",
    "n_qubits": 6,
    "n_latent": 4,
    "n_trash": 2,
    "rot": "Rxyz"
  },
  "parameters": {
    "weights_stage1": [
      [
        [
          -0.003158579868623069,
          1.4342597578859828,
          -0.002233324572736055
        ],
        [
          -0.001027563378390796,
          1.3626185121471122,
          -1.5741266440793453
        ],
        [
          0.001650317435207153,
          1.2198828004764777,
          3.1494935555826595
        ],
        [
          -0.0013877608625512065,
          1.2492974333657842,
          1.5612190782596602
        ],
        [
          0.0038307582473291004,
          1.3377095731605952,
          0.05380217092881811
        ],
        [
          -1.5718380033561399,
          1.572538700550327,
          0.21432085774436405
        ]
      ],
      [
        [
          1.364009055571743,
          -0.5283493465922781,
          -0.03845287252944249
        ],
        [
          1.569873411162742,
          0.1804755797000523,
          1.3686633442216554
        ],
        [
          -1.5644358483429732,
          0.22103647112201635,
          0.7656622248986513
        ],
        [
          -1.5958202478147618,
          -0.24401057800916784,
          -0.47812352206624714
        ],
        [
          -0.054330348512430876,
          -0.367972295658384,
          -0.41491276541189687
        ],
        [
          0.645358893396474,
          0.3281415829022537,
          0.670616722210442
        ]
      ],
      [
        [
          0.10177923117588054,
          0.11127701160104453,
          0.21259338003818232
        ],
        [
          1.2938034282705533,
          0.018683973211752955,
          0.22640432718411874
        ],
        [
          1.4573212580049009,
          -0.04299712700734466,
          0.1676558767393556
        ],
        [
          0.2283813225824584,
          0.21203543330842356,
          0.28353311851365437
        ],
        [
          0.1638545502054968,
          -0.028019992124392035,
          0.012024009600910752
        ],
        [
          0.628058095809709,
          0.011512882252121525,
          0.10096771590188777
        ]
      ]
    ],
    "weights_stage2": [
      [
        [
          -0.003158579868623069,
          1.4342597578859828,
          -0.002233324572736055
        ],
        [
          -0.001027563378390796,
          1.3626185121471122,
          -1.5741266440793453
        ],
        [
          0.001650317435207153,
          1.2198828004764777,
          3.1494935555826595
        ],
        [
          -0.0013877608625512065,
          1.2492974333657842,
          1.5612190782596602
        ],
        [
          0.0038307582473291004,
          1.3377095731605952,
          0.05380217092881811
        ],
        [
          -1.5718380033561399,
          1.572538700550327,
          0.21432085774436405
        ]
      ],
      [
        [
          1.364009055571743,
          -0.5283493465922781,
          -0.03845287252944249
        ],
        [
          1.569873411162742,
          0.1804755797000523,
          1.3686633442216554
        ],
        [
          -1.5644358483429732,
          0.22103647112201635,
          0.7656622248986513
        ],
        [
          -1.5958202478147618,
          -0.24401057800916784,
          -0.47812352206624714
        ],
        [
          -0.054330348512430876,
          -0.367972295658384,
          -0.41491276541189687
        ],
        [
          0.645358893396474,
          0.3281415829022537,
          0.670616722210442
        ]
      ],
      [
        [
          0.10177923117588054,
          0.11127701160104453,
          0.21259338003818232
        ],
        [
          1.2938034282705533,
          0.018683973211752955,
          0.22640432718411874
        ],
        [
          1.4573212580049009,
          -0.04299712700734466,
          0.1676558767393556
        ],
        [
          0.2283813225824584,
          0.21203543330842356,
          0.28353311851365437
        ],
        [
          0.1638545502054968,
          -0.028019992124392035,
          0.012024009600910752
        ],
        [
          0.628058095809709,
          0.011512882252121525,
          0.10096771590188777
        ]
      ],
      [
        [
          -0.003158579868623069,
          1.4342597578859828,
          -0.002233324572736055
        ],
        [
          -0.001027563378390796,
          1.3626185121471122,
          -1.5741266440793453
        ],
        [
          0.001650317435207153,
          1.2198828004764777,
          3.1494935555826595
        ],
        [
          -0.0013877608625512065,
          1.2492974333657842,
          1.5612190782596602
        ],
        [
          0.0038307582473291004,
          1.3377095731605952,
          0.05380217092881811
        ],
        [
          -1.5718380033561399,
          1.572538700550327,
          0.21432085774436405
        ]
      ],
      [
        [
          1.364009055571743,
          -0.5283493465922781,
          -0.03845287252944249
        ],
        [
          1.569873411162742,
          0.1804755797000523,
          1.3686633442216554
        ],
        [
          -1.5644358483429732,
          0.22103647112201635,
          0.7656622248986513
        ],
        [
          -1.5958202478147618,
          -0.24401057800916784,
          -0.47812352206624714
        ],
        [
          -0.054330348512430876,
          -0.367972295658384,
          -0.41491276541189687
        ],
        [
          0.645358893396474,
          0.3281415829022537,
          0.670616722210442
        ]
      ],
      [
        [
          0.10177923117588054,
          0.11127701160104453,
          0.21259338003818232
        ],
        [
          1.2938034282705533,
          0.018683973211752955,
          0.22640432718411874
        ],
        [
          1.4573212580049009,
          -0.04299712700734466,
          0.1676558767393556
        ],
        [
          0.2283813225824584,
          0.21203543330842356,
          0.28353311851365437
        ],
        [
          0.1638545502054968,
          -0.028019992124392035,
          0.012024009600910752
        ],
        [
          0.628058095809709,
          0.011512882252121525,
          0.10096771590188777
        ]
      ]
    ]
  },
  "metrics": {
    "stage1_min_cost": 0.16567267148491624,
    "stage2_min_cost": 0.16852489426916376,
    "mse_train_noise": 0.04208329887417109,
    "mse_train_recovered": 0.04369923164354552,
    "delta_train_pct": -3.8398433882430805,
    "mse_test_noise": 0.03574197205136823,
    "mse_test_recovered": 0.0401944346446689,
    "delta_test_pct": -12.457238192961494,
    "mse_train_recovered_pure": 0.028641185546720092,
    "mse_test_recovered_pure": 0.02255103900333879
  },
  "artifacts": {
    "weights_s1_file": "weights_s1_inst06_L3.npy",
    "weights_s2_file": "weights_s2_inst06_L3.npy",
    "circuit_stage1": "circuit_stage1_6q_4l_2t_stacked_L03_inst06.eps",
    "circuit_stage2": "circuit_stage2_6q_4l_2t_stacked_L03_inst06.eps",
    "circuit_full": "circuit_full_6q_4l_2t_stacked_L3_inst06.eps",
    "training_cost_s1_plot": "training_cost_s1_dec500_enc100_inst06.eps",
    "training_cost_s2_plot": "training_cost_s2_dec500_enc100_inst06.eps",
    "reconstruction_pure_plot": "reconst_pure_dec500_enc100_inst06_L3.eps",
    "reconstruction_noisy_plot": "reconst_noisy_dec500_enc100_inst06_L3.eps"
  }
}