{
  "schema": {
    "name": "monolith_qae_bundle",
    "version": "1.0"
  },
  "timestamp": "2025-12-01 11:39:47",
  "dataset": {
    "id": "mackey_glass_tau30_n200",
    "scale_low": 0.0,
    "scale_high": 1.0,
    "window_size": 6,
    "window_step": 2,
    "split": 0.75
  },
  "run": {
    "instance_id": 5,
    "layer": 4,
    "sigma_eval": 0.2,
    "test_seed_fixed": 99123,
    "device_seed": 14049,
    "training_time_sec": 320
  },
  "environment": {
    "device": "lightning.qubit",
    "diff_method": "adjoint",
    "interface": "autograd"
  },
  "architecture": {
    "type": "monolith",
    "n_qubits": 6,
    "n_latent": 4,
    "n_trash": 2,
    "n_extra": 0,
    "rot": "Rxyz"
  },
  "parameters": {
    "weights": [
      [
        [
          3.1328938498872416,
          1.0113325012027408,
          1.3046225027312075
        ],
        [
          -0.1053124084598319,
          -0.816637114946621,
          -0.46724466122396036
        ],
        [
          -0.08615729272616747,
          -0.9459970037004315,
          0.9642583658611558
        ],
        [
          -0.04665099677708811,
          -0.999643031615889,
          2.593119713588849
        ],
        [
          -0.04402655828746763,
          -1.0421579341406177,
          0.9854739899228644
        ],
        [
          -0.01709956228315577,
          -0.9811163588835934,
          1.0012559662038873
        ]
      ],
      [
        [
          1.8092886882377666,
          -0.14749182985594497,
          1.6023616875737379
        ],
        [
          1.7206664687579551,
          -1.2117774178984864,
          -0.47027058016758566
        ],
        [
          2.6189646631334877,
          0.17765619419761502,
          -0.6403589706897154
        ],
        [
          1.0337658938085479,
          -0.45623684094218286,
          -1.0048155223427975
        ],
        [
          1.8499912954702067,
          -0.8157351068567077,
          1.3453398713389866
        ],
        [
          -2.152757628503654,
          0.2545932456441031,
          -0.15925669975305073
        ]
      ],
      [
        [
          1.000434794796351,
          -1.0845529490353722,
          0.198802434182618
        ],
        [
          -0.06469991117435443,
          1.7666726418114433,
          0.3625506215372532
        ],
        [
          2.2392655338331733,
          2.026248404719334,
          0.06932632716991566
        ],
        [
          1.6473580931859408,
          0.2649386348084819,
          -0.4375983126446595
        ],
        [
          -2.81479137329133,
          -0.48664903392345277,
          -0.6447274125696153
        ],
        [
          -4.619522739374885,
          0.5049825556868173,
          -0.5494335926248997
        ]
      ],
      [
        [
          -0.27305285273865637,
          -0.1096660648987953,
          -0.6868744775249351
        ],
        [
          -0.5964506660568336,
          -0.28774270430004045,
          -0.8938878091871258
        ],
        [
          -0.23135733072787365,
          0.5261822205021909,
          0.7083404272188469
        ],
        [
          0.12511376917381115,
          1.7558223096409256,
          0.3927280521457916
        ],
        [
          0.262798963827375,
          -1.8835021551639701,
          2.0880046425465393
        ],
        [
          0.05853279304137478,
          -2.1736156013722803,
          -0.11120811858700538
        ]
      ],
      [
        [
          0.47850899367923283,
          -0.020990714850813906,
          0.1136606460732671
        ],
        [
          0.5691390450594631,
          -0.027686144339931273,
          -1.0510785377296172
        ],
        [
          0.6178353594382389,
          -0.02076321663347588,
          1.1352053600501821
        ],
        [
          0.33340925452580356,
          -0.04181248557886617,
          4.595903353260089
        ],
        [
          0.462532674381803,
          -0.04217735611310893,
          -6.93626038384172
        ],
        [
          0.5780001332534841,
          0.4207905004538471,
          -7.308773937963164
        ]
      ],
      [
        [
          0.15495306088514121,
          -0.013822052803399692,
          -2.1477408387776915
        ],
        [
          -0.013634441687526415,
          -0.03822873346524377,
          -0.648185460310188
        ],
        [
          -2.193347130926403,
          0.029046649957520737,
          -2.428861783588162
        ],
        [
          -3.1654532640652477,
          0.018499896635672454,
          -2.63162117691232
        ],
        [
          3.442973042020512,
          -0.07903531943217774,
          2.1230943760889844
        ],
        [
          4.662830242046889,
          0.03594204747971698,
          3.4733602782066195
        ]
      ],
      [
        [
          1.4791955798244572,
          -1.6030109862097213,
          -0.07547650373950963
        ],
        [
          -5.371176820915458,
          0.1031717462462961,
          -1.420023520899541
        ],
        [
          -0.4523585418472426,
          0.0003508915290809571,
          -0.9236983979638902
        ],
        [
          0.9202470521713866,
          0.016742068557075346,
          3.867748942730664
        ],
        [
          -0.1466872167534805,
          0.01390602435304491,
          -2.297475003618345
        ],
        [
          2.1764074997342946,
          0.03160807715589328,
          0.7737653497177912
        ]
      ],
      [
        [
          3.8662543539228595,
          -0.03219493198704065,
          -1.9550653991534932
        ],
        [
          -2.809413038448769,
          -0.07182212714287749,
          1.160453900150281
        ],
        [
          0.8639585218746296,
          0.4148094313966224,
          1.2085567997927156
        ],
        [
          0.26484980994616797,
          1.8297422378057346,
          0.604030618970199
        ],
        [
          -2.136391057386985,
          0.07913598411685976,
          -1.9358358487524039
        ],
        [
          3.696571942199721,
          -0.06995557414558087,
          1.1268430603188933
        ]
      ]
    ]
  },
  "metrics": {
    "mse_train_noise": 0.04208329887417109,
    "mse_train_recovered": 0.017567079322343134,
    "delta_train_pct": 58.25641099366131,
    "mse_test_noise": 0.03574197205136823,
    "mse_test_recovered": 0.01085119268310902,
    "delta_test_pct": 69.6401959368282,
    "mse_train_recovered_pure": 0.006647909088330163,
    "mse_test_recovered_pure": 0.006077482339146196,
    "min_train_cost": 0.007269310348620629
  },
  "artifacts": {
    "weights_file": "weights_inst05_L4.npy",
    "circuit_diagram": "circuit_6q_4l_2t_L4_inst05.eps",
    "training_cost_plot": "training_cost_inst05_L4.eps",
    "cost_history": "cost_inst05_L4.json",
    "reconstruction_pure_plot": "reconstruction_pure_inst05_L4.eps",
    "reconstruction_noisy_plot": "reconstruction_noisy_inst05_L4.eps"
  }
}