{
  "schema": {
    "name": "monolith_qae_bundle",
    "version": "1.0"
  },
  "timestamp": "2025-11-30 23:01:35",
  "dataset": {
    "id": "mackey_glass_tau17_n200",
    "scale_low": 0.0,
    "scale_high": 1.0,
    "window_size": 6,
    "window_step": 2,
    "split": 0.75
  },
  "run": {
    "instance_id": 2,
    "layer": 4,
    "sigma_eval": 0.2,
    "test_seed_fixed": 99123,
    "device_seed": 14046,
    "training_time_sec": 325
  },
  "environment": {
    "device": "lightning.qubit",
    "diff_method": "adjoint",
    "interface": "autograd"
  },
  "architecture": {
    "type": "monolith",
    "n_qubits": 6,
    "n_latent": 2,
    "n_trash": 4,
    "n_extra": 0,
    "rot": "Rxyz"
  },
  "parameters": {
    "weights": [
      [
        [
          2.0927952363551032,
          1.3563219272005143,
          -0.05020769369883495
        ],
        [
          -3.50893316677664,
          -1.4208487083207841,
          1.0676273726355225
        ],
        [
          -0.256116725119808,
          -0.5621700157849482,
          -1.1120214451587251
        ],
        [
          0.09251580933262425,
          -1.2903649863737803,
          0.2547023434838243
        ],
        [
          -0.0011764199062931015,
          -0.9599680429280173,
          -3.102377914924149
        ],
        [
          -1.5098954480717919,
          -0.9797909546988703,
          0.3633363501093253
        ]
      ],
      [
        [
          2.5742961435782967,
          -1.4456348749504826,
          1.6364372728575276
        ],
        [
          1.2536186411849028,
          0.5629514758856065,
          0.03426538731432204
        ],
        [
          -0.637606539546254,
          -0.0647138937030167,
          2.4852091569704724
        ],
        [
          -0.34241505085388996,
          0.27269035305571193,
          -0.05717633704815932
        ],
        [
          -3.1676098659907446,
          0.07782446608765471,
          0.7438998352840367
        ],
        [
          1.6939988306089249,
          1.2096333497041762,
          1.6595247720747168
        ]
      ],
      [
        [
          2.697613847634607,
          -0.09561036796073841,
          2.0207009321371983
        ],
        [
          -0.3032087426841144,
          0.1592472491162528,
          0.8840043695081615
        ],
        [
          -0.4952428887486016,
          0.03905425338265437,
          0.12533616437933756
        ],
        [
          2.6832916810109144,
          -0.22509494421595574,
          -1.110829972194241
        ],
        [
          -1.9677923893943305,
          0.008106634817511973,
          -1.4474729759628486
        ],
        [
          -1.0566520569115427,
          -0.007883557651089782,
          0.5519624118478741
        ]
      ],
      [
        [
          -1.1644691152865063,
          -0.027362553147048805,
          0.8092397603943273
        ],
        [
          -1.170511346151816,
          0.7775135492381902,
          1.8154435776256324
        ],
        [
          0.589298458316541,
          1.3882433079122556,
          0.38375480137789825
        ],
        [
          -2.45123343465453,
          0.11785681819209345,
          0.13692725978841847
        ],
        [
          -0.15815810691036353,
          1.5091836228140216,
          -1.6243978371676988
        ],
        [
          -2.1138932604025578,
          -1.616242155716229,
          3.2294040632433227
        ]
      ],
      [
        [
          0.5088216500221775,
          -1.534840488510161,
          -0.6424343970067997
        ],
        [
          0.16038802243263917,
          0.09277240138748168,
          1.615971689868322
        ],
        [
          0.5828694262801936,
          0.5174048036707561,
          -3.259627168256644
        ],
        [
          0.4243709725885856,
          -0.012613042846151763,
          -1.863410587760744
        ],
        [
          0.4955017723084767,
          0.03871498328350015,
          5.957037319258638
        ],
        [
          0.25423663825612447,
          -0.7534667456160697,
          -4.090523712146263
        ]
      ],
      [
        [
          -4.596094304312511,
          -1.0549857683780057,
          -3.2325044120035877
        ],
        [
          -0.18131039351202302,
          -0.13904496126076796,
          1.0882897530378857
        ],
        [
          3.8022234528776004,
          0.0002859298971466136,
          2.2716601005368866
        ],
        [
          -0.6498400373382431,
          0.004286232739294397,
          1.0594788009049447
        ],
        [
          3.6432438771448807,
          0.03230749432693038,
          -0.08283713878645306
        ],
        [
          1.3092058306389285,
          -0.08073642266488286,
          -1.2975464669398997
        ]
      ],
      [
        [
          -11.300335949448163,
          1.5707647698466665,
          -6.30792848754711
        ],
        [
          -5.0868081811209525,
          0.6779967587056516,
          2.7507029616404015
        ],
        [
          -3.023112873669378,
          -0.12085275418484952,
          3.098092730249477
        ],
        [
          -1.2567478640150482,
          0.0054374816893789524,
          1.0151554065128936
        ],
        [
          -4.644000871297745,
          0.4526470838048678,
          -0.020689340480588767
        ],
        [
          3.0182968603800613,
          -0.01421576241169051,
          3.230310225478924
        ]
      ],
      [
        [
          0.8331526223696342,
          -0.07093348266668562,
          -0.434080976883139
        ],
        [
          0.08103557997852731,
          1.6110425759312834,
          1.7298141014733877
        ],
        [
          3.0931924719802217,
          1.5541079987075976,
          0.383983852144735
        ],
        [
          3.132311891251117,
          1.6111433310411651,
          0.4021259096821828
        ],
        [
          4.648977990649337,
          -0.2687050467903338,
          -0.5838468301505342
        ],
        [
          1.6099450783799283,
          -0.5020996891004208,
          1.622714472275261
        ]
      ]
    ]
  },
  "metrics": {
    "mse_train_noise": 0.0400301695648753,
    "mse_train_recovered": 0.019581181724990467,
    "delta_train_pct": 51.08394009359358,
    "mse_test_noise": 0.04102832521598486,
    "mse_test_recovered": 0.02083473394052838,
    "delta_test_pct": 49.21865849788318,
    "mse_train_recovered_pure": 0.012186433494293014,
    "mse_test_recovered_pure": 0.014208177875831967,
    "min_train_cost": 0.01155743375908917
  },
  "artifacts": {
    "weights_file": "weights_inst02_L4.npy",
    "circuit_diagram": "circuit_6q_2l_4t_L4_inst02.eps",
    "training_cost_plot": "training_cost_inst02_L4.eps",
    "cost_history": "cost_inst02_L4.json",
    "reconstruction_pure_plot": "reconstruction_pure_inst02_L4.eps",
    "reconstruction_noisy_plot": "reconstruction_noisy_inst02_L4.eps"
  }
}