{
  "schema": {
    "name": "monolith_qae_bundle",
    "version": "1.0"
  },
  "timestamp": "2025-11-30 23:07:04",
  "dataset": {
    "id": "mackey_glass_tau17_n200",
    "scale_low": 0.0,
    "scale_high": 1.0,
    "window_size": 6,
    "window_step": 2,
    "split": 0.75
  },
  "run": {
    "instance_id": 3,
    "layer": 4,
    "sigma_eval": 0.2,
    "test_seed_fixed": 99123,
    "device_seed": 14047,
    "training_time_sec": 325
  },
  "environment": {
    "device": "lightning.qubit",
    "diff_method": "adjoint",
    "interface": "autograd"
  },
  "architecture": {
    "type": "monolith",
    "n_qubits": 6,
    "n_latent": 2,
    "n_trash": 4,
    "n_extra": 0,
    "rot": "Rxyz"
  },
  "parameters": {
    "weights": [
      [
        [
          1.4453282564049723,
          -1.6085973445580315,
          0.2630578150711962
        ],
        [
          -0.08422480434461946,
          -1.3768758177655573,
          3.337536502803721
        ],
        [
          -0.13633750084663745,
          -0.9453533855755527,
          1.4388156157180296
        ],
        [
          0.24163451164975824,
          -0.25951336445921586,
          -2.0746093837113198
        ],
        [
          -3.6813015890247853,
          -0.4047543137397783,
          0.5465558860910108
        ],
        [
          1.5172610477006612,
          -1.5549904840196203,
          0.14512693962199558
        ]
      ],
      [
        [
          0.6004925554714945,
          -0.10128822493791227,
          0.016088315287776957
        ],
        [
          1.321022060237073,
          0.08308419641117039,
          -0.42109692201494703
        ],
        [
          0.6061967318714414,
          0.0607376061708613,
          0.38573762924876503
        ],
        [
          1.4492964783049516,
          0.9249094558519513,
          -0.12006483814516039
        ],
        [
          -2.3224003815625416,
          -0.02020247913155978,
          -0.41612960658351283
        ],
        [
          -0.5013494365996372,
          0.16864223754226154,
          0.5090764896921264
        ]
      ],
      [
        [
          -0.04596288954465569,
          1.7118885489049875,
          0.0211186618013593
        ],
        [
          -1.416691942315715,
          -1.2373493234766695,
          1.5890838894258428
        ],
        [
          0.1115210043597573,
          3.0926251482624196,
          0.06263481217562086
        ],
        [
          -5.15782976694851,
          -0.05202803946743474,
          -2.513438902364999
        ],
        [
          0.40367112654671244,
          -1.5470390788462252,
          0.7429829624193696
        ],
        [
          1.241333817600682,
          0.058387963351446526,
          -0.6251633448955833
        ]
      ],
      [
        [
          -2.2606933985550324,
          -0.038082363595533415,
          3.5376721840492635
        ],
        [
          0.2057785377253461,
          -0.01573727433359538,
          0.5337982493049329
        ],
        [
          -0.49671298444923884,
          -1.6292754707530666,
          0.03883501725202203
        ],
        [
          -4.220294253609135,
          0.1367871494837264,
          0.19466915520146985
        ],
        [
          -1.8327014992710076,
          -0.5446565141541077,
          -1.6073347523965948
        ],
        [
          -1.7958761665388692,
          -1.5486093882464167,
          -0.11295896376779847
        ]
      ],
      [
        [
          0.16344456648651717,
          -0.4143056980763282,
          1.678612776356048
        ],
        [
          0.3887466708581663,
          0.9990285961914258,
          0.5334019995810632
        ],
        [
          0.6208812231816772,
          0.027475192798759842,
          -6.829714537919432
        ],
        [
          0.06561575514675932,
          0.15126066309442804,
          3.6880054471942625
        ],
        [
          0.30585565183742053,
          0.14258145125940494,
          2.8068951007340353
        ],
        [
          0.5060336877687222,
          0.6558988180493442,
          -0.4408610571162891
        ]
      ],
      [
        [
          -1.9660211071305622,
          -0.6158447608607797,
          -3.2989985480792554
        ],
        [
          -0.2445003051528678,
          -0.013005959130053124,
          0.27576438564361655
        ],
        [
          0.3079166693714146,
          -0.07609061276749181,
          -0.6106640178402856
        ],
        [
          1.074262047455483,
          -0.0819234478471768,
          1.7847086570258823
        ],
        [
          1.0992262473470091,
          0.028779549959458528,
          0.7239561366017772
        ],
        [
          4.286793500626168,
          -0.21707305521769302,
          2.1833083867973317
        ]
      ],
      [
        [
          1.2604781656473178,
          0.10936033541619777,
          -1.1447483924891106
        ],
        [
          2.5866395968298312,
          -2.7578595942141857,
          3.0911608622319124
        ],
        [
          0.8102159797096644,
          0.37559143675577805,
          -2.3277966249076756
        ],
        [
          8.708887370702362,
          -0.005680030808069579,
          8.874364057964218
        ],
        [
          0.6232521710813593,
          0.40545511967414066,
          -1.5392783317292056
        ],
        [
          1.3224970905047067,
          0.44071907959600254,
          0.2218482561145319
        ]
      ],
      [
        [
          9.199913576031067,
          -0.30629418639275596,
          4.0414404351873605
        ],
        [
          -1.2839502521330655,
          0.8770220124995519,
          0.7881473495088109
        ],
        [
          0.1166652473395394,
          1.8003402807979003,
          0.02697319265919516
        ],
        [
          1.3939315266075363,
          -0.11395332154932884,
          0.495762723776637
        ],
        [
          0.3502489651942592,
          -2.51135207306487,
          3.9503976889833567
        ],
        [
          -0.7186695667068584,
          0.6897170918889487,
          0.410028469032362
        ]
      ]
    ]
  },
  "metrics": {
    "mse_train_noise": 0.0400301695648753,
    "mse_train_recovered": 0.024473789542534985,
    "delta_train_pct": 38.86163908731065,
    "mse_test_noise": 0.04102832521598486,
    "mse_test_recovered": 0.026512781202773398,
    "delta_test_pct": 35.37932376424696,
    "mse_train_recovered_pure": 0.017896503201645108,
    "mse_test_recovered_pure": 0.01959073078904316,
    "min_train_cost": 0.01489418609942743
  },
  "artifacts": {
    "weights_file": "weights_inst03_L4.npy",
    "circuit_diagram": "circuit_6q_2l_4t_L4_inst03.eps",
    "training_cost_plot": "training_cost_inst03_L4.eps",
    "cost_history": "cost_inst03_L4.json",
    "reconstruction_pure_plot": "reconstruction_pure_inst03_L4.eps",
    "reconstruction_noisy_plot": "reconstruction_noisy_inst03_L4.eps"
  }
}