{
  "schema": {
    "name": "stacked_qae_bundle",
    "version": "1.0"
  },
  "timestamp": "2025-12-03 11:57:07",
  "dataset": {
    "id": "mackey_glass_tau17_n200",
    "scale_low": 0.0,
    "scale_high": 1.0,
    "window_size": 6,
    "window_step": 2,
    "split": 0.75
  },
  "run": {
    "instance_id": 5,
    "layer": 4,
    "sigma_eval": 0.2,
    "test_seed_fixed": 99123,
    "device_seed": 14049,
    "stage1_time_sec": 260,
    "stage2_time_sec": 292
  },
  "environment": {
    "device": "lightning.qubit",
    "diff_method": "adjoint",
    "interface": "autograd"
  },
  "architecture": {
    "type": "stacked",
    "n_qubits": 6,
    "n_latent": 4,
    "n_trash": 2,
    "rot": "Rxyz"
  },
  "parameters": {
    "weights_stage1": [
      [
        [
          0.2067663341266655,
          -0.16479525080254298,
          -0.19943909610461724
        ],
        [
          1.57263598689683,
          1.5635395048703995,
          -0.7100058977052913
        ],
        [
          0.016341450265364914,
          1.136544261628973,
          -1.4521701939534504
        ],
        [
          0.07449106158513173,
          1.5036818278884752,
          0.3192756238625794
        ],
        [
          -0.005462312482232391,
          1.4382560005169585,
          -1.5982451605951016
        ],
        [
          -0.08168539604777046,
          0.16578265813746235,
          -1.4128341236828144
        ]
      ],
      [
        [
          -0.27974929716003033,
          -0.003961712331480766,
          0.32799657883018346
        ],
        [
          -1.9229482946430312,
          1.8244246858879754,
          -0.09052007518384003
        ],
        [
          0.9008806342973643,
          -0.1620043633750872,
          -0.6289475442454002
        ],
        [
          1.5201068037218999,
          -0.31215343152341524,
          0.1325681477729148
        ],
        [
          1.4834458514348596,
          -0.0069702202014524026,
          -1.5275501185451388
        ],
        [
          1.3535959009077516,
          2.112261634500958,
          -3.2394418268244096
        ]
      ],
      [
        [
          -0.6477392967195629,
          0.3047001060270737,
          -0.8814294640899306
        ],
        [
          -1.5379145294983987,
          1.4358544818939203,
          1.5940340641285669
        ],
        [
          0.32364575632596065,
          0.00805118372398163,
          -0.7048378022286802
        ],
        [
          -1.6758634300701485,
          -0.03199101903465943,
          0.8470291607181576
        ],
        [
          -0.6645809120309751,
          1.56984206354879,
          0.7727262635649005
        ],
        [
          1.3551613513765146,
          0.01743907708526401,
          0.1494593327699203
        ]
      ],
      [
        [
          0.9293018906711634,
          -0.2682631130581652,
          0.2541129968798321
        ],
        [
          0.7968646368212977,
          1.5897880459551599,
          0.23234636195044622
        ],
        [
          0.3084974637213398,
          0.2528623164538796,
          0.009975660363527771
        ],
        [
          0.06614248012246403,
          0.17855929468432766,
          0.2832483574101141
        ],
        [
          0.7423551860276731,
          -0.038517134533914185,
          0.04632959955192121
        ],
        [
          -0.09117402111740289,
          -0.024182936463322837,
          0.24957794890909746
        ]
      ]
    ],
    "weights_stage2": [
      [
        [
          1.1522000062824695,
          -0.35201528788887615,
          -0.4586314147791056
        ],
        [
          1.351931971849031,
          1.6405151602960943,
          -0.41513861011836145
        ],
        [
          0.24428879077980198,
          1.0108619637215601,
          -1.453099194790644
        ],
        [
          -0.10454842785022062,
          1.5108840195299529,
          -0.13581996398946586
        ],
        [
          -0.27734787690519397,
          1.4383012088056941,
          -3.903129339201702
        ],
        [
          -0.8551542794669066,
          0.22454039382135593,
          -0.44804292543497176
        ]
      ],
      [
        [
          1.0520908444321586,
          -0.4147516234066176,
          -0.9904705939927548
        ],
        [
          -1.8530189667894839,
          1.608825242423445,
          0.060977100667492935
        ],
        [
          0.5500626751566802,
          -0.018979102266355772,
          -0.39145733496949675
        ],
        [
          1.615795925890706,
          0.4446091612762708,
          -0.40704251719899803
        ],
        [
          1.552162245215219,
          -0.17433959392587461,
          -1.3201975626698812
        ],
        [
          1.5636437923502395,
          1.679130505374238,
          -3.162459721646041
        ]
      ],
      [
        [
          0.058546815255720294,
          0.31022899445889535,
          -1.3354851021823446
        ],
        [
          -1.158195969810401,
          1.2068827257598553,
          1.3293183300336413
        ],
        [
          1.437163360416418,
          0.14185973717677708,
          -1.6868567824226168
        ],
        [
          -1.632533809123376,
          0.12142421369167224,
          0.6526700948105819
        ],
        [
          -0.8358258320329324,
          1.6987243555899842,
          0.798723317893667
        ],
        [
          0.7413172554604875,
          -0.04851818538487603,
          0.0842156102039461
        ]
      ],
      [
        [
          0.7349428247635904,
          0.4109176819598993,
          1.7264663879532223
        ],
        [
          0.8228616911500626,
          1.620798406989229,
          0.7757236097807897
        ],
        [
          0.24325374115536666,
          0.2574602586011636,
          0.7469554436526292
        ],
        [
          -0.1545315438073959,
          0.0947463523175546,
          0.46730282898642017
        ],
        [
          -0.021722478209821643,
          0.07623108021936696,
          -0.3009994687920144
        ],
        [
          -1.0582737058619966,
          -0.006795344159570303,
          0.6327503156396497
        ]
      ]
    ]
  },
  "metrics": {
    "stage1_min_cost": 0.09583046555420227,
    "stage2_min_cost": 0.07179275957873292,
    "mse_train_noise": 0.0400301695648753,
    "mse_train_recovered": 0.022376524620887083,
    "delta_train_pct": 44.10084977376291,
    "mse_test_noise": 0.04102832521598486,
    "mse_test_recovered": 0.022511154440681854,
    "delta_test_pct": 45.13265086455105,
    "mse_train_recovered_pure": 0.006834007222788549,
    "mse_test_recovered_pure": 0.009529311591127755
  },
  "artifacts": {
    "weights_s1_file": "weights_s1_inst05_L4.npy",
    "weights_s2_file": "weights_s2_inst05_L4.npy",
    "circuit_stage1": "circuit_stage1_6q_4l_2t_stacked_L4_inst05.eps",
    "circuit_stage2": "circuit_stage2_6q_4l_2t_stacked_L4_inst05.eps",
    "circuit_full": "circuit_full_6q_4l_2t_stacked_L4_inst05.eps",
    "training_cost_s1_plot": "training_cost_s1_inst05_L4.eps",
    "training_cost_s2_plot": "training_cost_s2_inst05_L4.eps",
    "reconstruction_pure_plot": "reconstruction_pure_inst05_L4.eps",
    "reconstruction_noisy_plot": "reconstruction_noisy_inst05_L4.eps"
  }
}