{
  "schema": {
    "name": "stacked_qae_bundle",
    "version": "1.0"
  },
  "timestamp": "2025-12-04 03:10:04",
  "dataset": {
    "id": "mackey_glass_tau30_n200",
    "scale_low": 0.0,
    "scale_high": 1.0,
    "window_size": 6,
    "window_step": 2,
    "split": 0.75
  },
  "run": {
    "instance_id": 5,
    "layer": 3,
    "sigma_eval": 0.2,
    "test_seed_fixed": 99123,
    "device_seed": 13049,
    "stage1_time_sec": 191,
    "stage2_time_sec": 226
  },
  "environment": {
    "device": "lightning.qubit",
    "diff_method": "adjoint",
    "interface": "autograd"
  },
  "architecture": {
    "type": "stacked",
    "n_qubits": 6,
    "n_latent": 4,
    "n_trash": 2,
    "rot": "Rxyz"
  },
  "parameters": {
    "weights_stage1": [
      [
        [
          0.004871110792755518,
          1.4341988358134905,
          0.0022916789135819997
        ],
        [
          0.0015008216898530242,
          1.3624519429697128,
          -1.5671568287561533
        ],
        [
          -0.0013629744595079398,
          1.219955224995443,
          -0.00897976901564553
        ],
        [
          0.001436211562761938,
          1.2495352452715118,
          -1.5613802512119828
        ],
        [
          -0.004213397992785628,
          1.3376565513785268,
          -0.06548409918639617
        ],
        [
          1.572096442722646,
          1.5726799022456543,
          -0.21537048690425256
        ]
      ],
      [
        [
          1.7753567740211371,
          -0.5275758083548462,
          0.05811245861714664
        ],
        [
          1.5703478358267589,
          -0.1808674426530673,
          1.8576325041527038
        ],
        [
          1.566066541149437,
          -0.22100832809677035,
          -0.8857593256419132
        ],
        [
          1.6049668986078525,
          -0.24407822890383907,
          0.6702972866244007
        ],
        [
          0.06502269592477557,
          -0.3681926431844177,
          0.3104929910509729
        ],
        [
          -0.6421704910790879,
          -0.3271981048869071,
          -1.2297291514320707
        ]
      ],
      [
        [
          0.3087063780631364,
          0.04805745324319419,
          0.2505631871911552
        ],
        [
          -1.417260049319553,
          0.017448741400686876,
          0.17130071635978958
        ],
        [
          1.5823681450222558,
          -0.04500520869904068,
          0.17347192697176125
        ],
        [
          0.02408031786718427,
          0.02665180993018563,
          0.024513380880014937
        ],
        [
          -0.19230849764118366,
          0.025324284914849754,
          0.14466523558529207
        ],
        [
          -0.07881589727954172,
          -0.01490919142757401,
          0.11712418417290753
        ]
      ]
    ],
    "weights_stage2": [
      [
        [
          -0.08373343930632733,
          1.4313379873033873,
          -0.7894426727226035
        ],
        [
          0.49362455811030126,
          1.7208271176290644,
          -3.137330098751416
        ],
        [
          -0.143014932858504,
          1.1571366121782605,
          1.0944953848110355
        ],
        [
          0.09789537159716682,
          0.3489341626244266,
          -1.1767429262444575
        ],
        [
          -0.18611590652016452,
          1.201551207524923,
          -1.6077842840208543
        ],
        [
          2.9096698863678894,
          1.2389760337969475,
          0.14154824655764964
        ]
      ],
      [
        [
          0.49800057614703547,
          -0.49510572095655414,
          1.895346031092754
        ],
        [
          1.487292889799387,
          -0.4349307538584471,
          4.658622218772727
        ],
        [
          1.2592386617630937,
          0.142364286827376,
          -0.9263493423959683
        ],
        [
          2.7766294442438415,
          0.08653490561141615,
          0.8413297155360812
        ],
        [
          1.5326673779467908,
          -0.6990558147116254,
          -3.3492897835692146
        ],
        [
          0.8591270491896899,
          -0.3856484666907373,
          -2.0101619503809225
        ]
      ],
      [
        [
          0.7029418361556359,
          -0.01204875065819419,
          -0.5538135479366255
        ],
        [
          -1.577035167837498,
          -0.07753678001425604,
          0.18017862595555056
        ],
        [
          1.2721900147447398,
          0.061212136005141304,
          0.2945198137289958
        ],
        [
          -2.40329268167673,
          0.06087466087093895,
          0.41081173792235604
        ],
        [
          -1.7485213338212158,
          0.08366404793121161,
          -0.10023631032164824
        ],
        [
          0.2652481284681529,
          0.04893508640178298,
          0.27313139324994945
        ]
      ]
    ]
  },
  "metrics": {
    "stage1_min_cost": 0.16567021035698942,
    "stage2_min_cost": 0.1233568579623547,
    "mse_train_noise": 0.04208329887417109,
    "mse_train_recovered": 0.03226928710106942,
    "delta_train_pct": 23.320443110806334,
    "mse_test_noise": 0.03574197205136823,
    "mse_test_recovered": 0.030088955544952597,
    "delta_test_pct": 15.816185235361779,
    "mse_train_recovered_pure": 0.019399823866105635,
    "mse_test_recovered_pure": 0.01571216240774776
  },
  "artifacts": {
    "weights_s1_file": "weights_s1_inst05_L3.npy",
    "weights_s2_file": "weights_s2_inst05_L3.npy",
    "circuit_stage1": "circuit_stage1_6q_4l_2t_stacked_L3_inst05.eps",
    "circuit_stage2": "circuit_stage2_6q_4l_2t_stacked_L3_inst05.eps",
    "circuit_full": "circuit_full_6q_4l_2t_stacked_L3_inst05.eps",
    "training_cost_s1_plot": "training_cost_s1_inst05_L3.eps",
    "training_cost_s2_plot": "training_cost_s2_inst05_L3.eps",
    "reconstruction_pure_plot": "reconstruction_pure_inst05_L3.eps",
    "reconstruction_noisy_plot": "reconstruction_noisy_inst05_L3.eps"
  }
}