{
  "schema": {
    "name": "stacked_qae_bundle",
    "version": "1.0"
  },
  "timestamp": "2025-12-04 02:55:56",
  "dataset": {
    "id": "mackey_glass_tau30_n200",
    "scale_low": 0.0,
    "scale_high": 1.0,
    "window_size": 6,
    "window_step": 2,
    "split": 0.75
  },
  "run": {
    "instance_id": 3,
    "layer": 3,
    "sigma_eval": 0.2,
    "test_seed_fixed": 99123,
    "device_seed": 13047,
    "stage1_time_sec": 191,
    "stage2_time_sec": 224
  },
  "environment": {
    "device": "lightning.qubit",
    "diff_method": "adjoint",
    "interface": "autograd"
  },
  "architecture": {
    "type": "stacked",
    "n_qubits": 6,
    "n_latent": 4,
    "n_trash": 2,
    "rot": "Rxyz"
  },
  "parameters": {
    "weights_stage1": [
      [
        [
          0.9569217027839507,
          -0.4798770026651899,
          -1.0387901632964402
        ],
        [
          0.039039460101104796,
          1.0414872761461718,
          -1.535629700483279
        ],
        [
          -0.006578968435499859,
          1.2080145205907222,
          -0.17895156310451402
        ],
        [
          0.0011564691539519684,
          1.3292030945843665,
          0.7238055978930826
        ],
        [
          -0.0030129831418323145,
          -0.026547236938292234,
          1.5746550611756287
        ],
        [
          1.5706814417119008,
          -1.5668046530741913,
          -1.3816554626088138
        ]
      ],
      [
        [
          0.06767258563669215,
          0.03311792467441806,
          0.12891707204436198
        ],
        [
          0.7052143555442433,
          -0.017969431376580455,
          -0.5318182546212621
        ],
        [
          0.04186423217693146,
          0.0013067545785901808,
          -0.03410367083255276
        ],
        [
          -0.07881382832916388,
          0.005523006764109028,
          0.09015421113222506
        ],
        [
          -1.6212649021353343,
          1.6410887116052026,
          1.596553806344851
        ],
        [
          0.10664251426762696,
          -0.057895105611044745,
          -0.11838124094704823
        ]
      ],
      [
        [
          0.2593092278211282,
          0.24191232076768432,
          0.289300463010017
        ],
        [
          0.5044002086791889,
          1.562165750920345,
          0.01762557994720944
        ],
        [
          0.0434030560847338,
          -1.5842824208117474,
          0.005334225456037189
        ],
        [
          0.12981642426862391,
          0.2460209113474681,
          0.25504328895317696
        ],
        [
          0.35228539237960715,
          1.573383374113596,
          0.1417448997422941
        ],
        [
          -0.01051432597399172,
          1.5852949479489222,
          0.1389845958689268
        ]
      ]
    ],
    "weights_stage2": [
      [
        [
          3.2890504855746268,
          0.2597894837858898,
          -3.090042878710359
        ],
        [
          0.8760428533350673,
          0.6497481786299794,
          -1.2249283732105183
        ],
        [
          -0.07432437071050944,
          1.4341256239342584,
          0.4545304985331887
        ],
        [
          -0.030345526402343476,
          1.5132560435424374,
          1.1165258687809152
        ],
        [
          -1.9481842089517567,
          -0.14848744848082363,
          3.6399875572168927
        ],
        [
          1.1166788914580648,
          -1.5741715196635362,
          0.19882231861445906
        ]
      ],
      [
        [
          0.015139415908066705,
          -0.20743121488539176,
          -0.03683791507644291
        ],
        [
          1.7580342557545061,
          0.5580144036979721,
          -1.2597276008476952
        ],
        [
          0.06015422162617744,
          -0.6528327170052417,
          -0.38914330287423243
        ],
        [
          -0.6246266302890453,
          0.4337962950865115,
          1.2638463764450485
        ],
        [
          -1.8666623062460255,
          1.1897937522230113,
          1.5220476548731414
        ],
        [
          0.1253437098545235,
          -0.08993965223814794,
          -0.24595295748557958
        ]
      ],
      [
        [
          -0.4099885129330025,
          0.20007824386934153,
          1.0584699613132718
        ],
        [
          -0.1197174240279681,
          1.546852037486331,
          -0.09881855504239888
        ],
        [
          0.36205265945492426,
          -1.931935936068078,
          -0.6924132044072743
        ],
        [
          0.4296254439670972,
          -0.007803154905153358,
          -0.003852891241043971
        ],
        [
          0.12168631125181817,
          1.4822891472648803,
          0.1593189205471811
        ],
        [
          -0.33364974157609334,
          1.6747346187242342,
          0.6987135862883084
        ]
      ]
    ]
  },
  "metrics": {
    "stage1_min_cost": 0.10426904411446383,
    "stage2_min_cost": 0.09286802624107796,
    "mse_train_noise": 0.04208329887417109,
    "mse_train_recovered": 0.02368717195603034,
    "delta_train_pct": 43.71360470847379,
    "mse_test_noise": 0.03574197205136823,
    "mse_test_recovered": 0.018515028575335525,
    "delta_test_pct": 48.19807774253252,
    "mse_train_recovered_pure": 0.01008412895010008,
    "mse_test_recovered_pure": 0.008628744675624613
  },
  "artifacts": {
    "weights_s1_file": "weights_s1_inst03_L3.npy",
    "weights_s2_file": "weights_s2_inst03_L3.npy",
    "circuit_stage1": "circuit_stage1_6q_4l_2t_stacked_L3_inst03.eps",
    "circuit_stage2": "circuit_stage2_6q_4l_2t_stacked_L3_inst03.eps",
    "circuit_full": "circuit_full_6q_4l_2t_stacked_L3_inst03.eps",
    "training_cost_s1_plot": "training_cost_s1_inst03_L3.eps",
    "training_cost_s2_plot": "training_cost_s2_inst03_L3.eps",
    "reconstruction_pure_plot": "reconstruction_pure_inst03_L3.eps",
    "reconstruction_noisy_plot": "reconstruction_noisy_inst03_L3.eps"
  }
}