{
  "schema": {
    "name": "monolith_qae_bundle",
    "version": "1.0"
  },
  "timestamp": "2025-12-01 10:56:01",
  "dataset": {
    "id": "mackey_glass_tau30_n200",
    "scale_low": 0.0,
    "scale_high": 1.0,
    "window_size": 6,
    "window_step": 2,
    "split": 0.75
  },
  "run": {
    "instance_id": 3,
    "layer": 3,
    "sigma_eval": 0.2,
    "test_seed_fixed": 99123,
    "device_seed": 13047,
    "training_time_sec": 246
  },
  "environment": {
    "device": "lightning.qubit",
    "diff_method": "adjoint",
    "interface": "autograd"
  },
  "architecture": {
    "type": "monolith",
    "n_qubits": 6,
    "n_latent": 4,
    "n_trash": 2,
    "n_extra": 0,
    "rot": "Rxyz"
  },
  "parameters": {
    "weights": [
      [
        [
          -0.23962155761452947,
          0.33599233418825625,
          1.2940017213000918
        ],
        [
          -2.4884771933622725,
          0.19950778945406325,
          0.8204729183910996
        ],
        [
          -0.4651020135586168,
          -0.8724096840617386,
          1.2550990114944696
        ],
        [
          -0.5743689370823798,
          -1.080333579664236,
          0.9423574773157942
        ],
        [
          -0.0010975108504952921,
          -0.5466260374275079,
          1.5764006384765845
        ],
        [
          2.983892531201515,
          -0.4536179105660609,
          -0.036033522829607846
        ]
      ],
      [
        [
          1.6362070359298433,
          -0.9723396946680621,
          1.6385106798329143
        ],
        [
          2.1552909605757264,
          0.14701570545750484,
          -1.3964475005908783
        ],
        [
          1.1139813952362276,
          -0.7790371744394918,
          0.17089009906989125
        ],
        [
          0.4753485628573546,
          -0.21364130048176447,
          0.5372857613051689
        ],
        [
          -1.4222166142481512,
          0.29198083291905674,
          1.1170875908375697
        ],
        [
          -0.4548126980582864,
          0.19513174152089907,
          0.04104986975425789
        ]
      ],
      [
        [
          0.2527737105837993,
          -0.2621421821799095,
          1.5658924222033521
        ],
        [
          -3.1306880462207682,
          -2.5131207106701714,
          -1.5334315949196125
        ],
        [
          -0.3532256190633854,
          5.862373045102574,
          -1.4307008613763497
        ],
        [
          1.055807362635298,
          0.09922150643565,
          -0.0026010268093557467
        ],
        [
          1.9617882810683172,
          -0.1162228802388657,
          0.018936392329342636
        ],
        [
          0.46679637663734097,
          0.8979975490245695,
          0.5020076873975599
        ]
      ],
      [
        [
          0.408114882547052,
          1.532932942424929,
          0.07827352743490025
        ],
        [
          0.30729373769775986,
          -1.6440318885999792,
          -4.766125353427968
        ],
        [
          0.5908153422970328,
          -0.002492914826996979,
          0.694926155976842
        ],
        [
          0.17472459735701215,
          -0.0199575097021414,
          6.144842557955002
        ],
        [
          0.2634518099965283,
          -2.060754129471194,
          -1.510490393609502
        ],
        [
          0.4864913370223145,
          1.1536881973754094,
          0.07640740852184306
        ]
      ],
      [
        [
          1.6128476607027677,
          -1.6763443931836515,
          -1.6286753561134448
        ],
        [
          0.6906098291271385,
          0.047248408495459325,
          0.5794124795754055
        ],
        [
          -1.3757508292488647,
          -0.11319459192065306,
          -0.5123756527421945
        ],
        [
          1.3042865701200235,
          0.0880176699246835,
          1.416266568386086
        ],
        [
          1.5832796500553474,
          1.9878802847923263,
          -0.04045690393045899
        ],
        [
          1.0678464546834219,
          0.14706306170701727,
          -0.4503046805115067
        ]
      ],
      [
        [
          0.9748104288395815,
          -0.1224638324002818,
          -0.6969200871650871
        ],
        [
          1.163301215133884,
          0.00881139439123542,
          0.5726314754872331
        ],
        [
          -1.2756387049752194,
          -0.06133522535121725,
          -0.1839278436533758
        ],
        [
          -4.895549946182431,
          0.1760985132848707,
          0.5791200396531786
        ],
        [
          0.8600235973651805,
          -0.00405682905932821,
          0.722849549955071
        ],
        [
          -0.5762508513838914,
          0.04127484662917605,
          0.09474217765985117
        ]
      ]
    ]
  },
  "metrics": {
    "mse_train_noise": 0.04208329887417109,
    "mse_train_recovered": 0.018641881741001,
    "delta_train_pct": 55.702422957049635,
    "mse_test_noise": 0.03574197205136823,
    "mse_test_recovered": 0.012691595363017172,
    "delta_test_pct": 64.49106013295277,
    "mse_train_recovered_pure": 0.006639919288437964,
    "mse_test_recovered_pure": 0.005931823079708256,
    "min_train_cost": 0.007818399249063511
  },
  "artifacts": {
    "weights_file": "weights_inst03_L3.npy",
    "circuit_diagram": "circuit_6q_4l_2t_L3_inst03.eps",
    "training_cost_plot": "training_cost_inst03_L3.eps",
    "cost_history": "cost_inst03_L3.json",
    "reconstruction_pure_plot": "reconstruction_pure_inst03_L3.eps",
    "reconstruction_noisy_plot": "reconstruction_noisy_inst03_L3.eps"
  }
}