{
  "schema": {
    "name": "monolith_qae_bundle",
    "version": "1.0"
  },
  "timestamp": "2025-11-30 21:36:33",
  "dataset": {
    "id": "mackey_glass_tau17_n200",
    "scale_low": 0.0,
    "scale_high": 1.0,
    "window_size": 4,
    "window_step": 2,
    "split": 0.75
  },
  "run": {
    "instance_id": 5,
    "layer": 4,
    "sigma_eval": 0.2,
    "test_seed_fixed": 99123,
    "device_seed": 14049,
    "training_time_sec": 216
  },
  "environment": {
    "device": "lightning.qubit",
    "diff_method": "adjoint",
    "interface": "autograd"
  },
  "architecture": {
    "type": "monolith",
    "n_qubits": 4,
    "n_latent": 3,
    "n_trash": 1,
    "n_extra": 0,
    "rot": "Rxyz"
  },
  "parameters": {
    "weights": [
      [
        [
          1.3931015323565097,
          -0.27320636139030774,
          0.8077468938232302
        ],
        [
          0.2624455218208132,
          -1.9013132896913523,
          0.3293076017534785
        ],
        [
          -1.2215396180352682,
          -0.9698272554566886,
          0.5245658865074515
        ],
        [
          -1.5354013195589744,
          -0.2991373647205566,
          -1.4668866898286015
        ]
      ],
      [
        [
          -0.3946056112532044,
          1.3951065690220368,
          -0.6683872205657849
        ],
        [
          -0.07511481014002191,
          0.1532374268880361,
          -1.3755347709316403
        ],
        [
          2.6424431901926875,
          1.613297688884607,
          0.5120929369761537
        ],
        [
          -0.8291477513932389,
          -0.6010898538579776,
          0.19228911003628438
        ]
      ],
      [
        [
          0.638535660847838,
          0.3900368114976963,
          -0.4776155797891901
        ],
        [
          -0.24379408474545525,
          0.308476860730133,
          -0.9208385300986683
        ],
        [
          1.0853247230003196,
          -0.158153991844838,
          -1.1975097090214286
        ],
        [
          1.4065206859658006,
          0.04537966071604257,
          -0.7815640457746774
        ]
      ],
      [
        [
          0.717832764126867,
          0.7221250323129541,
          2.113251682712328
        ],
        [
          -1.0473655365891512,
          -0.9350192610717919,
          1.1646845595614084
        ],
        [
          -0.10514125062460734,
          0.03067150271086858,
          -0.31075416202301315
        ],
        [
          -0.20362023479016186,
          0.8250983854530298,
          0.7566989829851778
        ]
      ],
      [
        [
          0.5436998955585047,
          -2.175628805265368,
          0.8578093161035985
        ],
        [
          0.25922407915026274,
          -0.309799988508668,
          2.9198246912198633
        ],
        [
          0.27244061697301225,
          1.099290454119976,
          1.902074697966785
        ],
        [
          0.623510514482798,
          -0.09088922425430232,
          -1.56671386078895
        ]
      ],
      [
        [
          -0.00624707612143927,
          -0.7637110685493356,
          0.17146635002253982
        ],
        [
          -0.8237388827983984,
          0.11501366973431017,
          1.3766820125323347
        ],
        [
          0.8944367055161407,
          1.312220246137758,
          0.05761602799982961
        ],
        [
          -0.30436813165471077,
          -0.12380947896605071,
          1.2249019640032996
        ]
      ],
      [
        [
          0.4434658226560284,
          1.4967276671537069,
          1.7109991883410023
        ],
        [
          1.2948851111442368,
          0.2868008517642839,
          -0.5056325684215522
        ],
        [
          1.4791796778001725,
          -0.5289542244911299,
          -1.480057731287811
        ],
        [
          1.777273558596505,
          0.2715667118335274,
          1.5562843727053146
        ]
      ],
      [
        [
          -1.2516622841811031,
          0.09322598057936896,
          -0.9765914673884957
        ],
        [
          -0.44154221153897744,
          0.08951479440558129,
          -0.07818762326855432
        ],
        [
          2.143142843704228,
          -0.025946080547591198,
          0.47261536723967923
        ],
        [
          0.4561629554377324,
          1.3794526779988243,
          0.41248535746128345
        ]
      ]
    ]
  },
  "metrics": {
    "mse_train_noise": 0.0404157849091556,
    "mse_train_recovered": 0.018828523217054218,
    "delta_train_pct": 53.412946799435055,
    "mse_test_noise": 0.041028325215984866,
    "mse_test_recovered": 0.0182627011151591,
    "delta_test_pct": 55.487578352226166,
    "mse_train_recovered_pure": 0.004710869762740632,
    "mse_test_recovered_pure": 0.007396619134449399,
    "min_train_cost": 0.007417282293649324
  },
  "artifacts": {
    "weights_file": "weights_inst05_L4.npy",
    "circuit_diagram": "circuit_4q_3l_1t_L4_inst05.eps",
    "training_cost_plot": "training_cost_inst05_L4.eps",
    "cost_history": "cost_inst05_L4.json",
    "reconstruction_pure_plot": "reconstruction_pure_inst05_L4.eps",
    "reconstruction_noisy_plot": "reconstruction_noisy_inst05_L4.eps"
  }
}