{
  "schema": {
    "name": "monolith_qae_bundle",
    "version": "1.0"
  },
  "timestamp": "2025-11-30 21:29:14",
  "dataset": {
    "id": "mackey_glass_tau17_n200",
    "scale_low": 0.0,
    "scale_high": 1.0,
    "window_size": 4,
    "window_step": 2,
    "split": 0.75
  },
  "run": {
    "instance_id": 3,
    "layer": 4,
    "sigma_eval": 0.2,
    "test_seed_fixed": 99123,
    "device_seed": 14047,
    "training_time_sec": 216
  },
  "environment": {
    "device": "lightning.qubit",
    "diff_method": "adjoint",
    "interface": "autograd"
  },
  "architecture": {
    "type": "monolith",
    "n_qubits": 4,
    "n_latent": 3,
    "n_trash": 1,
    "n_extra": 0,
    "rot": "Rxyz"
  },
  "parameters": {
    "weights": [
      [
        [
          -0.35832874074707843,
          1.1748135819793923,
          0.24704098468647964
        ],
        [
          -0.2815111507636141,
          -1.9717990282100148,
          1.2927431011531185
        ],
        [
          -0.424775583000699,
          -0.4190889884395691,
          -2.6308234687279533
        ],
        [
          0.619995889004726,
          -0.22067119305050284,
          0.10328718826241541
        ]
      ],
      [
        [
          0.5173858994646248,
          -0.969266898571761,
          0.7527692954826062
        ],
        [
          -0.09577250860749617,
          0.14457673000901394,
          -0.14957272709970046
        ],
        [
          -0.9739780670719139,
          3.0806104715581144,
          0.24218948616135172
        ],
        [
          0.7644528114595445,
          0.09921615061003156,
          0.6838392018887196
        ]
      ],
      [
        [
          -0.016088880333287117,
          -0.028204433365035992,
          0.5938607682953522
        ],
        [
          0.5564983167642406,
          0.7972543197497342,
          0.4372590397892989
        ],
        [
          1.968212629923214,
          -0.5662914722419518,
          -0.1178452686035588
        ],
        [
          1.384792039283711,
          0.6933216064757228,
          -0.5090315476618879
        ]
      ],
      [
        [
          1.1398704955433567,
          -0.2498985942793984,
          -0.6043606845232125
        ],
        [
          -0.03258166121015357,
          -0.10898089355551462,
          0.6605158351153404
        ],
        [
          -0.09413774932970717,
          0.2804772606585638,
          0.9482268767133636
        ],
        [
          1.8063792244748,
          -0.5187528408286877,
          -0.39522109223510227
        ]
      ],
      [
        [
          0.06399362978022415,
          -0.3630544487705901,
          1.1796691726915518
        ],
        [
          0.3004070644359409,
          -0.12459142933445198,
          1.6394269449421957
        ],
        [
          0.4750233086106049,
          -0.7018478101939483,
          -0.32270327211562416
        ],
        [
          0.02209778876137291,
          1.028492184213699,
          0.8324299705998087
        ]
      ],
      [
        [
          -0.6263965774046181,
          0.010604265357898008,
          0.08492950101065588
        ],
        [
          -3.648068316100808,
          0.644429824982072,
          -1.565220196545773
        ],
        [
          0.20271601062319372,
          0.8922216702427567,
          1.0772836331717106
        ],
        [
          -1.579465502806277,
          0.24444829252758138,
          -0.45435630974855573
        ]
      ],
      [
        [
          1.072725152699549,
          -0.3985808265864486,
          0.442932476575635
        ],
        [
          -0.25307296785469213,
          2.0146533372551607,
          -0.4535560707342745
        ],
        [
          0.14745926481991345,
          -0.062203078575256504,
          0.5598906571579461
        ],
        [
          0.7264955720770928,
          -0.017010321337128594,
          0.5412665609900128
        ]
      ],
      [
        [
          0.390141036321934,
          -0.8761090987495932,
          0.5820701721286073
        ],
        [
          -0.4730174254388822,
          -0.4347027548583274,
          -1.5976369037254532
        ],
        [
          0.45382352532249604,
          0.3457450282290107,
          0.08030489954317688
        ],
        [
          0.3695639461743032,
          0.5016448180224286,
          0.7641214547758779
        ]
      ]
    ]
  },
  "metrics": {
    "mse_train_noise": 0.0404157849091556,
    "mse_train_recovered": 0.01873332162295397,
    "delta_train_pct": 53.648502274391774,
    "mse_test_noise": 0.041028325215984866,
    "mse_test_recovered": 0.020133683951181838,
    "delta_test_pct": 50.92735605172194,
    "mse_train_recovered_pure": 0.00524570374632221,
    "mse_test_recovered_pure": 0.006816439956171493,
    "min_train_cost": 0.007815795547642794
  },
  "artifacts": {
    "weights_file": "weights_inst03_L4.npy",
    "circuit_diagram": "circuit_4q_3l_1t_L4_inst03.eps",
    "training_cost_plot": "training_cost_inst03_L4.eps",
    "cost_history": "cost_inst03_L4.json",
    "reconstruction_pure_plot": "reconstruction_pure_inst03_L4.eps",
    "reconstruction_noisy_plot": "reconstruction_noisy_inst03_L4.eps"
  }
}