{
  "schema": {
    "name": "sidekick_qae_bundle",
    "version": "1.0"
  },
  "timestamp": "2026-02-25 11:08:36",
  "dataset": {
    "id": "mackey_glass_tau30_n200",
    "scale_low": 0.0,
    "scale_high": 1.0,
    "window_size": 6,
    "window_step": 2,
    "split": 0.75
  },
  "run": {
    "instance_id": 6,
    "layer": 3,
    "dec_epochs": 100,
    "enc_epochs": 1,
    "sigma_eval": 0.2,
    "test_seed_fixed": 99123,
    "device_seed": 13050,
    "stage1_time_sec": 34,
    "stage2_time_sec": 0
  },
  "environment": {
    "device": "lightning.qubit",
    "diff_method": "adjoint",
    "interface": "autograd"
  },
  "architecture": {
    "type": "sidekick",
    "n_qubits": 6,
    "n_latent": 4,
    "n_trash": 2,
    "rot": "Rxyz"
  },
  "parameters": {
    "weights_stage1": [
      [
        [
          -0.12443980099002745,
          -0.20601634158319207,
          0.12267710172997519
        ],
        [
          0.2897127339074695,
          -0.3443820328175997,
          -0.02148984447009596
        ],
        [
          -0.14816390520972916,
          -0.27514237361056515,
          0.09482026468496418
        ],
        [
          0.7979272383969279,
          0.3969389650868083,
          0.14677297474593226
        ],
        [
          0.6324185600836848,
          -0.9438995732430401,
          0.8394188852080876
        ],
        [
          -0.0018886365894818231,
          -0.34470560429227537,
          -0.006628433383236996
        ]
      ],
      [
        [
          -0.279395317956647,
          0.03977598445265495,
          0.27902526203597905
        ],
        [
          -0.09371779897164755,
          0.0004254381873203632,
          0.10634154582966718
        ],
        [
          0.07873222149014754,
          -0.006043974259392721,
          -0.07224485527018366
        ],
        [
          0.17695017457123902,
          0.008058770138755458,
          -0.19512103035655015
        ],
        [
          -0.3306690813953358,
          0.03319480609658341,
          0.33431549651058773
        ],
        [
          -0.07183367510489805,
          -0.0020997907480675084,
          0.07368760050403447
        ]
      ],
      [
        [
          0.10177923125903583,
          0.11127701157979869,
          0.21259338011534026
        ],
        [
          0.0004965986601757929,
          1.610126527494649,
          0.2264043274031408
        ],
        [
          -6.830840428787162e-05,
          1.5793256206685997,
          0.16765587700873888
        ],
        [
          0.2283813224397231,
          0.2120354333942788,
          0.2835331183765244
        ],
        [
          0.006558694058445606,
          1.6040197632394932,
          0.012024009716254629
        ],
        [
          0.00026809580272620244,
          1.5514392309917058,
          0.10096771596531053
        ]
      ]
    ],
    "weights_stage2": [
      [
        [
          -0.1740495766599046,
          -0.6258186806347696,
          0.09215607341763656
        ],
        [
          0.4265917757472252,
          -0.48238371263135843,
          -0.07836834099627157
        ],
        [
          -0.1899104366241595,
          -0.2569646834900639,
          0.07307031558876885
        ],
        [
          0.9485969778526148,
          0.344577375164806,
          0.13466698534009275
        ],
        [
          0.07195003624865755,
          -0.8575179972914717,
          0.7501909095520229
        ],
        [
          -0.018254856635469968,
          -0.5824312439960349,
          -0.015774982880545615
        ]
      ],
      [
        [
          -0.2909798144803981,
          -0.05151655112891647,
          0.26176129290311445
        ],
        [
          -0.18733486232243354,
          0.0445731571271482,
          0.052639901977108376
        ],
        [
          0.010149728812070135,
          -0.2179305054745463,
          -0.04966253032433947
        ],
        [
          0.2222948203135421,
          0.07866126727623739,
          -0.14552894396525368
        ],
        [
          -0.2966619794499863,
          -0.0962616607893074,
          0.3256655617912777
        ],
        [
          -0.1279508080106702,
          -0.05705092891920329,
          -0.012405404711694268
        ]
      ],
      [
        [
          0.07526515417178556,
          0.1448849140790065,
          0.18814750404475516
        ],
        [
          -0.04204120747646331,
          1.5030762588263569,
          -0.11202810272113546
        ],
        [
          0.06401437372643719,
          1.5214199914612827,
          0.027263242428366183
        ],
        [
          0.1964947018292817,
          0.2883645525018536,
          0.24044447783189526
        ],
        [
          0.04852202138738473,
          1.5693743139913545,
          0.06537595768213438
        ],
        [
          0.0075225395776282525,
          1.5945299129906165,
          0.13066331632529932
        ]
      ],
      [
        [
          -0.03642262850520894,
          -0.8227064978040411,
          0.14464070167460782
        ],
        [
          0.34653682250356127,
          -0.23666615774660188,
          0.02895836291987218
        ],
        [
          0.12631223386473348,
          -0.18476548645322127,
          0.10068045923286804
        ],
        [
          0.5470901602319206,
          0.23894695972692756,
          0.258034794907212
        ],
        [
          0.21783312088400664,
          -0.7036537433928616,
          0.8595076780392285
        ],
        [
          -0.049921448183462246,
          -0.7525654267987294,
          -0.039666827447488985
        ]
      ],
      [
        [
          -0.26587456544914106,
          0.001289806187480931,
          0.287260747135423
        ],
        [
          -0.0078331390904565,
          -0.1353823645772342,
          0.2114772324574444
        ],
        [
          0.11065858932692023,
          0.06922728604916095,
          -0.03547156114038566
        ],
        [
          0.1985490007192825,
          -0.10541936850411664,
          -0.1392937381565009
        ],
        [
          -0.28402788096795456,
          0.07298028807714038,
          0.323408282758427
        ],
        [
          -0.03546130681213214,
          0.0799702468085838,
          0.1275333852788585
        ]
      ],
      [
        [
          0.13270815343578257,
          0.07917539126856218,
          0.23703925618592495
        ],
        [
          -0.05730508307657908,
          1.525653776316283,
          -0.08658157879112194
        ],
        [
          0.31439661118016404,
          1.496625510001293,
          -0.03754378451468105
        ],
        [
          0.2732595132085955,
          0.19245966902579373,
          0.32662175892115325
        ],
        [
          -0.09832442023145667,
          1.5792589833134865,
          -0.04132793824962524
        ],
        [
          0.0570028624291068,
          1.5665569662950256,
          0.07127211560532085
        ]
      ]
    ]
  },
  "metrics": {
    "stage1_min_cost": 0.1271030288575897,
    "stage2_min_cost": 0.27261306821869274,
    "mse_train_noise": 0.04208329887417109,
    "mse_train_recovered": 0.029063485591250715,
    "delta_train_pct": 30.938195510407983,
    "mse_test_noise": 0.03574197205136823,
    "mse_test_recovered": 0.02277522695362773,
    "delta_test_pct": 36.27876234446366,
    "mse_train_recovered_pure": 0.0063308419526687185,
    "mse_test_recovered_pure": 0.008067127468211883
  },
  "artifacts": {
    "weights_s1_file": "weights_s1_inst06_L3.npy",
    "weights_s2_file": "weights_s2_inst06_L3.npy",
    "circuit_stage1": "circuit_stage1_6q_4l_2t_sidekick_L03_inst06.eps",
    "circuit_stage2": "circuit_stage1_6q_4l_2t_sidekick_L03_inst06.eps",
    "circuit_full": "circuit_full_6q_4l_2t_sidekick_L3_inst06.eps",
    "training_cost_s1_plot": "training_cost_s1_dec100_enc001_inst06.eps",
    "training_cost_s2_plot": "training_cost_s2_dec100_enc001_inst06.eps",
    "reconstruction_pure_plot": "reconst_pure_dec100_enc001_inst06_L3.eps",
    "reconstruction_noisy_plot": "reconst_noisy_dec100_enc001_inst06_L3.eps"
  }
}