{
  "schema": {
    "name": "sidekick_qae_bundle",
    "version": "1.0"
  },
  "timestamp": "2026-02-25 11:15:08",
  "dataset": {
    "id": "mackey_glass_tau30_n200",
    "scale_low": 0.0,
    "scale_high": 1.0,
    "window_size": 6,
    "window_step": 2,
    "split": 0.75
  },
  "run": {
    "instance_id": 5,
    "layer": 3,
    "dec_epochs": 200,
    "enc_epochs": 1,
    "sigma_eval": 0.2,
    "test_seed_fixed": 99123,
    "device_seed": 13049,
    "stage1_time_sec": 68,
    "stage2_time_sec": 0
  },
  "environment": {
    "device": "lightning.qubit",
    "diff_method": "adjoint",
    "interface": "autograd"
  },
  "architecture": {
    "type": "sidekick",
    "n_qubits": 6,
    "n_latent": 4,
    "n_trash": 2,
    "rot": "Rxyz"
  },
  "parameters": {
    "weights_stage1": [
      [
        [
          -0.006077076576158552,
          -0.22609613426796826,
          0.006327571374078374
        ],
        [
          -0.12151901637887687,
          0.32243783028314543,
          0.21435599524853635
        ],
        [
          0.410004223569424,
          -0.3733596019936497,
          -0.20327133966710853
        ],
        [
          0.6656633082343822,
          0.8633095977390359,
          0.06253506412635107
        ],
        [
          0.6439354164946437,
          0.02070708179450818,
          0.9068589722551126
        ],
        [
          -1.5675999749739253,
          -1.5520817905444024,
          1.3483386779458704
        ]
      ],
      [
        [
          0.0490562375723159,
          0.002302880580988767,
          -0.03528993652504193
        ],
        [
          -0.07563531149107117,
          -0.00025895336420804477,
          0.07630885788815896
        ],
        [
          0.16692506024419498,
          -0.00010807452474895717,
          -0.16833223739466632
        ],
        [
          -0.2622470224316019,
          -0.01219204350265099,
          0.266362632874656
        ],
        [
          -1.3099402720835984,
          -0.026760817205094385,
          1.3131138235293576
        ],
        [
          -0.006470500467340119,
          -0.0003793754389089561,
          -0.010142662753156563
        ]
      ],
      [
        [
          0.30870637770517884,
          0.04805745314904715,
          0.2505631867851934
        ],
        [
          0.4325031851609214,
          1.58936705618364,
          0.17130071616369327
        ],
        [
          0.0054852092866468595,
          1.5750824146767166,
          0.17347192679017132
        ],
        [
          0.024080317621560002,
          0.02665180991495539,
          0.024513380658065593
        ],
        [
          0.007220425367153973,
          1.5689153266677742,
          0.14466523555106656
        ],
        [
          -0.01835671984462685,
          1.5845841692926266,
          0.1171241840291565
        ]
      ]
    ],
    "weights_stage2": [
      [
        [
          0.10652530822829004,
          -0.6499504011978552,
          0.12567349810571943
        ],
        [
          0.1871276509818196,
          0.2373380884493738,
          0.2873913086947034
        ],
        [
          0.33923223622227383,
          -0.362693785419343,
          -0.35977323141855966
        ],
        [
          0.030581765688644458,
          0.905302990657234,
          0.20988019068238795
        ],
        [
          0.5190912076601684,
          0.09354611575738825,
          0.7356675412487984
        ],
        [
          -1.590982780300714,
          -1.660645850390151,
          1.5604246663596852
        ]
      ],
      [
        [
          0.060790634528668425,
          0.032403637937946275,
          0.0044456345002477395
        ],
        [
          -0.07460076913069802,
          0.06750912746772081,
          0.08706613523702011
        ],
        [
          0.025024188712183287,
          -0.061313142383196406,
          -0.25921244203547483
        ],
        [
          -0.33721268967177415,
          0.12598388065441704,
          0.22084701330956297
        ],
        [
          -1.3592466818751032,
          -0.13504223584936234,
          1.2767693238159081
        ],
        [
          -0.030876943105595748,
          0.07102764217044918,
          -0.008586152886115823
        ]
      ],
      [
        [
          0.22381084302419257,
          -0.06370020817510488,
          0.2105534953541477
        ],
        [
          0.3219421414654254,
          1.5103547685609875,
          -0.12446642113076305
        ],
        [
          0.18245018101859983,
          1.5540073385633448,
          -0.09288582488743227
        ],
        [
          -0.009261024831135035,
          0.06455443292363515,
          -0.01446858895327741
        ],
        [
          -0.003957904849561784,
          1.5795160180001417,
          0.22146068349316603
        ],
        [
          0.02092961464525718,
          1.5717289722070926,
          0.13932644686631362
        ]
      ],
      [
        [
          0.16216127898971455,
          -0.8482972721529779,
          0.12989323510314732
        ],
        [
          0.08093720038033644,
          0.414623857744648,
          0.3384816723386725
        ],
        [
          0.40657021188966325,
          -0.20494591073200716,
          -0.10851215506861386
        ],
        [
          -0.015250686639685096,
          0.8497426324135811,
          -0.1318857656383469
        ],
        [
          0.577309286413903,
          0.16324537917429763,
          0.7390054035099413
        ],
        [
          -1.5391083236655432,
          -1.4835609148636375,
          1.4461381157263125
        ]
      ],
      [
        [
          0.08500837834292799,
          0.042241250080783554,
          -0.020601249905038917
        ],
        [
          -0.00967850520930237,
          -0.1072033334312556,
          0.14211788370268666
        ],
        [
          0.2498404407800181,
          0.020578896421738664,
          -0.027835123815644562
        ],
        [
          -0.21794472396698655,
          0.05718319681844155,
          0.3206556303940476
        ],
        [
          -1.283784228164352,
          0.05308151778683585,
          1.339697582930175
        ],
        [
          -0.04208014212798275,
          0.1273956536173998,
          -0.06657426171353627
        ]
      ],
      [
        [
          0.3231296647218273,
          0.16050933594829575,
          0.2905728782162383
        ],
        [
          0.9026789780607558,
          1.499570977983647,
          -0.11169406445049286
        ],
        [
          -0.5098972408469004,
          1.6474477460974724,
          0.020825956291023524
        ],
        [
          0.06430494149132213,
          0.050115175059039105,
          0.06349535026940857
        ],
        [
          0.007215939152604784,
          1.5345207154025955,
          0.06786978760896731
        ],
        [
          -0.01819747084680086,
          1.626726552016643,
          0.09492192119199952
        ]
      ]
    ]
  },
  "metrics": {
    "stage1_min_cost": 0.11242993218849479,
    "stage2_min_cost": 0.253037577857212,
    "mse_train_noise": 0.04208329887417109,
    "mse_train_recovered": 0.029124851298914237,
    "delta_train_pct": 30.792375887647406,
    "mse_test_noise": 0.03574197205136823,
    "mse_test_recovered": 0.02157414710992904,
    "delta_test_pct": 39.639180851793085,
    "mse_train_recovered_pure": 0.0038749519933915753,
    "mse_test_recovered_pure": 0.005106000419776582
  },
  "artifacts": {
    "weights_s1_file": "weights_s1_inst05_L3.npy",
    "weights_s2_file": "weights_s2_inst05_L3.npy",
    "circuit_stage1": "circuit_stage1_6q_4l_2t_sidekick_L03_inst05.eps",
    "circuit_stage2": "circuit_stage1_6q_4l_2t_sidekick_L03_inst05.eps",
    "circuit_full": "circuit_full_6q_4l_2t_sidekick_L3_inst05.eps",
    "training_cost_s1_plot": "training_cost_s1_dec200_enc001_inst05.eps",
    "training_cost_s2_plot": "training_cost_s2_dec200_enc001_inst05.eps",
    "reconstruction_pure_plot": "reconst_pure_dec200_enc001_inst05_L3.eps",
    "reconstruction_noisy_plot": "reconst_noisy_dec200_enc001_inst05_L3.eps"
  }
}