{
  "schema": {
    "name": "sidekick_qae_bundle",
    "version": "1.0"
  },
  "timestamp": "2026-02-25 11:10:24",
  "dataset": {
    "id": "mackey_glass_tau30_n200",
    "scale_low": 0.0,
    "scale_high": 1.0,
    "window_size": 6,
    "window_step": 2,
    "split": 0.75
  },
  "run": {
    "instance_id": 1,
    "layer": 3,
    "dec_epochs": 200,
    "enc_epochs": 1,
    "sigma_eval": 0.2,
    "test_seed_fixed": 99123,
    "device_seed": 13045,
    "stage1_time_sec": 68,
    "stage2_time_sec": 0
  },
  "environment": {
    "device": "lightning.qubit",
    "diff_method": "adjoint",
    "interface": "autograd"
  },
  "architecture": {
    "type": "sidekick",
    "n_qubits": 6,
    "n_latent": 4,
    "n_trash": 2,
    "rot": "Rxyz"
  },
  "parameters": {
    "weights_stage1": [
      [
        [
          -0.008946725865532251,
          -0.2253939743097288,
          0.008571871508639462
        ],
        [
          -0.6519781193840338,
          -0.6026993084580684,
          -1.0005066140052292
        ],
        [
          0.539753431282973,
          -0.6406848314842496,
          1.1180459474200257
        ],
        [
          0.057635769261692574,
          -0.5582340032180693,
          -0.05569151156242489
        ],
        [
          0.7413451839536165,
          -0.47608146129690665,
          0.7426061540374554
        ],
        [
          -1.5636079119947364,
          -1.492909311540063,
          1.2372982398375478
        ]
      ],
      [
        [
          0.1658209089752305,
          -0.005269945999719788,
          -0.17517166743354495
        ],
        [
          0.6901928452405413,
          0.011826056323204635,
          -0.689829815529991
        ],
        [
          -0.029610212711413786,
          0.006106481487513616,
          0.028657730233355404
        ],
        [
          0.015467234663006714,
          -0.000790033579992549,
          -0.016277357243592045
        ],
        [
          0.12559291355888189,
          0.0002271652783617558,
          -0.12489735907759635
        ],
        [
          0.09228583854209203,
          0.0329550643828112,
          -0.0837883175524583
        ]
      ],
      [
        [
          0.13004702498605142,
          0.03052302135647221,
          0.2191650032653863
        ],
        [
          0.45870434318442027,
          1.5507388102503654,
          0.07624422008761934
        ],
        [
          -0.05093419109357031,
          1.5770079828355563,
          0.07273266101855479
        ],
        [
          0.09323059295836918,
          0.15361492160262977,
          0.05360220805946511
        ],
        [
          0.011950063671410483,
          1.3602459805375595,
          0.21817595204798157
        ],
        [
          -0.03493581871155208,
          1.5788320485187297,
          0.18631616688759026
        ]
      ]
    ],
    "weights_stage2": [
      [
        [
          0.02442051139175218,
          -0.43252877009259927,
          0.030532248175633676
        ],
        [
          -0.5061266334447613,
          -0.7269332018405857,
          -0.963514156120631
        ],
        [
          0.6079560015956338,
          -0.6880354919118844,
          1.035948112837828
        ],
        [
          -0.02263919257792892,
          -0.6370403305377687,
          0.05821157951195276
        ],
        [
          0.45709005865053615,
          -0.2818105291124643,
          0.7701132070873713
        ],
        [
          -1.5747656027757535,
          -1.7063830124758546,
          1.1794952503984415
        ]
      ],
      [
        [
          0.18823297238486528,
          -0.039318286892819986,
          -0.10053392556320409
        ],
        [
          0.6287775820855044,
          0.04556580088599792,
          -0.7366395595441196
        ],
        [
          -0.005200310579926322,
          0.04953492043203009,
          0.021509372067884783
        ],
        [
          -0.10741806236839196,
          0.0030892132171565848,
          -0.11491746937889413
        ],
        [
          0.05043087242965128,
          0.14148379165053349,
          -0.1800310178054228
        ],
        [
          0.1004664324294789,
          -0.047088384991579996,
          -0.04348294177546397
        ]
      ],
      [
        [
          0.11505122526370344,
          -0.020400034840105774,
          0.19095289733429816
        ],
        [
          0.20651584594417138,
          1.6021591240575224,
          -0.04620122526431768
        ],
        [
          0.22797654349408814,
          1.5712726553683594,
          -0.054854887004799305
        ],
        [
          0.11182117105907417,
          0.12159462756928527,
          0.07323239333851507
        ],
        [
          -0.11100608016912566,
          1.4670775166427306,
          0.27588552210718514
        ],
        [
          0.04823989644467736,
          1.5453400322090207,
          0.1643588861850354
        ]
      ],
      [
        [
          0.148325872901526,
          -0.5086025665966061,
          0.13491019040831986
        ],
        [
          -0.6013659513308562,
          -0.48042656442109954,
          -1.0625396672973726
        ],
        [
          0.5833504922301791,
          -0.47161182928856876,
          1.156040219734393
        ],
        [
          -0.09828019050018676,
          -0.7165820664376511,
          -0.14893401367138992
        ],
        [
          0.4127238225610744,
          -0.16066156423539316,
          0.7833140321097624
        ],
        [
          -1.4525119420116086,
          -1.366662405400135,
          1.0582218611490772
        ]
      ],
      [
        [
          0.1402791115934399,
          0.06964719572033276,
          -0.1685080967201385
        ],
        [
          0.7153767366687523,
          -0.08987880252681357,
          -0.6507901469604725
        ],
        [
          -0.023936940070491963,
          -0.05392824700021569,
          0.012356087369327669
        ],
        [
          0.10094881774888069,
          -0.013173053833171404,
          0.0771467100796317
        ],
        [
          0.130115763913502,
          0.07124149155880727,
          -0.09851133300000188
        ],
        [
          0.06694980686027259,
          0.11725160128997081,
          -0.05892148115482636
        ]
      ],
      [
        [
          0.16060586255436823,
          0.07542179653445188,
          0.24737710919647427
        ],
        [
          0.9463057996055398,
          1.4629159217043597,
          0.030584227044070652
        ],
        [
          -0.43763544019432277,
          1.5684899571956827,
          0.019172222994372795
        ],
        [
          0.08962012574890749,
          0.17427583179544737,
          0.03397202278041525
        ],
        [
          0.05137079447162904,
          1.5594013405172054,
          0.16046638198877866
        ],
        [
          0.0016546089219597049,
          1.5617094615159777,
          0.2082734475901449
        ]
      ]
    ]
  },
  "metrics": {
    "stage1_min_cost": 0.11239027032700451,
    "stage2_min_cost": 0.26284894603967857,
    "mse_train_noise": 0.04208329887417109,
    "mse_train_recovered": 0.028376393453339754,
    "delta_train_pct": 32.57089103640599,
    "mse_test_noise": 0.03574197205136823,
    "mse_test_recovered": 0.022442651578342965,
    "delta_test_pct": 37.209252063404705,
    "mse_train_recovered_pure": 0.0033144401728287796,
    "mse_test_recovered_pure": 0.004127865586584115
  },
  "artifacts": {
    "weights_s1_file": "weights_s1_inst01_L3.npy",
    "weights_s2_file": "weights_s2_inst01_L3.npy",
    "circuit_stage1": "circuit_stage1_6q_4l_2t_sidekick_L03_inst01.eps",
    "circuit_stage2": "circuit_stage1_6q_4l_2t_sidekick_L03_inst01.eps",
    "circuit_full": "circuit_full_6q_4l_2t_sidekick_L3_inst01.eps",
    "training_cost_s1_plot": "training_cost_s1_dec200_enc001_inst01.eps",
    "training_cost_s2_plot": "training_cost_s2_dec200_enc001_inst01.eps",
    "reconstruction_pure_plot": "reconst_pure_dec200_enc001_inst01_L3.eps",
    "reconstruction_noisy_plot": "reconst_noisy_dec200_enc001_inst01_L3.eps"
  }
}