{
  "schema": {
    "name": "sidekick_qae_bundle",
    "version": "1.0"
  },
  "timestamp": "2026-02-25 11:26:19",
  "dataset": {
    "id": "mackey_glass_tau30_n200",
    "scale_low": 0.0,
    "scale_high": 1.0,
    "window_size": 6,
    "window_step": 2,
    "split": 0.75
  },
  "run": {
    "instance_id": 5,
    "layer": 3,
    "dec_epochs": 300,
    "enc_epochs": 1,
    "sigma_eval": 0.2,
    "test_seed_fixed": 99123,
    "device_seed": 13049,
    "stage1_time_sec": 103,
    "stage2_time_sec": 0
  },
  "environment": {
    "device": "lightning.qubit",
    "diff_method": "adjoint",
    "interface": "autograd"
  },
  "architecture": {
    "type": "sidekick",
    "n_qubits": 6,
    "n_latent": 4,
    "n_trash": 2,
    "rot": "Rxyz"
  },
  "parameters": {
    "weights_stage1": [
      [
        [
          -0.022440908902700805,
          -0.22592351397179278,
          0.022081958247106414
        ],
        [
          -0.18974921232590622,
          -0.17415757540571775,
          0.14094412031205475
        ],
        [
          0.3226453598843329,
          -0.3298123370687121,
          -0.35025027705382705
        ],
        [
          0.638166657292314,
          1.1347302950079285,
          0.30865488719704287
        ],
        [
          0.1599666399724174,
          0.1820477693748808,
          0.9766285210390819
        ],
        [
          -1.570445263799907,
          -1.5698464195310857,
          1.399387157840143
        ]
      ],
      [
        [
          0.05117174047970057,
          -0.002500863233037597,
          -0.03277332213970418
        ],
        [
          -0.07491369448431608,
          8.407987085504863e-05,
          0.07701225979794167
        ],
        [
          0.16812882712269284,
          0.00137855528385211,
          -0.16703864772353283
        ],
        [
          -0.30393914958693824,
          -0.011294237608220806,
          0.30665396471709
        ],
        [
          -1.3099162078950028,
          -0.012909124791156053,
          1.311031801023677
        ],
        [
          -0.0072214595863594215,
          0.0011645518831935257,
          -0.010804291577159585
        ]
      ],
      [
        [
          0.308706377714675,
          0.04805745318995971,
          0.2505631867652988
        ],
        [
          0.4556830759212638,
          1.6069855320846496,
          0.17130071613598588
        ],
        [
          0.008424035715941029,
          1.5752940177371575,
          0.17347192677208328
        ],
        [
          0.024080317614832356,
          0.02665180989925322,
          0.02451338064135638
        ],
        [
          0.004252939722467733,
          1.5647630983849308,
          0.14466523553582214
        ],
        [
          -0.03856315277305305,
          1.571245542792813,
          0.11712418400353594
        ]
      ]
    ],
    "weights_stage2": [
      [
        [
          0.20069795051569275,
          -0.583940538307901,
          0.023809505136068915
        ],
        [
          -0.23000432889966166,
          -0.2661191538647279,
          0.1278262299760955
        ],
        [
          0.3763293485848652,
          -0.2440468050262219,
          -0.5464302872441692
        ],
        [
          -0.013864459497331422,
          1.1534619541368358,
          0.42980130299800506
        ],
        [
          -0.032873365719699385,
          0.2183027823446508,
          0.4967088242050042
        ],
        [
          -1.4918162232963752,
          -1.9640993903052508,
          1.62021785151311
        ]
      ],
      [
        [
          0.043426339666617436,
          0.027209253442542713,
          -0.03829937654400599
        ],
        [
          -0.011464696792872646,
          0.02869078101089644,
          0.12681950540418946
        ],
        [
          0.23061089528428866,
          -0.11622429821475189,
          -0.12286949816885676
        ],
        [
          -0.23286496568013046,
          0.13665736184029806,
          0.3893052557097385
        ],
        [
          -1.3595765181034534,
          -0.16462096864571601,
          1.2690098424868759
        ],
        [
          0.01270228392927808,
          0.013402025239958544,
          0.006925824346056125
        ]
      ],
      [
        [
          0.3275224086196074,
          -0.07675452298689969,
          0.2853242564730595
        ],
        [
          0.47838123229491103,
          1.6031392090906225,
          -0.05184735819114839
        ],
        [
          -0.4101533190101025,
          1.6212400103051523,
          0.05597905057773252
        ],
        [
          -0.00973166396774447,
          0.03508641927410351,
          -0.004815372830858967
        ],
        [
          -0.05175143805708897,
          1.5740209644784662,
          0.18920012584224846
        ],
        [
          0.07214278064645165,
          1.6119533314056003,
          0.17109385879189268
        ]
      ],
      [
        [
          0.02397598030630811,
          -0.7988877616844637,
          0.08718394028897379
        ],
        [
          -0.0004941835834954052,
          -0.08107508879964137,
          0.12715313835865732
        ],
        [
          0.49232277295967664,
          -0.1332646753912429,
          -0.12202163124202128
        ],
        [
          -0.05240841449450308,
          1.0937038675627682,
          0.07532030917017989
        ],
        [
          -0.15859199973724578,
          0.30310301793165767,
          0.6437384848725793
        ],
        [
          -1.5333390632735653,
          -1.4539540238911035,
          1.6668721314336084
        ]
      ],
      [
        [
          0.038902459630907875,
          0.03634556057800766,
          -0.04762576073697952
        ],
        [
          -0.11618884878023533,
          -0.06769014321393496,
          0.020823735203267923
        ],
        [
          0.10610888198718872,
          0.03635397954165285,
          -0.22251650966651015
        ],
        [
          -0.3731420933560499,
          0.015770291484630557,
          0.2370668523065107
        ],
        [
          -1.3178715701387638,
          0.13824405284181668,
          1.3083002269255615
        ],
        [
          0.013588396419201999,
          0.1356094620338568,
          -0.0028380688623195066
        ]
      ],
      [
        [
          0.2854702311003627,
          0.17671382038923306,
          0.21580211705753907
        ],
        [
          1.017407819496781,
          1.5686039159940535,
          -0.06526577085382958
        ],
        [
          0.1842830387664776,
          1.5208888772312923,
          0.023235327353366246
        ],
        [
          0.04696758421600276,
          -0.027200714431190355,
          0.05384213411357179
        ],
        [
          -0.03210254219696794,
          1.5860459215461145,
          0.10013034522939629
        ],
        [
          0.03797367622592397,
          1.590355302327573,
          0.06315450921517914
        ]
      ]
    ]
  },
  "metrics": {
    "stage1_min_cost": 0.11193164306628398,
    "stage2_min_cost": 0.2520756068110891,
    "mse_train_noise": 0.04208329887417109,
    "mse_train_recovered": 0.02898114811110116,
    "delta_train_pct": 31.133849088792466,
    "mse_test_noise": 0.03574197205136823,
    "mse_test_recovered": 0.022050978860691288,
    "delta_test_pct": 38.3050861631258,
    "mse_train_recovered_pure": 0.004029857727677275,
    "mse_test_recovered_pure": 0.005196230521374711
  },
  "artifacts": {
    "weights_s1_file": "weights_s1_inst05_L3.npy",
    "weights_s2_file": "weights_s2_inst05_L3.npy",
    "circuit_stage1": "circuit_stage1_6q_4l_2t_sidekick_L03_inst05.eps",
    "circuit_stage2": "circuit_stage1_6q_4l_2t_sidekick_L03_inst05.eps",
    "circuit_full": "circuit_full_6q_4l_2t_sidekick_L3_inst05.eps",
    "training_cost_s1_plot": "training_cost_s1_dec300_enc001_inst05.eps",
    "training_cost_s2_plot": "training_cost_s2_dec300_enc001_inst05.eps",
    "reconstruction_pure_plot": "reconst_pure_dec300_enc001_inst05_L3.eps",
    "reconstruction_noisy_plot": "reconst_noisy_dec300_enc001_inst05_L3.eps"
  }
}