{
  "schema": {
    "name": "sidekick_qae_bundle",
    "version": "1.0"
  },
  "timestamp": "2026-02-25 11:21:01",
  "dataset": {
    "id": "mackey_glass_tau30_n200",
    "scale_low": 0.0,
    "scale_high": 1.0,
    "window_size": 6,
    "window_step": 2,
    "split": 0.75
  },
  "run": {
    "instance_id": 2,
    "layer": 3,
    "dec_epochs": 300,
    "enc_epochs": 1,
    "sigma_eval": 0.2,
    "test_seed_fixed": 99123,
    "device_seed": 13046,
    "stage1_time_sec": 103,
    "stage2_time_sec": 0
  },
  "environment": {
    "device": "lightning.qubit",
    "diff_method": "adjoint",
    "interface": "autograd"
  },
  "architecture": {
    "type": "sidekick",
    "n_qubits": 6,
    "n_latent": 4,
    "n_trash": 2,
    "rot": "Rxyz"
  },
  "parameters": {
    "weights_stage1": [
      [
        [
          1.5651880007356647,
          -1.5629043724554812,
          -1.5310497953816367
        ],
        [
          0.20754744681220677,
          0.24436732123980104,
          -0.5651137250649243
        ],
        [
          0.026602834785386893,
          -1.1385430551486688,
          -1.6080120145985277
        ],
        [
          0.025142435190992258,
          1.418005566548501,
          0.06762966223966586
        ],
        [
          0.20620443543839534,
          0.1911342444933371,
          0.9623896958010291
        ],
        [
          -1.5713498298830533,
          -1.5719780254374256,
          1.4264323051350138
        ]
      ],
      [
        [
          0.04826310995732932,
          -0.0037150692700880466,
          0.017908453981518066
        ],
        [
          0.8174281400114118,
          0.2163237715197709,
          -1.370416763741886
        ],
        [
          -0.11895520943834992,
          0.06299233132543168,
          0.27502645489728944
        ],
        [
          -0.32868989391128617,
          -0.014630769828292032,
          0.42681759670216174
        ],
        [
          0.22581919630013728,
          -0.02996688605464589,
          -0.16675106901799192
        ],
        [
          -0.0004452980939061189,
          0.0783885458600802,
          -0.0007592567807790296
        ]
      ],
      [
        [
          0.16757622799231509,
          0.19423719076098653,
          0.3081984962075381
        ],
        [
          0.44403266604643105,
          1.573188191770048,
          0.29265208322819075
        ],
        [
          0.01202359264803196,
          1.5660489856469093,
          0.18030828204595403
        ],
        [
          0.28074658264358193,
          0.04778507800058899,
          0.275478429494586
        ],
        [
          -0.04049217495568177,
          1.5569126605747823,
          0.06825199204627659
        ],
        [
          -0.00412274377393522,
          1.5669685267024789,
          0.1620009924200129
        ]
      ]
    ],
    "weights_stage2": [
      [
        [
          1.4385199630979089,
          -1.672497556278682,
          -1.4076760841181983
        ],
        [
          0.028858543720988145,
          0.20292905446811038,
          -0.7245811807217303
        ],
        [
          -0.008239437117167911,
          -1.1575250475740357,
          -1.6368605021662348
        ],
        [
          -0.003090606855829847,
          1.4461580006343526,
          0.30132542437779686
        ],
        [
          0.14861768276263926,
          0.22261569670463252,
          1.128649548696641
        ],
        [
          -1.582971669933574,
          -1.7454143905474282,
          1.5088616819086351
        ]
      ],
      [
        [
          0.017518644168337504,
          0.022778636791861893,
          0.01428968545622325
        ],
        [
          1.1697176585996911,
          -0.010662907027008483,
          -1.0758176572291795
        ],
        [
          -0.1820690749864437,
          -0.011889017125221701,
          0.19365168542031444
        ],
        [
          -0.3937857030696893,
          -0.10832690936101971,
          0.379312050186323
        ],
        [
          0.28779945619877956,
          0.0014126607533122247,
          -0.030476542245007846
        ],
        [
          0.1299009797927706,
          0.10688570666461461,
          -0.12045423359378787
        ]
      ],
      [
        [
          0.21670223073050765,
          0.2051911647291524,
          0.3623109727083959
        ],
        [
          0.2728691496180131,
          1.526555216553452,
          -0.14583174182960354
        ],
        [
          -0.2912415992677969,
          1.5677328772837136,
          -0.13917443234541232
        ],
        [
          0.2868029842340641,
          0.100021052677709,
          0.28730894420369923
        ],
        [
          -0.05066959043224992,
          1.4328545806898418,
          0.1424500112133475
        ],
        [
          -0.09241000913667191,
          1.5539064598612136,
          0.13724514141749458
        ]
      ],
      [
        [
          1.5291620278067644,
          -1.638232066493115,
          -1.297468046805208
        ],
        [
          0.010008323888148055,
          0.3776737037250964,
          -0.76377056457851
        ],
        [
          -0.21694503914673047,
          -1.1224415107433865,
          -1.8803586371503647
        ],
        [
          0.10232366428647845,
          1.31391026127922,
          -0.18051432595334674
        ],
        [
          0.034637731976730826,
          0.32751318221207126,
          0.7982922621397183
        ],
        [
          -1.548832651595036,
          -1.2810835041096316,
          1.5335268603172845
        ]
      ],
      [
        [
          -0.014067519392243641,
          0.04500368041488508,
          -0.06468061824992695
        ],
        [
          1.0497844674874701,
          0.3474192877595851,
          -1.1872342070981796
        ],
        [
          -0.15699604892334512,
          -0.14623079025301508,
          0.24253954741201306
        ],
        [
          -0.4086041416009644,
          0.07638758198641507,
          0.3796387189731948
        ],
        [
          0.3725276173427062,
          -0.1325832963585647,
          -0.12928926169681296
        ],
        [
          0.023946255059538464,
          0.15690357731159363,
          0.05482668552616771
        ]
      ],
      [
        [
          0.0984295787600796,
          0.15730284335052822,
          0.2540860197066806
        ],
        [
          0.934357731714251,
          1.6054386015007356,
          -0.11716434236968544
        ],
        [
          -0.48187372454380156,
          1.5129044879613156,
          -0.0629407649732589
        ],
        [
          0.2633612906948676,
          0.011000412114534244,
          0.2636479147854726
        ],
        [
          0.03975895720946428,
          1.5423109235408472,
          -0.005946027120794253
        ],
        [
          -0.04072013269453829,
          1.5627002810862698,
          0.1867568434225311
        ]
      ]
    ]
  },
  "metrics": {
    "stage1_min_cost": 0.09447779385094654,
    "stage2_min_cost": 0.24228008750448743,
    "mse_train_noise": 0.04208329887417109,
    "mse_train_recovered": 0.02647796869750627,
    "delta_train_pct": 37.082003060940394,
    "mse_test_noise": 0.03574197205136823,
    "mse_test_recovered": 0.020358745783640362,
    "delta_test_pct": 43.03966844811795,
    "mse_train_recovered_pure": 0.002954414225234785,
    "mse_test_recovered_pure": 0.005158668931247194
  },
  "artifacts": {
    "weights_s1_file": "weights_s1_inst02_L3.npy",
    "weights_s2_file": "weights_s2_inst02_L3.npy",
    "circuit_stage1": "circuit_stage1_6q_4l_2t_sidekick_L03_inst02.eps",
    "circuit_stage2": "circuit_stage1_6q_4l_2t_sidekick_L03_inst02.eps",
    "circuit_full": "circuit_full_6q_4l_2t_sidekick_L3_inst02.eps",
    "training_cost_s1_plot": "training_cost_s1_dec300_enc001_inst02.eps",
    "training_cost_s2_plot": "training_cost_s2_dec300_enc001_inst02.eps",
    "reconstruction_pure_plot": "reconst_pure_dec300_enc001_inst02_L3.eps",
    "reconstruction_noisy_plot": "reconst_noisy_dec300_enc001_inst02_L3.eps"
  }
}