{
  "schema": {
    "name": "sidekick_qae_bundle",
    "version": "1.0"
  },
  "timestamp": "2026-02-25 11:55:13",
  "dataset": {
    "id": "mackey_glass_tau30_n200",
    "scale_low": 0.0,
    "scale_high": 1.0,
    "window_size": 6,
    "window_step": 2,
    "split": 0.75
  },
  "run": {
    "instance_id": 3,
    "layer": 3,
    "dec_epochs": 500,
    "enc_epochs": 1,
    "sigma_eval": 0.2,
    "test_seed_fixed": 99123,
    "device_seed": 13047,
    "stage1_time_sec": 174,
    "stage2_time_sec": 0
  },
  "environment": {
    "device": "lightning.qubit",
    "diff_method": "adjoint",
    "interface": "autograd"
  },
  "architecture": {
    "type": "sidekick",
    "n_qubits": 6,
    "n_latent": 4,
    "n_trash": 2,
    "rot": "Rxyz"
  },
  "parameters": {
    "weights_stage1": [
      [
        [
          -0.33627865328010764,
          -0.24833949821949086,
          0.3164139547931341
        ],
        [
          -0.04997711317187953,
          -0.688560787851308,
          1.6181776056732822
        ],
        [
          -0.4900131752421543,
          -0.47614063111915544,
          -1.1196553632679536
        ],
        [
          -0.27317007273549426,
          -0.29222749934319314,
          0.2652547579376266
        ],
        [
          0.07845443315373515,
          0.08856982468425834,
          1.4885961273312567
        ],
        [
          -1.5707592895086642,
          -1.570772619019576,
          1.4053480265498273
        ]
      ],
      [
        [
          1.5168148265575236,
          -0.32916620766912624,
          -1.5250524483403327
        ],
        [
          -0.08737874244033292,
          0.0053766395172797675,
          0.12443410534685453
        ],
        [
          0.033752742978796824,
          0.0035846936782628984,
          -0.02518474811589767
        ],
        [
          0.05933436534413479,
          0.0007587352540982437,
          -0.06930273804027362
        ],
        [
          -0.9647782129913874,
          0.022912352026517157,
          0.95482317744661
        ],
        [
          0.053283076243710335,
          -0.03382802050011026,
          -0.04517030801819492
        ]
      ],
      [
        [
          0.2593092277351129,
          0.24191232070800467,
          0.28930046290596434
        ],
        [
          0.5329768455806437,
          1.587999196030211,
          0.01762558014533512
        ],
        [
          -0.029385917000309087,
          1.5723597410359074,
          0.005334225448599245
        ],
        [
          0.1298164241868499,
          0.24602091146183738,
          0.25504328885784444
        ],
        [
          -0.0007151865622994632,
          1.3616091608074326,
          0.14174489979489147
        ],
        [
          -0.05083924884034313,
          1.5774016587277018,
          0.13898459588184905
        ]
      ]
    ],
    "weights_stage2": [
      [
        [
          -0.3767541681782972,
          -0.7374088070688403,
          0.24517760009862952
        ],
        [
          0.25752415538867934,
          -0.8304858316461686,
          1.6522913898829756
        ],
        [
          -0.6270494810343261,
          -0.5191626039816307,
          -1.0538817776817824
        ],
        [
          -0.15858800497440764,
          -0.14950953617215584,
          0.15279151176661218
        ],
        [
          0.23027162817221852,
          0.09748930844223039,
          1.6182472491122464
        ],
        [
          -1.6862602435080987,
          -1.2707367715874787,
          1.5859548361999567
        ]
      ],
      [
        [
          1.5814643492013618,
          -0.14686152067712527,
          -1.460138995130467
        ],
        [
          -0.09724997521109663,
          -0.030732380598312795,
          0.11566559737609351
        ],
        [
          0.10882340416967448,
          -0.0036402432795394277,
          0.022728569453732327
        ],
        [
          0.18154664954823196,
          -0.045126451171591975,
          0.002759650482345829
        ],
        [
          -0.8715248327184927,
          -0.12493471506713523,
          1.0060074353021566
        ],
        [
          0.13751053199651622,
          -0.0876017717379083,
          -0.05979627969863243
        ]
      ],
      [
        [
          0.3003059730742329,
          0.3145774724125587,
          0.3284928423147915
        ],
        [
          0.11273381674525638,
          1.6078349166861339,
          0.0887001550528497
        ],
        [
          -0.48757350502260893,
          1.5904538780404551,
          0.09559616549219765
        ],
        [
          0.15948062636648894,
          0.33625037926144025,
          0.2815385495407392
        ],
        [
          -0.061795622383007856,
          1.4700467516689806,
          0.16435879255084906
        ],
        [
          0.03772050533859439,
          1.5507897965940052,
          0.14583083775400799
        ]
      ],
      [
        [
          -0.36167021490484735,
          -0.8716095633110891,
          0.2542891046409741
        ],
        [
          0.18962776563768785,
          -0.5962588393175633,
          1.7990011048735524
        ],
        [
          -0.4031187689731693,
          -0.352459657176288,
          -1.1527174648683165
        ],
        [
          -0.1177058189772427,
          -0.27779694945060013,
          0.38014330072411934
        ],
        [
          0.262198684848899,
          0.13671201626269086,
          1.4539956315324178
        ],
        [
          -1.5940998714258316,
          -1.1898091489448634,
          1.5579617273526645
        ]
      ],
      [
        [
          1.57972844891036,
          -0.1553719729391722,
          -1.443997045714846
        ],
        [
          -0.1279637392400583,
          -0.06852193364580547,
          0.0807160379499277
        ],
        [
          0.09553103348775636,
          0.02997742135595393,
          0.054653798282726936
        ],
        [
          0.06914241712574111,
          -0.1507340055934867,
          -0.029855751152068673
        ],
        [
          -0.8788067718441298,
          0.06620451238619249,
          1.0266044710905449
        ],
        [
          0.04816662212008861,
          0.015804204801730067,
          -0.010775118729570154
        ]
      ],
      [
        [
          0.22596741011555327,
          0.1747812459429952,
          0.25010808349713765
        ],
        [
          0.21495982442114103,
          1.5013342724705163,
          -0.052587182182686064
        ],
        [
          0.20682203918824735,
          1.5208413061821469,
          -0.03917082344056694
        ],
        [
          0.11437091591053467,
          0.1735990966353026,
          0.22854802817494962
        ],
        [
          0.02374137085345683,
          1.3850952035322897,
          0.1191310070389337
        ],
        [
          -0.007760860294188623,
          1.5363484737402653,
          0.13213835400968996
        ]
      ]
    ]
  },
  "metrics": {
    "stage1_min_cost": 0.10871600048008885,
    "stage2_min_cost": 0.2618297489341421,
    "mse_train_noise": 0.04208329887417109,
    "mse_train_recovered": 0.02982695175171789,
    "delta_train_pct": 29.124017009929837,
    "mse_test_noise": 0.03574197205136823,
    "mse_test_recovered": 0.02524943033616757,
    "delta_test_pct": 29.35635924095297,
    "mse_train_recovered_pure": 0.0036426597242221236,
    "mse_test_recovered_pure": 0.004181432978867252
  },
  "artifacts": {
    "weights_s1_file": "weights_s1_inst03_L3.npy",
    "weights_s2_file": "weights_s2_inst03_L3.npy",
    "circuit_stage1": "circuit_stage1_6q_4l_2t_sidekick_L03_inst03.eps",
    "circuit_stage2": "circuit_stage1_6q_4l_2t_sidekick_L03_inst03.eps",
    "circuit_full": "circuit_full_6q_4l_2t_sidekick_L3_inst03.eps",
    "training_cost_s1_plot": "training_cost_s1_dec500_enc001_inst03.eps",
    "training_cost_s2_plot": "training_cost_s2_dec500_enc001_inst03.eps",
    "reconstruction_pure_plot": "reconst_pure_dec500_enc001_inst03_L3.eps",
    "reconstruction_noisy_plot": "reconst_noisy_dec500_enc001_inst03_L3.eps"
  }
}