{
  "schema": {
    "name": "sidekick_qae_bundle",
    "version": "1.0"
  },
  "timestamp": "2026-02-25 11:36:56",
  "dataset": {
    "id": "mackey_glass_tau30_n200",
    "scale_low": 0.0,
    "scale_high": 1.0,
    "window_size": 6,
    "window_step": 2,
    "split": 0.75
  },
  "run": {
    "instance_id": 3,
    "layer": 3,
    "dec_epochs": 400,
    "enc_epochs": 1,
    "sigma_eval": 0.2,
    "test_seed_fixed": 99123,
    "device_seed": 13047,
    "stage1_time_sec": 139,
    "stage2_time_sec": 0
  },
  "environment": {
    "device": "lightning.qubit",
    "diff_method": "adjoint",
    "interface": "autograd"
  },
  "architecture": {
    "type": "sidekick",
    "n_qubits": 6,
    "n_latent": 4,
    "n_trash": 2,
    "rot": "Rxyz"
  },
  "parameters": {
    "weights_stage1": [
      [
        [
          -0.02005482898844067,
          -0.23189731894710403,
          0.01883754136869057
        ],
        [
          0.11861013974689193,
          -0.5766752504078415,
          1.453035333169578
        ],
        [
          -0.6166680831904695,
          -0.5113934327363646,
          -1.0042876388806476
        ],
        [
          -0.2891188417509103,
          -0.2935320492789463,
          0.2813894527512071
        ],
        [
          0.21472580125031668,
          0.0857269190493247,
          1.3445198375483145
        ],
        [
          -1.5721218629011644,
          -1.5740954028944338,
          1.4024418040659663
        ]
      ],
      [
        [
          1.485755805673111,
          -0.20576105445624168,
          -1.492047811941144
        ],
        [
          -0.10338598920246035,
          0.005690887895156213,
          0.10575526943483887
        ],
        [
          0.021647493376579258,
          0.0017082469955045931,
          -0.021407708085425945
        ],
        [
          0.057603635693203425,
          -0.0024469462788345104,
          -0.06298729139715327
        ],
        [
          -0.9001432094810399,
          0.014071294050924478,
          0.8993948691920697
        ],
        [
          0.07450182658139912,
          -0.030381974513629548,
          -0.06695925846775952
        ]
      ],
      [
        [
          0.2593092277441134,
          0.24191232069252885,
          0.28930046294914497
        ],
        [
          0.532562253051232,
          1.5863832468136758,
          0.017625580097627113
        ],
        [
          -0.03075181484887327,
          1.572422332961273,
          0.005334225427670906
        ],
        [
          0.12981642420235195,
          0.2460209114478848,
          0.25504328884587735
        ],
        [
          -0.0011270753504569362,
          1.3617702737494228,
          0.14174489980688337
        ],
        [
          -0.05052570863071074,
          1.5790824207970802,
          0.1389845958665372
        ]
      ]
    ],
    "weights_stage2": [
      [
        [
          0.10421814523669164,
          -0.7568662486344578,
          0.15599108236492396
        ],
        [
          0.11912863038565226,
          -0.6934125462466902,
          1.4215049578800338
        ],
        [
          -0.6950367671001239,
          -0.5301030519629397,
          -0.8674115899851548
        ],
        [
          -0.15564311127957853,
          -0.1969554116543851,
          0.17748114328651785
        ],
        [
          0.3358361377811744,
          0.06483789955672245,
          1.5170290826433985
        ],
        [
          -1.6628983244461983,
          -1.2517262834823772,
          1.575051087733808
        ]
      ],
      [
        [
          1.5248284721718768,
          -0.11842931520314753,
          -1.4562421465697797
        ],
        [
          -0.16770414569687164,
          0.00039142190957725323,
          0.03451805260139881
        ],
        [
          0.0202116931598915,
          -0.10681636308454533,
          -0.01156804663414742
        ],
        [
          0.06349837729190022,
          0.008811864865780741,
          -0.10650692959100001
        ],
        [
          -0.8578927643927438,
          -0.14403149077257554,
          0.9187826607759606
        ],
        [
          0.15135574984104194,
          -0.16715749120838283,
          -0.1008268212194347
        ]
      ],
      [
        [
          0.2993309022852749,
          0.3148150932068251,
          0.33520297675527605
        ],
        [
          0.11007955354923642,
          1.6468299738498033,
          0.09108559480934197
        ],
        [
          0.3625714081879235,
          1.6051818452985471,
          0.02957878106416632
        ],
        [
          0.14156866234621304,
          0.3054609522626631,
          0.27089282995341324
        ],
        [
          -0.09488589349893164,
          1.4960952853698095,
          0.160639202801869
        ],
        [
          0.0423243384837219,
          1.5654035848671075,
          0.18374827450456968
        ]
      ],
      [
        [
          -0.2050677649590513,
          -0.8998504452991084,
          -0.14469169135108362
        ],
        [
          0.0535209008659871,
          -0.4701303316829823,
          1.4273102158918285
        ],
        [
          -0.5745947159439618,
          -0.33735075297101025,
          -1.0000189203044934
        ],
        [
          -0.11987209295070499,
          -0.31463996524582055,
          0.40245492015395085
        ],
        [
          0.4570899198154108,
          0.12588727561166171,
          1.3378978647249966
        ],
        [
          -1.454849955233296,
          -2.166021453258266,
          1.5631863663048249
        ]
      ],
      [
        [
          1.5660702953718069,
          -0.11520169453640718,
          -1.4146068867902417
        ],
        [
          -0.06613423110351123,
          -0.023736499222775157,
          0.14555618103129597
        ],
        [
          0.0409318699713412,
          -0.023211547095005537,
          0.014375105868935742
        ],
        [
          0.012573648303362283,
          -0.10975255131148313,
          -0.03172980759191368
        ],
        [
          -0.8523521052800961,
          0.10643103491098688,
          0.9216160217036886
        ],
        [
          0.0196290687958763,
          -0.05050523212744608,
          -0.05355918593077502
        ]
      ],
      [
        [
          0.20690315968978784,
          0.16348084027403803,
          0.24339794914301394
        ],
        [
          0.22173734904123926,
          1.4877714628935685,
          -0.020955869576976833
        ],
        [
          -0.6083330182574105,
          1.6241836801157725,
          -0.051295182357003935
        ],
        [
          0.13188747273444995,
          0.2015548692114552,
          0.23919374773834137
        ],
        [
          -0.00036586188634453454,
          1.3634991095216988,
          0.12285059681189811
        ],
        [
          0.03407410522317525,
          1.560081332804939,
          0.0942209172285048
        ]
      ]
    ]
  },
  "metrics": {
    "stage1_min_cost": 0.10880963166123907,
    "stage2_min_cost": 0.26625155905730785,
    "mse_train_noise": 0.04208329887417109,
    "mse_train_recovered": 0.029900372772571644,
    "delta_train_pct": 28.94955107494389,
    "mse_test_noise": 0.03574197205136823,
    "mse_test_recovered": 0.024629685547554306,
    "delta_test_pct": 31.0903004675942,
    "mse_train_recovered_pure": 0.003584507775072543,
    "mse_test_recovered_pure": 0.004187678731206984
  },
  "artifacts": {
    "weights_s1_file": "weights_s1_inst03_L3.npy",
    "weights_s2_file": "weights_s2_inst03_L3.npy",
    "circuit_stage1": "circuit_stage1_6q_4l_2t_sidekick_L03_inst03.eps",
    "circuit_stage2": "circuit_stage1_6q_4l_2t_sidekick_L03_inst03.eps",
    "circuit_full": "circuit_full_6q_4l_2t_sidekick_L3_inst03.eps",
    "training_cost_s1_plot": "training_cost_s1_dec400_enc001_inst03.eps",
    "training_cost_s2_plot": "training_cost_s2_dec400_enc001_inst03.eps",
    "reconstruction_pure_plot": "reconst_pure_dec400_enc001_inst03_L3.eps",
    "reconstruction_noisy_plot": "reconst_noisy_dec400_enc001_inst03_L3.eps"
  }
}