{
  "schema": {
    "name": "sidekick_qae_bundle",
    "version": "1.0"
  },
  "timestamp": "2026-02-25 11:44:01",
  "dataset": {
    "id": "mackey_glass_tau30_n200",
    "scale_low": 0.0,
    "scale_high": 1.0,
    "window_size": 6,
    "window_step": 2,
    "split": 0.75
  },
  "run": {
    "instance_id": 6,
    "layer": 3,
    "dec_epochs": 400,
    "enc_epochs": 1,
    "sigma_eval": 0.2,
    "test_seed_fixed": 99123,
    "device_seed": 13050,
    "stage1_time_sec": 139,
    "stage2_time_sec": 0
  },
  "environment": {
    "device": "lightning.qubit",
    "diff_method": "adjoint",
    "interface": "autograd"
  },
  "architecture": {
    "type": "sidekick",
    "n_qubits": 6,
    "n_latent": 4,
    "n_trash": 2,
    "rot": "Rxyz"
  },
  "parameters": {
    "weights_stage1": [
      [
        [
          -1.570572901517112,
          -1.5712285367990135,
          1.4980775314906531
        ],
        [
          0.020391896782086822,
          0.09703482140594386,
          1.5335939140743329
        ],
        [
          -0.38581175703764886,
          -0.697910923247223,
          -1.18248756618017
        ],
        [
          0.4427455883760125,
          -0.6304089783045527,
          -0.3426753495645981
        ],
        [
          0.5182776155171329,
          -1.0336372994863203,
          0.31507902138241994
        ],
        [
          -0.13146799059807587,
          -0.29577104099174656,
          0.0995994906107685
        ]
      ],
      [
        [
          -0.2850659522675146,
          -0.008675588072345877,
          0.2821727367461919
        ],
        [
          0.15964114436329813,
          -0.00918030007490605,
          0.3417029643190166
        ],
        [
          0.08402813881241923,
          0.06245479453022448,
          -0.1687364208255297
        ],
        [
          0.18306765670026132,
          0.021310718470221725,
          -0.1980544056134719
        ],
        [
          -0.34468392702289646,
          0.04265497074955802,
          0.33561398702801537
        ],
        [
          -0.07078662828862402,
          -0.00792656520414595,
          0.06928589885315915
        ]
      ],
      [
        [
          0.10177923136367811,
          0.11127701151411874,
          0.21259338022385532
        ],
        [
          0.06185843363090996,
          1.5619997844693063,
          0.22640432746848885
        ],
        [
          -0.04219178123916629,
          1.5714066343956505,
          0.16765587710019092
        ],
        [
          0.22838132243673862,
          0.21203543347837905,
          0.2835331183765611
        ],
        [
          0.00424664144740641,
          1.411615962955165,
          0.01202400975828659
        ],
        [
          0.03016156416115084,
          1.5788195831056304,
          0.10096771600084534
        ]
      ]
    ],
    "weights_stage2": [
      [
        [
          -1.5777286589765438,
          -1.5225033480126922,
          1.3046704988016744
        ],
        [
          0.04724318886628562,
          0.01335306204999779,
          1.5750671153758247
        ],
        [
          -0.28881169653247774,
          -0.6615473731644691,
          -1.1638444034977296
        ],
        [
          -0.013528930282156675,
          -0.5845388490716026,
          -0.2923862155899849
        ],
        [
          -0.13773272045311508,
          -0.9198467644633527,
          0.29385543121556074
        ],
        [
          -0.002127315373157499,
          -0.6477540053274881,
          0.003989268903162892
        ]
      ],
      [
        [
          -0.26515109471402465,
          -0.010776921961774495,
          0.2729811868648793
        ],
        [
          0.016848645649265998,
          -0.013268693935853115,
          0.20126005714507114
        ],
        [
          0.010732893546986724,
          -0.051289343646729116,
          -0.2439448122956937
        ],
        [
          0.18067115071778062,
          0.03378187560144466,
          -0.20507621370187634
        ],
        [
          -0.366203109746821,
          0.06466923538908068,
          0.3384478068602603
        ],
        [
          -0.0009579746147126526,
          -0.014633436847189454,
          0.08004059609797422
        ]
      ],
      [
        [
          0.06811867239809939,
          0.12339168360380881,
          0.18965131194817852
        ],
        [
          0.5579493953929316,
          1.5700758684948188,
          -0.06856237422550421
        ],
        [
          -0.2202904988998958,
          1.4944243558532466,
          0.030892603194570975
        ],
        [
          0.23883230758105914,
          0.1942343277306457,
          0.289994376963293
        ],
        [
          0.0777267972582243,
          1.6423274542211659,
          -0.009205482608159645
        ],
        [
          0.023860171518707486,
          1.563877526878164,
          0.16580586247795945
        ]
      ],
      [
        [
          -1.658579416177683,
          -1.8119540054945251,
          1.2219613369971354
        ],
        [
          -0.05040668514084936,
          0.17773969996891548,
          1.4789390149216188
        ],
        [
          -0.2690797289004452,
          -0.676350840201668,
          -1.2730313832709825
        ],
        [
          0.03247769811761671,
          -0.6799701359800442,
          -0.3711289254988715
        ],
        [
          -0.028520670720921727,
          -0.7958545275127873,
          0.18082238199785278
        ],
        [
          -0.1534160427877706,
          -0.6595096949390233,
          0.06976827961865231
        ]
      ],
      [
        [
          -0.2666423584668629,
          0.022432818893758172,
          0.2620477216769894
        ],
        [
          0.1012916937957859,
          -0.08165389932583295,
          0.28710630984626717
        ],
        [
          0.004204693144276489,
          -0.08592246952109997,
          -0.24469013422995362
        ],
        [
          0.16399858647195614,
          0.116157542565016,
          -0.23192710945271008
        ],
        [
          -0.34596705147023005,
          0.03688029325307085,
          0.32139650840528217
        ],
        [
          -0.04389714758943199,
          -0.03650365622943836,
          0.05099211039281605
        ]
      ],
      [
        [
          0.14510570440002538,
          0.11167603989379904,
          0.235535448499532
        ],
        [
          -0.32265931635755957,
          1.5403559142480856,
          -0.15512445977572037
        ],
        [
          -0.2710708738833871,
          1.5534285327212012,
          -0.10501301778491517
        ],
        [
          0.2005070705555458,
          0.20979881295149497,
          0.2770718597898291
        ],
        [
          -0.020923233983281875,
          1.5352165757376726,
          0.033253502124732694
        ],
        [
          0.13450413877895673,
          1.5222598178120617,
          0.036129569523731794
        ]
      ]
    ]
  },
  "metrics": {
    "stage1_min_cost": 0.10799939311470581,
    "stage2_min_cost": 0.2668724117349464,
    "mse_train_noise": 0.04208329887417109,
    "mse_train_recovered": 0.027338932497401013,
    "delta_train_pct": 35.03614681172138,
    "mse_test_noise": 0.03574197205136823,
    "mse_test_recovered": 0.022720653983933834,
    "delta_test_pct": 36.43144829479529,
    "mse_train_recovered_pure": 0.00392953751303885,
    "mse_test_recovered_pure": 0.006252899433161295
  },
  "artifacts": {
    "weights_s1_file": "weights_s1_inst06_L3.npy",
    "weights_s2_file": "weights_s2_inst06_L3.npy",
    "circuit_stage1": "circuit_stage1_6q_4l_2t_sidekick_L03_inst06.eps",
    "circuit_stage2": "circuit_stage1_6q_4l_2t_sidekick_L03_inst06.eps",
    "circuit_full": "circuit_full_6q_4l_2t_sidekick_L3_inst06.eps",
    "training_cost_s1_plot": "training_cost_s1_dec400_enc001_inst06.eps",
    "training_cost_s2_plot": "training_cost_s2_dec400_enc001_inst06.eps",
    "reconstruction_pure_plot": "reconst_pure_dec400_enc001_inst06_L3.eps",
    "reconstruction_noisy_plot": "reconst_noisy_dec400_enc001_inst06_L3.eps"
  }
}