{
  "schema": {
    "name": "sidekick_qae_bundle",
    "version": "1.0"
  },
  "timestamp": "2025-12-02 14:42:33",
  "dataset": {
    "id": "mackey_glass_tau17_n200",
    "scale_low": 0.0,
    "scale_high": 1.0,
    "window_size": 4,
    "window_step": 2,
    "split": 0.75
  },
  "run": {
    "instance_id": 2,
    "layer": 4,
    "sigma_eval": 0.2,
    "test_seed_fixed": 99123,
    "device_seed": 14046,
    "stage1_time_sec": 167,
    "stage2_time_sec": 311
  },
  "environment": {
    "device": "lightning.qubit",
    "diff_method": "adjoint",
    "interface": "autograd"
  },
  "architecture": {
    "type": "sidekick",
    "n_qubits": 4,
    "n_latent": 2,
    "n_trash": 2,
    "rot": "Rxyz"
  },
  "parameters": {
    "weights_stage1": [
      [
        [
          -1.5713578714155112,
          -1.5749570869894367,
          -0.03378052607188643
        ],
        [
          0.04026231671864829,
          0.14465493729849915,
          -1.6120036467325762
        ],
        [
          1.5691198326348366,
          -1.575518351962309,
          -1.5740150865748028
        ],
        [
          1.5709620321440207,
          -1.5755241650773604,
          -1.2898822917123731
        ]
      ],
      [
        [
          1.0695643777315011,
          0.7308741644367602,
          0.38793614012625727
        ],
        [
          0.5436096958451166,
          -0.12578494219627873,
          0.26471891155116456
        ],
        [
          1.0501056514145366,
          0.012068623363931543,
          -0.4578845802504523
        ],
        [
          -0.35427160688619147,
          0.21299133638710868,
          -0.44252844538039915
        ]
      ],
      [
        [
          -0.5925278944694662,
          0.4387400676150366,
          1.5723318863727753
        ],
        [
          -0.49586102578208296,
          0.00026811065017796903,
          -0.35704707670430197
        ],
        [
          0.9342667015741061,
          0.3989692715696146,
          0.597791028472798
        ],
        [
          0.002266646227521081,
          1.5699165262537058,
          1.4536226062858375
        ]
      ],
      [
        [
          -0.20930336137610156,
          0.7288354837122053,
          0.060819437312551884
        ],
        [
          -0.38427660682220743,
          1.096117443905991,
          0.041922421121854604
        ],
        [
          1.483433294621135,
          1.5694714335309021,
          0.2504302180577384
        ],
        [
          0.225413119721009,
          -1.5719529188355266,
          0.02925812065560166
        ]
      ]
    ],
    "weights_stage2": [
      [
        [
          -1.7939846460583297,
          -1.6300395094552302,
          0.05473211415261239
        ],
        [
          0.1208834766084411,
          1.2691041660936502,
          -1.5113472976530906
        ],
        [
          1.6702996663147827,
          -1.5353372000148777,
          -1.430369303979608
        ],
        [
          1.5528383887934958,
          -1.6175089190416245,
          -1.0770189961245622
        ]
      ],
      [
        [
          0.6771091076433944,
          0.7924376781333544,
          0.70462795756609
        ],
        [
          0.5517411357875741,
          -0.5517804964804748,
          -0.2419886948396732
        ],
        [
          1.76626039010367,
          0.10470167895210526,
          -0.7199980357424295
        ],
        [
          0.7924766594164676,
          -0.08828569447516751,
          -1.0299982035363753
        ]
      ],
      [
        [
          -0.854641349961444,
          0.5892276408065309,
          1.3975506829721824
        ],
        [
          -1.083330783938052,
          0.15602708302135052,
          -0.25273210403066804
        ],
        [
          0.6316648661147473,
          0.7191860358722114,
          0.7802761371533765
        ],
        [
          -1.6081743739745762,
          4.121760005510695,
          0.002787099808327158
        ]
      ],
      [
        [
          -0.49970610696270895,
          0.4329833802432001,
          0.06587810417564335
        ],
        [
          -0.12789908945299358,
          1.3412595043908093,
          -0.01929707348273262
        ],
        [
          1.8920363875918893,
          3.063232233388209,
          0.5267948212713276
        ],
        [
          -0.004935565320844013,
          -1.5594650206230287,
          0.029258120360570343
        ]
      ]
    ]
  },
  "metrics": {
    "stage1_min_cost": 0.04014403212688486,
    "stage2_min_cost": 0.1213844809848179,
    "mse_train_noise": 0.0404157849091556,
    "mse_train_recovered": 0.02845497926416602,
    "delta_train_pct": 29.594391577138556,
    "mse_test_noise": 0.041028325215984866,
    "mse_test_recovered": 0.030979460352832562,
    "delta_test_pct": 24.492505629348017,
    "mse_train_recovered_pure": 0.007313939857070203,
    "mse_test_recovered_pure": 0.011103532699183174
  },
  "artifacts": {
    "weights_s1_file": "weights_s1_inst02_L4.npy",
    "weights_s2_file": "weights_s2_inst02_L4.npy",
    "circuit_stage1": "circuit_stage1_4q_2l_2t_sidekick_L4_inst02.eps",
    "circuit_stage2": "circuit_stage2_4q_2l_2t_sidekick_L4_inst02.eps",
    "circuit_full": "circuit_full_4q_2l_2t_sidekick_L4_inst02.eps",
    "training_cost_s1_plot": "training_cost_s1_inst02_L4.eps",
    "training_cost_s2_plot": "training_cost_s2_inst02_L4.eps",
    "reconstruction_pure_plot": "reconstruction_pure_inst02_L4.eps",
    "reconstruction_noisy_plot": "reconstruction_noisy_inst02_L4.eps"
  }
}